Id,Epoch:0,Epoch:1,Epoch:2,Epoch:3,Epoch:4,Epoch:5,Epoch:6,Epoch:7,Epoch:8,Epoch:9,Epoch:10,Epoch:11,Epoch:12,Epoch:13,Epoch:14,Epoch:15,Epoch:16,Epoch:17,Epoch:18,Epoch:19,Epoch:20,Epoch:21,Epoch:22,Epoch:23,Epoch:24,Epoch:25,Epoch:26,Epoch:27,Epoch:28,Epoch:29,Epoch:30,Epoch:31,Epoch:32,Epoch:33,Epoch:34,Epoch:35,Epoch:36,Epoch:37,Epoch:38,Epoch:39,Epoch:40,Epoch:41,Epoch:42,Epoch:43,Epoch:44,Epoch:45,Epoch:46,Epoch:47,Epoch:48,Epoch:49,Epoch:50,Epoch:51,Epoch:52,Epoch:53,Epoch:54,Epoch:55,Epoch:56,Epoch:57,Epoch:58,Epoch:59,Epoch:60,Epoch:61,Epoch:62,Epoch:63,Epoch:64,Epoch:65,Epoch:66,Epoch:67,Epoch:68,Epoch:69,Epoch:70,Epoch:71,Epoch:72,Epoch:73,Epoch:74,Epoch:75,Epoch:76,Epoch:77,Epoch:78,Epoch:79,Epoch:80,Epoch:81,Epoch:82,Epoch:83,Epoch:84,Epoch:85,Epoch:86,Epoch:87,Epoch:88,Epoch:89,Epoch:90,Epoch:91,Epoch:92,Epoch:93,Epoch:94,Epoch:95,Epoch:96,Epoch:97,Epoch:98,Epoch:99,Epoch:100
0,-0.03110617585480213,-0.028119979426264763,-0.02588286809623241,-0.025367271155118942,-0.023805586621165286,-0.021507715806365013,-0.022849788889288902,-0.021724691614508632,-0.019086124375462532,-0.018907397985458367,-0.016384733840823174,-0.015271076932549475,-0.013989989645779131,-0.01151829119771719,-0.011008241213858128,-0.008743131533265114,-0.007479992695152758,-0.005479035899043083,-0.004550497513264418,-0.0018440447747707367,-0.0009756088256835938,0.0017270800890401006,0.0025841863825917244,0.0038711419329047203,0.006201392970979214,0.00755174411460757,0.00807937141507864,0.011200201697647572,0.01263534277677536,0.01508655585348606,0.015071889385581015,0.016221504658460617,0.01803413778543473,0.017346492037177086,0.0191472452133894,0.02130923792719841,0.02231905236840248,0.023750364780426025,0.025945790112018585,0.02602691203355789,0.028879180550575256,0.02848105318844318,0.028419766575098038,0.02987937070429325,0.031759440898895264,0.03305941820144653,0.03441078588366508,0.034530088305473335,0.03573901578783989,0.036307476460933685,0.03747764229774475,0.03944725170731545,0.04087018966674805,0.041563350707292564,0.043360531330108636,0.04354891180992127,0.04532584175467491,0.045173704624176025,0.04800572246313095,0.047156978398561485,0.04904911667108537,0.049839381128549576,0.05011475831270218,0.051268890500068665,0.05129614472389221,0.05252774804830551,0.05241486057639122,0.05376493185758592,0.054688893258571625,0.055153101682662964,0.05598944798111916,0.05599261075258255,0.05752871558070183,0.05778757855296135,0.05973487347364425,0.05959076806902885,0.06038184463977814,0.061284825205802924,0.06321155279874803,0.06425201892852782,0.06531385332345963,0.06515255570411682,0.06519260257482529,0.06718747317790985,0.0665319561958313,0.06845240294933319,0.06762006878852844,0.0684303343296051,0.06952137500047684,0.07116420567035675,0.07041478157043457,0.07157284021377562,0.07125996053218843,0.07359486073255539,0.07452014833688736,0.07485491782426834,0.07474061101675034,0.07481896877288817,0.07641704380512238,0.07669323682785034,0.0767362043261528
1,-0.022996999323368083,-0.030499912798404694,-0.041108936071395874,-0.05160621553659439,-0.05934923142194747,-0.0658181756734848,-0.07438449561595918,-0.08217336982488632,-0.08859505504369736,-0.09347765147686003,-0.10029671341180801,-0.10438454151153563,-0.10885070264339447,-0.11298056691884995,-0.11760440468788147,-0.12045314162969588,-0.12513770163059235,-0.12830927968025208,-0.13226176798343658,-0.13437794148921967,-0.13783368468284607,-0.1416819989681244,-0.1447652131319046,-0.14793004095554352,-0.15031199157238007,-0.15412144362926486,-0.15605171024799347,-0.1587236225605011,-0.15960241854190824,-0.16122537851333618,-0.16394133865833282,-0.16635727882385254,-0.16826368868350985,-0.17124181985855105,-0.17270193994045258,-0.17456796765327454,-0.1759583055973053,-0.17922766506671906,-0.17950741946697235,-0.1830253005027771,-0.18152669072151184,-0.183536097407341,-0.185484915971756,-0.18778707087039948,-0.18811744451522827,-0.189866304397583,-0.19089213013648987,-0.1942620724439621,-0.19415169954299927,-0.19527851045131686,-0.19663453102111814,-0.1974763423204422,-0.19814357161521912,-0.2002403885126114,-0.20069178938865664,-0.20143131911754608,-0.2016700953245163,-0.20312482118606567,-0.2033829241991043,-0.20455917716026306,-0.20585669577121726,-0.2048960626125336,-0.20768846571445465,-0.20677366852760315,-0.20813439786434174,-0.2097133845090866,-0.2106214463710785,-0.21106961369514465,-0.21273888647556305,-0.2127412110567093,-0.2130826115608216,-0.21296340227127075,-0.21444593369960785,-0.21604663133621216,-0.2151954472064972,-0.21666592359542847,-0.2164413034915924,-0.21662166714668274,-0.21691976487636566,-0.21700841188430786,-0.218493327498436,-0.2200239449739456,-0.22027716040611267,-0.21964077651500705,-0.22224009037017825,-0.2209511697292328,-0.2221677154302597,-0.22336114943027496,-0.2238304018974304,-0.22395025193691254,-0.2236512005329132,-0.2241648584604264,-0.224855437874794,-0.2254694104194641,-0.2249017059803009,-0.22528742253780365,-0.2260906398296356,-0.22619859874248505,-0.2271491736173629,-0.22677020728588104,-0.2278672456741333
2,-0.09590086340904236,-0.09477129578590393,-0.10116556286811827,-0.10430899262428284,-0.1083553433418274,-0.11113806813955307,-0.11011847108602524,-0.11128667742013933,-0.11391492187976834,-0.11450986564159392,-0.1154577061533928,-0.11687366664409635,-0.1176099181175232,-0.11918147653341292,-0.1193109005689621,-0.12127755582332612,-0.12127015739679335,-0.12298817187547685,-0.12266670912504195,-0.12536856532096866,-0.1254945546388626,-0.12734267115592954,-0.12755562365055084,-0.12814363837242124,-0.12974102795124054,-0.13057824969291687,-0.13112346827983856,-0.13282014429569244,-0.13395611941814425,-0.13511022925376892,-0.1352662891149521,-0.1359860897064209,-0.13696901500225067,-0.1360674500465393,-0.13763917982578278,-0.13898132741451266,-0.13984060287475586,-0.13978810608386993,-0.14089500904083252,-0.14034757018089294,-0.14300306141376495,-0.1424078643321991,-0.14205585420131686,-0.14270958304405212,-0.14415493607521054,-0.1449769139289856,-0.14606302976608276,-0.14460048079490662,-0.14564000070095062,-0.14638768136501312,-0.14679422974586487,-0.1478165090084076,-0.14903917908668518,-0.14858445525169373,-0.15012086927890778,-0.15104538202285767,-0.15222808718681335,-0.15144120156764984,-0.15374895930290222,-0.1528235524892807,-0.15392059087753296,-0.15532396733760834,-0.15463589131832126,-0.15569815039634705,-0.15544718503952026,-0.1559358686208725,-0.15592311322689054,-0.15654177963733673,-0.1566907912492752,-0.15748172998428345,-0.15789033472537994,-0.15832097828388214,-0.1585783064365387,-0.15871165692806244,-0.15995438396930695,-0.1593070924282074,-0.16067896783351898,-0.16088658571243286,-0.16286398470401764,-0.16394668817520142,-0.16457675397396088,-0.1643497198820114,-0.1647406667470932,-0.1661108434200287,-0.1650078445672989,-0.16711053252220154,-0.16575565934181213,-0.16619861125946045,-0.16677367687225342,-0.16778908669948578,-0.16767540574073792,-0.16889126598834991,-0.16789357364177704,-0.17040014266967773,-0.170835480093956,-0.1712770164012909,-0.17163312435150144,-0.17138497531414032,-0.17309080064296722,-0.17276529967784882,-0.17262275516986847
3,0.09451568871736526,0.09239280223846437,0.0913332924246788,0.09061390161514282,0.08995872735977173,0.08804164826869965,0.08648023009300232,0.08335988223552704,0.08112739771604538,0.07887747883796692,0.0757559984922409,0.0738818496465683,0.07094969600439073,0.06812310218811035,0.06494352966547012,0.06389135122299194,0.05988578870892525,0.05775057524442673,0.054204601794481284,0.05202709883451462,0.04997347295284271,0.04692833498120308,0.04380574077367783,0.04106837511062622,0.038898006081581116,0.03565753996372223,0.034932639449834824,0.03033075667917728,0.028503721579909325,0.025337645784020424,0.022670535370707512,0.02029762230813504,0.01742289587855339,0.015371649526059628,0.012339899316430092,0.01029943861067295,0.008143225684762001,0.004420771729201078,0.0017968709580600262,-0.002013987861573696,-0.0025891950353980064,-0.005018704570829868,-0.007413839455693959,-0.01084978599101305,-0.012341508641839027,-0.015237590298056602,-0.016756422817707062,-0.02197664976119995,-0.022916847839951515,-0.024358849972486496,-0.027350518852472302,-0.030146257951855663,-0.032202892005443566,-0.036621887236833565,-0.036771584302186966,-0.039732467383146286,-0.0405782125890255,-0.043595291674137115,-0.04514437913894653,-0.047592591494321816,-0.05100013688206674,-0.05044650286436081,-0.054948024451732635,-0.055647693574428565,-0.05848636105656624,-0.061582092195749276,-0.06293016672134401,-0.0651988685131073,-0.06751754879951477,-0.07027379423379898,-0.07233943790197372,-0.07276774942874907,-0.07601486146450043,-0.07779552042484282,-0.0802609845995903,-0.0818437784910202,-0.08337951451539992,-0.08543524146080017,-0.0864819884300232,-0.08858125656843185,-0.09100191295146942,-0.09369993209838867,-0.09502067416906357,-0.09651748090982436,-0.09985463321208954,-0.1007811650633812,-0.10176678746938704,-0.1049051582813263,-0.10738708823919296,-0.10996679216623306,-0.10991328209638596,-0.1124838814139366,-0.11424794793128967,-0.11575587838888167,-0.117172509431839,-0.11906302720308305,-0.12113410979509355,-0.1220044419169426,-0.12518443167209625,-0.12588337063789368,-0.1296263039112091
4,-0.07623251527547836,-0.07842914015054703,-0.07908979803323746,-0.08100195974111557,-0.08228778094053267,-0.08342767506837845,-0.0904497429728508,-0.0990067422389984,-0.11041267216205597,-0.12017710506916045,-0.12483487278223038,-0.1340550035238266,-0.13854992389678955,-0.14144828915596008,-0.1466347724199295,-0.1500537097454071,-0.155330091714859,-0.15768320858478546,-0.1605338305234909,-0.16321556270122528,-0.16626788675785065,-0.16811394691467285,-0.1701022833585739,-0.17233364284038544,-0.17358852922916412,-0.17535682022571564,-0.17914709448814392,-0.17743535339832306,-0.17977535724639893,-0.18066032230854034,-0.1829572319984436,-0.18253982067108154,-0.1838202327489853,-0.18642006814479828,-0.1862773448228836,-0.1861739456653595,-0.1884162425994873,-0.18901880085468287,-0.1884620040655136,-0.19029152393341064,-0.18997114896774286,-0.190902516245842,-0.1914481818675995,-0.1915396898984909,-0.19035488367080688,-0.1902621239423752,-0.1918160617351532,-0.19151979684829712,-0.19033023715019226,-0.19138896465301514,-0.19033534824848167,-0.1897999197244644,-0.1891081929206848,-0.1879766583442688,-0.18930934369564054,-0.18920306861400604,-0.18827387690544128,-0.1888369172811508,-0.1886855810880661,-0.18890514969825745,-0.18818672001361847,-0.1885746866464615,-0.18829229474067688,-0.1896456629037857,-0.19037100672721866,-0.18944765627384186,-0.1909983903169632,-0.1905345320701599,-0.19175437092781067,-0.1913468092679977,-0.19162994623184204,-0.1917918920516968,-0.19037814438343048,-0.1910737305879593,-0.19106175005435946,-0.19180727005004888,-0.19108781218528748,-0.190907821059227,-0.19122204184532168,-0.1899075955152512,-0.19054833054542544,-0.19023047387599945,-0.192440465092659,-0.19075971841812134,-0.19145449995994568,-0.1918452829122544,-0.19376084208488464,-0.19359612464904785,-0.1926725506782532,-0.19140897691249847,-0.19178429245948792,-0.1925983428955078,-0.19271913170814514,-0.19228288531303409,-0.1922977268695832,-0.1923828721046448,-0.19269928336143494,-0.19254226982593536,-0.1913042962551117,-0.19142204523086548,-0.19246116280555725
5,0.20186305046081546,0.2150842845439911,0.2273005396127701,0.2387358695268631,0.25000113248825073,0.2612816393375397,0.2701708674430847,0.2794448435306549,0.2881309688091278,0.29452234506607056,0.3036745488643646,0.309124618768692,0.31476929783821106,0.32041028141975403,0.3256136178970337,0.3297748863697052,0.3350507915019989,0.3390214443206787,0.34226009249687195,0.34573161602020264,0.3492236137390137,0.3535372018814087,0.35590100288391113,0.3588806986808777,0.3614452183246613,0.36472728848457336,0.3661154210567473,0.36935955286026,0.37091803550720215,0.3733144700527191,0.37377893924713135,0.37551480531692505,0.377013236284256,0.3782178163528441,0.3795042932033539,0.38174229860305786,0.3827313482761383,0.3856314420700073,0.3867934048175812,0.3887084126472473,0.3894087970256805,0.38989391922950745,0.39042967557907104,0.3920922875404358,0.3929768204689026,0.3942677974700928,0.395693838596344,0.39661478996276855,0.3966809213161469,0.3971133530139923,0.39784902334213257,0.39900818467140203,0.399452805519104,0.3997087180614472,0.40196552872657776,0.39985156059265137,0.4010198712348938,0.4008266627788544,0.4024791121482849,0.4009431600570679,0.40208899974823,0.4014971256256104,0.401690810918808,0.4014168977737427,0.4008301496505737,0.40150186419487,0.4013298451900482,0.4014953076839447,0.4030037224292755,0.4008999466896057,0.4004376232624054,0.3996528387069702,0.4006661176681519,0.400999128818512,0.4002101719379425,0.4010272026062012,0.3994901180267334,0.3992540836334229,0.4002655744552612,0.3990596532821655,0.3998582065105438,0.39916738867759705,0.3979658782482147,0.397804856300354,0.3975237011909485,0.3968164324760437,0.3970287442207336,0.3964845836162567,0.3960406482219696,0.39556849002838135,0.3939011991024017,0.3930216431617737,0.39229756593704224,0.39323166012763977,0.3924403488636017,0.3912713527679443,0.3897897005081177,0.389216810464859,0.38852134346961975,0.38804891705513,0.3859272003173828
6,0.08318062126636505,0.07870250940322876,0.07287395745515822,0.07219453901052475,0.06802397221326828,0.0649900883436203,0.06293332576751709,0.059989612549543374,0.05558823049068451,0.05094507336616516,0.05031279474496842,0.045716479420661926,0.04274119064211845,0.04108649492263794,0.038802996277809136,0.0362168550491333,0.03383417055010796,0.03149592876434326,0.030502509325742718,0.026613011956214905,0.025693779811263084,0.02290217019617557,0.02160390466451645,0.019774958491325385,0.017950473353266716,0.016187623143196106,0.014099025167524816,0.01262292731553316,0.010192619636654854,0.008612049743533134,0.006298817228525877,0.005146339070051909,0.003959394991397858,0.0023579262197017674,0.00015253204037435353,-0.00034181357477791613,-0.002751191379502416,-0.0030113039538264275,-0.00313322595320642,-0.004970796406269074,-0.006602836772799492,-0.007544398307800294,-0.008167734369635582,-0.009549081325531006,-0.010236961767077446,-0.011694625951349735,-0.013849515467882156,-0.013549620285630226,-0.013656916096806526,-0.015305036678910255,-0.015594172291457653,-0.0164920836687088,-0.017756259068846703,-0.017354248091578484,-0.019167127087712288,-0.02198304608464241,-0.022118231281638145,-0.022076083347201347,-0.0242456067353487,-0.02383335866034031,-0.02526417002081871,-0.02668446488678456,-0.026559151709079742,-0.028046568855643272,-0.028387857601046562,-0.028880510479211807,-0.02998889796435833,-0.03008553571999073,-0.03095539659261704,-0.03225428238511085,-0.03301457315683365,-0.03325893729925156,-0.03262631967663765,-0.03333606198430061,-0.03415733203291893,-0.034371670335531235,-0.035819347947835915,-0.03580998256802559,-0.03795779496431352,-0.03869812935590744,-0.0397433303296566,-0.04017193615436554,-0.04224076122045517,-0.041624780744314194,-0.04183979332447052,-0.04410160332918167,-0.043224845081567764,-0.04431437700986862,-0.04465346410870552,-0.04497222229838371,-0.0449061281979084,-0.04706267267465592,-0.04519160836935043,-0.0484747514128685,-0.04822471737861633,-0.04907402396202088,-0.05076092854142189,-0.04969765245914458,-0.05172639712691307,-0.05089528113603592,-0.05205101892352104
7,-0.0898350328207016,-0.07561606913805008,-0.06252282112836838,-0.051494453102350235,-0.041068293154239655,-0.03198341280221939,-0.02277724631130696,-0.014547770842909813,-0.007200258783996104,0.0005544289015233517,0.005924161057919264,0.012387551367282873,0.017949646338820457,0.02234228327870369,0.02797744981944561,0.031985394656658166,0.036507535725831985,0.04057635739445686,0.04383257403969765,0.048195693641901016,0.05143539607524872,0.05499785766005516,0.0579928420484066,0.06107645109295845,0.06332208216190338,0.06687705963850021,0.06997454166412354,0.07157723605632782,0.07436059415340424,0.07553697377443314,0.07912463694810867,0.08158333599567412,0.08334898948669434,0.08649662137031555,0.08910118043422699,0.09017916023731233,0.09253836423158646,0.09393026679754256,0.09394045174121857,0.09752567857503892,0.09775244444608687,0.10026830434799194,0.10241995006799698,0.10437338799238204,0.10492126643657684,0.10692600905895233,0.10905848443508148,0.1102961078286171,0.11064168065786363,0.1129034459590912,0.11380402743816374,0.1144382581114769,0.11560019850730895,0.11619271337985992,0.11764679104089736,0.12045847624540328,0.12046780437231065,0.12160533666610718,0.1227419525384903,0.1236562430858612,0.12496358156204225,0.1260276585817337,0.12728175520896912,0.12788626551628113,0.12931320071220398,0.13020645081996918,0.13206224143505094,0.13208775222301486,0.13360904157161713,0.13507087528705594,0.13561685383319855,0.13655881583690646,0.13628751039505005,0.13807880878448486,0.1376992166042328,0.13906081020832062,0.1404055655002594,0.1402384638786316,0.14185741543769834,0.14252513647079468,0.14399175345897675,0.1456606090068817,0.14759878814220428,0.1462680697441101,0.1481732428073883,0.14900730550289154,0.14948897063732147,0.15083938837051392,0.15115472674369812,0.1509970873594284,0.1517188549041748,0.15346786379814148,0.15256959199905396,0.15488408505916595,0.15421836078166962,0.15525531768798828,0.1574440598487854,0.15706586837768555,0.1589326560497284,0.1581144630908966,0.15947671234607697
8,-0.0727570503950119,-0.06032729521393776,-0.049659885466098785,-0.03779279440641403,-0.02826126106083393,-0.01886572316288948,-0.01076082605868578,-0.00443558767437935,9.306562424171716e-05,0.002763163764029741,0.009314647875726223,0.01038198359310627,0.01222089771181345,0.01468408387154341,0.01641521230340004,0.017933253198862076,0.01917228847742081,0.0199645571410656,0.02071718499064445,0.01984325610101223,0.02134442701935768,0.0215489212423563,0.021221010014414787,0.021153524518013,0.020794045180082318,0.02100426517426968,0.020535213872790337,0.01965913735330105,0.018091825768351555,0.017018578946590424,0.014959659427404404,0.014615648426115513,0.013773050159215929,0.012985960580408571,0.01105534378439188,0.011445570737123493,0.009564501233398914,0.010072631761431694,0.009389705024659634,0.008072580210864544,0.006726930383592844,0.005612514447420836,0.004947138018906117,0.0037692803889513016,0.003319759154692292,0.0018429232295602558,0.0005421284586191176,-0.0007337185088545084,-0.0009507299400866033,-0.0022098778281360865,-0.0031774796079844236,-0.004435742739588022,-0.005846921820193529,-0.007217269856482743,-0.007213334087282418,-0.01154892984777689,-0.010940654203295708,-0.012523495592176914,-0.013700495474040508,-0.015108345076441763,-0.017087562009692192,-0.01794786937534809,-0.019312337040901184,-0.02137133292853832,-0.023171691223979,-0.024122640490531918,-0.025540141388773918,-0.026395078748464584,-0.02707246132194996,-0.03055959939956665,-0.03223555535078049,-0.03287079930305481,-0.03294803574681282,-0.03336481750011444,-0.03603750094771385,-0.03619334474205972,-0.03856788948178291,-0.039625801146030426,-0.04083891212940216,-0.04269328340888024,-0.04375530034303665,-0.04525703564286232,-0.04798222333192825,-0.04814817011356354,-0.04945468530058862,-0.05225135013461113,-0.051681917160749435,-0.05396849289536476,-0.05543443560600282,-0.057050507515668876,-0.05752478167414665,-0.06062775477766993,-0.06017936021089554,-0.062394056469202035,-0.06343277543783188,-0.06535738706588745,-0.06812946498394012,-0.06781911104917526,-0.0706833153963089,-0.07076505571603775,-0.07420511543750763
9,0.09287849068641664,0.09287849068641664,0.09287849068641664,0.09287849068641664,0.09287849068641664,0.09287849068641664,0.09287849068641664,0.09287849068641664,0.09287849068641664,0.09287849068641664,0.09287849068641664,0.09287849068641664,0.09287849068641664,0.09287849068641664,0.09287849068641664,0.09287849068641664,0.09287849068641664,0.09287849068641664,0.09287849068641664,0.09287849068641664,0.09287849068641664,0.09287849068641664,0.09287849068641664,0.09287849068641664,0.09287849068641664,0.09287849068641664,0.09287849068641664,0.09287849068641664,0.09287849068641664,0.09287849068641664,0.09287849068641664,0.09287849068641664,0.09287849068641664,0.09287849068641664,0.09287849068641664,0.09287849068641664,0.09287849068641664,0.09287849068641664,0.09287849068641664,0.09287849068641664,0.09287849068641664,0.09287849068641664,0.09287849068641664,0.09287849068641664,0.09287849068641664,0.09287849068641664,0.09287849068641664,0.09287849068641664,0.09287849068641664,0.09287849068641664,0.09287849068641664,0.09287849068641664,0.09287849068641664,0.09287849068641664,0.09287849068641664,0.09287849068641664,0.09287849068641664,0.09287849068641664,0.09287849068641664,0.09287849068641664,0.09287849068641664,0.09287849068641664,0.09287849068641664,0.09287849068641664,0.09287849068641664,0.09287849068641664,0.09287849068641664,0.09287849068641664,0.09287849068641664,0.09287849068641664,0.09287849068641664,0.09287849068641664,0.09287849068641664,0.09287849068641664,0.09287849068641664,0.09287849068641664,0.09287849068641664,0.09287849068641664,0.09287849068641664,0.09287849068641664,0.09287849068641664,0.09287849068641664,0.09287849068641664,0.09287849068641664,0.09287849068641664,0.09287849068641664,0.09287849068641664,0.09287849068641664,0.09287849068641664,0.09287849068641664,0.09287849068641664,0.09287849068641664,0.09287849068641664,0.09287849068641664,0.09287849068641664,0.09287849068641664,0.09287849068641664,0.09287849068641664,0.09287849068641664,0.09287849068641664,0.09287849068641663
10,-0.01898772269487381,-0.013990318402647972,-0.00875135138630867,-0.004300665110349654,0.002684025792405009,0.009902733378112316,0.017157724127173424,0.025238532572984692,0.033244680613279336,0.0414898581802845,0.04793643206357956,0.05547166243195534,0.06260747462511063,0.06759092956781387,0.0738445445895195,0.07803758978843689,0.08570214360952377,0.08977316319942474,0.09425599128007887,0.09913311153650284,0.10226711630821228,0.1077192798256874,0.11178897321224213,0.11586203426122665,0.117493137717247,0.12135376036167145,0.12393738329410553,0.12678511440753934,0.12835538387298584,0.13010673224925995,0.13308271765708926,0.13505524396896362,0.13768382370471954,0.14049416780471802,0.1420408934354782,0.1436913013458252,0.14707131683826447,0.15028183162212372,0.1503916233778,0.1557469367980957,0.15601472556591034,0.1601538211107254,0.16095298528671265,0.1645866483449936,0.16681182384490967,0.169258713722229,0.17203760147094727,0.17528724670410156,0.1749168187379837,0.17556820809841156,0.1783585250377655,0.17914097011089325,0.1809632033109665,0.18309995532035828,0.18345065414905548,0.186319500207901,0.1860572099685669,0.1874801516532898,0.18902267515659327,0.191243514418602,0.19327449798583984,0.19461284577846527,0.1976940780878067,0.19747266173362726,0.1972462683916092,0.19962742924690247,0.20252947509288788,0.20195502042770386,0.2035902589559555,0.20454461872577667,0.20636653900146484,0.2078564316034317,0.2073867917060852,0.2095619589090348,0.20936883985996246,0.21153868734836576,0.21205295622348785,0.212107926607132,0.2135050743818283,0.21474482119083405,0.2158646285533905,0.2175636887550354,0.21965163946151733,0.21914388239383686,0.2221030294895172,0.2229505032300949,0.2233040481805801,0.2258071154356003,0.22834746539592746,0.2288155853748321,0.2291917204856873,0.2297617495059967,0.2299606800079345,0.2318478673696518,0.2325359433889389,0.23294614255428314,0.23543158173561096,0.2359975725412369,0.2387696355581284,0.23732444643974304,0.2380441576242447
11,0.05394608899950981,0.04139423370361328,0.03087696805596352,0.02435615286231041,0.016923258081078533,0.011497403495013714,0.006972857750952244,0.003382456721737981,-0.0020145345479249954,-0.006238657981157303,-0.009019593708217144,-0.013554736040532587,-0.01642313040792942,-0.018016485497355458,-0.019610319286584854,-0.0221040491014719,-0.02496457658708096,-0.026328010484576225,-0.02681860886514187,-0.028824647888541218,-0.0300741046667099,-0.0317688062787056,-0.03198450803756714,-0.03305603936314583,-0.034182462841272354,-0.034227941185235984,-0.03615686297416687,-0.035588204860687256,-0.03728681802749634,-0.03822105377912522,-0.03781665861606598,-0.03752017393708229,-0.037091609090566635,-0.03817890211939812,-0.0375787578523159,-0.037330061197280884,-0.038108013570308685,-0.037589531391859055,-0.03693966567516327,-0.036623962223529816,-0.03764185681939125,-0.03696273267269135,-0.03582350164651872,-0.03509266674518585,-0.034505274146795266,-0.033813923597335815,-0.03504437953233719,-0.0328214131295681,-0.03189358115196228,-0.03162640333175658,-0.030183881521224976,-0.02978463657200336,-0.029009245336055763,-0.02613990008831024,-0.02850668877363205,-0.02638830617070198,-0.02609343454241753,-0.024724313989281654,-0.02538694441318512,-0.022877754643559456,-0.02195994183421135,-0.02251607179641724,-0.019328132271766663,-0.02035197801887989,-0.01844797097146511,-0.016682928428053856,-0.016639506444334984,-0.015413770452141762,-0.01562859304249287,-0.013213413767516613,-0.01241586450487375,-0.011623100377619268,-0.009560426697134972,-0.008428797125816345,-0.007632414810359478,-0.007759217638522386,-0.005921795964241028,-0.0049140769988298425,-0.005255669821053743,-0.003036842448636889,-0.0022733507212251425,-0.00026819645427167416,-0.0004358108271844685,0.0011912307236343622,0.003234625793993473,0.002699716482311487,0.0026396033354103565,0.00431526405736804,0.006010137964040041,0.007887790910899639,0.008620701730251312,0.0096927247941494,0.01148435939103365,0.010992235504090786,0.011666066013276577,0.013060081750154495,0.01440663542598486,0.015445436351001263,0.018260708078742027,0.018054686486721042,0.021088218316435814
12,-0.10110735148191452,-0.08794927597045897,-0.07559563219547273,-0.06569141894578934,-0.05384066700935364,-0.04232265055179596,-0.0327548086643219,-0.022861633449792862,-0.0138197373598814,-0.005697697401046753,0.002798417117446661,0.009480821900069714,0.016164245083928108,0.02209705114364624,0.028200773522257805,0.033526565879583366,0.03945551812648773,0.04400597885251045,0.04797891154885292,0.05282045900821687,0.05632205680012702,0.06171196326613426,0.06438717246055603,0.0677766352891922,0.07037760317325592,0.07456476986408234,0.07666126638650894,0.07981739938259125,0.08117653429508209,0.08308861404657364,0.08533180505037308,0.08744785189628601,0.08938185125589371,0.091471329331398,0.09359295666217804,0.09524445980787276,0.09714680910110474,0.10015660524368286,0.09986693412065506,0.1029832437634468,0.1026804894208908,0.10382816195487976,0.10533642768859863,0.10767681151628494,0.10857278108596803,0.1097436249256134,0.11135613918304443,0.11199462413787843,0.1119052991271019,0.11341987550258635,0.1136152446269989,0.11399244517087935,0.114573635160923,0.1141061782836914,0.1153608188033104,0.11614865064620973,0.11693165451288225,0.11536628007888795,0.11674532294273375,0.11536140739917755,0.11579596251249312,0.11597823351621628,0.11610041558742525,0.11448243260383605,0.11333532631397247,0.11431075632572175,0.1140974462032318,0.11369561403989792,0.1142425611615181,0.11274050176143645,0.11227153241634368,0.1111082136631012,0.1110101044178009,0.11265446990728376,0.11024569720029832,0.11039205640554428,0.11009324342012404,0.10887543112039566,0.1105341836810112,0.1101307049393654,0.1111251264810562,0.11159274727106094,0.1125197783112526,0.11135391145944597,0.11195337772369383,0.11192043125629424,0.11143169552087784,0.11150740832090378,0.11090009659528732,0.11070059984922408,0.11026658862829207,0.11175867170095444,0.11008811742067336,0.11300387233495712,0.11269968748092653,0.11259891837835312,0.11325718462467195,0.1122446432709694,0.11423106491565704,0.11361769586801528,0.11429578065872192
13,0.1867336183786392,0.19491742551326752,0.20196089148521426,0.20811389386653886,0.2138794362545013,0.21901863813400269,0.2259156554937363,0.2321162223815918,0.23731763660907745,0.2439993619918823,0.2475955784320832,0.2531448006629944,0.2583358585834503,0.26214015483856196,0.2674122154712677,0.27044093608856196,0.2755168676376343,0.27891379594802856,0.28307804465293884,0.28680768609046936,0.2898760735988617,0.29320794343948364,0.2969153523445129,0.3003076016902924,0.3026526272296905,0.30619940161705017,0.3091346323490143,0.3117121160030365,0.3147389888763428,0.3168475925922394,0.3211187422275543,0.3237640261650085,0.32624584436416626,0.3300344944000244,0.33305472135543823,0.3340590298175812,0.3368741869926453,0.3391622304916382,0.3400990962982178,0.34458136558532715,0.34453853964805603,0.3478151261806488,0.3506416976451874,0.3534008264541626,0.354068785905838,0.35659828782081604,0.3586503267288208,0.3625136315822601,0.3630067706108093,0.3651878237724304,0.3670977056026459,0.3686274886131287,0.3701711893081665,0.3728581368923187,0.3732452690601349,0.3774372935295105,0.37731871008872986,0.3800621330738068,0.3809395432472229,0.3834642767906189,0.3856967687606812,0.38619616627693176,0.3894241750240326,0.3904546797275543,0.3931682407855988,0.3950740993022919,0.3972901403903961,0.3983766138553619,0.4003632068634033,0.4032436013221741,0.40493685007095337,0.4058491885662079,0.4068906307220459,0.40889546275138855,0.4101763367652893,0.4120013713836671,0.4137774109840393,0.4148859083652496,0.4159040451049805,0.41748687624931335,0.4193967282772064,0.42207694053649897,0.4247434139251709,0.4241806268692017,0.4274962544441223,0.4286183714866638,0.4298424422740936,0.432485431432724,0.4339928925037384,0.435120701789856,0.4360730051994324,0.4387263655662537,0.4393156170845032,0.4409424364566803,0.44147789478302,0.4433635473251343,0.4463038146495819,0.446686327457428,0.4491357505321503,0.4494421184062958,0.4529750347137451
14,-0.16168078780174255,-0.17461147904396054,-0.1846460998058319,-0.19248521327972407,-0.2017221301794052,-0.2104981690645218,-0.2172062247991562,-0.2243364304304123,-0.2320108413696289,-0.2379388958215713,-0.2453748881816864,-0.2510597407817841,-0.2565256357192993,-0.2615896761417389,-0.26585108041763306,-0.2703954875469208,-0.27616071701049805,-0.2796805500984192,-0.2831675112247467,-0.28700587153434753,-0.2902814745903015,-0.2949407994747162,-0.29723259806633,-0.3003852963447571,-0.3033939599990845,-0.3061026930809021,-0.3083029091358185,-0.3111600875854492,-0.3133067488670349,-0.31627604365348816,-0.31682759523391724,-0.31818196177482605,-0.31985753774642944,-0.3214245140552521,-0.3225314021110535,-0.32420071959495544,-0.32581084966659546,-0.3283653259277344,-0.32931071519851685,-0.33085989952087397,-0.3321230411529541,-0.3322822153568268,-0.3325118720531464,-0.3340335190296173,-0.3348502218723297,-0.3356718420982361,-0.33751460909843445,-0.3381750881671905,-0.33820465207099915,-0.338504821062088,-0.3388814628124237,-0.34016776084899897,-0.3405638635158539,-0.34025785326957697,-0.3428165912628174,-0.34114038944244385,-0.34254390001296997,-0.3418043255805969,-0.34403344988822937,-0.3421112895011902,-0.3430313467979431,-0.34320759773254395,-0.342765212059021,-0.3433709740638733,-0.3424061238765717,-0.3427256345748901,-0.34246259927749634,-0.3426956832408905,-0.34413614869117737,-0.341877281665802,-0.34196093678474426,-0.3409826159477234,-0.34154245257377625,-0.3415432274341583,-0.3413172960281372,-0.34211599826812744,-0.3404190838336945,-0.34041258692741394,-0.3416498005390167,-0.3403906524181366,-0.3408573865890503,-0.3395194411277771,-0.3392892479896545,-0.3389724195003509,-0.3379763662815094,-0.3383549153804779,-0.33857932686805725,-0.33794042468070984,-0.3374307453632355,-0.3370939791202545,-0.3356873095035553,-0.3352054953575134,-0.33382314443588257,-0.3351826369762421,-0.3346583545207977,-0.3335239589214325,-0.33208543062210083,-0.33162474632263184,-0.33040475845336914,-0.330855131149292,-0.32899412512779236
15,0.20413269102573395,0.19184300303459167,0.1802263259887696,0.168264701962471,0.1554429531097412,0.14272132515907288,0.13210806250572205,0.12109405547380447,0.11048497259616852,0.10243628919124603,0.09147857129573822,0.0847204178571701,0.07784759253263474,0.07127156853675842,0.06550859659910202,0.0597778856754303,0.0532102957367897,0.04869266599416733,0.04467853158712387,0.04041019827127457,0.03622815012931824,0.030670253559947014,0.028262997046113014,0.024440409615635872,0.021229451522231102,0.01744299381971359,0.015245801769196987,0.011851270683109759,0.009671100415289402,0.006879129447042942,0.005923151038587093,0.003818597877398133,0.0016907021636143331,4.6702756662853055e-05,-0.0015858487458899615,-0.004094237461686134,-0.005244160536676645,-0.008853385224938394,-0.009973274543881416,-0.012292580679059029,-0.01327953953295946,-0.013790416531264782,-0.014381255023181437,-0.01674385368824005,-0.017885712906718254,-0.018983600661158558,-0.02072257176041603,-0.022085411474108696,-0.022385787218809128,-0.02300485782325268,-0.02394162490963936,-0.02549605257809161,-0.02620188146829605,-0.02679521031677724,-0.029287848621606823,-0.027684593573212624,-0.029564855620265007,-0.0291863065212965,-0.03174514323472977,-0.03028788603842258,-0.031674303114414215,-0.03154795244336128,-0.03220333904027939,-0.0321841798722744,-0.0316341258585453,-0.033001214265823364,-0.0328342542052269,-0.03368641063570976,-0.035498782992362976,-0.03339451551437378,-0.033668015152215965,-0.032744135707616806,-0.03450360149145126,-0.03529394045472145,-0.03523679077625275,-0.03620640188455582,-0.035013046115636826,-0.03531594201922417,-0.0367562510073185,-0.03602518513798714,-0.037254415452480316,-0.036936208605766296,-0.0361868292093277,-0.03660927712917328,-0.036392800509929664,-0.0364961102604866,-0.03651011362671852,-0.036491286009550095,-0.03649294376373291,-0.03674650192260742,-0.03518132120370865,-0.03500071167945862,-0.034566640853881836,-0.03641997650265694,-0.035941410809755325,-0.03506602719426155,-0.03372486680746078,-0.03362729400396347,-0.03356194868683815,-0.03343060240149498,-0.032161977142095566
16,0.014756716787815094,0.010956558398902416,0.007866047322750092,0.0043246429413557035,-0.00042812878382392233,-0.0046656737104058274,-0.01105976291000843,-0.014769302681088448,-0.017219504341483116,-0.02102227322757244,-0.02413342148065567,-0.026402439922094345,-0.0292485523968935,-0.030340025201439857,-0.03288568928837776,-0.034661419689655304,-0.03707442805171013,-0.037578169256448746,-0.039265334606170654,-0.03906461969017983,-0.04060214012861252,-0.0411410927772522,-0.04160545766353607,-0.04233089834451675,-0.04187963902950287,-0.04260052740573883,-0.04377551004290581,-0.042062755674123764,-0.04141831025481224,-0.04028668254613876,-0.041223697364330285,-0.040993407368659966,-0.04076284542679787,-0.04254048690199852,-0.0413714163005352,-0.040535617619752884,-0.04072318971157074,-0.04110594093799591,-0.03932033851742744,-0.040784947574138634,-0.03805174306035042,-0.03875568509101869,-0.03991349041461945,-0.039856743067502975,-0.0386667437851429,-0.03781142458319664,-0.03756217285990715,-0.03813791275024414,-0.037424944341182716,-0.037693627178668976,-0.03669104725122452,-0.03543063253164292,-0.034197229892015464,-0.03354012593626976,-0.033213678747415536,-0.03320987522602081,-0.0328746996819973,-0.03259054571390152,-0.03128807619214058,-0.03164001181721686,-0.03031093999743462,-0.03038647212088108,-0.030642902478575706,-0.029344247654080387,-0.029064351692795764,-0.028824273496866226,-0.029201230034232136,-0.028353914618492126,-0.02828103676438332,-0.02703309990465641,-0.026875060051679608,-0.026725821197032932,-0.02600961923599243,-0.027275124564766884,-0.025141866877675056,-0.02582972310483456,-0.02529841288924217,-0.02486210688948632,-0.024375040084123608,-0.023680688813328743,-0.023924201726913445,-0.024010110646486282,-0.0245952308177948,-0.022926904261112213,-0.024340985342860225,-0.02255968376994133,-0.02402501180768013,-0.02373402938246727,-0.022846609354019158,-0.02123469300568104,-0.022197611629962918,-0.0216036718338728,-0.02182597108185292,-0.02101373672485352,-0.019837677478790283,-0.01976419985294342,-0.02009008638560772,-0.020068423822522163,-0.01871641539037228,-0.018492814153432846,-0.018376171588897705
17,0.1041029617190361,0.09302926808595656,0.08178999274969101,0.07459694147109985,0.06601366400718689,0.05874166637659072,0.052452050149440765,0.044598788022995,0.036826491355896,0.029222596436738968,0.024230439215898517,0.017051352187991142,0.010651936754584312,0.005236047320067882,-0.0012663626112043858,-0.006122554652392864,-0.01106789615005255,-0.016859140247106552,-0.02099129557609558,-0.027748139575123787,-0.030896453186869618,-0.03682413324713707,-0.04099496826529503,-0.045216932892799384,-0.049236897379159934,-0.05462806299328804,-0.05740369111299515,-0.0629098191857338,-0.06648862361907959,-0.06968679279088974,-0.07501387596130371,-0.07852890342473984,-0.08233966678380966,-0.08584868162870407,-0.09178027510643004,-0.09433392435312273,-0.0987529307603836,-0.1019839644432068,-0.10374195873737337,-0.10904298722743988,-0.11097510159015657,-0.11456040292978288,-0.11773479729890825,-0.12234905362129213,-0.12454228848218918,-0.12893405556678772,-0.13245780766010284,-0.13607391715049744,-0.13732227683067322,-0.1412116289138794,-0.14417611062526706,-0.14673912525177002,-0.15020427107810974,-0.15351730585098267,-0.15532490611076355,-0.16164708137512207,-0.16248413920402527,-0.16501861810684204,-0.1686936318874359,-0.17074991762638092,-0.17519734799861908,-0.17684227228164673,-0.18097642064094546,-0.18260426819324493,-0.18603350222110748,-0.1896604150533676,-0.1924573928117752,-0.194597601890564,-0.1973082721233368,-0.20192334055900574,-0.2043803334236145,-0.2056858092546463,-0.20788632333278656,-0.211138054728508,-0.2136336714029312,-0.21505853533744806,-0.2190064936876297,-0.220209077000618,-0.2238144874572754,-0.2270006537437439,-0.2305114418268204,-0.2341509014368057,-0.2374866604804993,-0.2384277433156967,-0.2417692691087723,-0.2448534220457077,-0.2443463057279587,-0.2484223544597625,-0.25086212158203125,-0.2534548342227936,-0.25382059812545776,-0.25855615735054016,-0.2578598260879517,-0.2629635334014893,-0.2635709047317505,-0.26645058393478394,-0.2705956995487213,-0.2704683840274811,-0.27615806460380554,-0.2751770615577698,-0.27957138419151306
18,-0.009085112251341343,-0.00328364921733737,0.0061960904859006405,0.012884898111224171,0.02068374678492546,0.02756889723241329,0.030710697174072262,0.03524991124868393,0.04137386009097098,0.04541245102882385,0.04941832274198532,0.053837087005376816,0.05745357647538185,0.0611516572535038,0.06365540623664856,0.0676884725689888,0.07088976353406906,0.07418958842754364,0.07597898691892624,0.08042145520448685,0.08225303888320923,0.08608800172805786,0.08765188604593277,0.08993815630674362,0.09280900657176973,0.09493178129196167,0.09701038897037506,0.09967225044965744,0.10221737623214723,0.10472020506858826,0.1059170812368393,0.1074572056531906,0.1092975065112114,0.11003613471984863,0.11217769980430604,0.11395050585269928,0.11591672152280807,0.11701130867004395,0.11830031871795656,0.1192985698580742,0.12205652892589568,0.122254878282547,0.12250282615423205,0.1240035519003868,0.12552471458911896,0.12691962718963626,0.12911441922187805,0.1285148411989212,0.12934082746505735,0.1305827796459198,0.13117218017578125,0.13268612325191498,0.1340353935956955,0.13360100984573364,0.1361238807439804,0.13722461462020874,0.138537660241127,0.13804258406162262,0.14104273915290833,0.13987566530704498,0.14140351116657254,0.14297154545783994,0.1424085944890976,0.1439696103334427,0.14375579357147214,0.14439576864242554,0.14491046965122226,0.14553551375865936,0.1465488076210022,0.14691878855228424,0.14760945737361908,0.14773671329021454,0.14791403710842133,0.14841991662979126,0.14967715740203855,0.1497664600610733,0.1506728082895279,0.1509549617767334,0.15333649516105652,0.1539863795042038,0.15495513379573822,0.15466377139091492,0.1557769775390625,0.1563553810119629,0.15560221672058105,0.15794788300991058,0.15711532533168793,0.15768754482269287,0.15811240673065186,0.15878163278102875,0.15842097997665405,0.1598634272813797,0.15839451551437378,0.16151510179042816,0.161755308508873,0.16207286715507507,0.1625836193561554,0.1620885133743286,0.16346566379070282,0.1633327305316925,0.1632353663444519
19,0.09219732880592346,0.09268413484096527,0.0934860184788704,0.09071211516857147,0.09104613214731216,0.0906323865056038,0.08895352482795715,0.08832965046167374,0.09016328305006027,0.09125372022390366,0.09096863865852356,0.09329148381948472,0.09419117122888564,0.09447646141052246,0.09437619149684906,0.0957864671945572,0.0969882756471634,0.09770460426807404,0.09744605422019956,0.09968146681785583,0.09986573457717897,0.10108059644699097,0.10101071000099182,0.10187134146690367,0.10270757973194122,0.1026194542646408,0.10382995754480362,0.10397933423519136,0.1057620421051979,0.10684662312269212,0.1066451221704483,0.10637503117322923,0.10654149204492568,0.10661788284778596,0.10720790177583693,0.106928288936615,0.10805761069059372,0.1073039323091507,0.10689499229192734,0.10650867968797684,0.10811533033847807,0.10726484656333923,0.10618794709444046,0.10599586367607117,0.10592140257358552,0.10563930124044416,0.10683490335941316,0.10462116450071336,0.10396266728639604,0.1036604940891266,0.10259725898504256,0.10241962224245073,0.10208350419998168,0.10011006891727448,0.10157091170549393,0.10116515308618547,0.1012047529220581,0.09951311349868774,0.10087013244628906,0.09876532107591628,0.09885908663272858,0.09943078458309174,0.09705529361963272,0.09817725419998168,0.09697885811328888,0.095681332051754,0.09567024558782578,0.0949764996767044,0.09507716447114943,0.09463059902191162,0.09414570778608322,0.09342578798532486,0.09197092056274414,0.09119614213705064,0.09157491475343704,0.09117714315652847,0.09084025025367737,0.0902942195534706,0.09134471416473387,0.0905245691537857,0.09023860841989516,0.08887892961502075,0.08951693028211594,0.08866629749536514,0.08706619590520859,0.08873244374990462,0.08770672231912613,0.087088942527771,0.08655168861150743,0.08603484183549881,0.08489326387643814,0.08551061898469925,0.08348599821329117,0.08518080413341522,0.08452507853507996,0.08389335870742798,0.08376950770616531,0.08271552622318268,0.08244813978672028,0.08190792053937912,0.08117901533842087
20,-0.12738025188446045,-0.12322359532117845,-0.12054409086704256,-0.1197935715317726,-0.11821261793375015,-0.11555150896310805,-0.11658567935228348,-0.11608344316482545,-0.11491286009550095,-0.11502078920602796,-0.11369556933641435,-0.11339303851127625,-0.11311842501163485,-0.11125331372022627,-0.1111665815114975,-0.1101992055773735,-0.1104542911052704,-0.10987373441457747,-0.10890978574752808,-0.10782986879348756,-0.10768206417560576,-0.10715562105178833,-0.1066921204328537,-0.10660150647163393,-0.10574902594089508,-0.10519704967737198,-0.10545402765274048,-0.1038636565208435,-0.10504771023988724,-0.10260714590549468,-0.10353583842515944,-0.10288555920124054,-0.10144641995429993,-0.1023026779294014,-0.10163892060518263,-0.10050079971551897,-0.10066426545381546,-0.1004411205649376,-0.09966568648815156,-0.09953870624303818,-0.09819693118333817,-0.09853792935609818,-0.09949646890163424,-0.09860902279615402,-0.09830400347709656,-0.09700391441583632,-0.09696174412965776,-0.0971430242061615,-0.09562426805496216,-0.0965932309627533,-0.09551703184843063,-0.0955098643898964,-0.09492195397615433,-0.09485235065221786,-0.09376085549592973,-0.0932365357875824,-0.09278318285942078,-0.09349268674850464,-0.0918433517217636,-0.09153442829847336,-0.09035506844520567,-0.09084879606962204,-0.0912834405899048,-0.09066238254308699,-0.09131458401679993,-0.09004464000463486,-0.08991572260856627,-0.09033090621232986,-0.08978214859962462,-0.08959802985191345,-0.08884108811616898,-0.08941401541233063,-0.08736107498407364,-0.08886517584323883,-0.0879061371088028,-0.08814191818237305,-0.08710089325904846,-0.08770868927240373,-0.08738604187965393,-0.08681327104568481,-0.08521942794322968,-0.08673747628927231,-0.08628875017166138,-0.08597502112388611,-0.08594642579555511,-0.08483391255140305,-0.0855313315987587,-0.08532630652189255,-0.08516084402799606,-0.08325324207544328,-0.08429880440235138,-0.08290807902812958,-0.08402007073163986,-0.08329114317893982,-0.08308883756399155,-0.08347573131322861,-0.08357501029968263,-0.08377527445554732,-0.08272147178649902,-0.08313681185245514,-0.08225937932729721
21,-0.17749617993831635,-0.1861720234155655,-0.1973583698272705,-0.207504540681839,-0.2156905233860016,-0.2220872193574905,-0.2291459739208221,-0.2365594357252121,-0.24333181977272034,-0.2474706172943115,-0.2539002299308777,-0.25770437717437744,-0.26233622431755066,-0.2656614780426025,-0.269754022359848,-0.2724384665489197,-0.27726930379867554,-0.2804325520992279,-0.2835610806941986,-0.2857076823711395,-0.2883127331733704,-0.291688472032547,-0.2942526340484619,-0.29754599928855896,-0.2976307272911072,-0.3020878434181213,-0.3032979667186737,-0.3055019676685333,-0.3058382570743561,-0.3070688843727112,-0.3088392913341522,-0.31120020151138306,-0.3121969997882843,-0.3138914704322815,-0.3146804571151733,-0.3167121708393097,-0.3163259029388428,-0.31889307498931885,-0.3174794912338257,-0.3204759955406189,-0.3190492689609528,-0.32096928358078003,-0.3219053149223328,-0.3244830667972565,-0.32374727725982666,-0.3246457278728485,-0.3244434893131256,-0.32719287276268005,-0.3263128101825714,-0.3266909718513489,-0.32697102427482605,-0.3274629414081573,-0.3269762098789215,-0.3292204439640045,-0.32840102910995483,-0.3286565244197845,-0.3286510705947876,-0.32903677225112915,-0.3290567696094513,-0.32908210158348083,-0.3301315009593964,-0.32875484228134155,-0.33129698038101196,-0.3295128643512726,-0.3306051194667816,-0.331511914730072,-0.33118659257888794,-0.3314626216888428,-0.3326139450073242,-0.3318931758403778,-0.33187708258628845,-0.33138564229011536,-0.3312731981277466,-0.3321826159954071,-0.3321868777275085,-0.33265453577041626,-0.3315350413322449,-0.3315305709838867,-0.3317641317844391,-0.3311026692390442,-0.3313333392143249,-0.33278509974479675,-0.3327176868915558,-0.33130383491516113,-0.33342722058296204,-0.33219996094703674,-0.3325631320476532,-0.33234572410583496,-0.3323988616466522,-0.3319808840751648,-0.3313771188259125,-0.3316342830657959,-0.3321214020252228,-0.3317407965660095,-0.3317811489105225,-0.3313934803009033,-0.3326877951622009,-0.3318461775779724,-0.3323225378990173,-0.33229437470436096,-0.33235809206962585
22,-0.14934927225112915,-0.1455734372138977,-0.14864569902420044,-0.15072700381278992,-0.1528501808643341,-0.1548907458782196,-0.15430861711502075,-0.15407517552375793,-0.15389059484004974,-0.15332399308681488,-0.15251968801021576,-0.1525196135044098,-0.1510358601808548,-0.15150290727615354,-0.1504550576210022,-0.15022701025009155,-0.14767296612262726,-0.1470995396375656,-0.14594246447086334,-0.1457081139087677,-0.1448252946138382,-0.1436905562877655,-0.1427735835313797,-0.14104823768138885,-0.14122314751148224,-0.14003567397594452,-0.1391233056783676,-0.13880674540996552,-0.13694016635417938,-0.13687513768672946,-0.13528327643871307,-0.13445957005023956,-0.13423088192939758,-0.13272194564342502,-0.1322990506887436,-0.13199761509895325,-0.13148905336856842,-0.12981507182121274,-0.1296345591545105,-0.12844236195087433,-0.1289251297712326,-0.12738247215747833,-0.1259615570306778,-0.12525805830955505,-0.12476247549057007,-0.12525640428066254,-0.1249951869249344,-0.1227107271552086,-0.1234436109662056,-0.12247257679700853,-0.12254729121923448,-0.12122566252946855,-0.12164658308029175,-0.1200411319732666,-0.12077765166759492,-0.1210615411400795,-0.1205492913722992,-0.11914719641208647,-0.1197451949119568,-0.11955997347831725,-0.11944252997636795,-0.1191946417093277,-0.11768117547035215,-0.11787868291139605,-0.11674194037914275,-0.1168113499879837,-0.11667153984308246,-0.11583057790994646,-0.11490902304649353,-0.11516130715608595,-0.11506623029708862,-0.11462857574224472,-0.1156427562236786,-0.11384585499763487,-0.11349395662546158,-0.11269903928041458,-0.11428042501211165,-0.11320214718580245,-0.1132168546319008,-0.11355581879615785,-0.11478672921657562,-0.11279195547103882,-0.112997405230999,-0.1131214201450348,-0.11225581169128418,-0.1131230965256691,-0.11179806292057036,-0.11196968704462053,-0.11164969205856323,-0.11296501010656355,-0.11191250383853912,-0.11319436877965927,-0.11114285886287688,-0.11255503445863724,-0.11148886382579803,-0.111594520509243,-0.11141542345285416,-0.11061909049749374,-0.11180220544338226,-0.1104866936802864,-0.11079606413841248
23,0.04306541755795479,0.0475224144756794,0.05386259779334068,0.05958568304777145,0.0641060397028923,0.06731705367565155,0.07353875041007996,0.0762363150715828,0.07911525666713715,0.08189350366592407,0.08464017510414124,0.0882340744137764,0.08954507857561111,0.09197045117616652,0.09414783120155333,0.09722292423248292,0.0975947007536888,0.1000070571899414,0.10118217766284944,0.10303231328725816,0.10552725195884703,0.1066293567419052,0.10766175389289856,0.10911313444375992,0.1127704605460167,0.11267648637294768,0.11607102304697035,0.11554589867591858,0.11851923167705535,0.11878672242164612,0.12085088342428207,0.12144359946250916,0.12234613299369812,0.124669186770916,0.1261461228132248,0.12741895020008087,0.13002192974090576,0.1298619657754898,0.13258835673332214,0.13223329186439514,0.13546393811702728,0.1356707513332367,0.1382775604724884,0.1382436752319336,0.1405215859413147,0.1416899412870407,0.14446404576301575,0.14306019246578214,0.14519070088863373,0.14785276353359222,0.14940083026885986,0.15046052634716034,0.15278294682502747,0.15174266695976255,0.1557256579399109,0.15580323338508606,0.15819458663463593,0.15961866080760956,0.1608862578868866,0.16211111843585968,0.1624433547258377,0.1661466360092163,0.16576756536960602,0.16808170080184934,0.16892209649085999,0.16954363882541654,0.17170900106430054,0.1731332689523697,0.173770472407341,0.1750590056180954,0.17588050663471222,0.17873036861419678,0.17969082295894626,0.1817443668842316,0.18171647191047668,0.1837366372346878,0.18566469848155973,0.1871982216835022,0.1894742101430893,0.1906895488500595,0.19205190241336825,0.19254893064498896,0.1937336027622223,0.1966780722141266,0.1962607353925705,0.19771966338157654,0.200183629989624,0.2015106976032257,0.20232799649238584,0.20355211198329928,0.20596548914909368,0.2064138650894165,0.2071758508682251,0.20963534712791448,0.2099967300891876,0.2125563323497772,0.2127777636051178,0.21525214612483973,0.21581825613975525,0.2176164388656616,0.217523455619812
24,0.1540420651435852,0.1537989228963852,0.1560470163822174,0.15704967081546786,0.1579774171113968,0.15800398588180542,0.15306562185287476,0.14697301387786865,0.1382138431072235,0.12906086444854736,0.12503977119922638,0.1151643842458725,0.11088139563798904,0.10665879398584366,0.10026227682828903,0.09515659511089324,0.08826024830341339,0.08362707495689392,0.07879830151796341,0.07481906563043594,0.06947016716003418,0.06559660285711287,0.06121643260121345,0.05667986720800401,0.0520097091794014,0.04879575595259666,0.042244266718626015,0.04093222692608833,0.03532307595014572,0.03282193094491958,0.02823170647025108,0.026850184425711632,0.02405422367155552,0.018644804134964943,0.01623527519404888,0.0134418997913599,0.008326180279254913,0.005626387428492308,0.0024640061892569065,-0.0016810325905680654,-0.00395196583122015,-0.007100128103047609,-0.010851984843611715,-0.0134427510201931,-0.014616790227591991,-0.01741746999323368,-0.02121586911380291,-0.02355124801397324,-0.0244049858301878,-0.028190515935420987,-0.02970695123076439,-0.0316644161939621,-0.03402920439839363,-0.03503931313753128,-0.038459394127130515,-0.03976863622665405,-0.04103158414363861,-0.04449669271707535,-0.04597928375005722,-0.047800358384847634,-0.04934365302324295,-0.052141398191452026,-0.054475247859954834,-0.05732491239905356,-0.059705387800931924,-0.06079585105180741,-0.06363143026828766,-0.06611590087413788,-0.06903916597366333,-0.07083900272846222,-0.07258949428796768,-0.0751083642244339,-0.07572498172521591,-0.0786948949098587,-0.08051949739456178,-0.08318828791379929,-0.08385174721479416,-0.08654122799634932,-0.08844248205423355,-0.08923500031232834,-0.0911806747317314,-0.09238660335540773,-0.0955515205860138,-0.09703732281923294,-0.09871068596839903,-0.10038094967603683,-0.10323543846607207,-0.1049519181251526,-0.10626490414142607,-0.10688001662492752,-0.10840597003698348,-0.11025594919919968,-0.11129045486450197,-0.1129966601729393,-0.1138242930173874,-0.11579516530036925,-0.11741206049919127,-0.11832370609045027,-0.11891065537929535,-0.12072573602199554,-0.12227562814950943
25,-0.16202250123023987,-0.1477881520986557,-0.1348201185464859,-0.1228976845741272,-0.11099560558795928,-0.09921938180923462,-0.08961144834756851,-0.07978259772062303,-0.07036478072404861,-0.06352055817842484,-0.054311636835336685,-0.04778989031910896,-0.04134519770741464,-0.03492824733257294,-0.0285801999270916,-0.02385435439646244,-0.017995944246649742,-0.013018086552619934,-0.00820902455598116,-0.0038689994253218174,0.0005343971424736083,0.0047016250900924214,0.00865828152745962,0.013388830237090588,0.015898605808615685,0.021119974553585046,0.023901887238025662,0.027821190655231483,0.029569249600172043,0.03428328037261963,0.03617777302861214,0.0397133007645607,0.042808149009943015,0.045617878437042236,0.048365917056798935,0.05252975597977638,0.053943436592817307,0.057335309684276574,0.05914828553795815,0.06298159807920456,0.06549917906522751,0.06825651973485948,0.07033932954072952,0.07451554387807846,0.07581944763660431,0.0793733075261116,0.08132994174957275,0.08411151170730591,0.08640839159488678,0.08763513714075089,0.09067606925964357,0.09268905222415924,0.09443961828947067,0.09694179892539978,0.10046172887086867,0.10100641846656801,0.10348179936408997,0.10511099547147752,0.10805730521678923,0.10939103364944458,0.1128016784787178,0.11352813988924025,0.11590749770402907,0.11700453609228136,0.11844933032989502,0.12156470865011215,0.12339402735233307,0.12452171742916107,0.1280583292245865,0.12860460579395294,0.13025294244289398,0.13175278902053833,0.1348212957382202,0.13590258359909058,0.13774608075618744,0.14035853743553162,0.14114373922348022,0.14221099019050598,0.1447364091873169,0.14562809467315674,0.14870911836624146,0.1495709866285324,0.15094369649887085,0.1521879881620407,0.15458489954471588,0.15589164197444916,0.15808342397212982,0.1590755581855774,0.16031727194786072,0.16296614706516266,0.16340184211730954,0.16522230207920074,0.16587938368320465,0.16749925911426544,0.1690627783536911,0.1699247509241104,0.17125022411346436,0.17259255051612854,0.17423008382320404,0.17593365907669067,0.17689362168312073
26,-0.0843418687582016,-0.0816422626376152,-0.08020972460508348,-0.07581355422735214,-0.07354568690061569,-0.07146719098091125,-0.06918434798717499,-0.06754130125045776,-0.0660463348031044,-0.06684064865112305,-0.06352561712265015,-0.06403812021017075,-0.06246820092201232,-0.06120757758617401,-0.06028817594051361,-0.059455916285514825,-0.05792301893234252,-0.057040642946958535,-0.05576583370566368,-0.055114272981882095,-0.05448990315198898,-0.05323311313986778,-0.05264262482523918,-0.05083249881863594,-0.05066700279712677,-0.049317628145217896,-0.04915217682719231,-0.0484379306435585,-0.047584466636180885,-0.046592410653829575,-0.04578694328665733,-0.044646501541137695,-0.043671764433383935,-0.043822310864925385,-0.043031346052885056,-0.04218412935733795,-0.042682748287916183,-0.040977317839860916,-0.03996044769883157,-0.040432542562484734,-0.03958344832062721,-0.03923695906996727,-0.03837540373206138,-0.03815970197319984,-0.0366438589990139,-0.0376744456589222,-0.0380217581987381,-0.03672691062092781,-0.036104194819927216,-0.0360974557697773,-0.03561538457870484,-0.0339890718460083,-0.03462139144539833,-0.03305244818329811,-0.033514179289340966,-0.03447693586349486,-0.0327458493411541,-0.03228367865085602,-0.03238322213292122,-0.03197834640741348,-0.031749080866575234,-0.03165159747004509,-0.030828226357698437,-0.031203648075461388,-0.03046811558306217,-0.030167452991008762,-0.030304409563541405,-0.029682211577892307,-0.029347432777285576,-0.029777169227600094,-0.02963026612997055,-0.029555691406130787,-0.029566006734967232,-0.02810838259756565,-0.02743895910680294,-0.02732968144118786,-0.02858741395175457,-0.028122978284955025,-0.027714231982827187,-0.02786567434668541,-0.0291932225227356,-0.02742646634578705,-0.02857925370335579,-0.027735078707337383,-0.02782060019671917,-0.02860500290989876,-0.0269004125148058,-0.02775389701128006,-0.02776244468986988,-0.028266407549381256,-0.027086194604635242,-0.029160426929593086,-0.026357635855674744,-0.02847996354103088,-0.026707138866186145,-0.02725418470799924,-0.028455939143896106,-0.026201209053397186,-0.02791421487927437,-0.026508303359150887,-0.027276987209916115
27,-0.045978501439094537,-0.031532835215330124,-0.017974305897951126,-0.007040733937174081,0.0028157574124634266,0.011392023414373398,0.02054387517273426,0.028308946639299393,0.03483407944440842,0.042030278593301766,0.04692254960536957,0.0529901459813118,0.05751479789614676,0.06125350296497345,0.06634710729122162,0.06977662444114685,0.07347813993692398,0.07718884199857713,0.07961917668581009,0.0826372504234314,0.08568825572729111,0.08809525519609451,0.09070058912038803,0.09270061552524568,0.09455760568380356,0.09715287387371063,0.09962858259677887,0.10091030597686768,0.10315386205911636,0.10279107838869096,0.10531787574291228,0.10688398778438568,0.10731326043605804,0.10972438752651216,0.11143163591623306,0.11257436126470566,0.11417613923549652,0.11493949592113495,0.1146341636776924,0.11769063025712967,0.11723628640174864,0.11915019899606705,0.12076463550329207,0.1224166452884674,0.12192147970199585,0.12380508333444595,0.12539272010326385,0.1260366290807724,0.1255771964788437,0.12770110368728638,0.12793660163879395,0.12772218883037567,0.12898583710193634,0.1291414499282837,0.12989424169063568,0.1313793957233429,0.13043978810310364,0.13171640038490295,0.13191378116607666,0.13225360214710236,0.13276048004627228,0.1333305835723877,0.13468141853809354,0.13455098867416382,0.13578592240810394,0.13598552346229553,0.13686980307102206,0.13741585612297058,0.1381298452615738,0.1391330510377884,0.13906589150428772,0.14017660915851593,0.13981983065605166,0.14047236740589142,0.13977432250976562,0.14079269766807556,0.14199158549308774,0.1422240287065506,0.14283159375190735,0.14300669729709625,0.1444060206413269,0.1450117528438568,0.14606502652168274,0.14515654742717746,0.14663906395435333,0.14689135551452634,0.14641600847244265,0.14780203998088834,0.14819078147411344,0.14822718501091006,0.14806003868579865,0.14988617599010468,0.14841070771217346,0.15071243047714233,0.1492723971605301,0.15050847828388214,0.1527024209499359,0.15105584263801575,0.1531449407339096,0.15222899615764618,0.1527642458677292
28,-0.08110002428293228,-0.06688977777957916,-0.05366410315036774,-0.0402681864798069,-0.028036059811711308,-0.016782324761152267,-0.0056383335031569,0.003647527890279889,0.012067647650837898,0.017901508137583733,0.027151914313435558,0.032737832516431815,0.038673579692840576,0.04447465389966965,0.05014430731534958,0.05534600093960762,0.060425832867622375,0.06532873213291167,0.07001136988401413,0.07410267740488052,0.07862427085638046,0.08308463543653488,0.08657961338758469,0.09164268523454666,0.09496062248945236,0.09969846159219742,0.10337406396865843,0.10620390623807907,0.10928306728601456,0.11286430805921555,0.1160760372877121,0.11960730701684953,0.12283137440681458,0.12584370374679565,0.12898793816566467,0.1329672932624817,0.1348010152578354,0.13847880065441132,0.14139293134212494,0.14373964071273804,0.14723235368728638,0.14941273629665375,0.1531677544116974,0.15627120435237885,0.15934908390045166,0.16124904155731198,0.16357573866844174,0.16589558124542236,0.1687440127134323,0.17118120193481445,0.1741330623626709,0.17718417942523956,0.17900584638118744,0.1815748065710068,0.1852133870124817,0.18525472283363345,0.18971939384937286,0.1915550976991653,0.1941055357456208,0.1960304379463196,0.19850099086761475,0.20109707117080688,0.20358188450336456,0.2045336365699768,0.20664700865745544,0.2095572054386139,0.2115643322467804,0.2138560116291046,0.21635377407073966,0.21684809029102325,0.21855361759662628,0.2207679748535156,0.22319446504116056,0.2266838252544403,0.2281011641025543,0.2307290583848953,0.2313939183950424,0.2332338243722916,0.23658102750778198,0.23758260905742645,0.239149272441864,0.2417959272861481,0.24239373207092285,0.2453006058931351,0.2468503117561341,0.2474014610052109,0.2515454590320587,0.2521834969520569,0.25332513451576233,0.25512558221817017,0.2576952278614044,0.2575245797634125,0.2607777714729309,0.261572539806366,0.2639103829860687,0.2655281126499176,0.26568594574928284,0.2695203721523285,0.26962536573410034,0.2726030945777893,0.2725197374820709
29,0.19534087181091309,0.19534087181091309,0.19534087181091309,0.19534087181091309,0.19534087181091309,0.19534087181091309,0.19534087181091309,0.19534087181091309,0.19534087181091309,0.19534087181091309,0.19534087181091309,0.19534087181091309,0.19534087181091309,0.19534087181091309,0.19534087181091309,0.19534087181091309,0.19534087181091309,0.19534087181091309,0.19534087181091309,0.19534087181091309,0.19534087181091309,0.19534087181091309,0.19534087181091309,0.19534087181091309,0.19534087181091309,0.19534087181091309,0.19534087181091309,0.19534087181091309,0.19534087181091309,0.19534087181091309,0.19534087181091309,0.19534087181091309,0.19534087181091309,0.19534087181091309,0.19534087181091309,0.19534087181091309,0.19534087181091309,0.19534087181091309,0.19534087181091309,0.19534087181091309,0.19534087181091309,0.19534087181091309,0.19534087181091309,0.19534087181091309,0.19534087181091309,0.19534087181091309,0.19534087181091309,0.19534087181091309,0.19534087181091309,0.19534087181091309,0.19534087181091309,0.19534087181091309,0.19534087181091309,0.19534087181091309,0.19534087181091309,0.19534087181091309,0.19534087181091309,0.19534087181091309,0.19534087181091309,0.19534087181091309,0.19534087181091309,0.19534087181091309,0.19534087181091309,0.19534087181091309,0.19534087181091309,0.19534087181091309,0.19534087181091309,0.19534087181091309,0.19534087181091309,0.19534087181091309,0.19534087181091309,0.19534087181091309,0.19534087181091309,0.19534087181091309,0.19534087181091309,0.19534087181091309,0.19534087181091309,0.19534087181091309,0.19534087181091309,0.19534087181091309,0.19534087181091309,0.19534087181091309,0.19534087181091309,0.19534087181091309,0.19534087181091309,0.19534087181091309,0.19534087181091309,0.19534087181091309,0.19534087181091309,0.19534087181091309,0.19534087181091309,0.19534087181091309,0.19534087181091309,0.19534087181091309,0.19534087181091309,0.19534087181091309,0.19534087181091309,0.19534087181091309,0.19534087181091309,0.19534087181091309,0.19534087181091309
30,0.06244823336601257,0.061251036822795875,0.059956040233373635,0.058271337300539024,0.060883570462465286,0.0640600398182869,0.06430569291114807,0.06624997407197952,0.06794652342796326,0.07142870128154755,0.0722191259264946,0.07465663552284241,0.07751436531543733,0.07762638479471208,0.07890136539936066,0.07998642325401306,0.08359584957361221,0.08450382947921753,0.08531837165355682,0.08620817959308624,0.08604355156421661,0.08750844746828079,0.08871634304523468,0.08898358047008514,0.08567982912063599,0.08688662201166153,0.08593016117811203,0.08656013011932373,0.08498243242502213,0.08388720452785492,0.08317497372627257,0.08283437043428421,0.08235608041286469,0.08167295157909392,0.07985846698284149,0.07998544722795486,0.08005531132221222,0.08082544058561325,0.07784917205572127,0.08087275922298431,0.07869955897331238,0.08050846308469772,0.07825159281492232,0.0803806260228157,0.08031043410301207,0.07990920543670654,0.07985426485538483,0.08099788427352905,0.07854045182466507,0.07718878984451294,0.07720194011926651,0.07609850913286209,0.07606973499059677,0.07646490633487701,0.07430703938007355,0.0756339579820633,0.07423368096351624,0.07402481883764267,0.07370650768280029,0.07417505234479904,0.07469792664051056,0.07449512183666229,0.07600048929452896,0.07386044412851334,0.07236620783805847,0.07307880371809006,0.07361842691898346,0.07237221300601959,0.07285569608211517,0.07172351330518723,0.07228568941354753,0.07259026914834976,0.07067584991455078,0.07126341760158539,0.07064980268478394,0.07089830189943314,0.07024586945772171,0.06937269121408463,0.06915636360645294,0.06905727088451385,0.0685386210680008,0.0687708705663681,0.06968795508146286,0.06787016242742537,0.06991953402757645,0.06965605914592743,0.06831659376621246,0.06907325983047485,0.07035711407661438,0.0696583017706871,0.06880542635917664,0.06883280724287033,0.06812694668769836,0.0685797929763794,0.06876865774393083,0.06744199246168138,0.0695907324552536,0.0676238164305687,0.06942057609558105,0.06813044100999832,0.06744485348463058
31,-0.009077981114387512,-0.02145741693675518,-0.032272305339574814,-0.040479771792888634,-0.04857321828603745,-0.05479362979531288,-0.06198861077427864,-0.06722977757453917,-0.0738668143749237,-0.0803241953253746,-0.08512861281633377,-0.09235544502735138,-0.09679382294416428,-0.10184632241725924,-0.10683754086494446,-0.11149951815605164,-0.11685735732316972,-0.12144093960523605,-0.12562990188598633,-0.12985481321811676,-0.13487131893634796,-0.13846944272518158,-0.142530620098114,-0.14684978127479553,-0.152230903506279,-0.1552734524011612,-0.16086268424987793,-0.16379648447036746,-0.16877727210521698,-0.17347122728824615,-0.17693023383617398,-0.17980417609214785,-0.1831187754869461,-0.1885814368724823,-0.19185590744018555,-0.19570939242839813,-0.20055627822875974,-0.20298199355602264,-0.2073078602552414,-0.2108851820230484,-0.21552152931690216,-0.21882794797420504,-0.2224278748035431,-0.22591546177864075,-0.2286920249462128,-0.2330923080444336,-0.23768970370292666,-0.2399768829345703,-0.24328461289405826,-0.2467762529850006,-0.2504488527774811,-0.25332728028297424,-0.25729531049728394,-0.2585509717464447,-0.26453760266304016,-0.266079843044281,-0.2690200209617615,-0.272523045539856,-0.27588367462158203,-0.2778829336166382,-0.2810898125171661,-0.2851153612136841,-0.2863988876342773,-0.2906205952167511,-0.2925715446472168,-0.29497411847114563,-0.29830241203308105,-0.3003444075584412,-0.3044849932193756,-0.3064765930175781,-0.3089931905269623,-0.3129098117351532,-0.3153000473976135,-0.3170740604400635,-0.3191978633403778,-0.32322701811790466,-0.3249964416027069,-0.3275928199291229,-0.3303413093090057,-0.3322080373764038,-0.3356784880161285,-0.3363623023033142,-0.3395984768867493,-0.34247225522994995,-0.3442708551883697,-0.3469783365726471,-0.3497979640960693,-0.3524715006351471,-0.3544124960899353,-0.3568638861179352,-0.35905128717422485,-0.361717700958252,-0.3622609078884125,-0.3658468127250672,-0.36754074692726135,-0.3701812922954559,-0.3723210394382477,-0.3743971884250641,-0.3760285973548889,-0.3792754113674164,-0.3805604875087738
32,-0.11054262518882753,-0.09993807971477507,-0.08924895524978638,-0.08326947689056396,-0.07472296059131622,-0.06624457240104675,-0.058899614959955215,-0.05143862962722778,-0.04583292454481125,-0.04049303010106087,-0.03487706184387207,-0.03033961355686188,-0.02648470178246498,-0.023175090551376343,-0.019511658698320392,-0.015838172286748886,-0.013114351779222487,-0.010872208513319492,-0.008080484345555305,-0.006320985034108162,-0.0044227982871234426,-0.002101687481626868,-0.0006919332081452013,0.0005356371984817088,0.00027983984909951687,0.0029936123173683877,0.0035587723832577467,0.004887750372290611,0.003310363739728928,0.004125663079321384,0.004452086985111237,0.005424277856945992,0.006025246810168028,0.006998382974416018,0.0070420908741652966,0.008108819834887981,0.007722135167568922,0.008941693231463429,0.007003895007073879,0.00957100186496973,0.008448490872979164,0.008725947700440884,0.009657758288085459,0.011989576742053032,0.010570797137916088,0.01162949204444885,0.011679820716381071,0.011908826418220995,0.011422882787883282,0.012057493440806866,0.012177702970802784,0.01091969758272171,0.011073149740695952,0.010799196548759936,0.01103359367698431,0.011445431038737295,0.011373726651072502,0.009640119038522243,0.010294356383383274,0.009693204425275326,0.01025980431586504,0.010172843001782894,0.010548144578933716,0.008518200367689133,0.007653212174773215,0.009189019910991192,0.008675727061927319,0.008776885457336903,0.008304273709654808,0.007228087168186903,0.007442655973136425,0.006233264692127705,0.007224904838949442,0.007672573439776896,0.00632866844534874,0.006320573389530182,0.006760254502296448,0.006322115194052458,0.0076110586524009705,0.0069173662923276424,0.0088722575455904,0.008761473000049591,0.01046000886708498,0.009806774556636809,0.011571567505598068,0.01129760779440403,0.011181292124092579,0.011003682389855385,0.010761208832263948,0.012380055151879787,0.011495970189571379,0.013828137889504431,0.011817660182714462,0.014308311045169832,0.013803670182824137,0.01496360544115305,0.01607372798025608,0.014771643094718456,0.017354441806674004,0.018033767119050026,0.018634727224707603
33,0.1825359016656876,0.18684247136116028,0.1893697530031204,0.1916731894016266,0.19413624703884125,0.19579869508743286,0.19798851013183594,0.2010824978351593,0.2033434957265854,0.20776447653770447,0.20841580629348755,0.2112221121788025,0.2142091691493988,0.21514633297920227,0.2176423072814941,0.21857784688472748,0.2218925803899765,0.22323864698410034,0.22451429069042209,0.22572484612464905,0.2265615314245224,0.2278500944375992,0.2293093800544739,0.2298526614904404,0.2294119447469712,0.2306597083806992,0.231041356921196,0.23192815482616425,0.23286668956279755,0.23182548582553866,0.2330051809549332,0.23341724276542666,0.23285625874996185,0.2337139248847961,0.2338188588619232,0.23300360143184665,0.23316143453121185,0.2335851788520813,0.23178189992904666,0.23397330939769745,0.2311377227306366,0.23256197571754456,0.23231001198291776,0.2328988462686539,0.2312028855085373,0.2311358600854873,0.230675607919693,0.2323525696992874,0.2301999479532241,0.23042263090610504,0.2290518581867218,0.2283248454332352,0.22766655683517456,0.2282095700502396,0.22552330791950226,0.2268576472997665,0.22426292300224304,0.22470508515834808,0.22338858246803284,0.22278080880641926,0.2223016321659088,0.2208074182271957,0.2219129055738449,0.2207387536764145,0.2211698144674301,0.22019407153129567,0.2194279432296753,0.21918384730815887,0.21904192864894867,0.2191172540187836,0.21852542459964752,0.2175875008106232,0.21583980321884155,0.2154362499713897,0.2149941325187683,0.2143644094467163,0.21361839771270752,0.21330857276916504,0.21173888444900515,0.2111653983592987,0.2104303985834121,0.2108072191476822,0.21097858250141144,0.20845358073711395,0.20951668918132785,0.2087411433458328,0.20687763392925265,0.2071135640144348,0.2070206254720688,0.2053871005773545,0.20423254370689392,0.2048034816980362,0.20371903479099274,0.2034444510936737,0.2023376077413559,0.20167578756809235,0.20315399765968328,0.20051918923854828,0.20102302730083466,0.19972963631153107,0.20021536946296692
34,-0.060563512146472924,-0.0728507861495018,-0.08238648623228073,-0.08960553258657455,-0.09822327643632887,-0.10648104548454283,-0.11356969177722932,-0.12092258781194687,-0.12855568528175354,-0.1350836455821991,-0.1423974186182022,-0.14911679923534393,-0.15530423820018768,-0.1614345908164978,-0.16709434986114502,-0.17270702123641968,-0.17917099595069885,-0.18415650725364685,-0.18993264436721802,-0.19470186531543726,-0.19970174133777616,-0.20471276342868805,-0.2092979252338409,-0.2144540250301361,-0.21857969462871552,-0.22359569370746613,-0.2280725836753845,-0.232509583234787,-0.2356281280517578,-0.24166955053806305,-0.24455130100250244,-0.2483084797859192,-0.2525094449520111,-0.2567719519138336,-0.26003098487854004,-0.2644809186458588,-0.2677066028118133,-0.2715619504451752,-0.2747828364372253,-0.279304176568985,-0.2830274105072021,-0.28645750880241394,-0.28960809111595154,-0.2944782078266144,-0.29682111740112305,-0.3010685443878174,-0.3043085038661957,-0.3080634474754333,-0.3112301528453827,-0.3134573996067047,-0.3170197606086731,-0.319839745759964,-0.32283815741539,-0.3256610631942749,-0.33040711283683777,-0.33215343952178955,-0.335689514875412,-0.3380492627620697,-0.3422379791736603,-0.3443813025951385,-0.348483681678772,-0.35091954469680786,-0.3535331189632416,-0.35647398233413696,-0.3582417666912079,-0.3622325360774994,-0.3648901283740997,-0.3669964969158173,-0.371419221162796,-0.3726753294467926,-0.375712126493454,-0.37800684571266174,-0.3819253146648407,-0.3835572898387909,-0.3863786160945892,-0.38988873362541204,-0.3914458155632019,-0.3936917781829834,-0.39689841866493225,-0.3987915813922882,-0.4027353227138519,-0.4035342633724213,-0.4066070020198822,-0.4089912176132202,-0.4118236005306244,-0.414411336183548,-0.4172875881195069,-0.419463574886322,-0.4216376841068268,-0.42528679966926575,-0.4267058670520783,-0.4299022853374481,-0.4306887984275818,-0.4337002336978912,-0.4358972907066345,-0.4376420676708221,-0.439820259809494,-0.4419930279254913,-0.4440866708755493,-0.4473287463188171,-0.44950374960899353
35,0.002943528117612005,-0.008845462463796139,-0.02166590839624405,-0.034325305372476585,-0.0480862632393837,-0.06168921291828156,-0.07440129667520523,-0.0867983028292656,-0.09853630512952803,-0.10791321843862534,-0.11979568004608156,-0.12878948450088498,-0.137508824467659,-0.14581799507141113,-0.15394428372383118,-0.16166330873966214,-0.16987541317939758,-0.17681820690631864,-0.18379952013492584,-0.19024308025836945,-0.1966930478811264,-0.20338597893714905,-0.2090029567480088,-0.2157971113920212,-0.22046327590942386,-0.22751693427562714,-0.2324588745832443,-0.2379816919565201,-0.24154168367385864,-0.2480534613132477,-0.2520138621330261,-0.2570382058620453,-0.2620537579059601,-0.2664011120796204,-0.27069610357284546,-0.2763160765171051,-0.27910301089286804,-0.28410544991493225,-0.2872946858406067,-0.2926389276981354,-0.2966133952140808,-0.3004155158996582,-0.3039591312408447,-0.3099280893802643,-0.31241920590400696,-0.31681013107299805,-0.3200119435787201,-0.3242998719215393,-0.3276664018630981,-0.3304048478603363,-0.33445554971694946,-0.3377256691455841,-0.3406518399715424,-0.34433627128601074,-0.34916552901268005,-0.3513238131999969,-0.3552295565605164,-0.3576347827911377,-0.3623189032077789,-0.3646264374256134,-0.3691966235637665,-0.3712215423583984,-0.3747835159301758,-0.3769030869007111,-0.37903544306755066,-0.3838346004486084,-0.3863771557807921,-0.3886834979057312,-0.3932252824306488,-0.39431095123291016,-0.3976383805274963,-0.3994897603988648,-0.4039636254310608,-0.40577688813209534,-0.4091964662075043,-0.4124261140823364,-0.4142500162124634,-0.4161910712718964,-0.4196667969226837,-0.4213695526123047,-0.42558491230010986,-0.4273804426193237,-0.4299664199352264,-0.4321458339691162,-0.4354107081890106,-0.4379312098026276,-0.4406274259090424,-0.442604660987854,-0.4447855949401856,-0.4484965205192566,-0.4494292438030243,-0.4525642693042755,-0.4540355205535889,-0.4567135274410248,-0.4588043391704559,-0.4604097604751587,-0.4625166654586792,-0.4645666480064392,-0.4670848250389099,-0.4694567024707794,-0.4716545045375824
36,0.16417528688907626,0.16101697087287906,0.1572677344083786,0.15485450625419614,0.1506202667951584,0.1475677788257599,0.14030227065086365,0.1354270726442337,0.1316448450088501,0.12731558084487915,0.1227807030081749,0.11837545782327652,0.11420976370573045,0.11168966442346573,0.10780224204063417,0.10348201543092728,0.0992252752184868,0.09626956284046173,0.09276331961154938,0.09078887104988098,0.08757258206605911,0.08420862257480621,0.08212115615606308,0.07907918840646744,0.0774681344628334,0.07472574710845947,0.07153691351413727,0.07095777243375777,0.06851231306791307,0.06814776360988617,0.06512851268053055,0.06376671046018599,0.06274731457233429,0.059571523219347,0.05878732353448868,0.05762036144733429,0.05576798692345618,0.05363445356488228,0.05344810336828232,0.05090390145778656,0.05097176879644394,0.04929791763424874,0.045934464782476425,0.04407962039113045,0.04345770552754402,0.043243475258350365,0.04179345071315765,0.0397745743393898,0.03996563330292702,0.03748641163110733,0.03724744915962218,0.036190297454595566,0.03561258688569069,0.034424759447574615,0.03364424407482147,0.0327485091984272,0.03105985186994076,0.03007816895842552,0.0296094473451376,0.02908703312277794,0.028870703652501106,0.02683318220078945,0.024625008925795555,0.02505788765847683,0.023753602057695392,0.02281799167394638,0.022122673690319058,0.02017623372375965,0.01971891708672047,0.01982293836772442,0.01890087313950061,0.017992772161960602,0.0183811504393816,0.015021446160972118,0.01522253733128309,0.01377534121274948,0.013766834512352943,0.01186950411647558,0.01034966018050909,0.010200458578765392,0.009938505478203295,0.008084936998784542,0.0068067507818341255,0.006246114149689674,0.004824562929570675,0.0052924114279449,0.0031330757774412628,0.0022605350241065025,0.0016713592922315,0.002349487505853176,0.0006605396629311142,0.0004787684883922339,-0.0009159197797998787,-0.0019947278779000053,-0.0019457488087937238,-0.003710878780111671,-0.00493892002850771,-0.0055208709090948105,-0.005411486607044935,-0.006902218796312809,-0.006836318410933018
37,0.0010957259219139814,-0.0011732723796740176,-0.005282761063426733,-0.005008887033909559,-0.00618408713489771,-0.007117826957255602,-0.0051737590692937365,-0.00575563358142972,-0.005065638106316328,-0.006095515564084053,-0.0033143777400255203,-0.003040889743715525,-0.0019659502431750298,-0.0003741566324606538,0.0003493184340186417,0.002483825897797942,0.005046974867582321,0.006562883034348488,0.008859997615218163,0.010227889753878115,0.012452883645892143,0.014188616536557674,0.01566273905336857,0.018926311284303655,0.021932017058134082,0.0228140875697136,0.0262638758867979,0.02653104998171329,0.030695775523781776,0.033905167132616036,0.036074887961149216,0.0380149744451046,0.04046330973505974,0.04318883270025253,0.04437872767448425,0.04677131399512291,0.04918194189667702,0.05130399763584137,0.05611145496368408,0.05560353398323059,0.06017109379172325,0.0611545741558075,0.06456194818019867,0.06523627787828445,0.0694182887673378,0.06968750804662703,0.07203418016433716,0.07349512726068498,0.07662253081798552,0.07842215150594711,0.08092869818210602,0.08493329584598541,0.08629217743873596,0.08786702901124954,0.091550312936306,0.0904952883720398,0.0952148735523224,0.09743522107601166,0.0989282727241516,0.10066179931163788,0.10191193968057632,0.10530957579612732,0.10597478598356247,0.10883121192455293,0.11006119847297667,0.11124617606401443,0.11318515241146088,0.11525892466306685,0.1176365241408348,0.11808742582798006,0.1196010559797287,0.12267962098121644,0.12381546944379808,0.1270771324634552,0.12897944450378418,0.1317306011915207,0.13136640191078186,0.1341947317123413,0.13684743642807007,0.13826610147953033,0.1384081244468689,0.1406644880771637,0.14122110605239868,0.1450907737016678,0.14533889293670654,0.14655476808547974,0.15143409371376038,0.1520475149154663,0.15373921394348145,0.15495096147060394,0.15910547971725464,0.15771356225013733,0.1624833345413208,0.16228607296943665,0.16603200137615204,0.16780459880828855,0.16708409786224365,0.17243584990501404,0.17096677422523499,0.1757027804851532,0.17563579976558685
38,-0.12448470294475555,-0.11771739274263382,-0.10921258479356766,-0.1035553589463234,-0.0977909043431282,-0.0923292189836502,-0.08922359347343445,-0.08606495708227158,-0.08259100466966629,-0.07932208478450775,-0.07685433328151703,-0.07343289256095886,-0.07142789661884308,-0.06828084588050842,-0.06617400795221329,-0.06346745789051056,-0.06198614090681076,-0.0598486065864563,-0.05780813470482826,-0.05549761652946472,-0.05370660126209259,-0.052204053848981864,-0.05057771876454353,-0.049539659172296524,-0.04719956591725349,-0.046020440757274635,-0.0442802794277668,-0.04249570146203041,-0.04193031042814255,-0.039505872875452035,-0.038999583572149284,-0.03789442405104637,-0.03626019880175591,-0.03507005423307419,-0.03380163758993149,-0.03218913823366165,-0.030654748901724805,-0.030323054641485214,-0.029047517105937008,-0.027600886300206184,-0.02583674527704716,-0.02521011047065258,-0.024806026369333267,-0.023272207006812096,-0.02279669046401977,-0.0203977394849062,-0.01886115036904812,-0.01889815181493759,-0.017231525853276253,-0.01660580188035965,-0.0151662053540349,-0.015081226825714113,-0.01328865997493267,-0.013543233275413513,-0.011051839217543602,-0.009636412374675274,-0.009094631299376488,-0.008757447823882103,-0.006729114800691605,-0.005989329889416696,-0.004551558289676905,-0.003577646100893617,-0.003585794474929571,-0.0020422227680683136,-0.0020771962590515614,-0.0006576565210707488,0.000518456450663507,0.0008328933035954832,0.001955993473529816,0.0029534935019910336,0.004065784625709057,0.004779493901878595,0.0068035232834517964,0.006180155090987682,0.00698409928008914,0.007861851714551449,0.00988525990396738,0.01014011912047863,0.011183538474142551,0.012276900932192802,0.014809308573603632,0.013556021265685558,0.015206282027065754,0.01599632017314434,0.016572462394833558,0.018399590626358986,0.018216822296381,0.01951557025313377,0.02024973183870316,0.02235678024590016,0.02205962873995304,0.024545103311538696,0.02296213060617447,0.02557283826172352,0.02528960816562176,0.02628197707235813,0.02743837982416153,0.027105290442705158,0.029140478000044826,0.029161151498556137,0.030453918501734734
39,0.19822698831558228,0.20012106001377106,0.20191670954227448,0.2021620273590088,0.20294468104839325,0.2034194767475128,0.2041419893503189,0.20423276722431186,0.20575280487537384,0.2079720199108124,0.208274245262146,0.2111517637968064,0.21209993958473208,0.2138444483280182,0.21513839066028595,0.21665573120117188,0.21810796856880188,0.21964502334594727,0.2210932075977325,0.2230134904384613,0.2248109430074692,0.2256999015808105,0.2272917032241821,0.22854965925216675,0.2312478870153427,0.2315451949834824,0.2341474294662476,0.2353685349225998,0.23724356293678284,0.23947785794734955,0.2401346862316132,0.2406612038612365,0.24200622737407684,0.24395167827606198,0.2451890408992768,0.2462221682071685,0.24864865839481354,0.2485802173614502,0.2501145601272583,0.2511928677558899,0.25303545594215393,0.2538028061389923,0.25406748056411743,0.2550645768642425,0.25539228320121765,0.25739097595214844,0.2590667605400085,0.2588284611701965,0.2600535750389099,0.2610029876232147,0.26230305433273315,0.2624216675758362,0.2643555998802185,0.2637766897678375,0.2666560411453247,0.2674357295036316,0.2678658962249756,0.2685137391090393,0.2700859606266022,0.2704561054706573,0.2716178894042969,0.2735256552696228,0.2728501856327057,0.27506333589553833,0.2751263380050659,0.2754926085472107,0.2769926190376282,0.2771555185317993,0.27862441539764404,0.2799147665500641,0.2808774411678314,0.2820046544075012,0.2834207415580749,0.2828317582607269,0.2835632562637329,0.2848646640777588,0.2861714065074921,0.286776065826416,0.2873740494251251,0.2882309556007385,0.2900195121765137,0.2885002791881561,0.2902226448059082,0.2909914553165436,0.2914377748966217,0.2933413982391357,0.293148010969162,0.29452747106552124,0.29491496086120605,0.2964349687099457,0.29618510603904724,0.29838207364082336,0.296699196100235,0.2989877462387085,0.2985354959964752,0.2993395924568176,0.3004544675350189,0.3002794086933136,0.3017752766609192,0.3019790053367615,0.3032446503639221
40,0.07223505526781082,0.0721202865242958,0.07120925933122635,0.06918506324291229,0.06790214776992798,0.06846949458122252,0.06547630578279495,0.06430738419294357,0.0635308101773262,0.06244655326008796,0.06275574862957001,0.061734355986118324,0.06147085502743721,0.06291598081588745,0.06178221479058265,0.06270185112953186,0.061970986425876624,0.062088742852211,0.06251915544271469,0.06346090137958528,0.0635998472571373,0.06323102116584778,0.06340555101633072,0.06322463601827621,0.06390811502933502,0.06468614190816879,0.06404657661914825,0.06579507142305374,0.06541422754526137,0.06749086081981659,0.06680633872747421,0.06702025234699249,0.0685640200972557,0.06709084659814835,0.06762287765741347,0.07001885026693344,0.06882374733686447,0.06972000002861023,0.07024354487657547,0.07082919776439668,0.07180434465408325,0.07206115126609802,0.07120955735445023,0.07217846065759659,0.072145976126194,0.07383187860250473,0.0736568421125412,0.07380712032318115,0.07517789304256439,0.0744980052113533,0.07569286972284317,0.07572974264621735,0.07670219242572784,0.07598569989204408,0.07721763104200363,0.07758339494466783,0.07793482393026352,0.07749296724796295,0.07900386303663254,0.07857530564069748,0.07986359298229218,0.07973947376012802,0.0791526660323143,0.0801578238606453,0.07940531522035599,0.08072391152381897,0.08095286041498184,0.0803261399269104,0.08060179650783539,0.08085869997739792,0.08161293715238571,0.08117455989122391,0.08272054046392441,0.08164597302675247,0.08204618096351624,0.08153142035007477,0.08321064710617065,0.08251043409109116,0.0827307179570198,0.08300086855888368,0.08464187383651732,0.08283780515193939,0.08244840800762178,0.08284251391887665,0.0834139883518219,0.08346057683229446,0.08279459923505783,0.08348077535629272,0.08299596607685089,0.08430082350969315,0.08344270288944244,0.08485237509012222,0.08365677297115326,0.08455784618854523,0.0842573419213295,0.08371897041797638,0.08389908820390701,0.08338705450296402,0.08407091349363327,0.0833161398768425,0.08352689445018768
41,0.0921257883310318,0.08260104805231094,0.07055378705263138,0.05973595380783081,0.05095277726650238,0.04445827007293701,0.03712595626711845,0.030152155086398125,0.023627184331417084,0.02055019699037075,0.014569015242159368,0.010871394537389278,0.006283133756369352,0.004255160689353943,0.001018740702420473,-0.0015644780360162258,-0.0057787224650383,-0.008519226685166359,-0.01178279798477888,-0.013175683096051216,-0.014964303001761438,-0.018032575026154518,-0.019847754389047626,-0.022523818537592888,-0.022502489387989044,-0.02656331844627857,-0.0266307033598423,-0.02853647619485855,-0.02828913554549217,-0.02923967503011227,-0.030256414785981182,-0.03263286501169205,-0.03340284526348114,-0.034688495099544525,-0.03545615449547768,-0.0364483967423439,-0.036004599183797836,-0.03882838040590286,-0.03723994269967079,-0.03908858075737953,-0.038105785846710205,-0.04025796428322792,-0.04102781042456627,-0.04330477118492127,-0.04242726415395737,-0.04335243999958038,-0.04312679916620255,-0.046019639819860465,-0.044548135250806815,-0.04463981464505196,-0.0450587309896946,-0.04597635194659233,-0.04473397508263588,-0.04810430854558945,-0.04675429314374924,-0.04718301072716713,-0.047306466847658164,-0.04875802993774414,-0.04880714043974877,-0.049537483602762215,-0.050210170447826385,-0.04856279119849205,-0.052216727286577225,-0.05074877291917801,-0.051368780434131615,-0.05271632969379425,-0.052371054887771606,-0.05303109809756279,-0.0538487583398819,-0.05368926376104355,-0.05441683530807495,-0.05351366102695465,-0.0541515052318573,-0.05426910892128944,-0.05524015426635742,-0.05579828843474388,-0.05519415810704231,-0.05565055087208748,-0.05657487735152245,-0.055514056235551834,-0.05588527023792267,-0.057787377387285226,-0.05887613818049432,-0.057271406054496765,-0.059948559850454324,-0.058863379061222076,-0.059455566108226776,-0.059508472681045525,-0.0603034608066082,-0.06048786267638207,-0.06005648151040077,-0.06055813282728195,-0.06140545010566713,-0.06153267249464989,-0.061993148177862174,-0.06212890520691872,-0.06370072811841965,-0.06369403004646301,-0.06447327136993407,-0.06489875167608261,-0.06556965410709381
42,0.06432118266820908,0.07141438126564026,0.07425994426012039,0.0773996040225029,0.08039592951536179,0.08229617029428482,0.08708672970533371,0.09079859405755997,0.09474485367536543,0.09809335321187973,0.10154641419649124,0.10442039370536804,0.10850714892148973,0.11032028496265413,0.11443546414375305,0.1164543628692627,0.12101665139198305,0.12382648885250093,0.12690243124961853,0.1289237141609192,0.13119302690029144,0.13424424827098844,0.13722197711467746,0.14052048325538635,0.14186184108257294,0.14442524313926694,0.14681990444660187,0.14851021766662598,0.15117289125919342,0.15269704163074493,0.15554805099964142,0.15795008838176727,0.15930818021297455,0.1624687910079956,0.1643121838569641,0.16506065428256989,0.16763077676296234,0.16963714361190796,0.17148637771606445,0.17340786755084991,0.1744159460067749,0.17695707082748413,0.17943836748600006,0.18109552562236786,0.1830141842365265,0.18372206389904025,0.18528278172016144,0.18830066919326785,0.18925508856773374,0.19094425439834595,0.1919128894805908,0.19440121948719025,0.1946164071559906,0.19833558797836304,0.19863836467266088,0.19938699901103973,0.20112815499305725,0.2039932310581208,0.20435573160648346,0.2062947303056717,0.20748324692249293,0.2085208296775818,0.2111428529024124,0.2120271623134613,0.21436502039432528,0.2155752182006836,0.2165439873933792,0.21880735456943512,0.2207893431186676,0.22178082168102264,0.2230779081583023,0.22452768683433533,0.22511930763721466,0.2272716015577317,0.2292548269033432,0.2313053458929062,0.2305992245674133,0.2328762412071228,0.2340491116046905,0.23506467044353485,0.2349428832530976,0.23843155801296234,0.2399241179227829,0.2406428754329681,0.2421989887952805,0.2434663474559784,0.24560368061065674,0.2458210736513137,0.2480987608432769,0.2485148906707764,0.2507237493991852,0.25022271275520325,0.2534133195877075,0.2528406083583832,0.2555963695049286,0.2566593587398529,0.2577484250068665,0.2602079212665558,0.26022776961326605,0.2629297077655792,0.2638974189758301
43,0.14353898167610168,0.1475319117307663,0.15388622879981995,0.15954852104187012,0.16364924609661102,0.16668282449245453,0.17223073542118073,0.17436257004737854,0.17681032419204712,0.17898575961589813,0.1809820979833603,0.18358783423900604,0.18396668136119845,0.18514719605445865,0.1866728663444519,0.18836790323257446,0.1874646097421646,0.1888810396194458,0.18863435089588165,0.18843944370746613,0.19020168483257294,0.19052506983280185,0.18987374007701874,0.190319299697876,0.19227032363414764,0.18991892039775848,0.1921262890100479,0.1899478435516357,0.191261425614357,0.19014787673950195,0.1908109188079834,0.19015775620937347,0.1893301606178284,0.1906689554452896,0.1902559995651245,0.189326286315918,0.19158050417900085,0.1897976845502853,0.19067811965942386,0.18902625143527985,0.19083812832832334,0.1893777847290039,0.19100399315357208,0.189471572637558,0.1903605610132217,0.1896487772464752,0.19120563566684728,0.18854807317256927,0.18891887366771687,0.19014447927474976,0.1901559829711914,0.1898205727338791,0.19094868004322046,0.1882594972848892,0.1906294971704483,0.18977409601211548,0.1908298879861832,0.19007672369480133,0.19038821756839752,0.19054098427295685,0.18953172862529755,0.1919861584901809,0.1899867057800293,0.19093173742294312,0.19032011926174164,0.1891132444143296,0.1900436282157898,0.19021375477313995,0.1898659020662308,0.1897938102483749,0.1894097030162812,0.1908927261829376,0.1902746260166168,0.19141437113285065,0.1901635080575943,0.1905832439661026,0.1907569020986557,0.1907636970281601,0.19188250601291654,0.19176559150218964,0.1920343041419983,0.19140896201133728,0.19114327430725087,0.1931674033403397,0.19140055775642395,0.19143369793891907,0.192637637257576,0.19314290583133686,0.1924048215150833,0.19247612357139587,0.19342590868473053,0.19295483827590945,0.19237563014030454,0.1938950717449188,0.1922207623720169,0.1936509758234024,0.19298918545246124,0.1936224102973938,0.1927926391363144,0.193572610616684,0.19268788397312164
44,-0.16333290934562686,-0.1652146577835083,-0.16358935832977295,-0.1635415107011795,-0.1651456505060196,-0.16556350886821747,-0.16756218671798706,-0.17326194047927854,-0.1791757345199585,-0.1870970726013184,-0.19020453095436096,-0.19881653785705566,-0.2017480581998825,-0.20579349994659424,-0.2118910402059555,-0.21669445931911469,-0.2217533141374588,-0.2258850038051605,-0.23065322637557986,-0.2343047708272934,-0.2395699918270111,-0.2428676784038544,-0.2472911924123764,-0.2512708604335785,-0.2558555006980896,-0.2578083872795105,-0.26482024788856506,-0.26534900069236755,-0.26984238624572754,-0.2722436785697937,-0.2760988473892212,-0.27687889337539673,-0.27911704778671265,-0.2837161123752594,-0.2856540679931641,-0.2863721251487732,-0.29089394211769104,-0.2914048135280609,-0.2941421866416931,-0.29661187529563904,-0.2987535893917084,-0.3001521825790405,-0.3033429682254791,-0.3049430251121521,-0.3052327930927277,-0.306845098733902,-0.30912768840789795,-0.3101911544799805,-0.3106939494609833,-0.31368523836135864,-0.3145264983177185,-0.31510427594184875,-0.3166761994361877,-0.317484587430954,-0.319659024477005,-0.3204978108406067,-0.3206049203872681,-0.3230286836624145,-0.324634313583374,-0.3257911801338196,-0.3263791799545288,-0.3282105326652527,-0.3300348222255707,-0.3318747878074646,-0.3337688148021698,-0.3336034119129181,-0.3353651762008667,-0.3363028466701508,-0.3389520049095154,-0.3399355113506317,-0.34056004881858826,-0.3419346511363983,-0.3417673110961914,-0.3437616527080536,-0.34498152136802673,-0.34666118025779724,-0.3450573682785034,-0.3468891680240631,-0.3481335341930389,-0.3488290309906006,-0.34952816367149353,-0.3504546880722046,-0.3526267409324646,-0.35344642400741577,-0.35424062609672546,-0.3554312288761139,-0.3569358289241791,-0.357890248298645,-0.3584139943122864,-0.35866639018058777,-0.3594518005847931,-0.3606510758399963,-0.3611551821231842,-0.3623689115047455,-0.3617936670780182,-0.3635629713535309,-0.3645370602607727,-0.3649802207946777,-0.3652467727661133,-0.3667335510253906,-0.36756786704063416
45,0.11647704243659973,0.12961965799331665,0.14183862507343292,0.15345916152000427,0.1646655648946762,0.1754976063966751,0.1844580918550492,0.19314682483673096,0.20139320194721225,0.20667508244514465,0.21521717309951785,0.22035467624664307,0.2263979613780976,0.23143261671066284,0.2359706461429596,0.2406749576330185,0.2452981173992157,0.24968114495277405,0.25410890579223633,0.2574305534362793,0.2612262666225433,0.2644237577915192,0.2672201395034789,0.2711733281612396,0.27326348423957825,0.2778592109680176,0.27925825119018555,0.2830174267292023,0.2847374081611633,0.28878965973854065,0.290049284696579,0.2932625412940979,0.2961887121200561,0.2978987991809845,0.3004685044288635,0.3042753040790558,0.30498215556144714,0.3090216517448425,0.3102600574493408,0.3130360543727875,0.3156728744506836,0.31891581416130066,0.3209169805049896,0.3247915506362915,0.3254758417606354,0.32925131916999817,0.33080101013183594,0.334229588508606,0.3354395627975464,0.33636564016342163,0.33943626284599304,0.3419298529624939,0.3432542085647583,0.3460926711559296,0.3487497270107269,0.3493167459964752,0.3517235815525055,0.3543789386749268,0.3574516177177429,0.3588499128818512,0.3618070483207703,0.3624221086502075,0.3657014071941376,0.3672311305999756,0.3678142130374909,0.3712000846862793,0.3728620707988739,0.3739719986915589,0.3773161172866821,0.3785220682621002,0.3808915019035339,0.3817393183708191,0.3851261138916016,0.38548606634140015,0.3879946172237396,0.3899650275707245,0.3914883136749268,0.39270541071891785,0.3957895040512085,0.3960082232952118,0.3995879292488098,0.40058955550193787,0.4020965397357941,0.4035102128982544,0.4071344137191773,0.4074129462242127,0.4094148278236389,0.411432296037674,0.4127776622772217,0.4156329333782196,0.4165543615818024,0.41866734623909,0.4195180833339691,0.4220541715621948,0.42283663153648376,0.4238006770610809,0.4261031746864319,0.42770877480506897,0.4293853640556336,0.431278795003891,0.43241021037101746
46,0.1443382352590561,0.15022654831409454,0.15472842752933502,0.1615358591079712,0.16612228751182556,0.1705111712217331,0.1754002720117569,0.17903456091880798,0.18291893601417544,0.18405571579933167,0.18883737921714785,0.1905759871006012,0.19469782710075376,0.1971551924943924,0.20041477680206304,0.2025683969259262,0.2059249728918076,0.2090000361204148,0.2116598933935165,0.21365530788898468,0.21590112149715426,0.2187076210975647,0.22127322852611545,0.22493714094161987,0.2261853814125061,0.2292540967464447,0.23006147146224976,0.2320417016744613,0.2342657446861267,0.2361736744642257,0.23847834765911105,0.2411787658929825,0.2434653788805008,0.2446724176406861,0.24634793400764465,0.2484927028417588,0.2502928972244263,0.25229403376579285,0.25517627596855164,0.25599250197410583,0.2581937313079834,0.2596597373485565,0.2618716657161713,0.26350760459899897,0.2660126090049744,0.2666332125663757,0.26764407753944397,0.2701072096824646,0.2719789147377014,0.2726351022720337,0.2739139497280121,0.2770951986312866,0.2768557369709015,0.28018131852149963,0.28126198053359985,0.2817862927913666,0.2847949862480164,0.28682953119277954,0.2868075370788574,0.2889745831489563,0.29075247049331665,0.2918778359889984,0.2934139668941498,0.29464080929756165,0.2967427968978882,0.2988532781600952,0.2997172176837921,0.3018225431442261,0.3034283518791199,0.30419838428497314,0.3055404722690582,0.30667680501937866,0.30817559361457825,0.3098790943622589,0.3122748732566833,0.3138208091259003,0.3133499324321747,0.31502917408943176,0.3162336349487305,0.31713712215423584,0.3173437714576721,0.3200806081295013,0.3206539452075958,0.32262369990348816,0.3237365186214447,0.3246680200099945,0.32711681723594666,0.3270639479160309,0.329150915145874,0.32971107959747314,0.33215075731277466,0.3309883773326874,0.3347169756889343,0.3332650065422058,0.33679988980293274,0.3376433551311493,0.3376335501670837,0.3413115441799164,0.3407948315143585,0.3431834280490875,0.3432556688785553
47,0.03186238184571266,0.04656517505645752,0.06029927730560303,0.07098668813705444,0.08044447004795073,0.0881919339299202,0.09609479457139967,0.10267848521471024,0.10790122300386427,0.11357833445072175,0.11702169477939604,0.12178070843219756,0.12410034239292145,0.12575116753578186,0.1288033425807953,0.13044703006744385,0.13201755285263062,0.13347429037094116,0.13439904153347015,0.13491879403591156,0.13554581999778748,0.13633285462856293,0.1359955072402954,0.13544274866580966,0.13544046878814694,0.13525672256946564,0.13589511811733246,0.1346949338912964,0.13415883481502533,0.13193584978580475,0.13143815100193024,0.13102681934833527,0.12901310622692108,0.1294766664505005,0.12897109985351562,0.12634268403053284,0.125895157456398,0.12507502734661102,0.12196920067071915,0.12178253382444384,0.11966829001903535,0.11895833909511565,0.11827123165130615,0.11765335500240325,0.1150476410984993,0.1142033189535141,0.11351533234119415,0.11218983680009842,0.1090528517961502,0.10914237797260284,0.10749513655900957,0.10509006679058076,0.10427258908748628,0.1026686429977417,0.10060766339302064,0.10028215497732162,0.097291000187397,0.09623046219348907,0.095299132168293,0.09381452202796936,0.09165973216295242,0.0899667963385582,0.09054425358772278,0.08778197318315506,0.08655241131782533,0.08435133844614029,0.08344485610723495,0.08174987137317657,0.08064975589513779,0.07985083013772963,0.07785909622907639,0.07678946107625961,0.07495790719985962,0.07358456403017044,0.07138161361217499,0.07042714953422546,0.06951961666345596,0.06812109798192978,0.06730970740318297,0.06560112535953523,0.06468609720468521,0.06351867318153381,0.06353611499071121,0.06077758595347405,0.06031163036823273,0.058573465794324875,0.05659021437168121,0.05656585469841958,0.054843027144670486,0.05332273617386818,0.05111624673008919,0.051497582346200936,0.048524074256420135,0.04956676810979843,0.04609281197190285,0.04554058238863945,0.04590950161218643,0.042571403086185455,0.04345272853970528,0.04091719165444374,0.04075496643781662
