,Id,Epoch:0,Epoch:1,Epoch:2,Epoch:3,Epoch:4,Epoch:5,Epoch:6,Epoch:7,Epoch:8,Epoch:9,Epoch:10,Epoch:11,Epoch:12,Epoch:13,Epoch:14,Epoch:15,Epoch:16,Epoch:17,Epoch:18,Epoch:19,Epoch:20,Epoch:21,Epoch:22,Epoch:23,Epoch:24,Epoch:25,Epoch:26,Epoch:27,Epoch:28,Epoch:29,Epoch:30,Epoch:31,Epoch:32,Epoch:33,Epoch:34,Epoch:35,Epoch:36,Epoch:37,Epoch:38,Epoch:39,Epoch:40,Epoch:41,Epoch:42,Epoch:43,Epoch:44,Epoch:45,Epoch:46,Epoch:47,Epoch:48,Epoch:49,Epoch:50,Epoch:51,Epoch:52,Epoch:53,Epoch:54,Epoch:55,Epoch:56,Epoch:57,Epoch:58,Epoch:59,Epoch:60,Epoch:61,Epoch:62,Epoch:63,Epoch:64,Epoch:65,Epoch:66,Epoch:67,Epoch:68,Epoch:69,Epoch:70,Epoch:71,Epoch:72,Epoch:73,Epoch:74,Epoch:75,Epoch:76,Epoch:77,Epoch:78,Epoch:79,Epoch:80,Epoch:81,Epoch:82,Epoch:83,Epoch:84,Epoch:85,Epoch:86,Epoch:87,Epoch:88,Epoch:89,Epoch:90,Epoch:91,Epoch:92
0,[199],0.312,0.302,0.297,0.294,0.295,0.297,0.3,0.303,0.309,0.313,0.318,0.322,0.327,0.332,0.336,0.341,0.345,0.35,0.355,0.359,0.364,0.36700000000000005,0.37200000000000005,0.374,0.377,0.381,0.384,0.387,0.39,0.392,0.395,0.4,0.401,0.40299999999999997,0.408,0.40700000000000003,0.408,0.41,0.41100000000000003,0.414,0.414,0.41700000000000004,0.41600000000000004,-0.56,0.419,0.42100000000000004,0.423,0.423,0.423,0.42200000000000004,0.425,0.42700000000000005,0.425,0.171,0.426,0.42700000000000005,0.426,0.425,0.428,0.42700000000000005,0.42700000000000005,0.42700000000000005,0.426,0.42700000000000005,0.426,0.425,-0.912,0.424,0.424,0.423,0.423,0.424,0.423,0.423,0.423,0.423,0.42200000000000004,0.42200000000000004,0.42100000000000004,-0.938,0.42200000000000004,0.42100000000000004,0.424,0.42200000000000004,0.42200000000000004,0.42,0.419,0.419,0.419,0.42,0.42,0.418,0.41733333333333333
1,[197],-0.09300000000000001,-0.085,-0.079,-0.07200000000000001,-0.065,-0.059000000000000004,-0.053,-0.047,-0.039,-0.033,-0.027000000000000003,-0.022000000000000002,-0.017,-0.013000000000000001,-0.01,-0.006999999999999999,-0.003,-0.001,0.001,0.004,0.005,0.006999999999999999,0.009000000000000001,0.011000000000000001,0.011000000000000001,0.012,0.013000000000000001,0.013999999999999999,0.015,0.015,0.016,0.016,0.017,0.018000000000000002,0.34,0.019,0.019,0.019,0.019,0.018000000000000002,0.019,0.017,0.017,0.34600000000000003,0.015,0.016,0.016,0.016,0.015,0.013999999999999999,0.013000000000000001,0.012,0.012,0.588,0.012,0.012,0.01,0.009000000000000001,0.008,0.005,0.004,0.004,0.003,0.001,-0.002,-0.004,-0.545,-0.008,-0.01,-0.011000000000000001,-0.013000000000000001,-0.016,-0.016,-0.019,-0.023,-0.024,-0.027000000000000003,-0.027000000000000003,-0.03,-0.575,-0.033,-0.036000000000000004,-0.04,-0.042,-0.045,-0.046,-0.05,-0.052000000000000005,-0.054000000000000006,-0.059000000000000004,-0.062,-0.064,-0.06666666666666668
2,[198],0.326,0.324,0.324,0.325,0.325,0.326,0.327,0.32899999999999996,0.32899999999999996,0.33,0.33,0.33299999999999996,0.335,0.335,0.33799999999999997,0.34,0.342,0.345,0.348,0.35,0.354,0.358,0.359,0.365,0.368,0.37200000000000005,0.376,0.381,0.385,0.389,0.39299999999999996,0.397,0.402,0.40700000000000003,-0.589,0.418,0.424,0.428,0.434,0.439,0.446,0.452,0.457,-0.7929999999999999,0.46799999999999997,0.473,0.479,0.486,0.493,0.5,0.505,0.511,0.519,0.18600000000000003,0.531,0.537,0.545,0.55,0.56,0.5660000000000001,0.573,0.58,0.5870000000000001,0.595,0.602,0.61,-0.011000000000000001,0.624,0.63,0.637,0.642,0.65,0.6579999999999999,0.667,0.674,0.68,0.6890000000000001,0.6970000000000001,0.703,0.397,0.718,0.725,0.732,0.74,0.746,0.753,0.762,0.767,0.775,0.784,0.7909999999999999,0.799,0.8063333333333333
3,[196],0.149,0.154,0.155,0.155,0.155,0.154,0.152,0.151,0.149,0.146,0.14400000000000002,0.142,0.14,0.138,0.136,0.135,0.133,0.132,0.13,0.128,0.127,0.125,0.124,0.122,0.121,0.11900000000000001,0.11800000000000001,0.11699999999999999,0.11599999999999999,0.114,0.11199999999999999,0.111,0.11,0.10800000000000001,0.15,0.106,0.10300000000000001,0.102,0.1,0.099,0.098,0.096,0.096,0.078,0.09300000000000001,0.09,0.08900000000000001,0.08800000000000001,0.086,0.083,0.08199999999999999,0.081,0.079,0.09300000000000001,0.075,0.075,0.07200000000000001,0.07,0.068,0.066,0.064,0.061,0.06,0.057,0.055,0.051,0.452,0.048,0.045,0.043,0.042,0.038,0.036000000000000004,0.034,0.028999999999999998,0.027000000000000003,0.024,0.022000000000000002,0.018000000000000002,0.128,0.012,0.01,0.006999999999999999,0.004,0.001,-0.002,-0.006,-0.008,-0.012,-0.016,-0.018000000000000002,-0.022000000000000002,-0.02466666666666667
4,[195],0.152,0.14,0.131,0.12300000000000001,0.11800000000000001,0.115,0.113,0.113,0.113,0.114,0.11599999999999999,0.11599999999999999,0.11699999999999999,0.11800000000000001,0.11900000000000001,0.11900000000000001,0.11900000000000001,0.11900000000000001,0.11800000000000001,0.11900000000000001,0.11900000000000001,0.11900000000000001,0.11699999999999999,0.11699999999999999,0.11699999999999999,0.11599999999999999,0.115,0.11199999999999999,0.11199999999999999,0.111,0.109,0.107,0.105,0.10300000000000001,0.23600000000000002,0.1,0.099,0.098,0.09699999999999999,0.095,0.094,0.09300000000000001,0.09300000000000001,0.055999999999999994,0.091,0.087,0.086,0.086,0.08800000000000001,0.08800000000000001,0.086,0.084,0.085,0.083,0.083,0.083,0.084,0.085,0.081,0.085,0.085,0.084,0.085,0.083,0.08800000000000001,0.08900000000000001,-0.015,0.09300000000000001,0.092,0.09300000000000001,0.095,0.094,0.095,0.095,0.098,0.098,0.099,0.099,0.102,0.023,0.10099999999999999,0.105,0.10300000000000001,0.106,0.107,0.109,0.11199999999999999,0.11199999999999999,0.113,0.114,0.115,0.11900000000000001,0.12100000000000001
5,[194],-0.163,-0.157,-0.156,-0.153,-0.152,-0.151,-0.153,-0.155,-0.159,-0.163,-0.16699999999999998,-0.17,-0.174,-0.177,-0.18100000000000002,-0.184,-0.187,-0.19,-0.193,-0.19699999999999998,-0.2,-0.203,-0.20600000000000002,-0.209,-0.212,-0.215,-0.217,-0.22,-0.223,-0.226,-0.228,-0.231,-0.23399999999999999,-0.23600000000000002,0.617,-0.24100000000000002,-0.244,-0.247,-0.25,-0.252,-0.255,-0.258,-0.26,0.907,-0.265,-0.268,-0.27,-0.27399999999999997,-0.276,-0.27899999999999997,-0.281,-0.285,-0.287,-0.513,-0.293,-0.29600000000000004,-0.299,-0.301,-0.304,-0.307,-0.309,-0.313,-0.316,-0.319,-0.32299999999999995,-0.325,-0.292,-0.331,-0.33399999999999996,-0.33799999999999997,-0.34,-0.344,-0.34700000000000003,-0.35100000000000003,-0.353,-0.35600000000000004,-0.36,-0.363,-0.36700000000000005,0.049,-0.374,-0.377,-0.38,-0.38299999999999995,-0.386,-0.389,-0.392,-0.395,-0.39899999999999997,-0.40299999999999997,-0.406,-0.409,-0.412
6,[185],0.355,0.35600000000000004,0.35600000000000004,0.359,0.365,0.369,0.375,0.381,0.389,0.39899999999999997,0.408,0.41600000000000004,0.42200000000000004,0.431,0.439,0.444,0.451,0.457,0.46,0.465,0.47200000000000003,0.47700000000000004,0.47700000000000004,0.483,0.48700000000000004,0.49,0.49200000000000005,0.493,0.494,0.498,0.5,0.501,0.503,0.506,0.384,0.507,0.508,0.51,0.512,0.513,0.514,0.515,0.517,-0.28800000000000003,0.519,0.515,0.518,0.521,0.522,0.523,0.521,0.521,0.523,-0.278,0.522,0.521,0.525,0.525,0.522,0.526,0.528,0.525,0.527,0.526,0.53,0.53,0.6729999999999999,0.532,0.532,0.53,0.532,0.53,0.531,0.53,0.531,0.531,0.531,0.5329999999999999,0.5329999999999999,-0.3,0.531,0.534,0.532,0.532,0.534,0.535,0.535,0.534,0.534,0.534,0.534,0.5379999999999999,0.5393333333333332
7,[187],0.11699999999999999,0.11699999999999999,0.114,0.11199999999999999,0.11199999999999999,0.11,0.10800000000000001,0.10099999999999999,0.098,0.09,0.085,0.08199999999999999,0.077,0.07,0.066,0.063,0.059000000000000004,0.053,0.053,0.049,0.042,0.043,0.043,0.042,0.036000000000000004,0.037000000000000005,0.036000000000000004,0.036000000000000004,0.037000000000000005,0.035,0.035,0.034,0.037000000000000005,0.038,0.626,0.039,0.040999999999999995,0.04,0.04,0.038,0.042,0.040999999999999995,0.042,-0.129,0.043,0.045,0.044000000000000004,0.045,0.045,0.046,0.045,0.046,0.047,-0.281,0.053,0.054000000000000006,0.053,0.055,0.055,0.055,0.054000000000000006,0.057999999999999996,0.057999999999999996,0.057999999999999996,0.057,0.057999999999999996,-0.239,0.057999999999999996,0.059000000000000004,0.061,0.061,0.06,0.064,0.065,0.066,0.066,0.066,0.07,0.071,0.38,0.077,0.078,0.076,0.078,0.078,0.08,0.08,0.083,0.086,0.086,0.087,0.086,0.08633333333333332
8,[191],0.297,0.294,0.28800000000000003,0.284,0.27899999999999997,0.272,0.266,0.26,0.254,0.249,0.244,0.239,0.23399999999999999,0.228,0.22399999999999998,0.21899999999999997,0.215,0.21,0.205,0.201,0.196,0.192,0.188,0.184,0.18,0.17600000000000002,0.17300000000000001,0.16899999999999998,0.165,0.162,0.158,0.155,0.152,0.149,-0.17800000000000002,0.14300000000000002,0.139,0.136,0.133,0.129,0.126,0.12300000000000001,0.11900000000000001,0.185,0.113,0.111,0.107,0.10400000000000001,0.10099999999999999,0.09699999999999999,0.095,0.091,0.08800000000000001,0.064,0.08199999999999999,0.079,0.075,0.07200000000000001,0.069,0.066,0.063,0.059000000000000004,0.055999999999999994,0.053,0.049,0.046,0.573,0.039,0.037000000000000005,0.034,0.03,0.027999999999999997,0.024,0.021,0.018000000000000002,0.013999999999999999,0.011000000000000001,0.008,0.006,-0.239,0.001,-0.001,-0.004,-0.006999999999999999,-0.01,-0.013000000000000001,-0.016,-0.019,-0.022000000000000002,-0.025,-0.027000000000000003,-0.03,-0.03233333333333335
9,[193],0.38,0.373,0.37,0.36700000000000005,0.36200000000000004,0.359,0.355,0.35100000000000003,0.34700000000000003,0.344,0.34,0.337,0.33399999999999996,0.33,0.32799999999999996,0.325,0.322,0.32,0.317,0.314,0.313,0.31,0.308,0.306,0.304,0.301,0.3,0.298,0.29600000000000004,0.295,0.293,0.292,0.29,0.28800000000000003,0.406,0.285,0.284,0.28300000000000003,0.281,0.28,0.27899999999999997,0.278,0.27699999999999997,-0.087,0.275,0.27399999999999997,0.272,0.271,0.268,0.267,0.266,0.264,0.262,-0.19,0.259,0.257,0.255,0.254,0.25,0.249,0.248,0.245,0.243,0.242,0.239,0.23800000000000002,0.047,0.23399999999999999,0.231,0.23,0.228,0.226,0.223,0.222,0.22,0.218,0.215,0.212,0.209,-0.33899999999999997,0.204,0.201,0.2,0.19699999999999998,0.196,0.19399999999999998,0.19,0.187,0.185,0.183,0.179,0.175,0.17099999999999999
10,[189],0.139,0.149,0.161,0.174,0.188,0.203,0.22,0.23600000000000002,0.253,0.27,0.28600000000000003,0.303,0.32,0.33799999999999997,0.353,0.37,0.386,0.402,0.41600000000000004,0.43,0.445,0.455,0.46799999999999997,0.478,0.49,0.499,0.508,0.518,0.525,0.532,0.54,0.5479999999999999,0.552,0.5589999999999999,-0.523,0.57,0.575,0.58,0.583,0.59,0.591,0.597,0.598,-0.193,0.606,0.61,0.613,0.614,0.617,0.618,0.623,0.626,0.625,0.345,0.627,0.631,0.63,0.63,0.634,0.633,0.633,0.635,0.634,0.636,0.635,0.635,-0.16899999999999998,0.635,0.635,0.635,0.635,0.637,0.635,0.634,0.634,0.634,0.633,0.631,0.631,-0.391,0.63,0.627,0.63,0.628,0.627,0.626,0.625,0.623,0.623,0.623,0.622,0.62,0.6186666666666667
11,[192],-0.055999999999999994,-0.049,-0.040999999999999995,-0.039,-0.036000000000000004,-0.036000000000000004,-0.034,-0.034,-0.035,-0.037000000000000005,-0.037000000000000005,-0.037000000000000005,-0.038,-0.039,-0.039,-0.039,-0.04,-0.04,-0.039,-0.039,-0.038,-0.037000000000000005,-0.037000000000000005,-0.036000000000000004,-0.035,-0.034,-0.033,-0.032,-0.028999999999999998,-0.028999999999999998,-0.026000000000000002,-0.025,-0.023,-0.022000000000000002,0.2,-0.02,-0.018000000000000002,-0.017,-0.013999999999999999,-0.013000000000000001,-0.011000000000000001,-0.01,-0.008,-0.541,-0.004,-0.002,-0.001,0.0,0.002,0.005,0.006,0.009000000000000001,0.01,0.17600000000000002,0.015,0.015,0.017,0.021,0.023,0.026000000000000002,0.026000000000000002,0.03,0.031,0.033,0.036000000000000004,0.037000000000000005,-0.024,0.040999999999999995,0.044000000000000004,0.046,0.049,0.051,0.053,0.055999999999999994,0.057999999999999996,0.06,0.062,0.064,0.066,-0.37,0.07,0.071,0.07400000000000001,0.075,0.077,0.078,0.08199999999999999,0.086,0.086,0.087,0.091,0.091,0.09366666666666668
12,[182],0.24,0.24100000000000002,0.243,0.244,0.242,0.23800000000000002,0.239,0.23399999999999999,0.231,0.225,0.22,0.217,0.21100000000000002,0.204,0.2,0.19399999999999998,0.187,0.182,0.18100000000000002,0.17800000000000002,0.175,0.174,0.168,0.17,0.16899999999999998,0.168,0.166,0.16399999999999998,0.16699999999999998,0.165,0.166,0.16699999999999998,0.168,0.16899999999999998,0.265,0.16899999999999998,0.17,0.17,0.174,0.174,0.174,0.17300000000000001,0.17600000000000002,-0.281,0.17800000000000002,0.18,0.18,0.182,0.183,0.18600000000000003,0.187,0.18899999999999997,0.191,-0.843,0.19399999999999998,0.19399999999999998,0.19899999999999998,0.20199999999999999,0.204,0.207,0.20800000000000002,0.21100000000000002,0.212,0.214,0.21600000000000003,0.218,0.265,0.223,0.226,0.22699999999999998,0.22899999999999998,0.23199999999999998,0.23399999999999999,0.239,0.24100000000000002,0.243,0.245,0.247,0.24600000000000002,0.265,0.251,0.253,0.256,0.258,0.261,0.261,0.264,0.268,0.267,0.26899999999999996,0.271,0.272,0.2736666666666667
13,[181],-0.355,-0.368,-0.382,-0.39399999999999996,-0.41,-0.425,-0.44299999999999995,-0.46,-0.478,-0.498,-0.518,-0.5379999999999999,-0.56,-0.581,-0.602,-0.623,-0.643,-0.665,-0.684,-0.7040000000000001,-0.723,-0.741,-0.757,-0.773,-0.789,-0.805,-0.82,-0.8340000000000001,-0.8490000000000001,-0.862,-0.8759999999999999,-0.889,-0.902,-0.914,-0.281,-0.9390000000000001,-0.9520000000000001,-0.9620000000000001,-0.973,-0.986,-0.997,-1.008,-1.018,-0.242,-1.0390000000000001,-1.0490000000000002,-1.0590000000000002,-1.069,-1.079,-1.089,-1.0979999999999999,-1.107,-1.117,0.21,-1.135,-1.146,-1.1540000000000001,-1.165,-1.175,-1.183,-1.192,-1.2,-1.21,-1.2209999999999999,-1.23,-1.239,-0.7829999999999999,-1.258,-1.266,-1.274,-1.284,-1.2919999999999998,-1.3019999999999998,-1.311,-1.319,-1.331,-1.339,-1.349,-1.355,0.06,-1.374,-1.38,-1.3880000000000001,-1.3969999999999998,-1.4069999999999998,-1.415,-1.423,-1.433,-1.44,-1.45,-1.4580000000000002,-1.4669999999999999,-1.4753333333333332
14,[184],-0.314,-0.326,-0.33899999999999997,-0.353,-0.369,-0.382,-0.39899999999999997,-0.414,-0.43,-0.446,-0.461,-0.47600000000000003,-0.491,-0.507,-0.523,-0.537,-0.551,-0.5660000000000001,-0.5770000000000001,-0.5870000000000001,-0.599,-0.609,-0.617,-0.627,-0.635,-0.642,-0.647,-0.654,-0.6609999999999999,-0.665,-0.6679999999999999,-0.672,-0.674,-0.679,0.146,-0.6829999999999999,-0.685,-0.687,-0.687,-0.6890000000000001,-0.69,-0.69,-0.691,0.639,-0.688,-0.687,-0.688,-0.688,-0.684,-0.6829999999999999,-0.6829999999999999,-0.6829999999999999,-0.68,0.38299999999999995,-0.6759999999999999,-0.674,-0.675,-0.6729999999999999,-0.667,-0.667,-0.665,-0.6629999999999999,-0.662,-0.6579999999999999,-0.6579999999999999,-0.654,0.542,-0.6509999999999999,-0.647,-0.644,-0.639,-0.636,-0.636,-0.631,-0.632,-0.628,-0.626,-0.623,-0.619,0.10800000000000001,-0.613,-0.61,-0.608,-0.605,-0.603,-0.599,-0.597,-0.596,-0.5920000000000001,-0.589,-0.5870000000000001,-0.585,-0.5830000000000001
15,[156],-0.289,-0.28300000000000003,-0.281,-0.27899999999999997,-0.278,-0.27699999999999997,-0.276,-0.273,-0.272,-0.27,-0.26899999999999996,-0.267,-0.264,-0.265,-0.261,-0.258,-0.257,-0.253,-0.252,-0.252,-0.249,-0.24600000000000002,-0.247,-0.245,-0.244,-0.245,-0.242,-0.24100000000000002,-0.23800000000000002,-0.239,-0.24,-0.24,-0.23800000000000002,-0.23800000000000002,0.015,-0.237,-0.239,-0.23800000000000002,-0.24100000000000002,-0.23800000000000002,-0.23800000000000002,-0.239,-0.239,-0.698,-0.239,-0.24,-0.24,-0.239,-0.24100000000000002,-0.242,-0.242,-0.243,-0.24100000000000002,0.235,-0.243,-0.242,-0.242,-0.242,-0.242,-0.244,-0.244,-0.244,-0.243,-0.243,-0.243,-0.244,0.365,-0.24600000000000002,-0.247,-0.242,-0.243,-0.245,-0.244,-0.242,-0.244,-0.243,-0.243,-0.24600000000000002,-0.245,0.539,-0.248,-0.248,-0.248,-0.244,-0.248,-0.249,-0.251,-0.251,-0.248,-0.25,-0.248,-0.25,-0.24933333333333335
16,[168],-0.094,-0.1,-0.106,-0.111,-0.11699999999999999,-0.129,-0.14,-0.151,-0.168,-0.19,-0.217,-0.244,-0.276,-0.309,-0.335,-0.359,-0.38,-0.395,-0.414,-0.428,-0.439,-0.45,-0.465,-0.47200000000000003,-0.478,-0.486,-0.489,-0.49700000000000005,-0.502,-0.507,-0.513,-0.517,-0.523,-0.526,0.365,-0.531,-0.5329999999999999,-0.537,-0.541,-0.545,-0.547,-0.5479999999999999,-0.551,0.527,-0.555,-0.555,-0.5579999999999999,-0.5579999999999999,-0.56,-0.562,-0.5660000000000001,-0.5670000000000001,-0.569,-0.578,-0.5710000000000001,-0.5710000000000001,-0.5710000000000001,-0.573,-0.5710000000000001,-0.5720000000000001,-0.574,-0.5760000000000001,-0.575,-0.5760000000000001,-0.578,-0.579,0.612,-0.5820000000000001,-0.584,-0.583,-0.5870000000000001,-0.589,-0.589,-0.59,-0.591,-0.595,-0.596,-0.596,-0.6,0.175,-0.602,-0.604,-0.606,-0.608,-0.611,-0.612,-0.613,-0.615,-0.619,-0.619,-0.621,-0.625,-0.6276666666666667
17,[175],0.37,0.377,0.387,0.395,0.40399999999999997,0.415,0.428,0.43799999999999994,0.452,0.466,0.484,0.498,0.512,0.527,0.542,0.5529999999999999,0.5660000000000001,0.58,0.5920000000000001,0.605,0.618,0.627,0.637,0.649,0.6579999999999999,0.67,0.68,0.687,0.696,0.706,0.7140000000000001,0.72,0.728,0.737,0.396,0.752,0.759,0.7659999999999999,0.774,0.78,0.787,0.794,0.8,-0.14400000000000002,0.8109999999999999,0.813,0.8190000000000001,0.825,0.831,0.836,0.8390000000000001,0.843,0.848,-0.807,0.855,0.858,0.865,0.8690000000000001,0.871,0.878,0.883,0.884,0.89,0.892,0.899,0.902,0.32799999999999996,0.91,0.914,0.914,0.9179999999999999,0.92,0.922,0.925,0.9279999999999999,0.932,0.935,0.938,0.941,1.213,0.9440000000000001,0.9490000000000001,0.95,0.953,0.9570000000000001,0.96,0.9620000000000001,0.9640000000000001,0.9670000000000001,0.968,0.97,0.975,0.978
18,[190],0.157,0.159,0.16,0.161,0.161,0.16,0.158,0.156,0.153,0.15,0.147,0.145,0.142,0.139,0.13699999999999998,0.134,0.132,0.129,0.127,0.124,0.122,0.11900000000000001,0.11699999999999999,0.114,0.11199999999999999,0.11,0.107,0.105,0.102,0.10099999999999999,0.098,0.096,0.09300000000000001,0.092,-0.355,0.087,0.085,0.083,0.081,0.079,0.076,0.07400000000000001,0.07200000000000001,0.155,0.068,0.066,0.063,0.061,0.059000000000000004,0.055999999999999994,0.054000000000000006,0.052000000000000005,0.05,-0.024,0.046,0.044000000000000004,0.040999999999999995,0.039,0.036000000000000004,0.035,0.033,0.028999999999999998,0.027999999999999997,0.026000000000000002,0.024,0.022000000000000002,0.011000000000000001,0.018000000000000002,0.017,0.015,0.012,0.011000000000000001,0.009000000000000001,0.006,0.004,0.002,0.0,-0.002,-0.003,0.381,-0.006999999999999999,-0.009000000000000001,-0.011000000000000001,-0.013000000000000001,-0.015,-0.016,-0.019,-0.022000000000000002,-0.023,-0.025,-0.027999999999999997,-0.03,-0.03266666666666668
19,[188],-0.047,-0.046,-0.046,-0.049,-0.05,-0.053,-0.057,-0.06,-0.067,-0.07200000000000001,-0.08,-0.086,-0.09300000000000001,-0.10400000000000001,-0.109,-0.11900000000000001,-0.126,-0.131,-0.139,-0.146,-0.151,-0.156,-0.163,-0.16399999999999998,-0.16899999999999998,-0.172,-0.17600000000000002,-0.179,-0.18100000000000002,-0.184,-0.188,-0.19,-0.19399999999999998,-0.198,0.053,-0.201,-0.20199999999999999,-0.204,-0.20600000000000002,-0.209,-0.21,-0.21,-0.212,-0.14400000000000002,-0.214,-0.21600000000000003,-0.218,-0.217,-0.22,-0.221,-0.222,-0.22399999999999998,-0.22399999999999998,0.439,-0.228,-0.22899999999999998,-0.228,-0.23,-0.22899999999999998,-0.231,-0.23199999999999998,-0.23399999999999999,-0.23399999999999999,-0.23399999999999999,-0.23600000000000002,-0.237,-0.233,-0.24,-0.24100000000000002,-0.24100000000000002,-0.24600000000000002,-0.24600000000000002,-0.247,-0.247,-0.247,-0.249,-0.25,-0.25,-0.253,-0.09699999999999999,-0.256,-0.257,-0.259,-0.259,-0.261,-0.264,-0.262,-0.266,-0.267,-0.264,-0.267,-0.268,-0.27033333333333337
20,[186],-0.18899999999999997,-0.192,-0.19899999999999998,-0.20600000000000002,-0.21600000000000003,-0.223,-0.23399999999999999,-0.243,-0.254,-0.267,-0.27399999999999997,-0.28600000000000003,-0.295,-0.3,-0.306,-0.313,-0.319,-0.325,-0.33299999999999996,-0.335,-0.337,-0.34,-0.341,-0.34700000000000003,-0.34700000000000003,-0.35,-0.349,-0.35100000000000003,-0.348,-0.35100000000000003,-0.35100000000000003,-0.35100000000000003,-0.349,-0.35100000000000003,-0.078,-0.34700000000000003,-0.35,-0.35100000000000003,-0.349,-0.348,-0.34700000000000003,-0.348,-0.34600000000000003,-0.672,-0.34700000000000003,-0.349,-0.349,-0.348,-0.34700000000000003,-0.349,-0.34600000000000003,-0.34600000000000003,-0.345,-0.579,-0.34600000000000003,-0.345,-0.344,-0.345,-0.345,-0.34299999999999997,-0.342,-0.342,-0.33899999999999997,-0.341,-0.33799999999999997,-0.33799999999999997,-0.782,-0.33399999999999996,-0.335,-0.331,-0.33,-0.33,-0.32899999999999996,-0.33,-0.33,-0.32899999999999996,-0.327,-0.32799999999999996,-0.327,0.408,-0.326,-0.324,-0.322,-0.322,-0.32,-0.321,-0.322,-0.319,-0.32,-0.32,-0.319,-0.318,-0.317
21,[169],-0.256,-0.261,-0.266,-0.271,-0.276,-0.287,-0.294,-0.295,-0.29600000000000004,-0.295,-0.298,-0.298,-0.293,-0.282,-0.282,-0.272,-0.271,-0.267,-0.268,-0.268,-0.266,-0.267,-0.268,-0.272,-0.273,-0.27699999999999997,-0.284,-0.281,-0.285,-0.29,-0.293,-0.29100000000000004,-0.29600000000000004,-0.299,0.066,-0.303,-0.305,-0.306,-0.311,-0.31,-0.31,-0.311,-0.315,-0.024,-0.319,-0.32,-0.318,-0.32,-0.321,-0.321,-0.32299999999999995,-0.322,-0.32299999999999995,0.852,-0.32299999999999995,-0.322,-0.325,-0.326,-0.321,-0.322,-0.325,-0.32299999999999995,-0.325,-0.322,-0.324,-0.32299999999999995,-0.862,-0.32299999999999995,-0.324,-0.321,-0.322,-0.32,-0.321,-0.319,-0.317,-0.317,-0.316,-0.317,-0.317,-0.153,-0.315,-0.317,-0.314,-0.315,-0.31,-0.311,-0.309,-0.308,-0.31,-0.307,-0.307,-0.307,-0.307
22,[183],-0.04,-0.049,-0.057,-0.064,-0.075,-0.085,-0.098,-0.10800000000000001,-0.12,-0.133,-0.14400000000000002,-0.159,-0.171,-0.18899999999999997,-0.201,-0.214,-0.225,-0.239,-0.25,-0.264,-0.275,-0.287,-0.298,-0.31,-0.32,-0.331,-0.34,-0.34700000000000003,-0.359,-0.364,-0.37200000000000005,-0.38,-0.38799999999999996,-0.39799999999999996,-0.736,-0.41200000000000003,-0.41600000000000004,-0.42200000000000004,-0.428,-0.433,-0.43799999999999994,-0.44299999999999995,-0.44799999999999995,0.364,-0.457,-0.46,-0.46299999999999997,-0.46799999999999997,-0.473,-0.47600000000000003,-0.479,-0.483,-0.489,-0.064,-0.495,-0.499,-0.503,-0.506,-0.512,-0.514,-0.516,-0.52,-0.522,-0.526,-0.529,-0.531,-0.609,-0.536,-0.54,-0.54,-0.544,-0.546,-0.551,-0.5529999999999999,-0.556,-0.555,-0.557,-0.561,-0.563,-0.955,-0.57,-0.573,-0.575,-0.5760000000000001,-0.579,-0.58,-0.5820000000000001,-0.585,-0.585,-0.586,-0.588,-0.591,-0.5933333333333333
23,[180],0.322,0.308,0.293,0.27899999999999997,0.262,0.24600000000000002,0.228,0.212,0.19399999999999998,0.17600000000000002,0.159,0.141,0.124,0.11,0.094,0.078,0.065,0.053,0.04,0.028999999999999998,0.016,0.006999999999999999,0.0,-0.011000000000000001,-0.018000000000000002,-0.026000000000000002,-0.03,-0.035,-0.043,-0.044000000000000004,-0.049,-0.055,-0.059000000000000004,-0.061,0.21,-0.066,-0.067,-0.069,-0.071,-0.071,-0.073,-0.073,-0.071,-0.365,-0.073,-0.07400000000000001,-0.075,-0.073,-0.07200000000000001,-0.071,-0.071,-0.069,-0.066,0.036000000000000004,-0.064,-0.064,-0.061,-0.055999999999999994,-0.055999999999999994,-0.055,-0.054000000000000006,-0.052000000000000005,-0.049,-0.042,-0.039,-0.037000000000000005,-0.599,-0.028999999999999998,-0.025,-0.024,-0.021,-0.02,-0.015,-0.013000000000000001,-0.008,-0.005,-0.001,0.002,0.005,-0.297,0.011000000000000001,0.013999999999999999,0.017,0.02,0.024,0.027999999999999997,0.032,0.037000000000000005,0.04,0.04,0.046,0.05,0.05533333333333329
24,[167],0.294,0.287,0.282,0.276,0.26899999999999996,0.256,0.245,0.23399999999999999,0.217,0.19899999999999998,0.185,0.193,0.22,0.247,0.272,0.292,0.31,0.324,0.33899999999999997,0.35,0.36,0.373,0.38299999999999995,0.39299999999999996,0.39799999999999996,0.405,0.41100000000000003,0.414,0.42,0.42200000000000004,0.426,0.42700000000000005,0.43200000000000005,0.435,-0.392,0.43700000000000006,0.43700000000000006,0.436,0.436,0.436,0.43700000000000006,0.433,0.43200000000000005,-0.46,0.431,0.43200000000000005,0.43,0.43,0.429,0.429,0.42700000000000005,0.42700000000000005,0.425,-0.737,0.42700000000000005,0.42700000000000005,0.424,0.424,0.42100000000000004,0.418,0.418,0.418,0.41700000000000004,0.415,0.414,0.41100000000000003,0.24100000000000002,0.40700000000000003,0.406,0.405,0.40399999999999997,0.402,0.402,0.39799999999999996,0.395,0.39399999999999996,0.395,0.39399999999999996,0.392,-0.20800000000000002,0.39,0.387,0.386,0.384,0.38,0.379,0.377,0.377,0.377,0.374,0.374,0.375,0.37533333333333335
25,[174],0.248,0.233,0.22,0.207,0.193,0.17800000000000002,0.162,0.146,0.128,0.107,0.087,0.068,0.049,0.028999999999999998,0.01,-0.008,-0.026000000000000002,-0.043,-0.057999999999999996,-0.071,-0.085,-0.098,-0.11,-0.122,-0.133,-0.142,-0.151,-0.159,-0.16899999999999998,-0.174,-0.179,-0.184,-0.18899999999999997,-0.195,-0.376,-0.203,-0.20600000000000002,-0.209,-0.21100000000000002,-0.214,-0.215,-0.217,-0.21899999999999997,0.16699999999999998,-0.21899999999999997,-0.21899999999999997,-0.221,-0.222,-0.221,-0.22,-0.221,-0.222,-0.22,-0.5,-0.218,-0.218,-0.21899999999999997,-0.218,-0.214,-0.215,-0.214,-0.213,-0.212,-0.21,-0.21100000000000002,-0.209,0.20800000000000002,-0.209,-0.20600000000000002,-0.204,-0.203,-0.203,-0.20199999999999999,-0.2,-0.2,-0.198,-0.198,-0.19699999999999998,-0.19699999999999998,0.377,-0.196,-0.193,-0.192,-0.191,-0.19,-0.18899999999999997,-0.188,-0.187,-0.185,-0.184,-0.183,-0.183,-0.18233333333333335
26,[176],0.364,0.35100000000000003,0.33899999999999997,0.327,0.314,0.3,0.28600000000000003,0.27,0.252,0.23399999999999999,0.214,0.196,0.179,0.16,0.146,0.132,0.11599999999999999,0.102,0.086,0.075,0.062,0.051,0.04,0.028999999999999998,0.022000000000000002,0.009000000000000001,0.004,-0.006999999999999999,-0.011000000000000001,-0.02,-0.027000000000000003,-0.036000000000000004,-0.040999999999999995,-0.048,0.513,-0.06,-0.068,-0.075,-0.081,-0.086,-0.092,-0.099,-0.10400000000000001,-0.021,-0.11699999999999999,-0.124,-0.128,-0.132,-0.138,-0.14400000000000002,-0.145,-0.14800000000000002,-0.153,0.168,-0.161,-0.165,-0.17,-0.175,-0.18,-0.183,-0.18600000000000003,-0.18899999999999997,-0.192,-0.19699999999999998,-0.201,-0.205,0.23600000000000002,-0.21100000000000002,-0.21600000000000003,-0.21899999999999997,-0.222,-0.22699999999999998,-0.231,-0.23399999999999999,-0.24,-0.244,-0.247,-0.25,-0.256,-0.309,-0.262,-0.267,-0.27,-0.27399999999999997,-0.27699999999999997,-0.282,-0.285,-0.289,-0.294,-0.299,-0.301,-0.305,-0.3076666666666667
27,[160],-0.21,-0.21600000000000003,-0.222,-0.22699999999999998,-0.23399999999999999,-0.245,-0.257,-0.26899999999999996,-0.287,-0.311,-0.34,-0.368,-0.39399999999999996,-0.41100000000000003,-0.42700000000000005,-0.44,-0.45299999999999996,-0.46399999999999997,-0.47700000000000004,-0.486,-0.498,-0.509,-0.511,-0.518,-0.525,-0.5329999999999999,-0.534,-0.539,-0.547,-0.55,-0.551,-0.5539999999999999,-0.557,-0.561,0.429,-0.562,-0.563,-0.5660000000000001,-0.5660000000000001,-0.565,-0.564,-0.563,-0.561,-0.149,-0.563,-0.561,-0.56,-0.5589999999999999,-0.5589999999999999,-0.5589999999999999,-0.5589999999999999,-0.556,-0.555,-0.741,-0.552,-0.55,-0.5479999999999999,-0.5429999999999999,-0.542,-0.54,-0.539,-0.5379999999999999,-0.537,-0.534,-0.53,-0.528,-0.073,-0.52,-0.517,-0.515,-0.515,-0.509,-0.506,-0.504,-0.501,-0.499,-0.49700000000000005,-0.493,-0.491,-0.915,-0.48700000000000004,-0.484,-0.483,-0.478,-0.475,-0.474,-0.47100000000000003,-0.46799999999999997,-0.465,-0.46,-0.456,-0.455,-0.45200000000000007
28,[157],-0.059000000000000004,-0.055,-0.054000000000000006,-0.055,-0.057,-0.06,-0.066,-0.07200000000000001,-0.075,-0.081,-0.08900000000000001,-0.095,-0.1,-0.10400000000000001,-0.10800000000000001,-0.114,-0.11800000000000001,-0.122,-0.12300000000000001,-0.126,-0.13,-0.128,-0.128,-0.128,-0.131,-0.131,-0.131,-0.13,-0.128,-0.13,-0.128,-0.13,-0.126,-0.125,0.121,-0.125,-0.124,-0.125,-0.124,-0.124,-0.122,-0.122,-0.121,0.408,-0.11699999999999999,-0.11599999999999999,-0.11599999999999999,-0.11699999999999999,-0.115,-0.114,-0.115,-0.11199999999999999,-0.11199999999999999,0.051,-0.107,-0.10400000000000001,-0.105,-0.10400000000000001,-0.10400000000000001,-0.10400000000000001,-0.10300000000000001,-0.102,-0.102,-0.102,-0.1,-0.1,0.371,-0.099,-0.099,-0.099,-0.099,-0.10099999999999999,-0.098,-0.099,-0.10099999999999999,-0.1,-0.1,-0.098,-0.09699999999999999,-0.628,-0.094,-0.095,-0.094,-0.094,-0.095,-0.09300000000000001,-0.095,-0.09300000000000001,-0.092,-0.09300000000000001,-0.09300000000000001,-0.091,-0.09033333333333331
29,[152],-0.168,-0.163,-0.157,-0.158,-0.155,-0.157,-0.154,-0.155,-0.156,-0.159,-0.165,-0.166,-0.165,-0.17,-0.171,-0.174,-0.175,-0.17800000000000002,-0.18100000000000002,-0.18100000000000002,-0.183,-0.187,-0.18899999999999997,-0.188,-0.187,-0.187,-0.191,-0.192,-0.192,-0.19399999999999998,-0.19399999999999998,-0.19699999999999998,-0.19899999999999998,-0.195,-0.071,-0.198,-0.19699999999999998,-0.198,-0.19899999999999998,-0.2,-0.20199999999999999,-0.201,-0.20199999999999999,-0.077,-0.2,-0.20199999999999999,-0.204,-0.204,-0.20600000000000002,-0.204,-0.207,-0.20600000000000002,-0.205,0.5820000000000001,-0.20600000000000002,-0.20800000000000002,-0.209,-0.209,-0.21100000000000002,-0.21100000000000002,-0.212,-0.213,-0.213,-0.214,-0.215,-0.214,-0.546,-0.214,-0.215,-0.21600000000000003,-0.217,-0.217,-0.217,-0.21600000000000003,-0.21600000000000003,-0.218,-0.218,-0.21899999999999997,-0.21899999999999997,0.46,-0.221,-0.22,-0.221,-0.22,-0.22,-0.22,-0.221,-0.22,-0.221,-0.222,-0.222,-0.22399999999999998,-0.22466666666666663
30,[132],0.32799999999999996,0.32,0.314,0.308,0.301,0.293,0.28800000000000003,0.28300000000000003,0.27899999999999997,0.27399999999999997,0.26899999999999996,0.265,0.261,0.256,0.251,0.24600000000000002,0.239,0.231,0.22699999999999998,0.22,0.209,0.213,0.205,0.21,0.21100000000000002,0.203,0.2,0.2,0.198,0.196,0.193,0.188,0.191,0.19,-0.1,0.18899999999999997,0.19,0.187,0.19,0.188,0.187,0.185,0.187,0.8540000000000001,0.185,0.18600000000000003,0.183,0.185,0.185,0.18600000000000003,0.185,0.184,0.18600000000000003,0.523,0.184,0.183,0.185,0.18600000000000003,0.187,0.187,0.187,0.18600000000000003,0.188,0.187,0.187,0.18600000000000003,-0.893,0.18600000000000003,0.187,0.18899999999999997,0.18600000000000003,0.188,0.19,0.192,0.193,0.192,0.193,0.192,0.191,0.599,0.191,0.191,0.192,0.192,0.193,0.192,0.192,0.193,0.192,0.191,0.193,0.193,0.19433333333333333
31,[133],0.33,0.32,0.313,0.308,0.303,0.298,0.294,0.29,0.287,0.284,0.28,0.27699999999999997,0.273,0.27,0.266,0.262,0.257,0.25,0.24,0.228,0.214,0.19699999999999998,0.17600000000000002,0.155,0.132,0.10800000000000001,0.09,0.071,0.049,0.033,0.017,0.002,-0.015,-0.028999999999999998,-0.493,-0.055,-0.063,-0.073,-0.08199999999999999,-0.091,-0.1,-0.111,-0.11599999999999999,0.08800000000000001,-0.132,-0.134,-0.13699999999999998,-0.145,-0.14800000000000002,-0.153,-0.159,-0.161,-0.16699999999999998,0.21600000000000003,-0.171,-0.172,-0.174,-0.175,-0.177,-0.17800000000000002,-0.17800000000000002,-0.18,-0.18,-0.18100000000000002,-0.183,-0.182,0.054000000000000006,-0.182,-0.182,-0.179,-0.18100000000000002,-0.179,-0.182,-0.18,-0.18,-0.17600000000000002,-0.17600000000000002,-0.17600000000000002,-0.174,-1.141,-0.17300000000000001,-0.172,-0.17300000000000001,-0.17,-0.17,-0.16899999999999998,-0.168,-0.16699999999999998,-0.162,-0.16,-0.158,-0.159,-0.158
32,[154],-0.040999999999999995,-0.034,-0.032,-0.026000000000000002,-0.022000000000000002,-0.016,-0.013000000000000001,-0.008,-0.002,0.002,0.011000000000000001,0.017,0.023,0.027000000000000003,0.032,0.04,0.044000000000000004,0.047,0.053,0.055999999999999994,0.06,0.06,0.063,0.068,0.068,0.07,0.07,0.071,0.073,0.07200000000000001,0.07200000000000001,0.07400000000000001,0.07200000000000001,0.07200000000000001,-0.595,0.073,0.07400000000000001,0.073,0.07200000000000001,0.073,0.073,0.073,0.071,-0.239,0.07,0.071,0.07200000000000001,0.07200000000000001,0.07200000000000001,0.073,0.073,0.071,0.07200000000000001,-0.486,0.07,0.068,0.071,0.069,0.071,0.07,0.071,0.073,0.07,0.068,0.068,0.069,0.21,0.07,0.071,0.068,0.068,0.067,0.068,0.067,0.067,0.065,0.067,0.069,0.066,-0.8029999999999999,0.066,0.065,0.064,0.063,0.065,0.065,0.065,0.065,0.065,0.063,0.063,0.063,0.063
33,[158],0.415,0.41,0.408,0.40700000000000003,0.405,0.405,0.40399999999999997,0.40399999999999997,0.40399999999999997,0.406,0.408,0.40700000000000003,0.409,0.406,0.40700000000000003,0.40700000000000003,0.406,0.406,0.40700000000000003,0.408,0.408,0.409,0.409,0.40700000000000003,0.40700000000000003,0.40700000000000003,0.41,0.41100000000000003,0.409,0.409,0.40700000000000003,0.41,0.41,0.409,0.152,0.41100000000000003,0.41200000000000003,0.409,0.41200000000000003,0.414,0.413,0.41100000000000003,0.414,-0.425,0.41200000000000003,0.415,0.41700000000000004,0.418,0.418,0.41700000000000004,0.418,0.419,0.41700000000000004,-0.36700000000000005,0.419,0.42100000000000004,0.42,0.425,0.426,0.423,0.423,0.423,0.424,0.425,0.426,0.424,-0.09300000000000001,0.425,0.425,0.423,0.423,0.424,0.423,0.423,0.424,0.426,0.424,0.425,0.423,-0.281,0.425,0.424,0.424,0.423,0.42200000000000004,0.424,0.425,0.425,0.424,0.42700000000000005,0.426,0.426,0.42533333333333323
34,[166],-0.35700000000000004,-0.364,-0.369,-0.375,-0.382,-0.39399999999999996,-0.405,-0.418,-0.43700000000000006,-0.462,-0.49200000000000005,-0.52,-0.5479999999999999,-0.574,-0.586,-0.597,-0.611,-0.624,-0.638,-0.644,-0.6559999999999999,-0.6629999999999999,-0.669,-0.6779999999999999,-0.682,-0.691,-0.6920000000000001,-0.7,-0.6970000000000001,-0.703,-0.706,-0.71,-0.7090000000000001,-0.7140000000000001,0.745,-0.7170000000000001,-0.723,-0.726,-0.727,-0.728,-0.731,-0.733,-0.735,0.134,-0.7390000000000001,-0.743,-0.745,-0.7440000000000001,-0.745,-0.748,-0.747,-0.747,-0.748,0.408,-0.75,-0.75,-0.7509999999999999,-0.753,-0.7559999999999999,-0.7559999999999999,-0.7559999999999999,-0.757,-0.7559999999999999,-0.759,-0.76,-0.762,-0.619,-0.764,-0.765,-0.764,-0.764,-0.767,-0.767,-0.767,-0.77,-0.77,-0.773,-0.773,-0.7759999999999999,-0.001,-0.777,-0.777,-0.7759999999999999,-0.777,-0.778,-0.7809999999999999,-0.782,-0.782,-0.7829999999999999,-0.784,-0.7829999999999999,-0.785,-0.7849999999999999
35,[164],-0.076,-0.083,-0.08800000000000001,-0.094,-0.1,-0.11199999999999999,-0.124,-0.135,-0.153,-0.17600000000000002,-0.205,-0.23600000000000002,-0.272,-0.305,-0.33,-0.353,-0.377,-0.39799999999999996,-0.419,-0.435,-0.45299999999999996,-0.469,-0.484,-0.499,-0.513,-0.525,-0.536,-0.547,-0.5589999999999999,-0.568,-0.579,-0.586,-0.594,-0.603,-0.094,-0.619,-0.625,-0.632,-0.638,-0.6459999999999999,-0.652,-0.657,-0.665,0.39,-0.6729999999999999,-0.677,-0.682,-0.688,-0.693,-0.696,-0.701,-0.708,-0.71,0.126,-0.718,-0.722,-0.726,-0.7290000000000001,-0.73,-0.735,-0.737,-0.741,-0.745,-0.745,-0.75,-0.752,-0.557,-0.759,-0.759,-0.763,-0.764,-0.767,-0.77,-0.7709999999999999,-0.775,-0.777,-0.779,-0.78,-0.7809999999999999,-0.059000000000000004,-0.785,-0.787,-0.7879999999999999,-0.79,-0.792,-0.794,-0.7929999999999999,-0.7959999999999999,-0.797,-0.8,-0.8009999999999999,-0.802,-0.803
36,[171],0.258,0.245,0.233,0.222,0.20800000000000002,0.195,0.18,0.165,0.14800000000000002,0.13,0.109,0.092,0.075,0.057,0.043,0.027000000000000003,0.013000000000000001,-0.002,-0.018000000000000002,-0.031,-0.045,-0.054000000000000006,-0.063,-0.073,-0.08199999999999999,-0.09,-0.099,-0.105,-0.11,-0.115,-0.12300000000000001,-0.124,-0.128,-0.132,-0.447,-0.141,-0.14400000000000002,-0.145,-0.147,-0.153,-0.155,-0.156,-0.158,0.23600000000000002,-0.162,-0.16399999999999998,-0.16699999999999998,-0.168,-0.17,-0.17300000000000001,-0.174,-0.17600000000000002,-0.17800000000000002,-0.11900000000000001,-0.182,-0.183,-0.184,-0.18600000000000003,-0.188,-0.18899999999999997,-0.19,-0.192,-0.193,-0.195,-0.196,-0.198,-0.098,-0.201,-0.201,-0.203,-0.204,-0.20600000000000002,-0.207,-0.209,-0.209,-0.21,-0.212,-0.214,-0.21600000000000003,0.821,-0.218,-0.21899999999999997,-0.22,-0.221,-0.222,-0.222,-0.22399999999999998,-0.225,-0.226,-0.22699999999999998,-0.22899999999999998,-0.231,-0.233
37,[165],0.09300000000000001,0.1,0.105,0.111,0.11800000000000001,0.13,0.141,0.152,0.16899999999999998,0.19,0.217,0.244,0.27399999999999997,0.301,0.32299999999999995,0.344,0.366,0.386,0.406,0.423,0.441,0.455,0.47,0.486,0.5,0.516,0.529,0.544,0.556,0.5710000000000001,0.583,0.593,0.604,0.617,-0.17800000000000002,0.6409999999999999,0.652,0.6629999999999999,0.674,0.6829999999999999,0.6920000000000001,0.703,0.713,-0.5429999999999999,0.73,0.737,0.747,0.753,0.7609999999999999,0.769,0.7759999999999999,0.7809999999999999,0.789,-0.171,0.8,0.804,0.813,0.818,0.8240000000000001,0.831,0.8370000000000001,0.84,0.846,0.851,0.857,0.862,-0.355,0.872,0.877,0.878,0.884,0.888,0.8909999999999999,0.895,0.899,0.904,0.907,0.91,0.9159999999999999,-1.043,0.9209999999999999,0.9279999999999999,0.929,0.935,0.938,0.943,0.9470000000000001,0.9490000000000001,0.953,0.956,0.9590000000000001,0.9620000000000001,0.9650000000000003
38,[122],0.27399999999999997,0.282,0.292,0.295,0.301,0.302,0.31,0.312,0.314,0.314,0.312,0.313,0.317,0.315,0.317,0.317,0.318,0.318,0.318,0.32,0.321,0.319,0.32,0.32299999999999995,0.327,0.32899999999999996,0.32899999999999996,0.32899999999999996,0.332,0.332,0.33399999999999996,0.33399999999999996,0.335,0.34,-0.46,0.342,0.345,0.34600000000000003,0.34700000000000003,0.349,0.348,0.35200000000000004,0.35200000000000004,-0.08199999999999999,0.358,0.359,0.359,0.36,0.361,0.364,0.364,0.366,0.369,-0.265,0.37200000000000005,0.371,0.37200000000000005,0.374,0.374,0.376,0.376,0.37799999999999995,0.379,0.38,0.381,0.384,0.377,0.38799999999999996,0.38799999999999996,0.389,0.39,0.392,0.39299999999999996,0.395,0.397,0.397,0.39799999999999996,0.39899999999999997,0.4,-0.024,0.402,0.40399999999999997,0.405,0.40700000000000003,0.408,0.41,0.41,0.41200000000000003,0.413,0.414,0.415,0.414,0.4143333333333333
39,[170],0.35200000000000004,0.33799999999999997,0.325,0.312,0.299,0.285,0.27,0.253,0.23399999999999999,0.214,0.193,0.174,0.153,0.133,0.114,0.095,0.076,0.06,0.043,0.027000000000000003,0.011000000000000001,-0.004,-0.018000000000000002,-0.033,-0.046,-0.059000000000000004,-0.07,-0.081,-0.09300000000000001,-0.10300000000000001,-0.113,-0.125,-0.135,-0.146,-0.665,-0.165,-0.174,-0.182,-0.191,-0.19899999999999998,-0.207,-0.21600000000000003,-0.222,-0.376,-0.23800000000000002,-0.245,-0.252,-0.258,-0.264,-0.27,-0.27699999999999997,-0.28300000000000003,-0.28800000000000003,0.359,-0.3,-0.306,-0.31,-0.315,-0.321,-0.327,-0.33299999999999996,-0.33799999999999997,-0.34299999999999997,-0.34700000000000003,-0.35200000000000004,-0.358,0.237,-0.366,-0.371,-0.376,-0.382,-0.38799999999999996,-0.39299999999999996,-0.39799999999999996,-0.40399999999999997,-0.409,-0.414,-0.42,-0.425,-0.825,-0.436,-0.44,-0.446,-0.451,-0.456,-0.462,-0.467,-0.47100000000000003,-0.47700000000000004,-0.48200000000000004,-0.48700000000000004,-0.493,-0.4983333333333334
40,[128],0.16699999999999998,0.161,0.158,0.154,0.151,0.149,0.147,0.145,0.145,0.145,0.145,0.14300000000000002,0.14300000000000002,0.138,0.138,0.136,0.135,0.133,0.132,0.133,0.132,0.132,0.131,0.129,0.127,0.126,0.127,0.128,0.125,0.125,0.122,0.125,0.12300000000000001,0.121,0.46399999999999997,0.121,0.12,0.11699999999999999,0.11900000000000001,0.12,0.11800000000000001,0.11599999999999999,0.11800000000000001,0.027999999999999997,0.115,0.11699999999999999,0.11699999999999999,0.11699999999999999,0.11699999999999999,0.115,0.11599999999999999,0.115,0.113,0.19699999999999998,0.11199999999999999,0.114,0.113,0.11599999999999999,0.11599999999999999,0.11199999999999999,0.11199999999999999,0.11199999999999999,0.111,0.11199999999999999,0.111,0.109,-0.3,0.107,0.10800000000000001,0.105,0.10400000000000001,0.10400000000000001,0.10300000000000001,0.10099999999999999,0.102,0.10300000000000001,0.10099999999999999,0.10099999999999999,0.098,-0.064,0.098,0.096,0.096,0.094,0.092,0.09300000000000001,0.09300000000000001,0.09300000000000001,0.09,0.092,0.09,0.09,0.08866666666666669
41,[179],0.45399999999999996,0.465,0.475,0.488,0.5,0.514,0.528,0.544,0.5589999999999999,0.5770000000000001,0.593,0.608,0.626,0.644,0.659,0.6759999999999999,0.691,0.7070000000000001,0.721,0.735,0.75,0.762,0.774,0.784,0.797,0.8059999999999999,0.8140000000000001,0.825,0.833,0.841,0.8490000000000001,0.858,0.863,0.87,0.355,0.883,0.889,0.8959999999999999,0.9,0.9079999999999999,0.912,0.9179999999999999,0.9209999999999999,-0.483,0.9309999999999999,0.937,0.9420000000000001,0.945,0.9490000000000001,0.953,0.958,0.963,0.965,0.395,0.971,0.977,0.978,0.98,0.986,0.988,0.99,0.9940000000000001,0.995,1.0,1.001,1.003,0.804,1.008,1.0090000000000001,1.013,1.015,1.02,1.02,1.022,1.024,1.026,1.028,1.0290000000000001,1.031,-0.8320000000000001,1.036,1.035,1.041,1.042,1.044,1.045,1.047,1.048,1.05,1.053,1.054,1.055,1.056
42,[172],-0.152,-0.162,-0.17,-0.18100000000000002,-0.193,-0.20600000000000002,-0.221,-0.23600000000000002,-0.253,-0.271,-0.289,-0.302,-0.32,-0.336,-0.35200000000000004,-0.36700000000000005,-0.385,-0.4,-0.41,-0.423,-0.435,-0.445,-0.456,-0.462,-0.47100000000000003,-0.48,-0.488,-0.494,-0.501,-0.508,-0.514,-0.52,-0.524,-0.53,0.066,-0.54,-0.544,-0.5489999999999999,-0.552,-0.5579999999999999,-0.563,-0.569,-0.5720000000000001,0.051,-0.5820000000000001,-0.586,-0.5920000000000001,-0.595,-0.599,-0.603,-0.608,-0.612,-0.615,-0.485,-0.623,-0.627,-0.629,-0.632,-0.634,-0.638,-0.6409999999999999,-0.645,-0.648,-0.6509999999999999,-0.654,-0.6579999999999999,-1.102,-0.664,-0.667,-0.669,-0.674,-0.6759999999999999,-0.6779999999999999,-0.68,-0.6829999999999999,-0.687,-0.691,-0.695,-0.6990000000000001,-0.036000000000000004,-0.705,-0.7090000000000001,-0.7120000000000001,-0.715,-0.718,-0.722,-0.726,-0.7290000000000001,-0.7340000000000001,-0.738,-0.741,-0.745,-0.7483333333333334
43,[155],-0.09300000000000001,-0.105,-0.114,-0.125,-0.134,-0.142,-0.152,-0.161,-0.17300000000000001,-0.182,-0.18899999999999997,-0.19899999999999998,-0.209,-0.21600000000000003,-0.223,-0.23199999999999998,-0.237,-0.242,-0.248,-0.252,-0.255,-0.258,-0.264,-0.266,-0.26899999999999996,-0.27,-0.272,-0.272,-0.275,-0.27399999999999997,-0.276,-0.278,-0.281,-0.28,0.527,-0.282,-0.282,-0.282,-0.282,-0.284,-0.28600000000000003,-0.282,-0.282,0.244,-0.28,-0.281,-0.278,-0.281,-0.28,-0.28,-0.28,-0.282,-0.28,-0.079,-0.281,-0.282,-0.28,-0.28,-0.28,-0.27899999999999997,-0.27899999999999997,-0.27899999999999997,-0.27899999999999997,-0.278,-0.27699999999999997,-0.27399999999999997,-0.08900000000000001,-0.272,-0.272,-0.273,-0.27,-0.27,-0.27,-0.271,-0.26899999999999996,-0.27,-0.27,-0.27,-0.266,-0.062,-0.267,-0.263,-0.265,-0.262,-0.261,-0.26,-0.258,-0.258,-0.258,-0.256,-0.257,-0.255,-0.255
44,[149],0.14,0.151,0.161,0.174,0.18899999999999997,0.204,0.22,0.239,0.257,0.27699999999999997,0.292,0.306,0.32299999999999995,0.33799999999999997,0.35100000000000003,0.366,0.37799999999999995,0.391,0.401,0.41200000000000003,0.424,0.431,0.44,0.446,0.455,0.461,0.466,0.474,0.478,0.48200000000000004,0.48700000000000004,0.49200000000000005,0.493,0.49700000000000005,-0.643,0.504,0.507,0.51,0.511,0.516,0.517,0.52,0.519,0.265,0.522,0.525,0.528,0.528,0.529,0.531,0.532,0.535,0.5329999999999999,0.079,0.5329999999999999,0.536,0.534,0.534,0.5379999999999999,0.537,0.537,0.5379999999999999,0.536,0.539,0.537,0.537,-0.373,0.537,0.536,0.536,0.535,0.537,0.535,0.534,0.534,0.5329999999999999,0.5329999999999999,0.53,0.53,0.055999999999999994,0.529,0.525,0.528,0.526,0.527,0.525,0.525,0.522,0.521,0.522,0.52,0.519,0.5173333333333333
45,[178],0.423,0.409,0.397,0.385,0.37200000000000005,0.359,0.345,0.33,0.313,0.295,0.276,0.258,0.239,0.21899999999999997,0.201,0.18100000000000002,0.163,0.147,0.129,0.114,0.098,0.084,0.067,0.055999999999999994,0.044000000000000004,0.032,0.02,0.009000000000000001,-0.002,-0.012,-0.023,-0.033,-0.042,-0.052000000000000005,-0.025,-0.069,-0.075,-0.083,-0.092,-0.1,-0.106,-0.113,-0.121,0.268,-0.134,-0.141,-0.149,-0.155,-0.162,-0.168,-0.17600000000000002,-0.183,-0.18899999999999997,0.08800000000000001,-0.203,-0.209,-0.21600000000000003,-0.222,-0.22699999999999998,-0.235,-0.242,-0.248,-0.255,-0.261,-0.267,-0.27399999999999997,-0.154,-0.287,-0.293,-0.299,-0.306,-0.312,-0.318,-0.325,-0.331,-0.33799999999999997,-0.344,-0.35,-0.35600000000000004,-0.009000000000000001,-0.368,-0.375,-0.381,-0.386,-0.392,-0.39899999999999997,-0.40399999999999997,-0.41,-0.41700000000000004,-0.42200000000000004,-0.429,-0.434,-0.4403333333333333
46,[163],0.332,0.326,0.32,0.314,0.308,0.295,0.28300000000000003,0.271,0.251,0.22699999999999998,0.19699999999999998,0.16399999999999998,0.126,0.09,0.068,0.046,0.028999999999999998,0.011000000000000001,-0.001,-0.013999999999999999,-0.024,-0.031,-0.037000000000000005,-0.045,-0.048,-0.053,-0.057,-0.062,-0.064,-0.065,-0.067,-0.068,-0.07,-0.07200000000000001,-0.349,-0.07400000000000001,-0.07400000000000001,-0.07200000000000001,-0.071,-0.069,-0.071,-0.069,-0.066,-0.183,-0.061,-0.06,-0.061,-0.057,-0.057999999999999996,-0.057,-0.052000000000000005,-0.051,-0.049,0.32299999999999995,-0.049,-0.048,-0.048,-0.047,-0.047,-0.043,-0.043,-0.042,-0.04,-0.037000000000000005,-0.038,-0.033,-0.243,-0.028999999999999998,-0.027000000000000003,-0.025,-0.024,-0.022000000000000002,-0.021,-0.016,-0.013000000000000001,-0.012,-0.01,-0.009000000000000001,-0.008,-0.23199999999999998,-0.006,-0.005,0.0,-0.001,0.0,0.002,0.003,0.004,0.004,0.006,0.006,0.006,0.006000000000000001
47,[159],-0.182,-0.19399999999999998,-0.204,-0.212,-0.21899999999999997,-0.22699999999999998,-0.23399999999999999,-0.24100000000000002,-0.251,-0.258,-0.268,-0.28,-0.29,-0.302,-0.315,-0.32299999999999995,-0.33399999999999996,-0.34299999999999997,-0.35200000000000004,-0.361,-0.369,-0.37799999999999995,-0.385,-0.39299999999999996,-0.39899999999999997,-0.405,-0.41200000000000003,-0.41700000000000004,-0.42100000000000004,-0.42700000000000005,-0.43200000000000005,-0.433,-0.439,-0.444,0.20800000000000002,-0.451,-0.455,-0.455,-0.46,-0.45899999999999996,-0.46,-0.46299999999999997,-0.466,0.11199999999999999,-0.47,-0.474,-0.47200000000000003,-0.474,-0.474,-0.474,-0.47600000000000003,-0.475,-0.47600000000000003,-0.3,-0.47700000000000004,-0.478,-0.478,-0.478,-0.47600000000000003,-0.478,-0.47700000000000004,-0.47600000000000003,-0.47700000000000004,-0.475,-0.47600000000000003,-0.47600000000000003,-0.326,-0.47600000000000003,-0.478,-0.47600000000000003,-0.475,-0.474,-0.475,-0.475,-0.473,-0.47200000000000003,-0.47100000000000003,-0.473,-0.473,-0.095,-0.473,-0.473,-0.47100000000000003,-0.47200000000000003,-0.46799999999999997,-0.469,-0.46799999999999997,-0.46799999999999997,-0.469,-0.466,-0.466,-0.46399999999999997,-0.46333333333333326
48,[177],-0.083,-0.071,-0.063,-0.055999999999999994,-0.048,-0.042,-0.034,-0.027000000000000003,-0.017,-0.009000000000000001,0.002,0.011000000000000001,0.017,0.025,0.031,0.035,0.040999999999999995,0.040999999999999995,0.046,0.046,0.044000000000000004,0.046,0.047,0.046,0.042,0.042,0.04,0.037000000000000005,0.035,0.03,0.028999999999999998,0.026000000000000002,0.024,0.022000000000000002,-0.024,0.013999999999999999,0.011000000000000001,0.006,0.003,-0.002,-0.003,-0.008,-0.01,0.28600000000000003,-0.015,-0.017,-0.02,-0.022000000000000002,-0.025,-0.027000000000000003,-0.03,-0.033,-0.033,0.265,-0.033,-0.036000000000000004,-0.038,-0.039,-0.043,-0.046,-0.048,-0.047,-0.048,-0.05,-0.053,-0.054000000000000006,0.504,-0.057999999999999996,-0.059000000000000004,-0.059000000000000004,-0.059000000000000004,-0.061,-0.059000000000000004,-0.06,-0.06,-0.061,-0.061,-0.06,-0.06,-0.723,-0.059000000000000004,-0.059000000000000004,-0.062,-0.062,-0.064,-0.063,-0.063,-0.061,-0.061,-0.061,-0.06,-0.061,-0.06066666666666667
49,[162],0.29,0.284,0.278,0.272,0.266,0.253,0.242,0.22899999999999998,0.21,0.18600000000000003,0.155,0.122,0.084,0.05,0.018000000000000002,-0.01,-0.036000000000000004,-0.061,-0.083,-0.105,-0.122,-0.141,-0.159,-0.174,-0.19,-0.205,-0.22,-0.23399999999999999,-0.247,-0.262,-0.273,-0.284,-0.294,-0.305,-0.5820000000000001,-0.327,-0.337,-0.34600000000000003,-0.354,-0.365,-0.373,-0.384,-0.391,-0.14800000000000002,-0.408,-0.41600000000000004,-0.426,-0.434,-0.442,-0.447,-0.456,-0.461,-0.469,0.23600000000000002,-0.48200000000000004,-0.49,-0.493,-0.5,-0.507,-0.512,-0.52,-0.524,-0.531,-0.536,-0.54,-0.547,0.24600000000000002,-0.557,-0.561,-0.5660000000000001,-0.57,-0.575,-0.581,-0.581,-0.588,-0.591,-0.595,-0.6,-0.606,0.23600000000000002,-0.614,-0.617,-0.622,-0.627,-0.63,-0.634,-0.638,-0.6409999999999999,-0.645,-0.649,-0.653,-0.6579999999999999,-0.6623333333333332
50,[147],0.385,0.375,0.365,0.35200000000000004,0.34,0.33,0.32299999999999995,0.324,0.342,0.353,0.366,0.37799999999999995,0.389,0.39899999999999997,0.409,0.414,0.423,0.425,0.434,0.43700000000000006,0.43700000000000006,0.444,0.449,0.45299999999999996,0.45299999999999996,0.457,0.45899999999999996,0.461,0.46399999999999997,0.46399999999999997,0.46799999999999997,0.46799999999999997,0.473,0.47600000000000003,-0.122,0.479,0.48100000000000004,0.48100000000000004,0.48200000000000004,0.483,0.486,0.485,0.488,0.322,0.49200000000000005,0.494,0.494,0.495,0.496,0.498,0.498,0.5,0.501,-0.094,0.508,0.509,0.51,0.511,0.51,0.51,0.511,0.514,0.515,0.515,0.514,0.515,0.046,0.514,0.515,0.517,0.517,0.516,0.521,0.519,0.518,0.519,0.52,0.523,0.524,-0.262,0.528,0.528,0.527,0.527,0.526,0.528,0.527,0.53,0.532,0.531,0.5329999999999999,0.5329999999999999,0.5343333333333332
51,[107],-0.228,-0.223,-0.22,-0.22,-0.21899999999999997,-0.22,-0.22399999999999998,-0.228,-0.22899999999999998,-0.23199999999999998,-0.237,-0.242,-0.245,-0.249,-0.252,-0.256,-0.258,-0.262,-0.262,-0.265,-0.268,-0.267,-0.266,-0.266,-0.26899999999999996,-0.26899999999999996,-0.27,-0.26899999999999996,-0.268,-0.27,-0.268,-0.271,-0.268,-0.267,-0.47700000000000004,-0.268,-0.268,-0.26899999999999996,-0.26899999999999996,-0.26899999999999996,-0.267,-0.26899999999999996,-0.268,0.5,-0.267,-0.266,-0.267,-0.268,-0.266,-0.266,-0.267,-0.265,-0.266,-0.503,-0.263,-0.261,-0.262,-0.262,-0.263,-0.264,-0.263,-0.263,-0.263,-0.264,-0.263,-0.264,-0.7390000000000001,-0.265,-0.265,-0.266,-0.267,-0.26899999999999996,-0.267,-0.268,-0.271,-0.271,-0.271,-0.27,-0.27,-0.39899999999999997,-0.268,-0.27,-0.27,-0.271,-0.272,-0.271,-0.273,-0.272,-0.271,-0.273,-0.273,-0.271,-0.27033333333333337
52,[85],-0.281,-0.294,-0.305,-0.315,-0.324,-0.331,-0.34,-0.349,-0.359,-0.369,-0.38,-0.392,-0.405,-0.415,-0.426,-0.439,-0.449,-0.45899999999999996,-0.469,-0.479,-0.48700000000000004,-0.495,-0.506,-0.513,-0.521,-0.527,-0.534,-0.541,-0.5489999999999999,-0.5539999999999999,-0.561,-0.569,-0.5770000000000001,-0.5820000000000001,-0.179,-0.595,-0.6,-0.606,-0.611,-0.617,-0.625,-0.627,-0.632,-0.635,-0.6409999999999999,-0.648,-0.652,-0.659,-0.6629999999999999,-0.6679999999999999,-0.674,-0.6809999999999999,-0.684,-0.18,-0.696,-0.7,-0.703,-0.708,-0.713,-0.7170000000000001,-0.72,-0.725,-0.7290000000000001,-0.733,-0.735,-0.737,0.363,-0.743,-0.747,-0.7509999999999999,-0.7509999999999999,-0.755,-0.758,-0.763,-0.763,-0.767,-0.7709999999999999,-0.774,-0.773,-0.586,-0.78,-0.78,-0.785,-0.784,-0.787,-0.789,-0.789,-0.7929999999999999,-0.795,-0.7959999999999999,-0.8,-0.8,-0.8026666666666668
53,[173],0.055,0.042,0.031,0.019,0.006,-0.006999999999999999,-0.021,-0.037000000000000005,-0.053,-0.07,-0.087,-0.10300000000000001,-0.12,-0.138,-0.153,-0.16899999999999998,-0.18100000000000002,-0.195,-0.209,-0.222,-0.233,-0.244,-0.253,-0.266,-0.273,-0.282,-0.29,-0.298,-0.306,-0.312,-0.318,-0.326,-0.332,-0.341,-0.1,-0.35100000000000003,-0.35700000000000004,-0.361,-0.366,-0.37,-0.376,-0.382,-0.38299999999999995,0.42200000000000004,-0.391,-0.395,-0.39899999999999997,-0.40399999999999997,-0.408,-0.413,-0.41700000000000004,-0.42,-0.424,-0.084,-0.43200000000000005,-0.435,-0.44,-0.442,-0.446,-0.449,-0.452,-0.457,-0.46,-0.46299999999999997,-0.467,-0.46799999999999997,-0.365,-0.473,-0.47600000000000003,-0.478,-0.48200000000000004,-0.483,-0.488,-0.489,-0.49200000000000005,-0.49200000000000005,-0.495,-0.49700000000000005,-0.499,-0.647,-0.505,-0.506,-0.508,-0.51,-0.513,-0.515,-0.517,-0.518,-0.52,-0.521,-0.523,-0.526,-0.5283333333333333
54,[114],-0.071,-0.086,-0.10099999999999999,-0.115,-0.131,-0.145,-0.162,-0.177,-0.191,-0.20800000000000002,-0.22399999999999998,-0.239,-0.255,-0.271,-0.28600000000000003,-0.3,-0.314,-0.32799999999999996,-0.341,-0.353,-0.365,-0.37799999999999995,-0.389,-0.401,-0.41100000000000003,-0.42200000000000004,-0.43200000000000005,-0.442,-0.45299999999999996,-0.462,-0.47100000000000003,-0.48100000000000004,-0.49200000000000005,-0.5,0.285,-0.519,-0.527,-0.535,-0.5429999999999999,-0.552,-0.561,-0.57,-0.58,-0.142,-0.595,-0.603,-0.612,-0.62,-0.628,-0.636,-0.644,-0.653,-0.66,-0.777,-0.6759999999999999,-0.6859999999999999,-0.693,-0.701,-0.7070000000000001,-0.715,-0.723,-0.732,-0.74,-0.7490000000000001,-0.7559999999999999,-0.765,-0.28600000000000003,-0.778,-0.785,-0.795,-0.802,-0.8079999999999999,-0.815,-0.821,-0.828,-0.836,-0.843,-0.848,-0.857,0.46299999999999997,-0.87,-0.877,-0.885,-0.892,-0.897,-0.9059999999999999,-0.912,-0.9179999999999999,-0.925,-0.934,-0.937,-0.9440000000000001,-0.9483333333333334
55,[115],-0.19899999999999998,-0.198,-0.19399999999999998,-0.19399999999999998,-0.19,-0.185,-0.18100000000000002,-0.179,-0.177,-0.17,-0.163,-0.158,-0.152,-0.145,-0.141,-0.13699999999999998,-0.132,-0.127,-0.125,-0.121,-0.11699999999999999,-0.115,-0.114,-0.11,-0.10800000000000001,-0.107,-0.105,-0.10400000000000001,-0.105,-0.102,-0.10300000000000001,-0.10300000000000001,-0.10400000000000001,-0.10300000000000001,-0.287,-0.10400000000000001,-0.10400000000000001,-0.10400000000000001,-0.10400000000000001,-0.106,-0.10800000000000001,-0.106,-0.106,0.221,-0.107,-0.113,-0.111,-0.113,-0.113,-0.114,-0.11599999999999999,-0.121,-0.11800000000000001,0.772,-0.12300000000000001,-0.125,-0.124,-0.125,-0.127,-0.127,-0.127,-0.131,-0.13,-0.132,-0.13,-0.131,0.281,-0.13,-0.132,-0.134,-0.132,-0.135,-0.136,-0.13699999999999998,-0.136,-0.13699999999999998,-0.138,-0.138,-0.136,0.321,-0.139,-0.136,-0.139,-0.13699999999999998,-0.13699999999999998,-0.135,-0.135,-0.136,-0.136,-0.136,-0.138,-0.135,-0.13533333333333333
56,[148],-0.195,-0.195,-0.19699999999999998,-0.203,-0.207,-0.213,-0.22399999999999998,-0.237,-0.259,-0.27699999999999997,-0.294,-0.309,-0.32299999999999995,-0.341,-0.35100000000000003,-0.363,-0.374,-0.38299999999999995,-0.39299999999999996,-0.39899999999999997,-0.405,-0.41100000000000003,-0.419,-0.42100000000000004,-0.426,-0.43,-0.431,-0.434,-0.439,-0.441,-0.446,-0.446,-0.452,-0.455,0.21,-0.45899999999999996,-0.46,-0.46399999999999997,-0.46399999999999997,-0.465,-0.46799999999999997,-0.47,-0.47,-0.009000000000000001,-0.475,-0.474,-0.475,-0.47600000000000003,-0.479,-0.48200000000000004,-0.48200000000000004,-0.483,-0.48700000000000004,1.012,-0.491,-0.491,-0.49200000000000005,-0.491,-0.49200000000000005,-0.496,-0.499,-0.502,-0.503,-0.503,-0.505,-0.509,-0.225,-0.513,-0.515,-0.518,-0.521,-0.523,-0.526,-0.528,-0.529,-0.53,-0.5329999999999999,-0.535,-0.539,-0.387,-0.542,-0.546,-0.5489999999999999,-0.551,-0.555,-0.556,-0.5579999999999999,-0.5589999999999999,-0.563,-0.562,-0.565,-0.5670000000000001,-0.5696666666666667
57,[113],0.264,0.256,0.251,0.245,0.239,0.233,0.228,0.22,0.21600000000000003,0.21100000000000002,0.207,0.203,0.198,0.195,0.192,0.18899999999999997,0.188,0.18600000000000003,0.185,0.183,0.183,0.184,0.18600000000000003,0.184,0.187,0.188,0.19,0.191,0.19399999999999998,0.196,0.2,0.20199999999999999,0.205,0.20600000000000002,-0.754,0.213,0.21600000000000003,0.21899999999999997,0.22399999999999998,0.22699999999999998,0.228,0.231,0.237,0.49700000000000005,0.244,0.248,0.249,0.254,0.254,0.257,0.261,0.263,0.266,0.963,0.26899999999999996,0.26899999999999996,0.26899999999999996,0.273,0.27399999999999997,0.276,0.278,0.278,0.28,0.282,0.28,0.28300000000000003,-0.155,0.285,0.28600000000000003,0.287,0.28800000000000003,0.29100000000000004,0.29,0.294,0.293,0.295,0.294,0.29600000000000004,0.29600000000000004,-0.455,0.29600000000000004,0.297,0.299,0.299,0.298,0.298,0.299,0.299,0.298,0.3,0.299,0.298,0.297
58,[95],-0.018000000000000002,-0.012,-0.005,0.002,0.008,0.018000000000000002,0.026000000000000002,0.033,0.040999999999999995,0.048,0.06,0.067,0.077,0.086,0.096,0.10300000000000001,0.111,0.121,0.13,0.138,0.147,0.154,0.159,0.168,0.175,0.184,0.19,0.198,0.205,0.213,0.21899999999999997,0.22399999999999998,0.23,0.23600000000000002,0.255,0.247,0.254,0.259,0.266,0.26899999999999996,0.27399999999999997,0.281,0.28600000000000003,-0.044000000000000004,0.295,0.297,0.302,0.304,0.31,0.314,0.318,0.321,0.324,-0.605,0.32899999999999996,0.332,0.337,0.341,0.34299999999999997,0.34700000000000003,0.35,0.35200000000000004,0.35600000000000004,0.35700000000000004,0.363,0.366,0.377,0.375,0.377,0.377,0.382,0.384,0.385,0.387,0.392,0.395,0.396,0.39799999999999996,0.40399999999999997,-0.9309999999999999,0.408,0.41200000000000003,0.41200000000000003,0.418,0.42100000000000004,0.423,0.426,0.428,0.43,0.433,0.435,0.43799999999999994,0.4403333333333333
59,[145],-0.259,-0.258,-0.255,-0.253,-0.251,-0.249,-0.243,-0.23800000000000002,-0.22899999999999998,-0.226,-0.218,-0.215,-0.21,-0.20199999999999999,-0.196,-0.193,-0.188,-0.182,-0.18,-0.17600000000000002,-0.171,-0.16899999999999998,-0.168,-0.16399999999999998,-0.162,-0.159,-0.158,-0.157,-0.156,-0.153,-0.153,-0.154,-0.154,-0.153,-0.41600000000000004,-0.154,-0.154,-0.153,-0.153,-0.155,-0.156,-0.154,-0.154,-0.61,-0.155,-0.161,-0.16,-0.161,-0.161,-0.163,-0.16399999999999998,-0.168,-0.168,0.369,-0.174,-0.17600000000000002,-0.175,-0.17600000000000002,-0.179,-0.17800000000000002,-0.17800000000000002,-0.183,-0.182,-0.185,-0.182,-0.183,-0.564,-0.183,-0.184,-0.18899999999999997,-0.188,-0.19,-0.192,-0.19399999999999998,-0.193,-0.195,-0.19699999999999998,-0.19699999999999998,-0.196,-0.419,-0.2,-0.198,-0.201,-0.201,-0.201,-0.201,-0.201,-0.204,-0.204,-0.205,-0.207,-0.205,-0.20566666666666664
60,[88],-0.376,-0.374,-0.369,-0.364,-0.36,-0.355,-0.35,-0.344,-0.33899999999999997,-0.33299999999999996,-0.327,-0.321,-0.314,-0.311,-0.306,-0.301,-0.297,-0.293,-0.28800000000000003,-0.28300000000000003,-0.27899999999999997,-0.27399999999999997,-0.272,-0.26899999999999996,-0.266,-0.263,-0.258,-0.253,-0.252,-0.249,-0.249,-0.244,-0.24100000000000002,-0.24,-0.062,-0.233,-0.23,-0.231,-0.226,-0.223,-0.221,-0.222,-0.217,-0.5579999999999999,-0.21600000000000003,-0.21100000000000002,-0.20800000000000002,-0.20600000000000002,-0.204,-0.203,-0.2,-0.198,-0.2,-0.212,-0.196,-0.192,-0.192,-0.18600000000000003,-0.184,-0.18600000000000003,-0.185,-0.184,-0.182,-0.18,-0.179,-0.179,-0.19,-0.177,-0.17600000000000002,-0.177,-0.17600000000000002,-0.174,-0.174,-0.174,-0.172,-0.16899999999999998,-0.17,-0.168,-0.16899999999999998,-0.168,-0.165,-0.166,-0.165,-0.165,-0.166,-0.163,-0.162,-0.161,-0.162,-0.158,-0.159,-0.158,-0.15833333333333333
61,[109],0.008,-0.004,-0.013999999999999999,-0.022000000000000002,-0.027999999999999997,-0.034,-0.04,-0.047,-0.055999999999999994,-0.062,-0.071,-0.081,-0.09,-0.1,-0.11199999999999999,-0.11800000000000001,-0.129,-0.136,-0.14400000000000002,-0.153,-0.16,-0.168,-0.175,-0.183,-0.188,-0.19399999999999998,-0.201,-0.20600000000000002,-0.21100000000000002,-0.217,-0.221,-0.22399999999999998,-0.231,-0.235,-0.35100000000000003,-0.243,-0.247,-0.249,-0.254,-0.254,-0.256,-0.259,-0.262,0.397,-0.267,-0.271,-0.27,-0.273,-0.27399999999999997,-0.27399999999999997,-0.27699999999999997,-0.27699999999999997,-0.278,-0.9440000000000001,-0.28,-0.282,-0.282,-0.28300000000000003,-0.282,-0.284,-0.28300000000000003,-0.28300000000000003,-0.284,-0.28300000000000003,-0.284,-0.285,1.127,-0.285,-0.287,-0.28600000000000003,-0.28600000000000003,-0.284,-0.28600000000000003,-0.28600000000000003,-0.285,-0.284,-0.28300000000000003,-0.285,-0.285,0.371,-0.285,-0.28600000000000003,-0.284,-0.285,-0.282,-0.28300000000000003,-0.282,-0.282,-0.28300000000000003,-0.281,-0.281,-0.27899999999999997,-0.27833333333333327
62,[76],-0.161,-0.175,-0.19,-0.203,-0.214,-0.225,-0.235,-0.245,-0.256,-0.268,-0.28,-0.28800000000000003,-0.299,-0.308,-0.314,-0.32,-0.326,-0.331,-0.33799999999999997,-0.341,-0.344,-0.348,-0.35,-0.354,-0.353,-0.358,-0.35700000000000004,-0.36,-0.355,-0.35600000000000004,-0.35700000000000004,-0.35700000000000004,-0.355,-0.35600000000000004,0.431,-0.354,-0.35600000000000004,-0.35600000000000004,-0.355,-0.35200000000000004,-0.35200000000000004,-0.35200000000000004,-0.35,0.059000000000000004,-0.35,-0.35200000000000004,-0.35200000000000004,-0.348,-0.34700000000000003,-0.34700000000000003,-0.344,-0.342,-0.341,-0.727,-0.33899999999999997,-0.336,-0.33399999999999996,-0.33399999999999996,-0.33399999999999996,-0.332,-0.331,-0.33,-0.326,-0.326,-0.324,-0.324,-0.368,-0.321,-0.321,-0.318,-0.316,-0.316,-0.314,-0.312,-0.313,-0.311,-0.312,-0.31,-0.31,-0.775,-0.308,-0.306,-0.304,-0.303,-0.302,-0.304,-0.303,-0.302,-0.3,-0.3,-0.297,-0.297,-0.295
63,[106],-0.17800000000000002,-0.17300000000000001,-0.171,-0.17,-0.16899999999999998,-0.168,-0.168,-0.166,-0.165,-0.16399999999999998,-0.163,-0.161,-0.159,-0.16,-0.157,-0.154,-0.153,-0.15,-0.15,-0.15,-0.147,-0.145,-0.146,-0.14400000000000002,-0.14300000000000002,-0.14400000000000002,-0.14300000000000002,-0.142,-0.139,-0.14,-0.141,-0.142,-0.139,-0.14,-0.226,-0.139,-0.141,-0.141,-0.14300000000000002,-0.141,-0.141,-0.14300000000000002,-0.14300000000000002,0.556,-0.14400000000000002,-0.145,-0.145,-0.145,-0.147,-0.14800000000000002,-0.149,-0.15,-0.14800000000000002,-0.301,-0.15,-0.15,-0.15,-0.15,-0.15,-0.152,-0.152,-0.153,-0.152,-0.153,-0.153,-0.154,-0.349,-0.156,-0.157,-0.153,-0.154,-0.156,-0.156,-0.154,-0.157,-0.156,-0.156,-0.159,-0.158,0.051,-0.161,-0.162,-0.161,-0.158,-0.162,-0.163,-0.165,-0.166,-0.163,-0.166,-0.16399999999999998,-0.166,-0.16533333333333336
64,[120],0.065,0.068,0.07200000000000001,0.078,0.08199999999999999,0.08800000000000001,0.092,0.096,0.1,0.10400000000000001,0.10800000000000001,0.114,0.114,0.122,0.125,0.126,0.129,0.132,0.135,0.136,0.139,0.138,0.142,0.14,0.142,0.142,0.14400000000000002,0.14400000000000002,0.14400000000000002,0.146,0.14800000000000002,0.15,0.152,0.153,-0.192,0.154,0.153,0.155,0.156,0.155,0.156,0.157,0.158,-0.516,0.16,0.158,0.157,0.158,0.157,0.159,0.157,0.159,0.16,0.518,0.16,0.16,0.159,0.159,0.159,0.16,0.16,0.157,0.16,0.161,0.159,0.159,1.087,0.16,0.159,0.159,0.159,0.16,0.16,0.159,0.158,0.16,0.158,0.161,0.16,0.384,0.159,0.16,0.161,0.158,0.16,0.159,0.158,0.157,0.158,0.158,0.159,0.159,0.15966666666666665
65,[118],-0.42200000000000004,-0.43700000000000006,-0.451,-0.465,-0.48,-0.494,-0.508,-0.522,-0.537,-0.551,-0.565,-0.58,-0.594,-0.609,-0.623,-0.636,-0.6509999999999999,-0.6629999999999999,-0.675,-0.688,-0.6990000000000001,-0.7120000000000001,-0.725,-0.736,-0.745,-0.755,-0.7659999999999999,-0.7759999999999999,-0.787,-0.797,-0.807,-0.816,-0.826,-0.836,-0.11599999999999999,-0.853,-0.862,-0.871,-0.88,-0.888,-0.897,-0.9059999999999999,-0.915,0.6890000000000001,-0.934,-0.94,-0.9490000000000001,-0.955,-0.9640000000000001,-0.972,-0.98,-0.988,-0.997,-0.36,-1.012,-1.018,-1.025,-1.033,-1.04,-1.048,-1.057,-1.064,-1.071,-1.078,-1.0859999999999999,-1.094,-0.15,-1.109,-1.1179999999999999,-1.127,-1.1340000000000001,-1.1420000000000001,-1.15,-1.155,-1.165,-1.171,-1.177,-1.183,-1.193,-0.242,-1.208,-1.215,-1.2229999999999999,-1.2309999999999999,-1.237,-1.244,-1.251,-1.2570000000000001,-1.266,-1.27,-1.2770000000000001,-1.285,-1.2923333333333331
66,[116],-0.266,-0.272,-0.27899999999999997,-0.28800000000000003,-0.295,-0.304,-0.312,-0.322,-0.332,-0.34299999999999997,-0.353,-0.36200000000000004,-0.37200000000000005,-0.381,-0.387,-0.39399999999999996,-0.40299999999999997,-0.409,-0.418,-0.42200000000000004,-0.42700000000000005,-0.431,-0.436,-0.441,-0.445,-0.451,-0.452,-0.46,-0.45899999999999996,-0.46399999999999997,-0.467,-0.47,-0.47100000000000003,-0.475,-0.073,-0.479,-0.484,-0.48700000000000004,-0.491,-0.493,-0.496,-0.5,-0.502,-0.391,-0.51,-0.515,-0.518,-0.519,-0.523,-0.527,-0.527,-0.53,-0.5329999999999999,-0.262,-0.539,-0.5429999999999999,-0.545,-0.55,-0.555,-0.5589999999999999,-0.561,-0.563,-0.5660000000000001,-0.569,-0.573,-0.578,0.545,-0.586,-0.59,-0.591,-0.593,-0.598,-0.601,-0.604,-0.61,-0.613,-0.616,-0.621,-0.624,0.3,-0.632,-0.635,-0.638,-0.642,-0.645,-0.652,-0.655,-0.66,-0.664,-0.6679999999999999,-0.669,-0.675,-0.6776666666666668
67,[63],0.12300000000000001,0.114,0.105,0.095,0.085,0.076,0.065,0.055999999999999994,0.05,0.046,0.040999999999999995,0.04,0.042,0.045,0.044000000000000004,0.045,0.045,0.048,0.048,0.047,0.046,0.049,0.051,0.051,0.051,0.052000000000000005,0.053,0.052000000000000005,0.051,0.055999999999999994,0.055999999999999994,0.055999999999999994,0.054000000000000006,0.054000000000000006,-0.10300000000000001,0.054000000000000006,0.057,0.055,0.057,0.055,0.055,0.055999999999999994,0.053,0.24100000000000002,0.052000000000000005,0.053,0.052000000000000005,0.053,0.054000000000000006,0.053,0.054000000000000006,0.053,0.052000000000000005,-0.008,0.053,0.053,0.052000000000000005,0.049,0.051,0.052000000000000005,0.051,0.052000000000000005,0.051,0.053,0.053,0.051,0.28300000000000003,0.05,0.051,0.051,0.053,0.054000000000000006,0.051,0.053,0.054000000000000006,0.052000000000000005,0.052000000000000005,0.051,0.05,-0.941,0.052000000000000005,0.053,0.053,0.053,0.052000000000000005,0.052000000000000005,0.053,0.052000000000000005,0.051,0.051,0.052000000000000005,0.051,0.051333333333333335
68,[136],-0.336,-0.337,-0.337,-0.337,-0.33899999999999997,-0.34,-0.33899999999999997,-0.33799999999999997,-0.33799999999999997,-0.336,-0.337,-0.336,-0.33399999999999996,-0.335,-0.331,-0.32899999999999996,-0.32799999999999996,-0.327,-0.32799999999999996,-0.326,-0.331,-0.33,-0.32899999999999996,-0.33,-0.332,-0.336,-0.33399999999999996,-0.341,-0.337,-0.342,-0.342,-0.345,-0.34299999999999997,-0.345,-0.027000000000000003,-0.345,-0.349,-0.353,-0.354,-0.355,-0.354,-0.35700000000000004,-0.35600000000000004,-0.45899999999999996,-0.361,-0.366,-0.366,-0.365,-0.36700000000000005,-0.37,-0.36700000000000005,-0.36700000000000005,-0.368,-0.5329999999999999,-0.37,-0.37200000000000005,-0.373,-0.376,-0.379,-0.38,-0.379,-0.381,-0.382,-0.385,-0.38799999999999996,-0.39,0.166,-0.392,-0.395,-0.395,-0.396,-0.4,-0.402,-0.40399999999999997,-0.408,-0.409,-0.41,-0.41200000000000003,-0.41700000000000004,0.37799999999999995,-0.42,-0.424,-0.425,-0.428,-0.43,-0.433,-0.434,-0.43700000000000006,-0.441,-0.444,-0.446,-0.449,-0.4513333333333333
69,[94],-0.17600000000000002,-0.191,-0.20600000000000002,-0.222,-0.239,-0.255,-0.273,-0.289,-0.306,-0.321,-0.33799999999999997,-0.353,-0.369,-0.384,-0.39899999999999997,-0.41200000000000003,-0.42700000000000005,-0.441,-0.455,-0.46799999999999997,-0.48200000000000004,-0.493,-0.503,-0.515,-0.527,-0.537,-0.547,-0.5579999999999999,-0.569,-0.578,-0.588,-0.598,-0.607,-0.615,-0.365,-0.632,-0.639,-0.6459999999999999,-0.657,-0.664,-0.672,-0.6809999999999999,-0.687,0.18600000000000003,-0.7020000000000001,-0.7090000000000001,-0.7140000000000001,-0.722,-0.728,-0.735,-0.742,-0.75,-0.754,0.54,-0.7659999999999999,-0.7709999999999999,-0.7759999999999999,-0.782,-0.785,-0.7909999999999999,-0.7929999999999999,-0.7979999999999999,-0.805,-0.8079999999999999,-0.813,-0.8170000000000001,-0.6629999999999999,-0.826,-0.831,-0.836,-0.841,-0.8440000000000001,-0.847,-0.852,-0.8540000000000001,-0.858,-0.861,-0.8640000000000001,-0.868,0.155,-0.877,-0.879,-0.883,-0.8859999999999999,-0.888,-0.893,-0.8909999999999999,-0.893,-0.8959999999999999,-0.9009999999999999,-0.9009999999999999,-0.902,-0.9023333333333333
70,[82],0.095,0.102,0.109,0.111,0.115,0.115,0.12,0.121,0.122,0.12300000000000001,0.121,0.122,0.125,0.12300000000000001,0.126,0.125,0.126,0.126,0.125,0.128,0.128,0.126,0.126,0.13,0.133,0.135,0.134,0.134,0.13699999999999998,0.13699999999999998,0.139,0.138,0.138,0.14400000000000002,0.044000000000000004,0.145,0.14800000000000002,0.14800000000000002,0.149,0.151,0.15,0.153,0.153,0.159,0.158,0.158,0.158,0.159,0.159,0.162,0.161,0.163,0.166,-0.585,0.168,0.16699999999999998,0.16699999999999998,0.168,0.168,0.17,0.16899999999999998,0.17,0.172,0.172,0.172,0.175,0.039,0.177,0.177,0.177,0.177,0.17800000000000002,0.179,0.18100000000000002,0.182,0.182,0.182,0.183,0.183,0.02,0.184,0.185,0.18600000000000003,0.188,0.188,0.19,0.18899999999999997,0.191,0.191,0.191,0.192,0.191,0.19133333333333336
71,[103],-0.016,-0.019,-0.017,-0.015,-0.013999999999999999,-0.011000000000000001,-0.009000000000000001,-0.006999999999999999,-0.004,0.0,0.002,0.006,0.01,0.015,0.017,0.02,0.023,0.027000000000000003,0.028999999999999998,0.031,0.033,0.037000000000000005,0.040999999999999995,0.043,0.045,0.048,0.051,0.052000000000000005,0.054000000000000006,0.059000000000000004,0.061,0.063,0.063,0.065,-0.5670000000000001,0.068,0.07200000000000001,0.07200000000000001,0.075,0.076,0.077,0.079,0.079,-0.067,0.081,0.084,0.084,0.087,0.08800000000000001,0.08800000000000001,0.091,0.092,0.092,0.447,0.095,0.096,0.096,0.095,0.09699999999999999,0.099,0.099,0.1,0.1,0.10300000000000001,0.10300000000000001,0.10300000000000001,0.17600000000000002,0.10400000000000001,0.105,0.106,0.10800000000000001,0.11,0.109,0.111,0.11199999999999999,0.111,0.11199999999999999,0.11199999999999999,0.11199999999999999,-0.97,0.115,0.11599999999999999,0.11699999999999999,0.11699999999999999,0.11699999999999999,0.11699999999999999,0.11900000000000001,0.11900000000000001,0.11800000000000001,0.11900000000000001,0.12,0.11900000000000001,0.11933333333333332
72,[140],0.10400000000000001,0.105,0.10400000000000001,0.1,0.09699999999999999,0.094,0.086,0.077,0.063,0.05,0.042,0.035,0.024,0.019,0.009000000000000001,0.0,-0.005,-0.008,-0.013999999999999999,-0.016,-0.018000000000000002,-0.022000000000000002,-0.022000000000000002,-0.028999999999999998,-0.027999999999999997,-0.028999999999999998,-0.03,-0.032,-0.033,-0.031,-0.031,-0.03,-0.03,-0.027999999999999997,-0.462,-0.027000000000000003,-0.027999999999999997,-0.027999999999999997,-0.026000000000000002,-0.027000000000000003,-0.025,-0.023,-0.022000000000000002,0.34,-0.019,-0.02,-0.021,-0.017,-0.017,-0.015,-0.016,-0.013000000000000001,-0.011000000000000001,0.375,-0.01,-0.008,-0.008,-0.005,-0.005,-0.004,-0.003,-0.004,0.0,0.003,0.003,0.002,0.408,0.005,0.006,0.006,0.008,0.01,0.012,0.012,0.012,0.013999999999999999,0.015,0.018000000000000002,0.018000000000000002,-0.262,0.019,0.021,0.023,0.022000000000000002,0.025,0.026000000000000002,0.027000000000000003,0.027000000000000003,0.028999999999999998,0.03,0.031,0.033,0.03433333333333333
73,[146],0.158,0.145,0.133,0.11800000000000001,0.102,0.085,0.066,0.044000000000000004,0.026000000000000002,0.017,0.015,0.017,0.018000000000000002,0.017,0.02,0.025,0.027999999999999997,0.033,0.035,0.04,0.046,0.052000000000000005,0.055,0.06,0.067,0.071,0.079,0.083,0.094,0.09699999999999999,0.102,0.107,0.115,0.12,-0.733,0.134,0.136,0.142,0.145,0.153,0.158,0.162,0.168,-0.13,0.177,0.18100000000000002,0.187,0.19399999999999998,0.198,0.201,0.20800000000000002,0.212,0.21899999999999997,0.336,0.228,0.233,0.23800000000000002,0.243,0.247,0.252,0.256,0.261,0.266,0.27,0.275,0.27899999999999997,0.10300000000000001,0.287,0.29,0.299,0.303,0.305,0.31,0.316,0.318,0.322,0.326,0.32799999999999996,0.33299999999999996,-0.042,0.33899999999999997,0.34299999999999997,0.348,0.353,0.355,0.35700000000000004,0.359,0.363,0.368,0.37,0.376,0.37799999999999995,0.3826666666666666
74,[150],0.149,0.152,0.156,0.159,0.162,0.166,0.16899999999999998,0.172,0.175,0.179,0.182,0.187,0.18600000000000003,0.19399999999999998,0.196,0.19699999999999998,0.19899999999999998,0.20199999999999999,0.204,0.205,0.207,0.20600000000000002,0.209,0.207,0.20800000000000002,0.20800000000000002,0.209,0.209,0.207,0.209,0.21100000000000002,0.212,0.214,0.214,0.345,0.215,0.213,0.215,0.215,0.215,0.215,0.215,0.21600000000000003,-0.654,0.21600000000000003,0.214,0.213,0.214,0.212,0.213,0.21100000000000002,0.213,0.214,-0.136,0.214,0.214,0.213,0.212,0.212,0.213,0.213,0.209,0.212,0.213,0.21100000000000002,0.21,0.395,0.21,0.21,0.209,0.20800000000000002,0.21,0.21,0.20800000000000002,0.207,0.209,0.207,0.21,0.21,-0.28600000000000003,0.209,0.21,0.21100000000000002,0.20800000000000002,0.21,0.209,0.20800000000000002,0.207,0.207,0.20800000000000002,0.209,0.209,0.20966666666666664
75,[101],0.336,0.337,0.337,0.342,0.34299999999999997,0.344,0.34700000000000003,0.35100000000000003,0.354,0.35700000000000004,0.36200000000000004,0.366,0.36700000000000005,0.37200000000000005,0.375,0.377,0.381,0.38,0.381,0.384,0.38299999999999995,0.385,0.385,0.384,0.38299999999999995,0.385,0.38299999999999995,0.38299999999999995,0.38299999999999995,0.38299999999999995,0.385,0.38299999999999995,0.385,0.38299999999999995,-0.594,0.38299999999999995,0.382,0.386,0.386,0.382,0.385,0.385,0.386,-0.43700000000000006,0.386,0.384,0.385,0.384,0.386,0.384,0.386,0.386,0.385,0.14400000000000002,0.386,0.385,0.387,0.387,0.384,0.387,0.386,0.38799999999999996,0.38799999999999996,0.386,0.38799999999999996,0.389,-0.17300000000000001,0.389,0.39,0.391,0.391,0.39,0.39,0.39,0.392,0.391,0.392,0.392,0.395,0.19,0.396,0.397,0.395,0.396,0.395,0.396,0.39799999999999996,0.397,0.39799999999999996,0.39799999999999996,0.397,0.39799999999999996,0.3976666666666666
76,[143],-0.402,-0.414,-0.426,-0.439,-0.455,-0.47100000000000003,-0.489,-0.511,-0.537,-0.5660000000000001,-0.5920000000000001,-0.616,-0.638,-0.66,-0.677,-0.6970000000000001,-0.713,-0.731,-0.747,-0.765,-0.778,-0.792,-0.804,-0.8190000000000001,-0.83,-0.8440000000000001,-0.8540000000000001,-0.8640000000000001,-0.877,-0.8809999999999999,-0.8909999999999999,-0.9009999999999999,-0.91,-0.9209999999999999,0.7909999999999999,-0.9359999999999999,-0.9420000000000001,-0.95,-0.9570000000000001,-0.963,-0.971,-0.978,-0.9840000000000001,-0.61,-0.998,-1.003,-1.01,-1.016,-1.023,-1.03,-1.034,-1.04,-1.047,0.062,-1.057,-1.064,-1.071,-1.078,-1.083,-1.088,-1.093,-1.1,-1.105,-1.11,-1.117,-1.121,0.147,-1.1320000000000001,-1.139,-1.1420000000000001,-1.147,-1.151,-1.158,-1.16,-1.165,-1.17,-1.176,-1.182,-1.189,0.11,-1.199,-1.203,-1.206,-1.2109999999999999,-1.216,-1.2209999999999999,-1.225,-1.2309999999999999,-1.236,-1.239,-1.245,-1.25,-1.2556666666666665
77,[86],0.41,0.413,0.413,0.41200000000000003,0.41100000000000003,0.408,0.40700000000000003,0.405,0.40399999999999997,0.40299999999999997,0.401,0.39899999999999997,0.4,0.396,0.397,0.397,0.397,0.39799999999999996,0.397,0.395,0.396,0.39799999999999996,0.396,0.397,0.397,0.395,0.396,0.396,0.39899999999999997,0.39799999999999996,0.396,0.39399999999999996,0.396,0.395,-0.624,0.39399999999999996,0.392,0.392,0.389,0.392,0.391,0.39,0.39,-0.349,0.39,0.38799999999999996,0.389,0.38799999999999996,0.386,0.384,0.384,0.382,0.384,0.8109999999999999,0.381,0.382,0.381,0.382,0.381,0.379,0.379,0.37799999999999995,0.379,0.37799999999999995,0.379,0.377,-0.525,0.375,0.374,0.379,0.377,0.375,0.376,0.377,0.374,0.375,0.376,0.37200000000000005,0.373,0.494,0.37,0.369,0.369,0.373,0.369,0.368,0.366,0.366,0.368,0.366,0.368,0.366,0.3666666666666667
78,[119],0.33799999999999997,0.34700000000000003,0.35700000000000004,0.368,0.379,0.391,0.40299999999999997,0.41700000000000004,0.429,0.442,0.455,0.466,0.48,0.49200000000000005,0.502,0.515,0.526,0.5379999999999999,0.5479999999999999,0.5579999999999999,0.569,0.5770000000000001,0.585,0.593,0.601,0.608,0.613,0.621,0.627,0.632,0.637,0.644,0.647,0.6509999999999999,0.304,0.66,0.664,0.669,0.6709999999999999,0.677,0.6809999999999999,0.685,0.6859999999999999,-0.396,0.6920000000000001,0.695,0.7,0.7020000000000001,0.7040000000000001,0.708,0.71,0.7140000000000001,0.715,0.32899999999999996,0.7190000000000001,0.722,0.723,0.7240000000000001,0.7290000000000001,0.73,0.731,0.735,0.735,0.7390000000000001,0.7390000000000001,0.741,0.37799999999999995,0.7440000000000001,0.745,0.746,0.748,0.7509999999999999,0.7509999999999999,0.753,0.754,0.755,0.758,0.757,0.757,0.5489999999999999,0.759,0.758,0.762,0.7609999999999999,0.765,0.764,0.7659999999999999,0.7659999999999999,0.765,0.769,0.769,0.769,0.769
79,[126],0.35,0.35600000000000004,0.359,0.361,0.364,0.365,0.36700000000000005,0.371,0.373,0.376,0.377,0.38,0.384,0.384,0.38799999999999996,0.39299999999999996,0.39399999999999996,0.39899999999999997,0.4,0.401,0.40399999999999997,0.408,0.408,0.41100000000000003,0.413,0.41200000000000003,0.415,0.41700000000000004,0.42100000000000004,0.42100000000000004,0.42100000000000004,0.42200000000000004,0.426,0.426,-0.265,0.429,0.428,0.43,0.428,0.43200000000000005,0.43200000000000005,0.43200000000000005,0.433,0.053,0.435,0.434,0.436,0.43700000000000006,0.436,0.436,0.43700000000000006,0.43700000000000006,0.439,0.361,0.439,0.44,0.441,0.442,0.442,0.442,0.44299999999999995,0.442,0.444,0.445,0.446,0.446,-0.281,0.446,0.446,0.451,0.451,0.45,0.451,0.45399999999999996,0.452,0.45399999999999996,0.455,0.452,0.45399999999999996,0.21,0.452,0.45299999999999996,0.45399999999999996,0.45799999999999996,0.456,0.455,0.45399999999999996,0.45399999999999996,0.45799999999999996,0.456,0.45899999999999996,0.45799999999999996,0.4596666666666666
80,[60],0.065,0.066,0.065,0.064,0.064,0.064,0.063,0.071,0.079,0.092,0.10300000000000001,0.115,0.12,0.134,0.141,0.147,0.153,0.16,0.166,0.17,0.175,0.17600000000000002,0.182,0.18100000000000002,0.185,0.187,0.19,0.191,0.192,0.195,0.19899999999999998,0.20199999999999999,0.205,0.207,-0.715,0.21,0.21,0.213,0.215,0.215,0.217,0.218,0.22,-0.56,0.223,0.222,0.222,0.22399999999999998,0.223,0.226,0.22399999999999998,0.22699999999999998,0.22899999999999998,0.22399999999999998,0.23,0.23199999999999998,0.23199999999999998,0.23199999999999998,0.233,0.235,0.23600000000000002,0.233,0.237,0.24,0.239,0.23800000000000002,-0.39299999999999996,0.24,0.24100000000000002,0.24100000000000002,0.242,0.244,0.245,0.244,0.244,0.247,0.247,0.25,0.25,-0.265,0.25,0.252,0.254,0.251,0.255,0.254,0.254,0.254,0.256,0.258,0.259,0.26,0.261
81,[124],0.21899999999999997,0.22699999999999998,0.22899999999999998,0.23600000000000002,0.24,0.247,0.25,0.256,0.262,0.267,0.276,0.281,0.287,0.292,0.297,0.305,0.309,0.313,0.318,0.321,0.325,0.326,0.32899999999999996,0.335,0.336,0.33799999999999997,0.33899999999999997,0.341,0.344,0.34299999999999997,0.344,0.34600000000000003,0.345,0.34600000000000003,0.055999999999999994,0.348,0.35,0.35,0.349,0.35100000000000003,0.35100000000000003,0.35200000000000004,0.35100000000000003,-0.505,0.35100000000000003,0.354,0.355,0.355,0.35600000000000004,0.358,0.358,0.35700000000000004,0.358,-0.009000000000000001,0.35700000000000004,0.35600000000000004,0.359,0.358,0.36,0.36,0.36200000000000004,0.364,0.36200000000000004,0.36,0.361,0.36200000000000004,0.4,0.364,0.365,0.363,0.364,0.363,0.365,0.363,0.364,0.363,0.365,0.36700000000000005,0.365,0.537,0.366,0.365,0.364,0.364,0.366,0.366,0.36700000000000005,0.368,0.368,0.36700000000000005,0.366,0.36700000000000005,0.3666666666666667
82,[83],0.248,0.245,0.247,0.248,0.249,0.251,0.253,0.254,0.257,0.261,0.263,0.267,0.272,0.27699999999999997,0.27899999999999997,0.282,0.285,0.29,0.292,0.294,0.29600000000000004,0.3,0.304,0.306,0.309,0.312,0.315,0.317,0.318,0.324,0.325,0.32799999999999996,0.32799999999999996,0.33,-0.138,0.33399999999999996,0.337,0.33799999999999997,0.341,0.342,0.34299999999999997,0.345,0.345,0.37,0.34700000000000003,0.35,0.35,0.353,0.354,0.354,0.35700000000000004,0.358,0.358,-0.046,0.36200000000000004,0.363,0.36200000000000004,0.361,0.363,0.365,0.365,0.36700000000000005,0.366,0.369,0.369,0.37,0.18600000000000003,0.371,0.37200000000000005,0.374,0.376,0.37799999999999995,0.376,0.379,0.38,0.379,0.38,0.379,0.379,-1.2,0.382,0.38299999999999995,0.384,0.384,0.384,0.384,0.386,0.386,0.385,0.385,0.386,0.386,0.38666666666666666
83,[142],0.22399999999999998,0.217,0.21100000000000002,0.203,0.191,0.179,0.168,0.154,0.14400000000000002,0.132,0.121,0.11599999999999999,0.10800000000000001,0.1,0.09300000000000001,0.087,0.081,0.075,0.075,0.07200000000000001,0.068,0.066,0.062,0.065,0.066,0.066,0.064,0.064,0.067,0.066,0.068,0.069,0.07,0.073,-0.54,0.073,0.076,0.076,0.08,0.081,0.08199999999999999,0.083,0.085,0.086,0.08900000000000001,0.091,0.091,0.092,0.094,0.098,0.09699999999999999,0.1,0.102,-0.157,0.106,0.105,0.107,0.11,0.111,0.113,0.113,0.115,0.11699999999999999,0.11699999999999999,0.11900000000000001,0.121,-0.542,0.126,0.126,0.127,0.128,0.131,0.131,0.135,0.13699999999999998,0.13699999999999998,0.139,0.139,0.139,0.11199999999999999,0.14,0.142,0.14300000000000002,0.14400000000000002,0.146,0.146,0.147,0.15,0.14800000000000002,0.149,0.15,0.14800000000000002,0.14800000000000002
84,[92],0.068,0.065,0.063,0.06,0.059000000000000004,0.055,0.059000000000000004,0.057,0.055,0.054000000000000006,0.05,0.049,0.045,0.043,0.040999999999999995,0.039,0.036000000000000004,0.034,0.034,0.033,0.033,0.03,0.031,0.032,0.033,0.034,0.035,0.034,0.036000000000000004,0.036000000000000004,0.039,0.040999999999999995,0.040999999999999995,0.043,-0.153,0.045,0.045,0.048,0.051,0.053,0.055999999999999994,0.055999999999999994,0.057999999999999996,-0.436,0.061,0.065,0.067,0.067,0.069,0.07400000000000001,0.076,0.081,0.084,-0.157,0.091,0.09,0.095,0.10099999999999999,0.10300000000000001,0.107,0.107,0.11199999999999999,0.114,0.11699999999999999,0.12,0.12300000000000001,-0.15,0.128,0.134,0.136,0.141,0.145,0.146,0.152,0.154,0.159,0.161,0.166,0.17,-0.871,0.17800000000000002,0.182,0.18600000000000003,0.18899999999999997,0.193,0.196,0.2,0.20600000000000002,0.207,0.21100000000000002,0.21600000000000003,0.217,0.22066666666666668
85,[110],-0.278,-0.292,-0.305,-0.319,-0.33299999999999996,-0.34600000000000003,-0.36,-0.375,-0.39,-0.405,-0.42,-0.433,-0.45,-0.46399999999999997,-0.478,-0.49200000000000005,-0.506,-0.517,-0.529,-0.54,-0.552,-0.565,-0.575,-0.586,-0.594,-0.606,-0.613,-0.623,-0.633,-0.6409999999999999,-0.648,-0.6579999999999999,-0.6659999999999999,-0.6729999999999999,-0.08800000000000001,-0.6890000000000001,-0.695,-0.7020000000000001,-0.71,-0.716,-0.722,-0.7290000000000001,-0.736,-0.599,-0.7509999999999999,-0.758,-0.763,-0.769,-0.775,-0.782,-0.7879999999999999,-0.794,-0.8009999999999999,0.268,-0.813,-0.8170000000000001,-0.825,-0.8290000000000001,-0.8340000000000001,-0.8390000000000001,-0.846,-0.853,-0.858,-0.862,-0.866,-0.872,0.05,-0.88,-0.885,-0.8909999999999999,-0.897,-0.9009999999999999,-0.905,-0.9109999999999999,-0.9179999999999999,-0.9229999999999999,-0.9279999999999999,-0.932,-0.937,-0.361,-0.9470000000000001,-0.9520000000000001,-0.958,-0.961,-0.965,-0.972,-0.976,-0.981,-0.986,-0.9890000000000001,-0.993,-1.0,-1.005
86,[151],-0.249,-0.244,-0.242,-0.235,-0.231,-0.22699999999999998,-0.221,-0.215,-0.21,-0.205,-0.19899999999999998,-0.193,-0.191,-0.185,-0.18,-0.177,-0.17300000000000001,-0.172,-0.171,-0.168,-0.168,-0.16699999999999998,-0.16699999999999998,-0.16899999999999998,-0.16899999999999998,-0.16899999999999998,-0.171,-0.172,-0.17300000000000001,-0.174,-0.174,-0.177,-0.17600000000000002,-0.179,-0.364,-0.182,-0.184,-0.18100000000000002,-0.182,-0.188,-0.187,-0.18899999999999997,-0.18899999999999997,-0.792,-0.192,-0.196,-0.19699999999999998,-0.19899999999999998,-0.19899999999999998,-0.20199999999999999,-0.201,-0.203,-0.20600000000000002,-0.077,-0.20800000000000002,-0.21100000000000002,-0.21,-0.212,-0.217,-0.214,-0.217,-0.21600000000000003,-0.218,-0.221,-0.221,-0.221,0.447,-0.22399999999999998,-0.22399999999999998,-0.225,-0.226,-0.228,-0.23,-0.231,-0.23,-0.23199999999999998,-0.233,-0.23399999999999999,-0.23199999999999998,-0.863,-0.233,-0.233,-0.23600000000000002,-0.23600000000000002,-0.239,-0.239,-0.23800000000000002,-0.24,-0.24,-0.24100000000000002,-0.243,-0.243,-0.2443333333333333
87,[89],0.423,0.41,0.4,0.39,0.38299999999999995,0.376,0.369,0.361,0.353,0.344,0.335,0.324,0.313,0.301,0.289,0.27899999999999997,0.266,0.255,0.245,0.23399999999999999,0.225,0.215,0.207,0.198,0.19,0.182,0.174,0.168,0.162,0.155,0.149,0.146,0.139,0.134,0.053,0.124,0.11900000000000001,0.11800000000000001,0.11199999999999999,0.11199999999999999,0.109,0.106,0.102,-0.387,0.096,0.09300000000000001,0.09300000000000001,0.09,0.08900000000000001,0.08800000000000001,0.086,0.086,0.084,-0.41600000000000004,0.081,0.079,0.079,0.077,0.079,0.076,0.077,0.077,0.07400000000000001,0.076,0.07400000000000001,0.073,0.624,0.07200000000000001,0.069,0.07,0.07,0.07200000000000001,0.07,0.069,0.07,0.071,0.071,0.069,0.068,-0.28600000000000003,0.068,0.067,0.07,0.067,0.07,0.068,0.069,0.068,0.067,0.07,0.068,0.07,0.06933333333333334
88,[102],-0.39299999999999996,-0.385,-0.377,-0.376,-0.371,-0.371,-0.366,-0.365,-0.364,-0.365,-0.368,-0.368,-0.366,-0.369,-0.368,-0.37,-0.37,-0.37200000000000005,-0.374,-0.373,-0.373,-0.376,-0.377,-0.376,-0.374,-0.373,-0.375,-0.376,-0.375,-0.376,-0.376,-0.37799999999999995,-0.379,-0.375,0.243,-0.376,-0.375,-0.376,-0.377,-0.377,-0.379,-0.377,-0.37799999999999995,-0.743,-0.376,-0.377,-0.379,-0.379,-0.38,-0.37799999999999995,-0.38,-0.38,-0.37799999999999995,-0.198,-0.379,-0.38,-0.382,-0.382,-0.38299999999999995,-0.38299999999999995,-0.384,-0.384,-0.384,-0.385,-0.386,-0.384,-0.877,-0.384,-0.385,-0.386,-0.386,-0.386,-0.386,-0.385,-0.385,-0.386,-0.387,-0.387,-0.38799999999999996,0.049,-0.389,-0.389,-0.389,-0.38799999999999996,-0.38799999999999996,-0.387,-0.389,-0.38799999999999996,-0.38799999999999996,-0.389,-0.39,-0.391,-0.39199999999999996
89,[125],-0.35700000000000004,-0.371,-0.384,-0.4,-0.414,-0.42700000000000005,-0.441,-0.456,-0.47100000000000003,-0.484,-0.496,-0.509,-0.522,-0.531,-0.541,-0.552,-0.56,-0.568,-0.5760000000000001,-0.583,-0.588,-0.596,-0.603,-0.608,-0.614,-0.619,-0.624,-0.629,-0.635,-0.639,-0.644,-0.65,-0.6559999999999999,-0.66,-0.046,-0.669,-0.6729999999999999,-0.677,-0.68,-0.6859999999999999,-0.69,-0.691,-0.696,0.231,-0.7040000000000001,-0.7090000000000001,-0.711,-0.718,-0.7190000000000001,-0.723,-0.727,-0.733,-0.736,-0.396,-0.746,-0.7509999999999999,-0.752,-0.7559999999999999,-0.7609999999999999,-0.764,-0.7659999999999999,-0.772,-0.774,-0.778,-0.779,-0.7809999999999999,-0.064,-0.7859999999999999,-0.7909999999999999,-0.795,-0.797,-0.802,-0.805,-0.81,-0.8109999999999999,-0.815,-0.8190000000000001,-0.8220000000000001,-0.823,0.40700000000000003,-0.831,-0.8320000000000001,-0.8370000000000001,-0.838,-0.84,-0.8420000000000001,-0.8440000000000001,-0.8490000000000001,-0.852,-0.8540000000000001,-0.857,-0.858,-0.8603333333333332
90,[111],0.27699999999999997,0.28,0.281,0.285,0.285,0.28600000000000003,0.287,0.287,0.28600000000000003,0.282,0.27899999999999997,0.27399999999999997,0.26899999999999996,0.264,0.262,0.257,0.254,0.25,0.245,0.242,0.23800000000000002,0.237,0.235,0.235,0.233,0.235,0.23399999999999999,0.235,0.23600000000000002,0.24,0.24,0.24600000000000002,0.249,0.251,0.574,0.256,0.26,0.266,0.271,0.273,0.278,0.28600000000000003,0.292,-0.665,0.305,0.311,0.316,0.322,0.32899999999999996,0.33299999999999996,0.342,0.348,0.355,-0.114,0.36700000000000005,0.375,0.38299999999999995,0.389,0.39299999999999996,0.40299999999999997,0.41100000000000003,0.419,0.42700000000000005,0.43200000000000005,0.441,0.45,0.09699999999999999,0.465,0.474,0.483,0.49,0.495,0.503,0.509,0.522,0.53,0.537,0.544,0.551,0.66,0.5670000000000001,0.5760000000000001,0.583,0.5920000000000001,0.597,0.608,0.615,0.623,0.633,0.64,0.647,0.654,0.6609999999999999
91,[78],-0.42,-0.424,-0.433,-0.439,-0.44799999999999995,-0.457,-0.466,-0.47200000000000003,-0.48200000000000004,-0.491,-0.5,-0.505,-0.511,-0.52,-0.527,-0.534,-0.542,-0.545,-0.552,-0.556,-0.56,-0.564,-0.5710000000000001,-0.5710000000000001,-0.573,-0.5760000000000001,-0.575,-0.578,-0.58,-0.5820000000000001,-0.585,-0.586,-0.589,-0.591,-0.9309999999999999,-0.5920000000000001,-0.593,-0.594,-0.596,-0.598,-0.598,-0.598,-0.599,0.07,-0.6,-0.601,-0.602,-0.6,-0.602,-0.602,-0.604,-0.604,-0.605,0.625,-0.606,-0.607,-0.606,-0.608,-0.606,-0.607,-0.609,-0.61,-0.61,-0.61,-0.612,-0.613,-0.183,-0.615,-0.616,-0.616,-0.619,-0.62,-0.62,-0.62,-0.621,-0.623,-0.624,-0.623,-0.627,-0.16,-0.627,-0.628,-0.63,-0.63,-0.632,-0.632,-0.632,-0.633,-0.635,-0.633,-0.634,-0.636,-0.6373333333333333
92,[161],0.23,0.222,0.217,0.21,0.203,0.19,0.177,0.163,0.14300000000000002,0.11699999999999999,0.085,0.051,0.011000000000000001,-0.028999999999999998,-0.067,-0.1,-0.131,-0.162,-0.191,-0.21600000000000003,-0.24100000000000002,-0.266,-0.289,-0.313,-0.33299999999999996,-0.354,-0.373,-0.39299999999999996,-0.41100000000000003,-0.428,-0.446,-0.46299999999999997,-0.479,-0.495,0.2,-0.527,-0.541,-0.5539999999999999,-0.57,-0.586,-0.6,-0.612,-0.627,0.154,-0.654,-0.667,-0.6809999999999999,-0.693,-0.705,-0.718,-0.728,-0.74,-0.752,-0.503,-0.775,-0.7859999999999999,-0.7959999999999999,-0.807,-0.8190000000000001,-0.8290000000000001,-0.8390000000000001,-0.848,-0.858,-0.8690000000000001,-0.877,-0.8859999999999999,-0.391,-0.905,-0.9129999999999999,-0.922,-0.9309999999999999,-0.941,-0.9490000000000001,-0.9570000000000001,-0.9640000000000001,-0.972,-0.981,-0.9890000000000001,-0.997,-0.17300000000000001,-1.011,-1.018,-1.026,-1.033,-1.041,-1.047,-1.055,-1.062,-1.068,-1.0759999999999998,-1.083,-1.091,-1.0983333333333334
93,[79],0.201,0.207,0.218,0.228,0.24100000000000002,0.254,0.27,0.285,0.299,0.315,0.32799999999999996,0.341,0.355,0.369,0.38,0.39399999999999996,0.405,0.41700000000000004,0.428,0.43799999999999994,0.449,0.456,0.465,0.47100000000000003,0.479,0.486,0.49,0.498,0.503,0.507,0.511,0.518,0.52,0.524,0.075,0.532,0.535,0.54,0.54,0.547,0.5489999999999999,0.5529999999999999,0.5529999999999999,-0.14300000000000002,0.5579999999999999,0.561,0.5660000000000001,0.5670000000000001,0.569,0.5720000000000001,0.574,0.578,0.579,-0.281,0.583,0.586,0.586,0.588,0.593,0.593,0.594,0.598,0.597,0.601,0.601,0.603,0.11599999999999999,0.606,0.607,0.609,0.61,0.614,0.614,0.615,0.617,0.619,0.621,0.62,0.621,0.24600000000000002,0.624,0.623,0.627,0.627,0.63,0.63,0.632,0.632,0.632,0.635,0.636,0.636,0.6366666666666667
94,[137],-0.435,-0.43,-0.42700000000000005,-0.426,-0.424,-0.426,-0.42700000000000005,-0.429,-0.431,-0.433,-0.435,-0.43700000000000006,-0.44,-0.442,-0.445,-0.449,-0.45399999999999996,-0.46,-0.465,-0.474,-0.486,-0.503,-0.517,-0.5329999999999999,-0.556,-0.565,-0.579,-0.593,-0.608,-0.625,-0.637,-0.6459999999999999,-0.6559999999999999,-0.667,-0.009000000000000001,-0.69,-0.701,-0.7120000000000001,-0.721,-0.7340000000000001,-0.74,-0.75,-0.758,0.588,-0.775,-0.7809999999999999,-0.79,-0.797,-0.804,-0.8109999999999999,-0.82,-0.8270000000000001,-0.8320000000000001,0.031,-0.8390000000000001,-0.847,-0.852,-0.857,-0.865,-0.872,-0.879,-0.882,-0.888,-0.894,-0.9009999999999999,-0.9059999999999999,-0.222,-0.9179999999999999,-0.924,-0.929,-0.9329999999999999,-0.94,-0.9420000000000001,-0.9470000000000001,-0.95,-0.955,-0.961,-0.963,-0.9670000000000001,0.44299999999999995,-0.9740000000000001,-0.978,-0.987,-0.988,-0.9940000000000001,-0.997,-1.003,-1.005,-1.0090000000000001,-1.015,-1.018,-1.025,-1.0293333333333332
95,[90],-0.27399999999999997,-0.28,-0.287,-0.292,-0.298,-0.304,-0.312,-0.318,-0.324,-0.33,-0.337,-0.34299999999999997,-0.35,-0.35700000000000004,-0.365,-0.371,-0.377,-0.38,-0.386,-0.391,-0.39299999999999996,-0.39899999999999997,-0.401,-0.409,-0.41100000000000003,-0.41600000000000004,-0.419,-0.424,-0.429,-0.43200000000000005,-0.43700000000000006,-0.439,-0.44299999999999995,-0.444,-0.237,-0.451,-0.455,-0.45799999999999996,-0.461,-0.465,-0.469,-0.474,-0.478,-0.317,-0.48200000000000004,-0.486,-0.49200000000000005,-0.494,-0.49700000000000005,-0.5,-0.503,-0.506,-0.51,0.23199999999999998,-0.516,-0.52,-0.523,-0.526,-0.531,-0.535,-0.5379999999999999,-0.5429999999999999,-0.544,-0.547,-0.55,-0.555,-0.17800000000000002,-0.561,-0.563,-0.5660000000000001,-0.57,-0.5720000000000001,-0.574,-0.579,-0.583,-0.588,-0.591,-0.594,-0.597,0.685,-0.605,-0.607,-0.61,-0.613,-0.615,-0.617,-0.621,-0.624,-0.625,-0.63,-0.634,-0.634,-0.6366666666666667
96,[66],0.16,0.16,0.157,0.154,0.149,0.146,0.141,0.138,0.136,0.133,0.133,0.132,0.135,0.13,0.134,0.13699999999999998,0.138,0.142,0.141,0.141,0.14300000000000002,0.145,0.14400000000000002,0.145,0.146,0.14300000000000002,0.145,0.146,0.14800000000000002,0.146,0.14400000000000002,0.14300000000000002,0.145,0.14400000000000002,-0.212,0.14300000000000002,0.14,0.14,0.13699999999999998,0.139,0.139,0.13699999999999998,0.136,-0.26899999999999996,0.135,0.133,0.133,0.133,0.13,0.128,0.128,0.126,0.127,-0.6509999999999999,0.124,0.124,0.12300000000000001,0.12300000000000001,0.122,0.12,0.12,0.11900000000000001,0.11900000000000001,0.11900000000000001,0.11800000000000001,0.11699999999999999,-0.653,0.114,0.11199999999999999,0.11699999999999999,0.11599999999999999,0.113,0.114,0.115,0.11199999999999999,0.113,0.113,0.109,0.11,0.066,0.106,0.105,0.105,0.109,0.105,0.10300000000000001,0.10099999999999999,0.10099999999999999,0.10300000000000001,0.1,0.102,0.1,0.10066666666666668
97,[104],-0.389,-0.382,-0.379,-0.374,-0.37,-0.365,-0.36200000000000004,-0.35700000000000004,-0.35100000000000003,-0.348,-0.34,-0.33399999999999996,-0.32899999999999996,-0.325,-0.32,-0.314,-0.31,-0.307,-0.301,-0.299,-0.29600000000000004,-0.295,-0.293,-0.289,-0.289,-0.28800000000000003,-0.287,-0.28600000000000003,-0.285,-0.28600000000000003,-0.28600000000000003,-0.285,-0.28600000000000003,-0.28600000000000003,0.331,-0.285,-0.284,-0.285,-0.28600000000000003,-0.285,-0.285,-0.28600000000000003,-0.287,0.35100000000000003,-0.289,-0.287,-0.287,-0.287,-0.28800000000000003,-0.28600000000000003,-0.28600000000000003,-0.28800000000000003,-0.28800000000000003,-0.022000000000000002,-0.29100000000000004,-0.293,-0.29,-0.292,-0.29,-0.29100000000000004,-0.29,-0.289,-0.29100000000000004,-0.294,-0.293,-0.293,-0.264,-0.292,-0.29100000000000004,-0.294,-0.294,-0.295,-0.294,-0.29600000000000004,-0.295,-0.297,-0.295,-0.294,-0.297,-0.063,-0.297,-0.299,-0.3,-0.301,-0.299,-0.3,-0.299,-0.299,-0.3,-0.302,-0.302,-0.301,-0.3006666666666667
98,[144],0.2,0.187,0.174,0.16,0.14300000000000002,0.126,0.107,0.083,0.059000000000000004,0.037000000000000005,0.027999999999999997,0.015,0.0,-0.013000000000000001,-0.026000000000000002,-0.035,-0.047,-0.055999999999999994,-0.063,-0.07,-0.078,-0.085,-0.091,-0.095,-0.1,-0.10300000000000001,-0.106,-0.109,-0.113,-0.11900000000000001,-0.12,-0.122,-0.125,-0.128,-0.133,-0.131,-0.131,-0.133,-0.134,-0.136,-0.13699999999999998,-0.138,-0.141,0.299,-0.14300000000000002,-0.141,-0.141,-0.142,-0.141,-0.141,-0.142,-0.145,-0.14400000000000002,-0.33899999999999997,-0.146,-0.14800000000000002,-0.146,-0.14800000000000002,-0.145,-0.147,-0.146,-0.145,-0.14800000000000002,-0.14800000000000002,-0.149,-0.149,0.126,-0.15,-0.147,-0.151,-0.15,-0.15,-0.15,-0.151,-0.151,-0.152,-0.15,-0.14800000000000002,-0.15,-0.6,-0.149,-0.15,-0.151,-0.151,-0.14800000000000002,-0.149,-0.149,-0.14800000000000002,-0.14800000000000002,-0.149,-0.15,-0.149,-0.14933333333333332
99,[153],0.33,0.32799999999999996,0.33,0.332,0.33399999999999996,0.337,0.341,0.342,0.34700000000000003,0.35100000000000003,0.354,0.359,0.363,0.369,0.371,0.375,0.379,0.38299999999999995,0.386,0.389,0.391,0.395,0.4,0.402,0.405,0.409,0.413,0.414,0.41600000000000004,0.42200000000000004,0.425,0.42700000000000005,0.428,0.43,0.047,0.435,0.439,0.44,0.44299999999999995,0.444,0.446,0.449,0.449,0.026000000000000002,0.452,0.455,0.456,0.45899999999999996,0.461,0.462,0.465,0.466,0.466,0.08800000000000001,0.47,0.47100000000000003,0.47100000000000003,0.47,0.473,0.475,0.475,0.47700000000000004,0.47700000000000004,0.48,0.48100000000000004,0.48100000000000004,-0.877,0.483,0.484,0.486,0.488,0.49,0.489,0.49200000000000005,0.493,0.493,0.494,0.493,0.494,1.189,0.49700000000000005,0.498,0.5,0.5,0.5,0.5,0.502,0.502,0.502,0.503,0.504,0.503,0.5033333333333334
100,[127],0.29100000000000004,0.297,0.301,0.302,0.302,0.3,0.29600000000000004,0.29100000000000004,0.29,0.28600000000000003,0.281,0.27699999999999997,0.273,0.27,0.268,0.263,0.261,0.258,0.258,0.255,0.251,0.253,0.254,0.254,0.251,0.251,0.25,0.25,0.251,0.249,0.251,0.249,0.252,0.253,0.223,0.253,0.253,0.251,0.252,0.252,0.253,0.253,0.254,0.21,0.257,0.258,0.258,0.257,0.259,0.26,0.258,0.261,0.261,0.259,0.266,0.26899999999999996,0.268,0.26899999999999996,0.26899999999999996,0.268,0.26899999999999996,0.271,0.27,0.271,0.271,0.271,-1.051,0.271,0.271,0.272,0.272,0.271,0.27399999999999997,0.272,0.27,0.271,0.272,0.27399999999999997,0.275,-0.401,0.27899999999999997,0.278,0.27699999999999997,0.278,0.27699999999999997,0.27899999999999997,0.27699999999999997,0.28,0.281,0.28,0.281,0.28300000000000003,0.2843333333333334
101,[17],0.265,0.265,0.265,0.265,0.265,0.265,0.265,0.265,0.265,0.265,0.265,0.265,0.265,0.265,0.265,0.265,0.265,0.265,0.265,0.265,0.265,0.265,0.265,0.265,0.265,0.265,0.265,0.265,0.265,0.265,0.265,0.265,0.265,0.265,-0.40700000000000003,0.265,0.265,0.265,0.265,0.265,0.265,0.265,0.265,-0.11,0.265,0.265,0.265,0.265,0.265,0.265,0.265,0.265,0.265,-0.57,0.265,0.265,0.265,0.265,0.265,0.265,0.265,0.265,0.265,0.265,0.265,0.265,0.02,0.265,0.265,0.265,0.265,0.265,0.265,0.265,0.265,0.265,0.265,0.265,0.265,-0.196,0.265,0.265,0.265,0.265,0.265,0.265,0.265,0.265,0.265,0.265,0.265,0.265,0.265
102,[27],0.179,0.175,0.168,0.16399999999999998,0.159,0.154,0.146,0.139,0.13699999999999998,0.128,0.114,0.107,0.099,0.09,0.085,0.081,0.073,0.066,0.061,0.054000000000000006,0.046,0.044000000000000004,0.037000000000000005,0.032,0.025,0.018000000000000002,0.011000000000000001,0.006,0.001,-0.008,-0.013000000000000001,-0.023,-0.027000000000000003,-0.034,-0.344,-0.049,-0.055,-0.065,-0.07200000000000001,-0.078,-0.085,-0.094,-0.1,0.11699999999999999,-0.115,-0.121,-0.128,-0.136,-0.14300000000000002,-0.149,-0.156,-0.161,-0.166,-0.16,-0.17800000000000002,-0.179,-0.19,-0.192,-0.19899999999999998,-0.205,-0.21,-0.213,-0.22,-0.226,-0.23199999999999998,-0.237,0.057999999999999996,-0.247,-0.253,-0.256,-0.26,-0.266,-0.271,-0.275,-0.27899999999999997,-0.28300000000000003,-0.285,-0.289,-0.295,-0.782,-0.301,-0.307,-0.311,-0.315,-0.318,-0.324,-0.326,-0.33,-0.332,-0.335,-0.33899999999999997,-0.341,-0.3443333333333333
103,[57],0.26899999999999996,0.276,0.281,0.289,0.294,0.301,0.309,0.317,0.325,0.33299999999999996,0.34,0.348,0.35600000000000004,0.364,0.37200000000000005,0.379,0.386,0.39299999999999996,0.401,0.406,0.413,0.419,0.426,0.43200000000000005,0.436,0.442,0.446,0.451,0.455,0.46,0.46399999999999997,0.467,0.47200000000000003,0.47600000000000003,-0.677,0.483,0.485,0.48700000000000004,0.489,0.494,0.496,0.496,0.499,-0.922,0.504,0.507,0.509,0.512,0.514,0.516,0.517,0.52,0.521,0.11199999999999999,0.527,0.529,0.53,0.531,0.531,0.53,0.532,0.534,0.535,0.535,0.536,0.536,-0.384,0.536,0.537,0.5379999999999999,0.537,0.537,0.539,0.536,0.534,0.535,0.537,0.5379999999999999,0.537,0.27699999999999997,0.5379999999999999,0.536,0.536,0.535,0.5329999999999999,0.534,0.532,0.532,0.534,0.531,0.531,0.534,0.535
104,[84],0.244,0.251,0.252,0.257,0.259,0.262,0.265,0.26899999999999996,0.27399999999999997,0.278,0.28600000000000003,0.292,0.298,0.304,0.31,0.318,0.32299999999999995,0.32799999999999996,0.335,0.33799999999999997,0.342,0.344,0.348,0.353,0.354,0.35700000000000004,0.358,0.36,0.363,0.36200000000000004,0.363,0.365,0.365,0.365,-0.282,0.368,0.37,0.369,0.369,0.37,0.371,0.371,0.37,0.292,0.369,0.37200000000000005,0.373,0.373,0.373,0.375,0.376,0.374,0.376,-0.196,0.375,0.373,0.376,0.374,0.377,0.377,0.37799999999999995,0.38,0.37799999999999995,0.376,0.376,0.377,-0.782,0.37799999999999995,0.38,0.377,0.377,0.376,0.37799999999999995,0.377,0.377,0.375,0.37799999999999995,0.38,0.377,0.423,0.37799999999999995,0.376,0.375,0.375,0.377,0.377,0.37799999999999995,0.379,0.37799999999999995,0.376,0.376,0.377,0.37733333333333335
105,[59],0.301,0.287,0.276,0.266,0.259,0.252,0.247,0.244,0.24,0.237,0.23399999999999999,0.23,0.226,0.222,0.218,0.214,0.209,0.205,0.2,0.195,0.19,0.18600000000000003,0.18100000000000002,0.175,0.17,0.16399999999999998,0.158,0.154,0.149,0.14300000000000002,0.139,0.136,0.131,0.126,0.8759999999999999,0.11800000000000001,0.113,0.11,0.106,0.102,0.1,0.09699999999999999,0.092,-0.078,0.084,0.08199999999999999,0.081,0.078,0.075,0.073,0.07,0.068,0.066,-0.635,0.06,0.059000000000000004,0.055,0.054000000000000006,0.054000000000000006,0.052000000000000005,0.05,0.05,0.048,0.049,0.047,0.047,-0.8759999999999999,0.047,0.046,0.048,0.049,0.051,0.051,0.053,0.055,0.057,0.057999999999999996,0.059000000000000004,0.059000000000000004,-0.628,0.063,0.063,0.067,0.066,0.07200000000000001,0.071,0.073,0.075,0.075,0.079,0.08,0.08199999999999999,0.08333333333333333
