,Id,Epoch:0,Epoch:1,Epoch:2,Epoch:3,Epoch:4,Epoch:5,Epoch:6,Epoch:7,Epoch:8,Epoch:9,Epoch:10,Epoch:11,Epoch:12,Epoch:13,Epoch:14,Epoch:15,Epoch:16,Epoch:17,Epoch:18,Epoch:19,Epoch:20,Epoch:21,Epoch:22,Epoch:23,Epoch:24,Epoch:25,Epoch:26,Epoch:27,Epoch:28,Epoch:29,Epoch:30,Epoch:31,Epoch:32,Epoch:33,Epoch:34,Epoch:35,Epoch:36,Epoch:37,Epoch:38,Epoch:39,Epoch:40,Epoch:41,Epoch:42,Epoch:43,Epoch:44,Epoch:45,Epoch:46,Epoch:47,Epoch:48,Epoch:49,Epoch:50,Epoch:51,Epoch:52,Epoch:53,Epoch:54,Epoch:55,Epoch:56,Epoch:57,Epoch:58,Epoch:59,Epoch:60,Epoch:61,Epoch:62,Epoch:63,Epoch:64,Epoch:65,Epoch:66,Epoch:67,Epoch:68,Epoch:69,Epoch:70,Epoch:71,Epoch:72,Epoch:73,Epoch:74,Epoch:75,Epoch:76,Epoch:77,Epoch:78,Epoch:79,Epoch:80,Epoch:81,Epoch:82,Epoch:83,Epoch:84,Epoch:85,Epoch:86,Epoch:87,Epoch:88,Epoch:89,Epoch:90,Epoch:91,Epoch:92
104,0.0,0.23066666666666666,0.2303333333333333,0.2303333333333333,0.23033333333333336,0.23099999999999998,0.23399999999999999,0.24266666666666667,0.258,0.26866666666666666,0.27099999999999996,0.2733333333333334,0.2786666666666666,0.282,0.2803333333333333,0.2846666666666667,0.28833333333333333,0.2913333333333333,0.29266666666666663,0.2936666666666667,0.29666666666666663,0.29866666666666664,0.30200000000000005,0.3013333333333333,0.3056666666666667,0.30866666666666664,0.31033333333333335,0.31066666666666665,0.313,0.31633333333333336,0.31633333333333336,0.318,0.3176666666666667,0.3213333333333333,0.3236666666666667,0.059333333333333314,0.32466666666666666,0.3243333333333333,0.3273333333333333,0.32766666666666666,0.3293333333333333,0.331,0.33299999999999996,0.3333333333333333,-0.18366666666666664,0.34400000000000003,0.3456666666666666,0.34800000000000003,0.3486666666666666,0.35000000000000003,0.35100000000000003,0.353,0.35333333333333333,0.35433333333333333,-0.3273333333333333,0.36866666666666664,0.36833333333333335,0.37066666666666664,0.37233333333333335,0.37233333333333335,0.37366666666666665,0.37333333333333335,0.37566666666666665,0.37599999999999995,0.37566666666666665,0.37833333333333335,0.37966666666666665,-0.1653333333333333,0.38866666666666666,0.391,0.39266666666666666,0.39399999999999996,0.39299999999999996,0.3933333333333333,0.3946666666666667,0.39599999999999996,0.3953333333333333,0.39633333333333337,0.3973333333333333,0.399,0.075,0.403,0.405,0.40633333333333327,0.408,0.4076666666666667,0.4073333333333333,0.40833333333333327,0.4093333333333333,0.4103333333333334,0.4106666666666667,0.4106666666666667,0.41100000000000003,0.4111111111111112
19,1.0,0.0865,0.0875,0.0885,0.089,0.089,0.089,0.0895,0.09,0.09,0.09,0.09,0.0905,0.0905,0.0915,0.0915,0.092,0.0925,0.0925,0.093,0.0925,0.0935,0.094,0.0945,0.0945,0.095,0.0955,0.0955,0.0965,0.097,0.0965,0.098,0.098,0.099,0.099,0.057499999999999996,0.10300000000000001,0.10350000000000001,0.10450000000000001,0.104,0.10500000000000001,0.106,0.10500000000000001,0.1065,0.0625,0.099,0.098,0.1,0.1,0.1005,0.1015,0.1015,0.10200000000000001,0.10250000000000001,-0.44,0.103,0.10400000000000001,0.10400000000000001,0.10400000000000001,0.1055,0.10600000000000001,0.10600000000000001,0.10650000000000001,0.10650000000000001,0.1075,0.1075,0.108,0.052000000000000005,0.10850000000000001,0.11049999999999999,0.111,0.11049999999999999,0.1115,0.1115,0.112,0.11299999999999999,0.11249999999999999,0.1135,0.11299999999999999,0.114,-0.2045,0.099,0.0995,0.0995,0.1,0.1005,0.1015,0.1005,0.101,0.10350000000000001,0.10200000000000001,0.10200000000000001,0.10350000000000001,0.104
268,2.0,-0.1965,-0.20199999999999999,-0.204,-0.20850000000000002,-0.21250000000000002,-0.2145,-0.21,-0.1995,-0.193,-0.193,-0.1945,-0.193,-0.193,-0.195,-0.195,-0.195,-0.193,-0.195,-0.196,-0.1965,-0.198,-0.197,-0.1995,-0.2005,-0.1995,-0.2,-0.203,-0.203,-0.20450000000000002,-0.206,-0.207,-0.21000000000000002,-0.209,-0.21000000000000002,0.49649999999999994,-0.20550000000000002,-0.20750000000000002,-0.209,-0.2095,-0.2125,-0.2125,-0.2125,-0.21549999999999997,0.097,-0.2145,-0.2145,-0.2155,-0.217,-0.218,-0.21999999999999997,-0.21850000000000003,-0.219,-0.22199999999999998,-0.33599999999999997,-0.2345,-0.2365,-0.2375,-0.2375,-0.241,-0.2395,-0.241,-0.2405,-0.2425,-0.244,-0.2425,-0.2435,-0.074,-0.2465,-0.246,-0.2455,-0.245,-0.2465,-0.247,-0.2465,-0.2475,-0.25,-0.2495,-0.2485,-0.248,-0.045,-0.251,-0.25,-0.25,-0.2495,-0.253,-0.2525,-0.2525,-0.253,-0.2535,-0.2525,-0.2535,-0.2545,-0.2555
71,3.0,-2.3129646346357427e-18,0.0020000000000000005,0.004333333333333335,0.009,0.014666666666666666,0.020666666666666667,0.02866666666666667,0.03833333333333334,0.04866666666666667,0.055,0.061,0.06666666666666667,0.072,0.07766666666666666,0.08133333333333333,0.08533333333333333,0.09066666666666667,0.09233333333333334,0.09799999999999999,0.10066666666666667,0.10266666666666667,0.10699999999999998,0.10966666666666668,0.11333333333333333,0.11533333333333334,0.11833333333333333,0.119,0.12133333333333333,0.12433333333333334,0.125,0.12766666666666668,0.128,0.131,0.13333333333333333,0.4506666666666666,0.13233333333333333,0.134,0.13533333333333333,0.13633333333333333,0.13633333333333333,0.13833333333333334,0.14033333333333334,0.14066666666666666,0.14766666666666664,0.14666666666666667,0.14666666666666667,0.14833333333333334,0.14833333333333334,0.15,0.151,0.15133333333333335,0.153,0.15366666666666665,-0.14700000000000002,0.15866666666666665,0.15966666666666665,0.15966666666666665,0.15933333333333333,0.16033333333333333,0.16166666666666665,0.16233333333333333,0.16366666666666665,0.164,0.16333333333333333,0.164,0.16533333333333333,-0.003999999999999985,0.17499999999999996,0.17600000000000002,0.17600000000000002,0.17699999999999996,0.17666666666666667,0.17766666666666664,0.17800000000000002,0.17700000000000002,0.17700000000000002,0.17833333333333332,0.17866666666666667,0.18033333333333335,-0.233,0.18099999999999997,0.18133333333333335,0.18100000000000002,0.18133333333333335,0.18100000000000002,0.18200000000000002,0.18233333333333332,0.18266666666666667,0.18300000000000002,0.18299999999999997,0.18366666666666664,0.18400000000000002,0.1845555555555556
271,4.0,-0.11800000000000001,-0.127,-0.129,-0.136,-0.142,-0.149,-0.154,-0.163,-0.17,-0.17800000000000002,-0.18600000000000003,-0.193,-0.201,-0.20800000000000002,-0.217,-0.22399999999999998,-0.22899999999999998,-0.23600000000000002,-0.243,-0.25,-0.256,-0.261,-0.26899999999999996,-0.276,-0.27899999999999997,-0.284,-0.29,-0.294,-0.301,-0.304,-0.309,-0.313,-0.317,-0.322,0.455,-0.354,-0.35700000000000004,-0.36200000000000004,-0.364,-0.369,-0.37200000000000005,-0.373,-0.37799999999999995,0.127,-0.384,-0.387,-0.39,-0.39299999999999996,-0.396,-0.401,-0.401,-0.40299999999999997,-0.409,-0.304,-0.428,-0.43,-0.436,-0.436,-0.44,-0.441,-0.441,-0.44299999999999995,-0.447,-0.45,-0.451,-0.45299999999999996,0.311,-0.474,-0.47700000000000004,-0.478,-0.48,-0.483,-0.485,-0.485,-0.48700000000000004,-0.491,-0.49200000000000005,-0.493,-0.495,-0.14800000000000002,-0.496,-0.498,-0.499,-0.5,-0.505,-0.505,-0.507,-0.509,-0.511,-0.511,-0.513,-0.516,-0.5183333333333333
21,5.0,-0.19933333333333333,-0.205,-0.20833333333333334,-0.21166666666666667,-0.21466666666666667,-0.21766666666666667,-0.221,-0.225,-0.2273333333333333,-0.229,-0.23033333333333336,-0.23166666666666666,-0.23266666666666666,-0.2333333333333333,-0.2356666666666667,-0.237,-0.238,-0.24033333333333332,-0.24233333333333332,-0.24433333333333332,-0.24666666666666667,-0.24966666666666668,-0.25166666666666665,-0.25433333333333336,-0.256,-0.2583333333333333,-0.26133333333333336,-0.26366666666666666,-0.26666666666666666,-0.26899999999999996,-0.27166666666666667,-0.27399999999999997,-0.2763333333333333,-0.27899999999999997,0.21966666666666668,-0.28633333333333333,-0.28833333333333333,-0.29066666666666663,-0.29266666666666663,-0.29633333333333334,-0.2986666666666667,-0.30033333333333334,-0.3033333333333333,0.17933333333333334,-0.3133333333333333,-0.31566666666666665,-0.3176666666666667,-0.32033333333333336,-0.323,-0.32633333333333336,-0.328,-0.331,-0.334,0.07800000000000001,-0.3176666666666667,-0.32,-0.32233333333333336,-0.32466666666666666,-0.327,-0.32866666666666666,-0.32866666666666666,-0.3303333333333333,-0.33299999999999996,-0.33699999999999997,-0.338,-0.33866666666666667,0.4256666666666667,-0.334,-0.33466666666666667,-0.3373333333333333,-0.3393333333333333,-0.3423333333333334,-0.3426666666666667,-0.3453333333333333,-0.3466666666666667,-0.3496666666666666,-0.3506666666666667,-0.3516666666666666,-0.35433333333333333,-0.146,-0.34900000000000003,-0.3516666666666666,-0.35266666666666663,-0.35433333333333333,-0.3566666666666667,-0.3566666666666667,-0.3586666666666667,-0.35966666666666663,-0.36200000000000004,-0.3633333333333333,-0.36566666666666664,-0.3666666666666667,-0.3685555555555556
309,6.0,0.348,0.35,0.355,0.354,0.35600000000000004,0.359,0.371,0.38,0.391,0.40399999999999997,0.415,0.431,0.44799999999999995,0.46299999999999997,0.48100000000000004,0.49700000000000005,0.514,0.529,0.545,0.562,0.5760000000000001,0.59,0.604,0.616,0.63,0.643,0.655,0.6659999999999999,0.677,0.688,0.6990000000000001,0.7090000000000001,0.72,0.731,0.455,0.7509999999999999,0.76,0.769,0.779,0.7859999999999999,0.795,0.802,0.812,-0.016,0.8270000000000001,0.8340000000000001,0.841,0.8490000000000001,0.856,0.863,0.87,0.877,0.883,-0.141,0.897,0.903,0.909,0.9179999999999999,0.922,0.929,0.9329999999999999,0.9390000000000001,0.946,0.951,0.9570000000000001,0.9640000000000001,0.095,0.975,0.981,0.987,0.992,0.998,1.001,1.0070000000000001,1.014,1.0190000000000001,1.023,1.028,1.034,-0.14800000000000002,1.043,1.0490000000000002,1.053,1.058,1.062,1.0659999999999998,1.072,1.0759999999999998,1.082,1.087,1.09,1.094,1.0973333333333335
255,7.0,-0.384,-0.384,-0.392,-0.405,-0.428,-0.445,-0.46,-0.47600000000000003,-0.49200000000000005,-0.509,-0.524,-0.54,-0.5539999999999999,-0.5710000000000001,-0.588,-0.6,-0.613,-0.628,-0.6409999999999999,-0.655,-0.6659999999999999,-0.679,-0.693,-0.7040000000000001,-0.715,-0.727,-0.738,-0.748,-0.759,-0.7709999999999999,-0.78,-0.7909999999999999,-0.8,-0.8109999999999999,0.455,-0.83,-0.838,-0.847,-0.857,-0.865,-0.873,-0.882,-0.894,0.07,-0.9109999999999999,-0.917,-0.922,-0.9309999999999999,-0.9390000000000001,-0.9470000000000001,-0.9570000000000001,-0.965,-0.9740000000000001,-0.059000000000000004,-0.99,-0.997,-1.005,-1.014,-1.02,-1.03,-1.036,-1.043,-1.051,-1.057,-1.064,-1.071,0.095,-1.088,-1.094,-1.099,-1.104,-1.112,-1.1179999999999999,-1.123,-1.13,-1.135,-1.14,-1.148,-1.1540000000000001,-0.14800000000000002,-1.166,-1.171,-1.175,-1.182,-1.187,-1.194,-1.199,-1.206,-1.212,-1.216,-1.222,-1.226,-1.2313333333333332
17,8.0,0.233,0.23,0.231,0.22999999999999998,0.23099999999999998,0.232,0.23450000000000001,0.23500000000000001,0.238,0.241,0.2435,0.2475,0.2525,0.256,0.259,0.264,0.26849999999999996,0.27249999999999996,0.2765,0.27949999999999997,0.28300000000000003,0.28700000000000003,0.29000000000000004,0.2935,0.2975,0.3005,0.3025,0.306,0.309,0.312,0.3135,0.3155,0.3175,0.32,0.111,0.3325,0.33549999999999996,0.3355,0.3375,0.33899999999999997,0.3415,0.34400000000000003,0.3435,0.19899999999999998,0.3355,0.33799999999999997,0.3395,0.3415,0.34299999999999997,0.34299999999999997,0.34550000000000003,0.34700000000000003,0.34750000000000003,-0.030000000000000002,0.35550000000000004,0.357,0.35700000000000004,0.35850000000000004,0.3595,0.361,0.36350000000000005,0.365,0.36550000000000005,0.366,0.36750000000000005,0.368,0.21699999999999997,0.34299999999999997,0.344,0.346,0.3475,0.34750000000000003,0.348,0.35050000000000003,0.35050000000000003,0.34950000000000003,0.35250000000000004,0.353,0.353,0.3725,0.356,0.35650000000000004,0.35750000000000004,0.359,0.3585,0.36,0.36,0.3615,0.362,0.363,0.36349999999999993,0.36349999999999993,0.36383333333333323
316,9.0,0.342,0.34299999999999997,0.34700000000000003,0.349,0.349,0.342,0.33299999999999996,0.32299999999999995,0.312,0.303,0.293,0.282,0.271,0.261,0.247,0.23800000000000002,0.231,0.21899999999999997,0.212,0.203,0.193,0.187,0.175,0.166,0.157,0.149,0.139,0.132,0.12300000000000001,0.11800000000000001,0.11,0.105,0.099,0.091,0.132,0.077,0.073,0.066,0.064,0.055999999999999994,0.051,0.051,0.046,0.07,0.033,0.027000000000000003,0.024,0.02,0.015,0.006,0.004,0.004,-0.002,-0.23600000000000002,-0.009000000000000001,-0.011000000000000001,-0.019,-0.021,-0.023,-0.025,-0.028999999999999998,-0.028999999999999998,-0.032,-0.035,-0.037000000000000005,-0.04,-0.019,-0.057999999999999996,-0.057999999999999996,-0.062,-0.062,-0.062,-0.066,-0.067,-0.07,-0.07,-0.071,-0.073,-0.075,0.584,-0.064,-0.067,-0.067,-0.069,-0.073,-0.07200000000000001,-0.071,-0.073,-0.077,-0.075,-0.075,-0.078,-0.079
173,10.0,-0.188,-0.188,-0.188,-0.185,-0.1805,-0.174,-0.16849999999999998,-0.163,-0.15350000000000003,-0.1395,-0.1235,-0.10849999999999999,-0.093,-0.08250000000000002,-0.0735,-0.06899999999999999,-0.06,-0.05500000000000001,-0.0475,-0.044,-0.038,-0.0305,-0.027500000000000004,-0.0235,-0.0205,-0.0155,-0.013500000000000002,-0.008,-0.006,-0.0014999999999999987,0.0034999999999999996,0.004,0.0085,0.011,-0.12799999999999997,0.0085,0.011,0.0145,0.018000000000000002,0.018500000000000003,0.020500000000000004,0.023499999999999997,0.025500000000000002,-0.01100000000000001,0.0295,0.031,0.033,0.0325,0.036,0.038000000000000006,0.04,0.042,0.041499999999999995,0.03449999999999999,0.047,0.0485,0.05,0.052000000000000005,0.052000000000000005,0.054,0.056499999999999995,0.05700000000000001,0.058499999999999996,0.059500000000000004,0.0625,0.064,-0.03899999999999998,0.0625,0.0615,0.0635,0.066,0.067,0.067,0.067,0.0695,0.07050000000000001,0.07250000000000001,0.07300000000000001,0.07550000000000001,0.2515,0.0925,0.0935,0.0945,0.096,0.0965,0.098,0.0995,0.0985,0.0995,0.10149999999999999,0.10250000000000001,0.10450000000000001,0.10583333333333336
303,11.0,-0.268,-0.276,-0.285,-0.295,-0.306,-0.317,-0.32799999999999996,-0.33799999999999997,-0.35,-0.361,-0.373,-0.382,-0.39399999999999996,-0.40399999999999997,-0.415,-0.426,-0.436,-0.445,-0.455,-0.465,-0.47200000000000003,-0.48200000000000004,-0.491,-0.5,-0.508,-0.516,-0.523,-0.53,-0.539,-0.5479999999999999,-0.5529999999999999,-0.562,-0.568,-0.5770000000000001,0.158,-0.591,-0.598,-0.604,-0.612,-0.617,-0.624,-0.632,-0.638,0.154,-0.637,-0.647,-0.65,-0.6579999999999999,-0.665,-0.67,-0.6759999999999999,-0.6829999999999999,-0.6890000000000001,-0.23600000000000002,-0.703,-0.7090000000000001,-0.7140000000000001,-0.722,-0.725,-0.73,-0.737,-0.743,-0.7490000000000001,-0.754,-0.7609999999999999,-0.7659999999999999,-0.499,-0.777,-0.778,-0.784,-0.7909999999999999,-0.795,-0.8,-0.8029999999999999,-0.8079999999999999,-0.815,-0.8190000000000001,-0.825,-0.828,0.345,-0.833,-0.835,-0.8420000000000001,-0.846,-0.851,-0.8540000000000001,-0.86,-0.865,-0.865,-0.872,-0.875,-0.878,-0.881
168,12.0,0.21650000000000003,0.228,0.24,0.248,0.2535,0.2585,0.26449999999999996,0.27,0.277,0.2825,0.2885,0.2945,0.302,0.3075,0.3125,0.3195,0.326,0.3305,0.336,0.3405,0.34550000000000003,0.35,0.354,0.35850000000000004,0.362,0.366,0.368,0.3725,0.376,0.377,0.38,0.38149999999999995,0.384,0.387,0.289,0.3815,0.3845,0.38549999999999995,0.3855,0.389,0.39,0.391,0.39149999999999996,-0.6479999999999999,0.401,0.40249999999999997,0.406,0.4065,0.4075,0.4095,0.4085,0.4095,0.4115,0.066,0.413,0.414,0.4145,0.4155,0.417,0.41500000000000004,0.41700000000000004,0.41800000000000004,0.418,0.4195,0.42000000000000004,0.4205,0.004500000000000004,0.4205,0.42100000000000004,0.42300000000000004,0.4245,0.423,0.4245,0.4255,0.4255,0.4265,0.4285,0.4275,0.4285,0.32499999999999996,0.42800000000000005,0.429,0.4305,0.431,0.43199999999999994,0.433,0.432,0.43300000000000005,0.4345,0.4345,0.4345,0.43600000000000005,0.4365000000000001
295,13.0,-0.055,-0.051,-0.045,-0.04,-0.036000000000000004,-0.036000000000000004,-0.035,-0.034,-0.035,-0.036000000000000004,-0.037000000000000005,-0.038,-0.038,-0.039,-0.04,-0.040999999999999995,-0.043,-0.042,-0.036000000000000004,-0.031,-0.027999999999999997,-0.023,-0.03,-0.035,-0.039,-0.046,-0.051,-0.055,-0.057,-0.059000000000000004,-0.065,-0.07200000000000001,-0.078,-0.081,0.158,-0.085,-0.08800000000000001,-0.091,-0.094,-0.09699999999999999,-0.10300000000000001,-0.106,-0.109,-0.628,-0.115,-0.12,-0.125,-0.127,-0.133,-0.13699999999999998,-0.142,-0.145,-0.151,0.14400000000000002,-0.158,-0.16,-0.16,-0.161,-0.16399999999999998,-0.165,-0.171,-0.172,-0.17300000000000001,-0.175,-0.17600000000000002,-0.17600000000000002,-0.146,-0.15,-0.152,-0.154,-0.155,-0.154,-0.153,-0.156,-0.155,-0.156,-0.159,-0.158,-0.159,0.669,-0.14800000000000002,-0.151,-0.152,-0.153,-0.156,-0.158,-0.16,-0.165,-0.16399999999999998,-0.16899999999999998,-0.171,-0.17300000000000001,-0.17500000000000004
58,14.0,0.15533333333333332,0.15433333333333335,0.15433333333333332,0.15433333333333335,0.15266666666666667,0.149,0.14800000000000002,0.144,0.14200000000000002,0.13333333333333333,0.12333333333333334,0.11599999999999999,0.10966666666666668,0.10166666666666667,0.09533333333333334,0.08900000000000001,0.08333333333333333,0.082,0.07933333333333334,0.07833333333333332,0.07566666666666666,0.07033333333333334,0.06366666666666668,0.05866666666666667,0.05333333333333334,0.04733333333333334,0.04133333333333333,0.03833333333333333,0.035,0.02966666666666667,0.026,0.02066666666666667,0.017666666666666667,0.016000000000000004,0.021666666666666667,0.020666666666666667,0.016333333333333335,0.013999999999999999,0.009666666666666665,0.007666666666666669,0.004333333333333334,0.0026666666666666683,0.001666666666666668,0.006999999999999999,0.01,0.006000000000000002,0.005,0.003999999999999999,0.0013333333333333333,0.0013333333333333357,-0.002666666666666668,-0.0030000000000000014,-0.004333333333333332,0.33266666666666667,0.0023333333333333344,0.0026666666666666666,0.0026666666666666657,0.0020000000000000005,0.0,-0.0026666666666666666,-0.005,-0.005333333333333333,-0.006000000000000001,-0.0073333333333333315,-0.009333333333333332,-0.010999999999999998,-0.01966666666666667,0.004333333333333334,0.004,0.001333333333333334,0.000666666666666667,-0.0010000000000000007,-0.0006666666666666664,-0.0026666666666666674,-0.005333333333333333,-0.006666666666666665,-0.008,-0.009000000000000001,-0.01,0.26333333333333336,-0.013333333333333334,-0.016333333333333335,-0.018000000000000002,-0.019666666666666666,-0.02033333333333333,-0.023000000000000003,-0.025333333333333333,-0.025666666666666667,-0.027,-0.028333333333333335,-0.029333333333333336,-0.02966666666666666,-0.030444444444444437
157,15.0,-0.3075,-0.3095,-0.3095,-0.30900000000000005,-0.30900000000000005,-0.3065,-0.30600000000000005,-0.3045,-0.30200000000000005,-0.29900000000000004,-0.29600000000000004,-0.29300000000000004,-0.2905,-0.28700000000000003,-0.2845,-0.2825,-0.28,-0.2775,-0.27549999999999997,-0.2735,-0.272,-0.27049999999999996,-0.268,-0.268,-0.267,-0.2665,-0.2645,-0.264,-0.2645,-0.2625,-0.2625,-0.2605,-0.2605,-0.261,0.034,-0.258,-0.257,-0.258,-0.257,-0.257,-0.257,-0.2575,-0.257,-0.2415,-0.2575,-0.2565,-0.257,-0.2565,-0.256,-0.2565,-0.2565,-0.2565,-0.2575,-0.07999999999999999,-0.2555,-0.255,-0.2555,-0.2555,-0.2545,-0.2555,-0.2555,-0.256,-0.256,-0.255,-0.2555,-0.2565,-0.1555,-0.2565,-0.2565,-0.2575,-0.257,-0.2565,-0.2575,-0.258,-0.2575,-0.257,-0.258,-0.2575,-0.2585,0.2215,-0.26,-0.26,-0.26,-0.2615,-0.261,-0.261,-0.2605,-0.261,-0.262,-0.261,-0.2615,-0.261,-0.26116666666666666
319,16.0,0.013000000000000001,0.019,0.024,0.027999999999999997,0.035,0.046,0.052000000000000005,0.057999999999999996,0.066,0.077,0.08199999999999999,0.066,0.049,0.013999999999999999,-0.015,-0.042,-0.064,-0.086,-0.107,-0.131,-0.14800000000000002,-0.163,-0.182,-0.198,-0.215,-0.231,-0.245,-0.256,-0.272,-0.285,-0.29600000000000004,-0.309,-0.32,-0.332,0.024,-0.355,-0.365,-0.375,-0.385,-0.396,-0.409,-0.415,-0.426,-0.12300000000000001,-0.442,-0.45299999999999996,-0.46299999999999997,-0.475,-0.483,-0.491,-0.499,-0.506,-0.517,0.505,-0.536,-0.544,-0.551,-0.56,-0.569,-0.5760000000000001,-0.581,-0.59,-0.598,-0.603,-0.609,-0.616,0.034,-0.631,-0.6409999999999999,-0.6459999999999999,-0.6509999999999999,-0.655,-0.6609999999999999,-0.6659999999999999,-0.672,-0.6759999999999999,-0.6809999999999999,-0.685,-0.691,0.276,-0.7,-0.706,-0.71,-0.715,-0.72,-0.7240000000000001,-0.7290000000000001,-0.737,-0.741,-0.746,-0.75,-0.755,-0.7593333333333333
222,17.0,-0.10300000000000001,-0.11,-0.11800000000000001,-0.12300000000000001,-0.129,-0.134,-0.14,-0.147,-0.155,-0.16399999999999998,-0.174,-0.19,-0.20199999999999999,-0.217,-0.231,-0.247,-0.261,-0.275,-0.292,-0.306,-0.321,-0.337,-0.348,-0.363,-0.375,-0.389,-0.40299999999999997,-0.41600000000000004,-0.43,-0.44299999999999995,-0.455,-0.469,-0.48100000000000004,-0.49200000000000005,0.024,-0.515,-0.527,-0.537,-0.5489999999999999,-0.5579999999999999,-0.5670000000000001,-0.5760000000000001,-0.585,0.07200000000000001,-0.598,-0.607,-0.613,-0.62,-0.626,-0.632,-0.639,-0.645,-0.652,0.505,-0.6659999999999999,-0.672,-0.68,-0.687,-0.6940000000000001,-0.7020000000000001,-0.708,-0.715,-0.722,-0.73,-0.737,-0.743,0.034,-0.787,-0.795,-0.802,-0.809,-0.8170000000000001,-0.8240000000000001,-0.833,-0.84,-0.847,-0.8540000000000001,-0.861,-0.867,-0.064,-0.882,-0.89,-0.897,-0.905,-0.9129999999999999,-0.92,-0.927,-0.934,-0.9420000000000001,-0.9490000000000001,-0.9570000000000001,-0.9640000000000001,-0.9716666666666667
285,18.0,0.261,0.257,0.252,0.245,0.24,0.228,0.221,0.21,0.2,0.19,0.177,0.166,0.156,0.141,0.129,0.11599999999999999,0.10400000000000001,0.096,0.085,0.077,0.067,0.06,0.052000000000000005,0.046,0.039,0.035,0.027999999999999997,0.023,0.02,0.016,0.013000000000000001,0.009000000000000001,0.006,0.005,0.011000000000000001,-0.001,-0.003,-0.006999999999999999,-0.009000000000000001,-0.01,-0.013999999999999999,-0.015,-0.016,0.07200000000000001,-0.016,-0.018000000000000002,-0.019,-0.017,-0.017,-0.017,-0.018000000000000002,-0.015,-0.013999999999999999,-0.6709999999999999,-0.011000000000000001,-0.008,-0.004,-0.003,-0.005,-0.006,-0.006999999999999999,-0.003,-0.001,0.0,-0.001,-0.003,-0.247,-0.004,-0.005,-0.006,-0.002,-0.001,0.002,0.002,0.003,0.005,0.003,0.006,0.004,-0.064,0.006,0.005,0.003,0.003,0.004,0.002,0.003,0.005,0.004,0.006999999999999999,0.006999999999999999,0.009000000000000001,0.00966666666666667
3,19.0,0.098,0.092,0.088,0.0855,0.08449999999999999,0.0835,0.08249999999999999,0.0815,0.0835,0.08549999999999999,0.087,0.09,0.0935,0.0935,0.0945,0.0965,0.0985,0.0995,0.101,0.1015,0.1035,0.1035,0.10400000000000001,0.106,0.10700000000000001,0.106,0.1065,0.106,0.1065,0.1065,0.10550000000000001,0.10650000000000001,0.10550000000000001,0.105,-0.22099999999999997,0.1035,0.10400000000000001,0.10250000000000001,0.1015,0.101,0.1005,0.099,0.0965,0.036000000000000004,0.07800000000000001,0.077,0.0775,0.0785,0.07600000000000001,0.0765,0.07500000000000001,0.07300000000000001,0.07350000000000001,-0.3015,0.07700000000000001,0.07700000000000001,0.078,0.076,0.07600000000000001,0.074,0.07350000000000001,0.073,0.07100000000000001,0.0695,0.068,0.0665,-0.14200000000000002,0.08449999999999999,0.0835,0.0835,0.082,0.08049999999999999,0.0795,0.07950000000000002,0.0775,0.076,0.076,0.07250000000000001,0.07100000000000001,0.146,0.0605,0.059000000000000004,0.057999999999999996,0.0565,0.056,0.0545,0.053000000000000005,0.051000000000000004,0.0505,0.049,0.0475,0.0455,0.043833333333333335
138,20.0,-0.19233333333333333,-0.19533333333333336,-0.19933333333333336,-0.2006666666666667,-0.20166666666666666,-0.20299999999999999,-0.20333333333333337,-0.2026666666666667,-0.20266666666666666,-0.20333333333333337,-0.20233333333333334,-0.20333333333333334,-0.20133333333333334,-0.204,-0.20366666666666666,-0.20199999999999999,-0.20266666666666666,-0.20299999999999999,-0.20299999999999999,-0.20366666666666666,-0.20333333333333337,-0.20366666666666666,-0.20433333333333334,-0.20266666666666666,-0.20233333333333334,-0.20166666666666666,-0.20166666666666666,-0.20099999999999998,-0.19866666666666669,-0.19933333333333333,-0.20033333333333334,-0.19899999999999998,-0.19966666666666666,-0.19899999999999998,0.07766666666666666,-0.19966666666666666,-0.19933333333333333,-0.19866666666666666,-0.19966666666666666,-0.19599999999999998,-0.19733333333333333,-0.19766666666666666,-0.19766666666666666,-0.12566666666666668,-0.2006666666666667,-0.19966666666666666,-0.19933333333333336,-0.19899999999999998,-0.19999999999999998,-0.19966666666666666,-0.20000000000000004,-0.20066666666666666,-0.20000000000000004,0.08966666666666667,-0.20033333333333334,-0.2006666666666667,-0.19966666666666666,-0.19899999999999998,-0.19766666666666666,-0.20000000000000004,-0.19899999999999998,-0.19866666666666669,-0.19933333333333336,-0.19933333333333336,-0.19966666666666666,-0.19966666666666666,-0.09733333333333333,-0.19933333333333333,-0.20000000000000004,-0.20000000000000004,-0.20000000000000004,-0.20000000000000004,-0.20000000000000004,-0.19966666666666666,-0.20000000000000004,-0.20033333333333334,-0.19966666666666666,-0.20033333333333334,-0.20199999999999999,0.248,-0.20333333333333337,-0.2046666666666667,-0.204,-0.20400000000000004,-0.20333333333333334,-0.20433333333333334,-0.20533333333333337,-0.2046666666666667,-0.205,-0.20600000000000004,-0.20533333333333337,-0.20600000000000004,-0.20577777777777784
254,21.0,-0.08199999999999999,-0.08199999999999999,-0.08199999999999999,-0.08199999999999999,-0.08199999999999999,-0.08199999999999999,-0.08199999999999999,-0.08199999999999999,-0.08199999999999999,-0.08199999999999999,-0.08199999999999999,-0.08199999999999999,-0.08199999999999999,-0.08199999999999999,-0.08199999999999999,-0.08199999999999999,-0.08199999999999999,-0.08199999999999999,-0.08199999999999999,-0.08199999999999999,-0.08199999999999999,-0.08199999999999999,-0.08199999999999999,-0.08199999999999999,-0.08199999999999999,-0.08199999999999999,-0.08199999999999999,-0.08199999999999999,-0.08199999999999999,-0.08199999999999999,-0.08199999999999999,-0.08199999999999999,-0.08199999999999999,-0.08199999999999999,0.011000000000000001,-0.078,-0.078,-0.078,-0.078,-0.078,-0.078,-0.078,-0.078,0.033,-0.08900000000000001,-0.08900000000000001,-0.08900000000000001,-0.08900000000000001,-0.08900000000000001,-0.08900000000000001,-0.08900000000000001,-0.08900000000000001,-0.08900000000000001,0.165,-0.08900000000000001,-0.08900000000000001,-0.08900000000000001,-0.08900000000000001,-0.08900000000000001,-0.08900000000000001,-0.08900000000000001,-0.08900000000000001,-0.08900000000000001,-0.08900000000000001,-0.08900000000000001,-0.08900000000000001,-0.247,-0.076,-0.076,-0.076,-0.076,-0.076,-0.076,-0.076,-0.076,-0.076,-0.076,-0.076,-0.076,0.175,-0.076,-0.076,-0.076,-0.076,-0.076,-0.076,-0.076,-0.076,-0.076,-0.076,-0.076,-0.076,-0.076
235,22.0,-0.315,-0.313,-0.308,-0.307,-0.306,-0.3,-0.28600000000000003,-0.262,-0.252,-0.259,-0.266,-0.267,-0.27399999999999997,-0.282,-0.284,-0.287,-0.29,-0.295,-0.302,-0.305,-0.309,-0.311,-0.319,-0.321,-0.32299999999999995,-0.32799999999999996,-0.33299999999999996,-0.337,-0.34,-0.34600000000000003,-0.349,-0.35600000000000004,-0.35600000000000004,-0.358,0.335,-0.35100000000000003,-0.35700000000000004,-0.358,-0.363,-0.36700000000000005,-0.368,-0.371,-0.376,-0.591,-0.36200000000000004,-0.364,-0.366,-0.37,-0.37200000000000005,-0.375,-0.375,-0.379,-0.382,0.165,-0.37,-0.374,-0.375,-0.37799999999999995,-0.382,-0.382,-0.387,-0.387,-0.39,-0.39299999999999996,-0.39299999999999996,-0.395,-0.076,-0.389,-0.38799999999999996,-0.38799999999999996,-0.389,-0.39399999999999996,-0.396,-0.396,-0.39799999999999996,-0.401,-0.40299999999999997,-0.40299999999999997,-0.40299999999999997,-0.259,-0.377,-0.375,-0.375,-0.375,-0.379,-0.382,-0.381,-0.38299999999999995,-0.38299999999999995,-0.382,-0.385,-0.386,-0.38833333333333336
46,23.0,-0.3175,-0.315,-0.3125,-0.3085,-0.3035,-0.2965,-0.2905,-0.2845,-0.274,-0.2605,-0.245,-0.23149999999999998,-0.2155,-0.20450000000000002,-0.196,-0.191,-0.182,-0.178,-0.17149999999999999,-0.168,-0.16399999999999998,-0.158,-0.155,-0.15000000000000002,-0.149,-0.14400000000000002,-0.1425,-0.14,-0.139,-0.137,-0.1335,-0.1335,-0.132,-0.1295,-0.05449999999999999,-0.1215,-0.119,-0.11800000000000001,-0.11549999999999999,-0.11750000000000001,-0.11599999999999999,-0.11350000000000002,-0.11400000000000002,-0.1215,-0.11199999999999999,-0.11200000000000002,-0.111,-0.1125,-0.11000000000000001,-0.10950000000000001,-0.10850000000000001,-0.10900000000000001,-0.10850000000000001,0.0985,-0.1145,-0.11649999999999999,-0.1145,-0.11599999999999999,-0.11699999999999999,-0.11549999999999999,-0.11449999999999999,-0.1145,-0.1155,-0.11599999999999999,-0.1155,-0.114,-0.2935,-0.10599999999999998,-0.10650000000000001,-0.10700000000000001,-0.10600000000000001,-0.10650000000000001,-0.10600000000000001,-0.10700000000000001,-0.10650000000000001,-0.10800000000000001,-0.10700000000000001,-0.10650000000000001,-0.10550000000000001,-0.2615,-0.10550000000000001,-0.10550000000000001,-0.107,-0.107,-0.10650000000000001,-0.1065,-0.10600000000000001,-0.1075,-0.107,-0.108,-0.10900000000000001,-0.10800000000000001,-0.10833333333333336
283,24.0,-0.13,-0.13699999999999998,-0.13699999999999998,-0.14300000000000002,-0.146,-0.151,-0.154,-0.161,-0.166,-0.172,-0.17800000000000002,-0.183,-0.18899999999999997,-0.193,-0.2,-0.204,-0.20600000000000002,-0.212,-0.21600000000000003,-0.21899999999999997,-0.223,-0.225,-0.22899999999999998,-0.233,-0.233,-0.235,-0.23800000000000002,-0.239,-0.24100000000000002,-0.242,-0.244,-0.245,-0.24600000000000002,-0.247,0.335,-0.248,-0.248,-0.251,-0.249,-0.253,-0.253,-0.251,-0.253,0.061,-0.254,-0.253,-0.254,-0.254,-0.255,-0.258,-0.255,-0.255,-0.259,0.249,-0.233,-0.233,-0.237,-0.23399999999999999,-0.237,-0.23600000000000002,-0.23399999999999999,-0.23399999999999999,-0.23600000000000002,-0.237,-0.23600000000000002,-0.23600000000000002,-0.509,-0.23800000000000002,-0.23800000000000002,-0.237,-0.237,-0.23800000000000002,-0.23800000000000002,-0.23600000000000002,-0.23600000000000002,-0.239,-0.23800000000000002,-0.237,-0.23800000000000002,-0.259,-0.235,-0.235,-0.235,-0.23399999999999999,-0.237,-0.23399999999999999,-0.23399999999999999,-0.235,-0.23600000000000002,-0.23399999999999999,-0.235,-0.23600000000000002,-0.23700000000000004
180,25.0,0.0,-0.004999999999999999,-0.0115,-0.0175,-0.023,-0.030500000000000003,-0.0375,-0.045,-0.051000000000000004,-0.0555,-0.0605,-0.0645,-0.067,-0.07450000000000001,-0.0795,-0.085,-0.0915,-0.095,-0.1005,-0.10450000000000001,-0.10899999999999999,-0.11299999999999999,-0.118,-0.1215,-0.1245,-0.128,-0.131,-0.133,-0.137,-0.14,-0.14150000000000001,-0.1435,-0.14550000000000002,-0.1465,-0.015999999999999986,-0.151,-0.1545,-0.156,-0.1585,-0.159,-0.16149999999999998,-0.163,-0.16399999999999998,0.15100000000000002,-0.16999999999999998,-0.17300000000000001,-0.17200000000000001,-0.173,-0.1735,-0.175,-0.1785,-0.178,-0.1795,-0.4475,-0.17950000000000002,-0.1765,-0.175,-0.1755,-0.175,-0.1765,-0.176,-0.174,-0.17350000000000002,-0.173,-0.17149999999999999,-0.16949999999999998,-0.060500000000000026,-0.16599999999999998,-0.164,-0.16549999999999998,-0.16299999999999998,-0.162,-0.1585,-0.15849999999999997,-0.1585,-0.1565,-0.1565,-0.153,-0.154,0.38599999999999995,-0.14950000000000002,-0.1515,-0.15050000000000002,-0.14950000000000002,-0.14750000000000002,-0.147,-0.14700000000000002,-0.14400000000000002,-0.14550000000000002,-0.14350000000000002,-0.14300000000000002,-0.1405,-0.13933333333333334
212,26.0,-0.022000000000000002,-0.019,-0.015,-0.016,-0.013000000000000001,-0.011000000000000001,0.0,0.008,0.016,0.027000000000000003,0.037000000000000005,0.049,0.065,0.077,0.092,0.106,0.11900000000000001,0.131,0.14300000000000002,0.157,0.16699999999999998,0.177,0.18600000000000003,0.19399999999999998,0.204,0.214,0.22,0.22699999999999998,0.233,0.24100000000000002,0.24600000000000002,0.252,0.259,0.263,0.17300000000000001,0.27399999999999997,0.278,0.28300000000000003,0.28800000000000003,0.29,0.293,0.29600000000000004,0.3,0.061,0.305,0.307,0.309,0.313,0.314,0.315,0.319,0.32,0.321,-0.321,0.297,0.298,0.299,0.303,0.301,0.304,0.304,0.304,0.307,0.306,0.308,0.309,0.355,0.322,0.32299999999999995,0.324,0.324,0.326,0.325,0.326,0.32799999999999996,0.33,0.32899999999999996,0.33,0.331,0.5329999999999999,0.332,0.33299999999999996,0.33299999999999996,0.33299999999999996,0.332,0.33299999999999996,0.33299999999999996,0.33299999999999996,0.33399999999999996,0.335,0.335,0.33399999999999996,0.3336666666666666
298,27.0,-0.16,-0.162,-0.166,-0.174,-0.191,-0.205,-0.217,-0.23,-0.243,-0.257,-0.271,-0.28300000000000003,-0.295,-0.307,-0.321,-0.33,-0.33799999999999997,-0.349,-0.358,-0.36700000000000005,-0.374,-0.381,-0.39,-0.396,-0.402,-0.408,-0.413,-0.41700000000000004,-0.42100000000000004,-0.428,-0.43,-0.435,-0.43799999999999994,-0.441,0.608,-0.44799999999999995,-0.449,-0.451,-0.45399999999999996,-0.455,-0.457,-0.45899999999999996,-0.46299999999999997,0.061,-0.465,-0.465,-0.46299999999999997,-0.465,-0.465,-0.465,-0.46799999999999997,-0.469,-0.469,0.361,-0.47,-0.47100000000000003,-0.47200000000000003,-0.473,-0.47100000000000003,-0.475,-0.474,-0.474,-0.475,-0.473,-0.474,-0.474,0.355,-0.47700000000000004,-0.478,-0.47600000000000003,-0.474,-0.47600000000000003,-0.47600000000000003,-0.474,-0.474,-0.474,-0.47200000000000003,-0.474,-0.47100000000000003,0.5329999999999999,-0.47,-0.469,-0.466,-0.467,-0.465,-0.467,-0.465,-0.466,-0.466,-0.465,-0.465,-0.461,-0.45966666666666667
237,28.0,0.0945,0.095,0.097,0.097,0.099,0.10250000000000001,0.1105,0.124,0.1345,0.137,0.14,0.14550000000000002,0.15050000000000002,0.15150000000000002,0.156,0.161,0.16549999999999998,0.1695,0.172,0.175,0.178,0.182,0.18350000000000002,0.1875,0.1915,0.1945,0.196,0.1985,0.20199999999999999,0.20400000000000001,0.20650000000000002,0.207,0.21049999999999996,0.213,0.22599999999999998,0.2125,0.213,0.2165,0.21700000000000003,0.21949999999999997,0.22099999999999997,0.22349999999999998,0.22349999999999998,0.178,0.23399999999999999,0.2355,0.2385,0.2405,0.2415,0.2435,0.246,0.2465,0.249,0.188,0.25,0.25,0.253,0.2535,0.255,0.258,0.2585,0.261,0.262,0.263,0.2655,0.267,0.22349999999999998,0.26549999999999996,0.269,0.27149999999999996,0.27449999999999997,0.275,0.27649999999999997,0.27849999999999997,0.28049999999999997,0.28,0.28300000000000003,0.2845,0.2865,-0.192,0.28900000000000003,0.2915,0.2935,0.29600000000000004,0.2955,0.29500000000000004,0.29700000000000004,0.2975,0.2995,0.2995,0.30100000000000005,0.301,0.302
272,29.0,-0.348,-0.341,-0.332,-0.325,-0.32,-0.321,-0.32299999999999995,-0.32799999999999996,-0.33399999999999996,-0.34,-0.345,-0.35200000000000004,-0.359,-0.365,-0.374,-0.38,-0.38299999999999995,-0.392,-0.395,-0.401,-0.40700000000000003,-0.408,-0.415,-0.42100000000000004,-0.425,-0.428,-0.434,-0.43700000000000006,-0.442,-0.444,-0.44799999999999995,-0.451,-0.45299999999999996,-0.457,0.608,-0.45799999999999996,-0.45899999999999996,-0.46299999999999997,-0.462,-0.46799999999999997,-0.47,-0.46799999999999997,-0.47100000000000003,0.011000000000000001,-0.474,-0.47600000000000003,-0.47600000000000003,-0.47700000000000004,-0.479,-0.485,-0.485,-0.483,-0.486,0.179,-0.488,-0.488,-0.495,-0.495,-0.494,-0.494,-0.49700000000000005,-0.496,-0.498,-0.499,-0.5,-0.501,0.355,-0.504,-0.503,-0.505,-0.505,-0.504,-0.509,-0.507,-0.511,-0.511,-0.511,-0.512,-0.513,-0.23800000000000002,-0.514,-0.516,-0.516,-0.517,-0.522,-0.518,-0.518,-0.519,-0.523,-0.521,-0.522,-0.524,-0.5253333333333334
43,30.0,0.3443333333333334,0.3453333333333333,0.3473333333333333,0.3506666666666667,0.35366666666666663,0.357,0.361,0.36566666666666664,0.37033333333333335,0.37433333333333335,0.38033333333333336,0.38566666666666666,0.3906666666666667,0.3960000000000001,0.4013333333333333,0.40633333333333327,0.41133333333333333,0.41500000000000004,0.41966666666666663,0.424,0.42766666666666664,0.43133333333333335,0.4346666666666667,0.439,0.442,0.44566666666666666,0.4486666666666667,0.45133333333333336,0.4546666666666667,0.457,0.461,0.4623333333333333,0.465,0.4676666666666667,0.04466666666666666,0.46799999999999997,0.47,0.47266666666666673,0.4746666666666666,0.4749999999999999,0.47800000000000004,0.47933333333333333,0.48066666666666674,-0.09833333333333333,0.48500000000000004,0.48666666666666664,0.4873333333333334,0.48866666666666675,0.49,0.49133333333333334,0.49266666666666664,0.4936666666666667,0.49466666666666664,-0.221,0.488,0.488,0.4896666666666667,0.48933333333333334,0.4896666666666667,0.49233333333333335,0.492,0.4936666666666667,0.494,0.49366666666666664,0.49466666666666664,0.49533333333333335,-0.08233333333333331,0.4963333333333333,0.49766666666666665,0.498,0.49833333333333335,0.49833333333333335,0.4993333333333334,0.5,0.49966666666666665,0.49899999999999994,0.5003333333333333,0.5006666666666666,0.501,-0.17533333333333334,0.5016666666666666,0.5019999999999999,0.5013333333333333,0.5013333333333333,0.501,0.5006666666666667,0.5013333333333333,0.5016666666666666,0.5019999999999999,0.5006666666666667,0.5016666666666666,0.501,0.5014444444444445
54,31.0,-0.235,-0.242,-0.247,-0.2525,-0.26,-0.266,-0.27,-0.274,-0.278,-0.2825,-0.287,-0.2905,-0.2945,-0.298,-0.3035,-0.3075,-0.311,-0.315,-0.3205,-0.3255,-0.32699999999999996,-0.3305,-0.331,-0.3355,-0.33599999999999997,-0.33899999999999997,-0.3415,-0.3425,-0.344,-0.34550000000000003,-0.34650000000000003,-0.3495,-0.352,-0.354,-0.16600000000000004,-0.356,-0.3575,-0.3575,-0.36,-0.35900000000000004,-0.36150000000000004,-0.362,-0.36200000000000004,0.06949999999999999,-0.365,-0.3665,-0.364,-0.365,-0.366,-0.36550000000000005,-0.3665,-0.367,-0.3665,0.218,-0.3695,-0.369,-0.369,-0.3695,-0.36700000000000005,-0.36750000000000005,-0.36850000000000005,-0.36850000000000005,-0.36950000000000005,-0.368,-0.3665,-0.368,0.08549999999999998,-0.3665,-0.364,-0.3635,-0.3645,-0.3635,-0.36350000000000005,-0.3625,-0.3625,-0.363,-0.362,-0.3625,-0.361,0.16149999999999998,-0.3645,-0.3635,-0.363,-0.362,-0.361,-0.36,-0.36,-0.36050000000000004,-0.35750000000000004,-0.358,-0.3575,-0.35450000000000004,-0.3531666666666667
276,32.0,-0.224,-0.2135,-0.206,-0.202,-0.1975,-0.195,-0.191,-0.1875,-0.182,-0.1785,-0.17600000000000002,-0.17049999999999998,-0.16499999999999998,-0.16299999999999998,-0.157,-0.15200000000000002,-0.1485,-0.14450000000000002,-0.14,-0.137,-0.133,-0.131,-0.128,-0.1245,-0.1215,-0.12100000000000001,-0.119,-0.1175,-0.11549999999999999,-0.11599999999999999,-0.11549999999999999,-0.11549999999999999,-0.114,-0.1125,0.3335,-0.11649999999999999,-0.11699999999999999,-0.1185,-0.12,-0.1175,-0.119,-0.1205,-0.1205,0.20199999999999999,-0.107,-0.106,-0.10750000000000001,-0.10700000000000001,-0.11,-0.10950000000000001,-0.111,-0.112,-0.111,0.008500000000000008,-0.1135,-0.114,-0.115,-0.1145,-0.11599999999999999,-0.1175,-0.1185,-0.12,-0.1195,-0.1215,-0.123,-0.124,-0.3035,-0.1225,-0.1235,-0.124,-0.1265,-0.1285,-0.127,-0.127,-0.131,-0.131,-0.131,-0.131,-0.1335,0.154,-0.136,-0.138,-0.1385,-0.1385,-0.14,-0.1405,-0.14450000000000002,-0.14400000000000002,-0.14300000000000002,-0.14650000000000002,-0.146,-0.14850000000000002,-0.149
143,33.0,-0.159,-0.16349999999999998,-0.165,-0.16599999999999998,-0.16899999999999998,-0.172,-0.17400000000000002,-0.1755,-0.1775,-0.18,-0.182,-0.184,-0.185,-0.1865,-0.189,-0.192,-0.19549999999999998,-0.1985,-0.2015,-0.20450000000000002,-0.20650000000000002,-0.2135,-0.225,-0.2425,-0.255,-0.27049999999999996,-0.2815,-0.2885,-0.297,-0.3035,-0.3145,-0.3225,-0.333,-0.3405,0.2375,-0.343,-0.34950000000000003,-0.356,-0.364,-0.368,-0.377,-0.383,-0.387,0.145,-0.4005,-0.40700000000000003,-0.412,-0.4165,-0.42300000000000004,-0.4285,-0.4355,-0.44,-0.44600000000000006,-0.3895,-0.45,-0.4535,-0.45699999999999996,-0.45999999999999996,-0.46299999999999997,-0.46799999999999997,-0.475,-0.479,-0.484,-0.4875,-0.48950000000000005,-0.495,0.018500000000000003,-0.494,-0.498,-0.5025000000000001,-0.506,-0.509,-0.5125,-0.5175000000000001,-0.521,-0.5255000000000001,-0.5289999999999999,-0.533,-0.5365,0.20600000000000002,-0.544,-0.5495,-0.5525,-0.556,-0.56,-0.5645,-0.5685,-0.5735,-0.5760000000000001,-0.5795000000000001,-0.5834999999999999,-0.585,-0.5881666666666665
65,34.0,-0.32833333333333337,-0.3253333333333333,-0.322,-0.31666666666666665,-0.31666666666666665,-0.317,-0.31633333333333336,-0.314,-0.3093333333333333,-0.3193333333333333,-0.3303333333333333,-0.338,-0.3463333333333334,-0.35366666666666663,-0.36033333333333334,-0.36633333333333334,-0.37200000000000005,-0.37766666666666665,-0.38033333333333336,-0.38566666666666666,-0.3893333333333333,-0.39466666666666667,-0.4013333333333334,-0.40666666666666673,-0.4126666666666667,-0.4203333333333334,-0.42700000000000005,-0.42933333333333334,-0.43199999999999994,-0.43900000000000006,-0.44366666666666665,-0.447,-0.44966666666666666,-0.4523333333333333,0.3153333333333333,-0.4616666666666666,-0.4663333333333333,-0.4686666666666666,-0.474,-0.47400000000000003,-0.47700000000000004,-0.4789999999999999,-0.4796666666666667,0.18833333333333332,-0.48200000000000004,-0.48699999999999993,-0.48733333333333334,-0.49033333333333334,-0.49300000000000005,-0.49300000000000005,-0.49666666666666665,-0.49666666666666665,-0.49666666666666676,0.12133333333333333,-0.5003333333333333,-0.5,-0.4996666666666667,-0.5,-0.5016666666666666,-0.5033333333333334,-0.5043333333333333,-0.506,-0.5056666666666666,-0.5066666666666667,-0.5076666666666666,-0.5076666666666666,-0.19133333333333333,-0.5096666666666667,-0.5113333333333333,-0.5116666666666667,-0.5133333333333333,-0.515,-0.513,-0.515,-0.516,-0.5163333333333333,-0.517,-0.518,-0.5183333333333334,0.03133333333333333,-0.5213333333333333,-0.5233333333333333,-0.5226666666666667,-0.5233333333333333,-0.522,-0.5226666666666667,-0.525,-0.5256666666666667,-0.5236666666666667,-0.5246666666666667,-0.525,-0.5233333333333333,-0.5229999999999999
35,35.0,-0.002999999999999999,0.003000000000000001,0.009666666666666665,0.016,0.022000000000000002,0.030333333333333334,0.037333333333333336,0.044000000000000004,0.055,0.066,0.079,0.08966666666666667,0.10366666666666664,0.10900000000000003,0.11566666666666665,0.12066666666666666,0.127,0.13166666666666668,0.1376666666666667,0.14133333333333334,0.1466666666666667,0.1536666666666667,0.15766666666666665,0.16233333333333333,0.16566666666666666,0.1703333333333333,0.17466666666666666,0.18033333333333335,0.18333333333333335,0.18733333333333335,0.19166666666666665,0.19566666666666666,0.19966666666666666,0.20366666666666666,0.119,0.21133333333333335,0.2153333333333333,0.21733333333333335,0.222,0.22499999999999998,0.22833333333333336,0.23099999999999998,0.23466666666666666,0.030666666666666665,0.241,0.24566666666666667,0.24866666666666667,0.25166666666666665,0.25466666666666665,0.25866666666666666,0.26133333333333336,0.265,0.26733333333333337,-0.17833333333333334,0.272,0.2753333333333334,0.2773333333333334,0.2813333333333333,0.2846666666666666,0.2856666666666667,0.289,0.29066666666666663,0.2936666666666667,0.2966666666666667,0.29866666666666664,0.30033333333333334,-0.121,0.29533333333333334,0.29666666666666663,0.2993333333333333,0.301,0.304,0.306,0.3073333333333334,0.30866666666666664,0.311,0.3133333333333333,0.316,0.317,0.084,0.3213333333333333,0.322,0.324,0.32566666666666666,0.3273333333333333,0.33,0.331,0.33233333333333337,0.334,0.335,0.3373333333333333,0.33866666666666667,0.3406666666666667
107,36.0,-0.354,-0.353,-0.353,-0.35350000000000004,-0.35250000000000004,-0.353,-0.3555,-0.3605,-0.365,-0.3685,-0.378,-0.3915,-0.405,-0.42900000000000005,-0.44600000000000006,-0.4645,-0.47850000000000004,-0.4915,-0.506,-0.518,-0.529,-0.5365,-0.5475,-0.556,-0.5660000000000001,-0.5725,-0.58,-0.5854999999999999,-0.5935,-0.6005,-0.6045,-0.611,-0.6165,-0.6194999999999999,-0.345,-0.6305000000000001,-0.6345000000000001,-0.639,-0.6425000000000001,-0.6465000000000001,-0.6515,-0.6525,-0.6559999999999999,-0.2635,-0.659,-0.6625000000000001,-0.664,-0.6665,-0.667,-0.667,-0.6695,-0.669,-0.671,-0.10300000000000001,-0.6735,-0.673,-0.6729999999999999,-0.6725,-0.6739999999999999,-0.6755,-0.6759999999999999,-0.6755,-0.6755,-0.6745000000000001,-0.6755,-0.6755,-0.16699999999999998,-0.6775,-0.6799999999999999,-0.6795,-0.6775,-0.6765,-0.6759999999999999,-0.6744999999999999,-0.675,-0.6744999999999999,-0.6739999999999999,-0.6725000000000001,-0.6715,-0.048,-0.6699999999999999,-0.6715,-0.6709999999999999,-0.6705000000000001,-0.669,-0.6705,-0.669,-0.6679999999999999,-0.669,-0.6665,-0.666,-0.664,-0.6630000000000001
256,37.0,0.39799999999999996,0.39,0.382,0.379,0.373,0.368,0.363,0.35700000000000004,0.35100000000000003,0.342,0.331,0.315,0.3,0.285,0.27,0.251,0.23399999999999999,0.218,0.203,0.19,0.17600000000000002,0.161,0.149,0.138,0.127,0.11699999999999999,0.106,0.096,0.086,0.076,0.066,0.057,0.048,0.043,-0.345,0.027000000000000003,0.019,0.011000000000000001,0.001,-0.005,-0.011000000000000001,-0.018000000000000002,-0.025,-0.212,-0.039,-0.046,-0.05,-0.055999999999999994,-0.061,-0.064,-0.068,-0.071,-0.07400000000000001,-0.126,-0.08199999999999999,-0.08800000000000001,-0.092,-0.09699999999999999,-0.1,-0.10400000000000001,-0.10800000000000001,-0.111,-0.11599999999999999,-0.11900000000000001,-0.124,-0.127,-0.243,-0.135,-0.14,-0.146,-0.147,-0.15,-0.153,-0.159,-0.159,-0.162,-0.16399999999999998,-0.16699999999999998,-0.17,-0.048,-0.177,-0.18,-0.182,-0.187,-0.188,-0.191,-0.193,-0.196,-0.19899999999999998,-0.201,-0.204,-0.207,-0.21
108,38.0,-0.354,-0.353,-0.353,-0.35350000000000004,-0.35250000000000004,-0.353,-0.3555,-0.3605,-0.365,-0.3685,-0.378,-0.3915,-0.405,-0.42900000000000005,-0.44600000000000006,-0.4645,-0.47850000000000004,-0.4915,-0.506,-0.518,-0.529,-0.5365,-0.5475,-0.556,-0.5660000000000001,-0.5725,-0.58,-0.5854999999999999,-0.5935,-0.6005,-0.6045,-0.611,-0.6165,-0.6194999999999999,-0.345,-0.6305000000000001,-0.6345000000000001,-0.639,-0.6425000000000001,-0.6465000000000001,-0.6515,-0.6525,-0.6559999999999999,-0.2635,-0.659,-0.6625000000000001,-0.664,-0.6665,-0.667,-0.667,-0.6695,-0.669,-0.671,-0.10300000000000001,-0.6735,-0.673,-0.6729999999999999,-0.6725,-0.6739999999999999,-0.6755,-0.6759999999999999,-0.6755,-0.6755,-0.6745000000000001,-0.6755,-0.6755,-0.16699999999999998,-0.6775,-0.6799999999999999,-0.6795,-0.6775,-0.6765,-0.6759999999999999,-0.6744999999999999,-0.675,-0.6744999999999999,-0.6739999999999999,-0.6725000000000001,-0.6715,-0.048,-0.6699999999999999,-0.6715,-0.6709999999999999,-0.6705000000000001,-0.669,-0.6705,-0.669,-0.6679999999999999,-0.669,-0.6665,-0.666,-0.664,-0.6630000000000001
141,39.0,-0.1845,-0.1875,-0.1905,-0.1905,-0.1915,-0.192,-0.1955,-0.1985,-0.1985,-0.1975,-0.197,-0.1955,-0.1935,-0.193,-0.192,-0.1905,-0.19,-0.1895,-0.189,-0.1885,-0.1875,-0.1865,-0.186,-0.1855,-0.1845,-0.1845,-0.184,-0.1835,-0.1835,-0.183,-0.183,-0.182,-0.1805,-0.181,-0.174,-0.183,-0.184,-0.1845,-0.184,-0.184,-0.183,-0.1845,-0.186,-0.1105,-0.183,-0.1825,-0.18,-0.1805,-0.1815,-0.182,-0.1845,-0.1845,-0.1845,-0.053500000000000006,-0.1745,-0.172,-0.16999999999999998,-0.17,-0.17,-0.17149999999999999,-0.17099999999999999,-0.16949999999999998,-0.17049999999999998,-0.172,-0.17049999999999998,-0.17049999999999998,-0.273,-0.15200000000000002,-0.1515,-0.1525,-0.15250000000000002,-0.154,-0.1535,-0.15600000000000003,-0.15799999999999997,-0.1575,-0.1585,-0.1595,-0.16149999999999998,0.0565,-0.14500000000000002,-0.14800000000000002,-0.14750000000000002,-0.15,-0.15,-0.14950000000000002,-0.153,-0.1525,-0.154,-0.154,-0.156,-0.1555,-0.15666666666666668
273,40.0,0.22699999999999998,0.22399999999999998,0.22,0.22,0.21899999999999997,0.21899999999999997,0.22,0.222,0.223,0.223,0.226,0.225,0.23,0.22699999999999998,0.228,0.231,0.23199999999999998,0.231,0.23199999999999998,0.23199999999999998,0.23399999999999999,0.23399999999999999,0.233,0.23600000000000002,0.237,0.237,0.237,0.237,0.239,0.23600000000000002,0.233,0.235,0.233,0.23199999999999998,0.485,0.22899999999999998,0.22899999999999998,0.228,0.225,0.228,0.225,0.223,0.221,0.345,0.22,0.21899999999999997,0.218,0.21600000000000003,0.212,0.212,0.209,0.205,0.204,-0.08,0.20199999999999999,0.19899999999999998,0.19899999999999998,0.198,0.19699999999999998,0.191,0.19,0.188,0.18600000000000003,0.183,0.18,0.17800000000000002,-0.243,0.174,0.171,0.16899999999999998,0.166,0.163,0.162,0.16,0.158,0.155,0.155,0.151,0.146,0.083,0.139,0.135,0.133,0.131,0.13,0.127,0.124,0.12300000000000001,0.12,0.11699999999999999,0.115,0.113,0.11099999999999999
252,41.0,0.37,0.368,0.368,0.368,0.368,0.368,0.368,0.368,0.368,0.368,0.368,0.368,0.368,0.368,0.368,0.368,0.368,0.368,0.368,0.368,0.368,0.368,0.368,0.368,0.368,0.368,0.368,0.368,0.368,0.368,0.368,0.368,0.368,0.368,0.485,0.386,0.386,0.386,0.386,0.386,0.386,0.386,0.386,0.345,0.38799999999999996,0.38799999999999996,0.38799999999999996,0.38799999999999996,0.38799999999999996,0.38799999999999996,0.38799999999999996,0.38799999999999996,0.38799999999999996,-0.08,0.38799999999999996,0.38799999999999996,0.38799999999999996,0.38799999999999996,0.38799999999999996,0.38799999999999996,0.38799999999999996,0.38799999999999996,0.38799999999999996,0.38799999999999996,0.38799999999999996,0.38799999999999996,0.092,0.38799999999999996,0.38799999999999996,0.38799999999999996,0.38799999999999996,0.38799999999999996,0.38799999999999996,0.38799999999999996,0.38799999999999996,0.38799999999999996,0.38799999999999996,0.38799999999999996,0.38799999999999996,0.083,0.38799999999999996,0.38799999999999996,0.38799999999999996,0.38799999999999996,0.38799999999999996,0.38799999999999996,0.38799999999999996,0.38799999999999996,0.38799999999999996,0.38799999999999996,0.38799999999999996,0.38799999999999996,0.38799999999999996
238,42.0,0.0945,0.095,0.097,0.097,0.099,0.10250000000000001,0.1105,0.124,0.1345,0.137,0.14,0.14550000000000002,0.15050000000000002,0.15150000000000002,0.156,0.161,0.16549999999999998,0.1695,0.172,0.175,0.178,0.182,0.18350000000000002,0.1875,0.1915,0.1945,0.196,0.1985,0.20199999999999999,0.20400000000000001,0.20650000000000002,0.207,0.21049999999999996,0.213,0.22599999999999998,0.2125,0.213,0.2165,0.21700000000000003,0.21949999999999997,0.22099999999999997,0.22349999999999998,0.22349999999999998,0.178,0.23399999999999999,0.2355,0.2385,0.2405,0.2415,0.2435,0.246,0.2465,0.249,0.188,0.25,0.25,0.253,0.2535,0.255,0.258,0.2585,0.261,0.262,0.263,0.2655,0.267,0.22349999999999998,0.26549999999999996,0.269,0.27149999999999996,0.27449999999999997,0.275,0.27649999999999997,0.27849999999999997,0.28049999999999997,0.28,0.28300000000000003,0.2845,0.2865,-0.192,0.28900000000000003,0.2915,0.2935,0.29600000000000004,0.2955,0.29500000000000004,0.29700000000000004,0.2975,0.2995,0.2995,0.30100000000000005,0.301,0.302
307,43.0,-0.018000000000000002,-0.019,-0.018000000000000002,-0.016,-0.013000000000000001,-0.01,-0.006,-0.002,0.002,0.006999999999999999,0.012,0.019,0.025,0.033,0.038,0.045,0.052000000000000005,0.055999999999999994,0.062,0.067,0.07200000000000001,0.075,0.079,0.085,0.08900000000000001,0.094,0.096,0.099,0.10300000000000001,0.107,0.11199999999999999,0.114,0.115,0.11900000000000001,-0.156,0.12,0.124,0.128,0.131,0.13,0.134,0.138,0.139,0.345,0.13,0.132,0.134,0.136,0.139,0.142,0.14400000000000002,0.145,0.147,0.015,0.151,0.15,0.155,0.153,0.154,0.159,0.16,0.16399999999999998,0.16399999999999998,0.163,0.165,0.16899999999999998,0.569,0.157,0.159,0.16,0.162,0.163,0.165,0.166,0.16899999999999998,0.16699999999999998,0.17,0.172,0.17300000000000001,-0.146,0.18100000000000002,0.184,0.183,0.183,0.185,0.185,0.188,0.188,0.19,0.18899999999999997,0.18899999999999997,0.191,0.19166666666666668
56,44.0,-0.1235,-0.1215,-0.11499999999999999,-0.11399999999999999,-0.11900000000000001,-0.1235,-0.126,-0.1315,-0.136,-0.14100000000000001,-0.14600000000000002,-0.15,-0.154,-0.157,-0.1635,-0.1655,-0.16649999999999998,-0.16999999999999998,-0.1725,-0.174,-0.1765,-0.176,-0.179,-0.1805,-0.1795,-0.18,-0.1815,-0.1795,-0.1795,-0.181,-0.1795,-0.18,-0.1785,-0.178,0.06799999999999999,-0.173,-0.17099999999999999,-0.17099999999999999,-0.1695,-0.16999999999999998,-0.16849999999999998,-0.1665,-0.16799999999999998,0.3095,-0.1795,-0.177,-0.174,-0.1735,-0.17149999999999999,-0.172,-0.17099999999999999,-0.16849999999999998,-0.16899999999999998,0.1365,-0.1895,-0.188,-0.189,-0.1865,-0.1855,-0.186,-0.183,-0.182,-0.182,-0.181,-0.1795,-0.17850000000000002,0.291,-0.191,-0.1895,-0.188,-0.186,-0.1865,-0.186,-0.184,-0.1835,-0.184,-0.1815,-0.1815,-0.1795,0.1615,-0.1935,-0.1925,-0.1905,-0.19,-0.1905,-0.189,-0.1885,-0.1885,-0.188,-0.1865,-0.1865,-0.1845,-0.18383333333333335
275,45.0,-0.187,-0.19399999999999998,-0.204,-0.21100000000000002,-0.218,-0.225,-0.23399999999999999,-0.242,-0.24600000000000002,-0.249,-0.251,-0.253,-0.255,-0.258,-0.26,-0.263,-0.267,-0.26899999999999996,-0.273,-0.275,-0.27699999999999997,-0.28,-0.282,-0.285,-0.28800000000000003,-0.29100000000000004,-0.294,-0.29600000000000004,-0.299,-0.301,-0.305,-0.307,-0.308,-0.311,-0.106,-0.315,-0.319,-0.32,-0.321,-0.322,-0.32299999999999995,-0.326,-0.327,0.38299999999999995,-0.316,-0.318,-0.318,-0.321,-0.322,-0.325,-0.32899999999999996,-0.33,-0.331,0.057,-0.33299999999999996,-0.33299999999999996,-0.33299999999999996,-0.33299999999999996,-0.33399999999999996,-0.336,-0.336,-0.336,-0.336,-0.33899999999999997,-0.336,-0.33299999999999996,-0.36200000000000004,-0.327,-0.325,-0.327,-0.32899999999999996,-0.33,-0.32799999999999996,-0.331,-0.33299999999999996,-0.33,-0.332,-0.33,-0.335,0.059000000000000004,-0.33399999999999996,-0.33799999999999997,-0.335,-0.336,-0.336,-0.33399999999999996,-0.33799999999999997,-0.336,-0.33799999999999997,-0.33799999999999997,-0.33899999999999997,-0.33799999999999997,-0.3383333333333333
111,46.0,0.3035,0.309,0.317,0.32125,0.32425,0.32725,0.33299999999999996,0.337,0.34275,0.34775,0.35250000000000004,0.35850000000000004,0.36649999999999994,0.372,0.3775,0.38425,0.391,0.39625,0.40199999999999997,0.4075,0.41225,0.4175,0.42124999999999996,0.42500000000000004,0.42975,0.43375,0.4365,0.44075,0.444,0.44625,0.44875,0.45125000000000004,0.45425,0.45675,-0.18875,0.46475,0.4675,0.46875,0.47075,0.47225000000000006,0.47425,0.4755,0.4765,0.1115,0.48225,0.48375,0.486,0.48775,0.48825,0.48925,0.4905,0.49124999999999996,0.492,0.06175,0.48425,0.48500000000000004,0.48525,0.48700000000000004,0.487,0.487,0.48849999999999993,0.48925,0.48925,0.48975,0.49,0.49124999999999996,-0.14600000000000002,0.49324999999999997,0.49375,0.49474999999999997,0.4955,0.49475,0.49575,0.49650000000000005,0.49700000000000005,0.49725,0.498,0.498,0.49875,0.01375,0.49425,0.49450000000000005,0.49524999999999997,0.4955,0.49475,0.49525,0.49475,0.495,0.49549999999999994,0.49574999999999997,0.49575,0.4955,0.4954166666666667
93,47.0,-0.37033333333333335,-0.3713333333333333,-0.3703333333333334,-0.37000000000000005,-0.37433333333333335,-0.37766666666666665,-0.381,-0.38400000000000006,-0.38766666666666666,-0.39066666666666666,-0.39399999999999996,-0.39866666666666667,-0.4013333333333333,-0.4056666666666667,-0.41133333333333333,-0.4143333333333334,-0.417,-0.4216666666666667,-0.4256666666666667,-0.42933333333333334,-0.4303333333333333,-0.4326666666666667,-0.4366666666666667,-0.43766666666666665,-0.43966666666666665,-0.4413333333333333,-0.4433333333333333,-0.4433333333333333,-0.445,-0.44733333333333336,-0.448,-0.4483333333333333,-0.451,-0.4503333333333333,-0.37399999999999994,-0.4653333333333333,-0.4666666666666666,-0.4673333333333333,-0.4703333333333333,-0.4706666666666666,-0.4716666666666667,-0.472,-0.47533333333333333,-0.011666666666666667,-0.4963333333333333,-0.498,-0.49566666666666664,-0.49766666666666665,-0.49866666666666665,-0.49833333333333335,-0.501,-0.501,-0.5016666666666666,-0.04733333333333334,-0.503,-0.503,-0.5036666666666667,-0.5056666666666667,-0.505,-0.5073333333333334,-0.5083333333333334,-0.5086666666666667,-0.5113333333333333,-0.5113333333333333,-0.513,-0.5133333333333333,-0.07300000000000002,-0.5156666666666667,-0.517,-0.5186666666666667,-0.5176666666666666,-0.5196666666666666,-0.5213333333333333,-0.5216666666666666,-0.523,-0.5246666666666666,-0.525,-0.5273333333333333,-0.528,0.16966666666666666,-0.5293333333333333,-0.5313333333333333,-0.531,-0.5339999999999999,-0.5329999999999999,-0.535,-0.5366666666666666,-0.5383333333333334,-0.54,-0.5406666666666667,-0.5436666666666667,-0.5446666666666666,-0.5469999999999999
4,48.0,0.098,0.092,0.088,0.0855,0.08449999999999999,0.0835,0.08249999999999999,0.0815,0.0835,0.08549999999999999,0.087,0.09,0.0935,0.0935,0.0945,0.0965,0.0985,0.0995,0.101,0.1015,0.1035,0.1035,0.10400000000000001,0.106,0.10700000000000001,0.106,0.1065,0.106,0.1065,0.1065,0.10550000000000001,0.10650000000000001,0.10550000000000001,0.105,-0.22099999999999997,0.1035,0.10400000000000001,0.10250000000000001,0.1015,0.101,0.1005,0.099,0.0965,0.036000000000000004,0.07800000000000001,0.077,0.0775,0.0785,0.07600000000000001,0.0765,0.07500000000000001,0.07300000000000001,0.07350000000000001,-0.3015,0.07700000000000001,0.07700000000000001,0.078,0.076,0.07600000000000001,0.074,0.07350000000000001,0.073,0.07100000000000001,0.0695,0.068,0.0665,-0.14200000000000002,0.08449999999999999,0.0835,0.0835,0.082,0.08049999999999999,0.0795,0.07950000000000002,0.0775,0.076,0.076,0.07250000000000001,0.07100000000000001,0.146,0.0605,0.059000000000000004,0.057999999999999996,0.0565,0.056,0.0545,0.053000000000000005,0.051000000000000004,0.0505,0.049,0.0475,0.0455,0.043833333333333335
261,49.0,0.111,0.111,0.113,0.11699999999999999,0.11800000000000001,0.11699999999999999,0.114,0.107,0.102,0.098,0.092,0.087,0.08199999999999999,0.079,0.073,0.069,0.07,0.064,0.063,0.061,0.057,0.059000000000000004,0.054000000000000006,0.051,0.048,0.048,0.044000000000000004,0.042,0.039,0.04,0.037000000000000005,0.035,0.035,0.032,-0.45299999999999996,0.018000000000000002,0.019,0.013999999999999999,0.016,0.011000000000000001,0.01,0.012,0.009000000000000001,0.0,0.006999999999999999,0.006,0.006,0.004,0.003,-0.003,-0.003,-0.001,-0.004,0.068,-0.003,-0.003,-0.01,-0.009000000000000001,-0.008,-0.009000000000000001,-0.012,-0.012,-0.013999999999999999,-0.015,-0.016,-0.018000000000000002,-0.037000000000000005,-0.02,-0.019,-0.022000000000000002,-0.021,-0.022000000000000002,-0.025,-0.025,-0.027999999999999997,-0.028999999999999998,-0.028999999999999998,-0.03,-0.03,0.11699999999999999,-0.031,-0.033,-0.033,-0.034,-0.04,-0.036000000000000004,-0.036000000000000004,-0.038,-0.040999999999999995,-0.04,-0.04,-0.043,-0.04400000000000001
68,50.0,-0.24366666666666667,-0.24533333333333332,-0.245,-0.244,-0.24366666666666667,-0.24066666666666667,-0.2333333333333333,-0.22166666666666668,-0.21366666666666667,-0.20933333333333334,-0.20433333333333334,-0.19799999999999998,-0.19333333333333333,-0.18933333333333333,-0.18399999999999997,-0.17833333333333334,-0.17133333333333334,-0.165,-0.15933333333333335,-0.15366666666666667,-0.14600000000000002,-0.1386666666666667,-0.13333333333333333,-0.12866666666666668,-0.122,-0.118,-0.11466666666666665,-0.10933333333333332,-0.10566666666666667,-0.10066666666666667,-0.09633333333333334,-0.09466666666666668,-0.09100000000000001,-0.08833333333333333,-0.3276666666666667,-0.08766666666666667,-0.08600000000000001,-0.082,-0.07966666666666666,-0.07733333333333334,-0.07533333333333332,-0.07233333333333335,-0.07066666666666667,0.07666666666666666,-0.06933333333333334,-0.06733333333333334,-0.06433333333333334,-0.063,-0.06066666666666667,-0.06,-0.057333333333333326,-0.05566666666666667,-0.056,0.168,-0.07700000000000001,-0.07566666666666667,-0.07366666666666667,-0.07233333333333335,-0.07166666666666667,-0.06933333333333334,-0.069,-0.06733333333333334,-0.06666666666666667,-0.065,-0.06233333333333333,-0.06233333333333333,-0.04900000000000001,-0.063,-0.061,-0.06,-0.05833333333333333,-0.056999999999999995,-0.057999999999999996,-0.055999999999999994,-0.055,-0.054333333333333324,-0.05366666666666667,-0.05333333333333334,-0.05000000000000001,0.39399999999999996,-0.05866666666666667,-0.056999999999999995,-0.05533333333333334,-0.05366666666666667,-0.054333333333333324,-0.05466666666666666,-0.05299999999999999,-0.05399999999999999,-0.053,-0.05100000000000001,-0.051333333333333335,-0.05000000000000001,-0.04977777777777779
202,51.0,0.27566666666666667,0.26999999999999996,0.265,0.2613333333333333,0.25733333333333336,0.254,0.25133333333333335,0.24833333333333332,0.24533333333333332,0.24266666666666667,0.24,0.23866666666666667,0.2363333333333333,0.23466666666666666,0.2323333333333333,0.23233333333333336,0.2303333333333333,0.22866666666666668,0.22699999999999998,0.2253333333333333,0.22433333333333336,0.22266666666666668,0.22166666666666668,0.2213333333333333,0.22033333333333335,0.22066666666666668,0.21866666666666668,0.218,0.218,0.21666666666666665,0.217,0.21666666666666665,0.21566666666666667,0.215,-0.0786666666666667,0.212,0.212,0.21333333333333335,0.212,0.212,0.21266666666666664,0.213,0.21133333333333335,-0.20733333333333334,0.21833333333333335,0.21666666666666665,0.2183333333333333,0.21833333333333335,0.21833333333333335,0.219,0.21966666666666668,0.2193333333333333,0.2203333333333333,-0.283,0.22366666666666668,0.22233333333333336,0.2233333333333333,0.22199999999999998,0.22366666666666668,0.22499999999999998,0.22499999999999998,0.22566666666666668,0.22533333333333336,0.2253333333333333,0.22533333333333336,0.22666666666666666,0.046666666666666634,0.2316666666666667,0.23399999999999999,0.2343333333333333,0.2346666666666667,0.2353333333333333,0.2353333333333333,0.23700000000000002,0.2383333333333333,0.237,0.23866666666666667,0.23866666666666667,0.239,0.4256666666666667,0.24133333333333332,0.24266666666666667,0.243,0.24366666666666667,0.245,0.24566666666666667,0.246,0.24633333333333332,0.24833333333333332,0.247,0.248,0.24866666666666667,0.24955555555555559
210,52.0,-0.341,-0.332,-0.32799999999999996,-0.327,-0.326,-0.327,-0.327,-0.32799999999999996,-0.326,-0.326,-0.32799999999999996,-0.327,-0.325,-0.327,-0.324,-0.32299999999999995,-0.324,-0.32299999999999995,-0.32299999999999995,-0.32299999999999995,-0.32299999999999995,-0.325,-0.326,-0.325,-0.327,-0.33,-0.331,-0.33299999999999996,-0.33399999999999996,-0.33899999999999997,-0.342,-0.345,-0.34600000000000003,-0.348,0.10099999999999999,-0.342,-0.345,-0.349,-0.354,-0.354,-0.358,-0.36200000000000004,-0.365,0.201,-0.36200000000000004,-0.364,-0.369,-0.371,-0.376,-0.37799999999999995,-0.382,-0.385,-0.387,-0.489,-0.39,-0.39299999999999996,-0.397,-0.39899999999999997,-0.402,-0.40700000000000003,-0.41,-0.414,-0.41600000000000004,-0.42100000000000004,-0.423,-0.42700000000000005,0.003,-0.43200000000000005,-0.436,-0.439,-0.445,-0.44799999999999995,-0.45,-0.452,-0.457,-0.45899999999999996,-0.462,-0.465,-0.47,0.319,-0.478,-0.483,-0.485,-0.48700000000000004,-0.49,-0.493,-0.499,-0.501,-0.502,-0.508,-0.509,-0.513,-0.5149999999999999
59,53.0,0.15533333333333332,0.15433333333333335,0.15433333333333332,0.15433333333333335,0.15266666666666667,0.149,0.14800000000000002,0.144,0.14200000000000002,0.13333333333333333,0.12333333333333334,0.11599999999999999,0.10966666666666668,0.10166666666666667,0.09533333333333334,0.08900000000000001,0.08333333333333333,0.082,0.07933333333333334,0.07833333333333332,0.07566666666666666,0.07033333333333334,0.06366666666666668,0.05866666666666667,0.05333333333333334,0.04733333333333334,0.04133333333333333,0.03833333333333333,0.035,0.02966666666666667,0.026,0.02066666666666667,0.017666666666666667,0.016000000000000004,0.021666666666666667,0.020666666666666667,0.016333333333333335,0.013999999999999999,0.009666666666666665,0.007666666666666669,0.004333333333333334,0.0026666666666666683,0.001666666666666668,0.006999999999999999,0.01,0.006000000000000002,0.005,0.003999999999999999,0.0013333333333333333,0.0013333333333333357,-0.002666666666666668,-0.0030000000000000014,-0.004333333333333332,0.33266666666666667,0.0023333333333333344,0.0026666666666666666,0.0026666666666666657,0.0020000000000000005,0.0,-0.0026666666666666666,-0.005,-0.005333333333333333,-0.006000000000000001,-0.0073333333333333315,-0.009333333333333332,-0.010999999999999998,-0.01966666666666667,0.004333333333333334,0.004,0.001333333333333334,0.000666666666666667,-0.0010000000000000007,-0.0006666666666666664,-0.0026666666666666674,-0.005333333333333333,-0.006666666666666665,-0.008,-0.009000000000000001,-0.01,0.26333333333333336,-0.013333333333333334,-0.016333333333333335,-0.018000000000000002,-0.019666666666666666,-0.02033333333333333,-0.023000000000000003,-0.025333333333333333,-0.025666666666666667,-0.027,-0.028333333333333335,-0.029333333333333336,-0.02966666666666666,-0.030444444444444437
66,54.0,-0.32833333333333337,-0.3253333333333333,-0.322,-0.31666666666666665,-0.31666666666666665,-0.317,-0.31633333333333336,-0.314,-0.3093333333333333,-0.3193333333333333,-0.3303333333333333,-0.338,-0.3463333333333334,-0.35366666666666663,-0.36033333333333334,-0.36633333333333334,-0.37200000000000005,-0.37766666666666665,-0.38033333333333336,-0.38566666666666666,-0.3893333333333333,-0.39466666666666667,-0.4013333333333334,-0.40666666666666673,-0.4126666666666667,-0.4203333333333334,-0.42700000000000005,-0.42933333333333334,-0.43199999999999994,-0.43900000000000006,-0.44366666666666665,-0.447,-0.44966666666666666,-0.4523333333333333,0.3153333333333333,-0.4616666666666666,-0.4663333333333333,-0.4686666666666666,-0.474,-0.47400000000000003,-0.47700000000000004,-0.4789999999999999,-0.4796666666666667,0.18833333333333332,-0.48200000000000004,-0.48699999999999993,-0.48733333333333334,-0.49033333333333334,-0.49300000000000005,-0.49300000000000005,-0.49666666666666665,-0.49666666666666665,-0.49666666666666676,0.12133333333333333,-0.5003333333333333,-0.5,-0.4996666666666667,-0.5,-0.5016666666666666,-0.5033333333333334,-0.5043333333333333,-0.506,-0.5056666666666666,-0.5066666666666667,-0.5076666666666666,-0.5076666666666666,-0.19133333333333333,-0.5096666666666667,-0.5113333333333333,-0.5116666666666667,-0.5133333333333333,-0.515,-0.513,-0.515,-0.516,-0.5163333333333333,-0.517,-0.518,-0.5183333333333334,0.03133333333333333,-0.5213333333333333,-0.5233333333333333,-0.5226666666666667,-0.5233333333333333,-0.522,-0.5226666666666667,-0.525,-0.5256666666666667,-0.5236666666666667,-0.5246666666666667,-0.525,-0.5233333333333333,-0.5229999999999999
164,55.0,0.22599999999999998,0.22699999999999998,0.231,0.23399999999999999,0.238,0.243,0.2465,0.249,0.2545,0.2595,0.2655,0.271,0.27549999999999997,0.281,0.28450000000000003,0.2875,0.29300000000000004,0.2955,0.301,0.3035,0.305,0.3095,0.3125,0.3135,0.315,0.318,0.32,0.3215,0.3215,0.3245,0.32499999999999996,0.3275,0.329,0.32899999999999996,0.3385,0.3265,0.32899999999999996,0.3265,0.3305,0.32899999999999996,0.3295,0.3305,0.331,-0.0545,0.344,0.34600000000000003,0.34550000000000003,0.3465,0.3465,0.34550000000000003,0.3465,0.348,0.34700000000000003,-0.2875,0.3495,0.35,0.347,0.34900000000000003,0.35,0.35,0.34900000000000003,0.349,0.35,0.35,0.35,0.34900000000000003,-0.11900000000000001,0.35550000000000004,0.35700000000000004,0.355,0.3565,0.357,0.356,0.356,0.355,0.356,0.3555,0.357,0.356,0.41650000000000004,0.358,0.35750000000000004,0.358,0.3565,0.3545,0.357,0.3575,0.35750000000000004,0.35650000000000004,0.358,0.35850000000000004,0.35750000000000004,0.3575000000000001
228,56.0,-0.2545,-0.254,-0.2535,-0.252,-0.2465,-0.2395,-0.233,-0.22799999999999998,-0.22200000000000003,-0.2125,-0.2025,-0.197,-0.1915,-0.198,-0.1995,-0.2,-0.1985,-0.1995,-0.20049999999999998,-0.202,-0.201,-0.198,-0.19949999999999998,-0.1975,-0.198,-0.1965,-0.196,-0.1935,-0.1935,-0.192,-0.19,-0.189,-0.1885,-0.185,-0.20199999999999999,-0.1835,-0.1805,-0.1795,-0.1765,-0.174,-0.1735,-0.17,-0.16999999999999998,0.2085,-0.16499999999999998,-0.16199999999999998,-0.1595,-0.1585,-0.156,-0.15300000000000002,-0.1515,-0.149,-0.14600000000000002,0.016,-0.16549999999999998,-0.164,-0.16199999999999998,-0.161,-0.157,-0.156,-0.1535,-0.15200000000000002,-0.15100000000000002,-0.14800000000000002,-0.14700000000000002,-0.14500000000000002,0.361,-0.15050000000000002,-0.15000000000000002,-0.14700000000000002,-0.14400000000000002,-0.14150000000000001,-0.1405,-0.138,-0.1375,-0.1365,-0.1335,-0.133,-0.131,0.1955,-0.12100000000000001,-0.12000000000000001,-0.1185,-0.1165,-0.1155,-0.11349999999999999,-0.11300000000000002,-0.113,-0.11100000000000002,-0.11,-0.10849999999999999,-0.10750000000000001,-0.10616666666666667
94,57.0,-0.37033333333333335,-0.3713333333333333,-0.3703333333333334,-0.37000000000000005,-0.37433333333333335,-0.37766666666666665,-0.381,-0.38400000000000006,-0.38766666666666666,-0.39066666666666666,-0.39399999999999996,-0.39866666666666667,-0.4013333333333333,-0.4056666666666667,-0.41133333333333333,-0.4143333333333334,-0.417,-0.4216666666666667,-0.4256666666666667,-0.42933333333333334,-0.4303333333333333,-0.4326666666666667,-0.4366666666666667,-0.43766666666666665,-0.43966666666666665,-0.4413333333333333,-0.4433333333333333,-0.4433333333333333,-0.445,-0.44733333333333336,-0.448,-0.4483333333333333,-0.451,-0.4503333333333333,-0.37399999999999994,-0.4653333333333333,-0.4666666666666666,-0.4673333333333333,-0.4703333333333333,-0.4706666666666666,-0.4716666666666667,-0.472,-0.47533333333333333,-0.011666666666666667,-0.4963333333333333,-0.498,-0.49566666666666664,-0.49766666666666665,-0.49866666666666665,-0.49833333333333335,-0.501,-0.501,-0.5016666666666666,-0.04733333333333334,-0.503,-0.503,-0.5036666666666667,-0.5056666666666667,-0.505,-0.5073333333333334,-0.5083333333333334,-0.5086666666666667,-0.5113333333333333,-0.5113333333333333,-0.513,-0.5133333333333333,-0.07300000000000002,-0.5156666666666667,-0.517,-0.5186666666666667,-0.5176666666666666,-0.5196666666666666,-0.5213333333333333,-0.5216666666666666,-0.523,-0.5246666666666666,-0.525,-0.5273333333333333,-0.528,0.16966666666666666,-0.5293333333333333,-0.5313333333333333,-0.531,-0.5339999999999999,-0.5329999999999999,-0.535,-0.5366666666666666,-0.5383333333333334,-0.54,-0.5406666666666667,-0.5436666666666667,-0.5446666666666666,-0.5469999999999999
181,58.0,0.0,-0.004999999999999999,-0.0115,-0.0175,-0.023,-0.030500000000000003,-0.0375,-0.045,-0.051000000000000004,-0.0555,-0.0605,-0.0645,-0.067,-0.07450000000000001,-0.0795,-0.085,-0.0915,-0.095,-0.1005,-0.10450000000000001,-0.10899999999999999,-0.11299999999999999,-0.118,-0.1215,-0.1245,-0.128,-0.131,-0.133,-0.137,-0.14,-0.14150000000000001,-0.1435,-0.14550000000000002,-0.1465,-0.015999999999999986,-0.151,-0.1545,-0.156,-0.1585,-0.159,-0.16149999999999998,-0.163,-0.16399999999999998,0.15100000000000002,-0.16999999999999998,-0.17300000000000001,-0.17200000000000001,-0.173,-0.1735,-0.175,-0.1785,-0.178,-0.1795,-0.4475,-0.17950000000000002,-0.1765,-0.175,-0.1755,-0.175,-0.1765,-0.176,-0.174,-0.17350000000000002,-0.173,-0.17149999999999999,-0.16949999999999998,-0.060500000000000026,-0.16599999999999998,-0.164,-0.16549999999999998,-0.16299999999999998,-0.162,-0.1585,-0.15849999999999997,-0.1585,-0.1565,-0.1565,-0.153,-0.154,0.38599999999999995,-0.14950000000000002,-0.1515,-0.15050000000000002,-0.14950000000000002,-0.14750000000000002,-0.147,-0.14700000000000002,-0.14400000000000002,-0.14550000000000002,-0.14350000000000002,-0.14300000000000002,-0.1405,-0.13933333333333334
26,59.0,-0.29575,-0.2995,-0.3025,-0.30374999999999996,-0.30525,-0.30625,-0.308,-0.3095,-0.3095,-0.30925,-0.30825,-0.30725,-0.30575,-0.3065,-0.30575,-0.30425,-0.30425,-0.30374999999999996,-0.3035,-0.3035,-0.30225,-0.3015,-0.30125,-0.3,-0.29975,-0.29950000000000004,-0.299,-0.29825,-0.2975,-0.29824999999999996,-0.2975,-0.29650000000000004,-0.29524999999999996,-0.2955,0.32325000000000004,-0.30250000000000005,-0.3015,-0.30074999999999996,-0.3015,-0.29975,-0.29775,-0.29875,-0.2985,0.11325,-0.30775,-0.30774999999999997,-0.30475,-0.3045,-0.30475,-0.30374999999999996,-0.30424999999999996,-0.3045,-0.30324999999999996,-0.021999999999999985,-0.32,-0.31825000000000003,-0.31725,-0.3165,-0.3145,-0.31525000000000003,-0.31375000000000003,-0.31275000000000003,-0.3125,-0.31224999999999997,-0.31224999999999997,-0.31125,-0.03774999999999999,-0.3165,-0.31475000000000003,-0.3145,-0.31525000000000003,-0.316,-0.31475,-0.31475,-0.3155,-0.31525000000000003,-0.3145,-0.3145,-0.316,0.209,-0.3225,-0.3235,-0.32275,-0.32375,-0.32275,-0.322,-0.32375,-0.32275,-0.32325,-0.3235,-0.324,-0.324,-0.32433333333333336
291,60.0,-0.22899999999999998,-0.23,-0.233,-0.233,-0.23199999999999998,-0.23,-0.228,-0.22399999999999998,-0.22,-0.218,-0.212,-0.21,-0.204,-0.205,-0.201,-0.195,-0.191,-0.18899999999999997,-0.18600000000000003,-0.183,-0.179,-0.17600000000000002,-0.175,-0.17,-0.166,-0.162,-0.16,-0.155,-0.15,-0.14800000000000002,-0.14800000000000002,-0.14400000000000002,-0.14300000000000002,-0.14,0.28600000000000003,-0.12300000000000001,-0.121,-0.11900000000000001,-0.11900000000000001,-0.113,-0.113,-0.11199999999999999,-0.11199999999999999,0.24100000000000002,-0.111,-0.109,-0.10800000000000001,-0.107,-0.10800000000000001,-0.107,-0.107,-0.10800000000000001,-0.107,0.205,-0.11,-0.11,-0.11,-0.109,-0.107,-0.111,-0.111,-0.11,-0.111,-0.11199999999999999,-0.114,-0.115,0.258,-0.122,-0.124,-0.124,-0.125,-0.126,-0.126,-0.127,-0.128,-0.129,-0.129,-0.131,-0.135,0.483,-0.086,-0.09,-0.09,-0.091,-0.091,-0.09300000000000001,-0.096,-0.096,-0.098,-0.1,-0.102,-0.10300000000000001,-0.10466666666666669
242,61.0,-0.251,-0.2545,-0.2575,-0.2575,-0.258,-0.257,-0.2545,-0.251,-0.2495,-0.245,-0.242,-0.239,-0.2345,-0.23049999999999998,-0.22749999999999998,-0.2245,-0.223,-0.2195,-0.219,-0.2175,-0.215,-0.21450000000000002,-0.21450000000000002,-0.214,-0.2135,-0.2135,-0.215,-0.21450000000000002,-0.2165,-0.2175,-0.22,-0.2215,-0.224,-0.224,-0.1525,-0.225,-0.22749999999999998,-0.22999999999999998,-0.23349999999999999,-0.235,-0.2375,-0.239,-0.243,0.015500000000000014,-0.232,-0.23550000000000001,-0.23600000000000002,-0.23950000000000002,-0.2415,-0.243,-0.2455,-0.2475,-0.2495,-0.022000000000000006,-0.23950000000000002,-0.242,-0.245,-0.247,-0.2485,-0.2505,-0.2525,-0.255,-0.2575,-0.2595,-0.2605,-0.2625,-0.14500000000000002,-0.2485,-0.251,-0.2545,-0.2555,-0.257,-0.26,-0.2625,-0.2635,-0.26549999999999996,-0.267,-0.26949999999999996,-0.27049999999999996,0.4495,-0.2635,-0.265,-0.2665,-0.2685,-0.2695,-0.27149999999999996,-0.27249999999999996,-0.2745,-0.276,-0.277,-0.279,-0.27949999999999997,-0.28099999999999997
79,62.0,0.07833333333333332,0.085,0.09200000000000001,0.09566666666666666,0.10233333333333333,0.10666666666666667,0.11466666666666665,0.12366666666666666,0.13133333333333333,0.135,0.1376666666666667,0.1426666666666667,0.14900000000000002,0.14900000000000002,0.15333333333333335,0.15666666666666668,0.15966666666666668,0.16366666666666668,0.165,0.16833333333333333,0.17,0.17233333333333334,0.17233333333333334,0.17500000000000002,0.17700000000000002,0.17799999999999996,0.17800000000000002,0.17933333333333334,0.18100000000000002,0.18000000000000002,0.18166666666666667,0.18033333333333335,0.18199999999999997,0.18333333333333335,-0.11333333333333334,0.18633333333333332,0.18500000000000003,0.18466666666666667,0.18366666666666667,0.18399999999999997,0.18400000000000002,0.18400000000000002,0.18366666666666664,-0.057666666666666665,0.18299999999999997,0.18266666666666667,0.18266666666666667,0.18299999999999997,0.18299999999999997,0.18266666666666667,0.18200000000000002,0.18233333333333332,0.18166666666666667,-0.12400000000000001,0.18100000000000002,0.18166666666666664,0.18233333333333332,0.18233333333333332,0.18099999999999997,0.18033333333333335,0.17800000000000002,0.17933333333333334,0.17866666666666667,0.17800000000000002,0.17800000000000002,0.17666666666666667,-0.24000000000000002,0.17933333333333334,0.17966666666666664,0.17800000000000002,0.17866666666666667,0.17733333333333334,0.17800000000000002,0.17766666666666667,0.17566666666666667,0.17500000000000002,0.17433333333333334,0.17500000000000002,0.17466666666666666,-0.158,0.17333333333333334,0.17266666666666666,0.17133333333333334,0.17133333333333334,0.17,0.16833333333333333,0.167,0.16733333333333333,0.16633333333333333,0.16566666666666666,0.16566666666666666,0.165,0.16477777777777777
125,63.0,0.353,0.34650000000000003,0.34299999999999997,0.34099999999999997,0.3395,0.3385,0.337,0.336,0.33649999999999997,0.3375,0.33949999999999997,0.34199999999999997,0.34450000000000003,0.34700000000000003,0.3495,0.35350000000000004,0.357,0.35950000000000004,0.363,0.36550000000000005,0.369,0.3705,0.3725,0.376,0.3785,0.381,0.3825,0.385,0.3865,0.389,0.3905,0.393,0.39349999999999996,0.39549999999999996,-0.052,0.395,0.39799999999999996,0.39949999999999997,0.401,0.40149999999999997,0.4035,0.406,0.40549999999999997,-0.05399999999999999,0.41700000000000004,0.4185,0.421,0.423,0.42400000000000004,0.426,0.4275,0.4285,0.4295,-0.014499999999999985,0.4185,0.4205,0.4245,0.4225,0.4255,0.428,0.4295,0.43200000000000005,0.4315,0.433,0.43400000000000005,0.4365,0.1915,0.433,0.435,0.4365,0.4375,0.43900000000000006,0.4395,0.44300000000000006,0.4445,0.4435,0.4465,0.4465,0.448,-0.1725,0.45799999999999996,0.4595,0.461,0.461,0.46349999999999997,0.4645,0.46699999999999997,0.46699999999999997,0.46799999999999997,0.47,0.47,0.471,0.4713333333333333
22,64.0,-0.19933333333333333,-0.205,-0.20833333333333334,-0.21166666666666667,-0.21466666666666667,-0.21766666666666667,-0.221,-0.225,-0.2273333333333333,-0.229,-0.23033333333333336,-0.23166666666666666,-0.23266666666666666,-0.2333333333333333,-0.2356666666666667,-0.237,-0.238,-0.24033333333333332,-0.24233333333333332,-0.24433333333333332,-0.24666666666666667,-0.24966666666666668,-0.25166666666666665,-0.25433333333333336,-0.256,-0.2583333333333333,-0.26133333333333336,-0.26366666666666666,-0.26666666666666666,-0.26899999999999996,-0.27166666666666667,-0.27399999999999997,-0.2763333333333333,-0.27899999999999997,0.21966666666666668,-0.28633333333333333,-0.28833333333333333,-0.29066666666666663,-0.29266666666666663,-0.29633333333333334,-0.2986666666666667,-0.30033333333333334,-0.3033333333333333,0.17933333333333334,-0.3133333333333333,-0.31566666666666665,-0.3176666666666667,-0.32033333333333336,-0.323,-0.32633333333333336,-0.328,-0.331,-0.334,0.07800000000000001,-0.3176666666666667,-0.32,-0.32233333333333336,-0.32466666666666666,-0.327,-0.32866666666666666,-0.32866666666666666,-0.3303333333333333,-0.33299999999999996,-0.33699999999999997,-0.338,-0.33866666666666667,0.4256666666666667,-0.334,-0.33466666666666667,-0.3373333333333333,-0.3393333333333333,-0.3423333333333334,-0.3426666666666667,-0.3453333333333333,-0.3466666666666667,-0.3496666666666666,-0.3506666666666667,-0.3516666666666666,-0.35433333333333333,-0.146,-0.34900000000000003,-0.3516666666666666,-0.35266666666666663,-0.35433333333333333,-0.3566666666666667,-0.3566666666666667,-0.3586666666666667,-0.35966666666666663,-0.36200000000000004,-0.3633333333333333,-0.36566666666666664,-0.3666666666666667,-0.3685555555555556
146,65.0,0.2015,0.19574999999999998,0.19024999999999997,0.18774999999999997,0.18375000000000002,0.18175000000000002,0.17675,0.17250000000000001,0.17175,0.1715,0.17200000000000001,0.1725,0.1735,0.17400000000000002,0.17450000000000002,0.17475000000000002,0.17475000000000002,0.17575000000000002,0.17600000000000002,0.17600000000000002,0.17675000000000002,0.17725000000000002,0.17825000000000002,0.1775,0.17775,0.17775000000000002,0.17825000000000002,0.17775000000000002,0.177,0.17775000000000002,0.177,0.17800000000000002,0.17850000000000002,0.17775000000000002,-0.015,0.178,0.1775,0.17650000000000002,0.17725000000000002,0.17775000000000002,0.178,0.17675000000000002,0.177,0.10700000000000001,0.17049999999999998,0.17175,0.1725,0.17275000000000001,0.17225,0.17149999999999999,0.17049999999999998,0.17099999999999999,0.16999999999999998,0.22975,0.16849999999999998,0.17075,0.17175,0.17175,0.1735,0.172,0.17275000000000001,0.17375,0.17375,0.17375000000000002,0.175,0.17625000000000002,0.18350000000000002,0.17925000000000002,0.18125,0.1805,0.18075,0.181,0.18225,0.181,0.18075,0.182,0.182,0.18274999999999997,0.1805,0.3325,0.18300000000000002,0.18100000000000002,0.18325000000000002,0.182,0.18275000000000002,0.1835,0.18175000000000002,0.1825,0.181,0.18225000000000002,0.181,0.1815,0.18083333333333332
304,66.0,-0.3,-0.302,-0.303,-0.308,-0.31,-0.312,-0.308,-0.308,-0.306,-0.301,-0.297,-0.293,-0.284,-0.28,-0.273,-0.266,-0.259,-0.253,-0.249,-0.24100000000000002,-0.237,-0.235,-0.23199999999999998,-0.23199999999999998,-0.228,-0.226,-0.225,-0.226,-0.226,-0.22399999999999998,-0.225,-0.22399999999999998,-0.22399999999999998,-0.223,-0.107,-0.222,-0.222,-0.222,-0.222,-0.22399999999999998,-0.225,-0.22699999999999998,-0.226,0.506,-0.243,-0.245,-0.248,-0.248,-0.25,-0.253,-0.253,-0.255,-0.257,0.233,-0.245,-0.247,-0.25,-0.249,-0.254,-0.254,-0.257,-0.259,-0.258,-0.261,-0.263,-0.264,-0.138,-0.24600000000000002,-0.248,-0.248,-0.251,-0.252,-0.254,-0.255,-0.255,-0.256,-0.259,-0.26,-0.261,-0.17300000000000001,-0.261,-0.262,-0.265,-0.266,-0.26899999999999996,-0.27,-0.271,-0.273,-0.27399999999999997,-0.275,-0.27699999999999997,-0.28,-0.2823333333333334
239,67.0,0.154,0.168,0.183,0.19699999999999998,0.19899999999999998,0.204,0.209,0.214,0.218,0.222,0.225,0.22699999999999998,0.23399999999999999,0.23600000000000002,0.23600000000000002,0.24100000000000002,0.24600000000000002,0.247,0.25,0.252,0.255,0.259,0.26,0.264,0.266,0.26899999999999996,0.271,0.275,0.27899999999999997,0.27899999999999997,0.284,0.285,0.28800000000000003,0.29,-0.19899999999999998,0.294,0.298,0.302,0.304,0.308,0.311,0.314,0.314,0.419,0.316,0.319,0.327,0.327,0.332,0.336,0.335,0.33799999999999997,0.34,0.233,0.34600000000000003,0.349,0.35100000000000003,0.353,0.358,0.35600000000000004,0.36,0.364,0.364,0.368,0.37,0.373,-0.138,0.375,0.377,0.379,0.385,0.385,0.386,0.389,0.391,0.39299999999999996,0.397,0.397,0.401,-0.085,0.34700000000000003,0.35,0.355,0.355,0.359,0.359,0.36200000000000004,0.364,0.365,0.369,0.37,0.375,0.3773333333333333
229,68.0,-0.2545,-0.254,-0.2535,-0.252,-0.2465,-0.2395,-0.233,-0.22799999999999998,-0.22200000000000003,-0.2125,-0.2025,-0.197,-0.1915,-0.198,-0.1995,-0.2,-0.1985,-0.1995,-0.20049999999999998,-0.202,-0.201,-0.198,-0.19949999999999998,-0.1975,-0.198,-0.1965,-0.196,-0.1935,-0.1935,-0.192,-0.19,-0.189,-0.1885,-0.185,-0.20199999999999999,-0.1835,-0.1805,-0.1795,-0.1765,-0.174,-0.1735,-0.17,-0.16999999999999998,0.2085,-0.16499999999999998,-0.16199999999999998,-0.1595,-0.1585,-0.156,-0.15300000000000002,-0.1515,-0.149,-0.14600000000000002,0.016,-0.16549999999999998,-0.164,-0.16199999999999998,-0.161,-0.157,-0.156,-0.1535,-0.15200000000000002,-0.15100000000000002,-0.14800000000000002,-0.14700000000000002,-0.14500000000000002,0.361,-0.15050000000000002,-0.15000000000000002,-0.14700000000000002,-0.14400000000000002,-0.14150000000000001,-0.1405,-0.138,-0.1375,-0.1365,-0.1335,-0.133,-0.131,0.1955,-0.12100000000000001,-0.12000000000000001,-0.1185,-0.1165,-0.1155,-0.11349999999999999,-0.11300000000000002,-0.113,-0.11100000000000002,-0.11,-0.10849999999999999,-0.10750000000000001,-0.10616666666666667
227,69.0,-0.37,-0.377,-0.382,-0.387,-0.39299999999999996,-0.39899999999999997,-0.406,-0.413,-0.418,-0.425,-0.43,-0.436,-0.442,-0.445,-0.452,-0.45799999999999996,-0.45899999999999996,-0.467,-0.46799999999999997,-0.473,-0.479,-0.478,-0.48200000000000004,-0.48700000000000004,-0.49,-0.491,-0.495,-0.498,-0.502,-0.503,-0.506,-0.509,-0.51,-0.513,-0.2,-0.521,-0.522,-0.527,-0.527,-0.5329999999999999,-0.535,-0.536,-0.5379999999999999,0.161,-0.542,-0.545,-0.547,-0.55,-0.552,-0.5589999999999999,-0.56,-0.5589999999999999,-0.564,0.10800000000000001,-0.5760000000000001,-0.5770000000000001,-0.585,-0.586,-0.5870000000000001,-0.589,-0.5920000000000001,-0.593,-0.596,-0.599,-0.601,-0.603,0.33399999999999996,-0.609,-0.609,-0.614,-0.615,-0.617,-0.621,-0.623,-0.627,-0.629,-0.63,-0.633,-0.634,0.301,-0.6579999999999999,-0.6609999999999999,-0.6629999999999999,-0.665,-0.672,-0.6709999999999999,-0.672,-0.674,-0.6779999999999999,-0.679,-0.68,-0.684,-0.686
208,70.0,0.3,0.295,0.293,0.29600000000000004,0.298,0.301,0.306,0.311,0.314,0.321,0.32799999999999996,0.33299999999999996,0.336,0.34299999999999997,0.34700000000000003,0.35100000000000003,0.35700000000000004,0.36,0.364,0.368,0.371,0.375,0.37799999999999995,0.379,0.381,0.384,0.387,0.389,0.39,0.39299999999999996,0.396,0.39799999999999996,0.401,0.401,-0.2,0.4,0.401,0.40399999999999997,0.40700000000000003,0.406,0.409,0.41,0.41200000000000003,0.161,0.41200000000000003,0.413,0.415,0.41600000000000004,0.418,0.418,0.42200000000000004,0.42200000000000004,0.42200000000000004,0.10800000000000001,0.425,0.42700000000000005,0.429,0.429,0.429,0.433,0.434,0.436,0.43700000000000006,0.439,0.44,0.441,0.49200000000000005,0.44,0.442,0.445,0.447,0.449,0.449,0.45,0.45299999999999996,0.45399999999999996,0.455,0.456,0.46,0.301,0.45299999999999996,0.455,0.456,0.457,0.457,0.45799999999999996,0.462,0.462,0.46399999999999997,0.466,0.467,0.469,0.4703333333333334
166,71.0,0.0335,0.0345,0.0325,0.0335,0.033,0.0325,0.031,0.030000000000000002,0.0315,0.033,0.034,0.037,0.039,0.0415,0.043500000000000004,0.04650000000000001,0.0485,0.0505,0.052500000000000005,0.05449999999999999,0.057499999999999996,0.060000000000000005,0.062,0.065,0.06749999999999999,0.06999999999999999,0.07250000000000001,0.0755,0.0775,0.079,0.08199999999999999,0.08349999999999999,0.088,0.0895,0.118,0.0955,0.097,0.10049999999999999,0.10099999999999999,0.105,0.109,0.109,0.112,0.13599999999999998,0.11649999999999999,0.1175,0.123,0.1245,0.127,0.13,0.131,0.1335,0.13549999999999998,-0.05699999999999999,0.13799999999999998,0.142,0.1445,0.14700000000000002,0.15100000000000002,0.1525,0.1555,0.1595,0.162,0.16499999999999998,0.16799999999999998,0.172,0.2635,0.1655,0.17099999999999999,0.1735,0.1755,0.178,0.182,0.1835,0.185,0.188,0.191,0.1945,0.196,0.15150000000000002,0.179,0.181,0.184,0.186,0.1885,0.193,0.1935,0.197,0.2,0.2015,0.20350000000000001,0.20750000000000002,0.2101666666666667
122,72.0,-0.3476666666666666,-0.34800000000000003,-0.3466666666666667,-0.34733333333333327,-0.34700000000000003,-0.3456666666666666,-0.3426666666666667,-0.3396666666666666,-0.3333333333333333,-0.334,-0.336,-0.3363333333333334,-0.3373333333333333,-0.3383333333333333,-0.3393333333333333,-0.3403333333333333,-0.3403333333333333,-0.342,-0.3416666666666666,-0.3433333333333333,-0.345,-0.345,-0.34600000000000003,-0.3463333333333333,-0.3466666666666667,-0.34800000000000003,-0.3496666666666666,-0.3496666666666666,-0.34900000000000003,-0.35233333333333333,-0.353,-0.35333333333333333,-0.35233333333333333,-0.35300000000000004,-0.05933333333333334,-0.35999999999999993,-0.36166666666666664,-0.3626666666666667,-0.36400000000000005,-0.36366666666666664,-0.36433333333333334,-0.36466666666666664,-0.36533333333333334,0.12633333333333333,-0.36400000000000005,-0.365,-0.365,-0.36600000000000005,-0.367,-0.36766666666666664,-0.36833333333333335,-0.36766666666666664,-0.36800000000000005,0.39433333333333337,-0.36866666666666664,-0.36866666666666664,-0.36999999999999994,-0.36866666666666664,-0.37000000000000005,-0.3713333333333333,-0.3706666666666667,-0.37166666666666665,-0.37166666666666665,-0.37333333333333335,-0.37366666666666665,-0.37399999999999994,-0.06633333333333334,-0.36400000000000005,-0.36466666666666664,-0.3646666666666667,-0.36600000000000005,-0.36733333333333335,-0.3666666666666667,-0.3666666666666667,-0.36866666666666664,-0.369,-0.369,-0.36900000000000005,-0.36999999999999994,0.01933333333333333,-0.36366666666666664,-0.36533333333333334,-0.365,-0.36533333333333334,-0.3666666666666667,-0.36599999999999994,-0.36900000000000005,-0.36833333333333335,-0.36833333333333335,-0.36933333333333335,-0.36933333333333335,-0.37066666666666664,-0.37111111111111106
311,73.0,-0.255,-0.252,-0.25,-0.247,-0.245,-0.24600000000000002,-0.24600000000000002,-0.24600000000000002,-0.245,-0.245,-0.244,-0.243,-0.239,-0.23399999999999999,-0.22699999999999998,-0.222,-0.20800000000000002,-0.192,-0.177,-0.165,-0.146,-0.127,-0.11,-0.096,-0.08199999999999999,-0.07400000000000001,-0.066,-0.053,-0.044000000000000004,-0.032,-0.026000000000000002,-0.021,-0.015,-0.006999999999999999,0.18,0.008,0.015,0.021,0.026000000000000002,0.035,0.037000000000000005,0.042,0.048,0.38799999999999996,0.055,0.061,0.065,0.068,0.07200000000000001,0.077,0.079,0.084,0.086,0.05,0.091,0.098,0.099,0.105,0.11,0.114,0.114,0.11800000000000001,0.11900000000000001,0.125,0.128,0.13,-0.07200000000000001,0.13699999999999998,0.14,0.14300000000000002,0.146,0.15,0.152,0.153,0.155,0.157,0.16,0.162,0.16399999999999998,0.18100000000000002,0.16899999999999998,0.16899999999999998,0.17300000000000001,0.175,0.17800000000000002,0.179,0.18100000000000002,0.182,0.184,0.188,0.18899999999999997,0.193,0.19500000000000003
160,74.0,-0.031,-0.02,-0.011000000000000001,0.0,0.009000000000000001,0.021,0.032,0.05,0.071,0.078,0.076,0.079,0.083,0.085,0.08800000000000001,0.09,0.09300000000000001,0.094,0.099,0.098,0.1,0.10400000000000001,0.105,0.109,0.109,0.111,0.11,0.114,0.11900000000000001,0.11599999999999999,0.11800000000000001,0.11900000000000001,0.12300000000000001,0.125,0.18,0.128,0.126,0.129,0.127,0.133,0.134,0.136,0.138,-0.478,0.161,0.159,0.161,0.162,0.162,0.166,0.16399999999999998,0.16699999999999998,0.17,0.05,0.171,0.17300000000000001,0.175,0.17600000000000002,0.177,0.17600000000000002,0.179,0.179,0.18100000000000002,0.18100000000000002,0.182,0.183,-0.78,0.185,0.184,0.185,0.185,0.185,0.188,0.188,0.188,0.19,0.191,0.191,0.192,0.18100000000000002,0.191,0.19,0.193,0.19399999999999998,0.196,0.196,0.19399999999999998,0.196,0.198,0.19699999999999998,0.198,0.2,0.20133333333333336
200,75.0,0.318,0.311,0.308,0.306,0.303,0.303,0.301,0.298,0.3,0.301,0.302,0.304,0.304,0.306,0.306,0.306,0.306,0.306,0.307,0.307,0.306,0.306,0.307,0.304,0.304,0.303,0.304,0.302,0.299,0.3,0.298,0.299,0.297,0.295,0.18,0.28600000000000003,0.28600000000000003,0.281,0.28300000000000003,0.281,0.278,0.275,0.27399999999999997,-0.478,0.272,0.27399999999999997,0.271,0.271,0.26899999999999996,0.266,0.266,0.264,0.26,0.11,0.258,0.256,0.253,0.253,0.252,0.249,0.247,0.245,0.243,0.243,0.24100000000000002,0.237,-0.78,0.258,0.257,0.253,0.252,0.252,0.248,0.24600000000000002,0.244,0.243,0.24,0.24,0.23600000000000002,0.18100000000000002,0.235,0.233,0.231,0.22699999999999998,0.225,0.22399999999999998,0.223,0.221,0.217,0.217,0.21600000000000003,0.213,0.21133333333333335
129,76.0,-0.1365,-0.13,-0.125,-0.1195,-0.1105,-0.0995,-0.095,-0.0905,-0.08299999999999999,-0.067,-0.045,-0.0265,-0.005000000000000001,-0.0004999999999999996,0.0045000000000000005,0.0025,0.009500000000000001,0.0085,0.013,0.010499999999999999,0.0115,0.018,0.017,0.0195,0.0175,0.019500000000000003,0.0195,0.023,0.022,0.023,0.025500000000000002,0.0235,0.026000000000000002,0.028000000000000004,-0.216,0.029500000000000002,0.0315,0.032,0.034499999999999996,0.0335,0.0325,0.0355,0.036,-0.255,0.0395,0.0395,0.0415,0.038,0.0405,0.042,0.043,0.044500000000000005,0.044000000000000004,-0.11550000000000002,0.045000000000000005,0.044,0.0455,0.04650000000000001,0.046,0.046,0.0485,0.0475,0.047,0.048499999999999995,0.048999999999999995,0.051000000000000004,-0.0965,0.0595,0.0565,0.056,0.0595,0.06,0.059500000000000004,0.059000000000000004,0.058,0.059000000000000004,0.059500000000000004,0.060000000000000005,0.062,-0.193,0.054000000000000006,0.054000000000000006,0.053500000000000006,0.054000000000000006,0.053500000000000006,0.0545,0.054,0.052000000000000005,0.053,0.0525,0.052500000000000005,0.0535,0.05383333333333334
91,77.0,-0.095,-0.0965,-0.096,-0.0925,-0.089,-0.0855,-0.082,-0.077,-0.0735,-0.0685,-0.064,-0.062,-0.05750000000000001,-0.052,-0.049,-0.046,-0.04000000000000001,-0.031,-0.023500000000000004,-0.0165,-0.006499999999999999,0.0010000000000000009,0.009000000000000001,0.016,0.023,0.027,0.030000000000000002,0.037000000000000005,0.04150000000000001,0.0475,0.0495,0.05349999999999999,0.05399999999999999,0.059,-0.20800000000000002,0.0675,0.07,0.07450000000000001,0.076,0.08149999999999999,0.084,0.088,0.091,-0.148,0.092,0.094,0.0985,0.101,0.10400000000000001,0.10800000000000001,0.109,0.11299999999999999,0.1155,-0.20400000000000001,0.1005,0.10400000000000001,0.1055,0.1085,0.11249999999999999,0.116,0.116,0.11900000000000001,0.12,0.124,0.127,0.129,0.004499999999999997,0.1335,0.1365,0.1375,0.1405,0.14250000000000002,0.14400000000000002,0.14500000000000002,0.148,0.14850000000000002,0.15150000000000002,0.15350000000000003,0.15550000000000003,-0.4405,0.1585,0.16,0.16349999999999998,0.1645,0.16749999999999998,0.1695,0.172,0.17250000000000001,0.174,0.1765,0.1765,0.1795,0.1805
281,78.0,0.017,0.017,0.017,0.016,0.019,0.017,0.02,0.023,0.024,0.027999999999999997,0.03,0.033,0.04,0.038,0.039,0.039,0.04,0.044000000000000004,0.043,0.045,0.044000000000000004,0.045,0.044000000000000004,0.046,0.046,0.048,0.047,0.05,0.05,0.049,0.052000000000000005,0.05,0.049,0.052000000000000005,-0.268,0.055,0.053,0.052000000000000005,0.05,0.052000000000000005,0.051,0.053,0.052000000000000005,-0.302,0.033,0.031,0.032,0.034,0.035,0.034,0.032,0.034,0.032,0.08900000000000001,0.013999999999999999,0.019,0.019,0.02,0.02,0.017,0.015,0.018000000000000002,0.017,0.018000000000000002,0.017,0.013999999999999999,-0.08199999999999999,0.032,0.03,0.026000000000000002,0.027999999999999997,0.028999999999999998,0.03,0.03,0.027999999999999997,0.027999999999999997,0.027000000000000003,0.027999999999999997,0.027000000000000003,-0.147,0.03,0.026000000000000002,0.023,0.022000000000000002,0.024,0.019,0.019,0.02,0.017,0.019,0.017,0.018000000000000002,0.017
84,79.0,-0.021,-0.0285,-0.0345,-0.0375,-0.04,-0.042,-0.0445,-0.047,-0.048,-0.0495,-0.0495,-0.0505,-0.05,-0.0535,-0.053500000000000006,-0.053000000000000005,-0.053000000000000005,-0.054,-0.0545,-0.056,-0.055,-0.056499999999999995,-0.057999999999999996,-0.057499999999999996,-0.058499999999999996,-0.059,-0.06,-0.061,-0.0605,-0.0635,-0.0655,-0.0645,-0.0665,-0.0675,-0.23750000000000002,-0.07100000000000001,-0.07100000000000001,-0.07250000000000001,-0.07450000000000001,-0.07400000000000001,-0.07550000000000001,-0.07750000000000001,-0.07949999999999999,0.09899999999999998,-0.0825,-0.0825,-0.082,-0.083,-0.0865,-0.0875,-0.0895,-0.092,-0.0925,0.18850000000000003,-0.0965,-0.097,-0.0975,-0.0985,-0.0995,-0.10300000000000001,-0.1035,-0.10500000000000001,-0.10700000000000001,-0.10900000000000001,-0.112,-0.11299999999999999,-0.22149999999999997,-0.101,-0.10350000000000001,-0.10450000000000001,-0.1065,-0.10899999999999999,-0.1105,-0.11149999999999999,-0.11349999999999999,-0.11599999999999999,-0.1175,-0.12050000000000001,-0.124,-0.40149999999999997,-0.1195,-0.1225,-0.1235,-0.127,-0.1275,-0.13,-0.133,-0.134,-0.136,-0.1385,-0.14150000000000001,-0.14500000000000002,-0.1481666666666667
267,80.0,-0.047,-0.049,-0.053,-0.053,-0.052000000000000005,-0.052000000000000005,-0.051,-0.049,-0.046,-0.046,-0.042,-0.040999999999999995,-0.037000000000000005,-0.039,-0.037000000000000005,-0.033,-0.032,-0.032,-0.031,-0.03,-0.027999999999999997,-0.027000000000000003,-0.027000000000000003,-0.023,-0.022000000000000002,-0.019,-0.018000000000000002,-0.017,-0.013000000000000001,-0.015,-0.015,-0.012,-0.013000000000000001,-0.011000000000000001,-0.35100000000000003,-0.008,-0.006,-0.005,-0.006,-0.001,-0.002,-0.002,-0.001,0.287,-0.001,0.001,0.002,0.003,0.001,0.002,0.002,0.0,0.002,-0.304,0.0,0.0,0.003,0.004,0.006,0.003,0.005,0.005,0.005,0.004,0.004,0.004,-0.314,0.003,0.003,0.003,0.003,0.002,0.004,0.003,0.003,0.003,0.004,0.003,0.001,-0.326,-0.001,-0.003,-0.003,-0.002,-0.002,-0.002,-0.004,-0.003,-0.003,-0.004,-0.004,-0.005,-0.005333333333333336
158,81.0,-0.3075,-0.3095,-0.3095,-0.30900000000000005,-0.30900000000000005,-0.3065,-0.30600000000000005,-0.3045,-0.30200000000000005,-0.29900000000000004,-0.29600000000000004,-0.29300000000000004,-0.2905,-0.28700000000000003,-0.2845,-0.2825,-0.28,-0.2775,-0.27549999999999997,-0.2735,-0.272,-0.27049999999999996,-0.268,-0.268,-0.267,-0.2665,-0.2645,-0.264,-0.2645,-0.2625,-0.2625,-0.2605,-0.2605,-0.261,0.034,-0.258,-0.257,-0.258,-0.257,-0.257,-0.257,-0.2575,-0.257,-0.2415,-0.2575,-0.2565,-0.257,-0.2565,-0.256,-0.2565,-0.2565,-0.2565,-0.2575,-0.07999999999999999,-0.2555,-0.255,-0.2555,-0.2555,-0.2545,-0.2555,-0.2555,-0.256,-0.256,-0.255,-0.2555,-0.2565,-0.1555,-0.2565,-0.2565,-0.2575,-0.257,-0.2565,-0.2575,-0.258,-0.2575,-0.257,-0.258,-0.2575,-0.2585,0.2215,-0.26,-0.26,-0.26,-0.2615,-0.261,-0.261,-0.2605,-0.261,-0.262,-0.261,-0.2615,-0.261,-0.26116666666666666
105,82.0,0.23066666666666666,0.2303333333333333,0.2303333333333333,0.23033333333333336,0.23099999999999998,0.23399999999999999,0.24266666666666667,0.258,0.26866666666666666,0.27099999999999996,0.2733333333333334,0.2786666666666666,0.282,0.2803333333333333,0.2846666666666667,0.28833333333333333,0.2913333333333333,0.29266666666666663,0.2936666666666667,0.29666666666666663,0.29866666666666664,0.30200000000000005,0.3013333333333333,0.3056666666666667,0.30866666666666664,0.31033333333333335,0.31066666666666665,0.313,0.31633333333333336,0.31633333333333336,0.318,0.3176666666666667,0.3213333333333333,0.3236666666666667,0.059333333333333314,0.32466666666666666,0.3243333333333333,0.3273333333333333,0.32766666666666666,0.3293333333333333,0.331,0.33299999999999996,0.3333333333333333,-0.18366666666666664,0.34400000000000003,0.3456666666666666,0.34800000000000003,0.3486666666666666,0.35000000000000003,0.35100000000000003,0.353,0.35333333333333333,0.35433333333333333,-0.3273333333333333,0.36866666666666664,0.36833333333333335,0.37066666666666664,0.37233333333333335,0.37233333333333335,0.37366666666666665,0.37333333333333335,0.37566666666666665,0.37599999999999995,0.37566666666666665,0.37833333333333335,0.37966666666666665,-0.1653333333333333,0.38866666666666666,0.391,0.39266666666666666,0.39399999999999996,0.39299999999999996,0.3933333333333333,0.3946666666666667,0.39599999999999996,0.3953333333333333,0.39633333333333337,0.3973333333333333,0.399,0.075,0.403,0.405,0.40633333333333327,0.408,0.4076666666666667,0.4073333333333333,0.40833333333333327,0.4093333333333333,0.4103333333333334,0.4106666666666667,0.4106666666666667,0.41100000000000003,0.4111111111111112
44,83.0,0.3443333333333334,0.3453333333333333,0.3473333333333333,0.3506666666666667,0.35366666666666663,0.357,0.361,0.36566666666666664,0.37033333333333335,0.37433333333333335,0.38033333333333336,0.38566666666666666,0.3906666666666667,0.3960000000000001,0.4013333333333333,0.40633333333333327,0.41133333333333333,0.41500000000000004,0.41966666666666663,0.424,0.42766666666666664,0.43133333333333335,0.4346666666666667,0.439,0.442,0.44566666666666666,0.4486666666666667,0.45133333333333336,0.4546666666666667,0.457,0.461,0.4623333333333333,0.465,0.4676666666666667,0.04466666666666666,0.46799999999999997,0.47,0.47266666666666673,0.4746666666666666,0.4749999999999999,0.47800000000000004,0.47933333333333333,0.48066666666666674,-0.09833333333333333,0.48500000000000004,0.48666666666666664,0.4873333333333334,0.48866666666666675,0.49,0.49133333333333334,0.49266666666666664,0.4936666666666667,0.49466666666666664,-0.221,0.488,0.488,0.4896666666666667,0.48933333333333334,0.4896666666666667,0.49233333333333335,0.492,0.4936666666666667,0.494,0.49366666666666664,0.49466666666666664,0.49533333333333335,-0.08233333333333331,0.4963333333333333,0.49766666666666665,0.498,0.49833333333333335,0.49833333333333335,0.4993333333333334,0.5,0.49966666666666665,0.49899999999999994,0.5003333333333333,0.5006666666666666,0.501,-0.17533333333333334,0.5016666666666666,0.5019999999999999,0.5013333333333333,0.5013333333333333,0.501,0.5006666666666667,0.5013333333333333,0.5016666666666666,0.5019999999999999,0.5006666666666667,0.5016666666666666,0.501,0.5014444444444445
