0,1,2,3,4,5,6,7,8,9,10,11,12,13,14,15,16,17,18,19,20,21,22,23,24,25,26,27,28,29,30,31,32,33,34,35,36,37,38,39,40,41,42,43,44,45,46,47,48,49,50,cluster_id
-0.06949429,-0.073545635,-0.073545635,-0.073545635,-0.07354399,-0.07209738,-0.11618198,-0.13049564,-0.14584786,-0.14359853,-0.13695464,-0.11135551,-0.12823036,-0.11741,-0.14156231,-0.14559542,-0.16422631,-0.16782227,-0.172887,-0.17063911,-0.17254661,-0.20082235,-0.19303213,-0.19285628,-0.19546174,-0.19320731,-0.22093529,-0.21736214,-0.2042844,-0.20925513,-0.23300928,-0.20829067,-0.23354279,-0.24624763,-0.24973786,-0.2681713,-0.2870723,-0.26903826,-0.27137628,-0.2714386,-0.24667256,-0.26690325,-0.27730373,-0.2674059,-0.25626662,-0.27079913,-0.285168,-0.29270932,-0.29463986,-0.29231095,-0.30159375,20
0.112800665,0.11521926,0.107346036,0.10682561,0.10930899,0.107062995,0.11277382,0.11525474,0.11748089,0.119269,0.1178346,0.11321354,0.11629385,0.120839864,0.12572862,0.12042916,0.12019599,0.11964004,0.12049853,0.119032174,0.120546274,0.123853214,0.12539688,0.1258687,0.123969674,0.12166279,0.1205814,0.12511204,0.12630336,0.118670896,0.121689476,0.12381586,0.12569955,0.12644446,0.12130024,0.12389016,0.121954575,0.12955791,0.12433023,0.12628031,0.12744619,0.12577833,0.12701474,0.12115445,0.12853274,0.121322595,0.12940162,0.120729186,0.1286724,0.12547201,0.12452221,28
-0.09897773,-0.10163804,-0.10163804,-0.086036704,-0.08628906,-0.085968316,-0.08477933,-0.08544757,-0.08373838,-0.08759688,-0.08930163,-0.09484103,-0.09320451,-0.09728786,-0.097364284,-0.09730298,-0.10566042,-0.1008825,-0.10299741,-0.111083806,-0.110372186,-0.110921845,-0.110921845,-0.11621248,-0.11621248,-0.11621248,-0.112279095,-0.121973135,-0.121973135,-0.121973135,-0.121973135,-0.121973135,-0.121973135,-0.121973135,-0.121973135,-0.121973135,-0.121973135,-0.121973135,-0.121973135,-0.121973135,-0.121973135,-0.121973135,-0.121973135,-0.121973135,-0.121973135,-0.121973135,-0.121973135,-0.121973135,-0.121973135,-0.121973135,-0.121973135,14
-0.12669575,-0.13284577,-0.20210618,-0.2186944,-0.2200325,-0.21299984,-0.21336578,-0.23704752,-0.2595217,-0.24818069,-0.25605473,-0.28258848,-0.2783664,-0.26039916,-0.25100896,-0.24754846,-0.2692103,-0.30161247,-0.28236488,-0.29835203,-0.29624593,-0.3165896,-0.3237652,-0.31470057,-0.33392385,-0.3246143,-0.2863672,-0.29823536,-0.30134967,-0.3289653,-0.35741615,-0.33484426,-0.32244062,-0.36652437,-0.37307775,-0.39016366,-0.3953671,-0.42224404,-0.42747533,-0.40623164,-0.41572052,-0.43597716,-0.45042956,-0.43461663,-0.44903508,-0.41649747,-0.42098302,-0.3949972,-0.40588883,-0.41062045,-0.3887217,3
-0.13170554,-0.13977204,-0.13992766,-0.1590581,-0.17791203,-0.17908339,-0.17853254,-0.17833652,-0.14277329,-0.13507693,-0.13221109,-0.14361896,-0.11422025,-0.117300995,-0.12547638,-0.12934162,-0.15326099,-0.14777905,-0.14949243,-0.14103298,-0.14880548,-0.14855117,-0.1426751,-0.15192586,-0.15835346,-0.1390532,-0.15425003,-0.16237237,-0.15616024,-0.14386974,-0.1599996,-0.16802461,-0.15936571,-0.16763882,-0.15622781,-0.16822658,-0.17175822,-0.1834118,-0.19226435,-0.17402586,-0.18867214,-0.1916727,-0.1768121,-0.18246032,-0.19034973,-0.18213277,-0.19149819,-0.19475222,-0.19655721,-0.19062957,-0.20659095,23
-0.14448847,-0.14634903,-0.14608078,-0.14633562,-0.16634539,-0.16634539,-0.16634539,-0.16634539,-0.16634539,-0.16634539,-0.16634539,-0.16634539,-0.16634539,-0.16634539,-0.16634539,-0.16634539,-0.16634539,-0.16634539,-0.16634539,-0.16634539,-0.16634539,-0.16634539,-0.16634539,-0.16634539,-0.16634539,-0.16634539,-0.16634539,-0.16634539,-0.16634539,-0.16634539,-0.16634539,-0.16634539,-0.16634539,-0.16634539,-0.16634539,-0.16634539,-0.16634539,-0.16634539,-0.16634539,-0.16634539,-0.16634539,-0.16634539,-0.16634539,-0.16634539,-0.16634539,-0.16634539,-0.16634539,-0.16634539,-0.16634539,-0.16634539,-0.16634539,141
-0.0339671,-0.048749536,-0.07008732,-0.08384372,-0.08874805,-0.08929636,-0.09246509,-0.09707996,-0.09995447,-0.10263308,-0.1111848,-0.106270045,-0.101684205,-0.10481479,-0.1042309,-0.10328163,-0.101903014,-0.098448224,-0.09103321,-0.08748504,-0.0856085,-0.08528821,-0.07874762,-0.08098852,-0.07530917,-0.07564327,-0.07303858,-0.073350385,-0.07298142,-0.07402378,-0.071229614,-0.065431215,-0.068513066,-0.063770294,-0.06592246,-0.06712881,-0.061821632,-0.06890031,-0.06544624,-0.06946657,-0.07083662,-0.06913135,-0.064699925,-0.06929264,-0.07921858,-0.07959374,-0.07884225,-0.072307386,-0.07198419,-0.06673471,-0.06499764,43
-0.002384417,-0.001839686,-0.005739705,-0.000731918,0.003428044,0.005148378,0.006053465,0.003709763,0.005932012,0.009523023,0.010236015,0.007948823,0.007424429,0.003516262,0.003774365,0.00610374,0.006482406,0.004878147,0.005662354,0.003823294,0.005079635,0.004474417,0.009783735,0.005559508,0.011552101,0.00796422,0.009872908,0.013594098,0.010999012,0.008714022,0.004482825,0.007826289,0.008435665,0.009458197,0.006983445,0.009341971,0.007281698,0.011553115,0.008526938,0.013040866,0.008112944,0.005383685,0.008952293,0.007504434,0.008736293,0.007865392,0.008241005,0.003276203,0.004831837,0.008380891,0.004920343,72
-0.12320909,-0.1458024,-0.14626604,-0.14655666,-0.14666261,-0.14678168,-0.14678767,-0.1476762,-0.1476762,-0.14763439,-0.14769535,-0.14763273,-0.14763273,-0.14763273,-0.14763273,-0.14756528,-0.14746743,-0.14746743,-0.14817482,-0.14817482,-0.14817482,-0.14817482,-0.14817482,-0.14817482,-0.14817482,-0.14817482,-0.14817482,-0.14817482,-0.14817482,-0.14817482,-0.14817482,-0.14817482,-0.14817482,-0.14817482,-0.14817482,-0.14817482,-0.14817482,-0.14817482,-0.14817482,-0.14817482,-0.14817482,-0.14817482,-0.14817482,-0.14817482,-0.14817482,-0.14817482,-0.14817482,-0.14817482,-0.14817482,-0.14817482,-0.14817482,27
-0.04229718,-0.023316491,-0.009406483,-0.008755075,-0.012200418,-0.016640276,-0.018286025,-0.01633885,-0.018431107,-0.01773987,-0.017261585,-0.015961664,-0.023295369,-0.024498565,-0.02399704,-0.026927646,-0.030119097,-0.031291276,-0.031858604,-0.034954775,-0.04024951,-0.04529283,-0.044982225,-0.046045188,-0.051418137,-0.057892427,-0.05650504,-0.049736157,-0.056548763,-0.05267243,-0.056498986,-0.060263492,-0.062308244,-0.062206123,-0.06274487,-0.06528743,-0.072703205,-0.07321792,-0.07185889,-0.06972184,-0.0706424,-0.07418487,-0.076675855,-0.07073638,-0.07239966,-0.0807548,-0.079599164,-0.07831862,-0.07969269,-0.07868841,-0.08109606,25
-0.16547313,-0.17160313,-0.17120858,-0.17211096,-0.17216356,-0.17073654,-0.17194608,-0.17083405,-0.16987784,-0.20233035,-0.2023286,-0.2023286,-0.20229764,-0.20229764,-0.20221785,-0.20209765,-0.20209765,-0.20202705,-0.20068835,-0.24515018,-0.2578434,-0.2531622,-0.27515417,-0.28506392,-0.26438054,-0.2569884,-0.2492603,-0.22932155,-0.20835476,-0.2161878,-0.21554999,-0.21294844,-0.21732354,-0.22682124,-0.24536319,-0.24085772,-0.26415223,-0.24859545,-0.274903,-0.2767492,-0.26119828,-0.27403095,-0.27238682,-0.28660145,-0.2935065,-0.29101074,-0.31565863,-0.30598843,-0.30612218,-0.309641,-0.3033283,103
-0.011889108,-0.020235518,-0.022584625,-0.02310281,-0.022955276,-0.022399556,-0.022424923,-0.022501756,-0.023581233,-0.022148807,-0.023181112,-0.024642067,-0.0250284,-0.025047222,-0.02931354,-0.069583766,-0.07088062,-0.07137589,-0.07102587,-0.07136731,-0.07179479,-0.072455935,-0.07285564,-0.07297499,-0.072954044,-0.07294947,-0.07301825,-0.07293727,-0.07281271,-0.07281271,-0.07281271,-0.07281271,-0.07281271,-0.07281271,-0.07281271,-0.07281271,-0.07281271,-0.07281271,-0.07281271,-0.07281271,-0.07281271,-0.07281271,-0.07281271,-0.07281271,-0.07281271,-0.07281271,-0.07281271,-0.07281271,-0.07281271,-0.07281271,-0.07281271,119
-0.107271925,-0.1115345,-0.11955479,-0.117651224,-0.11529356,-0.10799256,-0.11240963,-0.11120309,-0.10653799,-0.10969553,-0.10552842,-0.103356026,-0.10985888,-0.1059782,-0.106109776,-0.09665492,-0.09311545,-0.09061909,-0.09804248,-0.098882325,-0.09659479,-0.09768999,-0.092039,-0.09527653,-0.09981864,-0.10337919,-0.10330377,-0.10273061,-0.101729415,-0.101322986,-0.09906159,-0.10127382,-0.09804447,-0.101462886,-0.10277151,-0.10357644,-0.099790834,-0.09999179,-0.104070865,-0.10552593,-0.09879717,-0.10371272,-0.10062078,-0.10406768,-0.099255376,-0.09727651,-0.08879212,-0.09876363,-0.09951881,-0.090530634,-0.08829379,124
0.024469007,0.023546666,0.024473667,0.02629274,0.024037927,0.023792094,0.024121717,0.023221767,0.023139937,0.023149088,0.023817139,0.023051359,0.024286453,0.028464725,0.026011819,0.026011819,0.019770354,0.021676915,0.021212114,0.021212114,0.021212114,0.013730663,0.005680721,0.003951879,0.008273341,0.008273341,-0.000588349,-0.018145263,-0.018145263,-0.018145263,-0.018145263,-0.018145263,-0.018145263,-0.018145263,-0.018145263,-0.018145263,-0.018145263,-0.018145263,-0.018145263,-0.018145263,-0.018145263,-0.018145263,-0.018145263,-0.018145263,-0.018145263,-0.018145263,-0.018145263,-0.018145263,-0.018145263,-0.018145263,-0.018145263,16
-0.05387647,-0.05619807,-0.056259733,-0.056145385,-0.056196675,-0.09135292,-0.09164424,-0.09164424,-0.09164424,-0.09164424,-0.09164424,-0.09164424,-0.09164424,-0.091547556,-0.091547556,-0.091547556,-0.091547556,-0.091547556,-0.091547556,-0.09266322,-0.09266322,-0.09266322,-0.09266322,-0.09266322,-0.09266322,-0.09266322,-0.09266322,-0.09266322,-0.09266322,-0.09266322,-0.09266322,-0.09266322,-0.09266322,-0.09266322,-0.09266322,-0.09266322,-0.09266322,-0.09266322,-0.09266322,-0.09266322,-0.09266322,-0.09266322,-0.09266322,-0.09266322,-0.09266322,-0.09266322,-0.09266322,-0.09266322,-0.09266322,-0.09266322,-0.09266322,146
-0.02130179,-0.024308743,-0.03126166,-0.0358968,-0.033801213,-0.036515217,-0.03765882,-0.046631075,-0.046631075,-0.046631075,-0.04663097,-0.04663097,-0.04663097,-0.04663862,-0.04663862,-0.04663862,-0.04663862,-0.04663862,-0.04663862,-0.046663027,-0.046663027,-0.046663027,-0.046663027,-0.04664078,-0.046640374,-0.046640374,-0.046640374,-0.046640374,-0.046640374,-0.015823508,-0.03305283,-0.025822565,-0.039838042,-0.039240118,-0.037972044,-0.037688874,-0.040698692,-0.0432108,-0.042364508,-0.04271518,-0.04097968,-0.037359312,-0.040258884,-0.044277404,-0.044680033,-0.04333013,-0.054010075,-0.06576273,-0.06593845,-0.049412347,-0.069972895,25
0.041050397,0.033088412,0.035888296,0.022815216,0.033292506,0.028153453,0.025322726,0.021687908,0.041891493,0.036023457,0.037119158,0.029598678,0.013997668,0.010914536,0.010229756,0.010684153,0.006155496,0.007902668,0.005177426,0.002105604,0.001890474,0.001926713,0.001394351,0.001393571,0.001397353,0.001482069,0.001600026,0.016248686,0.00074433,-0.006315988,-0.011281126,-0.014745327,-0.016630825,-0.02078866,-0.019169688,-0.018926412,-0.029505676,-0.011888566,-0.050483577,-0.042958338,-0.03612996,-0.045393076,-0.047031414,-0.03925457,-0.047858424,-0.033237994,-0.040161733,-0.05386542,-0.036313858,-0.047050964,-0.04939988,61
0.14501242,0.15424782,0.15634646,0.16226552,0.16937414,0.17059834,0.17603396,0.17982538,0.1824018,0.18424803,0.18471299,0.18639806,0.19023272,0.18754156,0.18943006,0.19311494,0.1953225,0.19762221,0.19403765,0.18906137,0.1938017,0.19210331,0.18989183,0.19240315,0.19083877,0.19485962,0.19121592,0.19056578,0.1920365,0.19023548,0.19359343,0.19292149,0.19144148,0.19404736,0.1909766,0.19356932,0.19354875,0.19339815,0.19137129,0.19537328,0.1954382,0.19399528,0.19599462,0.19295035,0.19486545,0.19581279,0.19722359,0.19416007,0.1934856,0.19333033,0.20006195,90
-0.067346476,-0.0653513,-0.0799004,-0.0888225,-0.094600186,-0.09839823,-0.09838735,-0.10412535,-0.11142958,-0.10141211,-0.11064188,-0.10700627,-0.113303594,-0.11325289,-0.11074308,-0.117698565,-0.120308876,-0.118546546,-0.11607369,-0.11930696,-0.108622305,-0.122104,-0.12169818,-0.13664903,-0.13919416,-0.13738212,-0.14741983,-0.13414173,-0.15800163,-0.13568176,-0.15595962,-0.15912412,-0.16804262,-0.16055532,-0.1621967,-0.1596416,-0.15852673,-0.1569941,-0.15651013,-0.16830163,-0.16701041,-0.18193732,-0.19139555,-0.19141805,-0.19869031,-0.1704735,-0.21140566,-0.20490873,-0.22893648,-0.26565018,-0.2601611,46
0.053754795,0.048908465,0.042664904,0.04313539,0.039263003,0.034903772,0.03311802,0.029080376,0.03351692,0.0325743,0.03198162,0.029365158,0.022729596,0.029003754,0.025264852,0.021176133,0.020243328,0.018728547,0.020391267,0.015342816,0.013312232,0.010154563,0.008961627,0.009922697,0.007637664,-0.000715782,0.005539106,0.001266973,0.000230302,-0.003133937,-0.005101799,-0.00436302,-0.009255307,-0.009780347,-0.005493549,-0.010893031,-0.013844833,-0.006746149,-0.01477511,-0.017456183,-0.018404694,-0.016581675,-0.012639154,-0.018866377,-0.017668214,-0.013634644,-0.016241675,-0.02115745,-0.025179876,-0.023376692,-0.024183864,111
-0.014906937,-0.01758411,-0.017047303,-0.028557587,-0.04225483,-0.03737649,-0.057075787,-0.048415195,-0.046473473,-0.03033296,-0.048632763,-0.056191664,-0.051665664,-0.050088596,-0.07336066,-0.0718548,-0.053770266,-0.053965937,-0.055109277,-0.07935033,-0.06563752,-0.07966665,-0.03840551,-0.0900755,-0.08123222,-0.098414294,-0.10222249,-0.09610306,-0.101541035,-0.09367242,-0.09945724,-0.08265693,-0.092233196,-0.11529958,-0.10268429,-0.101573035,-0.124022305,-0.10624852,-0.11887237,-0.12544172,-0.12236617,-0.11794993,-0.09323974,-0.10943835,-0.1086166,-0.12889509,-0.13488953,-0.10241285,-0.109558314,-0.105642095,-0.1043491,76
0.022435931,0.034408905,0.047022127,0.05020917,0.06182881,0.06623557,0.078644864,0.0823226,0.086823456,0.08946814,0.09338965,0.09409446,0.098979995,0.09925412,0.0985719,0.10019065,0.101403326,0.1051546,0.10637818,0.10536483,0.10269655,0.103737414,0.10211689,0.10743789,0.10533502,0.10571045,0.110206395,0.11119856,0.10814287,0.11416039,0.11635603,0.116635844,0.119036816,0.11846017,0.11803053,0.12437278,0.12502739,0.12309529,0.12446323,0.1251085,0.12667756,0.12987791,0.13560079,0.12715375,0.13037005,0.13380018,0.13332982,0.13292609,0.13417467,0.1350347,0.13540749,158
0.021069136,0.00640359,0.008370645,0.008142366,0.00626857,0.004458497,0.007677656,0.003902417,0.000920987,0.007890845,-0.005813765,-0.008023908,-0.000809326,0.011905088,-0.012853609,-0.002102936,0.003022364,-0.000467705,-0.012665666,0.000655478,-0.000421282,0.001350561,0.022162769,0.03628776,0.032513455,0.053781938,0.06037905,0.07019443,0.06801838,0.07657567,0.08382237,0.08323534,0.08873128,0.09430957,0.09961899,0.104802705,0.10109084,0.10562307,0.1126402,0.107011944,0.10952783,0.1183405,0.117563,0.11634313,0.118492424,0.12136621,0.12421194,0.1293835,0.12905702,0.12798764,0.1353409,30
-0.0733949,-0.08852842,-0.077619255,-0.08756391,-0.09140321,-0.09382907,-0.106592216,-0.11759013,-0.12551199,-0.13510767,-0.13851346,-0.14363371,-0.14562744,-0.15237387,-0.15576084,-0.16346359,-0.16546609,-0.16519621,-0.16675647,-0.16828397,-0.17492919,-0.1744901,-0.17408383,-0.17511699,-0.17472655,-0.1798031,-0.17818208,-0.17968951,-0.17932911,-0.18255354,-0.18763621,-0.1915871,-0.18959568,-0.18714903,-0.1873067,-0.19309938,-0.19197871,-0.19333614,-0.19632229,-0.19757095,-0.19109598,-0.19841538,-0.1978355,-0.19727951,-0.19487274,-0.19742285,-0.20044626,-0.2016804,-0.20043474,-0.20466477,-0.20295098,109
-0.09997467,-0.09303089,-0.088398606,-0.07815887,-0.06983718,-0.055985373,-0.049376182,-0.04532312,-0.042605396,-0.031989682,-0.029513212,-0.027331833,-0.022190582,-0.02479033,-0.018857313,-0.013475699,-0.018066155,-0.025493186,-0.019013526,-0.030147694,-0.017150717,-0.017287573,-0.011641281,-0.021440068,-0.023229742,-0.021333242,-0.024332603,-0.024826415,-0.022001065,-0.025266714,-0.025808865,-0.028067565,-0.029866474,-0.029642245,-0.031093521,-0.033641037,-0.037335213,-0.030912714,-0.039161835,-0.03403858,-0.031260606,-0.031683166,-0.03588742,-0.034322385,-0.03640113,-0.04156147,-0.038188674,-0.0403212,-0.036766294,-0.032204594,-0.028928036,18
-0.023429137,-0.049928498,-0.053984255,-0.04506401,-0.055294786,-0.05990546,-0.057774395,-0.041288655,-0.03094313,-0.026087482,-0.025645817,-0.04526781,-0.033080097,-0.030416923,-0.041277274,-0.016520688,-0.020615282,-0.007474188,-0.021580653,-0.008999746,-0.008112569,-0.007057717,-0.010488046,-0.018246926,-0.020405307,-0.010724192,-0.005681622,-0.00200136,0.001226308,-0.001064189,-0.004667054,-0.007379454,-0.00225141,0.001516089,-0.001402796,-0.012945688,-0.009983367,-0.017197436,-0.018109147,-0.003224904,0.001542071,-0.005255911,-0.012230277,-0.009921256,-0.006278363,-0.007469819,-0.000934715,-0.011177217,-0.002183392,-0.004768519,-0.005518019,75
0.07554212,0.09649923,0.12233049,0.14309055,0.1558656,0.16570212,0.1697806,0.1732336,0.17836477,0.18381448,0.18913358,0.19157125,0.19658883,0.20401923,0.20464753,0.20958173,0.21344693,0.21697645,0.22240078,0.22147566,0.2282098,0.22771712,0.23288797,0.2368972,0.23844704,0.24218978,0.242653,0.2462237,0.247754,0.25338444,0.2541994,0.25700465,0.26052636,0.26328132,0.26257265,0.2700703,0.2738525,0.27348846,0.27493343,0.27992016,0.2824744,0.28397354,0.2809102,0.292383,0.29023448,0.2950722,0.29335812,0.29854563,0.29852346,0.29945222,0.3078448,100
0.06552109,0.101984225,0.09607027,0.11203367,0.10733336,0.12608084,0.12616314,0.13389914,0.11452945,0.104559526,0.10368591,0.12992719,0.11694164,0.11891316,0.11859681,0.12731734,0.11575478,0.13311161,0.1271153,0.1406408,0.1514974,0.15729725,0.13775966,0.14650159,0.13740185,0.15164599,0.17044188,0.16665937,0.15644565,0.15395737,0.16236216,0.16491769,0.16623561,0.1936775,0.17113152,0.19241528,0.18245569,0.16215672,0.18469907,0.1980401,0.17968933,0.17681038,0.18325742,0.17763907,0.2011254,0.16644579,0.18008946,0.18319811,0.17033595,0.1828123,0.16753407,184
-0.096390136,-0.09971895,-0.12918788,-0.12920563,-0.12920497,-0.12920348,-0.12920348,-0.12920348,-0.12920348,-0.12920348,-0.12920348,-0.12920853,-0.12920853,-0.12920853,-0.12947342,-0.12947342,-0.1296343,-0.12727769,-0.12954454,-0.12858304,-0.119562596,-0.14027785,-0.1399257,-0.13933846,-0.13982956,-0.14081661,-0.13727354,-0.13650556,-0.11273635,-0.11423936,-0.117879376,-0.116404854,-0.101115495,-0.10809015,-0.102940515,-0.10111605,-0.094873205,-0.06746959,-0.044074267,-0.016142407,-0.04308324,-0.037244864,-0.017886072,-0.022085175,-0.017888147,-0.034442805,-0.045237806,-0.03669815,-0.029178586,-0.044307154,-0.03324426,38
-0.12017264,-0.08778487,-0.10460361,-0.095621295,-0.08865825,-0.061853696,-0.04735597,-0.04502274,-0.033461656,-0.05474345,-0.049701322,-0.048859436,-0.05351739,-0.053944934,-0.054730926,-0.05245505,-0.06570466,-0.05089779,-0.05771365,-0.05198725,-0.031083688,-0.04333025,-0.046585876,-0.03719644,-0.037086196,-0.03396937,-0.036767792,-0.04111184,-0.04320996,-0.041394465,-0.041036114,-0.04681475,-0.05302968,-0.026760774,-0.06312639,-0.047842793,-0.045096483,-0.051442165,-0.062516674,-0.040714934,-0.035492033,-0.03429942,-0.058563776,-0.054507263,-0.052828163,-0.058062658,-0.04099973,-0.04717578,-0.007556588,-0.037830144,-0.054063387,70
0.015691346,0.025832891,0.045493934,0.06155734,0.07643238,0.07555194,0.08414796,0.08192421,0.08050435,0.083301485,0.08431013,0.08817917,0.081303895,0.07987001,0.078831546,0.07615461,0.07837212,0.08302923,0.079728365,0.08435934,0.084500596,0.08823996,0.08618362,0.07564565,0.08760334,0.09427634,0.08954793,0.09429576,0.091437295,0.0943616,0.107458115,0.10668268,0.094161615,0.10588144,0.10114669,0.107517965,0.10846909,0.10960225,0.11523257,0.11208978,0.10649877,0.11342304,0.11444848,0.10801791,0.11057265,0.103242114,0.11068551,0.11275822,0.12323996,0.12093264,0.12595913,35
0.061281,0.052839957,0.032811463,0.01912366,0.008265966,0.005622746,0.009836585,0.000994867,-0.003736295,-0.015840784,-0.024346516,-0.037248526,-0.042489707,-0.05196523,-0.06204088,-0.06569691,-0.056086224,-0.043514665,-0.04445587,-0.05937137,-0.061294634,-0.07772548,-0.07652729,-0.056743804,-0.0607584,-0.050740827,-0.06949625,-0.06907565,-0.06759732,-0.07600579,-0.0807591,-0.083974645,-0.083892055,-0.08363814,-0.10020083,-0.11617709,-0.1301799,-0.14803314,-0.14668947,-0.16390285,-0.15498559,-0.14850053,-0.17845905,-0.17297292,-0.16789688,-0.19722009,-0.20128573,-0.17582451,-0.1867948,-0.20392813,-0.23877205,55
-0.026405713,-0.031032607,-0.031032607,-0.031032607,-0.03005089,-0.017735811,-0.039759457,-0.050468694,-0.07357308,-0.072613984,-0.06943468,-0.015768185,-0.023659557,-0.019512638,-0.034123763,-0.03363082,-0.042116523,-0.03683959,-0.049634118,-0.058089364,-0.055349436,-0.083825305,-0.079632714,-0.08282609,-0.09349577,-0.077685066,-0.10839772,-0.10547404,-0.09971015,-0.08723447,-0.09855135,-0.0850889,-0.104027115,-0.11174949,-0.103470996,-0.10904611,-0.1219344,-0.09845705,-0.08737731,-0.085527055,-0.06379033,-0.086711146,-0.089894004,-0.06589366,-0.056982014,-0.06952812,-0.09195674,-0.103179015,-0.10230946,-0.08869604,-0.106249444,164
-0.002660096,0.012516974,0.014812551,0.01710107,0.015302006,0.015472226,0.021976918,0.024456868,0.026814355,0.03876772,0.046187818,0.043518588,0.04145216,0.040149115,0.04663677,0.0481509,0.042041317,0.051746897,0.062950544,0.062073033,0.06673448,0.06891523,0.07162622,0.06660206,0.06839572,0.07089043,0.07501875,0.08240778,0.08347165,0.07552715,0.083599724,0.08277238,0.08300227,0.08650884,0.0835192,0.09215989,0.0903174,0.096764006,0.09247625,0.097054556,0.09324774,0.08077429,0.088316046,0.085118026,0.09983212,0.09025863,0.09878924,0.10106194,0.10715265,0.10383949,0.101462655,136
-0.036930814,-0.03715679,-0.03715679,-0.019470664,-0.019532284,-0.019358225,-0.01875551,-0.018785004,-0.017018225,-0.018519606,-0.016811421,-0.020141678,-0.01865086,-0.020084277,-0.020174753,-0.02009542,-0.026790664,-0.023543295,-0.018552884,-0.027067272,-0.027047051,-0.027630297,-0.027630297,-0.03681462,-0.03681462,-0.03681462,-0.036504656,-0.042476304,-0.042476304,-0.042476304,-0.042476304,-0.042476304,-0.042476304,-0.042476304,-0.042476304,-0.042476304,-0.042476304,-0.042476304,-0.042476304,-0.042476304,-0.042476304,-0.042476304,-0.042476304,-0.042476304,-0.042476304,-0.042476304,-0.042476304,-0.042476304,-0.042476304,-0.042476304,-0.042476304,89
-0.101132296,-0.09237138,-0.107835405,-0.13258122,-0.16195463,-0.16115277,-0.18302363,-0.20746383,-0.2388846,-0.2358636,-0.23824239,-0.2705402,-0.26894054,-0.25398302,-0.28788435,-0.29704225,-0.31235296,-0.33240238,-0.3197368,-0.34901658,-0.3485852,-0.38059413,-0.38743007,-0.36774874,-0.38504526,-0.3792963,-0.34324986,-0.3954809,-0.42757127,-0.43382367,-0.46295282,-0.4542262,-0.45273763,-0.46631023,-0.4576345,-0.47527692,-0.4807069,-0.48995233,-0.5119536,-0.50071216,-0.50542694,-0.5206594,-0.55243236,-0.5390849,-0.53280324,-0.48529008,-0.50279486,-0.5138001,-0.54285157,-0.5309323,-0.52830577,181
-0.123723604,-0.14173642,-0.14188375,-0.15540227,-0.18250605,-0.18327682,-0.18325199,-0.18500905,-0.16742086,-0.17236324,-0.17350516,-0.19107248,-0.17562158,-0.16376503,-0.16760786,-0.16868174,-0.1908688,-0.17998703,-0.18142846,-0.17342965,-0.1858818,-0.18471564,-0.17117058,-0.17739129,-0.17669597,-0.1632011,-0.17772757,-0.18709995,-0.1733139,-0.16856684,-0.18529408,-0.19497658,-0.18601732,-0.19145115,-0.17972688,-0.19106618,-0.19169514,-0.20459673,-0.20423745,-0.1813623,-0.19919974,-0.20303148,-0.18465522,-0.18889067,-0.20011328,-0.19472487,-0.19890445,-0.19250266,-0.19000167,-0.18728064,-0.20604049,62
0.110088214,0.1060523,0.10732741,0.10562635,0.08466462,0.08466462,0.08466462,0.08466462,0.08466462,0.08466462,0.08466462,0.08466462,0.08466462,0.08466462,0.08466462,0.08466462,0.08466462,0.08466462,0.08466462,0.08466462,0.08466462,0.08466462,0.08466462,0.08466462,0.08466462,0.08466462,0.08466462,0.08466462,0.08466462,0.08466462,0.08466462,0.08466462,0.08466462,0.08466462,0.08466462,0.08466462,0.08466462,0.08466462,0.08466462,0.08466462,0.08466462,0.08466462,0.08466462,0.08466462,0.08466462,0.08466462,0.08466462,0.08466462,0.08466462,0.08466462,0.08466462,7
0.07256528,0.07695925,0.08624823,0.08839281,0.087529495,0.095722616,0.10011471,0.10446915,0.104600295,0.111958966,0.11472185,0.11712122,0.12464158,0.11813788,0.121627375,0.12629716,0.12865293,0.13588387,0.1413508,0.1450935,0.14757131,0.14556883,0.15357333,0.15520692,0.15794209,0.16184641,0.16867712,0.16671458,0.16190791,0.16283223,0.16661602,0.1727139,0.16907486,0.17387094,0.17615989,0.17475936,0.17541759,0.17089963,0.17633346,0.17505941,0.17638245,0.18093596,0.17836483,0.18150939,0.1730068,0.17235692,0.17973004,0.18493754,0.18548371,0.18867147,0.19187582,184
0.10350149,0.098942295,0.08716188,0.08142848,0.07538072,0.070629776,0.06834071,0.063484505,0.059928343,0.060600147,0.058625646,0.05402041,0.052545417,0.047536213,0.046179846,0.049793083,0.047734216,0.04701455,0.048546795,0.044307776,0.04924219,0.04342991,0.044823755,0.040998586,0.04369094,0.043896303,0.04242446,0.043567173,0.04163906,0.039954197,0.03966174,0.040386092,0.04061058,0.040388785,0.037736863,0.040698085,0.0390283,0.04302335,0.036984086,0.04027903,0.03664219,0.033361137,0.036500886,0.035895232,0.037514396,0.03822691,0.037935134,0.03547679,0.032935504,0.033182643,0.032755032,99
-0.062017802,-0.07281677,-0.0737665,-0.07511904,-0.07531742,-0.07537273,-0.07539189,-0.076232865,-0.076232865,-0.07614387,-0.07634724,-0.07621429,-0.07621429,-0.07621429,-0.07621429,-0.07607097,-0.075863026,-0.075863026,-0.07821964,-0.07821964,-0.07821964,-0.07821964,-0.07821964,-0.07821964,-0.07821964,-0.07821964,-0.07821964,-0.07821964,-0.07821964,-0.07821964,-0.07821964,-0.07821964,-0.07821964,-0.07821964,-0.07821964,-0.07821964,-0.07821964,-0.07821964,-0.07821964,-0.07821964,-0.07821964,-0.07821964,-0.07821964,-0.07821964,-0.07821964,-0.07821964,-0.07821964,-0.07821964,-0.07821964,-0.07821964,-0.07821964,43
-0.09874225,-0.14126931,-0.15471324,-0.16447458,-0.17303483,-0.18151985,-0.19411446,-0.19575958,-0.19992214,-0.20365763,-0.20587851,-0.20674978,-0.21652941,-0.21860965,-0.21633367,-0.22366303,-0.22670756,-0.22552265,-0.22497553,-0.22728053,-0.22967316,-0.23285046,-0.2344331,-0.23629871,-0.237113,-0.24634118,-0.24135157,-0.23707847,-0.24492206,-0.23978129,-0.24283752,-0.24896076,-0.2468438,-0.24845414,-0.24781841,-0.2510951,-0.25737935,-0.25879347,-0.2608482,-0.25544286,-0.26115915,-0.26697218,-0.26489025,-0.26253197,-0.264176,-0.27190158,-0.2701884,-0.27349615,-0.27150387,-0.26858583,-0.2709679,177
0.055904146,0.04827402,0.048778553,0.04746051,0.047070235,0.04911116,0.048175458,0.05009875,0.047790878,0.021232503,0.021232525,0.021232525,0.021260323,0.021260323,0.021528048,0.021635747,0.021631122,0.02186819,0.024307735,-0.023583623,-0.034388937,-0.035089016,-0.033979695,-0.03503678,-0.06521306,-0.06139719,-0.057823878,-0.061419524,-0.0976599,-0.10288226,-0.1048567,-0.106806956,-0.12528406,-0.12528443,-0.17284705,-0.16666295,-0.18123783,-0.18496194,-0.20343721,-0.20495424,-0.18372414,-0.22903086,-0.22773752,-0.22906858,-0.2382546,-0.24572772,-0.2541597,-0.24851847,-0.23759912,-0.2537187,-0.24105617,95
-0.11017489,-0.12450081,-0.12679294,-0.12740019,-0.1272893,-0.12689243,-0.1270046,-0.12684335,-0.1276561,-0.12517883,-0.12588699,-0.12717907,-0.1274038,-0.12742206,-0.13044544,-0.15878846,-0.15949664,-0.1600849,-0.15976948,-0.159931,-0.15999326,-0.15973902,-0.16034377,-0.16061597,-0.16060008,-0.16059521,-0.16059521,-0.16050854,-0.16034496,-0.16034496,-0.16034496,-0.16034496,-0.16034496,-0.16034496,-0.16034496,-0.16034496,-0.16034496,-0.16034496,-0.16034496,-0.16034496,-0.16034496,-0.16034496,-0.16034496,-0.16034496,-0.16034496,-0.16034496,-0.16034496,-0.16034496,-0.16034496,-0.16034496,-0.16034496,0
-0.0963261,-0.098979905,-0.101170525,-0.102539144,-0.10757852,-0.1018552,-0.10889405,-0.108165026,-0.11131369,-0.11355777,-0.10920992,-0.1103503,-0.116071634,-0.1161047,-0.118316814,-0.11598695,-0.11697303,-0.1166801,-0.12447378,-0.12643702,-0.12349115,-0.12495354,-0.1253019,-0.12906358,-0.13348892,-0.13539252,-0.1356194,-0.1387899,-0.14026958,-0.1443339,-0.14134195,-0.14677972,-0.14699233,-0.15184554,-0.14820658,-0.14789099,-0.14684542,-0.14677222,-0.15099612,-0.15338959,-0.1470684,-0.1492991,-0.15188278,-0.15268177,-0.1529834,-0.14846003,-0.1437737,-0.15498853,-0.15969685,-0.15502594,-0.15465131,50
-0.13945997,-0.1405385,-0.14040065,-0.13898487,-0.14168897,-0.14199805,-0.1417684,-0.14310595,-0.14320785,-0.14320713,-0.14300935,-0.14375642,-0.14326711,-0.14467664,-0.14566098,-0.14566098,-0.14563578,-0.14513332,-0.14545003,-0.14545003,-0.14545003,-0.14816391,-0.16881928,-0.16908196,-0.16923141,-0.16923141,-0.17954938,-0.18815166,-0.18815166,-0.18815166,-0.18815166,-0.18815166,-0.18815166,-0.18815166,-0.18815166,-0.18815166,-0.18815166,-0.18815166,-0.18815166,-0.18815166,-0.18815166,-0.18815166,-0.18815166,-0.18815166,-0.18815166,-0.18815166,-0.18815166,-0.18815166,-0.18815166,-0.18815166,-0.18815166,155
0.077279866,0.07432178,0.07411095,0.0743255,0.07408557,0.051000703,0.05062485,0.05062485,0.05062485,0.05062485,0.05062485,0.05062485,0.05062485,0.05073073,0.05073073,0.05073073,0.05073073,0.05073073,0.05073073,0.04976003,0.04976003,0.04976003,0.04976003,0.04976003,0.04976003,0.04976003,0.04976003,0.04976003,0.04976003,0.04976003,0.04976003,0.04976003,0.04976003,0.04976003,0.04976003,0.04976003,0.04976003,0.04976003,0.04976003,0.04976003,0.04976003,0.04976003,0.04976003,0.04976003,0.04976003,0.04976003,0.04976003,0.04976003,0.04976003,0.04976003,0.04976003,169
-0.014575398,-0.010138979,-0.01279986,-0.018389339,-0.018087896,-0.01913878,-0.019184446,-0.028767155,-0.028767155,-0.028767155,-0.02876698,-0.02876698,-0.02876698,-0.0287826,-0.0287826,-0.0287826,-0.0287826,-0.0287826,-0.0287826,-0.028834045,-0.028834045,-0.028834045,-0.028834045,-0.028764335,-0.028763017,-0.028763017,-0.028763017,-0.028763017,-0.028763017,0.000614836,-0.011384035,-0.011707486,-0.020953588,-0.02077726,-0.020701006,-0.019734256,-0.022476781,-0.023610784,-0.023126446,-0.023021773,-0.022562033,-0.01690689,-0.015336006,-0.017951097,-0.018335508,-0.019302161,-0.014889768,-0.03269092,-0.033094775,-0.023127083,-0.02858163,57
0.003727692,0.007131861,0.006064134,-0.004076198,0.005554664,0.001982927,0.000676006,-0.002038852,0.011460679,-0.000390381,-0.000471865,-0.007673591,-0.02677362,-0.029675007,-0.029513052,-0.028965358,-0.040210966,-0.038730063,-0.04199495,-0.0450845,-0.045265753,-0.045420602,-0.0462967,-0.046298936,-0.04630561,-0.046234675,-0.04589543,-0.035718165,-0.05167008,-0.054925933,-0.059379425,-0.061548576,-0.05966013,-0.063000605,-0.060479347,-0.05924076,-0.06597835,-0.04656582,-0.082241744,-0.07188496,-0.06615313,-0.07681428,-0.081412576,-0.06644206,-0.066716075,-0.046454933,-0.053991847,-0.060498096,-0.02840816,-0.044438634,-0.049346074,137
-0.013290836,-0.025491016,-0.034870353,-0.03599823,-0.033460867,-0.036219683,-0.036088016,-0.03645471,-0.03421787,-0.036822706,-0.03868299,-0.039394215,-0.03899357,-0.04360074,-0.043969516,-0.0426513,-0.041962598,-0.041335206,-0.04417854,-0.054383725,-0.048983123,-0.052386373,-0.05690092,-0.054664265,-0.057621382,-0.05335233,-0.05760627,-0.060577046,-0.06316663,-0.06756305,-0.06488399,-0.06641792,-0.06940858,-0.0674341,-0.07394281,-0.07115034,-0.0761242,-0.078061126,-0.07971166,-0.07655983,-0.0798498,-0.0808208,-0.079808734,-0.082228385,-0.082800336,-0.08264162,-0.08291768,-0.08451352,-0.086628854,-0.08361961,-0.08326737,119
0.10058119,0.094977364,0.09101151,0.08467452,0.07973135,0.084358424,0.08555067,0.08718803,0.08152216,0.09205983,0.08251343,0.08326299,0.078225456,0.077094376,0.08192316,0.08233208,0.082880124,0.08732586,0.088912055,0.08851973,0.1000588,0.10250111,0.10475641,0.10494018,0.09159526,0.10161646,0.0976632,0.115941234,0.10546768,0.13120113,0.11331718,0.10540886,0.097963616,0.11862521,0.120115764,0.12409079,0.122482054,0.12275779,0.12293476,0.10741144,0.12492718,0.12607363,0.112786,0.121488534,0.12292538,0.15385129,0.13823369,0.14000878,0.14261356,0.11743352,0.14267641,180
-0.077994876,-0.08264361,-0.08096558,-0.07632833,-0.07518293,-0.07384805,-0.07103315,-0.07033406,-0.0646089,-0.06307964,-0.06071208,-0.055710495,-0.05879054,-0.05203486,-0.051534988,-0.046130244,-0.046737142,-0.04454114,-0.040644523,-0.040612996,-0.036218606,-0.03399543,-0.035942785,-0.0333086,-0.031140774,-0.036329884,-0.028860629,-0.031131873,-0.03084655,-0.0289008,-0.029590897,-0.028750215,-0.03145064,-0.029037748,-0.023781858,-0.020138161,-0.022190308,-0.016296413,-0.018504506,-0.02340123,-0.020039229,-0.018687002,-0.012159275,-0.021622943,-0.018639237,-0.011191919,-0.014700616,-0.017654724,-0.020151319,-0.014429058,-0.015065829,143
0.09637684,0.08965005,0.09767401,0.12624693,0.14447749,0.14600015,0.13582347,0.1515373,0.15468065,0.1767471,0.16002995,0.15823029,0.1523606,0.16304876,0.1429253,0.14590095,0.16692784,0.17648399,0.16997448,0.15603241,0.17565452,0.15692584,0.18526995,0.16900887,0.18824641,0.18960924,0.18639402,0.19121549,0.1887739,0.18933503,0.1890802,0.20330678,0.20695214,0.19403516,0.20861273,0.2199912,0.20884544,0.23000313,0.21761347,0.21391052,0.22064,0.22087796,0.24196488,0.23502642,0.24200618,0.22228256,0.21964614,0.25200427,0.24633008,0.22725339,0.23974021,85
0.04918342,0.038894586,0.045804426,0.04687729,0.05804745,0.06252754,0.07199263,0.07532317,0.083297096,0.08487643,0.08880583,0.091660835,0.094385326,0.101415865,0.09963943,0.10481498,0.11156569,0.11398226,0.11941274,0.118247464,0.11893437,0.12266663,0.12251664,0.12936926,0.12977453,0.1306996,0.13336368,0.13855745,0.13761653,0.142232,0.14629988,0.15325417,0.15226246,0.1525124,0.15376614,0.16150188,0.16195402,0.15960103,0.1628791,0.16423263,0.16943307,0.17155068,0.17695081,0.17211026,0.17586192,0.1819596,0.17799105,0.17954679,0.18248221,0.18564576,0.1842542,22
0.073187165,0.058506977,0.06339518,0.06511004,0.059624534,0.05794915,0.065915726,0.064855486,0.060137045,0.07287742,0.057133242,0.0532943,0.065354384,0.085384354,0.06952373,0.0823509,0.08924835,0.08521534,0.07387232,0.08853621,0.08217129,0.07845424,0.09826146,0.115564,0.10747058,0.12869717,0.13351771,0.1367287,0.13172843,0.14072993,0.15207484,0.14552541,0.16329402,0.16525395,0.1677197,0.17397167,0.17226759,0.1692023,0.17230639,0.1669783,0.17009579,0.17639919,0.17776269,0.17550611,0.17715193,0.17830034,0.18189941,0.18853329,0.18824413,0.18725559,0.1940344,22
0.09627068,0.08400933,0.08985884,0.07826594,0.075874336,0.07620271,0.0751243,0.0686897,0.06133505,0.055406794,0.056634676,0.052458446,0.05386707,0.05312089,0.05258009,0.04959933,0.05011828,0.050375164,0.053285345,0.053474646,0.047926582,0.04770518,0.054488014,0.053197064,0.055031218,0.05044737,0.051074404,0.050968796,0.051976666,0.051615357,0.050488442,0.04584977,0.04559705,0.049137726,0.043804538,0.03831781,0.043755487,0.040031563,0.04115972,0.041063607,0.045512922,0.038536314,0.038849182,0.038859855,0.04032284,0.037922505,0.0382421,0.03656031,0.039524764,0.033003118,0.033871956,99
0.094429255,0.092463784,0.09205698,0.09614967,0.10027961,0.112265505,0.11266307,0.113589875,0.11690782,0.12683108,0.12788421,0.1248063,0.1291568,0.12518354,0.12868014,0.12909439,0.12780787,0.1203344,0.12536687,0.11204787,0.12457401,0.12998115,0.13928567,0.12829265,0.12599923,0.12933564,0.12785076,0.13017519,0.13218337,0.12876436,0.1287048,0.12486617,0.12835063,0.12936531,0.124709114,0.12350323,0.119168796,0.126234,0.12023914,0.1265027,0.13009386,0.12997717,0.12935546,0.1261682,0.12724751,0.12467239,0.12757966,0.1260713,0.13072914,0.13763398,0.13884363,28
-0.09751228,-0.14989962,-0.1559848,-0.14017422,-0.14572728,-0.15816927,-0.1485587,-0.14240488,-0.1426973,-0.13930118,-0.1442528,-0.15653871,-0.13986686,-0.1358176,-0.14202924,-0.12779038,-0.15548302,-0.13337122,-0.1441137,-0.13297804,-0.12904257,-0.12957568,-0.12553237,-0.13561623,-0.14654109,-0.14134829,-0.13638707,-0.13706878,-0.13035235,-0.13128483,-0.13717248,-0.13544182,-0.13315989,-0.12877716,-0.13320412,-0.13218437,-0.1295964,-0.13652588,-0.14084072,-0.12303937,-0.11324881,-0.12629056,-0.12922405,-0.13003911,-0.12325389,-0.12934175,-0.11806769,-0.121598974,-0.117539614,-0.12942813,-0.12927002,73
0.111075245,0.12826091,0.14554721,0.1686928,0.17806318,0.18932648,0.19595888,0.20275855,0.20860083,0.2157606,0.22283535,0.22828442,0.23428251,0.23700973,0.2418389,0.24766332,0.2487053,0.25408065,0.25546926,0.2564979,0.2610881,0.26231158,0.26524562,0.26619077,0.2693436,0.27375117,0.27588168,0.2781122,0.28122678,0.28489918,0.28654528,0.28931823,0.29353833,0.29239047,0.29105535,0.29776382,0.30048966,0.30109724,0.29864222,0.30028433,0.30458513,0.30832928,0.30550277,0.31026593,0.30957913,0.3115986,0.3109738,0.31533924,0.3167132,0.3178521,0.32221106,110
0.02690619,0.062009174,0.055966545,0.07158051,0.073460236,0.08927766,0.08574217,0.09256171,0.07415946,0.06614548,0.06557002,0.09474879,0.08453892,0.08716915,0.0865176,0.097552754,0.0833229,0.10094274,0.09969443,0.11599316,0.13065109,0.1366138,0.119171,0.12931588,0.120200224,0.13349177,0.1541952,0.1509838,0.1419591,0.13683142,0.14762343,0.15053815,0.15666835,0.18494877,0.16364443,0.1876237,0.17622517,0.15883808,0.18187274,0.19559623,0.18220578,0.17952657,0.19092545,0.19446093,0.22400373,0.19425377,0.21264039,0.21965748,0.20732844,0.2245048,0.21578123,129
-0.05434083,-0.0574862,-0.09346134,-0.09348872,-0.093488246,-0.093487166,-0.093487166,-0.093487166,-0.093487166,-0.093487166,-0.093487166,-0.093439706,-0.093439706,-0.093439706,-0.09399664,-0.09399664,-0.094166905,-0.09136565,-0.08889115,-0.0901267,-0.08570551,-0.075409256,-0.07421147,-0.080393575,-0.08015183,-0.08322996,-0.07911268,-0.08668652,-0.08356233,-0.105256714,-0.11179801,-0.1104788,-0.115323335,-0.12365846,-0.12738644,-0.12824105,-0.1267421,-0.12428933,-0.14037803,-0.11470429,-0.12811184,-0.12489397,-0.117788665,-0.1326393,-0.13241686,-0.13058811,-0.12746793,-0.14130856,-0.14350052,-0.14290814,-0.14545697,84
0.11091106,0.13937931,0.118931025,0.12410892,0.13092498,0.15006436,0.15980983,0.16079192,0.16765347,0.15088786,0.15569079,0.15709935,0.15465073,0.15591614,0.15547049,0.1592213,0.14444458,0.15935084,0.16096771,0.16695474,0.19287908,0.18150376,0.18086933,0.19443978,0.2027456,0.20552325,0.20416917,0.20063247,0.20262127,0.2011507,0.20766227,0.20290762,0.20234525,0.22828571,0.19312048,0.21302792,0.21538594,0.21695551,0.20931683,0.23226559,0.24188074,0.24044871,0.2221853,0.2328959,0.24042352,0.23579136,0.25991598,0.25659382,0.2967812,0.27583426,0.25960138,121
0.09870941,0.10231672,0.12367086,0.1305508,0.14235125,0.1382729,0.14746962,0.14630975,0.14485198,0.14581458,0.14934035,0.15282655,0.14623845,0.14584634,0.14430848,0.13880676,0.1369464,0.14305638,0.14501306,0.14289689,0.14122924,0.1447388,0.1379405,0.13093764,0.14398608,0.14910603,0.14567219,0.14835334,0.1437118,0.14199924,0.15345316,0.14921463,0.14763743,0.15531743,0.14313774,0.14959574,0.15675302,0.1499548,0.15325618,0.15302964,0.14635259,0.15778367,0.15642777,0.15342614,0.15567808,0.14479253,0.15359741,0.149334,0.1680262,0.16146761,0.16743585,51
-0.01982212,-0.01731709,-0.021412926,-0.024068493,-0.03694299,-0.042744536,-0.04128318,-0.042716563,-0.05671198,-0.05093794,-0.042460795,-0.060654238,-0.069085054,-0.05724234,-0.06893838,-0.07338785,-0.055255704,-0.08137167,-0.085433014,-0.09359486,-0.09660552,-0.08442456,-0.08853589,-0.083506316,-0.08254846,-0.085412994,-0.08022433,-0.07053317,-0.07808112,-0.08584001,-0.07385708,-0.109785765,-0.10622498,-0.093142346,-0.09987294,-0.09621829,-0.08037396,-0.06814377,-0.06420994,-0.0862545,-0.08508492,-0.06460102,-0.08040971,-0.081090815,-0.076067165,-0.07101539,-0.06071947,-0.06678372,-0.09128065,-0.09066068,-0.08502803,59
0.117300935,0.11267426,0.11267426,0.11267426,0.114332825,0.12630774,0.09146101,0.05722479,0.039150305,0.041784666,0.046509583,0.0988672,0.08860906,0.10104207,0.08120173,0.09463888,0.084477045,0.08947279,0.06834614,0.070015535,0.07194862,0.047909103,0.05693509,0.023963712,0.009249503,0.022097284,-0.006829519,-0.01210209,-0.00377166,0.017222632,-0.009413073,0.007572923,-0.009491438,-0.017129786,-0.00767338,-0.023029987,-0.04859639,-0.021963976,-0.023786698,-0.021849498,-0.000372345,-0.023861444,-0.035033163,-0.017303338,0.000106842,-0.006119961,-0.03261007,-0.04739423,-0.058186006,-0.043143902,-0.060289748,102
-0.04192374,-0.047444545,-0.063114926,-0.06893429,-0.07449393,-0.08624163,-0.08171217,-0.079275146,-0.08031433,-0.06922927,-0.07227438,-0.07348086,-0.0845242,-0.086894415,-0.095470436,-0.09367648,-0.10908168,-0.11086877,-0.09859579,-0.105969466,-0.099771515,-0.09889156,-0.11348293,-0.11831423,-0.110532284,-0.111308485,-0.10771147,-0.1015787,-0.10618722,-0.11453053,-0.10432885,-0.105373934,-0.09298421,-0.091353,-0.10830512,-0.09030765,-0.07709618,-0.06976686,-0.07745511,-0.07738695,-0.064427964,-0.06385314,-0.064944744,-0.07113331,-0.056569636,-0.06862219,-0.059765663,-0.07984535,-0.07346968,-0.07894396,-0.080360994,29
-0.012092915,-0.013389927,-0.013389927,-0.011869012,-0.011871511,-0.011856083,-0.011627578,-0.011491837,-0.01129233,-0.01179968,-0.011533042,-0.01184897,-0.011360492,-0.011342466,-0.011362284,-0.011349564,-0.012729832,-0.011639673,-0.009739269,-0.015737807,-0.015695466,-0.016093481,-0.016093481,-0.016860032,-0.016860032,-0.016860032,-0.016502863,-0.034493696,-0.034493696,-0.034493696,-0.034493696,-0.034493696,-0.034493696,-0.034493696,-0.034493696,-0.034493696,-0.034493696,-0.034493696,-0.034493696,-0.034493696,-0.034493696,-0.034493696,-0.034493696,-0.034493696,-0.034493696,-0.034493696,-0.034493696,-0.034493696,-0.034493696,-0.034493696,-0.034493696,57
-0.10303316,-0.099297665,-0.114044644,-0.116284624,-0.14305729,-0.13471802,-0.15426117,-0.16821541,-0.19847763,-0.21694228,-0.22162567,-0.24434403,-0.24695395,-0.22543257,-0.24496275,-0.26238033,-0.26338917,-0.28354594,-0.2773505,-0.28575492,-0.27521372,-0.29312637,-0.3014853,-0.2989762,-0.3135722,-0.31327856,-0.25780708,-0.28292674,-0.30740622,-0.34993932,-0.37154424,-0.36657438,-0.35270694,-0.36631963,-0.36065632,-0.37981462,-0.3736761,-0.38711742,-0.37854517,-0.3697019,-0.36634016,-0.36854985,-0.41486418,-0.38371223,-0.4208707,-0.39567825,-0.3931337,-0.40608686,-0.40587673,-0.3931596,-0.39425114,34
-0.06899711,-0.08921429,-0.08914058,-0.107305445,-0.14202008,-0.1424802,-0.14156409,-0.14300168,-0.12358995,-0.13803972,-0.13404946,-0.14706019,-0.13996038,-0.12355423,-0.12917008,-0.12940401,-0.14951104,-0.14399028,-0.1481496,-0.13909288,-0.1540062,-0.15634283,-0.14419085,-0.1573776,-0.15663622,-0.15041143,-0.16516528,-0.18480922,-0.16575144,-0.1652504,-0.17626657,-0.18163364,-0.17278497,-0.17530698,-0.16693442,-0.17178597,-0.16988163,-0.17957972,-0.17935814,-0.16591313,-0.18362796,-0.19273594,-0.17510378,-0.1763052,-0.18618968,-0.1821868,-0.19335769,-0.19134645,-0.18288729,-0.1778903,-0.19737302,2
-0.04490364,-0.046417743,-0.04633788,-0.046481412,-0.060903933,-0.060903933,-0.060903933,-0.060903933,-0.060903933,-0.060903933,-0.060903933,-0.060903933,-0.060903933,-0.060903933,-0.060903933,-0.060903933,-0.060903933,-0.060903933,-0.060903933,-0.060903933,-0.060903933,-0.060903933,-0.060903933,-0.060903933,-0.060903933,-0.060903933,-0.060903933,-0.060903933,-0.060903933,-0.060903933,-0.060903933,-0.060903933,-0.060903933,-0.060903933,-0.060903933,-0.060903933,-0.060903933,-0.060903933,-0.060903933,-0.060903933,-0.060903933,-0.060903933,-0.060903933,-0.060903933,-0.060903933,-0.060903933,-0.060903933,-0.060903933,-0.060903933,-0.060903933,-0.060903933,196
0.025798518,0.03830409,0.049400788,0.037593298,0.034021847,0.031071272,0.026299663,0.023879789,0.014091505,0.012995236,0.008310277,0.00982582,0.015186538,0.007559023,0.005026849,0.002274811,0.002419492,0.005242961,0.007530558,0.008468905,0.011140046,0.008355797,0.013390473,0.015851641,0.01122179,0.01830114,0.024524555,0.020872645,0.01081878,0.014034994,0.013196644,0.012467077,0.00835151,0.014544881,0.013751522,0.010732816,0.010783349,0.001714432,0.012949984,0.00656479,0.012164643,0.013168675,0.007512482,0.009734343,0.003167541,0.006142681,0.004245726,0.009673464,0.005282471,0.007041493,0.009793346,197
0.13604014,0.14623004,0.15333983,0.15367427,0.15523952,0.15722124,0.16125818,0.16030683,0.16393232,0.16549948,0.16541253,0.16315396,0.16124326,0.15760323,0.1555916,0.15903299,0.15650763,0.15667023,0.1577953,0.153543,0.159248,0.15482132,0.15633617,0.1494745,0.14993913,0.14991604,0.1487003,0.15018804,0.14965263,0.14433603,0.14323618,0.14397071,0.14583725,0.14435853,0.1437764,0.14892116,0.14635958,0.14670919,0.13822354,0.14043637,0.14339998,0.1403768,0.14145279,0.1375949,0.13464163,0.14170545,0.13903901,0.13789603,0.13749202,0.13555928,0.1336036,134
0.10584858,0.105141245,0.1049994,0.103767864,0.10349086,0.103407584,0.10339374,0.10306536,0.10306536,0.10308067,0.10301373,0.10303664,0.10303664,0.10303664,0.10303664,0.103061356,0.103097185,0.103097185,0.102319434,0.102319434,0.102319434,0.102319434,0.102319434,0.102319434,0.102319434,0.102319434,0.102319434,0.102319434,0.102319434,0.102319434,0.102319434,0.102319434,0.102319434,0.102319434,0.102319434,0.102319434,0.102319434,0.102319434,0.102319434,0.102319434,0.102319434,0.102319434,0.102319434,0.102319434,0.102319434,0.102319434,0.102319434,0.102319434,0.102319434,0.102319434,0.102319434,31
-0.06519728,-0.067557074,-0.058523856,-0.06597005,-0.070195064,-0.08181426,-0.09142434,-0.087343074,-0.09514252,-0.10141054,-0.106982306,-0.1079725,-0.11450944,-0.112406746,-0.11145481,-0.12503518,-0.12624292,-0.120613165,-0.12116622,-0.12130111,-0.12247336,-0.12312869,-0.12954177,-0.12789765,-0.13196705,-0.14226593,-0.135004,-0.13435706,-0.14000705,-0.13765147,-0.13982072,-0.14431655,-0.14447603,-0.14565854,-0.14762484,-0.15072313,-0.15540482,-0.15664278,-0.16060472,-0.15658106,-0.16177163,-0.16927263,-0.16454253,-0.1663267,-0.16896039,-0.17773545,-0.17455493,-0.18099661,-0.17887917,-0.1768847,-0.17460002,11
0.100578666,0.09633985,0.09519291,0.09245828,0.09094465,0.09294158,0.093684636,0.09429809,0.09284732,0.08665651,0.086665705,0.086665705,0.08704891,0.08704891,0.08815679,0.08963886,0.08926739,0.09024679,0.09414,0.12031155,0.108317204,0.12518696,0.12169792,0.11677166,0.111466154,0.1209114,0.12007154,0.14318763,0.1228637,0.12336272,0.110629894,0.13159399,0.12713492,0.13086368,0.13859649,0.13261019,0.12216623,0.15197428,0.14568378,0.1450547,0.17950676,0.14093058,0.14895728,0.16355278,0.16445182,0.1618578,0.14832915,0.16925062,0.18130085,0.15175658,0.17365499,66
0.08007148,0.06498077,0.06415302,0.06357297,0.063612185,0.064026274,0.06404604,0.06304098,0.061382264,0.06327503,0.062459584,0.061205953,0.060930386,0.060912766,0.058044046,0.015630849,0.014008568,0.013397581,0.013348554,0.013008558,0.012036902,0.01140026,0.010731194,0.010880743,0.01090887,0.010914144,0.010914144,0.01100763,0.010757311,0.010757311,0.010757311,0.010757311,0.010757311,0.010757311,0.010757311,0.010757311,0.010757311,0.010757311,0.010757311,0.010757311,0.010757311,0.010757311,0.010757311,0.010757311,0.010757311,0.010757311,0.010757311,0.010757311,0.010757311,0.010757311,0.010757311,139
0.15057462,0.15834403,0.16753218,0.17175813,0.18014455,0.19008967,0.19025077,0.19895343,0.20698377,0.20478666,0.211345,0.2187121,0.21821602,0.22314066,0.22188653,0.22921886,0.23060672,0.23488975,0.23207308,0.23100995,0.23832335,0.23788363,0.24208547,0.24405876,0.24193472,0.2407544,0.24430573,0.24202153,0.24663404,0.2466995,0.25298956,0.24843796,0.2485381,0.24804522,0.25298336,0.25433433,0.2566684,0.2557622,0.2551887,0.25497642,0.2634757,0.26248768,0.26461378,0.26463586,0.2647712,0.26822227,0.27628523,0.26861554,0.26774088,0.272499,0.2727614,74
0.12082394,0.11774228,0.11775037,0.11655409,0.11350645,0.11240011,0.112616636,0.111600436,0.111505434,0.11157575,0.11280351,0.1121675,0.11271294,0.11010979,0.109003454,0.109003454,0.11246825,0.11425135,0.11410471,0.11410471,0.11410471,0.12826337,0.119645625,0.11796092,0.12580599,0.12580599,0.13065256,0.10539425,0.10539425,0.10539425,0.10539425,0.10539425,0.10539425,0.10539425,0.10539425,0.10539425,0.10539425,0.10539425,0.10539425,0.10539425,0.10539425,0.10539425,0.10539425,0.10539425,0.10539425,0.10539425,0.10539425,0.10539425,0.10539425,0.10539425,0.10539425,31
0.008107984,0.005699245,0.005596062,0.005715268,0.005767817,-0.014983169,-0.015213924,-0.015213924,-0.015213924,-0.015213924,-0.015213924,-0.015213924,-0.015213924,-0.015105172,-0.015105172,-0.015105172,-0.015105172,-0.015105172,-0.015105172,-0.014455459,-0.014455459,-0.014455459,-0.014455459,-0.014455459,-0.014455459,-0.014455459,-0.014455459,-0.014455459,-0.014455459,-0.014455459,-0.014455459,-0.014455459,-0.014455459,-0.014455459,-0.014455459,-0.014455459,-0.014455459,-0.014455459,-0.014455459,-0.014455459,-0.014455459,-0.014455459,-0.014455459,-0.014455459,-0.014455459,-0.014455459,-0.014455459,-0.014455459,-0.014455459,-0.014455459,-0.014455459,112
0.0795816,0.08018124,0.07908596,0.071033195,0.07173457,0.07179821,0.07214825,0.06443836,0.06443836,0.06443836,0.06443884,0.06443884,0.06443884,0.06441383,0.06441383,0.06441383,0.06441383,0.06441383,0.06441383,0.06432557,0.06432557,0.06432557,0.06432557,0.06452486,0.064528614,0.064528614,0.064528614,0.064528614,0.064528614,0.08866221,0.10182276,0.103666484,0.09495927,0.09580165,0.09652207,0.09693003,0.09586996,0.09342055,0.09315891,0.09342589,0.095723234,0.0980832,0.0926599,0.09236962,0.09261071,0.09904317,0.100609824,0.08161947,0.08105413,0.08939234,0.08322355,86
-0.011256336,-0.004288265,-0.007577004,-0.025768396,-0.01803306,-0.018583024,-0.021971107,-0.021012362,-0.01457976,-0.031370502,-0.029832542,-0.028521618,-0.047440752,-0.04946786,-0.050051358,-0.04964403,-0.06438332,-0.06290386,-0.066418484,-0.069674104,-0.07052872,-0.070293844,-0.07247116,-0.07247726,-0.072456285,-0.072984815,-0.072192594,-0.048706274,-0.06426371,-0.06554816,-0.06848925,-0.068535015,-0.06446654,-0.066831574,-0.06539978,-0.06733811,-0.07246078,-0.04386165,-0.076741345,-0.06752119,-0.063035995,-0.07001586,-0.07777042,-0.067513846,-0.06423572,-0.04515722,-0.05931757,-0.05733883,-0.023041522,-0.047536135,-0.04966788,25
0.060752638,0.06621304,0.06669562,0.071123585,0.07669188,0.07455198,0.0815242,0.08293675,0.07976006,0.080192514,0.07997482,0.0818608,0.0828957,0.08212816,0.07986494,0.08218412,0.08663861,0.083801955,0.08292969,0.073951095,0.07826142,0.077348866,0.07474184,0.08104991,0.07990208,0.08481533,0.080480814,0.07938522,0.07863451,0.073988125,0.0788579,0.07396045,0.07652089,0.079112336,0.07201469,0.07285704,0.07233157,0.07430155,0.07661228,0.08196512,0.07055384,0.07133098,0.06976671,0.07249362,0.07250007,0.07168323,0.07119811,0.078435406,0.07126058,0.0773921,0.07773579,86
-0.06777745,-0.055435613,-0.05208661,-0.056905944,-0.05755661,-0.05844331,-0.06226912,-0.06635111,-0.07456167,-0.06960505,-0.07873778,-0.07947379,-0.08720044,-0.094286494,-0.095644295,-0.10430275,-0.11149757,-0.104160875,-0.10679302,-0.1072646,-0.11369256,-0.109703586,-0.11797559,-0.1255898,-0.14113626,-0.13947642,-0.13805546,-0.13318631,-0.13532688,-0.10922825,-0.12925202,-0.14292347,-0.14165723,-0.1332366,-0.1415173,-0.15315758,-0.15043652,-0.15762572,-0.16267432,-0.16816671,-0.15621696,-0.15105484,-0.16125385,-0.15419967,-0.16651143,-0.13925594,-0.1471377,-0.16102162,-0.15129384,-0.16662835,-0.14054467,64
-0.116632424,-0.12831618,-0.140663,-0.14465284,-0.15248062,-0.16410159,-0.1682026,-0.17805801,-0.17918178,-0.18223614,-0.18872936,-0.18985434,-0.19687943,-0.19427995,-0.19469602,-0.20217417,-0.20454401,-0.20648932,-0.20548831,-0.21245931,-0.21504956,-0.21046513,-0.21707432,-0.21471174,-0.21444102,-0.22078417,-0.2214245,-0.22252238,-0.23015578,-0.22785237,-0.23246141,-0.23178491,-0.23624675,-0.23832344,-0.23573028,-0.23711681,-0.24023864,-0.23452196,-0.23597449,-0.23818092,-0.2436054,-0.24336238,-0.24197476,-0.24942784,-0.24636787,-0.24439555,-0.24645588,-0.24944787,-0.25212345,-0.2475335,-0.24797936,82
-0.107083134,-0.11245085,-0.11103466,-0.1475899,-0.1395128,-0.14575176,-0.15492101,-0.14127952,-0.13875742,-0.119815856,-0.13494171,-0.14099981,-0.15726468,-0.14793122,-0.16195,-0.1607455,-0.15873568,-0.14757079,-0.16369103,-0.15728654,-0.14879498,-0.16547666,-0.15654005,-0.18380657,-0.16843662,-0.17325954,-0.16765699,-0.16817614,-0.17235558,-0.17173193,-0.174033,-0.18805249,-0.19664781,-0.19056028,-0.17362215,-0.16767053,-0.16416667,-0.17626461,-0.1966166,-0.19881938,-0.19105464,-0.17950453,-0.19158632,-0.17835148,-0.15743585,-0.17063032,-0.16793591,-0.14824453,-0.16962717,-0.18119837,-0.17577662,106
0.07735451,0.10067917,0.12333613,0.13574183,0.1545653,0.15979427,0.17085087,0.17265664,0.1773987,0.182557,0.18778595,0.19139476,0.19199727,0.19804561,0.19693708,0.20714118,0.21352552,0.21117535,0.21184087,0.2137214,0.21272367,0.2211171,0.2216273,0.23073122,0.23483983,0.23152995,0.2319607,0.23841605,0.23657392,0.23484342,0.23838349,0.25050095,0.24792345,0.24139358,0.2417488,0.24879947,0.24908714,0.24745205,0.25163707,0.25187916,0.2564396,0.2565037,0.263502,0.25884992,0.25852087,0.26318234,0.25729755,0.26058403,0.26300904,0.26726082,0.26737943,157
0.027444314,0.024446892,0.03335558,0.03878996,0.030934066,0.030053154,0.038649134,0.033623286,0.02657386,0.038947478,0.022371996,0.023204017,0.03265441,0.052025173,0.051317714,0.06612219,0.0784447,0.075165264,0.061531186,0.07487625,0.06378523,0.06689923,0.0732197,0.09602843,0.087832,0.106758945,0.10838685,0.10917514,0.10048792,0.107556745,0.11699445,0.107904024,0.12460216,0.12542604,0.12838459,0.13161622,0.13336994,0.12845773,0.12855396,0.122552976,0.12838764,0.13286448,0.1375549,0.13555677,0.13755237,0.13924152,0.14133446,0.14385453,0.14204717,0.1387075,0.14386523,158
-0.04499933,-0.05039036,-0.030346544,-0.022675162,-0.022835536,-0.02549969,-0.032240033,-0.031680807,-0.041199952,-0.046324562,-0.04820681,-0.0514313,-0.054970223,-0.057394348,-0.05803922,-0.05868603,-0.060128372,-0.05977952,-0.06231874,-0.06474831,-0.06876146,-0.06712095,-0.06313701,-0.064091936,-0.062435355,-0.06788575,-0.064657785,-0.068518355,-0.066532575,-0.06279508,-0.06183669,-0.06525775,-0.06694555,-0.06452576,-0.07025624,-0.075208545,-0.06960569,-0.0743438,-0.072669685,-0.07310904,-0.06733378,-0.07240053,-0.07243935,-0.06916379,-0.067570694,-0.0711096,-0.067108974,-0.06993236,-0.068595015,-0.072379,-0.07403139,119
-0.08949244,-0.08415034,-0.07566267,-0.06497835,-0.05255186,-0.048302505,-0.042930827,-0.038279384,-0.03855023,-0.023529097,-0.019147655,-0.02073228,-0.006924721,-0.009443484,-0.008420757,-0.00051078,0.005253124,-0.004330421,0.004818918,-0.00919452,0.003936031,0.017372334,0.026322542,0.020537585,0.0233272,0.026758168,0.024411209,0.028608277,0.029505244,0.028242394,0.03193825,0.025858535,0.035489086,0.03861533,0.029294237,0.027791489,0.032111008,0.037259832,0.03224739,0.04196834,0.042443883,0.04828915,0.04829641,0.042383008,0.04001297,0.03813125,0.038778752,0.043157764,0.048106853,0.0551924,0.053014513,166
0.03778033,0.012990486,0.014416131,0.040059015,0.032069698,0.028602283,0.03663054,0.046566717,0.04195371,0.03939419,0.036023617,0.01959859,0.03523663,0.034021005,0.032086138,0.045496527,0.023073174,0.040410064,0.027852423,0.034703694,0.04404676,0.034906775,0.04337292,0.039745614,0.038296364,0.038195778,0.045081895,0.047551878,0.05279252,0.050691772,0.049759112,0.047193673,0.0418373,0.054516032,0.051051505,0.043254677,0.0407151,0.042125665,0.047025718,0.042106282,0.056153167,0.054350827,0.06271167,0.060094696,0.0675357,0.059128698,0.05289744,0.064458646,0.06576805,0.06209174,0.06011082,68
0.076404475,0.09973119,0.11167195,0.123194784,0.1255306,0.12796055,0.1258792,0.124983616,0.12847424,0.13224147,0.1343393,0.13440953,0.13989511,0.14018913,0.14777274,0.15281695,0.15460223,0.1555881,0.15618502,0.15546373,0.1582772,0.15796846,0.16336119,0.1626386,0.16457039,0.17029952,0.16934785,0.17085695,0.17569861,0.1796409,0.18024017,0.1831787,0.18511699,0.1845745,0.18040992,0.18563735,0.18637514,0.18794616,0.18254885,0.1836734,0.1881183,0.19037141,0.18719073,0.18842533,0.18985815,0.19273996,0.19054312,0.19425641,0.19857673,0.19809917,0.20684257,159
0.08076004,0.122644976,0.116469406,0.13232934,0.14858055,0.16551723,0.16115397,0.16859134,0.1502523,0.14328583,0.142855,0.16608693,0.15538053,0.1586234,0.15640622,0.1679805,0.1469263,0.1654066,0.16534242,0.18531585,0.20241484,0.20589343,0.18829502,0.19997993,0.1902625,0.20286065,0.22388513,0.21743797,0.20831953,0.2014011,0.21052663,0.22370486,0.23044038,0.2546208,0.22651806,0.25119233,0.2379255,0.21951917,0.2360103,0.24934153,0.2348389,0.23221141,0.24293354,0.24404587,0.2763631,0.24889947,0.26679617,0.27382615,0.26172245,0.2793906,0.26547828,175
-0.08421749,-0.08613534,-0.116039015,-0.11607606,-0.11607528,-0.11607356,-0.11607356,-0.11607356,-0.11607356,-0.11607356,-0.11607356,-0.11596585,-0.11596585,-0.11596585,-0.11694121,-0.11694091,-0.11715697,-0.11108233,-0.10863694,-0.11014788,-0.10805491,-0.10355318,-0.102536984,-0.1057367,-0.10464613,-0.10799925,-0.102063805,-0.10716209,-0.10950816,-0.13217254,-0.13964374,-0.13675934,-0.1497324,-0.13686007,-0.15088639,-0.14979818,-0.1496468,-0.13105148,-0.15105502,-0.15285824,-0.16624361,-0.1513059,-0.15126467,-0.1723392,-0.17788136,-0.17478819,-0.15828553,-0.17043051,-0.18026687,-0.1828162,-0.18824954,44
0.071015924,0.117399156,0.10318239,0.10663791,0.118546635,0.13904616,0.15126947,0.15633315,0.161243,0.14403404,0.15053147,0.14787255,0.14899391,0.14936873,0.14731288,0.1487168,0.13314152,0.1480403,0.15169117,0.1572971,0.18070197,0.1689581,0.16955155,0.18595812,0.19288865,0.19029334,0.19539945,0.18911625,0.1935283,0.1926925,0.19279535,0.19069731,0.19257346,0.21848829,0.18518347,0.20445123,0.19798568,0.2030434,0.1920933,0.21643157,0.22718242,0.22040789,0.20540233,0.2144689,0.22202979,0.21764877,0.24147008,0.24038114,0.27559882,0.25949007,0.244058,85
-0.11069129,-0.11707373,-0.09364734,-0.098725796,-0.08843398,-0.09630358,-0.084482014,-0.08407689,-0.08501533,-0.08643495,-0.08480615,-0.087480396,-0.08884237,-0.08774363,-0.09059381,-0.09401601,-0.09345866,-0.083856076,-0.08254605,-0.08786186,-0.09375016,-0.08941731,-0.09445259,-0.102205835,-0.0928912,-0.08640524,-0.08932812,-0.093013376,-0.092410624,-0.09459514,-0.083046004,-0.08441426,-0.08047987,-0.07547132,-0.091137506,-0.07976447,-0.07376318,-0.07717399,-0.0783187,-0.08508157,-0.08852265,-0.083466806,-0.08599914,-0.08559074,-0.08306669,-0.08559675,-0.08286572,-0.08782668,-0.06591776,-0.07438474,-0.06876037,198
0.06846326,0.0753868,0.08589131,0.07585336,0.071412705,0.06834858,0.07954185,0.077316515,0.06404258,0.07121327,0.086168215,0.07161932,0.070908464,0.07850469,0.062734716,0.061903786,0.08433499,0.07473614,0.06830523,0.079164,0.07303337,0.086474404,0.08231322,0.09107237,0.09023647,0.09264414,0.099121235,0.109700486,0.1143463,0.111241564,0.121590994,0.098157935,0.09771296,0.112008624,0.11033955,0.10822951,0.11050165,0.1324348,0.12706873,0.10456274,0.11212583,0.11705614,0.102146596,0.095354624,0.10814682,0.10383511,0.10523957,0.1182796,0.11223262,0.10762652,0.12036587,60
-0.1288981,-0.1424914,-0.14247772,-0.14247772,-0.14246713,-0.17634942,-0.14974268,-0.14891838,-0.1742294,-0.17274529,-0.16183613,-0.17358357,-0.18900216,-0.18502639,-0.20824702,-0.1950623,-0.22030574,-0.22339359,-0.22437468,-0.22692643,-0.23416762,-0.2575146,-0.25765777,-0.254783,-0.25142545,-0.2560736,-0.27713224,-0.29010528,-0.28746304,-0.27603546,-0.30071235,-0.26543435,-0.28369975,-0.29381707,-0.28566054,-0.2883891,-0.3086596,-0.30514166,-0.31499374,-0.317983,-0.29532316,-0.29661813,-0.32075024,-0.32732445,-0.3163462,-0.31462768,-0.31819594,-0.32815966,-0.30899185,-0.3174172,-0.31783205,12
-0.07657046,-0.074515864,-0.08055351,-0.078160495,-0.07576008,-0.077627264,-0.072064824,-0.07033457,-0.06880727,-0.067015305,-0.06840874,-0.07456775,-0.072173245,-0.06812608,-0.062663145,-0.06879777,-0.068408825,-0.06909162,-0.06876028,-0.06853137,-0.068575256,-0.0664894,-0.06397509,-0.062231906,-0.064086296,-0.06572772,-0.06595936,-0.061651435,-0.062356256,-0.06730828,-0.062490184,-0.06126578,-0.058155358,-0.058188614,-0.061214287,-0.05946729,-0.0630231,-0.055772454,-0.06257673,-0.05832813,-0.055031493,-0.05292132,-0.05219405,-0.06331487,-0.05664869,-0.062851414,-0.054358922,-0.06276709,-0.056474354,-0.05975794,-0.06350801,15
0.04279964,0.03858839,0.03858839,0.05157394,0.05132988,0.051552646,0.052978422,0.05266734,0.054409258,0.050554823,0.05138537,0.046258107,0.048379965,0.04478329,0.0444331,0.044483446,0.037705988,0.048051182,0.04845906,0.04106536,0.04198139,0.04124239,0.04124239,0.046095382,0.046095382,0.046095382,0.050019447,0.034128804,0.034128804,0.034128804,0.034128804,0.034128804,0.034128804,0.034128804,0.034128804,0.034128804,0.034128804,0.034128804,0.034128804,0.034128804,0.034128804,0.034128804,0.034128804,0.034128804,0.034128804,0.034128804,0.034128804,0.034128804,0.034128804,0.034128804,0.034128804,135
0.000986408,-0.020997606,-0.11023129,-0.1300383,-0.12949137,-0.12458854,-0.11929649,-0.13278039,-0.15308924,-0.1393223,-0.14370434,-0.17571396,-0.1752415,-0.13872066,-0.11947671,-0.11688426,-0.13708095,-0.1715729,-0.14599268,-0.15651007,-0.15684244,-0.17360906,-0.1682583,-0.15452039,-0.15754583,-0.14815181,-0.09329628,-0.09419288,-0.093227565,-0.119054705,-0.14253683,-0.13037395,-0.11514293,-0.14314927,-0.14817001,-0.16645329,-0.15563191,-0.17856544,-0.16643149,-0.14011694,-0.14468466,-0.15858318,-0.16617641,-0.1514777,-0.17211366,-0.14043447,-0.15036982,-0.121607415,-0.13579795,-0.15361981,-0.14687712,11
-0.10586366,-0.09870627,-0.09557404,-0.0853381,-0.07070594,-0.07407944,-0.073561005,-0.066409834,-0.021756336,0.004601691,0.020999309,0.025319083,0.049634825,0.053605974,0.061704922,0.07413505,0.06616163,0.07458531,0.076184675,0.0870144,0.08119015,0.09152965,0.0938515,0.09822756,0.09881837,0.118607126,0.106432535,0.10614437,0.113540486,0.12839513,0.119840294,0.119412936,0.12863348,0.12297002,0.13293368,0.12718314,0.12336971,0.12757665,0.11927648,0.13705608,0.13120413,0.1325081,0.13966124,0.1357355,0.1360193,0.14476493,0.13860321,0.14684182,0.14562023,0.1543542,0.14973377,176
0.07855175,0.076795846,0.07684944,0.0766902,0.05470153,0.05470153,0.05470153,0.05470153,0.05470153,0.05470153,0.05470153,0.05470153,0.05470153,0.05470153,0.05470153,0.05470153,0.05470153,0.05470153,0.05470153,0.05470153,0.05470153,0.05470153,0.05470153,0.05470153,0.05470153,0.05470153,0.05470153,0.05470153,0.05470153,0.05470153,0.05470153,0.05470153,0.05470153,0.05470153,0.05470153,0.05470153,0.05470153,0.05470153,0.05470153,0.05470153,0.05470153,0.05470153,0.05470153,0.05470153,0.05470153,0.05470153,0.05470153,0.05470153,0.05470153,0.05470153,0.05470153,169
0.03957944,0.024361184,-0.006631958,-0.017771795,-0.022909727,-0.020069258,-0.024907747,-0.031063344,-0.036175974,-0.043409422,-0.050912358,-0.05143234,-0.05200148,-0.05764841,-0.061178096,-0.06458682,-0.06593008,-0.06993506,-0.069620594,-0.07440687,-0.07833019,-0.08130751,-0.08137586,-0.08873012,-0.08665392,-0.09421278,-0.09483462,-0.09397779,-0.09306569,-0.101230875,-0.10030596,-0.10101819,-0.10491105,-0.10585543,-0.10927506,-0.10788442,-0.10726703,-0.11494809,-0.117262736,-0.115193844,-0.11883133,-0.12023911,-0.11518232,-0.11931559,-0.122728996,-0.12328126,-0.123002626,-0.11952076,-0.1220395,-0.121571004,-0.12877733,76
0.06878873,0.071804196,0.0678121,0.073999375,0.07748608,0.07958496,0.07981387,0.0772742,0.07991959,0.08339486,0.082734905,0.08139934,0.08150503,0.07933239,0.079221494,0.082543865,0.08155775,0.080037735,0.08217317,0.081805244,0.0840138,0.08040805,0.08562509,0.08272812,0.0869921,0.08528352,0.08768609,0.09085816,0.084320314,0.08357073,0.07659324,0.080136,0.08191415,0.08382225,0.081511945,0.08210441,0.08040303,0.08515035,0.083939224,0.08759624,0.08367483,0.08103159,0.0825089,0.08069491,0.08015105,0.07976881,0.082440384,0.07943685,0.08003476,0.08384674,0.08342865,86
-0.066323794,-0.08694824,-0.08785856,-0.088440016,-0.08882717,-0.089275375,-0.08935761,-0.090255655,-0.090255655,-0.089905635,-0.08994991,-0.08942664,-0.089446895,-0.08944863,-0.08944863,-0.08897385,-0.08823852,-0.08823852,-0.08875197,-0.08875197,-0.08875197,-0.08875197,-0.08875197,-0.08875197,-0.08875197,-0.08875197,-0.08875197,-0.08875197,-0.08875197,-0.08875197,-0.08875197,-0.08875197,-0.08875197,-0.08875197,-0.08875197,-0.08875197,-0.08875197,-0.08875197,-0.08875197,-0.08875197,-0.08875197,-0.08875197,-0.08875197,-0.08875197,-0.08875197,-0.08875197,-0.08875197,-0.08875197,-0.08875197,-0.08875197,-0.08875197,146
-0.035060693,-0.013933192,0.000997969,0.004589564,0.00463819,0.00324347,0.00343436,0.007882636,0.009140635,0.010609336,0.008448271,0.011085635,0.004528407,0.006021116,0.006602283,0.004321685,0.000374606,-0.001086259,-0.001999721,-0.004159406,-0.008739317,-0.013111521,-0.009044742,-0.011489837,-0.01961142,-0.023501724,-0.021840977,-0.01641585,-0.021865483,-0.019436236,-0.023728354,-0.026143996,-0.026978005,-0.028525267,-0.026256464,-0.027865363,-0.0317713,-0.030020691,-0.031202378,-0.030950576,-0.031414814,-0.035663616,-0.036062915,-0.033648413,-0.032796513,-0.03962732,-0.037638053,-0.036525432,-0.036568504,-0.035886187,-0.040493943,57
0.072028294,0.06474371,0.06520714,0.06410955,0.06265846,0.06666913,0.06130238,0.06348758,0.06097928,0.03538949,0.035389755,0.035389755,0.03543949,0.03543949,0.03549438,0.035687108,0.035510994,0.035559587,0.035654653,-0.002272743,-0.00799629,-0.002759941,-0.022109307,-0.030413354,-0.017793067,-0.010996079,-0.008909502,0.015743213,0.034628727,0.02805237,0.027959293,0.030349312,0.026192848,0.01727253,0.002167608,0.004845624,-0.01601436,0.001920863,-0.028628603,-0.029580403,-0.01806973,-0.029673686,-0.028982854,-0.037847742,-0.042356472,-0.05316965,-0.076101266,-0.06521364,-0.066386044,-0.06669794,-0.058181744,127
-0.1322604,-0.13849334,-0.1442293,-0.1442059,-0.14378296,-0.14222433,-0.14299618,-0.14211923,-0.14189617,-0.14605296,-0.14713746,-0.1488625,-0.14961691,-0.14963368,-0.15021272,-0.18891703,-0.19013213,-0.19060074,-0.19043863,-0.18975191,-0.19030547,-0.1914826,-0.1916736,-0.19180006,-0.19178286,-0.19175072,-0.19180347,-0.19168912,-0.19170368,-0.19170368,-0.19170368,-0.19170368,-0.19170368,-0.19170368,-0.19170368,-0.19170368,-0.19170368,-0.19170368,-0.19170368,-0.19170368,-0.19170368,-0.19170368,-0.19170368,-0.19170368,-0.19170368,-0.19170368,-0.19170368,-0.19170368,-0.19170368,-0.19170368,-0.19170368,62
0.09871502,0.09101966,0.08193968,0.08414527,0.085863255,0.09113846,0.0869368,0.08833277,0.09331661,0.08985083,0.09469595,0.097544506,0.09453682,0.09779884,0.09546444,0.10175245,0.1040627,0.10653252,0.0995769,0.09756542,0.09717655,0.09963742,0.10871684,0.10409131,0.09918613,0.099213086,0.09896345,0.09921305,0.10176079,0.10167057,0.10516913,0.10338122,0.11057688,0.108196326,0.103205845,0.1044809,0.10676883,0.11014829,0.1053236,0.100654,0.10837535,0.10525925,0.10853262,0.105631575,0.10930063,0.11081633,0.118657835,0.11142208,0.11211162,0.123821996,0.124094784,60
0.012863995,0.011423687,0.012186855,0.013508598,0.011275232,0.01102643,0.011291265,0.0101543,0.009993468,0.010007051,0.01024971,0.009845779,0.011814485,0.012355153,0.011412514,0.011412514,0.007683892,0.008557431,0.005783609,0.005783609,0.005783609,0.004978396,-0.001124546,-0.001560782,-0.001223566,-0.001223566,-0.023178244,-0.029717872,-0.029717872,-0.029717872,-0.029717872,-0.029717872,-0.029717872,-0.029717872,-0.029717872,-0.029717872,-0.029717872,-0.029717872,-0.029717872,-0.029717872,-0.029717872,-0.029717872,-0.029717872,-0.029717872,-0.029717872,-0.029717872,-0.029717872,-0.029717872,-0.029717872,-0.029717872,-0.029717872,61
0.034716304,0.0337791,0.033716142,0.033894844,0.034116663,0.003166043,0.003086878,0.003086878,0.003086878,0.003086878,0.003086878,0.003086878,0.003086878,0.003086878,0.003086878,0.003086878,0.003086878,0.003086878,0.003086878,-0.003351596,-0.003351596,-0.003351596,-0.003351596,-0.003351596,-0.003351596,-0.003351596,-0.003351596,-0.003351596,-0.003351596,-0.003351596,-0.003351596,-0.003351596,-0.003351596,-0.003351596,-0.003351596,-0.003351596,-0.003351596,-0.003351596,-0.003351596,-0.003351596,-0.003351596,-0.003351596,-0.003351596,-0.003351596,-0.003351596,-0.003351596,-0.003351596,-0.003351596,-0.003351596,-0.003351596,-0.003351596,16
0.046265922,0.043864727,0.03773367,0.034506414,0.03691288,0.033394758,0.033318218,0.023746172,0.023746172,0.023746172,0.023746172,0.023746172,0.023746172,0.023740731,0.023740731,0.023740731,0.023740731,0.023740731,0.023740731,0.023722928,0.023722928,0.023722928,0.023722928,0.023745297,0.023745714,0.023745714,0.023745714,0.023745714,0.023745714,0.055767946,0.03573093,0.04325667,0.028001012,0.028937947,0.030531364,0.030452602,0.027819516,0.024271246,0.024739208,0.023305742,0.022260014,0.022937912,0.022377202,0.018513951,0.018235771,0.017015671,-0.000163942,-0.016675446,-0.017005218,-0.007731681,-0.03231832,10
-0.03898595,-0.049303766,-0.045567296,-0.056752764,-0.045599323,-0.051118128,-0.046787452,-0.0555474,-0.028166851,-0.037508044,-0.029960303,-0.033249866,-0.044500638,-0.047933064,-0.046701938,-0.035151858,-0.044764113,-0.04077089,-0.046805885,-0.053415008,-0.053642225,-0.053176723,-0.05374468,-0.05374725,-0.05408545,-0.05405836,-0.053772528,-0.02005133,-0.036671057,-0.05113225,-0.04737696,-0.05257581,-0.060758043,-0.06811296,-0.06465954,-0.072149076,-0.079327114,-0.060785316,-0.08779495,-0.084248416,-0.08369476,-0.0847877,-0.082827315,-0.074521504,-0.077771656,-0.06532333,-0.06945148,-0.081353135,-0.060359526,-0.07990801,-0.074561715,119
0.12847537,0.1387336,0.1416018,0.14898422,0.15520874,0.15700817,0.16446513,0.1693739,0.17114252,0.17269747,0.17286903,0.17653695,0.18099627,0.18122385,0.18425983,0.18840572,0.19028874,0.1946963,0.19202308,0.19088638,0.19620784,0.19835408,0.1979985,0.20017967,0.19922584,0.2061129,0.20268674,0.20128664,0.20637567,0.20756705,0.21269889,0.2167761,0.215307,0.2175076,0.2176999,0.22332981,0.22413546,0.22407885,0.22255634,0.2288241,0.23134981,0.23731428,0.24157417,0.23806578,0.23955286,0.24332342,0.2444597,0.24409007,0.24585429,0.24158844,0.25141063,185
-0.08103707,-0.078241184,-0.09445065,-0.10311261,-0.11091682,-0.11427991,-0.118326604,-0.12304125,-0.12976302,-0.1198392,-0.12757456,-0.12194613,-0.127666,-0.1287471,-0.13090187,-0.14028378,-0.14290366,-0.14410488,-0.14145444,-0.14288175,-0.13693695,-0.15001999,-0.14830278,-0.16319764,-0.16599484,-0.16342373,-0.17242597,-0.1606786,-0.18154567,-0.16150178,-0.18781835,-0.1937167,-0.201588,-0.1955488,-0.19774713,-0.19702844,-0.19810575,-0.19604696,-0.1934439,-0.20353894,-0.20096037,-0.21141285,-0.22025141,-0.21908054,-0.2297015,-0.20522696,-0.23931812,-0.23084661,-0.25431672,-0.28746092,-0.2788368,118
0.021578109,0.019531513,0.014336748,0.01681044,0.01537337,0.012904758,0.011493957,0.008398677,0.011257863,0.010859268,0.00982968,0.006530786,0.000937284,0.008987325,0.005507659,0.003283878,0.003947406,0.001276861,0.001641069,-0.003823095,-0.005779702,-0.010252885,-0.008226465,-0.009479657,-0.009536095,-0.015078873,-0.011004099,-0.012272753,-0.012055033,-0.01381146,-0.015306205,-0.011534338,-0.01836635,-0.021459011,-0.01578534,-0.020405477,-0.021952113,-0.017186519,-0.021051811,-0.020893231,-0.024626458,-0.020615907,-0.018118126,-0.021404227,-0.02206115,-0.020954167,-0.02241376,-0.027823579,-0.03157048,-0.028050194,-0.028929582,61
-0.09686316,-0.10031969,-0.10207702,-0.12081864,-0.1338449,-0.12970968,-0.1541654,-0.14646317,-0.14754069,-0.13051431,-0.15412906,-0.16091783,-0.15635213,-0.15888649,-0.18201776,-0.18069611,-0.16484982,-0.16106145,-0.16983715,-0.19269778,-0.1804428,-0.19563524,-0.1538348,-0.20360121,-0.1946319,-0.21271373,-0.21687439,-0.21207538,-0.22252816,-0.21071167,-0.21367088,-0.19172426,-0.1945526,-0.21637319,-0.20715712,-0.20578103,-0.22761975,-0.20985962,-0.21904196,-0.22551452,-0.21991087,-0.21960747,-0.19549748,-0.21003446,-0.20889603,-0.2319176,-0.23757522,-0.19784041,-0.20659524,-0.19525303,-0.1937238,41
0.107126385,0.12200675,0.13231112,0.13317564,0.13726611,0.13665897,0.14758706,0.14709136,0.14562643,0.14105985,0.14164262,0.13708045,0.13512225,0.13600282,0.13380764,0.13111813,0.13009919,0.1317726,0.13248135,0.1274387,0.12516065,0.12504642,0.11875439,0.121327296,0.117576055,0.119122736,0.11723428,0.11773513,0.11535097,0.12061027,0.120996624,0.12278732,0.12265929,0.120502904,0.122012004,0.12479012,0.12216408,0.12304209,0.121703595,0.12363862,0.12062622,0.12506555,0.12984641,0.12378711,0.12612295,0.12681854,0.12549259,0.12664555,0.12780643,0.12966385,0.12846443,28
-0.11083147,-0.13023947,-0.13389002,-0.13832812,-0.14215094,-0.14251845,-0.13824219,-0.14440551,-0.15450455,-0.14511073,-0.15522632,-0.15927568,-0.1597521,-0.15230909,-0.17920125,-0.17392215,-0.17021413,-0.17341654,-0.1936144,-0.18474518,-0.18299893,-0.18806873,-0.17935918,-0.15634333,-0.15948218,-0.15535836,-0.1505337,-0.14005965,-0.14359431,-0.14121282,-0.13885804,-0.13963012,-0.1322915,-0.12765726,-0.12950893,-0.12366163,-0.1276158,-0.12317255,-0.12001832,-0.12090839,-0.12481107,-0.117745444,-0.11835444,-0.119646914,-0.116553254,-0.114054956,-0.11396167,-0.11234961,-0.1145304,-0.11496562,-0.11079407,27
0.12391122,0.107863754,0.123979695,0.12157136,0.12203136,0.12798528,0.12516397,0.11987182,0.12388783,0.12096314,0.12390894,0.123930514,0.12549491,0.121429585,0.11989382,0.11528892,0.1184675,0.11962177,0.117931165,0.11895373,0.116781056,0.11888961,0.12097138,0.12036873,0.1201651,0.11656727,0.120763496,0.12085898,0.1220716,0.12130877,0.119445175,0.11812659,0.11906307,0.12144778,0.12209344,0.12144471,0.123703465,0.123175964,0.11976994,0.119032055,0.12655105,0.12157084,0.123706296,0.12582457,0.12604511,0.12597513,0.12452983,0.12643287,0.12685491,0.12224634,0.12583324,28
0.12437333,0.12836404,0.12870125,0.13160788,0.13791448,0.14525777,0.14981674,0.14955287,0.14997604,0.15639244,0.15358189,0.156118,0.15384874,0.1572944,0.16084187,0.16217838,0.1599392,0.15299354,0.15715931,0.14879572,0.15419959,0.15464579,0.16053875,0.15336049,0.14800723,0.15407069,0.15087874,0.15056616,0.14961879,0.15123236,0.1507267,0.151031,0.14918213,0.14983155,0.14849432,0.14960226,0.15118274,0.15774734,0.14816922,0.1495439,0.1540346,0.15488635,0.15271918,0.15470621,0.15431513,0.15155254,0.15542156,0.15462786,0.15501413,0.15578523,0.16143225,134
-0.042830333,-0.066223934,-0.06129102,-0.0524874,-0.06427737,-0.06846791,-0.06380677,-0.05377931,-0.044777792,-0.037616253,-0.03764379,-0.053273242,-0.04069274,-0.03657501,-0.047176532,-0.023802416,-0.024849638,-0.014728939,-0.024165811,-0.009093575,-0.011454952,-0.007427889,-0.007139693,-0.01552562,-0.016461702,-0.011871459,-0.009625094,-0.006790939,-0.005089275,-0.004306404,-0.009204428,-0.012342197,-0.007779646,-0.003708356,-0.004753794,-0.010411923,-0.005140827,-0.00829594,-0.011766067,-0.005029998,0.001226017,-0.003518253,-0.007880509,-0.007144488,-0.004504041,-0.00313623,0.010359508,-0.002152362,0.006992144,0.003040311,0.002763883,75
-0.016938413,-0.000821333,0.021148546,0.039954275,0.05258251,0.063975304,0.0679694,0.069820285,0.07456645,0.078776665,0.085453674,0.085872136,0.090944484,0.09808897,0.097965814,0.10384765,0.106516734,0.110315725,0.11553392,0.116883196,0.1243158,0.123098075,0.12836343,0.13381557,0.13492817,0.13864216,0.13979109,0.14177436,0.14176211,0.14553025,0.14622211,0.1493448,0.15080218,0.15291987,0.15468913,0.16274889,0.16491999,0.16290264,0.16416188,0.16941531,0.17274682,0.17420812,0.16973364,0.18196698,0.17794923,0.18263677,0.18185093,0.18261334,0.18114959,0.18146737,0.19001245,22
-0.07929877,-0.055347487,-0.059048485,-0.043046184,-0.04377329,-0.034817487,-0.029378714,-0.01761711,-0.027277617,-0.036975753,-0.036837026,-0.020380048,-0.025194878,-0.02078231,-0.022787604,-0.031319506,-0.037684422,-0.022910869,-0.028058704,-0.011941745,-0.012974857,0.000348114,-0.011801652,-0.00625569,-0.018830832,-0.003017413,0.015487779,-0.005280281,-0.012830951,-0.01520596,-0.009150299,-0.005715398,-0.019962674,-0.005002315,-0.026283816,-0.006062821,-0.016510075,-0.04123954,-0.024966609,-0.004951015,-0.020348731,-0.029670296,-0.030434737,-0.04493891,-0.026665002,-0.057839867,-0.04485192,-0.03125241,-0.054080807,-0.029354364,-0.0546459,18
0.08711052,0.08311285,0.05426626,0.054248784,0.054250825,0.054255348,0.054255348,0.054255348,0.054255348,0.054255348,0.054255348,0.054240447,0.054240447,0.054240447,0.054203037,0.054203037,0.054203037,0.056576084,0.0571701,0.056464165,0.06634914,0.05434078,0.05471461,0.05501039,0.054596353,0.053498875,0.05763236,0.057512447,0.08087364,0.07704003,0.074399225,0.07585697,0.08806395,0.079781406,0.08069119,0.081751235,0.086003035,0.10534905,0.1169438,0.1414197,0.114119455,0.116786644,0.14054713,0.14155808,0.14891209,0.13190368,0.11908167,0.12974921,0.13767748,0.11736438,0.1288233,35
0.010738394,0.014676687,-0.003924768,0.003059559,0.010855801,0.02855109,0.04994668,0.050728,0.061815437,0.041043058,0.04948904,0.05238195,0.043837573,0.04686018,0.04458269,0.03077917,0.024209939,0.036504716,0.037380993,0.044504482,0.06330028,0.052065853,0.04518066,0.052253604,0.04041736,0.053052094,0.048833728,0.048887547,0.05158079,0.0534609,0.05134186,0.05030547,0.044875875,0.08641929,0.043625075,0.053419195,0.052347872,0.046022944,0.043670475,0.063835815,0.07299097,0.07463932,0.043832354,0.035513867,0.037120167,0.03289858,0.040885694,0.04405827,0.06434712,0.044280544,0.02281713,56
-0.034483686,-0.02186616,-0.001608268,0.011690271,0.029300708,0.031727374,0.038951777,0.03716795,0.03869285,0.042574953,0.044805627,0.04951692,0.04690724,0.048743673,0.050025318,0.04758402,0.046711378,0.048701417,0.0475187,0.05198156,0.053848263,0.057425786,0.061109196,0.053101894,0.06356223,0.0698977,0.06460869,0.06972341,0.06493804,0.07020383,0.07896506,0.076772034,0.070125505,0.08341827,0.08072072,0.085226625,0.09163901,0.092566326,0.0982678,0.100361675,0.09783262,0.10285202,0.110077694,0.109761216,0.110366166,0.11217009,0.11824672,0.11585715,0.1231129,0.11742496,0.12130391,49
0.019750891,0.011121459,-0.008568137,-0.0156087,-0.026376504,-0.027991708,-0.022446321,-0.030142697,-0.038516954,-0.04846099,-0.06003487,-0.077489056,-0.07958095,-0.08889313,-0.09685333,-0.09833833,-0.0868467,-0.07619757,-0.07736412,-0.08179545,-0.08472569,-0.09438847,-0.096958,-0.08419737,-0.080001086,-0.07204225,-0.09934362,-0.09763071,-0.107347585,-0.11801,-0.11804393,-0.11643089,-0.117423065,-0.11556683,-0.13109267,-0.14573985,-0.16668412,-0.18173972,-0.17604211,-0.1911865,-0.18297169,-0.17236851,-0.20453264,-0.20400186,-0.20325486,-0.23132269,-0.23349878,-0.18657957,-0.20248376,-0.22518387,-0.2501066,63
0.022617334,0.011189121,0.011189121,0.011189121,0.016526373,0.00831248,0.03787413,0.033832073,0.004870601,0.005338768,0.010182532,0.026669744,0.023613395,0.021531764,0.016437914,0.03732089,0.023543056,0.032511592,0.019308142,0.004845482,0.002648939,-0.019922636,-0.022426518,-0.024168903,-0.02870571,-0.016571606,-0.038267177,-0.049560428,-0.06346314,-0.023021316,-0.021050043,-0.005556308,-0.010889604,-0.012013488,0.000541371,0.016226271,-0.002086873,0.006126006,0.001317038,0.000971889,0.020439474,0.009477894,-0.002266383,0.009445908,0.014543179,0.01700847,-0.006829416,-0.01795828,0.002740713,0.013965727,0.001666667,78
0.107677326,0.12189727,0.12641372,0.1317391,0.13037266,0.1304739,0.13562639,0.13690093,0.13774818,0.14936638,0.15589656,0.15194243,0.14859094,0.14672548,0.15302691,0.15268297,0.14722554,0.15656188,0.16620359,0.16591209,0.16763777,0.16783966,0.17252181,0.1679778,0.17041889,0.17224832,0.17480817,0.1816008,0.17923763,0.17333868,0.1832528,0.18169124,0.18281107,0.18651581,0.18521151,0.19474284,0.19034159,0.19508131,0.1879985,0.19419874,0.19167311,0.18292041,0.19205391,0.1846957,0.19982526,0.19023365,0.1977441,0.20122065,0.20883429,0.20584962,0.20002203,159
0.071298175,0.07110278,0.07110278,0.082144335,0.08205964,0.08219597,0.08292766,0.083188646,0.084718816,0.08319691,0.08642087,0.08366679,0.08549323,0.084187984,0.08375336,0.08381877,0.07899289,0.08573445,0.09227278,0.084627956,0.084654234,0.08386214,0.08386214,0.08405682,0.08405682,0.08405682,0.084403284,0.07777868,0.07777868,0.07777868,0.07777868,0.07777868,0.07777868,0.07777868,0.07777868,0.07777868,0.07777868,0.07777868,0.07777868,0.07777868,0.07777868,0.07777868,0.07777868,0.07777868,0.07777868,0.07777868,0.07777868,0.07777868,0.07777868,0.07777868,0.07777868,86
-0.08511206,-0.07805987,-0.09604197,-0.12905975,-0.16673915,-0.1645484,-0.18142147,-0.19752295,-0.22770037,-0.22538987,-0.22168018,-0.2563462,-0.2601877,-0.23574543,-0.27407932,-0.2853047,-0.30409402,-0.32443058,-0.3090382,-0.33602953,-0.35117283,-0.38736668,-0.386727,-0.3659529,-0.36242414,-0.35724512,-0.3102558,-0.35325098,-0.37743455,-0.38610318,-0.41411933,-0.40409124,-0.39385995,-0.3987264,-0.3978951,-0.408617,-0.39230517,-0.3982558,-0.4164498,-0.40077716,-0.4002918,-0.40558308,-0.42346576,-0.42316523,-0.42548236,-0.39217722,-0.40930077,-0.40743503,-0.43692312,-0.43943354,-0.45227727,37
0.011905264,0.009938659,0.011856916,0.01107577,0.013197974,0.011241566,0.011291504,0.015289918,0.041973557,0.061769906,0.0805375,0.08147544,0.09781763,0.11330955,0.12701894,0.14470132,0.13136539,0.14488225,0.14933187,0.15963148,0.14983329,0.16007957,0.16958664,0.17526148,0.18188827,0.19406937,0.18353967,0.18225096,0.19646364,0.20256557,0.19137579,0.18855754,0.19961785,0.19529638,0.20306556,0.19780625,0.19529384,0.20015463,0.19676958,0.21638936,0.20733488,0.20536548,0.21329181,0.21188419,0.21035624,0.21853359,0.21385239,0.22494121,0.22728725,0.23361151,0.22719613,133
-0.036453813,-0.04041362,-0.040132876,-0.041294977,-0.055968154,-0.055968154,-0.055968154,-0.055968154,-0.055968154,-0.055968154,-0.055968154,-0.055968154,-0.055968154,-0.055968154,-0.055968154,-0.055968154,-0.055968154,-0.055968154,-0.055968154,-0.055968154,-0.055968154,-0.055968154,-0.055968154,-0.055968154,-0.055968154,-0.055968154,-0.055968154,-0.055968154,-0.055968154,-0.055968154,-0.055968154,-0.055968154,-0.055968154,-0.055968154,-0.055968154,-0.055968154,-0.055968154,-0.055968154,-0.055968154,-0.055968154,-0.055968154,-0.055968154,-0.055968154,-0.055968154,-0.055968154,-0.055968154,-0.055968154,-0.055968154,-0.055968154,-0.055968154,-0.055968154,131
-0.009612386,-0.005373967,-0.001361706,0.002543486,0.001281125,0.011664761,0.015418571,0.018178746,0.017421212,0.021058446,0.024755495,0.023055138,0.026104296,0.018327653,0.01769657,0.018676773,0.020175325,0.022449648,0.021371668,0.017911863,0.015611226,0.010976499,0.01405664,0.011746874,0.011647847,0.010347283,0.01277197,0.012142572,0.009467945,0.005031942,0.00877141,0.009576503,0.007030423,0.005853178,0.008261189,0.010405167,0.007447942,0.001810295,0.003662869,0.007579023,0.007405508,0.008946481,0.008451509,0.011035055,0.008484749,0.006935117,0.015578876,0.018939959,0.0173247,0.0163946,0.014354764,72
-0.038961098,-0.040522322,-0.05195146,-0.056402996,-0.063052125,-0.06768235,-0.06955689,-0.07443402,-0.07760075,-0.076578036,-0.07914361,-0.08183045,-0.082535826,-0.085773915,-0.08667018,-0.08195732,-0.08435206,-0.08425742,-0.08095539,-0.083957724,-0.07740902,-0.085822366,-0.083682805,-0.085068285,-0.083352365,-0.08119265,-0.08162468,-0.08047726,-0.08540208,-0.08544507,-0.08671335,-0.08478759,-0.08296604,-0.08271111,-0.085325845,-0.082878776,-0.08329281,-0.07731133,-0.081172645,-0.07918446,-0.081869215,-0.084476635,-0.08224661,-0.08198211,-0.081756055,-0.08170514,-0.078518026,-0.07899873,-0.08217219,-0.08172313,-0.07984315,43
-0.008924555,-0.01943039,-0.021302568,-0.024351094,-0.024845319,-0.025524866,-0.025605895,-0.028902132,-0.028902132,-0.0285282,-0.028707594,-0.02814868,-0.028163614,-0.028164921,-0.028164921,-0.0276285,-0.026815934,-0.026815934,-0.028894,-0.028894,-0.028894,-0.028894,-0.028894,-0.028894,-0.028894,-0.028894,-0.028894,-0.028894,-0.028894,-0.028894,-0.028894,-0.028894,-0.028894,-0.028894,-0.028894,-0.028894,-0.028894,-0.028894,-0.028894,-0.028894,-0.028894,-0.028894,-0.028894,-0.028894,-0.028894,-0.028894,-0.028894,-0.028894,-0.028894,-0.028894,-0.028894,145
-0.14857969,-0.1926114,-0.20862131,-0.21774167,-0.22583994,-0.23360689,-0.24588713,-0.24659406,-0.24751988,-0.25168148,-0.25740892,-0.25857857,-0.2680545,-0.2677897,-0.26806524,-0.27620718,-0.28031668,-0.28071418,-0.28392792,-0.2866837,-0.29051644,-0.29328257,-0.29398894,-0.30025458,-0.30636656,-0.31383118,-0.3124775,-0.31237623,-0.3206762,-0.3189783,-0.32549646,-0.33166274,-0.33025783,-0.3339722,-0.33093148,-0.33487743,-0.3380825,-0.33751082,-0.3418633,-0.34001037,-0.34564933,-0.35299832,-0.34947515,-0.3521029,-0.35153508,-0.35800335,-0.35798064,-0.36198947,-0.36029068,-0.35708758,-0.36429816,34
-0.029703777,-0.038537875,-0.038493402,-0.039276738,-0.040695567,-0.038251426,-0.043157063,-0.04258896,-0.047034845,-0.06980548,-0.069804996,-0.069804996,-0.069772534,-0.069772534,-0.06968158,-0.06955578,-0.06960609,-0.06952555,-0.069073915,-0.11650553,-0.1256979,-0.12615009,-0.12482854,-0.12396317,-0.15580763,-0.15166235,-0.14851294,-0.15273376,-0.18971558,-0.1941913,-0.19722101,-0.19801597,-0.2173913,-0.21665813,-0.26214167,-0.26013982,-0.2726909,-0.2760028,-0.29826602,-0.29774123,-0.28186905,-0.3271327,-0.32600352,-0.32548043,-0.33327505,-0.34316066,-0.35103172,-0.34234384,-0.3325787,-0.33572716,-0.32078314,67
-0.008258091,-0.019539893,-0.025301393,-0.025444198,-0.025522146,-0.024126338,-0.025010565,-0.024141176,-0.02319289,-0.024519045,-0.02519455,-0.026943102,-0.027899632,-0.027916329,-0.028192896,-0.05042293,-0.051328864,-0.052007057,-0.05181101,-0.050929554,-0.05134485,-0.051832143,-0.05226953,-0.052408267,-0.052386176,-0.05234899,-0.052352406,-0.052220404,-0.052174672,-0.052174672,-0.052174672,-0.052174672,-0.052174672,-0.052174672,-0.052174672,-0.052174672,-0.052174672,-0.052174672,-0.052174672,-0.052174672,-0.052174672,-0.052174672,-0.052174672,-0.052174672,-0.052174672,-0.052174672,-0.052174672,-0.052174672,-0.052174672,-0.052174672,-0.052174672,152
0.003530755,-0.002809391,-0.00687992,-0.007757414,-0.013669292,-0.010755675,-0.018036302,-0.017758377,-0.020589367,-0.022485819,-0.017364195,-0.017995829,-0.020088488,-0.020796807,-0.02447649,-0.024480237,-0.026698135,-0.026853325,-0.034124155,-0.036862608,-0.03670096,-0.03563719,-0.032593824,-0.03865146,-0.043497194,-0.04253214,-0.043377038,-0.046779208,-0.04583095,-0.050214093,-0.045406893,-0.050105184,-0.047412727,-0.051332034,-0.053357802,-0.05175034,-0.05132368,-0.04833323,-0.052363336,-0.059148297,-0.05338212,-0.054042615,-0.05708538,-0.05869952,-0.061220914,-0.05752025,-0.052466813,-0.062403496,-0.06507562,-0.05844134,-0.05986308,137
0.08256888,0.08099998,0.0809911,0.081336424,0.07854225,0.07819215,0.078341715,0.07705451,0.076891474,0.07689976,0.077011235,0.07662747,0.078187995,0.07593776,0.07548428,0.07548428,0.07541067,0.07587255,0.07356711,0.07356711,0.07356711,0.074078105,0.06572423,0.065408796,0.06380391,0.06380391,0.035682444,0.033365138,0.033365138,0.033365138,0.033365138,0.033365138,0.033365138,0.033365138,0.033365138,0.033365138,0.033365138,0.033365138,0.033365138,0.033365138,0.033365138,0.033365138,0.033365138,0.033365138,0.033365138,0.033365138,0.033365138,0.033365138,0.033365138,0.033365138,0.033365138,194
-0.024852704,-0.026656821,-0.027017375,-0.026245706,-0.026475534,-0.045541402,-0.045719113,-0.045719113,-0.045719113,-0.045719113,-0.045719113,-0.045719113,-0.045719113,-0.04569995,-0.04569995,-0.04569995,-0.04569995,-0.04569995,-0.04569995,-0.045799635,-0.045799635,-0.045799635,-0.045799635,-0.045799635,-0.045799635,-0.045799635,-0.045799635,-0.045799635,-0.045799635,-0.045799635,-0.045799635,-0.045799635,-0.045799635,-0.045799635,-0.045799635,-0.045799635,-0.045799635,-0.045799635,-0.045799635,-0.045799635,-0.045799635,-0.045799635,-0.045799635,-0.045799635,-0.045799635,-0.045799635,-0.045799635,-0.045799635,-0.045799635,-0.045799635,-0.045799635,152
0.05145623,0.056091767,0.05462634,0.05089962,0.050780315,0.049154665,0.051177688,0.04254391,0.04254391,0.04254391,0.04254391,0.04254391,0.04254391,0.042533044,0.042533044,0.042533044,0.042533044,0.042533044,0.042533044,0.042497907,0.042497907,0.042497907,0.042497907,0.042536855,0.04253759,0.04253759,0.04253759,0.04253759,0.04253759,0.07334069,0.054539148,0.052143034,0.04207686,0.04235513,0.041321497,0.04175897,0.040001515,0.039583195,0.039779734,0.039671596,0.039958283,0.04555942,0.052491084,0.0485207,0.048057787,0.044187807,0.046385884,0.02640793,0.02587639,0.032353405,0.025757989,135
0.07302351,0.074473985,0.07474254,0.065575406,0.07597026,0.07308527,0.07757578,0.071261056,0.09052978,0.07629831,0.08135851,0.07786998,0.06311822,0.059313808,0.06159411,0.07367254,0.057935975,0.061550528,0.05561471,0.049201947,0.04901301,0.04918669,0.048227504,0.048221644,0.04787634,0.04791239,0.04895745,0.08159668,0.06623215,0.0550255,0.056838203,0.055719648,0.052735463,0.04614565,0.0489303,0.044383526,0.042709623,0.06762929,0.0391696,0.04840759,0.048237488,0.047365148,0.046738837,0.0630896,0.065837614,0.08476247,0.08140649,0.073680595,0.10890985,0.08664947,0.09163834,151
-0.09574247,-0.11473431,-0.12712958,-0.12945676,-0.13103348,-0.13612191,-0.13649876,-0.13788016,-0.13807881,-0.14286573,-0.1468356,-0.14809509,-0.14837739,-0.15146643,-0.15241991,-0.15367128,-0.1555792,-0.15415053,-0.15852043,-0.16617264,-0.16379939,-0.16545999,-0.17077392,-0.17136113,-0.17668284,-0.17123814,-0.17718379,-0.18400954,-0.18610054,-0.18897913,-0.1874558,-0.18894629,-0.19523121,-0.19569083,-0.19824263,-0.19632037,-0.20340574,-0.2044399,-0.20849925,-0.20621833,-0.20783225,-0.20458008,-0.20159927,-0.20740673,-0.21285744,-0.21271081,-0.21584237,-0.21698363,-0.21915942,-0.21974267,-0.21959718,32
0.07938314,0.07533096,0.070470065,0.06428578,0.057225667,0.06237109,0.059437137,0.062073953,0.05747155,0.06794493,0.059404027,0.06169124,0.056750417,0.05604056,0.060152054,0.059736058,0.06082923,0.06472238,0.06899482,0.07120019,0.080845036,0.08435132,0.08869017,0.089591146,0.075221315,0.084905386,0.08195096,0.0995948,0.090799816,0.11630659,0.09523273,0.088818446,0.0810099,0.10310193,0.10366237,0.1061206,0.10279927,0.10360601,0.10807426,0.09148367,0.10961277,0.11084755,0.09786988,0.10670561,0.10872812,0.14078179,0.1262105,0.12920177,0.13329749,0.10798395,0.13326825,35
0.07652071,0.0760249,0.07948183,0.086748175,0.09127771,0.09546916,0.098346926,0.10067286,0.10466025,0.10651868,0.10881301,0.11326425,0.11040258,0.119482614,0.12016409,0.12773052,0.12846012,0.13055088,0.13383748,0.13196947,0.13681151,0.1366343,0.1394276,0.13970277,0.14352678,0.140796,0.14617798,0.14671749,0.1493974,0.1528983,0.15254286,0.15614316,0.15165834,0.15331075,0.15911222,0.16129331,0.16063914,0.16413124,0.16483828,0.1651898,0.16422066,0.1677152,0.1713105,0.16546708,0.1692355,0.17214747,0.16806953,0.1647836,0.16313231,0.1692332,0.16625103,87
0.112185135,0.10472915,0.11087851,0.13394177,0.15193805,0.15307605,0.14001048,0.15524697,0.15610722,0.18002352,0.16113462,0.16139092,0.15504968,0.16465273,0.14560421,0.14844905,0.16690472,0.17729452,0.16740048,0.1534994,0.17212908,0.15231666,0.1814324,0.16744092,0.18655504,0.18738173,0.18382876,0.18790583,0.18511875,0.18714404,0.18900873,0.20713328,0.2166577,0.20275076,0.21448714,0.22685196,0.21240713,0.23302637,0.22277951,0.21885128,0.22595383,0.22340363,0.24343978,0.23783869,0.24457528,0.22343755,0.22101693,0.25773782,0.25244078,0.23880477,0.25287187,85
-0.05155112,-0.07192262,-0.07049372,-0.07452897,-0.07443294,-0.07682628,-0.07112138,-0.07428068,-0.07392072,-0.08156362,-0.0814054,-0.08443213,-0.08983003,-0.08144567,-0.08674386,-0.088415936,-0.085394666,-0.08741049,-0.081999086,-0.08785741,-0.09058563,-0.09005156,-0.09643564,-0.09321624,-0.094448976,-0.09369922,-0.09694776,-0.0931655,-0.09617672,-0.0939578,-0.09253601,-0.086659625,-0.09076158,-0.094250865,-0.092119806,-0.08914544,-0.09294742,-0.09298958,-0.09285986,-0.09191754,-0.093222275,-0.09141546,-0.08834139,-0.09181814,-0.09037943,-0.089141674,-0.09570948,-0.093634754,-0.09116061,-0.088917464,-0.092744246,146
0.097274624,0.08217359,0.08403154,0.082342096,0.07458306,0.073809795,0.080562264,0.07538016,0.06696528,0.08151624,0.06645563,0.06352307,0.06030383,0.06957487,0.049416978,0.056622025,0.061133917,0.057471942,0.03876246,0.049087655,0.044997916,0.038168855,0.04534832,0.06606298,0.058792762,0.05898842,0.060168996,0.061399106,0.056623764,0.05670507,0.063848056,0.05792865,0.07985534,0.08088351,0.074951716,0.08201488,0.08050734,0.07715145,0.0776885,0.077140704,0.074860096,0.07777352,0.079827234,0.078101434,0.08315968,0.08247468,0.0839414,0.088410236,0.08720476,0.08732329,0.09085278,151
-0.06189413,-0.07747534,-0.06633287,-0.07349765,-0.075522475,-0.06971851,-0.06525386,-0.06881301,-0.06594548,-0.06709867,-0.060823716,-0.0621562,-0.058588054,-0.05882493,-0.05937604,-0.061729476,-0.057258256,-0.05475217,-0.053638626,-0.05125454,-0.05254207,-0.051677648,-0.04533578,-0.047046047,-0.047014166,-0.05140878,-0.048705358,-0.048360273,-0.047191575,-0.045733187,-0.04418442,-0.047114294,-0.048600454,-0.045604263,-0.04871001,-0.050308857,-0.044486526,-0.04748772,-0.04735338,-0.047183275,-0.042249266,-0.04732383,-0.045595244,-0.044785757,-0.04440498,-0.04474516,-0.04327543,-0.041789323,-0.04003479,-0.047017585,-0.044892486,70
0.074516885,0.06528947,0.059036538,0.053030416,0.0507585,0.053898,0.050614458,0.044773854,0.044103973,0.046941746,0.03972627,0.034967575,0.031925235,0.033291135,0.033710722,0.027675794,0.026393311,0.019346604,0.021145837,0.008395707,0.01189396,0.014032865,0.02169739,0.012298284,0.003830573,0.008703438,0.007937068,0.009337106,0.006542026,0.009119879,0.007946226,0.002213316,0.005165059,0.005958419,0.001748707,-0.000279843,-5.90E-05,0.007239956,-0.001779903,-0.001064307,0.004781297,0.00275235,0.003809609,0.00062663,0.002683989,0.000452187,0.001215714,-0.000574025,0.001350154,0.005760645,0.00670137,10
-0.062884785,-0.11385763,-0.1095995,-0.09268075,-0.09731937,-0.104814,-0.09498828,-0.09325065,-0.09311076,-0.083926156,-0.08939033,-0.09448984,-0.07654375,-0.069615655,-0.076967806,-0.063392654,-0.088323124,-0.06960192,-0.07556231,-0.063333996,-0.06310137,-0.060741395,-0.05563087,-0.066972606,-0.07605576,-0.08090216,-0.073915266,-0.07523195,-0.0751034,-0.07390225,-0.079906635,-0.08287501,-0.08236886,-0.07654876,-0.080077015,-0.0744585,-0.07416437,-0.07502519,-0.083569914,-0.075037204,-0.06860008,-0.0790774,-0.082746826,-0.083483584,-0.075390846,-0.080584176,-0.061429765,-0.071610525,-0.06359175,-0.075546965,-0.07486332,43
0.059007347,0.069258,0.0849567,0.107539125,0.11674193,0.13015555,0.13856632,0.14429703,0.15087274,0.1573532,0.16583659,0.17053337,0.1769397,0.17899996,0.18366033,0.19054809,0.19007982,0.19597922,0.19697647,0.20119345,0.20662673,0.20697881,0.21113381,0.21311876,0.21609664,0.21979748,0.22308244,0.22323447,0.22587901,0.22830465,0.22997129,0.23389159,0.23568578,0.23433788,0.23624538,0.24484722,0.24619226,0.24587642,0.24325609,0.24485329,0.2506418,0.2549968,0.25092486,0.25684214,0.25427833,0.25603402,0.25780317,0.25854594,0.2589363,0.25897124,0.26402614,175
0.015370547,0.040925138,0.036072604,0.051885962,0.061285444,0.065253794,0.066738315,0.07527133,0.06437286,0.055176448,0.056033466,0.07627275,0.07347439,0.0780153,0.07426284,0.06879913,0.058509722,0.07284091,0.07341353,0.093529105,0.095896736,0.107408114,0.09789221,0.103763886,0.0907079,0.10609375,0.12612668,0.107337825,0.10103293,0.09633512,0.10551469,0.10933319,0.099389166,0.112854555,0.09321351,0.11517631,0.102673635,0.080892324,0.09715169,0.11936206,0.10873397,0.097694956,0.1019604,0.09956624,0.12266318,0.095434576,0.109764,0.1288085,0.10873403,0.13843854,0.12639263,35
-0.059697263,-0.063786924,-0.09855841,-0.0986086,-0.09860669,-0.09860244,-0.09860244,-0.09860244,-0.09860244,-0.09860244,-0.09860244,-0.09843035,-0.09843035,-0.09843035,-0.09856069,-0.09856069,-0.09856069,-0.09524655,-0.08622675,-0.08673846,-0.082498565,-0.0635775,-0.062441293,-0.06835394,-0.06854423,-0.07341746,-0.06903194,-0.07801973,-0.07851853,-0.097586274,-0.10419886,-0.10266407,-0.108521804,-0.117555946,-0.1250631,-0.1261225,-0.12572698,-0.12694874,-0.14208111,-0.117175706,-0.1309727,-0.12874137,-0.11803808,-0.13152526,-0.12989488,-0.12712045,-0.12735626,-0.14532366,-0.14764078,-0.14722042,-0.14730357,84
0.03867362,0.042335384,0.023146959,0.024801314,0.029579982,0.03842831,0.05159936,0.048116762,0.052103784,0.034976393,0.042934146,0.044996336,0.037715938,0.040577464,0.036882654,0.025376143,0.017085314,0.028990058,0.037341323,0.042441934,0.06317461,0.051619697,0.046776183,0.056005955,0.049315415,0.06366736,0.05952535,0.056852873,0.06309961,0.06199865,0.064916104,0.06165009,0.060592543,0.100914314,0.057754915,0.07294094,0.07034816,0.07472417,0.07264894,0.09401305,0.10712962,0.1042508,0.07878952,0.078089714,0.08729856,0.082549036,0.09374965,0.10009327,0.12236496,0.111796096,0.09314248,30
0.07536843,0.08205142,0.1037484,0.1076754,0.12133429,0.12050393,0.12754506,0.12524398,0.12683111,0.12820986,0.13302504,0.13738346,0.13500004,0.13857675,0.13982373,0.13368963,0.12770654,0.13067423,0.1354177,0.13394348,0.1344825,0.13765971,0.13622414,0.13457063,0.1457253,0.15012942,0.14813593,0.15099941,0.14498624,0.14707288,0.15506214,0.15057243,0.15540636,0.16513842,0.15496878,0.1594438,0.17149554,0.1660561,0.1730752,0.18002637,0.17771873,0.18550982,0.1916883,0.19382828,0.19231498,0.19075549,0.19832338,0.188333,0.20349464,0.19468877,0.19736819,184
-0.019378848,-0.017339718,-0.019215835,-0.016465638,-0.026479822,-0.030959759,-0.027504133,-0.02765295,-0.04377469,-0.036407914,-0.027205804,-0.04577912,-0.052269295,-0.04169297,-0.05353814,-0.057622567,-0.0384953,-0.071095094,-0.07526298,-0.081995614,-0.084619276,-0.073762305,-0.08243748,-0.08169595,-0.07870568,-0.084593914,-0.08212589,-0.072529584,-0.08479281,-0.09273204,-0.08075522,-0.11462012,-0.11117193,-0.09767526,-0.10335044,-0.099190935,-0.08463001,-0.070572495,-0.06618113,-0.08866959,-0.08658801,-0.064768806,-0.07734918,-0.079727456,-0.07645811,-0.07247657,-0.059178114,-0.06097189,-0.088595845,-0.09117677,-0.07908551,59
-0.11512471,-0.12876886,-0.12876886,-0.12876886,-0.124560885,-0.119832516,-0.11812318,-0.15575331,-0.17880453,-0.17800538,-0.17106783,-0.15387435,-0.16310635,-0.15109704,-0.17246847,-0.12961017,-0.14601277,-0.13879646,-0.16101994,-0.15860452,-0.15305462,-0.1752606,-0.16962555,-0.2028962,-0.21099113,-0.2104235,-0.23300003,-0.25118428,-0.265429,-0.22165424,-0.24015464,-0.21461803,-0.22535467,-0.225883,-0.20079537,-0.19885956,-0.22868739,-0.21735917,-0.23958151,-0.2351002,-0.22641578,-0.2475979,-0.2697411,-0.26823217,-0.25011683,-0.23085928,-0.26122442,-0.28745088,-0.28778332,-0.27478772,-0.2835075,20
0.019788524,0.008167176,-0.005711306,-0.006707899,-0.010236809,-0.023923019,-0.02470588,-0.025052868,-0.028056726,-0.016586784,-0.022738237,-0.027063051,-0.03872128,-0.041850127,-0.052621357,-0.050847437,-0.066107824,-0.069851466,-0.0568046,-0.0649117,-0.069318034,-0.07457017,-0.08550531,-0.091591954,-0.080170445,-0.089310884,-0.08507075,-0.08404723,-0.09182236,-0.099126756,-0.08708261,-0.085783646,-0.075595394,-0.07327824,-0.09060577,-0.07597639,-0.066939004,-0.060126536,-0.07728377,-0.07306534,-0.06855359,-0.06460419,-0.061578844,-0.08098989,-0.06152014,-0.075807326,-0.07477833,-0.09297617,-0.08611591,-0.091420904,-0.098859504,150
-0.10283597,-0.104477085,-0.104477085,-0.11326699,-0.11329756,-0.113301575,-0.113139085,-0.11292764,-0.11272032,-0.11317104,-0.112792395,-0.11263865,-0.111998215,-0.11208027,-0.1121177,-0.11211256,-0.11283172,-0.11139038,-0.11031807,-0.1149489,-0.11486776,-0.11536746,-0.11536746,-0.11465946,-0.11465946,-0.11465946,-0.114074424,-0.13328889,-0.13328889,-0.13328889,-0.13328889,-0.13328889,-0.13328889,-0.13328889,-0.13328889,-0.13328889,-0.13328889,-0.13328889,-0.13328889,-0.13328889,-0.13328889,-0.13328889,-0.13328889,-0.13328889,-0.13328889,-0.13328889,-0.13328889,-0.13328889,-0.13328889,-0.13328889,-0.13328889,105
-0.077728726,-0.090625234,-0.11433481,-0.12645154,-0.1543401,-0.14125249,-0.14999323,-0.16020285,-0.18612848,-0.20390023,-0.20309769,-0.2196854,-0.22287646,-0.19251959,-0.21673763,-0.22664404,-0.2277469,-0.25127614,-0.2402342,-0.24313536,-0.23604043,-0.2531658,-0.25523907,-0.25613663,-0.26303294,-0.2598677,-0.20373054,-0.22456057,-0.24293001,-0.2933411,-0.31561533,-0.316987,-0.29380494,-0.29988974,-0.29559872,-0.30543593,-0.29183528,-0.29834548,-0.2787424,-0.27149972,-0.26774588,-0.257907,-0.30060932,-0.27670893,-0.31816548,-0.30110663,-0.30214274,-0.30377677,-0.3106273,-0.308092,-0.32281354,21
0.104049645,0.09973486,0.102427214,0.100146554,0.09554704,0.09502498,0.0956375,0.096115306,0.12549812,0.13486739,0.15689747,0.15679634,0.15973374,0.17928958,0.18847676,0.20687483,0.1859632,0.19305678,0.20154962,0.21231622,0.19930471,0.20581315,0.21750788,0.22088328,0.22828574,0.23350859,0.22326562,0.21316981,0.2346778,0.23798758,0.22853112,0.2269137,0.23543735,0.23233117,0.2404264,0.24314947,0.2412294,0.24822941,0.24338757,0.2589784,0.25272274,0.245486,0.25420886,0.25724852,0.25557685,0.26071692,0.25112498,0.25883183,0.26840115,0.27515486,0.26721665,171
