Id,Epoch:0,Epoch:1,Epoch:2,Epoch:3,Epoch:4,Epoch:5,Epoch:6,Epoch:7
0,-0.071,-0.071,-0.071,-0.071,-0.071,-0.071,-0.071,-0.071
1,-0.0561,-0.0561,-0.0561,-0.0561,-0.0561,-0.0561,-0.0561,-0.0561
2,0.0534,0.0534,0.0534,0.0534,0.0534,0.0534,0.0534,0.0534
3,-0.0043,-0.0043,-0.0043,-0.0043,-0.0043,-0.0043,-0.0043,-0.0043
4,-0.0678,-0.0678,-0.0678,-0.0678,-0.0678,-0.0678,-0.0678,-0.0678
5,-0.0306,-0.0306,-0.0306,-0.0306,-0.0306,-0.0306,-0.0306,-0.0306
6,0.0033,0.0033,0.0033,0.0033,0.0033,0.0033,0.0033,0.0033
7,-0.0384,-0.0384,-0.0384,-0.0384,-0.0384,-0.0384,-0.0384,-0.0384
8,-0.0485,-0.0485,-0.0485,-0.0485,-0.0485,-0.0485,-0.0485,-0.0485
9,0.0414,0.0414,0.0414,0.0414,0.0414,0.0414,0.0414,0.0414
10,0.014,0.014,0.014,0.014,0.014,0.014,0.014,0.014
11,-0.0511,-0.0511,-0.0511,-0.0511,-0.0511,-0.0511,-0.0511,-0.0511
12,0.0785,0.0785,0.0785,0.0785,0.0785,0.0785,0.0785,0.0785
13,0.0098,0.0098,0.0098,0.0098,0.0098,0.0098,0.0098,0.0098
14,0.0662,0.0662,0.0662,0.0662,0.0662,0.0662,0.0662,0.0662
15,-0.0731,-0.0731,-0.0731,-0.0731,-0.0731,-0.0731,-0.0731,-0.0731
16,-0.0784,-0.0784,-0.0784,-0.0784,-0.0784,-0.0784,-0.0784,-0.0784
17,-0.0787,-0.0787,-0.0787,-0.0787,-0.0787,-0.0787,-0.0787,-0.0787
18,0.0587,0.0587,0.0587,0.0587,0.0587,0.0587,0.0587,0.0587
19,-0.0619,-0.0619,-0.0619,-0.0619,-0.0619,-0.0619,-0.0619,-0.0619
20,0.035,0.035,0.035,0.035,0.035,0.035,0.035,0.035
21,0.0418,0.0418,0.0418,0.0418,0.0418,0.0418,0.0418,0.0418
22,0.0284,0.0284,0.0284,0.0284,0.0284,0.0284,0.0284,0.0284
23,-0.0867,-0.0867,-0.0867,-0.0867,-0.0867,-0.0867,-0.0867,-0.0867
24,0.0088,0.0383,0.066,0.098,0.1263,0.2497,0.27,0.295
25,0.0286,0.0579,0.0791,0.1086,0.1295,0.263,0.2879,0.3134
26,0.0857,0.1154,0.1432,0.178,0.2137,0.3343,0.3407,0.3538
27,-0.0024,0.0273,0.0488,0.0786,0.0998,0.2348,0.2598,0.2854
28,0.0809,0.1106,0.1384,0.1521,0.1716,0.2396,0.216,0.1948
29,-0.0207,0.009,0.0305,0.0604,0.0816,0.2168,0.2418,0.2674
30,0.0116,0.0411,0.0688,0.0823,0.1016,0.1693,0.1461,0.1253
31,-0.0561,-0.0268,-0.0057,0.0237,0.0447,0.178,0.2029,0.2283
32,-0.0218,-0.0218,-0.0218,-0.0218,-0.0218,-0.0218,-0.0218,-0.0218
33,0.0543,0.0543,0.0543,0.0543,0.0543,0.0543,0.0543,0.0543
34,0.0799,0.0799,0.0799,0.0799,0.0799,0.0799,0.0799,0.0799
35,-0.012,-0.012,-0.012,-0.012,-0.012,-0.012,-0.012,-0.012
36,-0.0008,-0.0008,-0.0008,-0.0008,-0.0008,-0.0008,-0.0008,-0.0008
37,0.0237,0.0237,0.0237,0.0237,0.0237,0.0237,0.0237,0.0237
38,0.04,0.04,0.04,0.04,0.04,0.04,0.04,0.04
39,-0.0729,-0.0729,-0.0729,-0.0729,-0.0729,-0.0729,-0.0729,-0.0729
40,0.0309,0.0309,0.0309,0.0309,0.0309,0.0309,0.0309,0.0309
41,-0.012,-0.012,-0.012,-0.012,-0.012,-0.012,-0.012,-0.012
42,-0.0527,-0.0527,-0.0527,-0.0527,-0.0527,-0.0527,-0.0527,-0.0527
43,0.0813,0.0813,0.0813,0.0813,0.0813,0.0813,0.0813,0.0813
44,0.0223,0.0223,0.0223,0.0223,0.0223,0.0223,0.0223,0.0223
45,0.0122,0.0122,0.0122,0.0122,0.0122,0.0122,0.0122,0.0122
46,0.0846,0.0846,0.0846,0.0846,0.0846,0.0846,0.0846,0.0846
47,0.0795,0.0795,0.0795,0.0795,0.0795,0.0795,0.0795,0.0795
48,0.0531,0.0531,0.0531,0.0531,0.0531,0.0531,0.0531,0.0531
49,0.0825,0.0825,0.0825,0.0825,0.0825,0.0825,0.0825,0.0825
50,0.024,0.024,0.024,0.024,0.024,0.024,0.024,0.024
51,0.0504,0.0504,0.0504,0.0504,0.0504,0.0504,0.0504,0.0504
52,0.0137,0.0137,0.0137,0.0137,0.0137,0.0137,0.0137,0.0137
53,0.0616,0.0616,0.0616,0.0616,0.0616,0.0616,0.0616,0.0616
54,-0.0792,-0.0792,-0.0792,-0.0792,-0.0792,-0.0792,-0.0792,-0.0792
55,0.0493,0.0493,0.0493,0.0493,0.0493,0.0493,0.0493,0.0493
56,-0.0056,-0.0056,-0.0056,-0.0056,-0.0056,-0.0056,-0.0056,-0.0056
57,0.0321,0.0321,0.0321,0.0321,0.0321,0.0321,0.0321,0.0321
58,-0.0112,-0.0112,-0.0112,-0.0112,-0.0112,-0.0112,-0.0112,-0.0112
59,-0.0744,-0.0744,-0.0744,-0.0744,-0.0744,-0.0744,-0.0744,-0.0744
60,0.0173,0.0173,0.0173,0.0173,0.0173,0.0173,0.0173,0.0173
61,0.0299,0.0299,0.0299,0.0299,0.0299,0.0299,0.0299,0.0299
62,-0.0558,-0.0558,-0.0558,-0.0558,-0.0558,-0.0558,-0.0558,-0.0558
63,-0.0864,-0.0864,-0.0864,-0.0864,-0.0864,-0.0864,-0.0864,-0.0864
64,0.0425,0.0425,0.0735,0.0869,0.0944,0.1572,0.1587,0.1618
65,-0.0111,-0.0111,-0.0111,-0.0111,-0.0111,-0.0111,-0.0111,-0.0111
66,-0.0611,-0.0611,-0.0301,-0.0166,-0.0091,0.0827,0.0936,0.1115
67,-0.0457,-0.0457,-0.0457,-0.0457,-0.0457,-0.0457,-0.0457,-0.0457
68,-0.0182,-0.0182,0.0127,0.0563,0.0915,0.248,0.2739,0.3036
69,-0.0019,-0.0754,-0.0972,-0.0987,-0.1009,-0.2141,-0.2148,-0.2314
70,-0.0209,0.0256,0.0673,0.14,0.1783,0.4415,0.4685,0.4948
71,-0.0191,-0.0913,-0.113,-0.1314,-0.1562,-0.3155,-0.3094,-0.2987
72,0.0757,0.1536,0.2295,0.3137,0.3746,0.717,0.7421,0.7524
73,0.0064,-0.0632,-0.1077,-0.1616,-0.196,-0.4341,-0.4248,-0.4063
74,0.0605,0.1345,0.2317,0.3259,0.3931,0.7799,0.8091,0.8345
75,-0.0973,-0.1546,-0.2194,-0.2656,-0.3038,-0.5299,-0.5205,-0.5057
76,-0.0568,0.0276,0.1574,0.259,0.317,0.7671,0.8261,0.8633
77,0.0011,-0.0444,-0.0948,-0.1149,-0.1231,-0.2256,-0.1866,-0.15
78,-0.0138,0.0491,0.2103,0.3436,0.4448,0.9395,0.9687,0.9885
79,-0.1003,-0.1547,-0.1662,-0.1673,-0.1538,-0.1779,-0.1299,-0.0793
80,-0.0905,-0.0247,0.168,0.3321,0.4514,1.0753,1.1074,1.1362
81,-0.0411,-0.1071,-0.1291,-0.1564,-0.1804,-0.3201,-0.2989,-0.2961
82,-0.0692,0.0095,0.2185,0.3786,0.494,1.099,1.1083,1.1106
83,-0.0343,-0.0937,-0.0888,-0.0825,-0.0887,-0.1024,-0.0406,0.0048
84,0.0181,0.0094,0.1276,0.2395,0.2671,0.5016,0.4391,0.3835
85,-0.0873,-0.0992,-0.0584,-0.0079,0.0369,0.2274,0.2839,0.3294
86,0.0002,0.0096,0.1285,0.2317,0.2928,0.586,0.562,0.5397
87,-0.0965,-0.0567,0.0072,0.0733,0.1398,0.3998,0.4091,0.3964
88,0.0111,0.0832,0.2738,0.4188,0.5268,1.0617,1.0649,1.0337
89,-0.0256,0.0488,0.1209,0.1838,0.2372,0.5507,0.5548,0.5704
90,-0.0622,0.097,0.2757,0.4068,0.4947,1.1064,1.1491,1.1591
91,0.0647,0.0853,0.1142,0.1352,0.1514,0.266,0.2441,0.2295
92,-0.0621,0.0849,0.2189,0.3398,0.4265,0.9694,1.0255,1.0508
93,-0.0433,-0.042,-0.029,-0.0021,0.0211,0.0646,0.015,-0.0289
94,-0.0579,0.0455,0.1264,0.212,0.2579,0.6531,0.6915,0.7275
95,0.0116,0.0116,0.0116,0.0116,0.0116,0.0048,-0.0743,-0.1066
96,0.0333,0.0776,0.1565,0.2025,0.2456,0.5228,0.5626,0.6057
97,-0.0315,-0.0315,-0.0315,-0.0315,-0.0315,-0.0315,-0.0756,-0.1066
98,-0.0194,0.0416,0.0997,0.117,0.1513,0.357,0.3854,0.4181
99,0.0032,0.0032,0.0032,0.0032,0.0032,0.0032,-0.0268,-0.0572
100,-0.0074,0.0226,0.0638,0.0749,0.0838,0.1887,0.1897,0.1919
101,-0.0858,-0.0858,-0.0858,-0.0858,-0.0858,-0.0858,-0.0858,-0.0858
102,0.0806,0.0806,0.0806,0.0806,0.0806,0.0806,0.0806,0.0806
103,0.001,0.001,0.001,0.001,0.001,0.001,0.001,0.001
104,0.0752,0.0752,0.0752,0.0752,0.0752,0.0752,0.0752,0.0752
105,-0.0549,-0.0549,-0.0549,-0.0549,-0.0549,-0.0549,-0.0549,-0.0549
106,-0.0783,-0.0783,-0.0783,-0.0783,-0.0783,-0.0783,-0.0783,-0.0783
107,-0.0866,-0.0866,-0.0866,-0.0866,-0.0866,-0.0866,-0.0866,-0.0866
108,0.0359,0.0359,0.0359,0.0359,0.0359,0.0359,0.0359,0.0359
109,-0.0557,-0.0557,-0.0557,-0.0557,-0.0557,-0.0557,-0.0557,-0.0557
110,0.0254,0.0254,0.0254,0.0254,0.0254,0.0254,0.0254,0.0254
111,0.0173,0.0173,0.0173,0.0173,0.0173,0.0173,0.0173,0.0173
112,0.0413,0.0413,0.0413,0.0413,0.0413,0.0413,0.0413,0.0413
113,-0.008,-0.008,-0.008,-0.008,-0.008,-0.008,-0.008,-0.008
114,0.0009,0.0009,0.0009,0.0009,0.0009,0.0009,0.0009,0.0009
115,-0.0813,-0.0813,-0.0813,-0.0813,-0.0813,-0.0813,-0.0813,-0.0813
116,0.0718,0.0718,0.1029,0.1293,0.1542,0.2448,0.2613,0.2924
117,-0.0249,-0.0249,-0.0249,-0.0249,-0.0249,-0.0249,-0.0249,-0.0249
118,0.0574,0.0768,0.0975,0.1269,0.1507,0.2682,0.2865,0.2986
119,-0.0796,-0.0796,-0.0796,-0.0796,-0.0796,-0.0796,-0.1058,-0.0743
120,0.0264,0.082,0.1433,0.1781,0.2085,0.411,0.4231,0.4499
121,-0.0825,-0.112,-0.1339,-0.1538,-0.1719,-0.287,-0.3119,-0.3079
122,-0.0697,-0.0659,-0.0437,-0.0426,-0.0435,0.0341,0.0551,0.0678
123,-0.0666,-0.0828,-0.1143,-0.1417,-0.1577,-0.2899,-0.3193,-0.3252
124,-0.0921,-0.0899,-0.0517,0.0136,0.0763,0.31,0.3547,0.397
125,0.0088,-0.047,-0.0805,-0.1093,-0.1372,-0.3332,-0.3406,-0.3457
126,-0.0532,-0.0111,0.0775,0.1825,0.2769,0.6824,0.729,0.7739
127,-0.0577,-0.1606,-0.2178,-0.2459,-0.2759,-0.5288,-0.5093,-0.4866
128,-0.0415,0.0675,0.204,0.3337,0.4401,0.98,0.9857,0.9858
129,-0.0981,-0.2123,-0.2812,-0.3337,-0.3737,-0.676,-0.6388,-0.599
130,-0.096,-0.0349,0.109,0.222,0.286,0.6772,0.65,0.6027
131,-0.0021,-0.086,-0.1355,-0.1677,-0.2,-0.3938,-0.3543,-0.314
132,-0.0766,0.0148,0.2385,0.3794,0.464,1.023,1.0096,0.9889
133,-0.0127,-0.1524,-0.2525,-0.2969,-0.3307,-0.6206,-0.5677,-0.5156
134,-0.1516,-0.0109,0.2816,0.4218,0.5269,1.1583,1.0821,1.0215
135,-0.1422,-0.2835,-0.3709,-0.3897,-0.3935,-0.5887,-0.5107,-0.4427
136,-0.1738,0.0195,0.2882,0.4324,0.5458,1.2239,1.1644,1.112
137,-0.1546,-0.2929,-0.3518,-0.3813,-0.3946,-0.5635,-0.4794,-0.4158
138,-0.0779,0.1352,0.3638,0.5086,0.6095,1.2514,1.211,1.1749
139,-0.1627,-0.3108,-0.352,-0.3671,-0.3781,-0.5079,-0.4429,-0.3858
140,-0.1152,0.113,0.3364,0.466,0.5478,1.1003,1.0138,0.9475
141,-0.147,-0.2546,-0.2555,-0.2297,-0.2181,-0.1773,-0.1193,-0.0586
142,-0.1272,0.1503,0.3609,0.4741,0.5468,1.0852,0.9673,0.8711
143,-0.1917,-0.2513,-0.2143,-0.1656,-0.1403,-0.0121,0.0198,0.0451
144,-0.1761,0.15,0.3723,0.5114,0.6201,1.3691,1.3202,1.2812
145,-0.124,-0.1401,-0.0741,-0.0033,0.043,0.2775,0.2884,0.281
146,-0.193,0.1859,0.4077,0.5756,0.7113,1.5881,1.5583,1.5316
147,-0.0294,-0.0882,-0.0628,-0.0254,0.0048,0.1395,0.1731,0.1892
148,-0.1054,0.2522,0.452,0.5998,0.719,1.5521,1.5278,1.5168
149,-0.1075,-0.204,-0.2084,-0.2054,-0.1864,-0.1635,-0.1049,-0.0683
150,-0.2453,0.0227,0.1713,0.2751,0.3583,1.0134,1.0239,1.0344
151,-0.0881,-0.1685,-0.2009,-0.2235,-0.2308,-0.3311,-0.2908,-0.2633
152,-0.1582,0.0515,0.2049,0.2673,0.3524,0.9272,0.9513,0.9814
153,-0.009,-0.0615,-0.1208,-0.1624,-0.1874,-0.3532,-0.3155,-0.2845
154,-0.0824,0.0432,0.2272,0.2921,0.3882,0.9664,1.0137,1.0615
155,-0.0396,-0.0789,-0.1581,-0.2011,-0.2407,-0.4209,-0.3867,-0.3568
156,-0.0337,0.0489,0.1904,0.2613,0.3783,0.8468,0.8958,0.9351
157,-0.0984,-0.1412,-0.2357,-0.2716,-0.3178,-0.5254,-0.5192,-0.5182
158,-0.0237,0.0226,0.0752,0.1071,0.1704,0.3908,0.4234,0.4527
159,0.0116,-0.0086,-0.0292,-0.049,-0.0632,-0.1169,-0.1037,-0.0853
160,-0.0437,-0.0221,-0.0352,-0.0457,-0.0146,0.0128,0.0397,0.06
161,-0.0874,-0.1094,-0.0996,-0.0867,-0.0706,-0.0261,-0.0003,0.0298
162,-0.0388,-0.0449,-0.0706,-0.0997,-0.0894,-0.1384,-0.1127,-0.0943
163,-0.0776,-0.0776,-0.0465,-0.0179,0.0061,0.1222,0.1496,0.1772
164,0.0329,0.0329,0.0329,0.0329,0.0329,0.0329,0.0329,0.0329
165,-0.0758,-0.0758,-0.0758,-0.0758,-0.0758,-0.0758,-0.0758,-0.0758
166,0.044,0.044,0.044,0.044,0.044,0.044,0.044,0.044
167,0.0132,0.0132,0.0132,0.0132,0.0132,0.0132,0.0132,0.0132
168,-0.0638,-0.0638,-0.0638,-0.0638,-0.0638,-0.0638,-0.0638,-0.0638
169,0.0226,0.0226,0.0226,0.0226,0.0226,0.0226,0.0226,0.0226
170,-0.0713,-0.0713,-0.0713,-0.0713,-0.0713,-0.0713,-0.0713,-0.0713
171,0.0221,0.0221,0.0221,0.0221,0.0221,0.0221,0.0221,0.0221
172,-0.0443,-0.0647,-0.0621,-0.0457,-0.0415,-0.0601,-0.0788,-0.0795
173,0.095,0.1427,0.1678,0.2018,0.2435,0.3921,0.4277,0.4574
174,0.0034,0.0134,0.026,0.0735,0.1056,0.2251,0.2691,0.2931
175,0.0037,0.0342,0.0601,0.0867,0.1133,0.2221,0.2351,0.2965
176,-0.0669,-0.0356,-0.0036,0.0427,0.0848,0.2785,0.3297,0.3643
177,0.0203,-0.0355,-0.0771,-0.1137,-0.1517,-0.3563,-0.3915,-0.4122
178,0.0293,0.0379,0.0401,0.0327,0.0423,0.0778,0.0832,0.0743
179,0.0511,0.093,0.0992,0.0864,0.0713,0.0559,0.0351,0.0423
180,0.0016,-0.0136,-0.0096,0.0209,0.0569,0.1579,0.186,0.2088
181,0.1431,0.1548,0.1806,0.1818,0.1649,0.1426,0.1204,0.1085
182,0.0336,0.0711,0.1138,0.144,0.1781,0.3538,0.3545,0.3621
183,0.0804,0.0758,0.0868,0.0898,0.0809,0.0345,0.0295,0.0317
184,-0.1101,-0.0413,0.0477,0.0987,0.1345,0.4075,0.3788,0.3545
185,0.1499,0.1445,0.1566,0.1394,0.1199,0.042,0.0402,0.0425
186,-0.0564,0.0052,0.1088,0.1524,0.1694,0.3631,0.3099,0.2521
187,0.2269,0.2382,0.231,0.2271,0.2127,0.1646,0.1721,0.1791
188,-0.0979,0.014,0.1409,0.17,0.1759,0.3791,0.3219,0.2841
189,0.0985,0.108,0.0995,0.1247,0.1325,0.1628,0.1836,0.2003
190,-0.0092,0.1488,0.2886,0.289,0.2837,0.4719,0.3912,0.3465
191,0.1769,0.1638,0.1459,0.1662,0.1735,0.154,0.1627,0.1629
192,0.063,0.2433,0.3422,0.3332,0.3125,0.4225,0.3425,0.2987
193,0.115,0.1219,0.1463,0.1849,0.2105,0.3153,0.3367,0.3423
194,0.0556,0.2239,0.3005,0.2861,0.2628,0.3363,0.2897,0.2768
195,0.1892,0.1897,0.2097,0.2411,0.254,0.3197,0.3172,0.3078
196,0.0312,0.1696,0.2236,0.2119,0.2062,0.239,0.198,0.1917
197,0.0911,0.1148,0.1136,0.136,0.1394,0.1702,0.1508,0.1391
198,-0.0767,0.081,0.1114,0.1147,0.1124,0.1746,0.1364,0.1303
199,0.0603,0.0949,0.0777,0.0889,0.1002,0.1133,0.1003,0.0921
200,-0.1167,0.067,0.0962,0.1002,0.0845,0.1554,0.1172,0.1165
201,0.0376,0.0525,0.021,0.0167,0.0243,0.0542,0.0661,0.0733
202,-0.1606,0.044,0.0837,0.0992,0.0927,0.1873,0.1333,0.1196
203,0.0581,-0.0102,-0.0678,-0.0932,-0.0981,-0.1336,-0.0984,-0.0728
204,-0.1805,0.0038,0.0727,0.1124,0.1216,0.2681,0.1985,0.1691
205,0.1074,0.0111,-0.0617,-0.1119,-0.123,-0.2142,-0.1613,-0.1176
206,-0.163,-0.0102,0.0837,0.1278,0.142,0.3304,0.2745,0.2448
207,0.0764,-0.0042,-0.0935,-0.1691,-0.2038,-0.3555,-0.3099,-0.2661
208,-0.1883,-0.0845,0.013,0.0373,0.0435,0.2153,0.179,0.1638
209,-0.028,-0.0949,-0.1824,-0.2473,-0.2713,-0.4041,-0.3539,-0.3038
210,-0.1634,-0.0609,0.0517,0.0576,0.0547,0.2486,0.1949,0.1541
211,0.0009,-0.055,-0.1301,-0.1756,-0.1971,-0.2803,-0.2193,-0.1608
212,-0.2109,-0.1607,-0.0652,-0.0524,-0.0298,0.1339,0.0726,0.0181
213,-0.0468,-0.1513,-0.2639,-0.3394,-0.415,-0.7201,-0.6814,-0.6353
214,-0.1076,-0.0512,0.0407,0.0879,0.1589,0.4281,0.4158,0.4052
215,-0.1105,-0.2218,-0.3213,-0.4141,-0.5107,-0.8369,-0.7882,-0.7314
216,-0.1368,-0.117,-0.0424,-0.0099,0.0446,0.2298,0.2258,0.2272
217,-0.0366,-0.1256,-0.1981,-0.2607,-0.3247,-0.5514,-0.4931,-0.4268
218,0.0318,-0.0092,-0.0064,-0.023,-0.0062,-0.0593,-0.0594,-0.0557
219,-0.0024,-0.0432,-0.0545,-0.0643,-0.0706,-0.0768,-0.0261,0.0262
220,-0.0537,-0.0236,0.0064,0.0245,0.0465,0.1602,0.1849,0.2034
221,-0.0186,-0.0485,-0.0784,-0.1,-0.1275,-0.235,-0.2516,-0.2607
222,-0.0168,-0.0168,-0.0168,-0.0168,-0.0168,-0.0168,-0.0168,-0.0168
223,-0.006,-0.006,-0.006,-0.006,-0.006,-0.006,-0.006,-0.006
224,0.0132,0.0132,0.0132,0.0132,0.0132,0.0132,0.0132,0.0132
225,-0.0248,-0.0248,-0.0248,-0.0248,-0.0248,-0.0248,-0.0248,-0.0248
226,0.0586,0.0862,0.1124,0.1391,0.1643,0.2944,0.3189,0.3476
227,0.0202,0.01,-0.0081,-0.0287,-0.055,-0.1524,-0.1774,-0.2078
228,-0.0325,-0.0333,-0.0482,-0.1078,-0.1657,-0.3156,-0.3485,-0.3783
229,0.1075,0.1813,0.2232,0.2797,0.3398,0.5797,0.6279,0.6728
230,0.0916,0.0749,0.0469,0.0499,0.05,-0.0048,-0.0032,0.0101
231,0.1359,0.2041,0.2642,0.3216,0.3788,0.6562,0.7003,0.7496
232,0.0538,0.054,0.0495,0.0487,0.0386,0.0503,0.0537,0.0623
233,0.1009,0.085,0.0779,0.0561,0.0383,-0.0895,-0.1292,-0.1679
234,-0.0093,-0.0131,-0.0334,-0.0525,-0.0537,-0.0933,-0.0991,-0.1052
235,0.0707,0.1053,0.1045,0.0876,0.0536,-0.0093,-0.0372,-0.0541
236,0.0709,0.054,0.0215,0.0116,0.0106,-0.0411,-0.0442,-0.0322
237,0.0915,0.173,0.239,0.2748,0.2892,0.448,0.433,0.4214
238,0.0413,0.0695,0.0874,0.0923,0.0961,0.1632,0.1446,0.1474
239,0.172,0.2667,0.3417,0.3842,0.4121,0.595,0.5821,0.568
240,0.135,0.1808,0.2221,0.2517,0.2792,0.422,0.3899,0.371
241,0.1911,0.2729,0.3214,0.3348,0.3395,0.4102,0.398,0.3829
242,0.0659,0.1404,0.2025,0.2334,0.257,0.4213,0.3935,0.3791
243,0.2639,0.3695,0.4262,0.4623,0.4847,0.6322,0.6177,0.6044
244,0.2152,0.3062,0.3777,0.3975,0.4147,0.5735,0.5556,0.5577
245,0.3033,0.3965,0.4489,0.4917,0.521,0.6443,0.6191,0.5948
246,0.1351,0.2202,0.2832,0.2779,0.2806,0.3708,0.3537,0.3568
247,0.3221,0.4116,0.457,0.4998,0.5316,0.6285,0.5954,0.5689
248,0.1105,0.178,0.236,0.2639,0.2875,0.3927,0.3998,0.4193
249,0.2634,0.3413,0.3846,0.4257,0.4569,0.5428,0.5058,0.4858
250,0.1214,0.1638,0.1984,0.2324,0.2519,0.3088,0.329,0.3579
251,0.1266,0.2088,0.2463,0.2857,0.3152,0.4105,0.3721,0.3605
252,0.0729,0.087,0.0958,0.1386,0.1677,0.1873,0.2101,0.2443
253,0.1755,0.2587,0.2722,0.3012,0.3191,0.3862,0.3518,0.3455
254,0.1025,0.1508,0.1606,0.2007,0.2303,0.2901,0.3082,0.3452
255,0.1844,0.2277,0.2063,0.2224,0.2317,0.2395,0.2304,0.2378
256,0.0163,0.0684,0.0562,0.0624,0.0656,0.0474,0.0644,0.1116
257,0.1353,0.1671,0.1524,0.177,0.1897,0.2511,0.2514,0.2564
258,0.0343,0.0798,0.0656,0.0662,0.0494,-0.0095,0.0059,0.0499
259,0.1225,0.1251,0.1176,0.133,0.1428,0.2079,0.2048,0.2044
260,-0.1375,-0.0772,-0.0576,-0.022,-0.0261,0.0028,0.0045,0.029
261,0.0636,0.0428,0.0288,0.0239,0.0428,0.0685,0.0671,0.0794
262,-0.0712,-0.0461,-0.0399,-0.0157,-0.0468,-0.1169,-0.1351,-0.1339
263,0.0297,0.0036,-0.0256,-0.0543,-0.0398,-0.0815,-0.0821,-0.0687
264,-0.2153,-0.2239,-0.2183,-0.2031,-0.2406,-0.3352,-0.3311,-0.3193
265,0.0214,0.0013,-0.0146,-0.038,-0.02,-0.0432,-0.0451,-0.0355
266,-0.2642,-0.2614,-0.2381,-0.2249,-0.2522,-0.2883,-0.2825,-0.2724
267,-0.0997,-0.1413,-0.1619,-0.1839,-0.1792,-0.2214,-0.2129,-0.1942
268,-0.1794,-0.1823,-0.172,-0.1756,-0.2195,-0.3196,-0.3458,-0.3558
269,0.0112,-0.0586,-0.1008,-0.1457,-0.1739,-0.308,-0.2772,-0.2448
270,-0.1947,-0.2172,-0.2161,-0.2228,-0.2498,-0.3588,-0.392,-0.4055
271,-0.0643,-0.1271,-0.1796,-0.234,-0.2827,-0.4713,-0.4374,-0.3991
272,-0.1984,-0.1907,-0.1674,-0.1711,-0.1786,-0.1865,-0.2178,-0.2257
273,0.0332,0.0048,-0.0363,-0.057,-0.0914,-0.2196,-0.1968,-0.1636
274,0.0339,0.0702,0.0971,0.1081,0.1141,0.1853,0.1682,0.1701
275,0.0125,0.0218,0.039,0.0504,0.059,0.1331,0.1647,0.2027
276,-0.0035,0.0456,0.0601,0.0569,0.0622,0.1427,0.1439,0.131
277,0.0251,0.0516,0.1105,0.1795,0.2231,0.4713,0.5211,0.5698
278,-0.0106,0.0479,0.0826,0.1178,0.163,0.3792,0.4249,0.4582
279,-0.0279,-0.0575,-0.0861,-0.0998,-0.117,-0.2346,-0.2511,-0.262
280,-0.0288,-0.0288,-0.0288,-0.0288,-0.0288,-0.0288,-0.0288,-0.0288
281,0.0375,0.0375,0.0375,0.0375,0.0375,0.0375,0.0375,0.0375
282,0.0673,0.0673,0.0673,0.0673,0.0673,0.0673,0.0673,0.0673
283,0.0127,0.0127,0.0127,0.0127,0.0127,0.0127,0.0127,0.0127
284,0.0592,0.0361,0.0249,0.0253,0.0193,-0.0136,-0.0286,-0.0195
285,0.0051,0.0274,0.0621,0.0947,0.0974,0.2142,0.2381,0.2321
286,0.0339,0.0557,0.0663,0.0875,0.1122,0.1963,0.1906,0.1961
287,0.0796,0.1214,0.1496,0.1771,0.2088,0.3583,0.3805,0.3962
288,-0.0026,0.0062,0.0098,0.0218,0.0318,0.0896,0.0945,0.1129
289,-0.0003,0.0161,0.0443,0.0408,0.0394,0.0483,0.0369,0.0134
290,0.1282,0.1176,0.0783,0.0476,0.0334,-0.0811,-0.1083,-0.1185
291,0.048,0.1007,0.1355,0.1448,0.1488,0.2213,0.2137,0.2012
292,0.2218,0.2449,0.2366,0.2409,0.2593,0.3174,0.3201,0.3456
293,0.1131,0.1654,0.2102,0.223,0.2264,0.2795,0.2554,0.2222
294,0.1144,0.164,0.1908,0.2162,0.2476,0.3995,0.3826,0.3916
295,0.1894,0.2555,0.3118,0.3302,0.3379,0.4051,0.3875,0.3554
296,0.1357,0.1934,0.2364,0.2796,0.3195,0.5025,0.4748,0.4682
297,0.3089,0.3682,0.4058,0.4064,0.4059,0.3996,0.3842,0.3569
298,0.175,0.2327,0.2722,0.3044,0.3276,0.4473,0.4213,0.4059
299,0.3119,0.3751,0.4128,0.4285,0.4528,0.4823,0.4677,0.4536
300,0.2896,0.3488,0.3898,0.4204,0.4498,0.58,0.5815,0.5881
301,0.3189,0.3831,0.4189,0.4344,0.4525,0.4603,0.4213,0.3931
302,0.2415,0.3055,0.3419,0.3738,0.3978,0.5137,0.5233,0.5314
303,0.2908,0.37,0.4264,0.4604,0.4941,0.5845,0.5497,0.5278
304,0.2412,0.2798,0.3164,0.3631,0.3953,0.5018,0.5252,0.5462
305,0.2287,0.3241,0.3872,0.4252,0.4601,0.5845,0.5447,0.5193
306,0.2133,0.2427,0.267,0.3289,0.3599,0.4576,0.4707,0.4986
307,0.2019,0.2893,0.3482,0.3894,0.4272,0.5706,0.5434,0.5242
308,0.2565,0.2528,0.2361,0.2896,0.3178,0.3383,0.3429,0.3787
309,0.0743,0.1502,0.1968,0.2254,0.2428,0.3183,0.2857,0.2622
310,0.1736,0.1626,0.131,0.185,0.2302,0.2476,0.2435,0.2802
311,0.067,0.1243,0.1604,0.1823,0.1851,0.2478,0.2371,0.2308
312,0.0937,0.1076,0.1166,0.1782,0.2351,0.3631,0.3585,0.3965
313,0.085,0.0991,0.1135,0.1282,0.1184,0.1323,0.1292,0.1296
314,0.1149,0.1257,0.142,0.1879,0.2271,0.3299,0.3259,0.3543
315,0.0489,0.069,0.1009,0.1268,0.1304,0.2037,0.1841,0.1797
316,0.0538,0.038,0.0409,0.0811,0.1029,0.1291,0.1192,0.138
317,-0.0208,0.0162,0.0642,0.085,0.1035,0.1957,0.1624,0.1491
318,0.011,0.0052,0.028,0.0712,0.0829,0.1346,0.1206,0.1382
319,0.0819,0.11,0.1387,0.1333,0.1472,0.1475,0.1176,0.1013
320,-0.115,-0.1153,-0.0992,-0.0587,-0.0606,-0.0258,-0.0272,-0.0053
321,-0.042,-0.0035,0.0374,0.0466,0.0722,0.123,0.0992,0.0876
322,-0.1191,-0.13,-0.1417,-0.1278,-0.1468,-0.1855,-0.1606,-0.1225
323,-0.073,-0.0288,0.0345,0.0613,0.0946,0.2137,0.1841,0.1719
324,-0.2201,-0.2227,-0.2372,-0.2438,-0.2858,-0.3649,-0.3496,-0.3102
325,-0.005,0.0211,0.0678,0.0645,0.0774,0.1436,0.1225,0.1125
326,-0.2256,-0.2307,-0.2705,-0.2965,-0.3297,-0.4617,-0.4577,-0.4207
327,0.1075,0.1316,0.1486,0.106,0.0725,0.0051,-0.0301,-0.0581
328,-0.1467,-0.1327,-0.142,-0.1565,-0.1704,-0.1846,-0.1889,-0.1501
329,0.0498,0.1497,0.2139,0.2055,0.1854,0.2671,0.2249,0.1839
330,-0.0346,0.1024,0.1717,0.2161,0.2654,0.613,0.6132,0.6537
331,0.1834,0.2837,0.3554,0.3705,0.3817,0.5609,0.5545,0.539
332,0.0017,0.0876,0.1151,0.1469,0.1616,0.3855,0.3893,0.415
333,0.0602,0.1005,0.1666,0.2049,0.2477,0.4125,0.4189,0.4124
334,-0.0001,0.0359,0.0521,0.0698,0.0819,0.1677,0.1789,0.1927
335,0.0969,0.095,0.0713,0.0573,0.0635,0.0134,0.0052,-0.0058
336,-0.0483,-0.0483,-0.0483,-0.0483,-0.0483,-0.0483,-0.0483,-0.0483
337,0.0392,0.0392,0.0392,0.0392,0.0392,0.0392,0.0392,0.0392
338,0.0292,0.0622,0.1004,0.1307,0.1666,0.3378,0.3668,0.3973
339,0.0834,0.0813,0.0514,0.0238,-0.0168,-0.1582,-0.1899,-0.2258
340,0.0342,-0.0324,-0.0674,-0.0588,-0.0396,-0.1422,-0.1119,-0.0816
341,0.0028,0.042,0.0712,0.1025,0.1178,0.2473,0.2484,0.2425
342,0.0665,0.075,0.0759,0.1039,0.1484,0.2132,0.2393,0.2815
343,0.0663,0.1136,0.1623,0.1916,0.2204,0.4031,0.4271,0.428
344,0.116,0.1249,0.1291,0.1392,0.1564,0.1872,0.1817,0.1894
345,0.0805,0.1048,0.1324,0.1303,0.1248,0.1439,0.1403,0.1181
346,0.143,0.1267,0.093,0.0673,0.0613,-0.0593,-0.085,-0.0871
347,0.1788,0.2099,0.2368,0.2255,0.2117,0.2193,0.2126,0.188
348,0.144,0.1416,0.1214,0.1024,0.1082,0.0452,0.0256,0.0369
349,0.1439,0.1905,0.2443,0.2605,0.2705,0.3673,0.3778,0.3574
350,0.1018,0.1034,0.0968,0.0907,0.1116,0.0836,0.0662,0.074
351,0.1545,0.1832,0.2188,0.236,0.2374,0.2573,0.2547,0.2247
352,0.1224,0.1517,0.1745,0.1918,0.2228,0.2851,0.2845,0.2934
353,0.2253,0.2548,0.2906,0.3125,0.3327,0.3848,0.3947,0.3894
354,0.1361,0.1648,0.1743,0.1863,0.2049,0.2187,0.23,0.2335
355,0.1579,0.185,0.2263,0.2446,0.2686,0.3228,0.3112,0.3065
356,0.2395,0.2548,0.2478,0.2362,0.2382,0.1771,0.1904,0.1966
357,0.1967,0.2147,0.2597,0.2858,0.3043,0.356,0.3447,0.3346
358,0.1691,0.204,0.2163,0.219,0.2354,0.2578,0.28,0.295
359,0.2154,0.2335,0.2807,0.3092,0.3199,0.3712,0.3528,0.3289
360,0.1645,0.2116,0.2441,0.2677,0.2918,0.3917,0.4047,0.4147
361,0.0836,0.1307,0.1875,0.2274,0.2465,0.3628,0.3437,0.3178
362,0.1741,0.2261,0.2506,0.2877,0.3057,0.4297,0.4267,0.4366
363,0.1295,0.2016,0.267,0.3075,0.3277,0.4726,0.4493,0.4163
364,0.1733,0.2037,0.2105,0.2407,0.2526,0.3471,0.3281,0.3352
365,0.042,0.1459,0.2219,0.2628,0.277,0.4367,0.4008,0.3579
366,0.2467,0.2511,0.2475,0.2695,0.2816,0.3528,0.3285,0.3346
367,0.1054,0.2144,0.2925,0.3353,0.3443,0.5069,0.461,0.413
368,0.2463,0.2279,0.2256,0.2337,0.239,0.2663,0.2382,0.2341
369,0.1081,0.1996,0.274,0.3243,0.3354,0.5255,0.4724,0.4343
370,0.0904,0.0929,0.1204,0.1466,0.1611,0.2738,0.2467,0.2322
371,-0.0104,0.0645,0.1356,0.1817,0.1947,0.3925,0.3434,0.3185
372,0.0503,0.0719,0.1027,0.1378,0.1554,0.2895,0.2593,0.2431
373,0.0334,0.0948,0.1556,0.195,0.2167,0.398,0.3641,0.3447
374,-0.0365,-0.0151,0.0069,0.0339,0.0398,0.1325,0.0953,0.0803
375,-0.0595,-0.0194,0.0198,0.039,0.0526,0.1297,0.1004,0.0814
376,-0.0446,-0.0068,0.0133,0.0378,0.039,0.1442,0.1156,0.1071
377,-0.0234,0.0003,0.0343,0.048,0.0709,0.111,0.1015,0.1034
378,0.0111,0.0585,0.0724,0.0856,0.0759,0.1596,0.1486,0.1488
379,0.0654,0.0592,0.0799,0.0825,0.0953,0.0598,0.0394,0.0406
380,0.0338,0.0825,0.0772,0.0611,0.0153,-0.017,-0.0475,-0.0558
381,-0.109,-0.1354,-0.1197,-0.1287,-0.1165,-0.1404,-0.1477,-0.1369
382,0.0416,0.109,0.0969,0.0723,0.0352,-0.021,-0.0824,-0.1025
383,0.0661,0.0361,0.0436,-0.0012,-0.027,-0.1526,-0.1818,-0.2054
384,-0.0108,0.0939,0.1203,0.1173,0.1088,0.213,0.1566,0.1536
385,0.0863,0.1822,0.2721,0.2821,0.2864,0.4428,0.3843,0.3223
386,0.1711,0.3254,0.4007,0.4559,0.5076,0.8926,0.8713,0.8918
387,0.1546,0.2414,0.3378,0.3426,0.3386,0.4709,0.4211,0.3737
388,0.1214,0.2059,0.2128,0.228,0.2422,0.3821,0.3752,0.3935
389,0.0298,0.0477,0.1479,0.1768,0.2014,0.3579,0.3312,0.3053
390,0.1091,0.1575,0.2063,0.2432,0.2771,0.4537,0.4593,0.4767
391,0.0369,0.0066,-0.0032,0.0035,0.0242,0.0168,0.0188,0.0187
392,-0.028,-0.028,-0.028,-0.028,-0.0111,-0.0277,-0.0251,-0.0233
393,-0.0642,-0.0465,-0.0329,-0.0199,-0.0006,0.0653,0.0679,0.0697
394,0.0929,0.1283,0.1601,0.1891,0.2298,0.4066,0.4372,0.4678
395,0.0933,0.1361,0.165,0.1869,0.2016,0.3309,0.3472,0.3588
396,-0.1003,-0.1928,-0.2422,-0.2731,-0.2886,-0.5094,-0.4879,-0.4621
397,0.1595,0.2808,0.3688,0.4542,0.5287,0.9562,0.9881,1.0137
398,0.0749,0.0433,0.0258,0.0258,0.0426,-0.0458,-0.0429,-0.0193
399,0.2096,0.2954,0.3468,0.3712,0.3871,0.5849,0.5847,0.5732
400,0.0993,0.0836,0.0958,0.1231,0.1579,0.1851,0.1918,0.2054
401,0.0786,0.1304,0.1545,0.1485,0.1341,0.1723,0.1732,0.1576
402,0.0824,0.0816,0.0865,0.0978,0.1183,0.1189,0.1198,0.139
403,0.1819,0.2004,0.2096,0.1925,0.1702,0.118,0.1083,0.0774
404,0.061,0.0613,0.0671,0.0656,0.0877,0.0744,0.0708,0.0829
405,0.1838,0.2291,0.2702,0.2974,0.3074,0.4075,0.4275,0.4156
406,0.1928,0.1925,0.1988,0.1924,0.212,0.1797,0.1792,0.1832
407,0.1088,0.1048,0.1174,0.1303,0.1236,0.0875,0.0944,0.0863
408,0.1631,0.1735,0.1897,0.1896,0.2065,0.194,0.2102,0.2159
409,0.0954,0.0963,0.1272,0.1545,0.1696,0.208,0.2186,0.2267
410,0.0539,0.0811,0.0892,0.0872,0.1006,0.0843,0.1137,0.1206
411,0.0931,0.0792,0.0977,0.1,0.0937,0.0699,0.0676,0.0678
412,0.0511,0.0859,0.0941,0.0818,0.0905,0.073,0.1029,0.1176
413,0.1337,0.1198,0.1497,0.1638,0.1602,0.1763,0.1786,0.172
414,0.0926,0.1394,0.1582,0.1482,0.1617,0.1798,0.2022,0.2165
415,0.0771,0.0706,0.0986,0.1221,0.1249,0.1688,0.1749,0.1647
416,0.0664,0.109,0.1264,0.1211,0.13,0.1568,0.159,0.1692
417,0.0634,0.0967,0.1443,0.1834,0.2017,0.3161,0.3205,0.3046
418,0.1868,0.2209,0.228,0.2222,0.2238,0.2419,0.2236,0.221
419,0.163,0.2136,0.2598,0.2833,0.2897,0.3373,0.3223,0.2967
420,0.198,0.2357,0.2573,0.2636,0.2647,0.3378,0.308,0.297
421,0.1027,0.1813,0.2325,0.256,0.258,0.3096,0.2754,0.2404
422,0.1927,0.2117,0.2419,0.2537,0.2536,0.3252,0.2934,0.2755
423,0.0433,0.1181,0.1578,0.1818,0.1809,0.2372,0.2119,0.1837
424,0.1384,0.1253,0.1387,0.1343,0.1256,0.126,0.1073,0.088
425,0.0296,0.0953,0.1367,0.1668,0.168,0.2526,0.2189,0.1928
426,0.195,0.1681,0.1816,0.1896,0.192,0.2116,0.2114,0.1905
427,0.0649,0.0927,0.1263,0.1463,0.1464,0.2072,0.1655,0.1445
428,0.1464,0.147,0.1699,0.1976,0.2172,0.3087,0.305,0.2884
429,0.0859,0.1036,0.136,0.1575,0.1649,0.2423,0.2135,0.1964
430,0.1145,0.1242,0.1293,0.1534,0.1695,0.2459,0.2336,0.231
431,0.0652,0.0903,0.1299,0.1623,0.1755,0.2785,0.2585,0.2332
432,0.1592,0.1635,0.1523,0.1455,0.1369,0.1383,0.1188,0.1201
433,0.0532,0.0791,0.1233,0.1638,0.1899,0.2819,0.2671,0.2513
434,0.0652,0.092,0.0931,0.0876,0.0804,0.107,0.0984,0.1039
435,0.1358,0.1229,0.1461,0.1574,0.1695,0.1588,0.1333,0.1265
436,0.0937,0.1454,0.1417,0.1252,0.0981,0.0652,0.0309,0.0167
437,-0.0161,-0.044,-0.0182,-0.0024,0.0262,0.0618,0.043,0.0417
438,0.1236,0.2421,0.2682,0.2624,0.2378,0.2807,0.1926,0.1475
439,0.0848,0.0302,0.0311,-0.0006,-0.0104,-0.1226,-0.1479,-0.171
440,0.069,0.2401,0.3083,0.317,0.3127,0.5037,0.4007,0.3512
441,0.1842,0.2342,0.3139,0.3277,0.3349,0.4548,0.4015,0.3432
442,0.1068,0.306,0.4016,0.4444,0.4823,0.8919,0.8538,0.8596
443,0.1238,0.2342,0.3638,0.4136,0.4255,0.6673,0.5914,0.5204
444,0.2521,0.3342,0.3241,0.3117,0.3022,0.3703,0.3484,0.3565
445,0.2255,0.3554,0.4953,0.5424,0.5611,0.8373,0.76,0.6762
446,0.0081,0.0968,0.1628,0.2142,0.2574,0.5475,0.5442,0.5578
447,0.0201,-0.0211,-0.0033,0.0093,0.0173,0.0174,0.0243,0.0165
448,-0.021,-0.021,-0.021,-0.021,0.0051,-0.0129,-0.0088,-0.0058
449,-0.0055,-0.0311,-0.055,-0.0805,-0.1052,-0.2331,-0.2549,-0.2828
450,-0.0814,-0.0905,-0.0849,-0.0733,-0.0585,-0.0005,0.0252,0.0514
451,0.1278,0.2066,0.2863,0.3568,0.4302,0.7902,0.8344,0.8763
452,-0.1043,-0.1764,-0.2163,-0.2473,-0.2803,-0.4688,-0.4537,-0.4428
453,0.2552,0.381,0.4976,0.5767,0.6538,1.1201,1.1314,1.1474
454,0.0002,-0.0293,-0.0213,0.0004,0.0169,0.046,0.0885,0.1326
455,0.245,0.3575,0.4217,0.4425,0.4612,0.656,0.6326,0.6002
456,0.1306,0.1032,0.1049,0.12,0.1352,0.1263,0.1348,0.1444
457,0.1541,0.2133,0.2439,0.2441,0.2372,0.2941,0.2824,0.2597
458,0.1545,0.1629,0.1866,0.2124,0.2345,0.2967,0.2966,0.3014
459,0.2248,0.2595,0.2773,0.2819,0.2785,0.3129,0.3167,0.2979
460,0.0449,0.0747,0.1116,0.1298,0.1576,0.236,0.2371,0.2355
461,0.0972,0.1122,0.1262,0.1456,0.1455,0.1785,0.2024,0.2005
462,0.0291,0.0389,0.0597,0.0537,0.0562,0.0236,0.023,0.0113
463,0.1514,0.1239,0.1125,0.1253,0.1223,0.0664,0.0891,0.1022
464,-0.0622,-0.0385,-0.0177,-0.0195,-0.0138,-0.0268,-0.0066,-0.0109
465,0.1487,0.1226,0.1286,0.1347,0.1271,0.1031,0.112,0.1198
466,0.0442,0.0837,0.0958,0.0983,0.1078,0.1105,0.1532,0.1612
467,0.0771,0.0483,0.0575,0.0465,0.0271,0.0018,-0.0039,-0.0044
468,-0.048,0.0106,0.0358,0.0278,0.0346,0.054,0.0847,0.0975
469,0.098,0.0791,0.0882,0.0859,0.0739,0.0848,0.0932,0.0954
470,0.0313,0.088,0.1133,0.1025,0.1205,0.1622,0.1873,0.2072
471,0.1497,0.1409,0.1313,0.1216,0.1034,0.0713,0.0755,0.0694
472,0.054,0.1008,0.1191,0.1159,0.1442,0.2125,0.2302,0.2587
473,0.18,0.2038,0.2209,0.2243,0.2206,0.2474,0.2497,0.244
474,0.0257,0.0717,0.0916,0.0967,0.1123,0.1829,0.1873,0.2055
475,0.1096,0.1601,0.2076,0.2204,0.2284,0.3033,0.2881,0.2795
476,0.0674,0.1142,0.1669,0.1992,0.2195,0.3437,0.3408,0.3518
477,0.1335,0.1989,0.2513,0.2834,0.3009,0.4226,0.4073,0.3974
478,0.0827,0.1016,0.1573,0.202,0.2144,0.3109,0.3147,0.3164
479,0.0964,0.1327,0.1571,0.1881,0.204,0.26,0.257,0.2507
480,0.116,0.1053,0.144,0.178,0.191,0.2502,0.2804,0.284
481,0.1058,0.1094,0.1207,0.1406,0.15,0.1644,0.1625,0.1597
482,0.2022,0.1406,0.1396,0.1551,0.1648,0.1336,0.1738,0.171
483,0.1067,0.1052,0.137,0.1628,0.1835,0.2674,0.2682,0.2709
484,0.072,0.0239,0.0262,0.0539,0.0785,0.1018,0.1301,0.1229
485,0.0604,0.0595,0.0837,0.1034,0.1224,0.2026,0.2099,0.2092
486,0.2424,0.2285,0.2296,0.2596,0.2873,0.363,0.3762,0.3875
487,0.0852,0.094,0.1138,0.1414,0.157,0.2292,0.233,0.2137
488,0.2387,0.2382,0.2261,0.2294,0.2342,0.2555,0.2639,0.2831
489,0.138,0.1493,0.1713,0.1993,0.2113,0.2693,0.258,0.2342
490,0.2107,0.2186,0.2127,0.2123,0.2024,0.1934,0.1871,0.1895
491,0.0596,0.0614,0.0814,0.0877,0.1042,0.131,0.1082,0.0978
492,0.0808,0.118,0.1249,0.1179,0.0994,0.0864,0.0586,0.0493
493,0.1378,0.1393,0.1519,0.1457,0.1628,0.1818,0.1496,0.133
494,0.2289,0.3587,0.4029,0.4096,0.3896,0.4551,0.3482,0.2753
495,0.1129,0.0715,0.0618,0.0349,0.0283,-0.039,-0.0598,-0.078
496,0.119,0.3552,0.4581,0.4915,0.5059,0.8166,0.6725,0.5702
497,0.0808,0.0945,0.144,0.1651,0.1727,0.255,0.234,0.208
498,0.2485,0.4878,0.6044,0.6467,0.6771,1.1089,1.0172,0.9572
499,0.2632,0.3892,0.5329,0.6217,0.6602,0.9896,0.9328,0.8683
500,0.1339,0.2821,0.3077,0.3148,0.3318,0.5578,0.5411,0.5344
501,0.1146,0.2322,0.3627,0.4612,0.5047,0.8265,0.7464,0.6699
502,0.0445,0.1168,0.1724,0.2088,0.2333,0.4534,0.4444,0.433
503,-0.0607,-0.1092,-0.1007,-0.0787,-0.0538,-0.0939,-0.1029,-0.1051
504,0.0137,0.0137,0.0137,0.0137,0.0273,0.0119,0.0295,0.0623
505,-0.0043,0.0223,0.0521,0.0769,0.1033,0.2407,0.2662,0.2897
506,-0.0881,-0.1382,-0.1497,-0.148,-0.1148,-0.1372,-0.0852,-0.0153
507,0.1151,0.2045,0.2896,0.3691,0.4434,0.8285,0.8744,0.9091
508,-0.0709,-0.089,-0.0728,-0.0421,-0.0152,0.0649,0.1239,0.1786
509,0.1366,0.2768,0.3904,0.4817,0.5451,1.0041,0.9994,1.0061
510,-0.0415,-0.0679,-0.0503,-0.0315,-0.0189,0.0302,0.0767,0.1188
511,0.2101,0.3631,0.4739,0.5341,0.5863,0.9555,0.9379,0.9202
512,-0.0127,-0.0391,-0.033,-0.0111,0.008,0.0438,0.0774,0.103
513,0.3045,0.4029,0.458,0.4698,0.4766,0.6216,0.6014,0.5732
514,0.0145,0.0056,0.0183,0.0289,0.0347,0.0316,0.0359,0.0321
515,0.1413,0.2068,0.2398,0.2641,0.275,0.4123,0.4203,0.4107
516,0.0012,0.0325,0.0808,0.0993,0.1148,0.1974,0.2013,0.1945
517,0.0678,0.0623,0.0448,0.0446,0.0352,-0.0225,-0.0059,-0.0137
518,-0.0388,-0.0267,-0.0026,-0.0066,-0.0168,-0.04,-0.0256,-0.0276
519,-0.0214,-0.0531,-0.0614,-0.0566,-0.0688,-0.1193,-0.0982,-0.0932
520,-0.0674,-0.0359,-0.0211,-0.0239,-0.0373,-0.0463,-0.0101,-0.0023
521,0.0374,0.0101,0.0178,-0.0007,-0.0194,-0.038,-0.0352,-0.0338
522,-0.0718,-0.0376,-0.0447,-0.0684,-0.0911,-0.1598,-0.1195,-0.1106
523,-0.0116,-0.0165,0.0055,-0.003,-0.0099,0.0443,0.0438,0.0444
524,-0.132,-0.082,-0.0713,-0.0991,-0.1072,-0.123,-0.1002,-0.0849
525,0.0485,0.0398,0.0328,0.0268,0.0175,0.0356,0.0379,0.036
526,0.0244,0.0655,0.0737,0.055,0.0662,0.0786,0.093,0.1147
527,0.1664,0.169,0.1628,0.1557,0.1477,0.1758,0.1795,0.1797
528,-0.0514,-0.0158,-0.0232,-0.0403,-0.0217,-0.003,0.0179,0.0473
529,0.1059,0.131,0.1535,0.1513,0.1535,0.2211,0.2156,0.2173
530,0.0057,0.0295,0.0436,0.0547,0.0763,0.1419,0.1765,0.2204
531,0.0632,0.0983,0.1472,0.1662,0.1901,0.316,0.2968,0.2923
532,-0.0139,-0.0116,0.0392,0.0992,0.1334,0.2436,0.286,0.3358
533,0.171,0.231,0.2874,0.3293,0.3676,0.5417,0.5222,0.5132
534,0.1014,0.0708,0.1064,0.179,0.2035,0.2374,0.2895,0.3306
535,0.1917,0.2521,0.2855,0.3368,0.382,0.5213,0.5061,0.5018
536,0.1875,0.1314,0.1403,0.1841,0.1995,0.1728,0.2431,0.2745
537,0.1978,0.2284,0.2555,0.3074,0.3469,0.4655,0.4719,0.4816
538,0.0631,-0.0162,-0.025,0.0076,0.038,0.0389,0.1213,0.1482
539,0.1452,0.1529,0.1708,0.1917,0.2168,0.2794,0.2976,0.3069
540,0.2108,0.1191,0.0969,0.1208,0.152,0.149,0.2163,0.2388
541,0.1726,0.1854,0.2092,0.2152,0.2324,0.2905,0.3072,0.3036
542,0.1334,0.0885,0.0658,0.0885,0.1174,0.1373,0.1741,0.2061
543,0.1001,0.1152,0.1356,0.1486,0.1525,0.2142,0.2338,0.2227
544,0.1626,0.1608,0.1437,0.1571,0.1682,0.1742,0.1818,0.1987
545,0.0398,0.0442,0.0502,0.0595,0.0571,0.1076,0.1344,0.1403
546,0.1436,0.147,0.152,0.1719,0.1747,0.2077,0.2127,0.2199
547,0.1632,0.1756,0.1677,0.1493,0.1458,0.1169,0.1071,0.1043
548,0.238,0.2489,0.2561,0.2546,0.2378,0.2186,0.1929,0.1764
549,0.1307,0.1692,0.1769,0.1722,0.189,0.2408,0.2213,0.2133
550,0.2814,0.4121,0.4865,0.5283,0.5562,0.7972,0.7122,0.6397
551,0.1137,0.1333,0.1216,0.1127,0.1122,0.1185,0.11,0.1084
552,0.2723,0.5651,0.7417,0.8565,0.9486,1.6544,1.5464,1.4528
553,0.1439,0.1853,0.2128,0.2331,0.2459,0.3067,0.3119,0.3102
554,0.1904,0.4833,0.6642,0.7884,0.8875,1.6882,1.5985,1.5105
555,0.2444,0.3489,0.4649,0.5675,0.6456,0.9739,0.9895,0.998
556,0.1387,0.3315,0.4036,0.4581,0.5178,0.9497,0.9279,0.9001
557,0.1244,0.1729,0.2787,0.3904,0.4362,0.7348,0.7177,0.7062
558,-0.0244,0.0371,0.09,0.1105,0.1247,0.3059,0.2847,0.2662
559,-0.0314,-0.0363,0.0171,0.0369,0.0641,0.1849,0.2273,0.26
560,0.0645,0.0645,0.0645,0.0645,0.0645,0.0645,0.0956,0.1273
561,0.0824,0.1105,0.1412,0.1665,0.1932,0.3341,0.3597,0.3832
562,-0.1351,-0.1846,-0.2088,-0.2366,-0.2105,-0.3037,-0.2563,-0.2026
563,0.0826,0.1656,0.2531,0.3309,0.4075,0.7656,0.8048,0.8403
564,-0.0619,-0.0943,-0.0945,-0.0795,-0.0594,-0.0669,-0.0225,0.0307
565,0.1863,0.347,0.4922,0.6155,0.7083,1.342,1.3761,1.4158
566,-0.0194,-0.0305,-0.0092,0.0195,0.0496,0.1465,0.2059,0.2715
567,0.3373,0.5046,0.63,0.694,0.7481,1.1737,1.1664,1.1474
568,-0.1156,-0.1161,-0.0707,-0.0151,0.0402,0.2462,0.3233,0.3858
569,0.1988,0.3004,0.323,0.3041,0.2773,0.2594,0.1955,0.1344
570,0.022,0.0222,0.0532,0.0756,0.0894,0.168,0.2051,0.2227
571,0.1291,0.1826,0.1914,0.19,0.1786,0.1994,0.1961,0.1741
572,-0.027,-0.017,0.0125,0.0129,-0.0041,0.0046,0.0125,0.0139
573,0.1053,0.1032,0.0869,0.0921,0.0787,0.0475,0.0646,0.0562
574,-0.0825,-0.0667,-0.0474,-0.0591,-0.097,-0.1363,-0.1284,-0.1293
575,0.0226,0.0012,-0.0047,-0.0115,-0.0325,-0.0601,-0.0456,-0.0478
576,-0.1126,-0.0768,-0.064,-0.0809,-0.1261,-0.1542,-0.1363,-0.1433
577,-0.089,-0.0913,-0.078,-0.0935,-0.0986,-0.074,-0.0686,-0.0665
578,-0.125,-0.0744,-0.0662,-0.1024,-0.1329,-0.1571,-0.1424,-0.1423
579,-0.0267,-0.0408,-0.0553,-0.0749,-0.0833,-0.0861,-0.0766,-0.0671
580,-0.0823,-0.0508,-0.0488,-0.0942,-0.1131,-0.1568,-0.1626,-0.1563
581,-0.0161,-0.0381,-0.0664,-0.0812,-0.0928,-0.1055,-0.0916,-0.0863
582,-0.0989,-0.0445,-0.0459,-0.0688,-0.058,-0.0189,-0.0251,-0.0101
583,-0.0092,-0.0466,-0.0709,-0.0963,-0.1117,-0.1357,-0.1229,-0.1228
584,-0.0866,-0.0213,-0.0208,-0.0367,-0.0182,0.0538,0.0556,0.0711
585,-0.014,-0.0688,-0.0785,-0.1058,-0.1173,-0.1584,-0.1567,-0.154
586,0.0866,0.0989,0.1236,0.1343,0.1373,0.1844,0.197,0.2201
587,-0.0556,-0.0616,-0.0397,-0.0362,-0.0185,0.0466,0.0412,0.0428
588,0.0014,-0.0362,0.0115,0.1049,0.1456,0.2572,0.2941,0.3383
589,0.0438,0.1112,0.1597,0.2031,0.2476,0.3988,0.3733,0.3644
590,0.0078,-0.0444,-0.0267,0.0726,0.1194,0.1791,0.2467,0.2957
591,0.1321,0.2356,0.2753,0.3327,0.3736,0.5051,0.466,0.4501
592,0.0579,0.0106,0.0135,0.0686,0.1018,0.1395,0.2233,0.2656
593,0.1842,0.2618,0.2842,0.3315,0.362,0.4593,0.4601,0.4616
594,0.0605,-0.0184,-0.0444,-0.0333,-0.0063,-0.017,0.0672,0.1014
595,0.2085,0.2334,0.234,0.2419,0.2529,0.2652,0.2868,0.2917
596,0.1617,0.0652,0.0109,0.0076,0.0392,-0.0046,0.0807,0.126
597,0.0226,0.0561,0.0866,0.0973,0.1104,0.1896,0.2091,0.2076
598,0.103,0.0432,-0.0167,-0.0287,-0.0095,-0.0938,-0.0552,-0.0206
599,0.0285,0.066,0.1052,0.1269,0.1285,0.2218,0.2428,0.237
600,0.0989,0.0911,0.0642,0.076,0.0984,0.0926,0.1074,0.1259
601,0.0508,0.0642,0.074,0.0825,0.0709,0.0868,0.1153,0.1315
602,0.1817,0.1493,0.1314,0.1438,0.1438,0.1207,0.1475,0.1612
603,0.0454,0.0971,0.1188,0.1273,0.1309,0.1887,0.1789,0.1901
604,0.0589,0.0146,-0.0137,-0.0131,-0.0255,-0.0594,-0.0268,-0.007
605,-0.0699,0.0394,0.1037,0.137,0.159,0.3593,0.3256,0.3117
606,0.1197,0.2086,0.2668,0.3268,0.3847,0.7498,0.7616,0.7643
607,-0.0148,0.0952,0.1654,0.2054,0.2126,0.4263,0.3936,0.3766
608,0.1972,0.4108,0.5257,0.6231,0.7117,1.3735,1.3653,1.3425
609,0.1107,0.2312,0.3381,0.4101,0.4294,0.6595,0.6207,0.6035
610,0.1387,0.3782,0.4947,0.6103,0.7154,1.471,1.4738,1.4532
611,0.1315,0.2538,0.4022,0.4542,0.4633,0.6931,0.6661,0.6612
612,0.1446,0.3303,0.4066,0.5083,0.592,1.1286,1.1307,1.1173
613,0.1431,0.2372,0.3433,0.3759,0.3792,0.6239,0.6323,0.6469
614,0.0007,0.0401,0.0669,0.1016,0.1221,0.2613,0.2497,0.2323
615,0.0337,0.0226,0.0555,0.064,0.0782,0.1229,0.135,0.1496
616,-0.0698,-0.0698,-0.0698,-0.101,-0.0922,-0.0976,-0.0685,-0.0279
617,0.0052,0.0447,0.0936,0.135,0.1902,0.4013,0.4329,0.4626
618,0.0042,-0.0352,-0.0574,-0.0884,-0.052,-0.1077,-0.0638,-0.02
619,0.1349,0.2184,0.2921,0.3586,0.4104,0.75,0.7876,0.8188
620,-0.0834,-0.1239,-0.1486,-0.1705,-0.1734,-0.2814,-0.2453,-0.2031
621,0.1253,0.2776,0.4179,0.5286,0.6259,1.2403,1.2871,1.3257
622,-0.0314,-0.063,-0.0559,-0.0344,-0.0024,0.0201,0.0865,0.1581
623,0.2384,0.4116,0.5364,0.6065,0.6572,1.0691,1.046,1.0171
624,-0.1807,-0.2226,-0.2194,-0.1953,-0.1774,-0.1444,-0.0761,-0.0274
625,0.1461,0.2456,0.2508,0.2262,0.1943,0.1329,0.0876,0.0369
626,-0.1632,-0.212,-0.229,-0.2424,-0.2734,-0.3822,-0.359,-0.3522
627,0.0599,0.0918,0.0873,0.0786,0.0597,0.0306,0.0347,0.0218
628,-0.108,-0.1204,-0.1107,-0.1168,-0.157,-0.2112,-0.2088,-0.21
629,-0.0481,-0.0649,-0.091,-0.0929,-0.1126,-0.1475,-0.1277,-0.131
630,-0.2107,-0.2027,-0.1937,-0.2089,-0.2619,-0.3048,-0.3073,-0.3111
631,-0.0909,-0.104,-0.1162,-0.1308,-0.1462,-0.1778,-0.1659,-0.1673
632,-0.1177,-0.0842,-0.0742,-0.1012,-0.1484,-0.1656,-0.1764,-0.2
633,-0.1447,-0.1455,-0.1507,-0.1807,-0.1952,-0.2076,-0.2012,-0.1987
634,-0.1087,-0.0763,-0.0666,-0.1058,-0.1295,-0.136,-0.1579,-0.1753
635,-0.1358,-0.1656,-0.2009,-0.2328,-0.2523,-0.3072,-0.2966,-0.2917
636,-0.1027,-0.0845,-0.0969,-0.1509,-0.1713,-0.2202,-0.243,-0.2518
637,-0.1748,-0.2135,-0.2461,-0.2696,-0.2899,-0.3292,-0.3246,-0.3382
638,0.0666,0.124,0.0945,0.0366,0.0214,-0.0434,-0.0797,-0.0957
639,-0.1804,-0.2537,-0.2704,-0.2907,-0.3062,-0.3107,-0.2959,-0.3004
640,0.0414,0.1347,0.1223,0.0654,0.0405,-0.0185,-0.0634,-0.0908
641,-0.1572,-0.2369,-0.2407,-0.2642,-0.2729,-0.2709,-0.2485,-0.2347
642,0.089,0.1423,0.1875,0.1902,0.1724,0.2037,0.1617,0.1343
643,-0.1063,-0.1442,-0.1523,-0.1696,-0.1784,-0.2467,-0.2395,-0.2264
644,-0.0268,-0.0772,-0.053,0.0393,0.0686,0.0682,0.0601,0.059
645,-0.1289,-0.0572,-0.0234,0.0126,0.036,0.0942,0.0727,0.0679
646,-0.1103,-0.1826,-0.2042,-0.1211,-0.0971,-0.1874,-0.1626,-0.1509
647,-0.0053,0.1271,0.1689,0.2228,0.2541,0.3584,0.3247,0.3032
648,-0.0186,-0.08,-0.1037,-0.0941,-0.1002,-0.2063,-0.1617,-0.1455
649,0.1465,0.2038,0.1933,0.2027,0.1994,0.1251,0.1147,0.0937
650,0.0438,-0.0381,-0.0854,-0.1255,-0.1336,-0.2632,-0.1942,-0.1622
651,0.0287,0.0663,0.0708,0.0795,0.0884,0.091,0.1039,0.0992
652,0.0075,-0.0845,-0.1509,-0.188,-0.1787,-0.3027,-0.2248,-0.179
653,0.0738,0.1094,0.1281,0.1349,0.1325,0.1329,0.1245,0.1062
654,0.0648,0.0138,-0.0342,-0.0422,-0.0167,-0.0768,-0.0309,0.0026
655,0.0034,0.0408,0.0638,0.0833,0.0752,0.0892,0.0819,0.0671
656,-0.0057,-0.048,-0.076,-0.0731,-0.0567,-0.111,-0.0832,-0.058
657,-0.1067,-0.0578,-0.02,0.019,0.0238,0.1105,0.1103,0.1106
658,-0.0419,-0.1312,-0.1614,-0.1514,-0.1449,-0.2006,-0.127,-0.0726
659,-0.13,-0.0854,-0.0584,-0.039,-0.0491,-0.0285,-0.0808,-0.1108
660,0.0206,-0.0967,-0.1648,-0.1873,-0.2124,-0.3814,-0.311,-0.2622
661,-0.1997,-0.1091,-0.0249,0.051,0.0841,0.364,0.3138,0.2886
662,0.1636,0.1569,0.154,0.1705,0.1838,0.2641,0.3091,0.3302
663,-0.2207,-0.151,-0.0358,0.0614,0.0986,0.5164,0.5064,0.5049
664,0.1147,0.1817,0.1928,0.2108,0.2201,0.3819,0.397,0.4013
665,-0.0926,-0.047,0.084,0.1831,0.237,0.626,0.6056,0.5897
666,0.1101,0.227,0.2408,0.2682,0.2818,0.5412,0.5587,0.5695
667,0.0175,0.0222,0.1132,0.1314,0.1217,0.181,0.1535,0.1331
668,0.1022,0.2053,0.2431,0.3022,0.3407,0.6433,0.6664,0.6857
669,-0.0201,-0.0372,-0.0393,-0.086,-0.1147,-0.2637,-0.2751,-0.2922
670,0.0694,0.0859,0.09,0.0939,0.1001,0.1359,0.147,0.1563
671,0.0462,0.0574,0.045,0.0336,0.0211,-0.0181,-0.0386,-0.0576
672,-0.0094,-0.0094,-0.0094,-0.0406,-0.0317,-0.0371,-0.0224,-0.0038
673,-0.0442,-0.0264,-0.0056,0.0176,0.0466,0.15,0.1631,0.1826
674,-0.0892,-0.0833,-0.071,-0.0602,-0.0347,0.0287,0.0694,0.1722
675,0.1633,0.2142,0.2853,0.3429,0.3927,0.6924,0.7268,0.7544
676,-0.0834,-0.1213,-0.1564,-0.201,-0.2518,-0.4345,-0.395,-0.3482
677,0.1507,0.2819,0.4094,0.5063,0.5948,1.1299,1.17,1.1965
678,-0.1335,-0.1774,-0.1592,-0.1425,-0.1223,-0.0937,-0.0223,0.0348
679,0.217,0.3601,0.4427,0.4803,0.5058,0.7327,0.6895,0.648
680,-0.1111,-0.1974,-0.2324,-0.2509,-0.2822,-0.43,-0.3858,-0.3605
681,0.1532,0.2152,0.2096,0.1901,0.1664,0.0918,0.0597,0.033
682,-0.1431,-0.1996,-0.2224,-0.2396,-0.2796,-0.4027,-0.3667,-0.3495
683,-0.0642,-0.0547,-0.0688,-0.0641,-0.0692,-0.0642,-0.0472,-0.0488
684,-0.197,-0.2115,-0.2061,-0.2072,-0.2442,-0.281,-0.2742,-0.281
685,-0.1923,-0.2434,-0.2922,-0.3074,-0.3304,-0.4128,-0.3924,-0.3933
686,-0.1002,-0.1052,-0.1121,-0.1343,-0.1782,-0.2289,-0.2263,-0.2314
687,-0.2008,-0.2054,-0.2109,-0.2109,-0.2189,-0.1952,-0.1936,-0.2008
688,-0.152,-0.1327,-0.1229,-0.1495,-0.1766,-0.1577,-0.1754,-0.1941
689,-0.1793,-0.1829,-0.192,-0.212,-0.2264,-0.2277,-0.2243,-0.2242
690,-0.0695,-0.0831,-0.092,-0.1358,-0.155,-0.1886,-0.2202,-0.2395
691,-0.1947,-0.2232,-0.2404,-0.2645,-0.2791,-0.3043,-0.2984,-0.3003
692,-0.0219,-0.0234,-0.0655,-0.1316,-0.1615,-0.2531,-0.2703,-0.2724
693,-0.1967,-0.2211,-0.2108,-0.2214,-0.2318,-0.1828,-0.1861,-0.2114
694,0.0246,0.088,0.0477,-0.0281,-0.0637,-0.1618,-0.1854,-0.192
695,-0.2106,-0.2576,-0.2435,-0.2675,-0.2865,-0.2435,-0.2433,-0.2676
696,0.1716,0.2895,0.2873,0.213,0.1725,0.1096,0.068,0.0435
697,-0.0993,-0.1653,-0.1757,-0.2222,-0.2695,-0.3577,-0.3448,-0.3439
698,0.0535,0.087,0.1029,0.0634,0.0011,-0.1596,-0.2232,-0.2712
699,-0.1633,-0.1775,-0.1917,-0.2148,-0.2459,-0.3753,-0.3761,-0.369
700,-0.1203,-0.1767,-0.1844,-0.0979,-0.0736,-0.1843,-0.1885,-0.192
701,-0.1009,-0.0361,-0.0136,0.0006,-0.0022,-0.0289,-0.059,-0.0659
702,-0.1316,-0.1902,-0.2054,-0.1473,-0.1404,-0.2914,-0.2816,-0.2779
703,-0.1277,-0.0386,-0.0373,-0.0232,-0.0258,-0.0459,-0.0664,-0.0815
704,-0.1509,-0.185,-0.191,-0.2107,-0.2359,-0.3836,-0.3608,-0.3555
705,0.051,0.0724,0.0317,0.0189,0.0041,-0.1049,-0.0956,-0.1019
706,-0.1891,-0.2358,-0.2606,-0.3105,-0.3271,-0.4634,-0.4152,-0.3927
707,0.079,0.0926,0.0736,0.0638,0.06,0.0161,0.0167,0.0094
708,-0.1519,-0.2229,-0.2527,-0.288,-0.2888,-0.4195,-0.3786,-0.3695
709,0.0596,0.0839,0.078,0.0728,0.0647,0.0086,-0.0193,-0.0331
710,-0.0902,-0.1583,-0.162,-0.1555,-0.1382,-0.1925,-0.1665,-0.1557
711,0.0354,0.0751,0.0807,0.0976,0.0945,0.0835,0.0668,0.0567
712,-0.0277,-0.0994,-0.0763,-0.0393,-0.0206,-0.0054,0.0338,0.0736
713,0.0117,0.0511,0.075,0.1007,0.1032,0.1497,0.1306,0.1123
714,-0.0019,-0.1042,-0.1109,-0.0946,-0.1059,-0.1853,-0.1286,-0.0802
715,-0.1713,-0.1541,-0.1203,-0.0791,-0.0694,0.0328,-0.0076,-0.0351
716,0.0685,-0.0312,-0.0877,-0.116,-0.1576,-0.3908,-0.3548,-0.333
717,-0.2086,-0.2374,-0.2168,-0.1509,-0.1283,0.026,0.0017,-0.0079
718,0.1964,0.1855,0.179,0.1724,0.1452,0.028,0.0118,-0.02
719,-0.387,-0.4906,-0.5075,-0.4551,-0.4298,-0.2967,-0.2662,-0.2298
720,0.1518,0.1838,0.2063,0.2249,0.2119,0.1878,0.144,0.1034
721,-0.2997,-0.3849,-0.3764,-0.3344,-0.2954,-0.1267,-0.0997,-0.0779
722,-0.0038,0.0296,-0.0248,-0.0926,-0.1799,-0.4058,-0.4558,-0.5121
723,-0.0564,-0.1068,-0.1219,-0.1257,-0.118,-0.1809,-0.1728,-0.1582
724,0.0899,0.1824,0.1515,0.1023,0.0574,-0.0166,-0.0601,-0.1039
725,-0.143,-0.1772,-0.1985,-0.2245,-0.2175,-0.3095,-0.3089,-0.3029
726,0.026,0.0321,-0.0128,-0.06,-0.1075,-0.3,-0.3338,-0.3628
727,-0.0019,0.0464,0.0962,0.137,0.1714,0.3935,0.4399,0.4762
728,0.0846,0.0846,0.0846,0.1159,0.1427,0.1829,0.213,0.2399
729,-0.0262,-0.0523,-0.0818,-0.112,-0.1371,-0.2459,-0.2755,-0.3023
730,-0.0344,-0.0174,0.0028,0.0231,0.0459,0.1204,0.131,0.1704
731,0.0367,0.0321,0.0638,0.081,0.095,0.1864,0.1893,0.186
732,-0.0077,-0.0271,-0.02,-0.0143,-0.0354,-0.0269,0.0375,0.1127
733,0.1652,0.2654,0.3718,0.4541,0.5358,0.953,0.9873,1.0118
734,-0.2101,-0.2684,-0.2608,-0.2627,-0.2661,-0.3069,-0.2598,-0.2082
735,0.1123,0.2187,0.2725,0.2982,0.3191,0.4455,0.3982,0.3587
736,-0.1031,-0.2005,-0.2637,-0.3153,-0.3816,-0.6522,-0.6272,-0.6171
737,-0.0107,0.0105,0.0002,0.01,0.0117,-0.0298,-0.0568,-0.0766
738,-0.1424,-0.2026,-0.2269,-0.2469,-0.2899,-0.4308,-0.3998,-0.3948
739,-0.1444,-0.1815,-0.196,-0.1815,-0.172,-0.1428,-0.1172,-0.1038
740,-0.089,-0.1404,-0.1489,-0.1578,-0.1935,-0.279,-0.2532,-0.2567
741,-0.1781,-0.2369,-0.2777,-0.2811,-0.2911,-0.3213,-0.2939,-0.2819
742,-0.0673,-0.0923,-0.113,-0.1372,-0.1688,-0.2303,-0.2227,-0.2265
743,-0.2257,-0.2468,-0.2493,-0.2351,-0.2321,-0.194,-0.19,-0.1903
744,-0.1424,-0.1671,-0.1882,-0.2218,-0.2416,-0.2916,-0.3172,-0.3355
745,-0.1664,-0.1839,-0.1857,-0.1921,-0.2007,-0.1951,-0.2002,-0.2067
746,-0.0221,-0.0632,-0.0931,-0.1373,-0.1547,-0.2025,-0.2235,-0.2267
747,-0.2453,-0.2679,-0.2469,-0.2517,-0.2536,-0.2168,-0.2307,-0.255
748,0.0213,0.0008,-0.0547,-0.122,-0.1588,-0.2623,-0.2616,-0.2512
749,-0.2674,-0.2981,-0.2745,-0.2941,-0.3001,-0.2561,-0.2696,-0.3021
750,0.0474,0.123,0.0916,0.0163,-0.0219,-0.071,-0.0763,-0.071
751,-0.2529,-0.2838,-0.2806,-0.3319,-0.3584,-0.363,-0.3462,-0.348
752,0.1884,0.2777,0.2614,0.1681,0.106,0.0172,0.0103,0.0163
753,-0.0747,-0.0673,-0.0744,-0.1308,-0.1772,-0.2543,-0.2395,-0.2338
754,-0.0739,-0.0797,-0.1096,-0.145,-0.2088,-0.4178,-0.427,-0.4218
755,-0.0957,-0.0256,-0.015,-0.0322,-0.0444,-0.0841,-0.101,-0.1087
756,-0.0961,-0.1508,-0.1785,-0.0975,-0.0727,-0.1894,-0.1632,-0.1301
757,-0.1337,-0.0332,0.0169,0.0302,0.0415,0.1115,0.0895,0.0773
758,-0.14,-0.1652,-0.1642,-0.1222,-0.1328,-0.2697,-0.273,-0.272
759,-0.0279,0.0324,0.0183,0.0024,-0.0073,-0.071,-0.0887,-0.1123
760,-0.0577,-0.0316,-0.0256,-0.0594,-0.089,-0.1965,-0.1873,-0.1867
761,0.1319,0.1099,0.0713,0.0544,0.0391,-0.0528,-0.04,-0.0453
762,-0.1437,-0.1526,-0.1782,-0.2457,-0.2719,-0.4357,-0.4138,-0.4096
763,0.1484,0.1657,0.1503,0.1421,0.1272,0.1178,0.1098,0.0983
764,-0.1619,-0.2001,-0.1976,-0.2113,-0.1927,-0.2378,-0.2029,-0.1944
765,0.0876,0.1081,0.0849,0.0759,0.0619,0.0025,-0.0224,-0.0295
766,-0.2517,-0.3296,-0.3193,-0.309,-0.3018,-0.3811,-0.3614,-0.3521
767,0.0004,0.0316,0.0154,0.0152,0.0067,-0.0354,-0.0511,-0.0605
768,-0.2324,-0.3099,-0.2821,-0.2587,-0.2669,-0.3227,-0.3049,-0.2867
769,-0.0725,-0.0559,-0.041,-0.0203,-0.0094,0.0414,0.0355,0.0205
770,-0.0814,-0.149,-0.122,-0.1045,-0.1288,-0.1918,-0.1792,-0.1626
771,-0.227,-0.2801,-0.2751,-0.2499,-0.2392,-0.2013,-0.1981,-0.1978
772,0.08,0.0535,0.0696,0.0752,0.0482,-0.0171,-0.0171,-0.0178
773,-0.3022,-0.432,-0.4814,-0.4587,-0.4535,-0.4768,-0.4443,-0.4072
774,0.0755,0.1397,0.2067,0.2652,0.2909,0.4316,0.4061,0.3755
775,-0.414,-0.6122,-0.7341,-0.7526,-0.7782,-0.9446,-0.8819,-0.8139
776,0.1137,0.1888,0.2686,0.3397,0.382,0.5715,0.5353,0.5003
777,-0.2429,-0.3607,-0.4395,-0.4767,-0.5029,-0.6178,-0.584,-0.5477
778,-0.1035,-0.1065,-0.1495,-0.2142,-0.2798,-0.5319,-0.5765,-0.6287
779,0.0365,0.0311,0.0072,-0.0041,-0.0036,-0.0557,-0.058,-0.0397
780,0.0482,0.1216,0.0473,-0.0132,-0.0847,-0.2785,-0.3179,-0.3591
781,0.0531,0.1057,0.1583,0.2014,0.2677,0.494,0.5307,0.6024
782,-0.0797,-0.0779,-0.1137,-0.1102,-0.1207,-0.1844,-0.171,-0.155
783,0.1041,0.1291,0.156,0.1846,0.2085,0.3396,0.3923,0.4196
784,-0.0803,-0.0694,-0.0422,-0.0144,0.0141,0.1297,0.1603,0.1877
785,0.0336,0.0446,0.0641,0.0554,0.0258,0.0713,0.0427,0.0131
786,-0.0349,-0.0194,0.0061,0.0343,0.0689,0.1982,0.2247,0.2599
787,0.0776,0.0529,0.0635,0.068,0.0712,0.0754,0.0675,0.0575
788,-0.0742,-0.1122,-0.1075,-0.1009,-0.0894,-0.0975,-0.0687,0.0065
789,0.0883,0.1499,0.2047,0.2546,0.2977,0.5285,0.5461,0.5527
790,-0.2297,-0.3127,-0.348,-0.3859,-0.4425,-0.6537,-0.6602,-0.6413
791,0.1213,0.2,0.2412,0.2973,0.325,0.4426,0.3848,0.337
792,-0.1553,-0.2642,-0.33,-0.3866,-0.4647,-0.7692,-0.7648,-0.7761
793,-0.1382,-0.134,-0.1321,-0.0956,-0.0757,-0.051,-0.0673,-0.0754
794,-0.0044,-0.0791,-0.1021,-0.1129,-0.145,-0.2552,-0.2242,-0.2286
795,-0.2496,-0.3168,-0.3422,-0.3266,-0.3081,-0.3061,-0.2801,-0.2511
796,-0.1375,-0.2233,-0.255,-0.27,-0.3077,-0.4353,-0.3949,-0.3903
797,-0.2469,-0.3124,-0.3483,-0.3509,-0.3616,-0.4101,-0.3954,-0.3772
798,-0.0733,-0.1305,-0.1645,-0.1861,-0.2051,-0.2879,-0.27,-0.2667
799,-0.2544,-0.2797,-0.2841,-0.2702,-0.2703,-0.2344,-0.2338,-0.2254
800,-0.1658,-0.2064,-0.2345,-0.2543,-0.2613,-0.3061,-0.3288,-0.3416
801,-0.2043,-0.2388,-0.2395,-0.2421,-0.2484,-0.2316,-0.234,-0.2326
802,-0.0374,-0.0654,-0.0914,-0.1116,-0.1148,-0.1216,-0.146,-0.1552
803,-0.182,-0.2279,-0.2154,-0.2199,-0.2149,-0.1773,-0.1844,-0.2012
804,0.0274,0.0472,0.024,-0.0118,-0.0228,-0.0034,-0.0053,-0.0004
805,-0.2246,-0.2923,-0.2946,-0.3193,-0.3139,-0.2961,-0.2797,-0.2827
806,0.0068,0.0854,0.0739,0.017,-0.0006,0.0334,0.0388,0.0506
807,-0.0593,-0.1109,-0.1559,-0.2168,-0.2443,-0.3351,-0.3036,-0.2918
808,0.0079,0.0462,0.0004,-0.1017,-0.1748,-0.3484,-0.3575,-0.3535
809,-0.0466,-0.0254,-0.0599,-0.1031,-0.127,-0.2161,-0.2036,-0.1973
810,-0.1355,-0.1488,-0.1837,-0.1692,-0.1865,-0.2905,-0.2759,-0.2523
811,-0.1598,-0.087,-0.0904,-0.1087,-0.1097,-0.1599,-0.1769,-0.1869
812,-0.1395,-0.1628,-0.1756,-0.0932,-0.0665,-0.118,-0.1081,-0.0852
813,-0.1671,-0.0649,-0.0146,0.0097,0.0402,0.1635,0.1518,0.1385
814,-0.1692,-0.1434,-0.1312,-0.09,-0.0944,-0.1364,-0.1551,-0.1628
815,-0.027,-0.0084,-0.0343,-0.0496,-0.0511,-0.1338,-0.1349,-0.1514
816,-0.166,-0.1071,-0.1125,-0.1528,-0.1737,-0.2172,-0.1981,-0.1834
817,0.0587,0.0311,0.0063,-0.0054,-0.018,-0.0772,-0.0632,-0.0731
818,-0.1162,-0.1237,-0.1784,-0.2568,-0.2799,-0.4478,-0.3924,-0.3615
819,0.1755,0.176,0.1481,0.129,0.1072,0.0622,0.0535,0.0385
820,-0.0886,-0.1427,-0.1895,-0.2256,-0.2215,-0.3712,-0.3149,-0.2873
821,0.1534,0.159,0.1173,0.099,0.0875,0.0211,0.0122,0.0113
822,-0.1832,-0.2565,-0.2794,-0.2921,-0.3125,-0.4899,-0.4637,-0.4463
823,0.0162,0.0381,0.0069,-0.0009,-0.0053,-0.029,-0.0365,-0.0465
824,-0.0782,-0.1168,-0.0974,-0.0823,-0.1065,-0.1944,-0.187,-0.1737
825,-0.0983,-0.1293,-0.145,-0.1507,-0.155,-0.1783,-0.1708,-0.1768
826,-0.0827,-0.0771,-0.0183,0.0143,0.0005,0.0306,0.0232,0.0234
827,-0.1711,-0.2651,-0.2778,-0.2613,-0.2515,-0.2446,-0.2092,-0.1838
828,-0.0847,-0.0756,-0.0427,-0.0275,-0.0474,-0.0777,-0.1007,-0.1231
829,-0.3359,-0.4607,-0.492,-0.467,-0.4592,-0.4373,-0.3926,-0.3454
830,0.1591,0.2432,0.3084,0.3575,0.3772,0.5022,0.4599,0.4063
831,-0.3279,-0.5187,-0.6258,-0.6412,-0.6663,-0.7856,-0.7124,-0.627
832,-0.0199,0.068,0.1353,0.1845,0.2244,0.3901,0.3574,0.3268
833,-0.1188,-0.2144,-0.2738,-0.2865,-0.3123,-0.3364,-0.2933,-0.24
834,-0.1565,-0.2083,-0.2468,-0.2956,-0.3254,-0.548,-0.5647,-0.5694
835,0.0848,0.1146,0.1063,0.1083,0.1133,0.1387,0.1264,0.1361
836,-0.0752,-0.1173,-0.1686,-0.2334,-0.2719,-0.4989,-0.5007,-0.4713
837,0.0907,0.1812,0.2861,0.3817,0.4793,0.9397,0.9873,1.0625
838,0.0267,0.0048,-0.0118,-0.0231,-0.0353,-0.0872,-0.0724,-0.0504
839,-0.0119,0.0227,0.0521,0.0837,0.1103,0.2479,0.2616,0.2681
840,0.0217,0.0073,-0.0021,-0.006,-0.0025,-0.0391,-0.042,-0.037
841,-0.0095,0.0203,0.0535,0.0745,0.0817,0.2329,0.2452,0.2436
842,-0.0489,-0.0306,-0.0044,0.0188,0.0456,0.1573,0.1753,0.1947
843,-0.1127,-0.1396,-0.1754,-0.2068,-0.2442,-0.4005,-0.4336,-0.4544
844,0.0476,0.0623,0.1058,0.1482,0.1975,0.3932,0.4509,0.534
845,-0.0619,-0.0667,-0.0726,-0.0587,-0.0567,-0.0654,-0.0829,-0.1052
846,-0.1189,-0.1951,-0.2457,-0.2857,-0.3422,-0.5792,-0.5919,-0.5918
847,0.0438,0.132,0.1961,0.2728,0.3045,0.5007,0.4515,0.408
848,-0.0921,-0.1688,-0.1961,-0.2104,-0.2452,-0.3517,-0.3149,-0.3078
849,-0.1238,-0.1443,-0.147,-0.1166,-0.1001,-0.142,-0.164,-0.1742
850,0.108,0.0279,0.012,0.0213,0.0097,-0.0278,0.0279,0.036
851,-0.259,-0.3164,-0.326,-0.2828,-0.2548,-0.1756,-0.1564,-0.1246
852,-0.1168,-0.2316,-0.2762,-0.2898,-0.3096,-0.4308,-0.3723,-0.351
853,-0.1553,-0.1815,-0.1899,-0.1777,-0.1851,-0.1829,-0.1911,-0.1803
854,-0.0694,-0.1452,-0.1743,-0.178,-0.1742,-0.2142,-0.1775,-0.157
855,-0.136,-0.1632,-0.1819,-0.1827,-0.206,-0.2308,-0.2347,-0.2239
856,-0.0456,-0.049,-0.0529,-0.0478,-0.0347,0.0114,-0.0162,-0.0362
857,-0.136,-0.1805,-0.1994,-0.203,-0.2245,-0.2489,-0.2395,-0.2237
858,-0.106,-0.065,-0.0457,-0.0225,0.0031,0.1494,0.1114,0.084
859,-0.1748,-0.2245,-0.2278,-0.2206,-0.2157,-0.1878,-0.1926,-0.1979
860,0.0237,0.0771,0.0751,0.0702,0.0809,0.1598,0.1454,0.132
861,-0.1192,-0.1712,-0.1749,-0.1719,-0.1504,-0.0629,-0.0428,-0.0339
862,-0.0287,0.0113,-0.0305,-0.0896,-0.116,-0.2022,-0.2068,-0.2127
863,-0.0746,-0.1229,-0.1735,-0.2117,-0.2233,-0.2927,-0.2757,-0.2614
864,-0.1068,-0.0875,-0.1388,-0.216,-0.2714,-0.4438,-0.4521,-0.4556
865,-0.0452,-0.0291,-0.0747,-0.1115,-0.1305,-0.2507,-0.2699,-0.2742
866,-0.1652,-0.1612,-0.1641,-0.1085,-0.0905,-0.0705,-0.0672,-0.0588
867,-0.0916,-0.0182,-0.0117,-0.0171,-0.009,-0.027,-0.061,-0.0731
868,-0.1132,-0.1256,-0.1243,-0.0546,-0.0434,-0.1009,-0.1321,-0.1414
869,-0.1274,-0.0456,-0.0222,-0.0041,0.0235,0.097,0.084,0.0704
870,-0.1801,-0.161,-0.157,-0.1317,-0.1377,-0.1763,-0.1909,-0.189
871,-0.0661,-0.0799,-0.1246,-0.1397,-0.1428,-0.2348,-0.2056,-0.2068
872,-0.0448,-0.0473,-0.094,-0.175,-0.2129,-0.3569,-0.3174,-0.2808
873,0.1812,0.1516,0.1136,0.1001,0.081,-0.0021,0.0187,0.0057
874,-0.0472,-0.134,-0.2423,-0.3423,-0.373,-0.6641,-0.5819,-0.5369
875,0.1711,0.1595,0.1158,0.093,0.0709,-0.0199,-0.026,-0.0377
876,-0.1141,-0.1885,-0.2651,-0.303,-0.3003,-0.4825,-0.4036,-0.3616
877,0.112,0.0994,0.0526,0.0395,0.0372,-0.0084,0.0035,0.0123
878,-0.0672,-0.1143,-0.1525,-0.1651,-0.1829,-0.3457,-0.3069,-0.283
879,0.017,-0.0033,-0.0355,-0.0379,-0.0289,-0.0358,-0.0189,-0.0115
880,-0.0142,0.0043,0.0217,0.0401,0.0217,-0.0182,-0.0109,-0.0005
881,-0.1212,-0.1808,-0.2073,-0.2206,-0.2287,-0.2716,-0.249,-0.2339
882,-0.0548,-0.0105,0.0421,0.082,0.0747,0.1335,0.1258,0.1245
883,-0.0698,-0.1558,-0.1671,-0.1608,-0.1575,-0.149,-0.1208,-0.097
884,0.0595,0.087,0.1181,0.1294,0.106,0.0915,0.0722,0.0525
885,-0.2096,-0.3031,-0.3032,-0.2723,-0.262,-0.1681,-0.1444,-0.1181
886,0.122,0.1904,0.2279,0.2363,0.2316,0.2661,0.2372,0.2044
887,-0.1657,-0.2878,-0.329,-0.3084,-0.308,-0.2544,-0.2108,-0.158
888,0.1046,0.1971,0.2303,0.2377,0.2543,0.3492,0.3294,0.3157
889,-0.0647,-0.0984,-0.1115,-0.0816,-0.0795,0.0412,0.0658,0.1066
890,-0.0595,-0.0791,-0.0991,-0.1159,-0.0944,-0.1318,-0.0994,-0.0463
891,0.1902,0.2627,0.2796,0.2956,0.296,0.3619,0.3167,0.2989
892,-0.052,-0.092,-0.1424,-0.2157,-0.2613,-0.5018,-0.5045,-0.4673
893,0.1857,0.2753,0.3854,0.5053,0.6079,1.0955,1.1185,1.1654
894,0.102,0.0891,0.0473,0.0229,-0.0014,-0.0972,-0.0819,-0.065
895,0.0738,0.1336,0.2107,0.2888,0.3381,0.6609,0.6932,0.7169
896,-0.0606,-0.0855,-0.1105,-0.1344,-0.1631,-0.2898,-0.3174,-0.346
897,0.0098,0.0354,0.0616,0.0865,0.1156,0.2479,0.2746,0.3028
898,0.0574,0.0923,0.1303,0.1719,0.2182,0.4097,0.4463,0.4858
899,-0.0196,-0.0707,-0.1222,-0.1668,-0.2164,-0.4427,-0.4769,-0.5081
900,0.1081,0.1914,0.2748,0.3507,0.4329,0.8249,0.8569,0.9022
901,0.0334,0.0159,-0.0171,-0.0666,-0.141,-0.3614,-0.3799,-0.397
902,-0.0231,-0.0497,-0.0412,-0.0255,-0.0281,0.0057,0.0353,0.0644
903,0.0809,0.1961,0.284,0.3603,0.3908,0.6572,0.6217,0.5901
904,-0.0299,-0.0613,-0.0443,-0.023,-0.0223,0.0622,0.1024,0.1142
905,-0.0052,0.0131,0.0365,0.0724,0.0863,0.1368,0.123,0.1281
906,0.0314,-0.0359,-0.0371,-0.0167,-0.0151,0.024,0.0791,0.0854
907,-0.1928,-0.1963,-0.1765,-0.1212,-0.0952,0.055,0.0543,0.0776
908,0.0014,-0.1166,-0.1673,-0.1807,-0.1996,-0.3161,-0.2633,-0.2416
909,-0.2019,-0.2072,-0.1958,-0.171,-0.1711,-0.1254,-0.1466,-0.1386
910,-0.047,-0.1239,-0.1622,-0.1678,-0.1787,-0.2576,-0.2314,-0.2103
911,-0.1569,-0.173,-0.1913,-0.1887,-0.2091,-0.2315,-0.2312,-0.2148
912,-0.0459,-0.0323,-0.031,-0.0225,-0.0167,0.0428,0.0289,0.0212
913,-0.051,-0.0653,-0.0774,-0.0806,-0.104,-0.1205,-0.1156,-0.1004
914,-0.1122,-0.0444,-0.0018,0.0371,0.0709,0.2697,0.2489,0.2332
915,-0.1446,-0.135,-0.1117,-0.0843,-0.0727,0.042,0.025,0.0179
916,-0.1231,-0.0618,-0.0485,-0.0402,-0.0223,0.056,0.052,0.0406
917,-0.127,-0.1451,-0.1521,-0.1351,-0.1159,-0.0326,-0.041,-0.0379
918,-0.202,-0.1538,-0.1818,-0.2165,-0.2227,-0.2821,-0.2637,-0.2549
919,-0.0018,-0.0386,-0.0842,-0.0984,-0.1053,-0.165,-0.1713,-0.1617
920,-0.1201,-0.0779,-0.1158,-0.1609,-0.1986,-0.3321,-0.3324,-0.337
921,-0.0081,0.0237,0.017,0.0188,0.0176,0.0051,-0.0188,-0.017
922,-0.1387,-0.1232,-0.1235,-0.0697,-0.0571,-0.062,-0.0542,-0.0498
923,-0.2027,-0.1059,-0.0722,-0.0561,-0.05,0.0058,-0.0358,-0.0451
924,-0.2349,-0.2485,-0.2432,-0.1832,-0.1726,-0.2241,-0.2292,-0.2269
925,-0.1157,-0.0595,-0.0634,-0.0643,-0.0651,-0.0919,-0.103,-0.1065
926,-0.2122,-0.2376,-0.2597,-0.2652,-0.2799,-0.3791,-0.3582,-0.3325
927,0.0081,-0.0055,-0.0643,-0.0833,-0.0912,-0.2012,-0.1738,-0.1655
928,-0.1669,-0.2462,-0.3186,-0.4131,-0.4562,-0.6881,-0.6336,-0.5905
929,0.1891,0.1636,0.1019,0.0841,0.0699,-0.0347,-0.0134,-0.0153
930,-0.154,-0.2703,-0.3613,-0.432,-0.4458,-0.6801,-0.6024,-0.5634
931,0.1457,0.1254,0.0735,0.0525,0.0269,-0.065,-0.059,-0.0592
932,0.095,0.0277,-0.0217,-0.0296,-0.0174,-0.1323,-0.0824,-0.0646
933,0.0681,0.0274,-0.0118,-0.027,-0.0415,-0.098,-0.0693,-0.0459
934,0.1338,0.138,0.1378,0.1567,0.1602,0.1506,0.1778,0.1929
935,-0.0182,-0.0733,-0.1018,-0.1087,-0.1126,-0.1463,-0.1166,-0.0929
936,0.0685,0.12,0.1244,0.1354,0.1169,0.0845,0.0803,0.0677
937,-0.0171,-0.0743,-0.0808,-0.0866,-0.0823,-0.0761,-0.0542,-0.0303
938,0.0502,0.1182,0.1538,0.1803,0.1738,0.2379,0.233,0.2201
939,-0.0326,-0.0755,-0.0634,-0.0567,-0.0517,0.0056,0.0045,0.0156
940,0.0658,0.1072,0.1241,0.118,0.0998,0.0944,0.0873,0.0821
941,-0.109,-0.1515,-0.1239,-0.0909,-0.0779,0.039,0.0228,0.0133
942,-0.0095,0.0626,0.0953,0.0966,0.1095,0.2094,0.2165,0.2224
943,-0.0322,-0.0802,-0.0668,-0.0238,-0.0074,0.1381,0.1428,0.1481
944,-0.0442,0.0364,0.0593,0.0778,0.1166,0.269,0.2802,0.2941
945,0.0329,0.0484,0.0625,0.0992,0.1089,0.2316,0.2335,0.246
946,0.0156,0.0388,0.0569,0.0816,0.1406,0.3113,0.3787,0.4454
947,0.171,0.2923,0.3237,0.3359,0.3445,0.4378,0.3953,0.3762
948,-0.0601,-0.0897,-0.1508,-0.205,-0.2233,-0.4404,-0.419,-0.372
949,0.131,0.2842,0.4251,0.5378,0.6444,1.2469,1.2899,1.3505
950,0.0836,0.0784,0.0238,-0.0129,-0.0372,-0.1736,-0.1667,-0.1597
951,0.0131,0.0655,0.1377,0.1883,0.239,0.5134,0.5467,0.5868
952,0.0843,0.0843,0.0843,0.0843,0.0843,0.0843,0.0843,0.0843
953,-0.0304,-0.0304,-0.0304,-0.0304,-0.0304,-0.0304,-0.0304,-0.0304
954,-0.0132,-0.0066,-0.0008,0.0052,0.0023,0.0393,0.0308,0.0152
955,-0.0956,-0.1031,-0.1078,-0.0898,-0.0728,-0.0449,-0.001,0.0332
956,0.0363,0.1033,0.1806,0.2425,0.305,0.6133,0.5859,0.5725
957,0.0502,0.0501,0.0222,-0.021,-0.0775,-0.2302,-0.2306,-0.2313
958,-0.007,0.011,0.0678,0.1249,0.1498,0.3914,0.4178,0.4521
959,0.2697,0.425,0.5194,0.5942,0.6303,0.9228,0.8812,0.8434
960,0.1249,0.144,0.2067,0.2581,0.2849,0.5445,0.5767,0.5824
961,0.195,0.2542,0.305,0.3512,0.3702,0.4974,0.4847,0.4986
962,-0.0081,-0.0296,0.0066,0.0504,0.0679,0.2499,0.2922,0.299
963,-0.0393,-0.0041,0.0244,0.0767,0.098,0.2465,0.2223,0.2328
964,0.0514,-0.0127,-0.0492,-0.0537,-0.0677,-0.1206,-0.0891,-0.0786
965,-0.0986,-0.1015,-0.0943,-0.066,-0.0637,-0.0245,-0.0449,-0.0312
966,0.061,0.0034,-0.0614,-0.0902,-0.129,-0.2927,-0.2904,-0.2789
967,-0.1573,-0.1853,-0.1977,-0.1952,-0.212,-0.2589,-0.2566,-0.2389
968,-0.0379,-0.0193,-0.0514,-0.0721,-0.0957,-0.161,-0.182,-0.18
969,-0.0829,-0.0861,-0.0893,-0.0916,-0.1197,-0.1436,-0.1435,-0.1373
970,-0.0962,-0.0477,-0.0305,-0.0275,-0.0244,0.0046,-0.0109,-0.0124
971,-0.1511,-0.1129,-0.0899,-0.073,-0.0736,0.0216,0.0037,-0.0025
972,-0.2093,-0.1723,-0.1599,-0.147,-0.1303,-0.1213,-0.1073,-0.0924
973,-0.1105,-0.1174,-0.1388,-0.1391,-0.1463,-0.1588,-0.1863,-0.1932
974,-0.2519,-0.2079,-0.2265,-0.2324,-0.2298,-0.2993,-0.2675,-0.2417
975,-0.0956,-0.1172,-0.1615,-0.1735,-0.1913,-0.2615,-0.2672,-0.2522
976,-0.2326,-0.1977,-0.225,-0.2308,-0.2497,-0.3552,-0.3264,-0.3096
977,-0.1106,-0.0956,-0.1176,-0.1198,-0.1318,-0.1959,-0.2101,-0.1989
978,-0.3127,-0.3307,-0.3514,-0.3172,-0.3273,-0.4474,-0.4167,-0.3968
979,-0.0831,-0.0137,-0.0116,-0.0154,-0.0275,-0.0851,-0.1262,-0.1351
980,-0.3018,-0.3541,-0.3719,-0.3334,-0.3343,-0.4477,-0.4084,-0.3843
981,-0.0432,0.0086,-0.015,-0.0314,-0.0475,-0.1481,-0.1734,-0.1774
982,-0.2392,-0.3082,-0.3579,-0.3832,-0.4045,-0.5649,-0.5237,-0.4977
983,0.0805,0.0954,0.0398,0.0161,0.0107,-0.0965,-0.0798,-0.0606
984,-0.0138,-0.0969,-0.1376,-0.1826,-0.195,-0.3114,-0.2691,-0.2478
985,0.0687,0.0421,-0.0218,-0.0418,-0.047,-0.1412,-0.1088,-0.0852
986,0.1052,0.043,0.027,0.0264,0.052,0.0473,0.085,0.0935
987,0.0868,0.0613,0.0185,-0.002,-0.0234,-0.0919,-0.0736,-0.0564
988,0.107,0.107,0.1227,0.1543,0.1769,0.2299,0.2377,0.2264
989,0.0813,0.0404,0.0125,-0.0025,-0.0268,-0.0917,-0.0759,-0.0611
990,0.1071,0.1923,0.2383,0.2832,0.2996,0.4478,0.4437,0.4326
991,0.0087,-0.0247,-0.0333,-0.0354,-0.042,-0.0347,-0.0114,0.0078
992,0.2147,0.2929,0.3114,0.3268,0.3215,0.3642,0.3415,0.3155
993,-0.027,-0.0441,-0.03,-0.034,-0.0349,-0.0196,-0.0204,-0.0116
994,0.0369,0.1215,0.1603,0.1799,0.1868,0.2985,0.281,0.258
995,-0.0494,-0.0474,-0.0234,-0.025,-0.0264,0.0153,-0.0046,-0.0021
996,0.0909,0.1777,0.2173,0.2457,0.2761,0.4651,0.4705,0.4806
997,0.0771,0.0723,0.0993,0.1171,0.123,0.1889,0.1692,0.1558
998,0.0615,0.1378,0.1493,0.1546,0.1801,0.2964,0.2929,0.2964
999,0.0118,0.015,0.0472,0.0785,0.0945,0.2016,0.194,0.1925
1000,0.0243,0.0926,0.1138,0.1528,0.2177,0.4377,0.4624,0.4938
1001,0.2234,0.2612,0.2723,0.276,0.2724,0.2733,0.2539,0.2476
1002,-0.0222,-0.0025,0.0161,0.0471,0.1068,0.2907,0.3476,0.4122
1003,0.2355,0.3772,0.4171,0.4312,0.435,0.5615,0.5327,0.5215
1004,0.0426,0.03,-0.0042,-0.0105,0.0274,-0.0125,0.04,0.1029
1005,0.1741,0.3717,0.5065,0.6474,0.7685,1.4358,1.4695,1.5266
1006,-0.0168,-0.0174,-0.0621,-0.0947,-0.1001,-0.1648,-0.1181,-0.0756
1007,0.0504,0.142,0.1991,0.2465,0.2868,0.5501,0.5525,0.5616
1008,0.034,-0.0025,-0.0194,-0.0386,-0.067,-0.1625,-0.164,-0.1971
1009,0.0016,0.0295,0.06,0.0905,0.108,0.2678,0.2951,0.3181
1010,-0.0334,-0.0087,0.0119,0.0288,0.0473,0.1412,0.1407,0.153
1011,-0.0545,-0.0689,-0.0806,-0.0801,-0.0795,-0.0845,-0.0449,-0.0329
1012,0.206,0.3345,0.4531,0.5473,0.6473,1.0987,1.0682,1.051
1013,-0.0387,-0.0859,-0.1428,-0.1924,-0.2481,-0.4651,-0.4229,-0.3924
1014,0.1698,0.211,0.2854,0.3498,0.3833,0.6514,0.6425,0.6613
1015,0.2588,0.4465,0.5544,0.6422,0.6921,1.0672,1.0462,1.0151
1016,0.1528,0.2022,0.2754,0.3292,0.3541,0.6404,0.6445,0.6339
1017,0.1548,0.2298,0.2651,0.3017,0.3136,0.3834,0.3651,0.3737
1018,0.1977,0.2449,0.3062,0.3594,0.3795,0.6343,0.633,0.6072
1019,0.188,0.2247,0.2496,0.2946,0.3209,0.4292,0.4038,0.42
1020,0.2323,0.2612,0.2775,0.3129,0.3231,0.4639,0.465,0.4559
1021,0.0611,0.081,0.1051,0.1417,0.158,0.2519,0.236,0.2517
1022,0.1125,0.1455,0.1207,0.1242,0.1091,0.1134,0.1024,0.1127
1023,0.0067,-0.0271,-0.0321,-0.0301,-0.0434,-0.0886,-0.0893,-0.0764
1024,0.0906,0.1442,0.1271,0.1111,0.0843,0.0386,0.0053,0.0012
1025,-0.1577,-0.1878,-0.1934,-0.1946,-0.2161,-0.2613,-0.2568,-0.2491
1026,-0.0603,0.0076,0.026,0.0183,0.0061,-0.0095,-0.0489,-0.0655
1027,-0.1066,-0.1168,-0.1246,-0.1404,-0.1666,-0.2303,-0.2481,-0.2522
1028,-0.0483,-0.0009,0.0177,0.0286,0.0224,-0.0205,-0.0463,-0.0513
1029,-0.1826,-0.176,-0.1852,-0.1902,-0.1944,-0.1993,-0.2007,-0.1929
1030,-0.188,-0.1469,-0.1373,-0.1183,-0.1137,-0.1607,-0.158,-0.147
1031,-0.2222,-0.2274,-0.2413,-0.2316,-0.2264,-0.2079,-0.1823,-0.1516
1032,-0.2544,-0.259,-0.262,-0.2483,-0.2627,-0.3812,-0.3627,-0.3449
1033,-0.0818,-0.073,-0.0983,-0.0979,-0.1087,-0.1821,-0.1823,-0.1729
1034,-0.2206,-0.2714,-0.2874,-0.257,-0.2707,-0.4217,-0.387,-0.3628
1035,0.0147,0.0625,0.0618,0.0684,0.0646,0.0275,0.0071,0.0063
1036,-0.1719,-0.2504,-0.272,-0.2493,-0.2574,-0.4029,-0.359,-0.3313
1037,0.0011,0.056,0.0528,0.052,0.0511,0.0239,0.0016,0.0055
1038,-0.0448,-0.0892,-0.0935,-0.0896,-0.0931,-0.1277,-0.1021,-0.095
1039,0.1053,0.1145,0.0786,0.0653,0.0669,0.0076,0.0143,0.0409
1040,0.0221,0.012,0.0425,0.0576,0.08,0.1782,0.1791,0.1665
1041,0.1033,0.0778,0.0472,0.0466,0.0522,0.041,0.0608,0.0892
1042,0.1418,0.1582,0.195,0.2285,0.2634,0.3898,0.3724,0.3486
1043,0.0538,0.0499,0.0573,0.0669,0.0646,0.1271,0.1299,0.1322
1044,0.1981,0.2663,0.3161,0.356,0.3793,0.5156,0.4893,0.4659
1045,0.0104,0.0185,0.0485,0.0719,0.0823,0.1863,0.1899,0.1874
1046,0.1633,0.2604,0.3114,0.3449,0.3562,0.4874,0.4665,0.447
1047,0.1022,0.1281,0.1539,0.1678,0.1716,0.2374,0.2202,0.2043
1048,0.0908,0.1709,0.1986,0.2079,0.2059,0.273,0.2441,0.2158
1049,0.0621,0.1116,0.1539,0.1651,0.1697,0.243,0.2216,0.2189
1050,0.105,0.1885,0.2294,0.2497,0.2655,0.4125,0.3767,0.3599
1051,0.1158,0.1622,0.1956,0.199,0.1962,0.2497,0.2373,0.237
1052,0.1892,0.2812,0.3133,0.3535,0.3941,0.6051,0.5753,0.5764
1053,0.0502,0.0798,0.1125,0.1231,0.1271,0.1881,0.1867,0.1849
1054,0.0823,0.1565,0.1594,0.1835,0.2159,0.3517,0.3199,0.3121
1055,0.1518,0.1906,0.22,0.236,0.2365,0.2902,0.285,0.2789
1056,0.0678,0.1578,0.188,0.2392,0.2925,0.5659,0.5643,0.5812
1057,0.2653,0.331,0.3486,0.3499,0.3527,0.3698,0.3632,0.3592
1058,0.1164,0.1557,0.1659,0.1821,0.2011,0.3381,0.3608,0.4075
1059,0.3092,0.4519,0.507,0.546,0.5726,0.8,0.8023,0.8007
1060,0.089,0.0428,-0.0189,-0.0641,-0.0964,-0.3057,-0.3005,-0.2875
1061,0.2368,0.3885,0.5058,0.5933,0.6892,1.1631,1.1829,1.1997
1062,0.0442,-0.0215,-0.0774,-0.1076,-0.1313,-0.3035,-0.2863,-0.2672
1063,0.0737,0.1215,0.1699,0.2086,0.2433,0.4171,0.4287,0.4414
1064,0.0119,0.0119,0.0403,0.0184,-0.0117,-0.0393,-0.0651,-0.0909
1065,-0.0964,-0.117,-0.1413,-0.1562,-0.1631,-0.2277,-0.2115,-0.2159
1066,0.0976,0.1365,0.1789,0.2104,0.2461,0.4362,0.45,0.4644
1067,0.1193,0.139,0.1652,0.1916,0.2189,0.3064,0.3427,0.3713
1068,0.0926,0.234,0.3515,0.4632,0.5594,1.0147,0.973,0.9522
1069,-0.0568,-0.1349,-0.1967,-0.2363,-0.2751,-0.4909,-0.4389,-0.4057
1070,0.1532,0.2405,0.3357,0.4057,0.4657,0.7757,0.7275,0.7258
1071,0.2867,0.4305,0.5084,0.5836,0.6343,0.9434,0.9716,0.9724
1072,0.2325,0.3237,0.4204,0.4899,0.5248,0.868,0.8372,0.8133
1073,0.2601,0.327,0.3355,0.3552,0.3616,0.3875,0.3935,0.408
1074,0.2449,0.3483,0.4387,0.5062,0.5216,0.8294,0.7693,0.7047
1075,0.1985,0.2266,0.2349,0.2622,0.287,0.3142,0.3058,0.3275
1076,0.1857,0.2986,0.3823,0.4699,0.5106,0.8539,0.8052,0.7636
1077,0.2497,0.2758,0.3022,0.3291,0.3375,0.4,0.3826,0.3885
1078,0.1554,0.2619,0.2992,0.3526,0.3709,0.5776,0.5375,0.523
1079,0.0321,0.0595,0.1182,0.169,0.1984,0.3735,0.3719,0.3795
1080,0.2159,0.3306,0.3664,0.3987,0.4061,0.563,0.5233,0.5189
1081,0.0311,0.0237,0.0474,0.0677,0.0693,0.113,0.1144,0.1182
1082,0.05,0.1663,0.2156,0.2405,0.2467,0.385,0.3478,0.3402
1083,-0.0663,-0.0449,-0.0131,0.0048,0.0163,0.092,0.0922,0.101
1084,0.0581,0.1701,0.2305,0.2754,0.2878,0.44,0.4087,0.3992
1085,-0.0546,-0.0372,-0.0172,-0.0124,-0.003,0.0297,0.0253,0.0294
1086,-0.0923,0.0204,0.1052,0.1719,0.2008,0.4094,0.4037,0.4072
1087,-0.1194,-0.1477,-0.1584,-0.1586,-0.1574,-0.2016,-0.1827,-0.1673
1088,-0.0476,0.0158,0.0817,0.1331,0.1398,0.2426,0.2511,0.2626
1089,-0.1135,-0.1371,-0.1588,-0.1419,-0.1363,-0.1514,-0.1199,-0.0944
1090,-0.1166,-0.1127,-0.0678,-0.0127,0.0017,0.0384,0.067,0.0888
1091,-0.0436,-0.0558,-0.0751,-0.057,-0.0457,-0.0484,-0.0393,-0.0215
1092,-0.1703,-0.1917,-0.1559,-0.1127,-0.092,-0.0655,-0.0377,-0.022
1093,0.0355,0.0337,0.0249,0.0354,0.049,0.064,0.0519,0.0656
1094,-0.0786,-0.0678,-0.0121,0.0169,0.0429,0.1565,0.1551,0.1457
1095,0.0246,0.0068,-0.0047,-0.0002,0.0084,0.0162,0.0045,0.0202
1096,0.1156,0.162,0.2202,0.2412,0.2663,0.4038,0.3714,0.3434
1097,0.0208,-0.0027,0.0068,0.0268,0.0329,0.0943,0.0831,0.0827
1098,0.1258,0.1961,0.2523,0.2813,0.3061,0.449,0.406,0.3802
1099,0.087,0.0861,0.1169,0.1422,0.1424,0.2286,0.202,0.1746
1100,0.1942,0.2738,0.3108,0.3294,0.3382,0.4248,0.3905,0.3729
1101,0.0503,0.0803,0.1213,0.1512,0.1636,0.2718,0.2555,0.2309
1102,0.1188,0.1893,0.2158,0.2277,0.2295,0.291,0.2763,0.2708
1103,0.1409,0.1776,0.2018,0.2136,0.2107,0.2229,0.1889,0.1614
1104,0.1281,0.1974,0.2216,0.2368,0.2447,0.3454,0.3371,0.3381
1105,0.0355,0.0915,0.1222,0.1174,0.1033,0.106,0.0743,0.0583
1106,0.1171,0.1935,0.2021,0.2185,0.2313,0.3196,0.2779,0.2721
1107,0.1502,0.1825,0.2043,0.1885,0.1706,0.1567,0.1531,0.1482
1108,0.0929,0.1668,0.1692,0.1972,0.2236,0.3231,0.2699,0.2614
1109,0.1802,0.209,0.2386,0.2333,0.2284,0.2591,0.2753,0.2785
1110,0.1432,0.2279,0.2405,0.283,0.3276,0.5163,0.4856,0.4877
1111,0.3116,0.347,0.3669,0.3562,0.3472,0.338,0.341,0.3357
1112,0.1008,0.2058,0.2482,0.3079,0.36,0.6758,0.684,0.7172
1113,0.289,0.3795,0.4278,0.4466,0.4674,0.5724,0.5663,0.5544
1114,0.014,0.0817,0.0969,0.1281,0.1545,0.3183,0.3356,0.383
1115,0.2618,0.4451,0.5642,0.6505,0.7231,1.1873,1.216,1.2312
1116,-0.0532,-0.0503,-0.0847,-0.1188,-0.1542,-0.2805,-0.274,-0.2592
1117,0.2229,0.3466,0.4497,0.5441,0.6015,1.0296,1.0527,1.0652
1118,0.0082,-0.04,-0.0803,-0.1006,-0.1216,-0.2575,-0.2594,-0.2542
1119,0.0479,0.0799,0.1148,0.1419,0.168,0.2833,0.29,0.2927
1120,0.0558,0.0558,0.0558,0.0558,0.0558,0.0558,0.0558,0.0558
1121,0.068,0.068,0.068,0.068,0.068,0.068,0.068,0.068
1122,0.0783,0.1128,0.1559,0.1901,0.2276,0.423,0.442,0.4658
1123,0.0311,0.0364,0.0126,0.005,0.0091,-0.0906,-0.0932,-0.0984
1124,0.1875,0.3589,0.5005,0.6174,0.7289,1.2484,1.2071,1.1895
1125,-0.034,-0.0861,-0.1328,-0.1545,-0.1748,-0.3061,-0.2458,-0.2068
1126,0.1762,0.3243,0.4497,0.5491,0.6528,1.1304,1.0936,1.1023
1127,0.3774,0.5133,0.5923,0.6706,0.726,1.0575,1.1258,1.1487
1128,0.3255,0.4585,0.5785,0.6627,0.723,1.1545,1.124,1.1171
1129,0.3124,0.4095,0.4401,0.4872,0.5226,0.6832,0.7169,0.7375
1130,0.3371,0.4652,0.575,0.657,0.6969,1.0785,1.0223,0.9722
1131,0.267,0.3029,0.31,0.3367,0.3596,0.3768,0.3722,0.3853
1132,0.2959,0.4187,0.5073,0.5901,0.6273,0.9216,0.8339,0.7644
1133,0.2655,0.2811,0.3118,0.34,0.3529,0.4119,0.3934,0.3989
1134,0.2934,0.4104,0.4829,0.5567,0.5977,0.8667,0.7942,0.7512
1135,0.2383,0.2633,0.3215,0.3532,0.3613,0.4548,0.4218,0.4052
1136,0.1702,0.2909,0.3487,0.4018,0.4369,0.6724,0.6088,0.5854
1137,0.1465,0.158,0.2012,0.2349,0.2502,0.3214,0.317,0.313
1138,0.1288,0.2523,0.2932,0.3289,0.3493,0.5497,0.5115,0.5054
1139,0.0012,0.0287,0.0723,0.1071,0.1303,0.2135,0.2142,0.2152
1140,0.0765,0.2054,0.2492,0.2838,0.2981,0.484,0.4573,0.4496
1141,0.001,0.0091,0.0484,0.0685,0.0827,0.1369,0.1361,0.1368
1142,0.0899,0.213,0.2772,0.3026,0.3015,0.4402,0.406,0.3881
1143,-0.0019,-0.0273,-0.0091,0.0136,0.0261,0.0776,0.0981,0.1134
1144,0.0177,0.1225,0.2154,0.2535,0.259,0.4269,0.4104,0.4031
1145,-0.0514,-0.1147,-0.1404,-0.1155,-0.1071,-0.1042,-0.0784,-0.0551
1146,-0.0781,-0.0366,0.0359,0.0814,0.1022,0.2006,0.2026,0.2019
1147,-0.0898,-0.1489,-0.1797,-0.1578,-0.1465,-0.1295,-0.1129,-0.0857
1148,-0.0145,-0.0129,0.032,0.0601,0.083,0.103,0.0982,0.0918
1149,-0.0928,-0.1349,-0.1461,-0.1293,-0.1194,-0.0811,-0.081,-0.0624
1150,0.0381,0.076,0.135,0.1572,0.1813,0.2795,0.2577,0.2391
1151,-0.1195,-0.1501,-0.1529,-0.1407,-0.1342,-0.1002,-0.1018,-0.0889
1152,-0.0128,0.0303,0.0656,0.0628,0.0681,0.0863,0.0314,-0.0042
1153,-0.0631,-0.0892,-0.0842,-0.077,-0.0837,-0.0565,-0.0668,-0.0715
1154,0.0764,0.1169,0.1408,0.1425,0.1476,0.1548,0.105,0.0787
1155,0.0373,0.0205,0.0256,0.0323,0.0208,0.0107,-0.0045,-0.0221
1156,0.1115,0.1543,0.1782,0.1857,0.1909,0.2143,0.1873,0.1765
1157,0.0745,0.0773,0.0769,0.0763,0.0711,0.0389,0.0357,0.0274
1158,0.1035,0.138,0.1307,0.1189,0.104,0.049,0.0372,0.033
1159,0.1496,0.169,0.1744,0.1734,0.1741,0.1467,0.1418,0.1382
1160,0.1617,0.2128,0.199,0.1969,0.1874,0.1737,0.174,0.1862
1161,0.1971,0.2363,0.2606,0.2569,0.2561,0.2821,0.2754,0.2685
1162,0.1111,0.1742,0.1659,0.1757,0.1845,0.2127,0.1853,0.1934
1163,0.1479,0.1603,0.1704,0.1481,0.1418,0.1186,0.1321,0.1298
1164,0.1156,0.1839,0.1763,0.1949,0.2194,0.2831,0.2494,0.2579
1165,0.1995,0.2097,0.2174,0.2006,0.1988,0.1702,0.1866,0.1799
1166,0.1401,0.2015,0.1957,0.2312,0.2746,0.4239,0.4323,0.4764
1167,0.3355,0.3969,0.4419,0.4357,0.4328,0.4612,0.4463,0.4189
1168,0.0613,0.1325,0.1415,0.1797,0.2122,0.395,0.4261,0.4893
1169,0.2462,0.3988,0.5059,0.5658,0.6344,0.9825,0.9827,0.9769
1170,0.0598,0.1223,0.1456,0.2025,0.2438,0.4587,0.511,0.5949
1171,0.2238,0.345,0.411,0.4398,0.4778,0.6837,0.6765,0.6575
1172,0.1127,0.1334,0.1292,0.1445,0.1588,0.2149,0.2493,0.305
1173,0.0218,0.0638,0.1021,0.121,0.1187,0.2048,0.1917,0.169
1174,-0.0521,-0.068,-0.0874,-0.098,-0.1223,-0.2291,-0.2716,-0.3069
1175,-0.0294,0.0076,0.0388,0.0684,0.0994,0.255,0.293,0.3244
1176,-0.0337,-0.0337,-0.0337,-0.0025,0.0268,0.0942,0.1156,0.1294
1177,-0.0885,-0.1068,-0.1337,-0.1572,-0.1853,-0.3025,-0.3267,-0.3511
1178,0.1008,0.1219,0.1394,0.1567,0.1571,0.2257,0.186,0.172
1179,0.0741,0.0952,0.1248,0.1578,0.1938,0.2907,0.3492,0.3784
1180,0.1415,0.2962,0.4324,0.5379,0.6503,1.1744,1.1505,1.1595
1181,0.0402,0.0439,0.0358,0.0507,0.0574,0.0819,0.1637,0.2083
1182,0.2328,0.4001,0.5496,0.6774,0.8075,1.4244,1.4224,1.4606
1183,0.265,0.3709,0.435,0.4957,0.5381,0.8066,0.8569,0.8685
1184,0.2735,0.3904,0.5011,0.5847,0.6546,1.076,1.0681,1.0835
1185,0.3595,0.4331,0.4573,0.4952,0.5354,0.6485,0.6657,0.6659
1186,0.2863,0.339,0.3759,0.4115,0.4323,0.5744,0.5452,0.5267
1187,0.2257,0.2713,0.3067,0.3421,0.3748,0.4502,0.42,0.3993
1188,0.2704,0.3452,0.3875,0.4365,0.4632,0.5961,0.5389,0.4972
1189,0.1303,0.1456,0.2016,0.2489,0.2787,0.4039,0.3769,0.3654
1190,0.1846,0.2526,0.299,0.3528,0.3902,0.5284,0.47,0.433
1191,0.1935,0.1981,0.2428,0.2694,0.2624,0.2838,0.2365,0.2106
1192,0.2403,0.3033,0.3284,0.36,0.3828,0.4681,0.4075,0.3814
1193,0.1632,0.1754,0.2082,0.2316,0.2295,0.2271,0.2014,0.1831
1194,0.1261,0.1922,0.2067,0.2284,0.238,0.3198,0.2711,0.2598
1195,0.0193,0.039,0.069,0.0932,0.1042,0.1164,0.1151,0.1059
1196,0.1526,0.2108,0.2184,0.2301,0.2324,0.2989,0.2722,0.2672
1197,-0.0047,-0.0007,0.0211,0.0283,0.0312,0.0127,0.006,-0.0011
1198,0.0535,0.107,0.1273,0.1201,0.1118,0.1482,0.1327,0.1291
1199,-0.0568,-0.0744,-0.0705,-0.0649,-0.0691,-0.0973,-0.098,-0.0999
1200,0.0078,0.0644,0.115,0.1143,0.1118,0.1679,0.1428,0.1321
1201,0.0351,-0.0122,-0.0372,-0.0361,-0.0473,-0.0953,-0.0841,-0.0763
1202,-0.0472,-0.0103,0.0452,0.0609,0.0742,0.1362,0.1109,0.1002
1203,-0.0736,-0.1292,-0.16,-0.156,-0.1612,-0.1903,-0.1742,-0.1575
1204,-0.0396,-0.018,0.0177,0.0477,0.0804,0.1378,0.1203,0.1248
1205,-0.057,-0.1036,-0.1227,-0.1229,-0.1286,-0.1552,-0.1433,-0.1287
1206,-0.0481,-0.0269,-0.0043,0.0176,0.0462,0.087,0.0669,0.0671
1207,-0.1056,-0.143,-0.1602,-0.1697,-0.1777,-0.2199,-0.203,-0.1867
1208,0.0627,0.0702,0.0806,0.0862,0.0973,0.0822,0.0523,0.0452
1209,-0.0372,-0.0574,-0.0642,-0.0728,-0.0801,-0.0991,-0.0851,-0.0766
1210,0.1095,0.1004,0.1103,0.1234,0.1409,0.1365,0.1207,0.115
1211,-0.039,-0.0604,-0.0781,-0.0958,-0.1053,-0.1825,-0.1697,-0.1626
1212,0.0656,0.0709,0.0849,0.1054,0.1193,0.1342,0.1291,0.1278
1213,0.0279,0.0025,-0.0252,-0.0542,-0.0601,-0.168,-0.1471,-0.1337
1214,0.1357,0.1295,0.1088,0.1046,0.0847,0.0015,0.0066,0.017
1215,0.0125,0.016,0.0218,0.0148,0.0303,0.0182,0.0327,0.0392
1216,0.0349,0.0576,0.0404,0.0374,0.0215,-0.0242,-0.0166,0.0036
1217,0.0485,0.049,0.0614,0.0445,0.0472,0.0267,0.027,0.0127
1218,0.167,0.2149,0.2117,0.2182,0.2252,0.2529,0.2465,0.2571
1219,0.1914,0.1901,0.1934,0.1745,0.1791,0.1496,0.1631,0.1545
1220,0.126,0.1762,0.1719,0.1855,0.2126,0.301,0.3039,0.3249
1221,0.163,0.1874,0.1975,0.1841,0.1813,0.1498,0.1551,0.142
1222,0.1082,0.1256,0.1112,0.1304,0.1621,0.26,0.2986,0.3595
1223,0.3237,0.4196,0.4853,0.4953,0.5032,0.5972,0.5697,0.5359
1224,0.1043,0.1039,0.0887,0.1053,0.1206,0.1672,0.2022,0.268
1225,0.3145,0.4855,0.5771,0.624,0.6638,0.9521,0.9232,0.8917
1226,0.0586,0.1043,0.1233,0.1677,0.2083,0.3844,0.4248,0.4767
1227,0.1598,0.2345,0.2678,0.2728,0.2723,0.3197,0.281,0.2475
1228,0.055,0.1214,0.1599,0.2308,0.2886,0.5776,0.6213,0.6682
1229,-0.014,-0.0447,-0.0718,-0.1205,-0.1557,-0.3366,-0.3685,-0.4015
1230,-0.0529,-0.0382,-0.0115,0.0174,0.0439,0.1684,0.1885,0.2129
1231,0.0627,0.0627,0.0319,0.0029,-0.0234,-0.1319,-0.1469,-0.1707
1232,-0.0586,-0.0586,-0.0586,-0.0274,0.0018,0.0691,0.0905,0.1043
1233,0.0528,0.0345,0.0076,-0.0159,-0.0439,-0.1611,-0.1852,-0.2097
1234,-0.0135,0.0189,0.0532,0.0999,0.155,0.3509,0.3319,0.3266
1235,-0.0356,-0.0504,-0.0767,-0.0917,-0.0955,-0.2002,-0.1722,-0.1634
1236,0.1784,0.302,0.4236,0.5269,0.6409,1.103,1.0934,1.103
1237,0.0997,0.1045,0.1102,0.1462,0.1732,0.3042,0.3786,0.4302
1238,0.1512,0.2919,0.4368,0.5576,0.6685,1.2111,1.2026,1.2206
1239,0.1306,0.2347,0.312,0.3902,0.4626,0.8266,0.8928,0.93
1240,0.2381,0.2971,0.3732,0.4378,0.4969,0.7761,0.7761,0.7961
1241,0.2281,0.3144,0.3663,0.4197,0.4708,0.6903,0.7125,0.7133
1242,0.2414,0.2369,0.2533,0.286,0.3134,0.3736,0.3737,0.3929
1243,0.1322,0.1488,0.1772,0.218,0.2589,0.3392,0.324,0.296
1244,0.1388,0.1604,0.1866,0.23,0.2632,0.3307,0.3164,0.3293
1245,0.1311,0.1251,0.1723,0.2247,0.2643,0.383,0.3695,0.346
1246,0.2898,0.3107,0.3319,0.3749,0.4085,0.4487,0.4304,0.4391
1247,0.0203,0.0239,0.0784,0.1268,0.1476,0.2411,0.2181,0.1912
1248,0.1889,0.2139,0.2398,0.275,0.3013,0.3266,0.2888,0.2907
1249,0.0646,0.0678,0.1099,0.1454,0.1561,0.2012,0.1992,0.188
1250,0.268,0.3141,0.3731,0.4255,0.4646,0.6128,0.5728,0.5764
1251,0.104,0.1001,0.112,0.1322,0.1354,0.1091,0.1267,0.1223
1252,0.1141,0.1394,0.1882,0.2217,0.2494,0.3587,0.3283,0.3312
1253,0.1115,0.1253,0.147,0.1723,0.1858,0.2067,0.2223,0.2195
1254,0.2065,0.2285,0.2718,0.2929,0.3185,0.4089,0.3911,0.3962
1255,-0.0163,0.0008,0.0249,0.0537,0.0716,0.132,0.1427,0.1421
1256,0.2243,0.2423,0.2866,0.3057,0.3254,0.4066,0.3804,0.3777
1257,0.039,0.0343,0.0355,0.0503,0.0608,0.0822,0.0966,0.0983
1258,0.1569,0.1802,0.2138,0.2441,0.2689,0.3649,0.3335,0.3264
1259,-0.0228,-0.0361,-0.0431,-0.038,-0.0305,-0.0432,-0.0359,-0.0344
1260,0.1738,0.1687,0.1659,0.197,0.2214,0.2442,0.2248,0.2333
1261,-0.0259,-0.0277,-0.0094,0.0038,0.0259,0.0773,0.0931,0.1017
1262,0.1482,0.127,0.1117,0.1392,0.1554,0.1485,0.1371,0.147
1263,-0.1153,-0.113,-0.0949,-0.0917,-0.073,-0.0416,-0.027,-0.0153
1264,0.0306,0.0083,0.0106,0.0419,0.063,0.088,0.0883,0.098
1265,0.0416,0.0198,0.017,-0.0039,-0.0039,-0.0661,-0.062,-0.0595
1266,0.0217,0.0022,0.0084,0.0382,0.0625,0.0957,0.0987,0.0951
1267,-0.091,-0.1314,-0.1287,-0.1372,-0.1211,-0.1518,-0.1313,-0.1215
1268,0.0665,0.047,0.053,0.0795,0.0943,0.1214,0.1325,0.1348
1269,0.0374,-0.0048,-0.013,-0.0351,-0.028,-0.1032,-0.0864,-0.086
1270,0.1341,0.1276,0.1236,0.1392,0.135,0.1358,0.1516,0.1612
1271,0.0331,0.0033,0.0028,-0.018,-0.0084,-0.056,-0.0373,-0.0432
1272,-0.0074,0.0032,0.0037,0.0083,-0.0012,-0.0177,-0.0136,-0.0114
1273,0.0195,0.0198,0.0293,0.0199,0.0307,0.0451,0.0786,0.0827
1274,0.0128,0.0467,0.0673,0.0758,0.0756,0.1181,0.1091,0.0976
1275,-0.015,-0.0209,-0.0485,-0.0741,-0.0793,-0.1438,-0.1071,-0.0954
1276,0.0389,0.0584,0.0732,0.0734,0.0866,0.1596,0.1672,0.1826
1277,0.1114,0.1375,0.1237,0.1125,0.0957,0.0388,0.0485,0.0424
1278,0.0144,0.0077,0.0262,0.0449,0.0758,0.1916,0.234,0.2824
1279,0.1873,0.2615,0.2972,0.3017,0.2829,0.3246,0.3096,0.2845
1280,0.0104,-0.0285,-0.0718,-0.0826,-0.0829,-0.1876,-0.1874,-0.177
1281,0.104,0.2329,0.313,0.3412,0.3537,0.583,0.577,0.5625
1282,0.1278,0.149,0.1518,0.1817,0.223,0.3191,0.3393,0.3513
1283,0.1469,0.1912,0.2171,0.2049,0.1806,0.1758,0.1518,0.1299
1284,-0.0025,0.0386,0.044,0.0591,0.0768,0.1856,0.1922,0.2024
1285,-0.0535,-0.1299,-0.1834,-0.2366,-0.2793,-0.5501,-0.5833,-0.614
1286,-0.0129,0.002,0.0288,0.0578,0.0844,0.2096,0.2297,0.2542
1287,0.0685,0.0685,0.0376,0.0085,-0.0179,-0.1267,-0.1419,-0.1658
1288,0.0101,0.0101,0.0101,0.0101,0.0101,0.0101,0.0101,0.0101
1289,-0.0381,-0.0381,-0.0381,-0.0381,-0.0381,-0.0381,-0.0381,-0.0381
1290,-0.0307,-0.0307,-0.0307,-0.0307,-0.0307,-0.0307,-0.0307,-0.0307
1291,0.0412,0.0412,0.0412,0.0412,0.0412,0.0412,0.0412,0.0412
1292,0.053,0.1567,0.2751,0.3955,0.5145,0.9918,1.0052,1.0346
1293,0.0513,0.0064,-0.0347,-0.053,-0.0669,-0.1409,-0.0898,-0.052
1294,0.2404,0.414,0.5891,0.7333,0.8662,1.5377,1.5481,1.5795
1295,0.2342,0.2479,0.2527,0.2724,0.2908,0.3813,0.452,0.4968
1296,0.1318,0.1808,0.2816,0.3667,0.4299,0.7553,0.7726,0.8021
1297,0.2667,0.2981,0.3125,0.3478,0.3878,0.5183,0.5577,0.5733
1298,0.134,0.1079,0.1589,0.2211,0.2655,0.3881,0.3977,0.428
1299,0.1249,0.1058,0.0851,0.0893,0.0988,0.0364,0.0477,0.0355
1300,0.1064,0.0932,0.145,0.2081,0.2512,0.3258,0.3024,0.3142
1301,0.0471,-0.0251,-0.0572,-0.0584,-0.0558,-0.1654,-0.1276,-0.1195
1302,0.1016,0.0997,0.1311,0.1808,0.2112,0.2176,0.193,0.2123
1303,0.0894,0.0294,0.0272,0.0355,0.0436,0.0026,0.0311,0.0185
1304,0.1775,0.1962,0.2219,0.2593,0.2785,0.2596,0.22,0.2275
1305,0.0428,-0.0135,-0.0084,-0.0064,-0.0103,-0.0704,-0.0408,-0.0581
1306,0.163,0.219,0.2679,0.3104,0.3409,0.3976,0.3411,0.3356
1307,0.0366,-0.0286,-0.0318,-0.0273,-0.0319,-0.0759,-0.0188,-0.0141
1308,0.1877,0.2684,0.3288,0.3687,0.3991,0.5179,0.4604,0.4517
1309,0.0139,-0.0263,-0.0162,0.0012,0.0077,0.0199,0.0617,0.0599
1310,0.1973,0.2875,0.3478,0.3851,0.4163,0.5827,0.5328,0.5223
1311,-0.0029,-0.0112,0.0291,0.0554,0.0771,0.1595,0.178,0.1705
1312,0.2514,0.3355,0.399,0.4385,0.4719,0.6794,0.6302,0.611
1313,0.007,0.0164,0.0738,0.1048,0.1331,0.2424,0.2526,0.2436
1314,0.2263,0.3063,0.3674,0.4136,0.4463,0.6608,0.5978,0.5653
1315,-0.0733,-0.0531,0.0069,0.0347,0.0681,0.1723,0.1873,0.1884
1316,0.1344,0.1911,0.2417,0.3081,0.3504,0.5619,0.5159,0.4921
1317,-0.0059,0.0031,0.0518,0.0667,0.0955,0.1463,0.1515,0.1522
1318,0.1936,0.2283,0.2599,0.313,0.3412,0.4852,0.4552,0.4396
1319,-0.0798,-0.0838,-0.0355,-0.0179,0.0164,0.0772,0.0777,0.0784
1320,0.1546,0.1541,0.1658,0.1954,0.2095,0.2537,0.2335,0.2198
1321,-0.148,-0.1709,-0.1216,-0.104,-0.0689,0.0301,0.0384,0.033
1322,0.0256,0.0166,0.0216,0.0484,0.0685,0.1164,0.1119,0.1026
1323,-0.0915,-0.1257,-0.0817,-0.0734,-0.0444,0.0532,0.0653,0.0567
1324,0.0783,0.064,0.072,0.093,0.1082,0.1343,0.1261,0.1052
1325,-0.1408,-0.184,-0.179,-0.1921,-0.1829,-0.1782,-0.1522,-0.1585
1326,-0.0299,-0.0232,-0.025,-0.0126,-0.0027,0.0151,0.024,0.0118
1327,-0.1994,-0.2545,-0.2722,-0.2903,-0.2965,-0.3548,-0.3123,-0.305
1328,-0.1115,-0.1108,-0.1085,-0.1081,-0.1121,-0.1295,-0.1199,-0.1258
1329,-0.1403,-0.1856,-0.2362,-0.2765,-0.3091,-0.4594,-0.4154,-0.4045
1330,-0.1171,-0.1346,-0.1333,-0.1546,-0.182,-0.2661,-0.2809,-0.3034
1331,-0.1144,-0.1456,-0.2045,-0.2331,-0.266,-0.4109,-0.3733,-0.3542
1332,-0.0238,-0.0149,0.0086,0.0029,0.004,0.0698,0.0811,0.0908
1333,0.0352,0.0001,-0.05,-0.0637,-0.0842,-0.2166,-0.1832,-0.1716
1334,-0.0055,0.0324,0.0969,0.1284,0.1685,0.3954,0.444,0.4789
1335,-0.0473,-0.0523,-0.0719,-0.0874,-0.1146,-0.1649,-0.1407,-0.1349
1336,0.085,0.0822,0.0777,0.0629,0.05,-0.0055,-0.0093,-0.0266
1337,0.0064,0.0591,0.0928,0.1149,0.1127,0.2315,0.2358,0.234
1338,0.1168,0.1333,0.1616,0.194,0.2218,0.3458,0.3637,0.3762
1339,0.0124,0.0157,0.0011,-0.0136,-0.0309,-0.1113,-0.1308,-0.1501
1340,-0.021,-0.0374,-0.0637,-0.085,-0.107,-0.2053,-0.2298,-0.252
1341,0.0412,0.0263,0.0633,0.0794,0.1047,0.1764,0.1912,0.2034
1342,-0.079,-0.079,-0.079,-0.079,-0.079,-0.079,-0.079,-0.079
1343,0.0622,0.0622,0.0622,0.0622,0.0622,0.0622,0.0622,0.0622
1344,-0.0587,-0.0587,-0.0587,-0.0587,-0.0587,-0.0587,-0.0587,-0.0587
1345,-0.022,-0.022,-0.022,-0.022,-0.022,-0.022,-0.022,-0.022
1346,0.0511,0.0511,0.0511,0.0511,0.0511,0.0511,0.0511,0.0511
1347,0.0157,0.0157,0.0157,0.0157,0.0157,0.0157,0.0157,0.0157
1348,0.0413,0.0532,0.0601,0.0583,0.0554,0.0468,0.0192,-0.0017
1349,0.0063,0.0043,0.0069,0.0253,0.0442,0.1268,0.1803,0.2236
1350,0.0379,0.1294,0.2236,0.2924,0.3677,0.7248,0.7575,0.8039
1351,0.0856,0.0354,-0.0272,-0.0585,-0.0938,-0.2834,-0.2871,-0.2996
1352,0.0068,0.0061,0.0581,0.0937,0.1204,0.2532,0.2782,0.3147
1353,0.1246,0.1857,0.1964,0.2344,0.2627,0.407,0.4411,0.4518
1354,0.0355,-0.041,-0.0461,-0.0602,-0.0807,-0.2329,-0.2336,-0.2128
1355,0.1735,0.251,0.2774,0.33,0.3711,0.5621,0.5998,0.6091
1356,-0.0411,-0.0697,-0.0286,0.0054,0.0317,0.0837,0.101,0.1382
1357,0.1176,0.1121,0.0661,0.0438,0.011,-0.1711,-0.1594,-0.1666
1358,0.0508,0.0363,0.0739,0.0931,0.1065,0.1033,0.0971,0.1064
1359,0.1564,0.147,0.1209,0.1027,0.0798,-0.0352,0.0003,0.0169
1360,0.0455,0.075,0.1172,0.1317,0.1379,0.1602,0.1397,0.1354
1361,0.1277,0.113,0.0999,0.0765,0.0509,-0.0313,0.0055,0.0267
1362,0.0887,0.1421,0.1724,0.1753,0.1793,0.1854,0.15,0.1351
1363,0.1289,0.0921,0.0805,0.0511,0.0159,-0.0837,-0.0485,-0.0344
1364,0.0642,0.1189,0.1271,0.1121,0.1013,0.0366,-0.0127,-0.0359
1365,0.1668,0.1329,0.1359,0.1019,0.0768,0.0061,0.0283,0.0319
1366,0.205,0.2766,0.2883,0.2805,0.2774,0.2665,0.2156,0.1906
1367,0.236,0.2258,0.2379,0.1929,0.1724,0.115,0.1103,0.0951
1368,0.1299,0.2168,0.2478,0.2418,0.2407,0.2775,0.2131,0.1741
1369,0.1672,0.1758,0.1855,0.149,0.1302,0.0828,0.0811,0.0705
1370,0.2127,0.3167,0.3652,0.3609,0.3617,0.4538,0.3787,0.3286
1371,0.2174,0.2192,0.2131,0.1863,0.17,0.0796,0.0849,0.0835
1372,0.1061,0.2001,0.2531,0.252,0.2612,0.374,0.3015,0.254
1373,0.0934,0.0898,0.0844,0.0645,0.0565,-0.0032,0.0002,-0.0063
1374,0.1254,0.198,0.243,0.2415,0.2371,0.3158,0.2487,0.2074
1375,0.1393,0.134,0.1329,0.1183,0.1238,0.1101,0.1226,0.1148
1376,0.0722,0.1374,0.1991,0.2298,0.2515,0.4331,0.3933,0.3633
1377,0.0859,0.0847,0.067,0.035,0.0204,-0.0172,-0.0149,-0.0393
1378,-0.0345,0.0089,0.059,0.091,0.1172,0.2874,0.2641,0.2304
1379,-0.0294,-0.0108,-0.0042,-0.0063,0.0023,0.0761,0.0786,0.0591
1380,0.0372,0.0718,0.1115,0.1352,0.1614,0.3071,0.3159,0.2905
1381,-0.028,-0.0202,-0.0431,-0.0528,-0.0634,-0.086,-0.0871,-0.1126
1382,-0.1082,-0.1039,-0.101,-0.0936,-0.0765,-0.049,-0.0216,-0.0259
1383,-0.139,-0.1238,-0.1462,-0.1599,-0.1793,-0.2087,-0.1825,-0.1985
1384,-0.08,-0.1153,-0.1556,-0.1903,-0.2146,-0.3733,-0.3543,-0.3493
1385,-0.1501,-0.1354,-0.1491,-0.165,-0.1929,-0.2384,-0.214,-0.2277
1386,-0.0894,-0.1417,-0.1881,-0.2418,-0.288,-0.5196,-0.5267,-0.5299
1387,-0.1882,-0.1914,-0.2137,-0.2219,-0.2427,-0.2981,-0.2742,-0.2701
1388,-0.1467,-0.1604,-0.1825,-0.2208,-0.2432,-0.344,-0.3376,-0.3317
1389,-0.1113,-0.1275,-0.1466,-0.1409,-0.1548,-0.1961,-0.1831,-0.1908
1390,-0.0362,-0.0341,-0.0332,-0.0702,-0.093,-0.1574,-0.1433,-0.14
1391,-0.0718,-0.0587,-0.0534,-0.0283,-0.0291,0.0716,0.1103,0.123
1392,0.0394,0.1069,0.1656,0.1912,0.2214,0.4455,0.4868,0.5056
1393,-0.0655,-0.0182,0.0124,0.0463,0.0585,0.2376,0.259,0.2735
1394,-0.0404,-0.0193,-0.0007,0.0115,0.0312,0.121,0.1266,0.124
1395,0.079,0.0799,0.0865,0.079,0.06,0.0272,0.0299,0.0279
1396,-0.0624,-0.0615,-0.0415,-0.0231,-0.003,0.073,0.0912,0.108
1397,0.0391,0.0574,0.0806,0.1095,0.1532,0.2996,0.3432,0.3768
1398,-0.0846,-0.0846,-0.0846,-0.0846,-0.0846,-0.0846,-0.0846,-0.0846
1399,0.0754,0.0754,0.0754,0.0754,0.0754,0.0754,0.0754,0.0754
1400,0.0698,0.0698,0.0698,0.0698,0.0698,0.0698,0.0698,0.0698
1401,-0.0606,-0.0606,-0.0606,-0.0606,-0.0606,-0.0606,-0.0606,-0.0606
1402,0.049,0.049,0.049,0.049,0.049,0.049,0.049,0.049
1403,0.0873,0.0873,0.0873,0.0873,0.0873,0.0873,0.0873,0.0873
1404,0.0195,0.0508,0.0876,0.1011,0.1076,0.192,0.1691,0.1454
1405,-0.0847,-0.1252,-0.1641,-0.1961,-0.2334,-0.3522,-0.3213,-0.2849
1406,-0.0564,-0.0543,-0.0466,-0.0389,-0.0301,0.0002,0.0172,0.0364
1407,-0.0522,-0.0595,-0.0676,-0.0779,-0.0882,-0.1336,-0.1512,-0.1704
1408,-0.0194,-0.0654,-0.0756,-0.0832,-0.0959,-0.1564,-0.1231,-0.0783
1409,0.1385,0.2028,0.2226,0.2345,0.2482,0.3229,0.2924,0.2552
1410,-0.1567,-0.2733,-0.329,-0.3893,-0.449,-0.7695,-0.7481,-0.7169
1411,0.2034,0.3527,0.4284,0.4961,0.5552,0.8704,0.8589,0.8387
1412,-0.1814,-0.2969,-0.3154,-0.3426,-0.3583,-0.5243,-0.4524,-0.3773
1413,0.2111,0.3787,0.4343,0.4713,0.4805,0.6227,0.5557,0.4933
1414,-0.2815,-0.4128,-0.4327,-0.4596,-0.4713,-0.6463,-0.5608,-0.4804
1415,0.2872,0.4747,0.5441,0.5728,0.5656,0.7004,0.6118,0.5367
1416,-0.2633,-0.3436,-0.3378,-0.346,-0.3409,-0.3797,-0.2835,-0.2059
1417,0.4034,0.5786,0.6376,0.6524,0.6391,0.7496,0.6669,0.6074
1418,-0.2898,-0.3193,-0.2917,-0.2826,-0.2619,-0.1774,-0.0783,-0.0205
1419,0.4438,0.5928,0.6223,0.6157,0.5928,0.6304,0.5622,0.5295
1420,-0.2081,-0.2117,-0.1831,-0.1844,-0.1686,-0.0724,0.0031,0.0358
1421,0.3493,0.4744,0.4948,0.477,0.4416,0.4339,0.3675,0.3434
1422,-0.2107,-0.2002,-0.1647,-0.1547,-0.1212,0.0125,0.0736,0.1043
1423,0.3539,0.4911,0.5283,0.5115,0.4777,0.4842,0.4136,0.3796
1424,-0.2709,-0.2437,-0.2002,-0.1943,-0.1694,-0.0512,-0.0272,-0.0224
1425,0.3895,0.5465,0.5916,0.5867,0.5718,0.6423,0.5883,0.5605
1426,-0.1583,-0.1026,-0.0214,-0.0062,0.0283,0.2202,0.2358,0.239
1427,0.3242,0.4628,0.4878,0.4879,0.4767,0.532,0.4999,0.489
1428,-0.2705,-0.2164,-0.1302,-0.1155,-0.0826,0.1016,0.1103,0.1115
1429,0.4249,0.5423,0.5527,0.551,0.5441,0.5885,0.5605,0.5477
1430,-0.1434,-0.0987,-0.0051,0.0272,0.0642,0.2951,0.3046,0.3149
1431,0.3925,0.5053,0.5019,0.5004,0.4906,0.5145,0.4664,0.4343
1432,-0.1434,-0.1077,-0.016,0.0308,0.0719,0.3288,0.3415,0.337
1433,0.3577,0.5146,0.5388,0.5544,0.5454,0.6529,0.5889,0.5434
1434,-0.2192,-0.1879,-0.1058,-0.0603,-0.0111,0.2446,0.2685,0.2619
1435,0.354,0.574,0.6495,0.6876,0.6887,0.9235,0.8122,0.725
1436,-0.1374,-0.1084,-0.0477,-0.0172,0.0349,0.2479,0.3064,0.3201
1437,0.216,0.4815,0.5913,0.6638,0.6967,1.0875,0.9848,0.8866
1438,-0.1813,-0.1807,-0.1525,-0.136,-0.0902,0.0183,0.0973,0.1392
1439,0.1142,0.3981,0.5365,0.6251,0.6739,1.1638,1.0872,0.9792
1440,-0.1149,-0.1921,-0.2236,-0.26,-0.2825,-0.4704,-0.4441,-0.4361
1441,0.0342,0.3027,0.4526,0.5621,0.6214,1.1598,1.1135,1.0412
1442,-0.1874,-0.2648,-0.3138,-0.3536,-0.3974,-0.6214,-0.6164,-0.6053
1443,-0.0999,0.0755,0.1905,0.2884,0.35,0.8452,0.8413,0.8252
1444,-0.0732,-0.1081,-0.1215,-0.1376,-0.1402,-0.1845,-0.1498,-0.1062
1445,-0.15,-0.0795,-0.0338,-0.0061,0.007,0.182,0.1583,0.1195
1446,0.022,-0.0344,-0.0546,-0.089,-0.1153,-0.2466,-0.2199,-0.193
1447,0,0.0579,0.0939,0.1202,0.1384,0.313,0.319,0.3038
1448,-0.0221,-0.038,-0.0096,-0.0038,-0.0023,0.0411,0.0814,0.1157
1449,0.031,0.0677,0.065,0.0584,0.0513,0.0633,0.0429,0.0162
1450,-0.0027,-0.004,0.012,0.0219,0.0257,0.0875,0.0859,0.0816
1451,-0.0427,-0.0331,-0.0324,-0.0324,-0.0246,-0.0394,-0.0313,-0.0327
1452,0.0262,0.056,0.0824,0.1089,0.1353,0.2736,0.2974,0.3192
1453,-0.0423,-0.0282,-0.0185,-0.0012,0.0272,0.1118,0.1407,0.1617
1454,0.0655,0.0655,0.0655,0.0655,0.0655,0.0655,0.0655,0.0655
1455,-0.0772,-0.0772,-0.0772,-0.0772,-0.0772,-0.0772,-0.0772,-0.0772
1456,-0.0621,-0.0621,-0.0621,-0.0621,-0.0621,-0.0621,-0.0621,-0.0621
1457,0.0659,0.0659,0.0659,0.0659,0.0659,0.0659,0.0659,0.0659
1458,-0.0501,-0.0501,-0.0501,-0.0501,-0.0501,-0.0501,-0.0501,-0.0501
1459,0.016,0.016,0.016,0.016,0.016,0.016,0.016,0.016
1460,-0.0626,-0.0626,-0.0626,-0.0626,-0.0626,-0.0626,-0.0626,-0.0626
1461,0.0009,0.0009,0.0009,0.0009,0.0009,0.0009,0.0009,0.0009
1462,0.0038,0.0038,-0.0271,-0.0574,-0.0844,-0.1748,-0.2004,-0.2259
1463,0.0531,0.0819,0.1046,0.1289,0.1541,0.249,0.2552,0.2589
1464,-0.0541,-0.1148,-0.1576,-0.2096,-0.2439,-0.4553,-0.4578,-0.4333
1465,0.0746,0.1266,0.1496,0.1613,0.1666,0.2174,0.2054,0.1969
1466,-0.1194,-0.1944,-0.2377,-0.2946,-0.3441,-0.6337,-0.6504,-0.6525
1467,0.2021,0.2783,0.3249,0.3581,0.3921,0.5629,0.5653,0.5677
1468,-0.2791,-0.3893,-0.4382,-0.5005,-0.5399,-0.8738,-0.854,-0.8224
1469,0.2284,0.3753,0.478,0.551,0.6124,0.9571,0.9622,0.9639
1470,-0.3256,-0.4472,-0.4946,-0.5411,-0.5644,-0.854,-0.7967,-0.731
1471,0.3653,0.6113,0.8079,0.9606,1.0807,1.768,1.7851,1.8051
1472,-0.3174,-0.4582,-0.5205,-0.5719,-0.5778,-0.8965,-0.8274,-0.7318
1473,0.3542,0.6733,0.9325,1.1283,1.2714,2.1219,2.0976,2.0819
1474,-0.3001,-0.4413,-0.5136,-0.5679,-0.5714,-0.8889,-0.8048,-0.6975
1475,0.4192,0.7663,1.046,1.2439,1.3855,2.2244,2.1727,2.1381
1476,-0.4047,-0.5275,-0.584,-0.6068,-0.563,-0.7379,-0.5774,-0.4123
1477,0.3874,0.7385,1.0164,1.1902,1.3034,2.0462,1.9705,1.91
1478,-0.3524,-0.4956,-0.5432,-0.5636,-0.5091,-0.6836,-0.5084,-0.3302
1479,0.4021,0.7244,0.9883,1.1376,1.2319,1.8456,1.774,1.7196
1480,-0.4472,-0.5846,-0.6095,-0.6165,-0.5413,-0.6206,-0.4432,-0.269
1481,0.4075,0.7212,0.9541,1.0625,1.1214,1.5854,1.5001,1.4307
1482,-0.389,-0.5413,-0.5787,-0.5898,-0.5214,-0.6467,-0.4737,-0.307
1483,0.4771,0.8366,1.1076,1.2476,1.3256,1.9434,1.8594,1.7954
1484,-0.4474,-0.6301,-0.7159,-0.7569,-0.7344,-1.0735,-0.9522,-0.8078
1485,0.5201,0.8787,1.1685,1.3301,1.4213,2.1042,2.0057,1.9245
1486,-0.4335,-0.5803,-0.648,-0.6668,-0.636,-0.8586,-0.7422,-0.5997
1487,0.4119,0.7567,1.0242,1.1847,1.2733,1.9217,1.8345,1.7613
1488,-0.2624,-0.361,-0.3917,-0.3919,-0.3548,-0.4313,-0.3378,-0.2297
1489,0.4123,0.7481,0.9883,1.1288,1.2036,1.7815,1.6932,1.625
1490,-0.2998,-0.3449,-0.3585,-0.3494,-0.3063,-0.3076,-0.2331,-0.1668
1491,0.3436,0.6453,0.8296,0.9319,0.9756,1.3958,1.2941,1.2106
1492,-0.1568,-0.1689,-0.1898,-0.1827,-0.1538,-0.1674,-0.1003,-0.0669
1493,0.3311,0.5882,0.751,0.8539,0.8974,1.3066,1.2136,1.1301
1494,-0.1675,-0.1882,-0.189,-0.1717,-0.1436,-0.115,-0.0446,0.0022
1495,0.2697,0.515,0.6698,0.7806,0.8303,1.2496,1.1549,1.0524
1496,-0.1756,-0.1926,-0.1942,-0.1916,-0.1912,-0.1912,-0.169,-0.1505
1497,0.1109,0.3241,0.4691,0.5924,0.6545,1.1078,1.0418,0.9912
1498,-0.1288,-0.1294,-0.139,-0.1417,-0.157,-0.1784,-0.1686,-0.1468
1499,0.0385,0.1854,0.3096,0.4315,0.509,1.0232,1.0313,1.0571
1500,0.0272,0.0267,0.0198,0.002,-0.0104,-0.0212,0.002,0.036
1501,0.0692,0.1373,0.2251,0.3201,0.3919,0.7908,0.8305,0.8684
1502,-0.0091,-0.0355,-0.0518,-0.0718,-0.075,-0.1119,-0.0507,-0.0011
1503,0.0101,0.021,0.0597,0.1184,0.1636,0.3962,0.4504,0.4896
1504,0.0513,0.0513,0.0513,0.0513,0.0513,0.0513,0.0513,0.0513
1505,-0.02,-0.0386,-0.0602,-0.0839,-0.1026,-0.2148,-0.2378,-0.2689
1506,-0.0005,-0.0005,-0.0005,-0.0301,-0.0301,-0.0656,-0.0656,-0.035
1507,0.1038,0.1232,0.1434,0.1679,0.1896,0.2767,0.3045,0.3264
1508,-0.0824,-0.0824,-0.0824,-0.0824,-0.0824,-0.0824,-0.0824,-0.0824
1509,0.0502,0.0502,0.0502,0.0502,0.0502,0.0502,0.0502,0.0502
1510,-0.0831,-0.0831,-0.0831,-0.0831,-0.0831,-0.0831,-0.0831,-0.0831
1511,-0.045,-0.045,-0.045,-0.045,-0.045,-0.045,-0.045,-0.045
1512,-0.0511,-0.0511,-0.0511,-0.0511,-0.0511,-0.0511,-0.0511,-0.0511
1513,0.027,0.027,0.027,0.027,0.027,0.027,0.027,0.027
1514,-0.0547,-0.0547,-0.0547,-0.0547,-0.0547,-0.0547,-0.0547,-0.0547
1515,-0.056,-0.056,-0.056,-0.056,-0.056,-0.056,-0.056,-0.056
1516,-0.0211,-0.0211,-0.0211,-0.0211,-0.0211,-0.0211,-0.0211,-0.0211
1517,-0.0732,-0.0732,-0.0732,-0.0732,-0.0732,-0.0732,-0.0732,-0.0732
1518,-0.0808,-0.0808,-0.0808,-0.0808,-0.0808,-0.0808,-0.0808,-0.0808
1519,0.0486,0.0486,0.0486,0.0486,0.0486,0.0486,0.0486,0.0486
1520,-0.0734,-0.0734,-0.0734,-0.0734,-0.0734,-0.0734,-0.0734,-0.042
1521,0.0814,0.1106,0.1441,0.1731,0.2122,0.3626,0.4064,0.4525
1522,0.0012,0.0012,0.0012,-0.0156,-0.018,-0.0391,-0.0215,0.0256
1523,0.0872,0.1373,0.1918,0.2381,0.2871,0.5316,0.5803,0.6287
1524,-0.0192,-0.0314,-0.0314,-0.048,-0.0499,-0.0827,-0.0604,0.0207
1525,0.1644,0.2487,0.3439,0.4194,0.4994,0.8914,0.9532,1.0154
1526,-0.0594,-0.0864,-0.102,-0.1218,-0.1364,-0.245,-0.2359,-0.168
1527,0.046,0.167,0.3017,0.4139,0.5207,1.0668,1.1378,1.2109
1528,-0.0542,-0.0809,-0.1014,-0.1177,-0.1331,-0.2402,-0.2263,-0.1739
1529,0.0837,0.2282,0.364,0.4958,0.6184,1.2237,1.2816,1.3573
1530,-0.0721,-0.1004,-0.1324,-0.1609,-0.1842,-0.3176,-0.2899,-0.233
1531,0.1309,0.2957,0.4291,0.5594,0.6808,1.287,1.334,1.3988
1532,-0.1392,-0.1739,-0.2213,-0.2605,-0.2363,-0.3542,-0.3147,-0.2754
1533,0.2349,0.4676,0.6442,0.7936,0.9207,1.6719,1.7346,1.7842
1534,-0.0343,-0.0858,-0.153,-0.2142,-0.1884,-0.3734,-0.3413,-0.3111
1535,0.1671,0.3779,0.5384,0.6629,0.7444,1.3628,1.3855,1.3982
1536,-0.1406,-0.1803,-0.2265,-0.2708,-0.2542,-0.3729,-0.3375,-0.2994
1537,0.2269,0.4542,0.644,0.7934,0.9029,1.5943,1.6146,1.6259
1538,-0.0789,-0.1175,-0.1684,-0.2206,-0.2245,-0.3705,-0.3133,-0.2517
1539,0.2405,0.4991,0.7355,0.9386,1.1491,2.0863,2.1731,2.2492
1540,-0.173,-0.2126,-0.2616,-0.3149,-0.3484,-0.5661,-0.5186,-0.3904
1541,0.3046,0.5643,0.7944,1.0157,1.2182,2.1593,2.2361,2.3255
1542,-0.0526,-0.1028,-0.1544,-0.2057,-0.246,-0.475,-0.4339,-0.3091
1543,0.2699,0.5106,0.7524,0.9632,1.1407,2.071,2.1534,2.2514
1544,-0.0566,-0.1032,-0.1471,-0.1888,-0.2141,-0.3689,-0.2388,-0.0531
1545,0.3013,0.53,0.7653,0.9657,1.1582,2.0423,2.0944,2.1635
1546,-0.1297,-0.1854,-0.2328,-0.2622,-0.2634,-0.3923,-0.1929,-0.0279
1547,0.239,0.4457,0.6463,0.8287,1.0192,1.8305,1.9026,1.9947
1548,-0.0363,-0.0589,-0.1277,-0.137,-0.1527,-0.2582,-0.193,-0.1661
1549,0.2729,0.4327,0.5762,0.7184,0.8674,1.4723,1.5431,1.6174
1550,0.0066,0.0025,-0.0381,-0.0419,-0.0755,-0.1368,-0.099,-0.079
1551,0.2025,0.3269,0.4163,0.5174,0.607,0.9899,1.0023,1.0139
1552,-0.0703,-0.0703,-0.0703,-0.0851,-0.1165,-0.1467,-0.1135,-0.1001
1553,0.0119,0.0851,0.1234,0.1556,0.1743,0.2928,0.2776,0.2639
1554,0.0153,-0.0098,-0.0385,-0.0675,-0.1003,-0.2135,-0.1907,-0.182
1555,-0.0315,0.0092,0.019,0.0452,0.083,0.1797,0.1919,0.2003
1556,-0.1009,-0.1261,-0.1548,-0.1836,-0.2083,-0.3181,-0.3243,-0.3299
1557,0.0533,0.0372,0.008,0.0009,0.0353,0.0292,0.0622,0.0927
1558,-0.0088,-0.0341,-0.0627,-0.0915,-0.1162,-0.226,-0.2382,-0.2518
1559,0.0492,0.0492,0.0492,0.0492,0.0809,0.1445,0.1799,0.2131
1560,-0.0034,-0.0034,-0.0034,-0.0034,-0.0034,-0.0034,-0.0034,-0.0034
1561,-0.0326,-0.0326,-0.0326,-0.0326,-0.0326,-0.0326,-0.0326,-0.0326
1562,0.083,0.083,0.083,0.083,0.083,0.083,0.083,0.083
1563,0.0088,0.0088,0.0088,0.0088,0.0088,0.0088,0.0088,0.0088
1564,-0.0218,-0.0218,-0.0218,-0.0218,-0.0218,-0.0218,-0.0218,-0.0218
1565,0.0401,0.0401,0.0401,0.0401,0.0401,0.0401,0.0401,0.0401
1566,0.0815,0.0815,0.0815,0.0815,0.0815,0.0815,0.0815,0.0815
1567,-0.0333,-0.0333,-0.0333,-0.0333,-0.0333,0,0,0
1568,-0.0042,0.0381,0.1176,0.2632,0.391,0.6729,0.7238,0.804
1569,0.0609,0.1111,0.1836,0.2599,0.3405,0.2079,0.3698,0.5009
1570,0.589,0.5932,0.6779,0.7121,0.7296,0.9696,0.9844,0.9969
1571,-0.917,-1.0031,-0.9771,-0.7119,-0.6485,-0.7436,-0.7337,-0.7281
1572,-0.2128,-0.2843,-0.3271,-0.35,-0.3563,-0.2905,-0.2888,-0.2873
1573,0.1543,0.0551,-0.0021,-0.0448,-0.0563,-0.073,-0.0869,-0.0855
1574,-1.1209,-1.2333,-1.228,-1.2854,-1.2967,-1.2611,-1.1176,-1.0322
