Id,Epoch:0,Epoch:1,Epoch:2,Epoch:3,Epoch:4,Epoch:5,Epoch:6,Epoch:7,Epoch:8,Epoch:9,Epoch:10,Epoch:11,Epoch:12,Epoch:13,Epoch:14,Epoch:15,Epoch:16,Epoch:17,Epoch:18,Epoch:19,Epoch:20,Epoch:21,Epoch:22,Epoch:23,Epoch:24,Epoch:25,Epoch:26,Epoch:27,Epoch:28,Epoch:29,Epoch:30,Epoch:31,Epoch:32,Epoch:33,Epoch:34,Epoch:35,Epoch:36,Epoch:37,Epoch:38,Epoch:39,Epoch:40,Epoch:41,Epoch:42,Epoch:43,Epoch:44,Epoch:45,Epoch:46,Epoch:47,Epoch:48,Epoch:49,Epoch:50,Epoch:51,Epoch:52,Epoch:53,Epoch:54,Epoch:55,Epoch:56,Epoch:57,Epoch:58,Epoch:59,Epoch:60,Epoch:61,Epoch:62,Epoch:63,Epoch:64,Epoch:65,Epoch:66,Epoch:67,Epoch:68,Epoch:69,Epoch:70,Epoch:71,Epoch:72,Epoch:73,Epoch:74,Epoch:75,Epoch:76,Epoch:77,Epoch:78,Epoch:79,Epoch:80,Epoch:81,Epoch:82,Epoch:83,Epoch:84,Epoch:85,Epoch:86,Epoch:87,Epoch:88,Epoch:89,Epoch:90,Epoch:91,Epoch:92,Epoch:93,Epoch:94,Epoch:95,Epoch:96,Epoch:97,Epoch:98,Epoch:99,Epoch:100
0,0.237,0.237,0.240,0.241,0.234,0.235,0.238,0.235,0.233,0.227,0.220,0.213,0.207,0.198,0.193,0.182,0.175,0.169,0.164,0.158,0.157,0.152,0.149,0.144,0.144,0.140,0.139,0.140,0.144,0.144,0.145,0.146,0.147,0.151,0.152,0.153,0.159,0.162,0.164,0.167,0.173,0.177,0.178,0.180,0.182,0.185,0.190,0.193,0.199,0.204,0.208,0.214,0.217,0.202,0.207,0.211,0.213,0.219,0.224,0.228,0.229,0.236,0.240,0.245,0.251,0.257,0.263,0.264,0.266,0.272,0.276,0.281,0.282,0.288,0.290,0.294,0.300,0.303,0.305,0.308,0.313,0.317,0.323,0.323,0.330,0.334,0.336,0.342,0.345,0.346,0.351,0.355,0.360,0.362,0.365,0.369,0.373,0.376,0.380,0.382,0.384
1,0.395,0.397,0.400,0.400,0.402,0.401,0.403,0.401,0.399,0.398,0.396,0.395,0.395,0.390,0.389,0.390,0.389,0.387,0.387,0.384,0.385,0.384,0.384,0.385,0.386,0.382,0.382,0.382,0.379,0.379,0.377,0.375,0.373,0.375,0.372,0.370,0.368,0.367,0.366,0.364,0.364,0.364,0.360,0.376,0.373,0.372,0.370,0.368,0.366,0.366,0.363,0.364,0.363,0.367,0.366,0.365,0.363,0.363,0.356,0.353,0.351,0.350,0.352,0.350,0.350,0.348,0.353,0.353,0.351,0.349,0.348,0.349,0.343,0.343,0.342,0.340,0.340,0.339,0.337,0.339,0.338,0.334,0.332,0.331,0.327,0.326,0.324,0.322,0.322,0.320,0.320,0.317,0.323,0.321,0.316,0.314,0.312,0.311,0.310,0.307,0.302
2,0.206,0.212,0.212,0.212,0.212,0.215,0.217,0.220,0.221,0.221,0.226,0.229,0.233,0.237,0.240,0.244,0.249,0.255,0.259,0.266,0.267,0.274,0.279,0.282,0.287,0.291,0.296,0.298,0.302,0.305,0.308,0.313,0.316,0.318,0.322,0.326,0.327,0.330,0.331,0.335,0.337,0.339,0.342,0.329,0.332,0.335,0.337,0.339,0.342,0.345,0.345,0.347,0.351,0.348,0.349,0.349,0.351,0.353,0.356,0.355,0.357,0.359,0.361,0.361,0.363,0.364,0.359,0.361,0.363,0.363,0.366,0.367,0.368,0.368,0.368,0.370,0.372,0.371,0.372,0.367,0.368,0.369,0.370,0.372,0.372,0.374,0.373,0.376,0.374,0.375,0.377,0.377,0.373,0.374,0.375,0.376,0.377,0.376,0.376,0.377,0.378
3,0.174,0.169,0.165,0.158,0.156,0.153,0.149,0.145,0.142,0.139,0.136,0.133,0.130,0.129,0.128,0.126,0.125,0.124,0.123,0.122,0.121,0.120,0.119,0.118,0.117,0.116,0.116,0.115,0.114,0.113,0.113,0.112,0.112,0.111,0.111,0.110,0.110,0.110,0.109,0.109,0.109,0.109,0.109,0.104,0.104,0.105,0.105,0.105,0.106,0.106,0.107,0.107,0.108,0.099,0.100,0.101,0.102,0.103,0.104,0.105,0.107,0.109,0.111,0.111,0.114,0.115,0.096,0.099,0.101,0.104,0.105,0.108,0.111,0.113,0.117,0.120,0.123,0.127,0.129,0.132,0.137,0.141,0.144,0.148,0.152,0.159,0.161,0.165,0.171,0.175,0.183,0.190,0.198,0.205,0.212,0.219,0.225,0.229,0.230,0.235,0.242
4,-0.372,-0.369,-0.367,-0.362,-0.359,-0.356,-0.353,-0.350,-0.347,-0.345,-0.341,-0.338,-0.335,-0.333,-0.331,-0.331,-0.330,-0.330,-0.330,-0.332,-0.332,-0.336,-0.337,-0.339,-0.338,-0.339,-0.340,-0.340,-0.341,-0.343,-0.344,-0.341,-0.336,-0.328,-0.323,-0.319,-0.313,-0.302,-0.290,-0.283,-0.269,-0.268,-0.257,-0.253,-0.238,-0.215,-0.197,-0.184,-0.175,-0.166,-0.157,-0.158,-0.151,-0.149,-0.143,-0.132,-0.123,-0.127,-0.121,-0.118,-0.117,-0.120,-0.121,-0.118,-0.124,-0.128,-0.133,-0.128,-0.127,-0.121,-0.128,-0.131,-0.130,-0.132,-0.136,-0.140,-0.138,-0.140,-0.145,-0.148,-0.144,-0.143,-0.144,-0.147,-0.151,-0.151,-0.151,-0.154,-0.153,-0.157,-0.160,-0.159,-0.161,-0.156,-0.157,-0.161,-0.164,-0.162,-0.167,-0.167,-0.170
5,-0.131,-0.133,-0.130,-0.128,-0.130,-0.126,-0.125,-0.122,-0.119,-0.114,-0.110,-0.105,-0.100,-0.094,-0.093,-0.087,-0.081,-0.078,-0.072,-0.066,-0.063,-0.059,-0.053,-0.050,-0.045,-0.043,-0.040,-0.037,-0.029,-0.027,-0.025,-0.022,-0.020,-0.016,-0.013,-0.009,-0.007,-0.004,-0.001,0.001,0.005,0.007,0.008,0.019,0.021,0.024,0.028,0.030,0.030,0.032,0.034,0.035,0.037,0.052,0.053,0.057,0.057,0.060,0.061,0.060,0.063,0.064,0.065,0.066,0.070,0.068,0.070,0.073,0.072,0.071,0.073,0.075,0.075,0.077,0.077,0.077,0.079,0.078,0.080,0.080,0.082,0.082,0.084,0.084,0.082,0.086,0.084,0.086,0.087,0.086,0.088,0.087,0.088,0.089,0.090,0.090,0.092,0.092,0.089,0.090,0.090
6,-0.287,-0.291,-0.297,-0.298,-0.296,-0.296,-0.295,-0.293,-0.292,-0.285,-0.280,-0.270,-0.256,-0.240,-0.226,-0.230,-0.230,-0.228,-0.228,-0.227,-0.224,-0.228,-0.224,-0.221,-0.224,-0.220,-0.221,-0.219,-0.216,-0.216,-0.214,-0.213,-0.210,-0.211,-0.209,-0.208,-0.205,-0.205,-0.203,-0.203,-0.199,-0.196,-0.197,-0.195,-0.188,-0.188,-0.187,-0.181,-0.182,-0.179,-0.178,-0.175,-0.174,-0.186,-0.183,-0.182,-0.179,-0.178,-0.175,-0.174,-0.173,-0.172,-0.168,-0.168,-0.167,-0.165,-0.166,-0.165,-0.162,-0.162,-0.161,-0.158,-0.156,-0.157,-0.154,-0.154,-0.153,-0.150,-0.149,-0.148,-0.148,-0.146,-0.145,-0.144,-0.143,-0.144,-0.140,-0.143,-0.139,-0.140,-0.140,-0.139,-0.135,-0.133,-0.133,-0.132,-0.132,-0.131,-0.132,-0.133,-0.130
7,-0.186,-0.185,-0.187,-0.187,-0.196,-0.200,-0.204,-0.207,-0.211,-0.217,-0.225,-0.231,-0.241,-0.250,-0.258,-0.266,-0.274,-0.282,-0.290,-0.299,-0.307,-0.315,-0.323,-0.330,-0.340,-0.347,-0.356,-0.363,-0.371,-0.378,-0.386,-0.394,-0.400,-0.405,-0.413,-0.421,-0.426,-0.433,-0.440,-0.446,-0.453,-0.459,-0.464,-0.467,-0.474,-0.481,-0.486,-0.493,-0.499,-0.507,-0.512,-0.519,-0.525,-0.510,-0.516,-0.523,-0.529,-0.535,-0.541,-0.546,-0.553,-0.558,-0.564,-0.569,-0.576,-0.579,-0.585,-0.589,-0.592,-0.595,-0.600,-0.603,-0.608,-0.614,-0.619,-0.625,-0.631,-0.633,-0.640,-0.644,-0.649,-0.654,-0.658,-0.661,-0.666,-0.668,-0.674,-0.680,-0.683,-0.686,-0.691,-0.697,-0.702,-0.706,-0.706,-0.711,-0.715,-0.718,-0.724,-0.729,-0.729
8,-0.176,-0.187,-0.193,-0.201,-0.208,-0.215,-0.226,-0.238,-0.248,-0.262,-0.274,-0.286,-0.298,-0.312,-0.325,-0.338,-0.348,-0.363,-0.376,-0.388,-0.399,-0.413,-0.423,-0.432,-0.443,-0.453,-0.463,-0.472,-0.482,-0.492,-0.499,-0.507,-0.515,-0.526,-0.535,-0.540,-0.548,-0.555,-0.563,-0.570,-0.577,-0.584,-0.592,-0.599,-0.607,-0.610,-0.617,-0.623,-0.630,-0.636,-0.641,-0.648,-0.654,-0.661,-0.667,-0.673,-0.676,-0.679,-0.685,-0.690,-0.696,-0.700,-0.707,-0.711,-0.716,-0.719,-0.723,-0.728,-0.728,-0.732,-0.738,-0.741,-0.746,-0.750,-0.756,-0.759,-0.762,-0.768,-0.772,-0.777,-0.778,-0.784,-0.788,-0.791,-0.795,-0.799,-0.801,-0.808,-0.811,-0.813,-0.820,-0.821,-0.826,-0.828,-0.833,-0.837,-0.839,-0.844,-0.849,-0.854,-0.856
9,-0.050,-0.054,-0.056,-0.060,-0.063,-0.068,-0.074,-0.082,-0.089,-0.093,-0.100,-0.103,-0.112,-0.122,-0.136,-0.153,-0.179,-0.214,-0.248,-0.276,-0.303,-0.333,-0.365,-0.395,-0.425,-0.450,-0.475,-0.499,-0.524,-0.545,-0.565,-0.585,-0.603,-0.623,-0.643,-0.660,-0.678,-0.692,-0.707,-0.723,-0.739,-0.754,-0.769,-0.784,-0.801,-0.813,-0.826,-0.840,-0.852,-0.868,-0.880,-0.892,-0.905,-0.917,-0.929,-0.942,-0.953,-0.963,-0.974,-0.984,-0.996,-1.007,-1.020,-1.028,-1.039,-1.047,-1.057,-1.070,-1.078,-1.090,-1.099,-1.108,-1.117,-1.124,-1.135,-1.144,-1.154,-1.162,-1.170,-1.178,-1.190,-1.201,-1.209,-1.217,-1.226,-1.235,-1.242,-1.251,-1.260,-1.270,-1.278,-1.286,-1.294,-1.304,-1.311,-1.320,-1.330,-1.337,-1.345,-1.354,-1.360
10,-0.327,-0.323,-0.315,-0.308,-0.300,-0.291,-0.283,-0.275,-0.271,-0.269,-0.260,-0.259,-0.254,-0.253,-0.270,-0.296,-0.317,-0.331,-0.348,-0.362,-0.377,-0.391,-0.404,-0.416,-0.429,-0.437,-0.446,-0.457,-0.467,-0.478,-0.486,-0.499,-0.506,-0.513,-0.521,-0.533,-0.539,-0.547,-0.554,-0.560,-0.567,-0.573,-0.579,-0.607,-0.612,-0.620,-0.625,-0.631,-0.639,-0.647,-0.653,-0.659,-0.664,-0.677,-0.681,-0.685,-0.692,-0.698,-0.703,-0.709,-0.715,-0.718,-0.721,-0.727,-0.733,-0.737,-0.740,-0.745,-0.751,-0.756,-0.760,-0.764,-0.770,-0.775,-0.780,-0.784,-0.789,-0.794,-0.799,-0.789,-0.794,-0.798,-0.803,-0.808,-0.810,-0.813,-0.818,-0.823,-0.825,-0.831,-0.835,-0.839,-0.829,-0.835,-0.839,-0.842,-0.845,-0.851,-0.856,-0.861,-0.864
11,0.156,0.158,0.157,0.156,0.152,0.140,0.129,0.118,0.108,0.093,0.082,0.070,0.055,0.040,0.025,0.005,-0.013,-0.032,-0.050,-0.067,-0.082,-0.097,-0.109,-0.123,-0.133,-0.146,-0.159,-0.169,-0.179,-0.189,-0.200,-0.211,-0.218,-0.226,-0.234,-0.240,-0.247,-0.253,-0.260,-0.268,-0.275,-0.281,-0.287,-0.293,-0.302,-0.307,-0.311,-0.318,-0.323,-0.329,-0.335,-0.339,-0.346,-0.351,-0.358,-0.363,-0.370,-0.372,-0.377,-0.382,-0.387,-0.390,-0.395,-0.399,-0.402,-0.405,-0.408,-0.414,-0.420,-0.424,-0.427,-0.430,-0.435,-0.438,-0.443,-0.449,-0.450,-0.455,-0.460,-0.465,-0.467,-0.469,-0.473,-0.476,-0.482,-0.484,-0.489,-0.491,-0.496,-0.500,-0.503,-0.509,-0.513,-0.514,-0.520,-0.524,-0.525,-0.530,-0.533,-0.538,-0.543
12,0.321,0.322,0.325,0.330,0.334,0.340,0.344,0.349,0.355,0.362,0.368,0.376,0.381,0.388,0.393,0.401,0.410,0.414,0.423,0.430,0.436,0.442,0.451,0.459,0.463,0.471,0.477,0.483,0.494,0.499,0.504,0.512,0.516,0.523,0.528,0.535,0.540,0.546,0.551,0.557,0.562,0.568,0.571,0.566,0.572,0.577,0.583,0.588,0.593,0.597,0.602,0.605,0.610,0.602,0.607,0.612,0.616,0.619,0.624,0.626,0.629,0.633,0.637,0.640,0.646,0.647,0.636,0.641,0.642,0.644,0.649,0.652,0.655,0.659,0.662,0.664,0.668,0.668,0.674,0.645,0.649,0.651,0.655,0.657,0.658,0.664,0.663,0.667,0.669,0.672,0.676,0.677,0.665,0.667,0.669,0.670,0.675,0.677,0.676,0.679,0.681
13,0.265,0.265,0.265,0.265,0.259,0.259,0.259,0.259,0.259,0.259,0.259,0.259,0.259,0.259,0.259,0.259,0.259,0.259,0.259,0.259,0.259,0.259,0.259,0.259,0.259,0.259,0.259,0.259,0.259,0.259,0.259,0.259,0.259,0.259,0.259,0.259,0.259,0.259,0.259,0.259,0.259,0.259,0.259,0.252,0.252,0.252,0.252,0.252,0.252,0.252,0.252,0.252,0.252,0.249,0.249,0.249,0.249,0.249,0.249,0.249,0.249,0.249,0.249,0.249,0.249,0.249,0.248,0.248,0.248,0.248,0.248,0.248,0.248,0.248,0.248,0.248,0.248,0.248,0.248,0.248,0.248,0.248,0.248,0.248,0.248,0.248,0.248,0.248,0.248,0.248,0.248,0.248,0.248,0.248,0.248,0.248,0.248,0.248,0.248,0.248,0.248
14,0.115,0.105,0.098,0.094,0.088,0.088,0.091,0.094,0.098,0.104,0.111,0.117,0.123,0.128,0.137,0.145,0.154,0.160,0.168,0.175,0.183,0.191,0.198,0.206,0.210,0.217,0.223,0.229,0.234,0.238,0.243,0.250,0.253,0.257,0.260,0.264,0.268,0.272,0.274,0.276,0.279,0.284,0.285,0.289,0.292,0.295,0.297,0.299,0.304,0.306,0.307,0.309,0.313,0.316,0.318,0.317,0.320,0.321,0.324,0.324,0.326,0.327,0.329,0.330,0.333,0.333,0.335,0.337,0.339,0.340,0.342,0.343,0.344,0.347,0.347,0.348,0.349,0.350,0.353,0.355,0.356,0.357,0.357,0.358,0.360,0.361,0.362,0.364,0.363,0.366,0.367,0.367,0.368,0.367,0.368,0.369,0.370,0.373,0.374,0.374,0.376
15,-0.237,-0.245,-0.254,-0.263,-0.258,-0.264,-0.270,-0.274,-0.279,-0.284,-0.286,-0.291,-0.294,-0.299,-0.303,-0.307,-0.310,-0.313,-0.316,-0.318,-0.323,-0.326,-0.330,-0.336,-0.337,-0.342,-0.344,-0.348,-0.352,-0.356,-0.360,-0.362,-0.363,-0.366,-0.368,-0.372,-0.377,-0.378,-0.381,-0.384,-0.385,-0.388,-0.389,-0.383,-0.386,-0.387,-0.390,-0.394,-0.395,-0.398,-0.400,-0.402,-0.404,-0.401,-0.406,-0.405,-0.408,-0.408,-0.412,-0.412,-0.413,-0.415,-0.417,-0.419,-0.421,-0.423,-0.425,-0.428,-0.424,-0.428,-0.429,-0.430,-0.433,-0.433,-0.436,-0.435,-0.436,-0.436,-0.439,-0.440,-0.442,-0.442,-0.442,-0.444,-0.445,-0.445,-0.446,-0.446,-0.448,-0.448,-0.450,-0.450,-0.451,-0.452,-0.452,-0.452,-0.454,-0.454,-0.454,-0.455,-0.455
16,-0.104,-0.113,-0.121,-0.127,-0.134,-0.140,-0.144,-0.146,-0.150,-0.153,-0.157,-0.161,-0.166,-0.171,-0.172,-0.176,-0.181,-0.184,-0.188,-0.194,-0.195,-0.200,-0.204,-0.207,-0.210,-0.212,-0.215,-0.216,-0.222,-0.224,-0.226,-0.228,-0.229,-0.232,-0.234,-0.238,-0.240,-0.241,-0.244,-0.246,-0.248,-0.250,-0.251,-0.253,-0.254,-0.257,-0.259,-0.262,-0.262,-0.265,-0.266,-0.267,-0.269,-0.270,-0.272,-0.274,-0.275,-0.277,-0.279,-0.277,-0.280,-0.281,-0.283,-0.284,-0.286,-0.285,-0.286,-0.289,-0.287,-0.287,-0.289,-0.290,-0.291,-0.291,-0.292,-0.291,-0.293,-0.291,-0.293,-0.292,-0.293,-0.293,-0.294,-0.294,-0.294,-0.295,-0.294,-0.296,-0.296,-0.295,-0.296,-0.295,-0.295,-0.296,-0.297,-0.297,-0.299,-0.297,-0.295,-0.295,-0.294
17,-0.062,-0.048,-0.037,-0.025,-0.014,-0.003,0.010,0.022,0.034,0.045,0.057,0.070,0.082,0.096,0.108,0.120,0.131,0.145,0.156,0.167,0.178,0.188,0.198,0.210,0.221,0.230,0.239,0.248,0.256,0.266,0.275,0.282,0.291,0.297,0.306,0.313,0.321,0.328,0.336,0.343,0.350,0.355,0.363,0.369,0.376,0.382,0.387,0.394,0.399,0.405,0.413,0.418,0.422,0.427,0.434,0.441,0.446,0.450,0.455,0.462,0.467,0.472,0.477,0.483,0.486,0.493,0.497,0.502,0.505,0.512,0.515,0.520,0.526,0.528,0.534,0.539,0.543,0.548,0.551,0.555,0.559,0.563,0.568,0.572,0.577,0.578,0.584,0.586,0.592,0.595,0.598,0.603,0.607,0.611,0.614,0.617,0.621,0.624,0.628,0.632,0.635
18,0.094,0.091,0.088,0.084,0.086,0.084,0.082,0.075,0.071,0.068,0.065,0.063,0.061,0.057,0.054,0.050,0.048,0.045,0.042,0.039,0.037,0.033,0.030,0.029,0.027,0.023,0.020,0.018,0.016,0.014,0.012,0.009,0.007,0.006,0.004,0.002,0.001,-0.001,-0.004,-0.005,-0.010,-0.011,-0.013,-0.014,-0.017,-0.019,-0.023,-0.025,-0.028,-0.030,-0.032,-0.032,-0.031,-0.031,-0.029,-0.020,-0.015,-0.005,0.005,0.020,0.046,0.060,0.064,0.072,0.074,0.071,0.071,0.073,0.074,0.074,0.076,0.072,0.065,0.062,0.063,0.061,0.054,0.052,0.044,0.040,0.036,0.037,0.031,0.030,0.030,0.027,0.022,0.020,0.017,0.013,0.011,0.009,0.007,0.004,-0.001,-0.004,-0.008,-0.010,-0.016,-0.016,-0.018
19,0.044,0.048,0.052,0.055,0.059,0.067,0.076,0.088,0.102,0.098,0.086,0.074,0.063,0.050,0.037,0.025,0.013,-0.001,-0.012,-0.024,-0.034,-0.044,-0.055,-0.063,-0.072,-0.081,-0.092,-0.099,-0.107,-0.113,-0.120,-0.131,-0.136,-0.142,-0.148,-0.154,-0.160,-0.167,-0.173,-0.179,-0.184,-0.187,-0.193,-0.197,-0.206,-0.211,-0.218,-0.222,-0.227,-0.231,-0.238,-0.241,-0.241,-0.243,-0.249,-0.260,-0.263,-0.264,-0.269,-0.275,-0.278,-0.279,-0.282,-0.286,-0.289,-0.292,-0.295,-0.299,-0.303,-0.306,-0.306,-0.309,-0.312,-0.315,-0.319,-0.323,-0.323,-0.324,-0.329,-0.331,-0.331,-0.334,-0.338,-0.337,-0.341,-0.345,-0.346,-0.348,-0.355,-0.355,-0.354,-0.358,-0.359,-0.362,-0.364,-0.365,-0.367,-0.372,-0.373,-0.374,-0.377
20,-0.117,-0.115,-0.113,-0.111,-0.113,-0.111,-0.110,-0.115,-0.121,-0.131,-0.142,-0.152,-0.163,-0.174,-0.185,-0.201,-0.213,-0.224,-0.234,-0.243,-0.251,-0.259,-0.268,-0.276,-0.282,-0.289,-0.296,-0.301,-0.303,-0.309,-0.316,-0.319,-0.324,-0.327,-0.331,-0.337,-0.338,-0.341,-0.346,-0.349,-0.349,-0.351,-0.355,-0.358,-0.362,-0.363,-0.365,-0.367,-0.368,-0.369,-0.371,-0.372,-0.374,-0.375,-0.375,-0.377,-0.381,-0.382,-0.382,-0.385,-0.389,-0.388,-0.390,-0.393,-0.391,-0.391,-0.390,-0.395,-0.398,-0.397,-0.400,-0.400,-0.403,-0.404,-0.406,-0.407,-0.407,-0.409,-0.411,-0.413,-0.414,-0.414,-0.413,-0.417,-0.414,-0.416,-0.420,-0.419,-0.420,-0.424,-0.423,-0.424,-0.424,-0.425,-0.426,-0.426,-0.426,-0.427,-0.428,-0.429,-0.431
21,0.371,0.372,0.373,0.370,0.370,0.368,0.368,0.365,0.364,0.362,0.359,0.358,0.357,0.353,0.352,0.353,0.350,0.348,0.347,0.345,0.345,0.344,0.343,0.345,0.346,0.341,0.341,0.342,0.339,0.340,0.337,0.336,0.335,0.338,0.335,0.332,0.331,0.330,0.328,0.326,0.326,0.326,0.323,0.336,0.334,0.333,0.332,0.330,0.328,0.329,0.326,0.327,0.327,0.326,0.328,0.326,0.325,0.327,0.320,0.317,0.317,0.316,0.318,0.317,0.317,0.317,0.312,0.313,0.311,0.311,0.311,0.312,0.309,0.310,0.309,0.309,0.309,0.309,0.310,0.302,0.300,0.300,0.299,0.299,0.296,0.296,0.296,0.294,0.296,0.295,0.296,0.295,0.288,0.288,0.284,0.285,0.285,0.285,0.286,0.286,0.282
22,-0.178,-0.169,-0.166,-0.165,-0.166,-0.162,-0.158,-0.154,-0.151,-0.150,-0.144,-0.140,-0.135,-0.130,-0.127,-0.122,-0.116,-0.110,-0.105,-0.099,-0.097,-0.090,-0.084,-0.081,-0.076,-0.071,-0.066,-0.065,-0.060,-0.057,-0.054,-0.050,-0.047,-0.044,-0.041,-0.038,-0.035,-0.032,-0.033,-0.029,-0.028,-0.026,-0.024,-0.042,-0.039,-0.037,-0.035,-0.034,-0.032,-0.028,-0.029,-0.027,-0.024,-0.038,-0.038,-0.037,-0.036,-0.033,-0.032,-0.034,-0.032,-0.031,-0.029,-0.029,-0.029,-0.027,-0.036,-0.035,-0.033,-0.033,-0.031,-0.030,-0.029,-0.029,-0.030,-0.027,-0.027,-0.028,-0.027,-0.027,-0.026,-0.025,-0.024,-0.023,-0.023,-0.021,-0.022,-0.019,-0.021,-0.021,-0.020,-0.019,-0.014,-0.014,-0.013,-0.012,-0.011,-0.013,-0.014,-0.012,-0.012
23,0.124,0.118,0.112,0.105,0.102,0.097,0.093,0.091,0.089,0.087,0.086,0.084,0.082,0.081,0.079,0.077,0.076,0.074,0.073,0.071,0.070,0.068,0.067,0.066,0.065,0.063,0.062,0.061,0.059,0.058,0.057,0.056,0.055,0.054,0.053,0.052,0.051,0.050,0.050,0.049,0.048,0.048,0.047,0.047,0.046,0.046,0.045,0.045,0.045,0.045,0.044,0.044,0.044,0.044,0.044,0.045,0.045,0.045,0.045,0.046,0.047,0.047,0.048,0.049,0.050,0.050,0.043,0.045,0.047,0.048,0.049,0.051,0.053,0.054,0.057,0.059,0.061,0.064,0.065,0.045,0.049,0.052,0.054,0.057,0.060,0.065,0.066,0.070,0.074,0.078,0.083,0.088,0.076,0.081,0.085,0.090,0.093,0.089,0.087,0.092,0.105
24,-0.387,-0.389,-0.392,-0.390,-0.391,-0.390,-0.389,-0.387,-0.386,-0.386,-0.388,-0.391,-0.394,-0.402,-0.406,-0.413,-0.420,-0.428,-0.441,-0.453,-0.464,-0.477,-0.487,-0.495,-0.499,-0.502,-0.507,-0.499,-0.498,-0.498,-0.498,-0.490,-0.481,-0.476,-0.468,-0.465,-0.453,-0.437,-0.426,-0.418,-0.412,-0.409,-0.396,-0.390,-0.375,-0.359,-0.345,-0.334,-0.324,-0.316,-0.307,-0.308,-0.300,-0.298,-0.290,-0.281,-0.273,-0.277,-0.273,-0.269,-0.265,-0.265,-0.264,-0.259,-0.262,-0.264,-0.267,-0.261,-0.260,-0.254,-0.257,-0.258,-0.255,-0.253,-0.255,-0.259,-0.253,-0.252,-0.255,-0.255,-0.251,-0.249,-0.250,-0.250,-0.251,-0.249,-0.247,-0.248,-0.245,-0.247,-0.248,-0.246,-0.246,-0.240,-0.239,-0.241,-0.242,-0.238,-0.241,-0.239,-0.240
25,0.390,0.385,0.384,0.381,0.381,0.381,0.379,0.376,0.376,0.377,0.377,0.378,0.379,0.381,0.379,0.381,0.383,0.381,0.385,0.387,0.386,0.387,0.390,0.390,0.391,0.391,0.391,0.391,0.396,0.395,0.395,0.395,0.394,0.395,0.395,0.397,0.395,0.395,0.396,0.395,0.396,0.395,0.394,0.376,0.375,0.376,0.378,0.376,0.375,0.374,0.373,0.372,0.371,0.367,0.367,0.368,0.366,0.366,0.367,0.363,0.364,0.363,0.363,0.361,0.363,0.359,0.353,0.355,0.352,0.350,0.350,0.350,0.348,0.348,0.348,0.345,0.346,0.343,0.344,0.339,0.339,0.338,0.339,0.337,0.335,0.337,0.334,0.335,0.334,0.332,0.332,0.330,0.323,0.322,0.321,0.321,0.322,0.320,0.318,0.317,0.315
26,0.385,0.384,0.382,0.384,0.381,0.384,0.384,0.386,0.387,0.390,0.392,0.396,0.403,0.409,0.418,0.413,0.414,0.415,0.414,0.413,0.415,0.411,0.414,0.414,0.409,0.411,0.409,0.408,0.408,0.407,0.407,0.406,0.407,0.405,0.404,0.404,0.405,0.401,0.402,0.400,0.402,0.401,0.399,0.406,0.411,0.407,0.407,0.410,0.406,0.406,0.405,0.405,0.404,0.402,0.402,0.401,0.401,0.400,0.401,0.399,0.397,0.396,0.398,0.395,0.395,0.394,0.391,0.389,0.390,0.387,0.386,0.386,0.385,0.383,0.384,0.381,0.381,0.381,0.380,0.380,0.377,0.377,0.377,0.376,0.374,0.372,0.373,0.369,0.371,0.369,0.368,0.367,0.364,0.365,0.364,0.363,0.361,0.361,0.359,0.355,0.358
27,-0.283,-0.285,-0.290,-0.293,-0.300,-0.307,-0.312,-0.317,-0.323,-0.329,-0.338,-0.346,-0.356,-0.366,-0.375,-0.383,-0.392,-0.401,-0.409,-0.419,-0.427,-0.435,-0.443,-0.450,-0.459,-0.466,-0.475,-0.481,-0.488,-0.495,-0.502,-0.509,-0.514,-0.519,-0.526,-0.532,-0.536,-0.541,-0.546,-0.551,-0.557,-0.562,-0.565,-0.546,-0.551,-0.555,-0.559,-0.563,-0.566,-0.572,-0.574,-0.579,-0.583,-0.565,-0.570,-0.574,-0.577,-0.580,-0.584,-0.585,-0.590,-0.591,-0.595,-0.597,-0.601,-0.602,-0.577,-0.579,-0.579,-0.580,-0.582,-0.583,-0.585,-0.586,-0.589,-0.594,-0.596,-0.595,-0.598,-0.579,-0.582,-0.585,-0.585,-0.586,-0.587,-0.589,-0.591,-0.594,-0.595,-0.595,-0.596,-0.599,-0.601,-0.602,-0.599,-0.602,-0.603,-0.602,-0.606,-0.609,-0.608
28,-0.253,-0.264,-0.272,-0.281,-0.289,-0.298,-0.308,-0.321,-0.330,-0.343,-0.355,-0.367,-0.377,-0.391,-0.402,-0.414,-0.423,-0.437,-0.447,-0.458,-0.467,-0.478,-0.487,-0.494,-0.503,-0.511,-0.518,-0.524,-0.532,-0.539,-0.544,-0.550,-0.553,-0.560,-0.567,-0.568,-0.574,-0.577,-0.581,-0.586,-0.589,-0.592,-0.595,-0.598,-0.604,-0.603,-0.605,-0.608,-0.611,-0.614,-0.615,-0.618,-0.621,-0.624,-0.626,-0.630,-0.629,-0.629,-0.631,-0.631,-0.633,-0.633,-0.636,-0.636,-0.637,-0.638,-0.639,-0.641,-0.638,-0.640,-0.642,-0.641,-0.643,-0.642,-0.645,-0.647,-0.646,-0.648,-0.649,-0.651,-0.648,-0.652,-0.652,-0.653,-0.653,-0.654,-0.653,-0.655,-0.655,-0.654,-0.657,-0.654,-0.655,-0.654,-0.654,-0.655,-0.654,-0.653,-0.654,-0.656,-0.656
29,0.252,0.246,0.243,0.237,0.232,0.229,0.227,0.221,0.216,0.213,0.210,0.209,0.207,0.202,0.198,0.193,0.184,0.168,0.148,0.129,0.113,0.100,0.082,0.065,0.047,0.034,0.023,0.010,-0.004,-0.013,-0.021,-0.030,-0.036,-0.042,-0.052,-0.056,-0.064,-0.067,-0.070,-0.073,-0.077,-0.080,-0.082,-0.085,-0.092,-0.091,-0.091,-0.094,-0.093,-0.098,-0.099,-0.099,-0.098,-0.098,-0.099,-0.100,-0.099,-0.099,-0.097,-0.095,-0.095,-0.095,-0.097,-0.093,-0.093,-0.091,-0.090,-0.092,-0.091,-0.093,-0.091,-0.089,-0.089,-0.085,-0.085,-0.086,-0.084,-0.083,-0.079,-0.077,-0.080,-0.081,-0.076,-0.076,-0.074,-0.074,-0.070,-0.068,-0.067,-0.066,-0.064,-0.061,-0.059,-0.058,-0.056,-0.055,-0.055,-0.052,-0.049,-0.049,-0.047
30,0.403,0.406,0.410,0.414,0.418,0.428,0.438,0.448,0.451,0.455,0.467,0.466,0.468,0.452,0.431,0.405,0.382,0.366,0.348,0.332,0.316,0.303,0.290,0.277,0.265,0.256,0.245,0.236,0.225,0.213,0.203,0.192,0.183,0.173,0.166,0.155,0.146,0.139,0.133,0.125,0.117,0.109,0.102,0.094,0.090,0.080,0.075,0.067,0.059,0.052,0.045,0.038,0.033,0.027,0.021,0.017,0.011,0.005,0.001,-0.006,-0.010,-0.015,-0.021,-0.029,-0.035,-0.038,-0.043,-0.047,-0.052,-0.057,-0.061,-0.065,-0.070,-0.075,-0.080,-0.086,-0.090,-0.095,-0.098,-0.102,-0.109,-0.113,-0.118,-0.123,-0.127,-0.133,-0.138,-0.145,-0.148,-0.154,-0.158,-0.163,-0.167,-0.173,-0.178,-0.184,-0.189,-0.194,-0.198,-0.204,-0.207
31,0.241,0.245,0.238,0.231,0.234,0.220,0.208,0.196,0.186,0.171,0.161,0.148,0.133,0.119,0.104,0.087,0.071,0.054,0.037,0.021,0.007,-0.007,-0.018,-0.030,-0.039,-0.050,-0.060,-0.067,-0.078,-0.086,-0.093,-0.103,-0.109,-0.114,-0.120,-0.124,-0.130,-0.135,-0.138,-0.144,-0.149,-0.153,-0.157,-0.161,-0.168,-0.171,-0.173,-0.178,-0.180,-0.186,-0.189,-0.191,-0.195,-0.198,-0.203,-0.207,-0.211,-0.212,-0.214,-0.217,-0.218,-0.220,-0.223,-0.225,-0.225,-0.228,-0.229,-0.233,-0.235,-0.238,-0.239,-0.241,-0.243,-0.244,-0.246,-0.250,-0.250,-0.252,-0.254,-0.256,-0.257,-0.258,-0.258,-0.260,-0.262,-0.263,-0.265,-0.265,-0.268,-0.271,-0.271,-0.274,-0.275,-0.274,-0.278,-0.281,-0.282,-0.282,-0.282,-0.285,-0.289
32,0.220,0.216,0.215,0.216,0.220,0.222,0.223,0.223,0.226,0.230,0.232,0.236,0.238,0.241,0.243,0.248,0.253,0.254,0.260,0.264,0.267,0.271,0.278,0.282,0.284,0.289,0.292,0.295,0.303,0.305,0.308,0.313,0.314,0.317,0.320,0.323,0.326,0.328,0.331,0.334,0.335,0.338,0.338,0.329,0.333,0.335,0.338,0.340,0.342,0.342,0.345,0.345,0.347,0.348,0.351,0.352,0.354,0.353,0.357,0.355,0.355,0.356,0.358,0.358,0.360,0.359,0.359,0.362,0.360,0.361,0.363,0.363,0.365,0.365,0.365,0.365,0.366,0.363,0.367,0.367,0.368,0.369,0.369,0.368,0.367,0.371,0.368,0.370,0.370,0.370,0.371,0.370,0.373,0.373,0.372,0.372,0.375,0.373,0.370,0.372,0.372
33,-0.258,-0.262,-0.266,-0.267,-0.258,-0.258,-0.259,-0.259,-0.259,-0.259,-0.259,-0.259,-0.259,-0.259,-0.259,-0.259,-0.259,-0.259,-0.259,-0.259,-0.259,-0.259,-0.259,-0.259,-0.259,-0.259,-0.259,-0.259,-0.259,-0.259,-0.259,-0.259,-0.259,-0.259,-0.259,-0.259,-0.259,-0.259,-0.259,-0.259,-0.259,-0.259,-0.259,-0.263,-0.263,-0.263,-0.263,-0.263,-0.263,-0.263,-0.263,-0.263,-0.263,-0.269,-0.269,-0.269,-0.269,-0.269,-0.269,-0.269,-0.269,-0.269,-0.269,-0.269,-0.269,-0.269,-0.275,-0.275,-0.275,-0.275,-0.275,-0.275,-0.275,-0.275,-0.275,-0.275,-0.275,-0.275,-0.275,-0.278,-0.278,-0.278,-0.278,-0.278,-0.278,-0.278,-0.278,-0.278,-0.278,-0.278,-0.278,-0.278,-0.276,-0.276,-0.276,-0.276,-0.276,-0.276,-0.276,-0.276,-0.276
34,0.182,0.173,0.169,0.167,0.159,0.162,0.167,0.174,0.181,0.188,0.198,0.206,0.214,0.221,0.232,0.242,0.252,0.260,0.270,0.279,0.288,0.298,0.307,0.315,0.321,0.330,0.338,0.345,0.352,0.358,0.363,0.372,0.376,0.382,0.387,0.392,0.397,0.403,0.405,0.409,0.412,0.419,0.421,0.426,0.431,0.435,0.438,0.441,0.446,0.450,0.451,0.455,0.459,0.463,0.466,0.467,0.470,0.473,0.475,0.477,0.478,0.480,0.482,0.484,0.486,0.488,0.490,0.492,0.494,0.496,0.498,0.499,0.501,0.505,0.505,0.507,0.508,0.509,0.511,0.512,0.514,0.516,0.516,0.518,0.519,0.520,0.521,0.524,0.522,0.526,0.526,0.528,0.557,0.557,0.558,0.560,0.561,0.562,0.561,0.563,0.565
35,0.338,0.332,0.327,0.321,0.316,0.315,0.312,0.314,0.314,0.313,0.316,0.318,0.319,0.320,0.322,0.323,0.326,0.329,0.332,0.335,0.337,0.340,0.342,0.341,0.346,0.347,0.352,0.352,0.355,0.356,0.357,0.361,0.364,0.368,0.370,0.372,0.371,0.375,0.376,0.378,0.383,0.384,0.387,0.389,0.389,0.393,0.395,0.395,0.398,0.400,0.401,0.404,0.405,0.407,0.408,0.412,0.413,0.416,0.417,0.421,0.423,0.424,0.425,0.427,0.428,0.429,0.430,0.431,0.437,0.436,0.437,0.441,0.440,0.443,0.443,0.446,0.448,0.450,0.451,0.453,0.454,0.457,0.459,0.460,0.462,0.464,0.465,0.468,0.469,0.471,0.471,0.474,0.475,0.475,0.478,0.480,0.480,0.482,0.484,0.485,0.487
36,-0.219,-0.225,-0.231,-0.234,-0.239,-0.242,-0.243,-0.242,-0.242,-0.242,-0.243,-0.242,-0.244,-0.245,-0.242,-0.243,-0.243,-0.241,-0.241,-0.243,-0.239,-0.240,-0.240,-0.239,-0.238,-0.237,-0.235,-0.233,-0.235,-0.233,-0.231,-0.229,-0.227,-0.226,-0.225,-0.225,-0.222,-0.220,-0.219,-0.218,-0.216,-0.214,-0.213,-0.231,-0.230,-0.229,-0.229,-0.228,-0.225,-0.225,-0.223,-0.221,-0.219,-0.226,-0.226,-0.225,-0.223,-0.222,-0.222,-0.217,-0.218,-0.216,-0.216,-0.214,-0.214,-0.211,-0.221,-0.222,-0.217,-0.216,-0.215,-0.214,-0.214,-0.212,-0.211,-0.207,-0.208,-0.205,-0.205,-0.215,-0.214,-0.212,-0.211,-0.210,-0.208,-0.208,-0.206,-0.206,-0.204,-0.201,-0.201,-0.199,-0.209,-0.209,-0.208,-0.207,-0.208,-0.205,-0.202,-0.202,-0.199
37,-0.111,-0.099,-0.089,-0.079,-0.069,-0.061,-0.050,-0.040,-0.031,-0.021,-0.012,-0.001,0.009,0.020,0.030,0.040,0.049,0.060,0.068,0.077,0.087,0.094,0.102,0.111,0.119,0.126,0.131,0.138,0.143,0.150,0.156,0.159,0.164,0.167,0.172,0.175,0.180,0.183,0.188,0.191,0.194,0.195,0.199,0.201,0.205,0.206,0.207,0.211,0.210,0.213,0.216,0.218,0.217,0.218,0.221,0.224,0.225,0.226,0.226,0.229,0.229,0.229,0.231,0.232,0.232,0.234,0.235,0.235,0.234,0.237,0.236,0.237,0.238,0.236,0.238,0.240,0.239,0.241,0.239,0.253,0.253,0.253,0.252,0.253,0.254,0.252,0.253,0.250,0.252,0.252,0.250,0.250,0.258,0.257,0.257,0.256,0.256,0.255,0.254,0.255,0.254
38,-0.170,-0.174,-0.178,-0.183,-0.182,-0.186,-0.189,-0.196,-0.200,-0.205,-0.208,-0.211,-0.215,-0.219,-0.223,-0.228,-0.231,-0.234,-0.238,-0.241,-0.245,-0.248,-0.252,-0.255,-0.257,-0.261,-0.265,-0.268,-0.271,-0.273,-0.276,-0.280,-0.282,-0.285,-0.287,-0.289,-0.291,-0.293,-0.296,-0.298,-0.301,-0.302,-0.306,-0.307,-0.309,-0.311,-0.313,-0.314,-0.316,-0.317,-0.318,-0.318,-0.318,-0.314,-0.313,-0.311,-0.310,-0.307,-0.303,-0.294,-0.268,-0.244,-0.230,-0.215,-0.223,-0.229,-0.236,-0.246,-0.246,-0.248,-0.246,-0.250,-0.269,-0.282,-0.285,-0.286,-0.300,-0.307,-0.320,-0.329,-0.336,-0.337,-0.343,-0.350,-0.354,-0.359,-0.368,-0.375,-0.381,-0.387,-0.390,-0.395,-0.399,-0.403,-0.414,-0.421,-0.427,-0.433,-0.443,-0.446,-0.450
39,-0.364,-0.360,-0.358,-0.355,-0.353,-0.347,-0.345,-0.337,-0.325,-0.331,-0.350,-0.365,-0.379,-0.394,-0.408,-0.421,-0.435,-0.449,-0.462,-0.476,-0.488,-0.500,-0.513,-0.523,-0.533,-0.545,-0.558,-0.566,-0.577,-0.585,-0.593,-0.605,-0.612,-0.620,-0.627,-0.635,-0.642,-0.650,-0.658,-0.665,-0.672,-0.677,-0.684,-0.690,-0.699,-0.705,-0.713,-0.718,-0.724,-0.729,-0.736,-0.741,-0.743,-0.747,-0.754,-0.765,-0.769,-0.771,-0.777,-0.785,-0.788,-0.790,-0.794,-0.797,-0.802,-0.805,-0.809,-0.815,-0.819,-0.823,-0.825,-0.829,-0.832,-0.835,-0.839,-0.843,-0.845,-0.845,-0.851,-0.853,-0.854,-0.858,-0.860,-0.861,-0.865,-0.869,-0.870,-0.872,-0.879,-0.880,-0.879,-0.883,-0.884,-0.887,-0.890,-0.892,-0.893,-0.897,-0.898,-0.901,-0.904
40,0.045,0.045,0.046,0.047,0.057,0.059,0.063,0.059,0.052,0.042,0.033,0.029,0.023,0.017,0.009,-0.003,-0.012,-0.021,-0.030,-0.037,-0.041,-0.048,-0.053,-0.058,-0.062,-0.069,-0.074,-0.077,-0.078,-0.082,-0.085,-0.087,-0.091,-0.092,-0.094,-0.100,-0.099,-0.099,-0.104,-0.106,-0.107,-0.108,-0.111,-0.113,-0.116,-0.119,-0.120,-0.124,-0.125,-0.127,-0.130,-0.131,-0.134,-0.136,-0.136,-0.138,-0.144,-0.145,-0.146,-0.151,-0.155,-0.156,-0.159,-0.162,-0.162,-0.163,-0.163,-0.170,-0.175,-0.175,-0.178,-0.180,-0.185,-0.187,-0.190,-0.194,-0.195,-0.200,-0.203,-0.207,-0.209,-0.213,-0.214,-0.219,-0.219,-0.223,-0.228,-0.229,-0.232,-0.236,-0.239,-0.242,-0.245,-0.248,-0.251,-0.254,-0.257,-0.259,-0.262,-0.265,-0.269
41,0.214,0.218,0.219,0.218,0.220,0.221,0.224,0.224,0.224,0.225,0.224,0.224,0.225,0.223,0.224,0.227,0.226,0.226,0.227,0.227,0.230,0.232,0.232,0.236,0.239,0.238,0.239,0.242,0.241,0.245,0.244,0.247,0.247,0.253,0.255,0.255,0.256,0.258,0.258,0.259,0.262,0.265,0.265,0.260,0.260,0.261,0.262,0.262,0.263,0.266,0.264,0.268,0.272,0.277,0.280,0.281,0.282,0.284,0.279,0.278,0.280,0.282,0.284,0.286,0.288,0.289,0.293,0.295,0.295,0.297,0.298,0.302,0.299,0.300,0.303,0.304,0.306,0.307,0.309,0.306,0.306,0.306,0.306,0.307,0.305,0.306,0.308,0.308,0.311,0.312,0.314,0.315,0.316,0.318,0.315,0.316,0.317,0.319,0.319,0.320,0.318
42,-0.245,-0.237,-0.235,-0.234,-0.232,-0.229,-0.226,-0.225,-0.224,-0.225,-0.221,-0.219,-0.216,-0.214,-0.213,-0.210,-0.206,-0.202,-0.201,-0.196,-0.197,-0.193,-0.189,-0.188,-0.185,-0.183,-0.180,-0.181,-0.179,-0.177,-0.176,-0.174,-0.174,-0.174,-0.172,-0.171,-0.171,-0.170,-0.173,-0.171,-0.172,-0.172,-0.172,-0.177,-0.177,-0.177,-0.178,-0.179,-0.178,-0.177,-0.180,-0.180,-0.179,-0.175,-0.176,-0.178,-0.178,-0.177,-0.177,-0.180,-0.180,-0.180,-0.180,-0.182,-0.182,-0.182,-0.182,-0.182,-0.182,-0.183,-0.183,-0.182,-0.184,-0.185,-0.187,-0.185,-0.186,-0.188,-0.188,-0.192,-0.191,-0.191,-0.192,-0.192,-0.193,-0.192,-0.194,-0.192,-0.195,-0.196,-0.195,-0.195,-0.188,-0.190,-0.189,-0.189,-0.188,-0.192,-0.193,-0.192,-0.193
43,0.370,0.361,0.354,0.346,0.349,0.343,0.337,0.333,0.328,0.325,0.322,0.320,0.318,0.317,0.315,0.313,0.312,0.311,0.310,0.308,0.307,0.305,0.304,0.303,0.302,0.301,0.300,0.299,0.297,0.296,0.295,0.294,0.293,0.292,0.291,0.290,0.289,0.289,0.288,0.287,0.287,0.286,0.285,0.284,0.284,0.283,0.283,0.283,0.282,0.282,0.281,0.281,0.281,0.281,0.281,0.281,0.281,0.281,0.282,0.282,0.282,0.283,0.284,0.284,0.285,0.285,0.286,0.287,0.288,0.289,0.290,0.291,0.293,0.294,0.296,0.297,0.299,0.301,0.303,0.297,0.300,0.302,0.304,0.306,0.309,0.313,0.314,0.317,0.321,0.324,0.329,0.334,0.305,0.311,0.316,0.323,0.328,0.330,0.332,0.342,0.358
44,-0.164,-0.170,-0.173,-0.171,-0.166,-0.164,-0.161,-0.158,-0.155,-0.152,-0.150,-0.149,-0.148,-0.151,-0.153,-0.155,-0.158,-0.161,-0.167,-0.171,-0.171,-0.180,-0.181,-0.184,-0.189,-0.191,-0.195,-0.195,-0.196,-0.200,-0.201,-0.201,-0.198,-0.196,-0.196,-0.196,-0.193,-0.186,-0.183,-0.183,-0.181,-0.181,-0.176,-0.185,-0.177,-0.170,-0.161,-0.156,-0.152,-0.147,-0.141,-0.142,-0.139,-0.144,-0.139,-0.133,-0.129,-0.134,-0.131,-0.129,-0.126,-0.128,-0.128,-0.125,-0.128,-0.131,-0.132,-0.128,-0.128,-0.123,-0.127,-0.128,-0.127,-0.126,-0.128,-0.133,-0.127,-0.128,-0.131,-0.127,-0.123,-0.123,-0.123,-0.125,-0.126,-0.125,-0.124,-0.126,-0.124,-0.126,-0.128,-0.127,-0.123,-0.118,-0.117,-0.120,-0.123,-0.119,-0.122,-0.121,-0.123
45,-0.179,-0.186,-0.189,-0.194,-0.196,-0.198,-0.203,-0.206,-0.209,-0.209,-0.210,-0.211,-0.211,-0.211,-0.214,-0.215,-0.214,-0.217,-0.215,-0.215,-0.217,-0.218,-0.217,-0.220,-0.221,-0.223,-0.225,-0.227,-0.225,-0.227,-0.231,-0.232,-0.235,-0.237,-0.238,-0.238,-0.241,-0.244,-0.244,-0.247,-0.248,-0.252,-0.255,-0.259,-0.261,-0.261,-0.262,-0.265,-0.269,-0.270,-0.273,-0.275,-0.278,-0.280,-0.282,-0.283,-0.285,-0.287,-0.288,-0.293,-0.293,-0.296,-0.298,-0.300,-0.300,-0.305,-0.307,-0.307,-0.311,-0.314,-0.315,-0.315,-0.318,-0.319,-0.321,-0.325,-0.324,-0.329,-0.329,-0.332,-0.333,-0.336,-0.336,-0.338,-0.342,-0.341,-0.346,-0.345,-0.347,-0.350,-0.350,-0.353,-0.354,-0.355,-0.357,-0.358,-0.358,-0.360,-0.364,-0.366,-0.368
46,0.393,0.390,0.389,0.391,0.391,0.394,0.395,0.398,0.400,0.405,0.408,0.414,0.424,0.434,0.446,0.445,0.448,0.452,0.455,0.458,0.464,0.463,0.469,0.474,0.473,0.479,0.481,0.484,0.488,0.491,0.495,0.498,0.504,0.505,0.509,0.513,0.518,0.520,0.525,0.527,0.532,0.537,0.539,0.517,0.525,0.527,0.530,0.537,0.538,0.543,0.546,0.550,0.553,0.530,0.535,0.538,0.542,0.546,0.550,0.552,0.554,0.558,0.564,0.566,0.569,0.572,0.575,0.577,0.582,0.583,0.586,0.590,0.594,0.595,0.600,0.601,0.604,0.608,0.610,0.613,0.615,0.619,0.622,0.624,0.627,0.628,0.633,0.633,0.638,0.639,0.643,0.645,0.648,0.652,0.654,0.657,0.659,0.663,0.664,0.663,0.669
47,-0.041,-0.040,-0.042,-0.042,-0.043,-0.047,-0.050,-0.052,-0.053,-0.056,-0.062,-0.066,-0.073,-0.080,-0.086,-0.091,-0.096,-0.101,-0.105,-0.110,-0.115,-0.119,-0.123,-0.126,-0.130,-0.132,-0.136,-0.138,-0.141,-0.144,-0.146,-0.149,-0.149,-0.148,-0.151,-0.153,-0.153,-0.153,-0.152,-0.152,-0.153,-0.154,-0.152,-0.150,-0.151,-0.151,-0.150,-0.148,-0.147,-0.149,-0.146,-0.146,-0.144,-0.153,-0.153,-0.153,-0.151,-0.150,-0.149,-0.147,-0.147,-0.143,-0.141,-0.138,-0.138,-0.135,-0.163,-0.160,-0.155,-0.153,-0.151,-0.148,-0.145,-0.142,-0.140,-0.140,-0.139,-0.133,-0.133,-0.129,-0.128,-0.126,-0.123,-0.120,-0.117,-0.114,-0.112,-0.111,-0.109,-0.106,-0.103,-0.102,-0.123,-0.121,-0.114,-0.114,-0.111,-0.107,-0.107,-0.107,-0.102
48,0.339,0.328,0.322,0.315,0.309,0.302,0.293,0.283,0.276,0.266,0.257,0.248,0.240,0.230,0.221,0.212,0.206,0.195,0.190,0.181,0.175,0.167,0.160,0.157,0.151,0.145,0.142,0.137,0.132,0.128,0.125,0.120,0.120,0.114,0.109,0.110,0.105,0.103,0.101,0.098,0.096,0.092,0.091,0.088,0.083,0.086,0.083,0.081,0.080,0.077,0.077,0.075,0.072,0.070,0.069,0.065,0.066,0.065,0.064,0.064,0.061,0.062,0.060,0.058,0.057,0.056,0.055,0.053,0.056,0.054,0.052,0.052,0.050,0.052,0.048,0.046,0.048,0.044,0.043,0.057,0.059,0.055,0.054,0.054,0.052,0.051,0.051,0.049,0.048,0.048,0.045,0.046,0.052,0.053,0.052,0.050,0.050,0.050,0.048,0.045,0.044
49,0.063,0.059,0.059,0.056,0.055,0.057,0.058,0.055,0.054,0.054,0.054,0.058,0.057,0.056,0.056,0.059,0.057,0.051,0.044,0.042,0.039,0.040,0.036,0.035,0.031,0.030,0.030,0.027,0.023,0.022,0.023,0.022,0.025,0.027,0.025,0.026,0.025,0.029,0.033,0.036,0.038,0.040,0.044,0.022,0.019,0.025,0.029,0.031,0.037,0.036,0.040,0.045,0.048,0.028,0.031,0.034,0.038,0.042,0.047,0.051,0.053,0.057,0.058,0.065,0.067,0.072,0.048,0.049,0.053,0.054,0.058,0.062,0.065,0.072,0.074,0.075,0.079,0.083,0.088,0.092,0.091,0.093,0.100,0.101,0.105,0.108,0.113,0.117,0.119,0.121,0.125,0.130,0.134,0.136,0.140,0.143,0.144,0.148,0.152,0.154,0.157
50,-0.271,-0.266,-0.261,-0.254,-0.258,-0.249,-0.239,-0.230,-0.227,-0.219,-0.210,-0.204,-0.190,-0.179,-0.181,-0.188,-0.201,-0.205,-0.213,-0.217,-0.222,-0.223,-0.226,-0.229,-0.234,-0.234,-0.232,-0.231,-0.231,-0.231,-0.227,-0.225,-0.223,-0.219,-0.214,-0.217,-0.213,-0.209,-0.204,-0.201,-0.199,-0.195,-0.193,-0.184,-0.179,-0.179,-0.176,-0.173,-0.172,-0.169,-0.166,-0.162,-0.158,-0.161,-0.159,-0.152,-0.149,-0.144,-0.140,-0.140,-0.136,-0.130,-0.127,-0.124,-0.122,-0.116,-0.127,-0.123,-0.119,-0.116,-0.112,-0.108,-0.107,-0.103,-0.099,-0.096,-0.094,-0.088,-0.085,-0.095,-0.093,-0.089,-0.083,-0.083,-0.078,-0.074,-0.072,-0.070,-0.066,-0.063,-0.060,-0.057,-0.067,-0.065,-0.063,-0.061,-0.058,-0.056,-0.054,-0.051,-0.048
51,-0.202,-0.196,-0.203,-0.209,-0.216,-0.229,-0.239,-0.249,-0.259,-0.272,-0.281,-0.292,-0.304,-0.316,-0.328,-0.342,-0.354,-0.368,-0.381,-0.393,-0.404,-0.414,-0.422,-0.432,-0.438,-0.445,-0.453,-0.459,-0.468,-0.474,-0.481,-0.489,-0.493,-0.496,-0.501,-0.505,-0.509,-0.513,-0.514,-0.520,-0.524,-0.528,-0.531,-0.535,-0.541,-0.543,-0.544,-0.548,-0.548,-0.552,-0.553,-0.554,-0.557,-0.559,-0.562,-0.564,-0.568,-0.568,-0.568,-0.571,-0.572,-0.571,-0.574,-0.574,-0.574,-0.576,-0.577,-0.581,-0.581,-0.584,-0.585,-0.586,-0.586,-0.587,-0.588,-0.592,-0.591,-0.593,-0.595,-0.597,-0.598,-0.598,-0.598,-0.599,-0.602,-0.602,-0.604,-0.604,-0.606,-0.609,-0.609,-0.611,-0.612,-0.610,-0.614,-0.616,-0.616,-0.616,-0.615,-0.618,-0.622
52,-0.164,-0.167,-0.169,-0.167,-0.168,-0.166,-0.165,-0.165,-0.162,-0.158,-0.157,-0.153,-0.151,-0.148,-0.147,-0.142,-0.138,-0.137,-0.133,-0.129,-0.126,-0.124,-0.118,-0.116,-0.117,-0.114,-0.113,-0.111,-0.105,-0.105,-0.105,-0.102,-0.103,-0.102,-0.101,-0.099,-0.099,-0.099,-0.098,-0.098,-0.098,-0.097,-0.100,-0.102,-0.099,-0.100,-0.099,-0.099,-0.100,-0.101,-0.101,-0.103,-0.103,-0.107,-0.106,-0.106,-0.107,-0.109,-0.108,-0.111,-0.112,-0.114,-0.115,-0.117,-0.117,-0.120,-0.122,-0.122,-0.125,-0.127,-0.126,-0.127,-0.129,-0.130,-0.132,-0.134,-0.135,-0.140,-0.138,-0.141,-0.141,-0.144,-0.145,-0.147,-0.150,-0.149,-0.154,-0.154,-0.155,-0.156,-0.157,-0.160,-0.160,-0.162,-0.164,-0.166,-0.166,-0.169,-0.173,-0.174,-0.175
53,-0.136,-0.139,-0.140,-0.140,-0.141,-0.141,-0.141,-0.141,-0.141,-0.141,-0.141,-0.141,-0.141,-0.141,-0.141,-0.141,-0.141,-0.141,-0.141,-0.141,-0.141,-0.141,-0.141,-0.141,-0.141,-0.141,-0.141,-0.141,-0.141,-0.141,-0.141,-0.141,-0.141,-0.141,-0.141,-0.141,-0.141,-0.141,-0.141,-0.141,-0.141,-0.141,-0.141,-0.148,-0.148,-0.148,-0.148,-0.148,-0.148,-0.148,-0.148,-0.148,-0.148,-0.147,-0.147,-0.147,-0.147,-0.147,-0.147,-0.147,-0.147,-0.147,-0.147,-0.147,-0.147,-0.147,-0.146,-0.146,-0.146,-0.146,-0.146,-0.146,-0.146,-0.146,-0.146,-0.146,-0.146,-0.146,-0.146,-0.142,-0.142,-0.142,-0.142,-0.142,-0.142,-0.142,-0.142,-0.142,-0.142,-0.142,-0.142,-0.142,-0.138,-0.138,-0.138,-0.138,-0.138,-0.138,-0.138,-0.138,-0.138
54,0.358,0.349,0.343,0.339,0.334,0.334,0.338,0.342,0.347,0.353,0.360,0.365,0.371,0.376,0.385,0.392,0.401,0.406,0.412,0.419,0.427,0.434,0.441,0.447,0.450,0.457,0.462,0.467,0.472,0.476,0.480,0.487,0.489,0.493,0.496,0.500,0.503,0.507,0.507,0.509,0.511,0.517,0.517,0.521,0.525,0.526,0.528,0.529,0.533,0.535,0.535,0.537,0.540,0.542,0.545,0.544,0.546,0.547,0.549,0.549,0.549,0.550,0.552,0.553,0.554,0.555,0.556,0.558,0.558,0.559,0.561,0.561,0.561,0.564,0.563,0.564,0.564,0.565,0.567,0.568,0.569,0.570,0.570,0.571,0.571,0.572,0.572,0.574,0.572,0.575,0.575,0.576,0.576,0.575,0.576,0.577,0.578,0.578,0.578,0.578,0.580
55,0.194,0.187,0.180,0.172,0.165,0.161,0.155,0.154,0.150,0.146,0.146,0.145,0.142,0.140,0.138,0.135,0.135,0.134,0.134,0.133,0.131,0.130,0.128,0.124,0.125,0.122,0.123,0.120,0.119,0.116,0.113,0.113,0.113,0.111,0.110,0.109,0.105,0.104,0.102,0.100,0.100,0.097,0.097,0.101,0.098,0.099,0.097,0.092,0.092,0.090,0.087,0.087,0.084,0.085,0.083,0.082,0.079,0.078,0.076,0.076,0.074,0.072,0.069,0.066,0.065,0.062,0.065,0.062,0.065,0.061,0.059,0.059,0.055,0.055,0.051,0.051,0.051,0.048,0.046,0.049,0.047,0.046,0.045,0.044,0.041,0.040,0.038,0.038,0.036,0.035,0.033,0.032,0.034,0.031,0.031,0.031,0.027,0.027,0.027,0.025,0.024
56,0.378,0.372,0.365,0.362,0.356,0.353,0.352,0.354,0.355,0.354,0.354,0.356,0.354,0.353,0.356,0.356,0.357,0.358,0.360,0.359,0.363,0.363,0.363,0.364,0.365,0.367,0.369,0.370,0.369,0.370,0.372,0.373,0.376,0.376,0.377,0.376,0.378,0.379,0.379,0.380,0.381,0.381,0.382,0.388,0.388,0.388,0.388,0.387,0.390,0.389,0.391,0.390,0.390,0.399,0.399,0.398,0.399,0.399,0.397,0.401,0.399,0.400,0.399,0.399,0.399,0.400,0.414,0.412,0.415,0.415,0.414,0.413,0.413,0.414,0.414,0.416,0.414,0.416,0.414,0.415,0.414,0.415,0.414,0.415,0.415,0.414,0.415,0.414,0.414,0.415,0.414,0.415,0.415,0.413,0.414,0.413,0.412,0.413,0.415,0.415,0.416
57,-0.151,-0.140,-0.131,-0.122,-0.113,-0.106,-0.097,-0.088,-0.080,-0.072,-0.064,-0.054,-0.046,-0.036,-0.028,-0.019,-0.012,-0.002,0.005,0.011,0.019,0.025,0.031,0.038,0.045,0.050,0.054,0.060,0.063,0.069,0.073,0.076,0.080,0.081,0.084,0.087,0.091,0.093,0.096,0.098,0.100,0.100,0.103,0.104,0.107,0.107,0.107,0.110,0.109,0.110,0.112,0.112,0.111,0.117,0.119,0.121,0.121,0.121,0.120,0.122,0.121,0.120,0.121,0.121,0.120,0.121,0.137,0.136,0.135,0.137,0.135,0.134,0.136,0.132,0.133,0.134,0.132,0.132,0.129,0.145,0.145,0.144,0.141,0.141,0.141,0.138,0.138,0.135,0.136,0.135,0.132,0.131,0.140,0.139,0.138,0.136,0.135,0.133,0.132,0.131,0.130
58,-0.359,-0.362,-0.362,-0.365,-0.361,-0.362,-0.363,-0.367,-0.366,-0.367,-0.367,-0.369,-0.370,-0.369,-0.370,-0.371,-0.372,-0.371,-0.369,-0.371,-0.370,-0.368,-0.368,-0.368,-0.366,-0.366,-0.364,-0.362,-0.360,-0.359,-0.359,-0.359,-0.355,-0.353,-0.350,-0.347,-0.345,-0.344,-0.340,-0.336,-0.335,-0.333,-0.330,-0.328,-0.325,-0.319,-0.314,-0.312,-0.310,-0.304,-0.301,-0.297,-0.297,-0.294,-0.294,-0.296,-0.297,-0.297,-0.300,-0.299,-0.293,-0.300,-0.308,-0.306,-0.327,-0.345,-0.365,-0.379,-0.390,-0.400,-0.405,-0.415,-0.430,-0.441,-0.445,-0.451,-0.461,-0.469,-0.477,-0.485,-0.492,-0.494,-0.500,-0.508,-0.515,-0.517,-0.525,-0.531,-0.537,-0.542,-0.549,-0.552,-0.558,-0.563,-0.574,-0.581,-0.584,-0.589,-0.598,-0.601,-0.608
59,-0.109,-0.105,-0.101,-0.092,-0.095,-0.084,-0.073,-0.060,-0.043,-0.046,-0.058,-0.070,-0.078,-0.088,-0.098,-0.105,-0.114,-0.123,-0.129,-0.137,-0.145,-0.152,-0.162,-0.165,-0.170,-0.175,-0.184,-0.188,-0.194,-0.197,-0.200,-0.208,-0.210,-0.211,-0.213,-0.216,-0.219,-0.222,-0.224,-0.225,-0.227,-0.227,-0.229,-0.230,-0.235,-0.237,-0.241,-0.240,-0.240,-0.241,-0.244,-0.244,-0.240,-0.239,-0.242,-0.249,-0.248,-0.246,-0.248,-0.252,-0.251,-0.248,-0.247,-0.246,-0.246,-0.245,-0.245,-0.245,-0.246,-0.246,-0.245,-0.244,-0.243,-0.243,-0.242,-0.242,-0.240,-0.237,-0.238,-0.244,-0.241,-0.240,-0.240,-0.237,-0.238,-0.237,-0.235,-0.233,-0.237,-0.235,-0.231,-0.230,-0.237,-0.237,-0.237,-0.236,-0.233,-0.233,-0.232,-0.231,-0.231
60,-0.300,-0.294,-0.289,-0.282,-0.282,-0.275,-0.262,-0.251,-0.244,-0.239,-0.236,-0.229,-0.222,-0.213,-0.206,-0.200,-0.193,-0.187,-0.180,-0.174,-0.165,-0.161,-0.155,-0.151,-0.145,-0.142,-0.135,-0.131,-0.123,-0.118,-0.114,-0.109,-0.106,-0.098,-0.097,-0.095,-0.090,-0.085,-0.084,-0.081,-0.077,-0.073,-0.072,-0.069,-0.067,-0.066,-0.063,-0.064,-0.061,-0.060,-0.060,-0.057,-0.056,-0.054,-0.051,-0.050,-0.053,-0.051,-0.049,-0.049,-0.050,-0.049,-0.050,-0.049,-0.047,-0.044,-0.042,-0.046,-0.048,-0.046,-0.046,-0.045,-0.047,-0.047,-0.048,-0.048,-0.048,-0.049,-0.050,-0.051,-0.050,-0.052,-0.051,-0.054,-0.051,-0.053,-0.056,-0.054,-0.054,-0.057,-0.059,-0.059,-0.060,-0.061,-0.063,-0.063,-0.064,-0.064,-0.065,-0.067,-0.067
61,-0.018,-0.013,-0.012,-0.010,-0.012,-0.010,-0.006,-0.004,-0.003,-0.000,-0.000,0.002,0.005,0.005,0.007,0.011,0.012,0.013,0.016,0.018,0.021,0.025,0.026,0.030,0.034,0.034,0.038,0.042,0.044,0.049,0.051,0.055,0.057,0.065,0.068,0.070,0.072,0.076,0.080,0.081,0.085,0.090,0.091,0.100,0.100,0.103,0.105,0.106,0.108,0.112,0.111,0.116,0.120,0.129,0.131,0.131,0.132,0.134,0.130,0.129,0.131,0.134,0.136,0.138,0.140,0.141,0.154,0.155,0.155,0.157,0.157,0.162,0.159,0.159,0.161,0.163,0.163,0.165,0.166,0.182,0.180,0.181,0.181,0.181,0.179,0.180,0.181,0.180,0.182,0.182,0.184,0.184,0.185,0.187,0.183,0.185,0.186,0.186,0.187,0.187,0.184
62,-0.182,-0.172,-0.168,-0.165,-0.167,-0.163,-0.158,-0.156,-0.155,-0.155,-0.151,-0.150,-0.147,-0.145,-0.144,-0.141,-0.137,-0.133,-0.132,-0.127,-0.127,-0.123,-0.119,-0.118,-0.115,-0.112,-0.110,-0.111,-0.108,-0.107,-0.106,-0.103,-0.103,-0.103,-0.102,-0.100,-0.101,-0.100,-0.103,-0.102,-0.102,-0.102,-0.103,-0.102,-0.102,-0.103,-0.104,-0.105,-0.105,-0.104,-0.107,-0.109,-0.108,-0.107,-0.109,-0.111,-0.112,-0.111,-0.111,-0.115,-0.116,-0.116,-0.117,-0.119,-0.120,-0.122,-0.122,-0.123,-0.123,-0.125,-0.126,-0.126,-0.128,-0.131,-0.134,-0.133,-0.135,-0.138,-0.139,-0.141,-0.142,-0.143,-0.144,-0.146,-0.148,-0.148,-0.151,-0.151,-0.155,-0.156,-0.157,-0.158,-0.160,-0.162,-0.163,-0.165,-0.165,-0.170,-0.172,-0.173,-0.175
63,0.357,0.347,0.339,0.328,0.319,0.312,0.304,0.298,0.292,0.287,0.283,0.279,0.276,0.274,0.270,0.268,0.265,0.263,0.260,0.257,0.254,0.251,0.249,0.247,0.245,0.243,0.240,0.239,0.237,0.235,0.234,0.233,0.232,0.231,0.229,0.228,0.227,0.226,0.226,0.225,0.224,0.223,0.222,0.220,0.219,0.218,0.218,0.218,0.216,0.216,0.215,0.215,0.215,0.211,0.211,0.211,0.210,0.210,0.210,0.210,0.210,0.211,0.211,0.211,0.211,0.211,0.206,0.207,0.208,0.209,0.209,0.210,0.211,0.212,0.214,0.215,0.217,0.218,0.219,0.213,0.215,0.217,0.219,0.221,0.223,0.226,0.228,0.230,0.234,0.237,0.242,0.247,0.253,0.259,0.264,0.271,0.277,0.280,0.283,0.289,0.301
64,-0.009,-0.017,-0.023,-0.023,-0.026,-0.025,-0.023,-0.018,-0.012,-0.005,0.003,0.010,0.020,0.028,0.033,0.040,0.047,0.055,0.063,0.072,0.084,0.087,0.098,0.105,0.111,0.119,0.127,0.135,0.141,0.148,0.155,0.163,0.172,0.182,0.187,0.193,0.201,0.210,0.216,0.221,0.227,0.231,0.238,0.243,0.253,0.261,0.271,0.277,0.284,0.291,0.299,0.302,0.310,0.315,0.322,0.333,0.341,0.343,0.350,0.356,0.363,0.367,0.372,0.379,0.381,0.383,0.382,0.389,0.393,0.402,0.403,0.406,0.411,0.416,0.419,0.418,0.427,0.430,0.431,0.429,0.436,0.440,0.443,0.446,0.449,0.452,0.456,0.457,0.463,0.464,0.466,0.469,0.467,0.475,0.479,0.479,0.480,0.486,0.487,0.490,0.492
65,0.285,0.282,0.282,0.281,0.277,0.278,0.276,0.274,0.273,0.274,0.273,0.274,0.275,0.276,0.274,0.274,0.276,0.274,0.277,0.279,0.278,0.278,0.281,0.280,0.281,0.280,0.280,0.280,0.284,0.283,0.281,0.281,0.281,0.281,0.281,0.284,0.282,0.281,0.283,0.282,0.282,0.281,0.280,0.289,0.289,0.290,0.291,0.290,0.288,0.287,0.286,0.285,0.284,0.294,0.293,0.294,0.293,0.292,0.293,0.290,0.291,0.289,0.287,0.287,0.288,0.284,0.298,0.298,0.297,0.294,0.294,0.294,0.294,0.293,0.292,0.291,0.292,0.288,0.289,0.303,0.303,0.302,0.303,0.301,0.299,0.301,0.297,0.299,0.298,0.296,0.296,0.295,0.306,0.306,0.305,0.304,0.306,0.304,0.301,0.300,0.299
66,-0.375,-0.379,-0.382,-0.384,-0.367,-0.368,-0.373,-0.376,-0.380,-0.381,-0.383,-0.384,-0.380,-0.377,-0.371,-0.380,-0.383,-0.385,-0.387,-0.391,-0.391,-0.399,-0.398,-0.399,-0.406,-0.405,-0.409,-0.411,-0.411,-0.414,-0.415,-0.417,-0.416,-0.419,-0.419,-0.421,-0.420,-0.423,-0.423,-0.425,-0.423,-0.424,-0.427,-0.416,-0.411,-0.414,-0.414,-0.411,-0.414,-0.413,-0.413,-0.412,-0.413,-0.414,-0.413,-0.413,-0.412,-0.411,-0.410,-0.411,-0.412,-0.410,-0.407,-0.409,-0.408,-0.406,-0.409,-0.410,-0.407,-0.408,-0.408,-0.405,-0.404,-0.404,-0.401,-0.402,-0.401,-0.398,-0.398,-0.400,-0.400,-0.398,-0.397,-0.396,-0.395,-0.395,-0.391,-0.393,-0.389,-0.389,-0.387,-0.386,-0.386,-0.383,-0.382,-0.381,-0.380,-0.378,-0.377,-0.379,-0.374
67,0.382,0.382,0.379,0.378,0.376,0.372,0.371,0.370,0.370,0.370,0.366,0.366,0.363,0.361,0.359,0.359,0.359,0.358,0.360,0.359,0.359,0.360,0.359,0.361,0.360,0.363,0.363,0.364,0.365,0.367,0.368,0.368,0.371,0.373,0.374,0.374,0.377,0.380,0.383,0.385,0.385,0.387,0.391,0.388,0.388,0.390,0.393,0.396,0.399,0.399,0.403,0.405,0.407,0.399,0.401,0.402,0.405,0.407,0.409,0.412,0.413,0.416,0.419,0.422,0.423,0.426,0.414,0.417,0.422,0.426,0.428,0.432,0.435,0.437,0.440,0.440,0.441,0.448,0.448,0.453,0.454,0.456,0.459,0.462,0.465,0.468,0.470,0.471,0.474,0.477,0.479,0.481,0.483,0.485,0.491,0.491,0.494,0.498,0.498,0.499,0.504
68,-0.247,-0.252,-0.250,-0.248,-0.258,-0.254,-0.253,-0.252,-0.248,-0.247,-0.244,-0.243,-0.239,-0.238,-0.235,-0.234,-0.230,-0.230,-0.225,-0.224,-0.221,-0.220,-0.219,-0.214,-0.214,-0.212,-0.208,-0.207,-0.205,-0.203,-0.201,-0.200,-0.195,-0.196,-0.196,-0.191,-0.190,-0.188,-0.186,-0.185,-0.183,-0.182,-0.180,-0.184,-0.185,-0.178,-0.177,-0.175,-0.174,-0.173,-0.170,-0.168,-0.169,-0.161,-0.159,-0.160,-0.155,-0.153,-0.152,-0.151,-0.150,-0.147,-0.147,-0.145,-0.144,-0.142,-0.127,-0.126,-0.120,-0.120,-0.120,-0.118,-0.117,-0.113,-0.114,-0.113,-0.110,-0.111,-0.110,-0.095,-0.091,-0.092,-0.092,-0.090,-0.089,-0.088,-0.085,-0.085,-0.085,-0.083,-0.084,-0.081,-0.067,-0.064,-0.064,-0.063,-0.061,-0.059,-0.059,-0.059,-0.058
69,-0.246,-0.251,-0.250,-0.251,-0.258,-0.257,-0.256,-0.256,-0.257,-0.259,-0.257,-0.255,-0.247,-0.241,-0.229,-0.213,-0.199,-0.192,-0.184,-0.174,-0.162,-0.148,-0.141,-0.132,-0.126,-0.118,-0.107,-0.104,-0.099,-0.092,-0.086,-0.081,-0.074,-0.069,-0.066,-0.062,-0.059,-0.052,-0.046,-0.041,-0.038,-0.033,-0.028,-0.023,-0.025,-0.018,-0.013,-0.010,-0.005,-0.004,0.000,0.005,0.008,0.012,0.015,0.018,0.022,0.026,0.030,0.034,0.036,0.039,0.040,0.045,0.048,0.052,0.054,0.055,0.058,0.059,0.062,0.065,0.068,0.074,0.075,0.075,0.078,0.082,0.086,0.082,0.081,0.081,0.085,0.086,0.089,0.090,0.094,0.096,0.098,0.099,0.101,0.104,0.100,0.101,0.103,0.104,0.103,0.107,0.109,0.110,0.111
70,-0.264,-0.257,-0.247,-0.237,-0.240,-0.230,-0.217,-0.205,-0.195,-0.182,-0.170,-0.150,-0.124,-0.094,-0.071,-0.048,-0.032,-0.013,0.001,0.014,0.026,0.038,0.046,0.054,0.061,0.071,0.082,0.088,0.095,0.104,0.113,0.118,0.124,0.133,0.139,0.142,0.147,0.155,0.161,0.165,0.170,0.176,0.181,0.187,0.192,0.194,0.199,0.202,0.205,0.209,0.213,0.217,0.222,0.226,0.230,0.236,0.239,0.244,0.249,0.252,0.255,0.260,0.264,0.266,0.269,0.274,0.278,0.281,0.283,0.286,0.290,0.295,0.295,0.298,0.302,0.304,0.306,0.312,0.314,0.319,0.321,0.323,0.327,0.328,0.333,0.334,0.337,0.338,0.344,0.345,0.348,0.349,0.351,0.354,0.355,0.356,0.358,0.361,0.362,0.365,0.368
71,-0.036,-0.024,-0.016,-0.010,-0.005,-0.008,-0.011,-0.013,-0.014,-0.017,-0.017,-0.019,-0.020,-0.020,-0.020,-0.021,-0.022,-0.023,-0.024,-0.026,-0.029,-0.029,-0.030,-0.033,-0.032,-0.033,-0.035,-0.036,-0.038,-0.039,-0.043,-0.047,-0.047,-0.047,-0.049,-0.050,-0.052,-0.053,-0.052,-0.056,-0.059,-0.060,-0.061,-0.062,-0.068,-0.068,-0.068,-0.070,-0.070,-0.073,-0.074,-0.073,-0.077,-0.078,-0.081,-0.083,-0.086,-0.085,-0.086,-0.088,-0.089,-0.089,-0.092,-0.094,-0.094,-0.095,-0.095,-0.099,-0.100,-0.103,-0.105,-0.106,-0.108,-0.109,-0.111,-0.114,-0.115,-0.117,-0.119,-0.121,-0.121,-0.121,-0.123,-0.125,-0.128,-0.128,-0.129,-0.129,-0.131,-0.134,-0.135,-0.137,-0.138,-0.137,-0.140,-0.142,-0.143,-0.143,-0.142,-0.145,-0.149
72,0.319,0.313,0.308,0.306,0.302,0.300,0.298,0.295,0.295,0.296,0.294,0.296,0.295,0.295,0.295,0.296,0.299,0.298,0.300,0.302,0.303,0.304,0.308,0.309,0.308,0.310,0.309,0.310,0.315,0.314,0.313,0.316,0.314,0.314,0.314,0.316,0.315,0.314,0.314,0.314,0.313,0.313,0.310,0.313,0.315,0.313,0.313,0.312,0.311,0.309,0.308,0.305,0.305,0.315,0.315,0.314,0.313,0.310,0.310,0.308,0.306,0.303,0.302,0.300,0.299,0.296,0.315,0.314,0.311,0.308,0.308,0.306,0.305,0.303,0.301,0.298,0.298,0.292,0.293,0.297,0.297,0.293,0.293,0.290,0.287,0.288,0.282,0.282,0.280,0.279,0.277,0.274,0.305,0.303,0.301,0.299,0.298,0.295,0.290,0.289,0.287
73,-0.411,-0.413,-0.414,-0.414,-0.415,-0.415,-0.415,-0.415,-0.415,-0.415,-0.415,-0.415,-0.415,-0.415,-0.415,-0.415,-0.415,-0.415,-0.415,-0.415,-0.415,-0.415,-0.415,-0.415,-0.415,-0.415,-0.415,-0.415,-0.415,-0.415,-0.415,-0.415,-0.415,-0.415,-0.415,-0.415,-0.415,-0.415,-0.415,-0.415,-0.415,-0.415,-0.415,-0.420,-0.420,-0.420,-0.420,-0.420,-0.420,-0.420,-0.420,-0.420,-0.420,-0.421,-0.421,-0.421,-0.421,-0.421,-0.421,-0.421,-0.421,-0.421,-0.421,-0.421,-0.421,-0.421,-0.425,-0.425,-0.425,-0.425,-0.425,-0.425,-0.425,-0.425,-0.425,-0.425,-0.425,-0.425,-0.425,-0.427,-0.427,-0.427,-0.427,-0.427,-0.427,-0.427,-0.427,-0.427,-0.427,-0.427,-0.427,-0.427,-0.430,-0.430,-0.430,-0.430,-0.430,-0.430,-0.430,-0.430,-0.430
74,0.141,0.131,0.124,0.119,0.113,0.111,0.112,0.112,0.114,0.115,0.118,0.119,0.121,0.120,0.124,0.127,0.130,0.130,0.132,0.133,0.136,0.138,0.141,0.142,0.142,0.143,0.145,0.146,0.146,0.146,0.147,0.151,0.148,0.149,0.149,0.149,0.149,0.149,0.146,0.145,0.144,0.146,0.144,0.145,0.145,0.144,0.143,0.141,0.142,0.142,0.140,0.139,0.140,0.140,0.140,0.136,0.136,0.135,0.134,0.132,0.131,0.130,0.129,0.128,0.127,0.125,0.124,0.123,0.122,0.121,0.120,0.118,0.117,0.117,0.115,0.113,0.112,0.111,0.111,0.110,0.109,0.108,0.106,0.105,0.104,0.103,0.101,0.101,0.098,0.099,0.098,0.097,0.096,0.093,0.092,0.092,0.090,0.090,0.087,0.086,0.086
75,0.360,0.357,0.354,0.350,0.347,0.346,0.344,0.345,0.344,0.343,0.347,0.347,0.347,0.347,0.348,0.349,0.350,0.352,0.354,0.355,0.355,0.356,0.356,0.353,0.356,0.355,0.357,0.355,0.356,0.354,0.352,0.353,0.355,0.354,0.354,0.355,0.352,0.352,0.351,0.351,0.352,0.350,0.351,0.336,0.334,0.336,0.334,0.331,0.331,0.330,0.329,0.329,0.326,0.326,0.325,0.325,0.323,0.323,0.320,0.320,0.319,0.317,0.315,0.313,0.311,0.309,0.312,0.310,0.313,0.309,0.307,0.306,0.303,0.303,0.299,0.300,0.299,0.297,0.295,0.302,0.300,0.299,0.299,0.296,0.294,0.293,0.291,0.291,0.288,0.287,0.284,0.283,0.288,0.286,0.286,0.285,0.282,0.281,0.281,0.278,0.277
76,0.192,0.185,0.177,0.172,0.165,0.160,0.157,0.157,0.155,0.153,0.152,0.150,0.146,0.144,0.145,0.142,0.140,0.140,0.139,0.136,0.137,0.135,0.133,0.132,0.131,0.131,0.130,0.129,0.126,0.125,0.124,0.123,0.123,0.121,0.120,0.117,0.117,0.115,0.113,0.112,0.110,0.109,0.108,0.101,0.099,0.098,0.096,0.093,0.095,0.092,0.093,0.091,0.089,0.085,0.084,0.082,0.082,0.080,0.077,0.078,0.076,0.075,0.074,0.073,0.071,0.071,0.065,0.062,0.065,0.064,0.061,0.059,0.058,0.058,0.057,0.057,0.055,0.056,0.054,0.049,0.047,0.047,0.045,0.045,0.044,0.043,0.043,0.041,0.039,0.040,0.038,0.038,0.034,0.032,0.031,0.030,0.028,0.028,0.030,0.028,0.028
77,-0.036,-0.026,-0.020,-0.015,-0.017,-0.013,-0.009,-0.005,-0.002,0.000,0.003,0.008,0.010,0.014,0.016,0.018,0.020,0.025,0.026,0.028,0.031,0.031,0.033,0.037,0.039,0.041,0.040,0.043,0.043,0.045,0.047,0.046,0.047,0.045,0.046,0.046,0.048,0.048,0.049,0.050,0.050,0.047,0.048,0.046,0.048,0.047,0.046,0.048,0.045,0.046,0.048,0.047,0.045,0.044,0.045,0.047,0.047,0.046,0.044,0.046,0.045,0.045,0.045,0.046,0.045,0.046,0.046,0.046,0.044,0.047,0.045,0.045,0.047,0.044,0.045,0.047,0.046,0.046,0.045,0.045,0.044,0.045,0.044,0.045,0.045,0.044,0.045,0.042,0.044,0.044,0.042,0.043,0.042,0.042,0.042,0.042,0.042,0.041,0.041,0.041,0.042
78,0.011,0.008,0.004,0.000,-0.004,-0.007,-0.009,-0.016,-0.019,-0.023,-0.026,-0.028,-0.031,-0.034,-0.038,-0.041,-0.044,-0.046,-0.050,-0.053,-0.055,-0.059,-0.061,-0.063,-0.065,-0.069,-0.072,-0.074,-0.076,-0.079,-0.080,-0.083,-0.085,-0.087,-0.088,-0.091,-0.091,-0.094,-0.096,-0.097,-0.099,-0.100,-0.102,-0.103,-0.104,-0.105,-0.106,-0.107,-0.108,-0.108,-0.109,-0.109,-0.109,-0.109,-0.109,-0.108,-0.108,-0.107,-0.105,-0.103,-0.100,-0.100,-0.105,-0.113,-0.127,-0.149,-0.144,-0.160,-0.168,-0.181,-0.190,-0.197,-0.211,-0.222,-0.226,-0.234,-0.246,-0.252,-0.261,-0.268,-0.276,-0.284,-0.292,-0.304,-0.312,-0.316,-0.325,-0.336,-0.345,-0.352,-0.360,-0.366,-0.373,-0.381,-0.393,-0.400,-0.405,-0.411,-0.418,-0.424,-0.434
79,0.112,0.114,0.116,0.125,0.137,0.148,0.163,0.182,0.205,0.211,0.206,0.204,0.203,0.198,0.194,0.189,0.186,0.182,0.180,0.177,0.173,0.171,0.165,0.165,0.165,0.163,0.158,0.157,0.155,0.156,0.155,0.150,0.151,0.151,0.152,0.150,0.150,0.149,0.149,0.149,0.148,0.150,0.150,0.165,0.160,0.160,0.158,0.160,0.160,0.161,0.159,0.160,0.163,0.168,0.165,0.159,0.161,0.164,0.163,0.159,0.160,0.162,0.164,0.164,0.164,0.165,0.167,0.166,0.166,0.166,0.167,0.167,0.168,0.167,0.167,0.168,0.168,0.171,0.169,0.170,0.172,0.173,0.173,0.175,0.173,0.173,0.175,0.176,0.172,0.173,0.176,0.177,0.174,0.173,0.173,0.173,0.175,0.173,0.175,0.175,0.174
80,0.215,0.214,0.217,0.219,0.220,0.221,0.224,0.221,0.218,0.210,0.203,0.196,0.188,0.179,0.174,0.164,0.156,0.149,0.142,0.137,0.135,0.130,0.125,0.120,0.119,0.113,0.112,0.111,0.113,0.112,0.110,0.110,0.108,0.110,0.109,0.109,0.112,0.113,0.112,0.113,0.116,0.118,0.118,0.119,0.119,0.120,0.123,0.122,0.127,0.130,0.131,0.134,0.135,0.137,0.140,0.142,0.141,0.145,0.147,0.149,0.148,0.151,0.152,0.154,0.157,0.162,0.149,0.146,0.145,0.149,0.150,0.152,0.150,0.153,0.152,0.152,0.156,0.155,0.155,0.150,0.152,0.153,0.156,0.154,0.157,0.158,0.157,0.160,0.160,0.160,0.161,0.162,0.153,0.154,0.154,0.155,0.157,0.158,0.158,0.157,0.158
81,0.293,0.295,0.297,0.296,0.297,0.297,0.300,0.300,0.301,0.303,0.304,0.305,0.308,0.306,0.308,0.312,0.312,0.313,0.315,0.316,0.319,0.321,0.322,0.325,0.329,0.328,0.330,0.333,0.333,0.337,0.337,0.339,0.341,0.347,0.347,0.347,0.348,0.350,0.350,0.350,0.354,0.356,0.356,0.364,0.364,0.364,0.366,0.366,0.367,0.370,0.369,0.373,0.376,0.377,0.379,0.381,0.382,0.385,0.380,0.380,0.380,0.383,0.386,0.386,0.387,0.389,0.386,0.388,0.387,0.388,0.389,0.392,0.389,0.391,0.392,0.392,0.394,0.395,0.397,0.395,0.395,0.396,0.396,0.398,0.395,0.396,0.397,0.396,0.398,0.398,0.400,0.400,0.402,0.403,0.401,0.401,0.402,0.403,0.404,0.404,0.402
82,0.388,0.395,0.397,0.398,0.400,0.403,0.407,0.409,0.411,0.412,0.418,0.420,0.425,0.429,0.431,0.436,0.441,0.446,0.449,0.455,0.456,0.462,0.467,0.469,0.472,0.476,0.479,0.480,0.483,0.485,0.487,0.490,0.492,0.493,0.495,0.498,0.499,0.501,0.499,0.502,0.502,0.503,0.504,0.517,0.518,0.520,0.520,0.521,0.522,0.524,0.522,0.523,0.525,0.530,0.530,0.529,0.529,0.531,0.532,0.529,0.530,0.530,0.531,0.530,0.530,0.530,0.522,0.522,0.523,0.522,0.523,0.524,0.523,0.521,0.520,0.521,0.521,0.519,0.519,0.510,0.510,0.509,0.509,0.510,0.508,0.509,0.507,0.509,0.506,0.505,0.506,0.505,0.495,0.494,0.495,0.494,0.495,0.492,0.491,0.491,0.490
83,0.334,0.326,0.319,0.311,0.304,0.298,0.292,0.289,0.285,0.282,0.279,0.277,0.274,0.271,0.269,0.266,0.264,0.262,0.260,0.257,0.254,0.252,0.250,0.248,0.246,0.244,0.242,0.240,0.238,0.236,0.234,0.232,0.230,0.228,0.227,0.225,0.224,0.222,0.221,0.220,0.218,0.217,0.215,0.220,0.219,0.218,0.217,0.216,0.214,0.213,0.213,0.212,0.211,0.211,0.211,0.210,0.210,0.209,0.209,0.209,0.209,0.209,0.209,0.209,0.210,0.210,0.206,0.207,0.208,0.209,0.210,0.211,0.212,0.213,0.215,0.216,0.218,0.220,0.221,0.213,0.216,0.218,0.220,0.222,0.225,0.229,0.231,0.233,0.238,0.241,0.246,0.250,0.253,0.259,0.264,0.270,0.275,0.279,0.281,0.293,0.312
84,0.025,0.023,0.019,0.019,0.016,0.013,0.012,0.009,0.008,0.006,0.003,0.001,-0.001,-0.005,-0.010,-0.016,-0.021,-0.027,-0.036,-0.043,-0.049,-0.058,-0.065,-0.072,-0.080,-0.085,-0.094,-0.100,-0.109,-0.117,-0.124,-0.131,-0.134,-0.143,-0.149,-0.156,-0.166,-0.171,-0.178,-0.185,-0.191,-0.202,-0.207,-0.216,-0.219,-0.216,-0.214,-0.215,-0.217,-0.217,-0.219,-0.229,-0.230,-0.237,-0.237,-0.233,-0.231,-0.241,-0.240,-0.242,-0.243,-0.249,-0.251,-0.250,-0.257,-0.263,-0.270,-0.266,-0.268,-0.264,-0.271,-0.276,-0.276,-0.278,-0.283,-0.289,-0.287,-0.290,-0.295,-0.299,-0.297,-0.298,-0.300,-0.303,-0.307,-0.309,-0.309,-0.313,-0.313,-0.317,-0.321,-0.321,-0.324,-0.319,-0.321,-0.326,-0.329,-0.328,-0.332,-0.333,-0.337
85,0.208,0.205,0.207,0.208,0.206,0.207,0.208,0.208,0.209,0.213,0.215,0.218,0.221,0.225,0.225,0.229,0.233,0.234,0.239,0.242,0.243,0.246,0.249,0.251,0.254,0.255,0.256,0.257,0.263,0.264,0.264,0.266,0.267,0.269,0.270,0.273,0.272,0.274,0.276,0.276,0.279,0.279,0.279,0.270,0.271,0.272,0.275,0.275,0.274,0.275,0.276,0.276,0.276,0.280,0.281,0.283,0.283,0.284,0.285,0.283,0.285,0.285,0.286,0.286,0.289,0.286,0.293,0.295,0.294,0.292,0.294,0.295,0.294,0.295,0.295,0.294,0.297,0.295,0.297,0.306,0.308,0.307,0.309,0.309,0.307,0.310,0.308,0.310,0.310,0.310,0.311,0.310,0.316,0.317,0.318,0.318,0.320,0.319,0.318,0.318,0.318
86,0.202,0.198,0.193,0.190,0.185,0.185,0.182,0.182,0.180,0.182,0.183,0.186,0.193,0.204,0.215,0.212,0.214,0.217,0.219,0.221,0.226,0.223,0.229,0.233,0.231,0.236,0.237,0.240,0.244,0.246,0.250,0.252,0.257,0.258,0.263,0.265,0.270,0.271,0.276,0.278,0.284,0.288,0.289,0.292,0.301,0.302,0.305,0.312,0.313,0.316,0.319,0.323,0.326,0.330,0.334,0.337,0.341,0.344,0.347,0.350,0.352,0.355,0.361,0.362,0.365,0.368,0.371,0.373,0.377,0.379,0.382,0.386,0.390,0.391,0.396,0.397,0.399,0.404,0.405,0.409,0.410,0.414,0.416,0.418,0.421,0.421,0.427,0.425,0.431,0.431,0.434,0.436,0.439,0.442,0.444,0.446,0.447,0.450,0.451,0.451,0.455
87,-0.404,-0.404,-0.407,-0.408,-0.405,-0.409,-0.413,-0.416,-0.420,-0.425,-0.432,-0.437,-0.447,-0.454,-0.461,-0.468,-0.474,-0.481,-0.486,-0.493,-0.499,-0.505,-0.510,-0.515,-0.521,-0.525,-0.530,-0.534,-0.539,-0.542,-0.547,-0.552,-0.554,-0.557,-0.561,-0.565,-0.567,-0.570,-0.572,-0.575,-0.578,-0.582,-0.582,-0.585,-0.588,-0.590,-0.592,-0.593,-0.594,-0.599,-0.598,-0.600,-0.601,-0.603,-0.605,-0.607,-0.608,-0.610,-0.611,-0.611,-0.614,-0.613,-0.615,-0.615,-0.618,-0.617,-0.619,-0.619,-0.617,-0.616,-0.617,-0.616,-0.616,-0.617,-0.618,-0.621,-0.622,-0.618,-0.621,-0.619,-0.621,-0.622,-0.622,-0.621,-0.621,-0.621,-0.622,-0.625,-0.625,-0.624,-0.625,-0.626,-0.627,-0.628,-0.624,-0.626,-0.627,-0.625,-0.628,-0.630,-0.627
88,-0.301,-0.310,-0.314,-0.320,-0.325,-0.329,-0.337,-0.346,-0.353,-0.363,-0.372,-0.380,-0.388,-0.399,-0.408,-0.418,-0.424,-0.435,-0.442,-0.450,-0.456,-0.466,-0.472,-0.475,-0.480,-0.486,-0.489,-0.492,-0.497,-0.500,-0.503,-0.505,-0.505,-0.511,-0.514,-0.512,-0.515,-0.516,-0.517,-0.518,-0.518,-0.520,-0.521,-0.546,-0.549,-0.544,-0.546,-0.545,-0.545,-0.545,-0.543,-0.543,-0.543,-0.565,-0.565,-0.566,-0.562,-0.559,-0.559,-0.558,-0.558,-0.555,-0.555,-0.554,-0.553,-0.551,-0.577,-0.576,-0.570,-0.569,-0.570,-0.567,-0.567,-0.563,-0.564,-0.563,-0.559,-0.560,-0.559,-0.579,-0.575,-0.575,-0.574,-0.571,-0.570,-0.568,-0.564,-0.566,-0.565,-0.561,-0.563,-0.558,-0.558,-0.554,-0.554,-0.553,-0.550,-0.548,-0.548,-0.548,-0.545
89,-0.197,-0.200,-0.199,-0.202,-0.203,-0.202,-0.202,-0.204,-0.206,-0.209,-0.211,-0.212,-0.216,-0.219,-0.222,-0.221,-0.230,-0.246,-0.266,-0.277,-0.288,-0.301,-0.317,-0.331,-0.346,-0.357,-0.366,-0.376,-0.388,-0.396,-0.404,-0.410,-0.416,-0.423,-0.430,-0.436,-0.443,-0.445,-0.447,-0.451,-0.455,-0.458,-0.461,-0.467,-0.475,-0.474,-0.477,-0.478,-0.478,-0.484,-0.486,-0.487,-0.487,-0.510,-0.512,-0.513,-0.513,-0.514,-0.514,-0.514,-0.516,-0.516,-0.519,-0.518,-0.519,-0.517,-0.517,-0.520,-0.522,-0.523,-0.524,-0.524,-0.524,-0.520,-0.523,-0.525,-0.525,-0.524,-0.523,-0.522,-0.527,-0.529,-0.528,-0.529,-0.528,-0.529,-0.526,-0.528,-0.528,-0.529,-0.528,-0.528,-0.527,-0.529,-0.528,-0.529,-0.531,-0.530,-0.530,-0.531,-0.530
90,-0.060,-0.060,-0.060,-0.060,-0.070,-0.067,-0.061,-0.053,-0.054,-0.055,-0.047,-0.045,-0.035,-0.025,-0.031,-0.051,-0.071,-0.081,-0.096,-0.104,-0.116,-0.125,-0.134,-0.145,-0.153,-0.159,-0.163,-0.169,-0.175,-0.180,-0.185,-0.191,-0.196,-0.198,-0.200,-0.207,-0.211,-0.212,-0.216,-0.219,-0.222,-0.224,-0.226,-0.228,-0.229,-0.234,-0.235,-0.238,-0.239,-0.241,-0.243,-0.245,-0.244,-0.245,-0.246,-0.245,-0.245,-0.246,-0.245,-0.248,-0.248,-0.247,-0.247,-0.250,-0.252,-0.249,-0.249,-0.249,-0.250,-0.249,-0.250,-0.250,-0.250,-0.250,-0.250,-0.251,-0.251,-0.252,-0.251,-0.244,-0.246,-0.244,-0.244,-0.246,-0.245,-0.245,-0.246,-0.249,-0.247,-0.248,-0.246,-0.248,-0.237,-0.238,-0.238,-0.237,-0.236,-0.236,-0.237,-0.238,-0.236
91,-0.090,-0.085,-0.082,-0.081,-0.079,-0.089,-0.099,-0.106,-0.116,-0.129,-0.138,-0.149,-0.162,-0.174,-0.185,-0.203,-0.215,-0.230,-0.245,-0.256,-0.266,-0.277,-0.284,-0.292,-0.295,-0.301,-0.306,-0.308,-0.311,-0.314,-0.318,-0.322,-0.321,-0.320,-0.321,-0.318,-0.317,-0.315,-0.312,-0.312,-0.310,-0.308,-0.306,-0.320,-0.321,-0.317,-0.313,-0.310,-0.305,-0.304,-0.300,-0.295,-0.292,-0.305,-0.304,-0.300,-0.298,-0.292,-0.289,-0.284,-0.281,-0.275,-0.272,-0.268,-0.261,-0.257,-0.251,-0.250,-0.247,-0.243,-0.239,-0.235,-0.232,-0.227,-0.224,-0.223,-0.217,-0.214,-0.212,-0.209,-0.206,-0.200,-0.197,-0.193,-0.191,-0.187,-0.183,-0.179,-0.177,-0.175,-0.170,-0.169,-0.165,-0.159,-0.158,-0.155,-0.150,-0.146,-0.141,-0.140,-0.138
92,-0.364,-0.364,-0.361,-0.356,-0.361,-0.356,-0.352,-0.348,-0.342,-0.335,-0.330,-0.322,-0.318,-0.311,-0.306,-0.299,-0.291,-0.288,-0.280,-0.275,-0.271,-0.266,-0.259,-0.254,-0.253,-0.248,-0.246,-0.242,-0.235,-0.233,-0.231,-0.226,-0.226,-0.223,-0.222,-0.218,-0.217,-0.214,-0.213,-0.211,-0.210,-0.208,-0.209,-0.221,-0.218,-0.218,-0.215,-0.215,-0.214,-0.215,-0.214,-0.215,-0.215,-0.220,-0.219,-0.219,-0.219,-0.220,-0.218,-0.221,-0.222,-0.222,-0.223,-0.224,-0.223,-0.225,-0.218,-0.217,-0.220,-0.222,-0.221,-0.222,-0.223,-0.224,-0.226,-0.228,-0.228,-0.233,-0.231,-0.222,-0.222,-0.224,-0.225,-0.227,-0.231,-0.229,-0.234,-0.233,-0.235,-0.237,-0.237,-0.240,-0.227,-0.229,-0.231,-0.233,-0.233,-0.236,-0.240,-0.241,-0.243
93,-0.322,-0.325,-0.328,-0.330,-0.333,-0.334,-0.334,-0.334,-0.334,-0.334,-0.334,-0.334,-0.334,-0.334,-0.334,-0.334,-0.334,-0.334,-0.334,-0.334,-0.334,-0.334,-0.334,-0.334,-0.334,-0.334,-0.334,-0.334,-0.334,-0.334,-0.334,-0.334,-0.334,-0.334,-0.334,-0.334,-0.334,-0.334,-0.334,-0.334,-0.334,-0.334,-0.334,-0.330,-0.330,-0.330,-0.330,-0.330,-0.330,-0.330,-0.330,-0.330,-0.330,-0.334,-0.334,-0.334,-0.334,-0.334,-0.334,-0.334,-0.334,-0.334,-0.334,-0.334,-0.334,-0.334,-0.341,-0.341,-0.341,-0.341,-0.341,-0.341,-0.341,-0.341,-0.341,-0.341,-0.341,-0.341,-0.341,-0.346,-0.346,-0.346,-0.346,-0.346,-0.346,-0.346,-0.346,-0.346,-0.346,-0.346,-0.346,-0.346,-0.352,-0.352,-0.352,-0.352,-0.352,-0.352,-0.352,-0.352,-0.352
94,0.364,0.355,0.348,0.344,0.338,0.338,0.340,0.343,0.348,0.353,0.358,0.364,0.369,0.373,0.381,0.387,0.395,0.399,0.405,0.410,0.416,0.422,0.428,0.433,0.435,0.440,0.443,0.447,0.450,0.451,0.454,0.459,0.459,0.460,0.462,0.463,0.465,0.466,0.465,0.465,0.464,0.467,0.465,0.466,0.468,0.468,0.468,0.467,0.468,0.468,0.466,0.466,0.467,0.467,0.467,0.464,0.464,0.462,0.462,0.460,0.459,0.458,0.456,0.455,0.454,0.452,0.451,0.450,0.449,0.448,0.448,0.446,0.444,0.444,0.442,0.440,0.438,0.437,0.437,0.471,0.470,0.467,0.465,0.464,0.463,0.461,0.459,0.459,0.455,0.455,0.454,0.452,0.472,0.469,0.467,0.466,0.464,0.463,0.461,0.459,0.459
95,0.011,0.003,-0.005,-0.014,-0.022,-0.027,-0.033,-0.036,-0.041,-0.045,-0.046,-0.050,-0.053,-0.057,-0.061,-0.065,-0.067,-0.069,-0.070,-0.073,-0.077,-0.080,-0.083,-0.089,-0.090,-0.094,-0.095,-0.099,-0.101,-0.106,-0.110,-0.111,-0.112,-0.115,-0.117,-0.120,-0.125,-0.126,-0.128,-0.131,-0.132,-0.135,-0.137,-0.140,-0.143,-0.143,-0.146,-0.150,-0.152,-0.154,-0.156,-0.158,-0.161,-0.163,-0.167,-0.167,-0.170,-0.171,-0.174,-0.175,-0.176,-0.178,-0.180,-0.182,-0.184,-0.186,-0.188,-0.191,-0.187,-0.191,-0.193,-0.193,-0.197,-0.197,-0.200,-0.200,-0.200,-0.201,-0.203,-0.204,-0.206,-0.207,-0.207,-0.208,-0.209,-0.210,-0.212,-0.212,-0.214,-0.214,-0.216,-0.217,-0.219,-0.220,-0.220,-0.221,-0.223,-0.223,-0.223,-0.225,-0.225
96,0.029,0.022,0.015,0.010,0.006,0.002,0.000,0.000,-0.001,-0.002,-0.004,-0.004,-0.008,-0.010,-0.009,-0.012,-0.014,-0.016,-0.017,-0.021,-0.020,-0.022,-0.025,-0.026,-0.028,-0.028,-0.029,-0.029,-0.033,-0.034,-0.034,-0.035,-0.035,-0.036,-0.037,-0.040,-0.040,-0.041,-0.041,-0.043,-0.044,-0.045,-0.046,-0.048,-0.049,-0.050,-0.052,-0.054,-0.053,-0.056,-0.055,-0.055,-0.057,-0.049,-0.051,-0.052,-0.052,-0.053,-0.056,-0.053,-0.056,-0.056,-0.057,-0.057,-0.059,-0.059,-0.046,-0.050,-0.047,-0.047,-0.049,-0.050,-0.051,-0.050,-0.051,-0.050,-0.053,-0.051,-0.053,-0.054,-0.055,-0.055,-0.055,-0.056,-0.055,-0.057,-0.056,-0.058,-0.058,-0.057,-0.058,-0.058,-0.059,-0.060,-0.061,-0.061,-0.063,-0.062,-0.060,-0.061,-0.060
97,0.300,0.312,0.323,0.333,0.336,0.345,0.356,0.366,0.376,0.386,0.396,0.407,0.417,0.429,0.439,0.450,0.459,0.471,0.479,0.487,0.497,0.505,0.513,0.521,0.530,0.537,0.543,0.549,0.553,0.560,0.566,0.570,0.575,0.578,0.582,0.586,0.591,0.594,0.599,0.602,0.605,0.607,0.611,0.583,0.587,0.588,0.590,0.593,0.592,0.595,0.599,0.600,0.599,0.579,0.583,0.585,0.586,0.587,0.587,0.590,0.590,0.590,0.592,0.594,0.593,0.595,0.616,0.616,0.616,0.618,0.617,0.617,0.619,0.617,0.618,0.620,0.619,0.620,0.618,0.645,0.646,0.645,0.645,0.645,0.646,0.643,0.644,0.643,0.644,0.643,0.641,0.642,0.665,0.664,0.664,0.663,0.662,0.661,0.661,0.661,0.660
98,-0.377,-0.376,-0.371,-0.367,-0.362,-0.358,-0.354,-0.352,-0.346,-0.341,-0.337,-0.333,-0.329,-0.324,-0.320,-0.315,-0.312,-0.307,-0.301,-0.299,-0.293,-0.288,-0.283,-0.280,-0.274,-0.270,-0.264,-0.259,-0.254,-0.250,-0.246,-0.242,-0.235,-0.230,-0.225,-0.220,-0.214,-0.212,-0.206,-0.200,-0.196,-0.192,-0.187,-0.183,-0.178,-0.169,-0.162,-0.159,-0.155,-0.147,-0.142,-0.138,-0.134,-0.130,-0.124,-0.119,-0.113,-0.108,-0.104,-0.096,-0.075,-0.059,-0.052,-0.040,-0.035,-0.030,-0.025,-0.019,-0.015,-0.009,-0.004,0.002,0.001,0.004,0.010,0.015,0.012,0.016,0.013,0.015,0.014,0.018,0.018,0.020,0.023,0.024,0.025,0.026,0.027,0.026,0.028,0.030,0.032,0.033,0.031,0.032,0.033,0.034,0.032,0.036,0.038
99,-0.361,-0.356,-0.353,-0.348,-0.358,-0.351,-0.341,-0.331,-0.310,-0.306,-0.313,-0.319,-0.326,-0.332,-0.340,-0.349,-0.355,-0.364,-0.369,-0.376,-0.381,-0.386,-0.393,-0.395,-0.398,-0.401,-0.407,-0.409,-0.413,-0.414,-0.416,-0.422,-0.422,-0.422,-0.422,-0.423,-0.423,-0.425,-0.426,-0.426,-0.426,-0.424,-0.424,-0.423,-0.426,-0.426,-0.428,-0.426,-0.426,-0.425,-0.425,-0.423,-0.418,-0.415,-0.416,-0.421,-0.418,-0.414,-0.414,-0.415,-0.412,-0.408,-0.406,-0.403,-0.402,-0.399,-0.397,-0.396,-0.396,-0.393,-0.390,-0.388,-0.386,-0.383,-0.382,-0.380,-0.376,-0.372,-0.373,-0.371,-0.366,-0.364,-0.362,-0.358,-0.358,-0.357,-0.352,-0.350,-0.352,-0.348,-0.343,-0.341,-0.337,-0.335,-0.333,-0.331,-0.327,-0.326,-0.323,-0.321,-0.319
100,0.156,0.156,0.161,0.166,0.176,0.179,0.185,0.181,0.177,0.173,0.165,0.159,0.151,0.142,0.134,0.120,0.111,0.101,0.091,0.082,0.076,0.068,0.060,0.053,0.049,0.042,0.036,0.032,0.030,0.024,0.019,0.016,0.011,0.009,0.006,0.000,-0.000,-0.002,-0.007,-0.009,-0.010,-0.011,-0.015,-0.017,-0.020,-0.023,-0.024,-0.027,-0.027,-0.029,-0.031,-0.032,-0.034,-0.035,-0.036,-0.037,-0.042,-0.042,-0.042,-0.044,-0.047,-0.047,-0.050,-0.052,-0.051,-0.051,-0.050,-0.056,-0.059,-0.058,-0.060,-0.059,-0.062,-0.063,-0.065,-0.067,-0.066,-0.068,-0.070,-0.072,-0.072,-0.074,-0.073,-0.076,-0.073,-0.076,-0.079,-0.078,-0.079,-0.082,-0.082,-0.082,-0.082,-0.083,-0.084,-0.085,-0.086,-0.086,-0.087,-0.089,-0.091
101,-0.294,-0.291,-0.288,-0.290,-0.282,-0.283,-0.281,-0.281,-0.283,-0.283,-0.284,-0.284,-0.284,-0.287,-0.286,-0.284,-0.284,-0.285,-0.285,-0.285,-0.285,-0.284,-0.285,-0.282,-0.278,-0.282,-0.280,-0.278,-0.280,-0.276,-0.277,-0.275,-0.275,-0.269,-0.269,-0.270,-0.269,-0.269,-0.268,-0.269,-0.267,-0.265,-0.266,-0.266,-0.267,-0.266,-0.265,-0.265,-0.265,-0.263,-0.264,-0.261,-0.259,-0.261,-0.259,-0.259,-0.259,-0.256,-0.262,-0.264,-0.263,-0.261,-0.259,-0.259,-0.258,-0.257,-0.251,-0.250,-0.251,-0.250,-0.250,-0.247,-0.250,-0.249,-0.248,-0.248,-0.247,-0.246,-0.245,-0.249,-0.249,-0.249,-0.250,-0.249,-0.253,-0.253,-0.252,-0.252,-0.251,-0.251,-0.249,-0.250,-0.251,-0.251,-0.254,-0.253,-0.253,-0.253,-0.252,-0.252,-0.256
102,0.262,0.271,0.274,0.276,0.279,0.284,0.287,0.291,0.293,0.293,0.298,0.301,0.304,0.308,0.309,0.313,0.318,0.322,0.323,0.328,0.328,0.333,0.337,0.339,0.342,0.345,0.348,0.348,0.351,0.352,0.354,0.357,0.358,0.359,0.361,0.364,0.364,0.366,0.365,0.367,0.367,0.368,0.369,0.364,0.366,0.367,0.367,0.368,0.369,0.371,0.370,0.370,0.373,0.377,0.377,0.376,0.377,0.379,0.380,0.377,0.378,0.379,0.380,0.380,0.380,0.381,0.386,0.387,0.388,0.388,0.389,0.390,0.390,0.390,0.388,0.391,0.391,0.390,0.391,0.395,0.396,0.396,0.396,0.398,0.397,0.399,0.398,0.400,0.398,0.398,0.400,0.401,0.402,0.402,0.403,0.404,0.406,0.403,0.402,0.404,0.404
103,0.045,0.036,0.029,0.020,0.023,0.017,0.012,0.009,0.007,0.005,0.003,0.001,0.000,-0.002,-0.003,-0.005,-0.006,-0.008,-0.009,-0.011,-0.012,-0.014,-0.015,-0.016,-0.018,-0.019,-0.020,-0.021,-0.023,-0.024,-0.025,-0.026,-0.027,-0.028,-0.029,-0.030,-0.031,-0.032,-0.033,-0.034,-0.035,-0.036,-0.036,-0.016,-0.016,-0.017,-0.018,-0.018,-0.019,-0.019,-0.020,-0.020,-0.020,-0.013,-0.013,-0.013,-0.014,-0.014,-0.014,-0.014,-0.013,-0.013,-0.013,-0.012,-0.012,-0.012,-0.010,-0.009,-0.008,-0.007,-0.007,-0.006,-0.004,-0.004,-0.002,-0.000,0.001,0.003,0.004,-0.001,0.002,0.004,0.005,0.007,0.010,0.013,0.014,0.017,0.020,0.023,0.027,0.031,0.023,0.028,0.031,0.036,0.040,0.036,0.037,0.044,0.057
104,0.317,0.311,0.306,0.303,0.301,0.298,0.296,0.293,0.291,0.289,0.284,0.280,0.274,0.262,0.249,0.236,0.222,0.209,0.194,0.180,0.169,0.154,0.143,0.132,0.120,0.111,0.101,0.095,0.086,0.078,0.070,0.065,0.063,0.058,0.054,0.049,0.047,0.049,0.048,0.044,0.043,0.039,0.040,0.038,0.043,0.050,0.055,0.058,0.060,0.063,0.065,0.061,0.064,0.062,0.065,0.070,0.075,0.070,0.072,0.074,0.076,0.075,0.074,0.077,0.075,0.072,0.070,0.074,0.074,0.080,0.076,0.075,0.077,0.078,0.077,0.073,0.078,0.078,0.075,0.057,0.061,0.062,0.061,0.060,0.060,0.061,0.062,0.061,0.063,0.061,0.060,0.061,0.052,0.058,0.059,0.056,0.055,0.059,0.056,0.057,0.056
105,-0.336,-0.342,-0.342,-0.345,-0.342,-0.343,-0.345,-0.348,-0.350,-0.349,-0.349,-0.348,-0.348,-0.347,-0.349,-0.348,-0.346,-0.348,-0.345,-0.344,-0.345,-0.344,-0.343,-0.344,-0.343,-0.343,-0.345,-0.345,-0.341,-0.342,-0.344,-0.344,-0.345,-0.345,-0.345,-0.344,-0.346,-0.347,-0.346,-0.346,-0.346,-0.347,-0.349,-0.344,-0.344,-0.344,-0.342,-0.344,-0.345,-0.346,-0.347,-0.348,-0.349,-0.348,-0.347,-0.347,-0.348,-0.348,-0.347,-0.351,-0.350,-0.351,-0.351,-0.353,-0.350,-0.354,-0.354,-0.352,-0.354,-0.357,-0.356,-0.355,-0.356,-0.356,-0.356,-0.358,-0.356,-0.359,-0.357,-0.359,-0.358,-0.359,-0.358,-0.359,-0.361,-0.358,-0.361,-0.359,-0.360,-0.361,-0.360,-0.362,-0.364,-0.364,-0.364,-0.364,-0.362,-0.363,-0.365,-0.365,-0.366
106,0.132,0.127,0.123,0.122,0.122,0.123,0.121,0.120,0.120,0.123,0.124,0.124,0.132,0.138,0.149,0.141,0.141,0.140,0.139,0.137,0.139,0.133,0.136,0.136,0.130,0.132,0.129,0.127,0.127,0.126,0.126,0.124,0.125,0.122,0.122,0.121,0.121,0.118,0.118,0.116,0.118,0.117,0.114,0.104,0.109,0.106,0.104,0.107,0.104,0.103,0.102,0.102,0.101,0.099,0.100,0.098,0.098,0.097,0.097,0.095,0.092,0.092,0.094,0.091,0.090,0.089,0.096,0.093,0.094,0.091,0.089,0.090,0.089,0.086,0.087,0.084,0.083,0.083,0.081,0.081,0.078,0.078,0.077,0.075,0.074,0.072,0.073,0.069,0.070,0.068,0.068,0.066,0.067,0.067,0.066,0.065,0.064,0.063,0.060,0.056,0.059
107,0.037,0.035,0.031,0.030,0.023,0.018,0.014,0.011,0.008,0.006,-0.001,-0.005,-0.011,-0.016,-0.021,-0.025,-0.029,-0.032,-0.033,-0.037,-0.041,-0.042,-0.044,-0.044,-0.047,-0.047,-0.049,-0.049,-0.049,-0.049,-0.050,-0.052,-0.049,-0.048,-0.049,-0.049,-0.047,-0.046,-0.044,-0.043,-0.043,-0.042,-0.038,-0.048,-0.048,-0.047,-0.044,-0.041,-0.039,-0.039,-0.034,-0.032,-0.029,-0.049,-0.048,-0.047,-0.044,-0.041,-0.039,-0.035,-0.034,-0.030,-0.028,-0.023,-0.023,-0.018,-0.046,-0.044,-0.039,-0.035,-0.032,-0.029,-0.024,-0.021,-0.018,-0.018,-0.016,-0.009,-0.009,-0.004,-0.003,0.000,0.004,0.007,0.010,0.013,0.016,0.017,0.020,0.024,0.027,0.028,0.030,0.033,0.040,0.040,0.043,0.048,0.048,0.049,0.054
108,0.303,0.293,0.289,0.283,0.277,0.273,0.266,0.257,0.252,0.245,0.238,0.231,0.226,0.218,0.212,0.205,0.202,0.193,0.192,0.186,0.183,0.178,0.175,0.174,0.171,0.170,0.170,0.168,0.167,0.166,0.165,0.164,0.167,0.164,0.163,0.167,0.165,0.166,0.167,0.167,0.168,0.168,0.169,0.169,0.167,0.172,0.173,0.174,0.174,0.175,0.177,0.179,0.179,0.180,0.182,0.180,0.184,0.186,0.187,0.189,0.190,0.193,0.193,0.193,0.194,0.196,0.197,0.197,0.203,0.203,0.203,0.205,0.205,0.208,0.207,0.208,0.211,0.210,0.210,0.209,0.213,0.212,0.213,0.214,0.215,0.216,0.219,0.218,0.219,0.221,0.219,0.223,0.210,0.213,0.213,0.212,0.214,0.216,0.215,0.214,0.215
109,0.291,0.285,0.282,0.277,0.277,0.275,0.274,0.269,0.264,0.259,0.256,0.252,0.247,0.240,0.235,0.233,0.226,0.213,0.203,0.195,0.191,0.194,0.192,0.191,0.188,0.188,0.191,0.188,0.187,0.187,0.189,0.189,0.193,0.196,0.196,0.198,0.198,0.203,0.208,0.212,0.214,0.217,0.222,0.221,0.220,0.226,0.230,0.234,0.239,0.239,0.243,0.249,0.253,0.231,0.235,0.237,0.242,0.246,0.252,0.256,0.259,0.263,0.264,0.271,0.273,0.277,0.280,0.280,0.283,0.285,0.288,0.292,0.294,0.301,0.303,0.304,0.307,0.311,0.315,0.319,0.318,0.319,0.325,0.326,0.330,0.332,0.337,0.341,0.343,0.344,0.348,0.353,0.357,0.359,0.362,0.364,0.365,0.369,0.373,0.374,0.376
110,-0.278,-0.275,-0.268,-0.261,-0.254,-0.245,-0.233,-0.221,-0.213,-0.204,-0.189,-0.175,-0.164,-0.165,-0.174,-0.191,-0.210,-0.221,-0.237,-0.250,-0.263,-0.272,-0.282,-0.293,-0.301,-0.309,-0.315,-0.320,-0.327,-0.334,-0.337,-0.343,-0.347,-0.349,-0.351,-0.358,-0.361,-0.361,-0.361,-0.364,-0.369,-0.369,-0.371,-0.372,-0.371,-0.376,-0.378,-0.379,-0.382,-0.384,-0.384,-0.386,-0.386,-0.387,-0.388,-0.387,-0.389,-0.389,-0.388,-0.391,-0.392,-0.391,-0.393,-0.395,-0.398,-0.397,-0.399,-0.399,-0.399,-0.399,-0.400,-0.400,-0.401,-0.402,-0.402,-0.403,-0.405,-0.402,-0.403,-0.401,-0.403,-0.405,-0.404,-0.407,-0.406,-0.408,-0.409,-0.413,-0.411,-0.413,-0.413,-0.415,-0.416,-0.417,-0.418,-0.422,-0.423,-0.424,-0.425,-0.427,-0.428
111,-0.056,-0.055,-0.063,-0.072,-0.070,-0.084,-0.097,-0.110,-0.121,-0.136,-0.146,-0.160,-0.174,-0.187,-0.197,-0.209,-0.219,-0.230,-0.240,-0.250,-0.260,-0.266,-0.273,-0.280,-0.284,-0.289,-0.294,-0.298,-0.302,-0.306,-0.312,-0.317,-0.319,-0.320,-0.321,-0.323,-0.325,-0.327,-0.326,-0.329,-0.332,-0.334,-0.334,-0.320,-0.325,-0.325,-0.324,-0.325,-0.324,-0.326,-0.325,-0.322,-0.324,-0.305,-0.307,-0.308,-0.310,-0.308,-0.307,-0.307,-0.306,-0.305,-0.305,-0.305,-0.303,-0.303,-0.302,-0.305,-0.304,-0.305,-0.305,-0.305,-0.304,-0.303,-0.303,-0.305,-0.303,-0.303,-0.304,-0.304,-0.303,-0.301,-0.300,-0.300,-0.301,-0.300,-0.299,-0.297,-0.297,-0.298,-0.296,-0.297,-0.296,-0.293,-0.294,-0.295,-0.293,-0.291,-0.288,-0.289,-0.291
112,0.143,0.140,0.139,0.140,0.140,0.142,0.143,0.143,0.146,0.150,0.151,0.156,0.157,0.160,0.162,0.166,0.171,0.171,0.176,0.178,0.180,0.182,0.186,0.187,0.186,0.188,0.187,0.189,0.193,0.192,0.192,0.195,0.192,0.193,0.192,0.194,0.194,0.194,0.194,0.194,0.193,0.194,0.191,0.193,0.195,0.194,0.195,0.195,0.194,0.193,0.193,0.190,0.191,0.189,0.190,0.190,0.190,0.188,0.190,0.187,0.186,0.185,0.185,0.183,0.185,0.182,0.182,0.184,0.181,0.180,0.181,0.181,0.180,0.179,0.178,0.176,0.176,0.172,0.175,0.173,0.174,0.172,0.172,0.171,0.168,0.171,0.166,0.167,0.166,0.166,0.166,0.164,0.170,0.169,0.167,0.167,0.168,0.166,0.162,0.163,0.162
113,0.270,0.265,0.259,0.257,0.259,0.258,0.258,0.258,0.258,0.258,0.258,0.258,0.258,0.258,0.258,0.258,0.258,0.258,0.258,0.258,0.258,0.258,0.258,0.258,0.258,0.258,0.258,0.258,0.258,0.258,0.258,0.258,0.258,0.258,0.258,0.258,0.258,0.258,0.258,0.258,0.258,0.258,0.258,0.252,0.252,0.252,0.252,0.252,0.252,0.252,0.252,0.252,0.252,0.249,0.249,0.249,0.249,0.249,0.249,0.249,0.249,0.249,0.249,0.249,0.249,0.249,0.248,0.248,0.248,0.248,0.248,0.248,0.248,0.248,0.248,0.248,0.248,0.248,0.248,0.248,0.248,0.248,0.248,0.248,0.248,0.248,0.248,0.248,0.248,0.248,0.248,0.248,0.248,0.248,0.248,0.248,0.248,0.248,0.248,0.248,0.248
114,-0.036,-0.046,-0.051,-0.056,-0.061,-0.061,-0.059,-0.055,-0.051,-0.048,-0.042,-0.037,-0.033,-0.029,-0.022,-0.017,-0.009,-0.005,-0.001,0.004,0.010,0.015,0.021,0.026,0.027,0.032,0.036,0.040,0.043,0.045,0.049,0.055,0.055,0.058,0.060,0.063,0.065,0.068,0.067,0.068,0.069,0.074,0.073,0.067,0.071,0.072,0.072,0.073,0.076,0.078,0.077,0.077,0.080,0.084,0.085,0.084,0.085,0.086,0.087,0.087,0.086,0.087,0.088,0.088,0.089,0.089,0.096,0.098,0.098,0.099,0.100,0.100,0.099,0.102,0.100,0.101,0.101,0.100,0.102,0.111,0.112,0.111,0.111,0.111,0.111,0.112,0.111,0.113,0.111,0.113,0.112,0.113,0.121,0.119,0.120,0.121,0.120,0.120,0.119,0.119,0.120
115,-0.192,-0.197,-0.201,-0.206,-0.203,-0.203,-0.205,-0.203,-0.202,-0.202,-0.198,-0.195,-0.193,-0.191,-0.189,-0.188,-0.185,-0.182,-0.178,-0.175,-0.173,-0.169,-0.167,-0.167,-0.162,-0.160,-0.156,-0.155,-0.152,-0.150,-0.150,-0.146,-0.142,-0.139,-0.137,-0.134,-0.135,-0.131,-0.130,-0.128,-0.124,-0.123,-0.120,-0.129,-0.128,-0.123,-0.122,-0.123,-0.120,-0.118,-0.117,-0.114,-0.113,-0.115,-0.113,-0.110,-0.109,-0.107,-0.107,-0.103,-0.101,-0.100,-0.100,-0.099,-0.097,-0.096,-0.101,-0.101,-0.095,-0.096,-0.095,-0.092,-0.093,-0.090,-0.091,-0.088,-0.086,-0.086,-0.085,-0.093,-0.092,-0.089,-0.087,-0.086,-0.085,-0.084,-0.083,-0.080,-0.079,-0.078,-0.078,-0.075,-0.084,-0.083,-0.081,-0.079,-0.080,-0.078,-0.076,-0.075,-0.074
116,0.118,0.114,0.111,0.110,0.105,0.105,0.107,0.113,0.116,0.120,0.124,0.129,0.131,0.134,0.141,0.143,0.146,0.150,0.154,0.157,0.162,0.165,0.167,0.172,0.174,0.179,0.183,0.186,0.188,0.192,0.194,0.198,0.202,0.204,0.207,0.208,0.212,0.215,0.217,0.219,0.222,0.224,0.227,0.237,0.238,0.240,0.242,0.243,0.246,0.247,0.250,0.253,0.254,0.258,0.259,0.260,0.263,0.264,0.264,0.269,0.268,0.270,0.271,0.273,0.273,0.276,0.280,0.279,0.284,0.285,0.285,0.286,0.286,0.288,0.289,0.292,0.291,0.293,0.293,0.297,0.297,0.300,0.300,0.301,0.302,0.302,0.304,0.304,0.305,0.307,0.306,0.308,0.308,0.308,0.309,0.309,0.308,0.311,0.313,0.313,0.315
117,-0.125,-0.114,-0.105,-0.096,-0.085,-0.078,-0.069,-0.061,-0.053,-0.045,-0.038,-0.029,-0.021,-0.011,-0.004,0.004,0.011,0.020,0.026,0.032,0.040,0.045,0.051,0.058,0.064,0.069,0.072,0.077,0.080,0.085,0.089,0.091,0.094,0.094,0.098,0.100,0.103,0.105,0.107,0.109,0.111,0.110,0.112,0.112,0.115,0.115,0.114,0.116,0.115,0.116,0.118,0.118,0.116,0.122,0.123,0.125,0.126,0.125,0.123,0.126,0.125,0.124,0.125,0.125,0.124,0.125,0.134,0.133,0.132,0.134,0.132,0.132,0.133,0.130,0.131,0.132,0.130,0.131,0.128,0.137,0.137,0.137,0.135,0.135,0.135,0.133,0.133,0.130,0.132,0.131,0.129,0.128,0.140,0.140,0.139,0.138,0.137,0.136,0.135,0.135,0.135
118,-0.239,-0.243,-0.247,-0.252,-0.257,-0.260,-0.263,-0.270,-0.274,-0.278,-0.281,-0.284,-0.288,-0.292,-0.296,-0.300,-0.303,-0.306,-0.310,-0.313,-0.316,-0.320,-0.324,-0.326,-0.329,-0.333,-0.336,-0.339,-0.342,-0.344,-0.347,-0.350,-0.353,-0.355,-0.357,-0.359,-0.360,-0.363,-0.365,-0.367,-0.369,-0.371,-0.373,-0.383,-0.385,-0.386,-0.389,-0.390,-0.392,-0.394,-0.395,-0.396,-0.396,-0.401,-0.401,-0.400,-0.399,-0.397,-0.394,-0.386,-0.359,-0.331,-0.314,-0.296,-0.299,-0.295,-0.296,-0.301,-0.301,-0.297,-0.293,-0.289,-0.304,-0.315,-0.315,-0.314,-0.326,-0.332,-0.344,-0.352,-0.359,-0.361,-0.365,-0.372,-0.376,-0.380,-0.387,-0.394,-0.399,-0.405,-0.408,-0.412,-0.415,-0.420,-0.430,-0.437,-0.443,-0.449,-0.459,-0.461,-0.464
119,0.075,0.080,0.085,0.092,0.098,0.108,0.117,0.131,0.156,0.162,0.154,0.149,0.144,0.140,0.135,0.131,0.127,0.122,0.121,0.118,0.114,0.114,0.108,0.109,0.109,0.107,0.104,0.103,0.102,0.102,0.102,0.098,0.099,0.100,0.101,0.100,0.101,0.100,0.100,0.101,0.100,0.102,0.103,0.119,0.115,0.114,0.113,0.115,0.115,0.117,0.116,0.119,0.122,0.119,0.118,0.113,0.115,0.119,0.118,0.116,0.118,0.122,0.124,0.126,0.127,0.130,0.120,0.120,0.120,0.122,0.123,0.124,0.127,0.129,0.130,0.131,0.134,0.138,0.136,0.125,0.129,0.130,0.131,0.135,0.134,0.135,0.139,0.141,0.138,0.140,0.145,0.145,0.148,0.149,0.150,0.151,0.154,0.154,0.156,0.157,0.157
120,-0.199,-0.197,-0.192,-0.188,-0.193,-0.185,-0.178,-0.176,-0.177,-0.178,-0.177,-0.172,-0.172,-0.170,-0.170,-0.173,-0.175,-0.175,-0.175,-0.176,-0.175,-0.176,-0.175,-0.175,-0.172,-0.173,-0.169,-0.168,-0.164,-0.163,-0.163,-0.159,-0.159,-0.155,-0.153,-0.156,-0.152,-0.147,-0.148,-0.147,-0.144,-0.141,-0.141,-0.129,-0.128,-0.128,-0.126,-0.127,-0.123,-0.124,-0.123,-0.122,-0.121,-0.115,-0.111,-0.111,-0.115,-0.112,-0.110,-0.110,-0.110,-0.109,-0.110,-0.109,-0.107,-0.104,-0.101,-0.106,-0.106,-0.104,-0.103,-0.102,-0.103,-0.101,-0.101,-0.101,-0.099,-0.099,-0.099,-0.093,-0.091,-0.091,-0.089,-0.091,-0.087,-0.088,-0.090,-0.086,-0.085,-0.086,-0.085,-0.085,-0.084,-0.083,-0.083,-0.083,-0.082,-0.081,-0.080,-0.082,-0.081
121,-0.399,-0.397,-0.398,-0.400,-0.409,-0.409,-0.409,-0.409,-0.410,-0.410,-0.411,-0.412,-0.411,-0.415,-0.416,-0.414,-0.416,-0.416,-0.416,-0.418,-0.418,-0.418,-0.420,-0.420,-0.417,-0.422,-0.421,-0.421,-0.423,-0.421,-0.422,-0.422,-0.424,-0.418,-0.420,-0.421,-0.421,-0.420,-0.421,-0.423,-0.421,-0.420,-0.422,-0.420,-0.422,-0.423,-0.423,-0.424,-0.425,-0.425,-0.428,-0.426,-0.424,-0.421,-0.419,-0.421,-0.422,-0.422,-0.429,-0.432,-0.432,-0.432,-0.431,-0.431,-0.432,-0.432,-0.425,-0.426,-0.426,-0.426,-0.428,-0.426,-0.430,-0.430,-0.430,-0.430,-0.430,-0.430,-0.430,-0.427,-0.428,-0.430,-0.431,-0.431,-0.436,-0.436,-0.436,-0.438,-0.436,-0.437,-0.436,-0.438,-0.430,-0.431,-0.435,-0.435,-0.436,-0.436,-0.435,-0.437,-0.441
122,-0.177,-0.169,-0.167,-0.167,-0.166,-0.164,-0.162,-0.162,-0.163,-0.166,-0.164,-0.165,-0.165,-0.165,-0.167,-0.167,-0.166,-0.166,-0.168,-0.166,-0.170,-0.169,-0.168,-0.170,-0.169,-0.169,-0.169,-0.172,-0.173,-0.174,-0.175,-0.175,-0.177,-0.179,-0.180,-0.181,-0.183,-0.185,-0.189,-0.190,-0.192,-0.194,-0.196,-0.185,-0.187,-0.189,-0.191,-0.194,-0.195,-0.196,-0.200,-0.203,-0.203,-0.193,-0.196,-0.199,-0.201,-0.202,-0.202,-0.207,-0.209,-0.210,-0.211,-0.214,-0.215,-0.217,-0.203,-0.204,-0.205,-0.207,-0.208,-0.209,-0.211,-0.213,-0.217,-0.217,-0.218,-0.221,-0.221,-0.207,-0.208,-0.209,-0.211,-0.211,-0.214,-0.213,-0.216,-0.215,-0.219,-0.221,-0.221,-0.222,-0.209,-0.211,-0.211,-0.212,-0.212,-0.216,-0.218,-0.218,-0.219
123,0.232,0.224,0.218,0.210,0.203,0.198,0.194,0.191,0.188,0.186,0.184,0.184,0.183,0.183,0.182,0.182,0.182,0.182,0.181,0.181,0.181,0.181,0.181,0.180,0.180,0.180,0.180,0.180,0.180,0.179,0.179,0.179,0.179,0.179,0.179,0.179,0.179,0.179,0.178,0.178,0.178,0.178,0.178,0.180,0.179,0.180,0.180,0.180,0.180,0.180,0.180,0.180,0.180,0.202,0.202,0.202,0.202,0.202,0.202,0.203,0.203,0.203,0.204,0.204,0.204,0.204,0.210,0.210,0.210,0.211,0.211,0.212,0.212,0.213,0.213,0.214,0.215,0.215,0.216,0.224,0.225,0.226,0.227,0.227,0.228,0.230,0.230,0.231,0.232,0.233,0.235,0.237,0.241,0.244,0.246,0.251,0.254,0.255,0.257,0.262,0.271
124,0.120,0.114,0.108,0.107,0.105,0.103,0.104,0.104,0.106,0.107,0.108,0.108,0.111,0.111,0.110,0.108,0.105,0.104,0.103,0.102,0.104,0.098,0.100,0.100,0.098,0.098,0.099,0.101,0.101,0.101,0.101,0.104,0.109,0.112,0.113,0.115,0.118,0.124,0.127,0.129,0.132,0.133,0.137,0.119,0.127,0.133,0.140,0.145,0.149,0.154,0.160,0.159,0.164,0.159,0.165,0.172,0.176,0.174,0.177,0.181,0.184,0.184,0.185,0.189,0.188,0.187,0.179,0.184,0.185,0.192,0.190,0.190,0.192,0.195,0.195,0.192,0.198,0.199,0.197,0.195,0.200,0.202,0.203,0.203,0.203,0.205,0.208,0.207,0.211,0.210,0.209,0.211,0.211,0.218,0.219,0.218,0.216,0.221,0.219,0.220,0.220
125,0.026,0.019,0.016,0.012,0.006,0.005,-0.000,-0.005,-0.007,-0.008,-0.010,-0.010,-0.012,-0.013,-0.017,-0.018,-0.018,-0.022,-0.021,-0.021,-0.024,-0.025,-0.025,-0.028,-0.030,-0.032,-0.035,-0.037,-0.034,-0.037,-0.040,-0.041,-0.044,-0.045,-0.047,-0.047,-0.049,-0.051,-0.051,-0.053,-0.054,-0.057,-0.059,-0.048,-0.050,-0.050,-0.049,-0.052,-0.054,-0.056,-0.057,-0.059,-0.061,-0.049,-0.050,-0.049,-0.051,-0.051,-0.051,-0.055,-0.055,-0.056,-0.057,-0.059,-0.058,-0.062,-0.046,-0.045,-0.048,-0.050,-0.049,-0.049,-0.050,-0.050,-0.051,-0.052,-0.051,-0.055,-0.053,-0.054,-0.053,-0.054,-0.053,-0.054,-0.057,-0.054,-0.057,-0.055,-0.055,-0.056,-0.056,-0.058,-0.059,-0.057,-0.058,-0.058,-0.056,-0.057,-0.060,-0.060,-0.060
126,-0.121,-0.126,-0.127,-0.126,-0.132,-0.130,-0.127,-0.126,-0.123,-0.117,-0.113,-0.109,-0.098,-0.088,-0.073,-0.076,-0.073,-0.069,-0.067,-0.065,-0.058,-0.059,-0.053,-0.048,-0.049,-0.042,-0.040,-0.037,-0.033,-0.029,-0.024,-0.021,-0.015,-0.013,-0.009,-0.005,0.000,0.002,0.007,0.010,0.016,0.020,0.022,0.019,0.028,0.030,0.032,0.040,0.040,0.044,0.047,0.051,0.053,0.052,0.056,0.059,0.063,0.066,0.069,0.072,0.073,0.076,0.082,0.083,0.085,0.089,0.096,0.097,0.101,0.102,0.104,0.108,0.112,0.112,0.117,0.117,0.120,0.124,0.125,0.137,0.138,0.141,0.143,0.145,0.147,0.148,0.153,0.152,0.156,0.156,0.159,0.160,0.168,0.171,0.173,0.175,0.176,0.179,0.179,0.179,0.184
127,-0.103,-0.100,-0.100,-0.096,-0.095,-0.096,-0.095,-0.093,-0.090,-0.087,-0.088,-0.087,-0.088,-0.087,-0.086,-0.084,-0.082,-0.080,-0.075,-0.072,-0.070,-0.066,-0.062,-0.057,-0.055,-0.050,-0.046,-0.042,-0.038,-0.033,-0.030,-0.028,-0.021,-0.017,-0.013,-0.011,-0.006,-0.001,0.003,0.007,0.010,0.013,0.019,0.019,0.022,0.026,0.031,0.036,0.040,0.042,0.048,0.052,0.056,0.052,0.054,0.056,0.061,0.065,0.069,0.073,0.076,0.081,0.085,0.089,0.091,0.097,0.096,0.099,0.105,0.110,0.113,0.117,0.122,0.125,0.129,0.130,0.132,0.140,0.140,0.137,0.139,0.142,0.146,0.150,0.153,0.156,0.159,0.160,0.164,0.167,0.170,0.172,0.168,0.171,0.178,0.178,0.182,0.186,0.186,0.188,0.192
128,-0.180,-0.186,-0.186,-0.186,-0.189,-0.188,-0.188,-0.190,-0.188,-0.188,-0.187,-0.188,-0.186,-0.186,-0.185,-0.186,-0.183,-0.185,-0.181,-0.180,-0.179,-0.178,-0.177,-0.173,-0.174,-0.172,-0.169,-0.168,-0.167,-0.166,-0.165,-0.163,-0.159,-0.160,-0.160,-0.156,-0.156,-0.154,-0.152,-0.152,-0.151,-0.150,-0.149,-0.155,-0.157,-0.152,-0.151,-0.150,-0.150,-0.148,-0.147,-0.146,-0.147,-0.144,-0.142,-0.144,-0.141,-0.139,-0.139,-0.138,-0.138,-0.135,-0.136,-0.136,-0.136,-0.134,-0.132,-0.133,-0.128,-0.128,-0.129,-0.128,-0.127,-0.125,-0.126,-0.126,-0.124,-0.126,-0.126,-0.127,-0.123,-0.125,-0.125,-0.124,-0.124,-0.123,-0.122,-0.122,-0.122,-0.121,-0.123,-0.121,-0.123,-0.121,-0.122,-0.122,-0.121,-0.121,-0.121,-0.123,-0.123
129,-0.252,-0.257,-0.260,-0.265,-0.269,-0.269,-0.270,-0.277,-0.279,-0.280,-0.283,-0.281,-0.279,-0.284,-0.283,-0.279,-0.275,-0.274,-0.270,-0.264,-0.256,-0.240,-0.231,-0.220,-0.212,-0.203,-0.190,-0.186,-0.180,-0.172,-0.165,-0.160,-0.151,-0.144,-0.140,-0.136,-0.132,-0.124,-0.118,-0.113,-0.109,-0.104,-0.099,-0.094,-0.094,-0.088,-0.083,-0.079,-0.075,-0.074,-0.070,-0.065,-0.062,-0.058,-0.054,-0.053,-0.050,-0.046,-0.041,-0.039,-0.037,-0.034,-0.034,-0.029,-0.028,-0.024,-0.022,-0.023,-0.021,-0.021,-0.019,-0.017,-0.015,-0.010,-0.010,-0.011,-0.008,-0.006,-0.004,-0.002,-0.004,-0.004,-0.001,-0.001,0.001,0.001,0.004,0.005,0.006,0.005,0.007,0.010,0.012,0.011,0.013,0.014,0.012,0.014,0.016,0.015,0.016
130,-0.337,-0.335,-0.329,-0.326,-0.321,-0.315,-0.307,-0.298,-0.293,-0.285,-0.276,-0.255,-0.236,-0.213,-0.195,-0.182,-0.177,-0.162,-0.153,-0.144,-0.138,-0.129,-0.123,-0.117,-0.109,-0.103,-0.092,-0.087,-0.082,-0.075,-0.069,-0.064,-0.059,-0.053,-0.046,-0.045,-0.040,-0.033,-0.028,-0.023,-0.021,-0.016,-0.012,-0.007,-0.002,-0.002,0.003,0.007,0.007,0.009,0.013,0.016,0.020,0.023,0.026,0.030,0.030,0.034,0.038,0.040,0.042,0.044,0.046,0.048,0.048,0.052,0.054,0.055,0.057,0.058,0.061,0.063,0.063,0.064,0.067,0.067,0.068,0.072,0.072,0.082,0.084,0.084,0.087,0.085,0.089,0.088,0.089,0.087,0.091,0.090,0.092,0.092,0.100,0.100,0.100,0.098,0.098,0.100,0.100,0.101,0.101
131,-0.275,-0.264,-0.261,-0.259,-0.258,-0.267,-0.275,-0.281,-0.285,-0.293,-0.295,-0.300,-0.303,-0.303,-0.300,-0.300,-0.298,-0.296,-0.293,-0.290,-0.289,-0.285,-0.281,-0.280,-0.275,-0.272,-0.269,-0.267,-0.264,-0.262,-0.261,-0.261,-0.257,-0.253,-0.250,-0.248,-0.246,-0.243,-0.240,-0.240,-0.240,-0.239,-0.237,-0.236,-0.239,-0.236,-0.233,-0.232,-0.230,-0.230,-0.228,-0.224,-0.225,-0.223,-0.223,-0.223,-0.224,-0.221,-0.218,-0.218,-0.216,-0.213,-0.213,-0.212,-0.210,-0.209,-0.207,-0.210,-0.209,-0.209,-0.208,-0.208,-0.206,-0.205,-0.205,-0.206,-0.204,-0.204,-0.204,-0.204,-0.202,-0.200,-0.199,-0.199,-0.200,-0.199,-0.199,-0.196,-0.196,-0.197,-0.196,-0.197,-0.207,-0.203,-0.205,-0.205,-0.203,-0.202,-0.199,-0.200,-0.202
132,-0.331,-0.336,-0.337,-0.336,-0.340,-0.339,-0.339,-0.339,-0.337,-0.334,-0.333,-0.328,-0.328,-0.325,-0.325,-0.321,-0.317,-0.319,-0.316,-0.314,-0.314,-0.314,-0.311,-0.311,-0.315,-0.314,-0.316,-0.316,-0.313,-0.315,-0.317,-0.316,-0.319,-0.320,-0.322,-0.321,-0.322,-0.323,-0.324,-0.325,-0.327,-0.327,-0.331,-0.330,-0.328,-0.330,-0.329,-0.331,-0.332,-0.334,-0.335,-0.338,-0.337,-0.334,-0.334,-0.334,-0.335,-0.337,-0.337,-0.339,-0.341,-0.342,-0.343,-0.345,-0.344,-0.347,-0.341,-0.339,-0.343,-0.344,-0.343,-0.344,-0.345,-0.346,-0.347,-0.349,-0.349,-0.353,-0.350,-0.346,-0.347,-0.348,-0.348,-0.350,-0.352,-0.350,-0.354,-0.354,-0.355,-0.355,-0.355,-0.357,-0.352,-0.352,-0.354,-0.355,-0.354,-0.355,-0.359,-0.359,-0.359
133,0.165,0.160,0.157,0.153,0.152,0.149,0.147,0.146,0.144,0.144,0.144,0.144,0.144,0.144,0.144,0.144,0.144,0.144,0.144,0.144,0.144,0.144,0.144,0.144,0.144,0.144,0.144,0.144,0.144,0.144,0.144,0.144,0.144,0.144,0.144,0.144,0.144,0.144,0.144,0.144,0.144,0.144,0.144,0.146,0.146,0.146,0.146,0.146,0.146,0.146,0.146,0.146,0.146,0.145,0.145,0.145,0.145,0.145,0.145,0.145,0.145,0.145,0.145,0.145,0.145,0.145,0.149,0.149,0.149,0.149,0.149,0.149,0.149,0.149,0.149,0.149,0.149,0.149,0.149,0.150,0.150,0.150,0.150,0.150,0.150,0.150,0.150,0.150,0.150,0.150,0.150,0.150,0.153,0.153,0.153,0.153,0.153,0.153,0.153,0.153,0.153
134,0.348,0.337,0.330,0.324,0.317,0.315,0.315,0.314,0.315,0.315,0.317,0.318,0.319,0.318,0.321,0.323,0.326,0.326,0.326,0.327,0.330,0.332,0.333,0.335,0.334,0.335,0.337,0.338,0.338,0.337,0.338,0.342,0.340,0.340,0.340,0.341,0.341,0.342,0.339,0.339,0.339,0.342,0.339,0.340,0.342,0.341,0.340,0.340,0.341,0.341,0.340,0.339,0.341,0.341,0.341,0.339,0.339,0.339,0.339,0.338,0.336,0.336,0.335,0.335,0.335,0.334,0.334,0.334,0.334,0.333,0.334,0.333,0.331,0.332,0.330,0.330,0.329,0.328,0.329,0.329,0.328,0.327,0.326,0.325,0.325,0.324,0.322,0.323,0.320,0.321,0.320,0.320,0.319,0.317,0.316,0.316,0.315,0.315,0.313,0.312,0.312
135,-0.066,-0.071,-0.077,-0.084,-0.073,-0.076,-0.080,-0.081,-0.083,-0.087,-0.085,-0.085,-0.087,-0.088,-0.089,-0.091,-0.091,-0.091,-0.090,-0.091,-0.092,-0.092,-0.093,-0.096,-0.095,-0.097,-0.096,-0.098,-0.098,-0.101,-0.103,-0.103,-0.102,-0.102,-0.104,-0.104,-0.107,-0.107,-0.109,-0.110,-0.109,-0.111,-0.111,-0.112,-0.114,-0.112,-0.114,-0.118,-0.118,-0.118,-0.120,-0.120,-0.121,-0.121,-0.123,-0.122,-0.123,-0.124,-0.126,-0.126,-0.126,-0.127,-0.129,-0.131,-0.132,-0.133,-0.134,-0.135,-0.131,-0.134,-0.135,-0.135,-0.138,-0.137,-0.139,-0.138,-0.138,-0.139,-0.140,-0.141,-0.142,-0.141,-0.141,-0.142,-0.143,-0.143,-0.144,-0.143,-0.144,-0.144,-0.146,-0.145,-0.123,-0.124,-0.123,-0.123,-0.125,-0.125,-0.124,-0.125,-0.125
136,-0.341,-0.346,-0.350,-0.350,-0.356,-0.357,-0.354,-0.349,-0.345,-0.341,-0.336,-0.332,-0.330,-0.326,-0.318,-0.315,-0.311,-0.305,-0.301,-0.298,-0.291,-0.288,-0.285,-0.280,-0.277,-0.272,-0.269,-0.265,-0.263,-0.260,-0.257,-0.254,-0.249,-0.247,-0.244,-0.243,-0.240,-0.237,-0.236,-0.234,-0.232,-0.230,-0.228,-0.226,-0.225,-0.223,-0.222,-0.221,-0.218,-0.217,-0.215,-0.214,-0.213,-0.212,-0.211,-0.211,-0.209,-0.209,-0.210,-0.206,-0.206,-0.205,-0.204,-0.204,-0.204,-0.202,-0.218,-0.219,-0.215,-0.214,-0.215,-0.215,-0.215,-0.214,-0.214,-0.211,-0.212,-0.211,-0.212,-0.222,-0.222,-0.221,-0.222,-0.221,-0.220,-0.221,-0.220,-0.221,-0.221,-0.219,-0.221,-0.219,-0.227,-0.229,-0.229,-0.229,-0.230,-0.229,-0.227,-0.227,-0.227
137,-0.092,-0.081,-0.074,-0.066,-0.059,-0.053,-0.046,-0.039,-0.033,-0.028,-0.022,-0.014,-0.009,-0.002,0.004,0.010,0.015,0.023,0.026,0.031,0.038,0.041,0.046,0.052,0.057,0.061,0.063,0.069,0.071,0.076,0.080,0.082,0.086,0.086,0.090,0.092,0.096,0.098,0.102,0.105,0.107,0.108,0.111,0.112,0.116,0.117,0.118,0.121,0.121,0.123,0.126,0.128,0.127,0.122,0.124,0.128,0.130,0.131,0.130,0.134,0.135,0.135,0.137,0.139,0.139,0.142,0.134,0.135,0.135,0.139,0.138,0.139,0.142,0.140,0.143,0.146,0.145,0.147,0.146,0.137,0.138,0.139,0.139,0.140,0.142,0.142,0.144,0.142,0.144,0.145,0.144,0.145,0.145,0.145,0.146,0.146,0.147,0.147,0.147,0.148,0.149
138,0.057,0.057,0.057,0.057,0.053,0.053,0.053,0.053,0.053,0.053,0.053,0.053,0.053,0.053,0.053,0.053,0.053,0.053,0.053,0.053,0.053,0.053,0.053,0.053,0.053,0.053,0.053,0.053,0.053,0.053,0.053,0.053,0.053,0.053,0.053,0.053,0.053,0.053,0.053,0.040,0.014,0.003,-0.005,0.022,0.012,-0.000,-0.015,-0.025,-0.042,-0.053,-0.061,-0.067,-0.075,-0.082,-0.087,-0.091,-0.094,-0.093,-0.092,-0.087,-0.060,-0.046,-0.043,-0.040,-0.045,-0.053,-0.059,-0.067,-0.069,-0.075,-0.083,-0.087,-0.099,-0.106,-0.112,-0.117,-0.126,-0.131,-0.138,-0.144,-0.151,-0.158,-0.165,-0.173,-0.176,-0.183,-0.190,-0.199,-0.205,-0.214,-0.217,-0.224,-0.228,-0.235,-0.243,-0.248,-0.253,-0.257,-0.263,-0.267,-0.275
139,-0.393,-0.387,-0.377,-0.362,-0.367,-0.351,-0.333,-0.315,-0.287,-0.273,-0.273,-0.274,-0.271,-0.269,-0.269,-0.268,-0.266,-0.265,-0.261,-0.259,-0.259,-0.256,-0.257,-0.254,-0.250,-0.249,-0.250,-0.249,-0.247,-0.244,-0.242,-0.245,-0.242,-0.240,-0.237,-0.238,-0.237,-0.238,-0.237,-0.237,-0.238,-0.236,-0.236,-0.221,-0.227,-0.228,-0.230,-0.229,-0.229,-0.229,-0.231,-0.230,-0.227,-0.220,-0.224,-0.230,-0.228,-0.226,-0.227,-0.231,-0.231,-0.228,-0.227,-0.226,-0.227,-0.226,-0.218,-0.219,-0.220,-0.220,-0.220,-0.220,-0.219,-0.220,-0.221,-0.221,-0.221,-0.218,-0.221,-0.222,-0.220,-0.220,-0.221,-0.219,-0.221,-0.222,-0.221,-0.220,-0.225,-0.225,-0.222,-0.223,-0.227,-0.229,-0.229,-0.229,-0.227,-0.230,-0.230,-0.230,-0.232
140,-0.083,-0.078,-0.070,-0.063,-0.073,-0.062,-0.049,-0.035,-0.026,-0.016,-0.006,0.004,0.014,0.024,0.032,0.041,0.047,0.056,0.062,0.066,0.072,0.075,0.078,0.082,0.088,0.090,0.097,0.099,0.105,0.108,0.109,0.114,0.116,0.121,0.123,0.125,0.129,0.133,0.131,0.135,0.137,0.141,0.142,0.145,0.147,0.146,0.149,0.149,0.152,0.152,0.153,0.155,0.156,0.158,0.159,0.161,0.159,0.161,0.162,0.163,0.164,0.165,0.164,0.165,0.167,0.170,0.172,0.170,0.169,0.172,0.174,0.175,0.175,0.176,0.177,0.177,0.180,0.180,0.180,0.180,0.183,0.182,0.184,0.182,0.186,0.187,0.185,0.189,0.190,0.189,0.190,0.191,0.192,0.193,0.194,0.195,0.196,0.197,0.199,0.199,0.200
141,-0.044,-0.043,-0.045,-0.047,-0.049,-0.050,-0.050,-0.049,-0.050,-0.050,-0.051,-0.050,-0.049,-0.053,-0.052,-0.049,-0.050,-0.051,-0.050,-0.052,-0.051,-0.050,-0.052,-0.051,-0.048,-0.051,-0.050,-0.049,-0.051,-0.049,-0.050,-0.049,-0.051,-0.045,-0.046,-0.048,-0.047,-0.047,-0.047,-0.048,-0.047,-0.045,-0.047,-0.046,-0.049,-0.049,-0.050,-0.050,-0.052,-0.050,-0.054,-0.052,-0.050,-0.048,-0.047,-0.047,-0.047,-0.045,-0.050,-0.052,-0.052,-0.051,-0.048,-0.048,-0.048,-0.046,-0.045,-0.044,-0.043,-0.042,-0.042,-0.038,-0.041,-0.039,-0.039,-0.037,-0.035,-0.033,-0.032,-0.030,-0.030,-0.029,-0.027,-0.026,-0.028,-0.027,-0.026,-0.026,-0.022,-0.022,-0.020,-0.020,-0.019,-0.018,-0.019,-0.018,-0.017,-0.015,-0.013,-0.012,-0.014
142,-0.241,-0.232,-0.228,-0.226,-0.225,-0.222,-0.218,-0.216,-0.214,-0.215,-0.212,-0.211,-0.209,-0.208,-0.208,-0.206,-0.203,-0.199,-0.198,-0.194,-0.195,-0.191,-0.187,-0.185,-0.181,-0.178,-0.175,-0.175,-0.172,-0.171,-0.168,-0.164,-0.163,-0.162,-0.160,-0.158,-0.157,-0.156,-0.157,-0.155,-0.154,-0.153,-0.152,-0.153,-0.152,-0.151,-0.152,-0.151,-0.149,-0.147,-0.149,-0.150,-0.147,-0.148,-0.149,-0.149,-0.149,-0.147,-0.145,-0.148,-0.147,-0.147,-0.146,-0.147,-0.146,-0.147,-0.148,-0.146,-0.146,-0.147,-0.146,-0.145,-0.145,-0.147,-0.149,-0.147,-0.148,-0.150,-0.149,-0.152,-0.152,-0.152,-0.152,-0.153,-0.154,-0.152,-0.154,-0.153,-0.156,-0.157,-0.157,-0.157,-0.159,-0.160,-0.159,-0.160,-0.159,-0.163,-0.164,-0.164,-0.166
143,-0.346,-0.353,-0.359,-0.366,-0.358,-0.366,-0.372,-0.377,-0.382,-0.386,-0.389,-0.392,-0.393,-0.394,-0.395,-0.396,-0.396,-0.397,-0.398,-0.398,-0.399,-0.400,-0.401,-0.401,-0.402,-0.402,-0.403,-0.404,-0.404,-0.404,-0.404,-0.404,-0.404,-0.404,-0.404,-0.404,-0.404,-0.404,-0.404,-0.404,-0.404,-0.404,-0.404,-0.416,-0.416,-0.416,-0.416,-0.416,-0.416,-0.416,-0.416,-0.416,-0.416,-0.414,-0.414,-0.414,-0.414,-0.414,-0.414,-0.414,-0.414,-0.413,-0.413,-0.413,-0.413,-0.413,-0.409,-0.409,-0.408,-0.408,-0.408,-0.407,-0.407,-0.407,-0.406,-0.406,-0.406,-0.405,-0.405,-0.400,-0.400,-0.399,-0.399,-0.398,-0.398,-0.397,-0.397,-0.396,-0.395,-0.394,-0.392,-0.389,-0.386,-0.383,-0.379,-0.373,-0.368,-0.366,-0.362,-0.357,-0.342
144,0.125,0.117,0.111,0.109,0.102,0.100,0.102,0.105,0.111,0.116,0.123,0.130,0.141,0.151,0.159,0.167,0.175,0.185,0.193,0.202,0.214,0.218,0.227,0.237,0.242,0.249,0.258,0.263,0.269,0.275,0.281,0.288,0.296,0.302,0.307,0.314,0.319,0.327,0.331,0.336,0.340,0.345,0.350,0.355,0.364,0.371,0.380,0.386,0.391,0.398,0.405,0.409,0.415,0.420,0.427,0.438,0.445,0.446,0.452,0.459,0.466,0.468,0.472,0.479,0.480,0.482,0.483,0.490,0.494,0.503,0.504,0.506,0.511,0.516,0.519,0.518,0.526,0.530,0.530,0.533,0.540,0.543,0.546,0.549,0.552,0.555,0.559,0.561,0.567,0.569,0.570,0.574,0.576,0.584,0.588,0.589,0.590,0.596,0.597,0.600,0.603
145,0.216,0.217,0.219,0.221,0.220,0.222,0.223,0.222,0.223,0.225,0.227,0.229,0.230,0.233,0.232,0.235,0.238,0.238,0.241,0.244,0.246,0.248,0.252,0.254,0.256,0.258,0.260,0.262,0.268,0.270,0.270,0.274,0.275,0.278,0.280,0.284,0.285,0.287,0.292,0.293,0.296,0.299,0.299,0.301,0.304,0.307,0.311,0.312,0.313,0.315,0.316,0.318,0.319,0.321,0.323,0.326,0.328,0.330,0.332,0.332,0.335,0.336,0.337,0.339,0.343,0.341,0.343,0.346,0.346,0.347,0.349,0.352,0.353,0.355,0.356,0.357,0.360,0.358,0.362,0.362,0.364,0.365,0.368,0.369,0.367,0.372,0.371,0.375,0.376,0.376,0.378,0.378,0.379,0.382,0.383,0.384,0.388,0.388,0.386,0.388,0.389
146,-0.128,-0.133,-0.134,-0.134,-0.130,-0.128,-0.129,-0.131,-0.132,-0.132,-0.135,-0.136,-0.135,-0.133,-0.131,-0.143,-0.148,-0.154,-0.160,-0.166,-0.170,-0.181,-0.185,-0.190,-0.201,-0.204,-0.212,-0.218,-0.223,-0.230,-0.235,-0.242,-0.246,-0.254,-0.259,-0.265,-0.270,-0.278,-0.283,-0.290,-0.293,-0.299,-0.305,-0.311,-0.311,-0.318,-0.323,-0.325,-0.334,-0.337,-0.342,-0.346,-0.350,-0.372,-0.375,-0.380,-0.382,-0.387,-0.390,-0.395,-0.400,-0.403,-0.404,-0.411,-0.414,-0.417,-0.439,-0.445,-0.446,-0.452,-0.456,-0.457,-0.461,-0.465,-0.466,-0.472,-0.474,-0.475,-0.479,-0.496,-0.500,-0.501,-0.504,-0.507,-0.510,-0.514,-0.514,-0.520,-0.520,-0.524,-0.525,-0.529,-0.543,-0.544,-0.547,-0.550,-0.553,-0.554,-0.558,-0.563,-0.561
147,-0.010,-0.011,-0.014,-0.014,-0.012,-0.015,-0.016,-0.015,-0.014,-0.012,-0.014,-0.012,-0.013,-0.010,-0.008,-0.004,0.000,0.004,0.010,0.013,0.017,0.022,0.025,0.030,0.033,0.038,0.041,0.046,0.049,0.054,0.057,0.058,0.064,0.068,0.072,0.074,0.078,0.083,0.087,0.090,0.092,0.095,0.101,0.100,0.101,0.104,0.108,0.113,0.116,0.117,0.122,0.125,0.129,0.129,0.131,0.131,0.135,0.139,0.142,0.145,0.146,0.152,0.154,0.157,0.158,0.163,0.154,0.157,0.162,0.166,0.169,0.173,0.176,0.179,0.181,0.182,0.184,0.191,0.191,0.182,0.184,0.186,0.189,0.193,0.196,0.198,0.201,0.202,0.206,0.208,0.211,0.214,0.217,0.219,0.225,0.226,0.228,0.232,0.233,0.234,0.239
148,0.143,0.141,0.147,0.152,0.154,0.162,0.168,0.172,0.180,0.186,0.192,0.197,0.205,0.212,0.218,0.223,0.231,0.235,0.242,0.247,0.253,0.257,0.260,0.267,0.269,0.273,0.277,0.280,0.284,0.286,0.290,0.292,0.297,0.298,0.299,0.304,0.306,0.308,0.311,0.313,0.315,0.316,0.319,0.316,0.315,0.321,0.323,0.324,0.325,0.327,0.329,0.332,0.332,0.334,0.337,0.335,0.340,0.342,0.343,0.344,0.345,0.348,0.348,0.350,0.350,0.353,0.351,0.351,0.357,0.358,0.358,0.360,0.360,0.363,0.363,0.364,0.367,0.366,0.367,0.357,0.361,0.361,0.361,0.364,0.363,0.365,0.367,0.367,0.368,0.370,0.368,0.371,0.360,0.362,0.362,0.363,0.364,0.365,0.365,0.364,0.364
