Id,Epoch:0,Epoch:1,Epoch:2,Epoch:3,Epoch:4,Epoch:5,Epoch:6,Epoch:7,Epoch:8,Epoch:9,Epoch:10,Epoch:11,Epoch:12,Epoch:13,Epoch:14,Epoch:15,Epoch:16,Epoch:17,Epoch:18,Epoch:19,Epoch:20,Epoch:21,Epoch:22,Epoch:23,Epoch:24,Epoch:25,Epoch:26,Epoch:27,Epoch:28,Epoch:29,Epoch:30,Epoch:31,Epoch:32,Epoch:33,Epoch:34,Epoch:35,Epoch:36,Epoch:37,Epoch:38,Epoch:39,Epoch:40,Epoch:41,Epoch:42,Epoch:43,Epoch:44,Epoch:45,Epoch:46,Epoch:47,Epoch:48,Epoch:49,Epoch:50,Epoch:51,Epoch:52,Epoch:53,Epoch:54,Epoch:55,Epoch:56,Epoch:57,Epoch:58,Epoch:59,Epoch:60,Epoch:61,Epoch:62,Epoch:63,Epoch:64,Epoch:65,Epoch:66,Epoch:67,Epoch:68,Epoch:69,Epoch:70,Epoch:71,Epoch:72,Epoch:73,Epoch:74,Epoch:75,Epoch:76,Epoch:77,Epoch:78,Epoch:79,Epoch:80,Epoch:81,Epoch:82,Epoch:83,Epoch:84,Epoch:85,Epoch:86,Epoch:87,Epoch:88,Epoch:89,Epoch:90,Epoch:91,Epoch:92,Epoch:93,Epoch:94,Epoch:95,Epoch:96,Epoch:97,Epoch:98,Epoch:99,Epoch:100
0,0.077,0.064,0.050,0.033,0.018,0.000,-0.016,-0.033,-0.043,-0.054,-0.063,-0.074,-0.085,-0.094,-0.103,-0.111,-0.124,-0.130,-0.138,-0.144,-0.150,-0.156,-0.162,-0.167,-0.169,-0.173,-0.175,-0.178,-0.180,-0.183,-0.183,-0.188,-0.184,-0.186,-0.187,-0.186,-0.186,-0.186,-0.185,-0.183,-0.181,-0.177,-0.175,-0.172,-0.169,-0.169,-0.165,-0.162,-0.161,-0.160,-0.156,-0.154,-0.154,-0.153,-0.148,-0.140,-0.138,-0.136,-0.131,-0.130,-0.124,-0.121,-0.119,-0.116,-0.114,-0.110,-0.107,-0.107,-0.101,-0.101,-0.097,-0.096,-0.093,-0.091,-0.089,-0.085,-0.082,-0.080,-0.078,-0.076,-0.075,-0.071,-0.066,-0.065,-0.062,-0.060,-0.057,-0.057,-0.054,-0.051,-0.047,-0.042,-0.038,-0.037,-0.033,-0.032,-0.029,-0.025,-0.022,-0.021,-0.016
1,-0.232,-0.245,-0.260,-0.277,-0.293,-0.311,-0.331,-0.352,-0.374,-0.396,-0.417,-0.438,-0.460,-0.482,-0.503,-0.522,-0.541,-0.560,-0.577,-0.593,-0.611,-0.625,-0.639,-0.652,-0.666,-0.678,-0.690,-0.701,-0.712,-0.725,-0.733,-0.743,-0.754,-0.764,-0.773,-0.783,-0.792,-0.800,-0.808,-0.816,-0.824,-0.834,-0.843,-0.853,-0.859,-0.866,-0.875,-0.881,-0.888,-0.896,-0.904,-0.913,-0.917,-0.924,-0.931,-0.938,-0.945,-0.952,-0.962,-0.968,-0.975,-0.983,-0.987,-0.993,-1.000,-1.008,-1.015,-1.019,-1.025,-1.030,-1.036,-1.043,-1.050,-1.056,-1.061,-1.067,-1.073,-1.079,-1.084,-1.090,-1.095,-1.102,-1.108,-1.113,-1.118,-1.124,-1.129,-1.135,-1.139,-1.145,-1.150,-1.156,-1.161,-1.167,-1.173,-1.178,-1.181,-1.187,-1.192,-1.199,-1.204
2,0.352,0.340,0.329,0.316,0.304,0.294,0.289,0.281,0.275,0.268,0.265,0.258,0.249,0.237,0.229,0.221,0.210,0.199,0.194,0.183,0.177,0.170,0.163,0.155,0.153,0.148,0.141,0.140,0.139,0.137,0.133,0.132,0.129,0.128,0.126,0.124,0.124,0.123,0.122,0.120,0.121,0.121,0.121,0.121,0.120,0.121,0.122,0.123,0.124,0.125,0.125,0.125,0.126,0.126,0.127,0.129,0.131,0.129,0.132,0.135,0.135,0.137,0.138,0.141,0.142,0.143,0.144,0.145,0.148,0.150,0.150,0.153,0.155,0.157,0.159,0.161,0.161,0.164,0.169,0.173,0.175,0.179,0.179,0.181,0.183,0.185,0.189,0.189,0.194,0.196,0.199,0.202,0.205,0.207,0.208,0.207,0.212,0.214,0.218,0.219,0.220
3,-0.085,-0.098,-0.113,-0.130,-0.146,-0.163,-0.181,-0.200,-0.220,-0.234,-0.251,-0.271,-0.290,-0.309,-0.328,-0.344,-0.361,-0.377,-0.392,-0.407,-0.422,-0.436,-0.450,-0.463,-0.476,-0.489,-0.499,-0.509,-0.522,-0.532,-0.545,-0.553,-0.563,-0.574,-0.581,-0.588,-0.597,-0.608,-0.616,-0.622,-0.632,-0.639,-0.647,-0.654,-0.663,-0.672,-0.680,-0.689,-0.698,-0.705,-0.713,-0.720,-0.727,-0.734,-0.742,-0.752,-0.758,-0.765,-0.771,-0.780,-0.787,-0.794,-0.803,-0.808,-0.816,-0.823,-0.831,-0.838,-0.843,-0.848,-0.855,-0.862,-0.869,-0.874,-0.882,-0.888,-0.894,-0.899,-0.904,-0.909,-0.918,-0.922,-0.927,-0.931,-0.937,-0.943,-0.949,-0.953,-0.960,-0.964,-0.967,-0.974,-0.978,-0.983,-0.986,-0.991,-0.996,-0.999,-1.004,-1.009,-1.014
4,0.143,0.130,0.115,0.098,0.082,0.064,0.046,0.028,0.012,0.000,-0.015,-0.029,-0.043,-0.054,-0.067,-0.078,-0.084,-0.095,-0.103,-0.112,-0.116,-0.126,-0.128,-0.129,-0.133,-0.135,-0.136,-0.139,-0.140,-0.142,-0.140,-0.141,-0.139,-0.137,-0.140,-0.137,-0.136,-0.133,-0.135,-0.133,-0.131,-0.127,-0.128,-0.126,-0.119,-0.118,-0.114,-0.111,-0.107,-0.106,-0.103,-0.100,-0.097,-0.094,-0.092,-0.087,-0.086,-0.084,-0.080,-0.076,-0.070,-0.069,-0.066,-0.063,-0.059,-0.053,-0.048,-0.046,-0.045,-0.042,-0.036,-0.035,-0.031,-0.025,-0.024,-0.021,-0.017,-0.015,-0.013,-0.011,-0.006,-0.004,-0.002,0.001,0.007,0.011,0.011,0.014,0.014,0.018,0.021,0.023,0.026,0.028,0.031,0.033,0.035,0.036,0.041,0.042,0.046
5,0.158,0.165,0.172,0.182,0.190,0.201,0.213,0.226,0.237,0.249,0.260,0.270,0.283,0.291,0.304,0.314,0.321,0.331,0.339,0.346,0.352,0.359,0.365,0.368,0.372,0.375,0.381,0.383,0.389,0.391,0.394,0.397,0.399,0.402,0.405,0.404,0.403,0.407,0.406,0.406,0.408,0.407,0.410,0.410,0.409,0.408,0.406,0.407,0.409,0.408,0.408,0.406,0.405,0.403,0.406,0.403,0.402,0.403,0.401,0.403,0.402,0.401,0.400,0.397,0.396,0.393,0.391,0.389,0.388,0.386,0.382,0.386,0.383,0.382,0.377,0.376,0.374,0.374,0.373,0.373,0.369,0.367,0.364,0.361,0.359,0.358,0.357,0.356,0.355,0.353,0.352,0.349,0.347,0.346,0.345,0.345,0.343,0.341,0.336,0.335,0.332
6,0.003,-0.008,-0.018,-0.031,-0.042,-0.057,-0.070,-0.083,-0.096,-0.107,-0.115,-0.125,-0.131,-0.138,-0.144,-0.146,-0.151,-0.150,-0.152,-0.152,-0.153,-0.150,-0.151,-0.149,-0.145,-0.144,-0.140,-0.138,-0.137,-0.133,-0.130,-0.127,-0.124,-0.125,-0.118,-0.113,-0.108,-0.104,-0.098,-0.096,-0.091,-0.089,-0.085,-0.082,-0.078,-0.072,-0.070,-0.066,-0.062,-0.057,-0.054,-0.049,-0.046,-0.042,-0.040,-0.035,-0.033,-0.030,-0.026,-0.024,-0.020,-0.018,-0.016,-0.013,-0.011,-0.011,-0.010,-0.006,-0.003,-0.001,0.002,0.003,0.006,0.006,0.007,0.009,0.011,0.011,0.014,0.015,0.015,0.017,0.020,0.021,0.019,0.021,0.022,0.025,0.027,0.027,0.026,0.025,0.024,0.027,0.028,0.028,0.028,0.030,0.027,0.031,0.029
7,-0.176,-0.181,-0.187,-0.193,-0.199,-0.208,-0.219,-0.227,-0.237,-0.250,-0.261,-0.270,-0.283,-0.294,-0.304,-0.316,-0.321,-0.332,-0.341,-0.350,-0.360,-0.367,-0.376,-0.386,-0.393,-0.400,-0.409,-0.414,-0.422,-0.429,-0.434,-0.442,-0.447,-0.452,-0.458,-0.466,-0.470,-0.475,-0.477,-0.481,-0.483,-0.489,-0.491,-0.496,-0.501,-0.504,-0.508,-0.511,-0.511,-0.514,-0.516,-0.519,-0.522,-0.525,-0.528,-0.530,-0.533,-0.535,-0.537,-0.539,-0.543,-0.544,-0.547,-0.549,-0.550,-0.551,-0.552,-0.552,-0.553,-0.556,-0.558,-0.560,-0.563,-0.561,-0.563,-0.562,-0.562,-0.565,-0.565,-0.567,-0.569,-0.569,-0.568,-0.569,-0.570,-0.570,-0.570,-0.572,-0.573,-0.574,-0.576,-0.574,-0.575,-0.576,-0.577,-0.578,-0.578,-0.576,-0.578,-0.578,-0.578
8,-0.270,-0.277,-0.287,-0.294,-0.303,-0.307,-0.313,-0.316,-0.323,-0.328,-0.339,-0.343,-0.353,-0.360,-0.372,-0.384,-0.391,-0.400,-0.409,-0.420,-0.427,-0.433,-0.440,-0.444,-0.454,-0.458,-0.462,-0.468,-0.475,-0.479,-0.483,-0.487,-0.493,-0.495,-0.500,-0.501,-0.506,-0.509,-0.512,-0.515,-0.521,-0.523,-0.525,-0.527,-0.530,-0.532,-0.533,-0.535,-0.538,-0.540,-0.543,-0.546,-0.544,-0.545,-0.548,-0.552,-0.552,-0.550,-0.553,-0.555,-0.557,-0.558,-0.559,-0.561,-0.563,-0.566,-0.568,-0.568,-0.569,-0.572,-0.573,-0.572,-0.574,-0.576,-0.577,-0.578,-0.580,-0.581,-0.584,-0.586,-0.586,-0.588,-0.592,-0.591,-0.591,-0.595,-0.596,-0.596,-0.599,-0.600,-0.605,-0.604,-0.607,-0.609,-0.611,-0.611,-0.614,-0.615,-0.615,-0.619,-0.617
9,0.185,0.197,0.209,0.223,0.236,0.251,0.267,0.282,0.299,0.315,0.333,0.352,0.370,0.390,0.408,0.425,0.442,0.458,0.473,0.488,0.502,0.513,0.526,0.538,0.548,0.558,0.566,0.574,0.582,0.590,0.597,0.604,0.610,0.616,0.621,0.628,0.634,0.638,0.642,0.648,0.651,0.657,0.659,0.664,0.668,0.672,0.677,0.679,0.679,0.683,0.686,0.689,0.692,0.695,0.695,0.699,0.701,0.703,0.705,0.704,0.707,0.709,0.712,0.714,0.716,0.720,0.723,0.725,0.724,0.728,0.730,0.730,0.734,0.733,0.738,0.738,0.739,0.742,0.742,0.744,0.748,0.749,0.751,0.753,0.754,0.756,0.756,0.757,0.759,0.761,0.762,0.762,0.763,0.764,0.765,0.767,0.768,0.768,0.771,0.773,0.774
10,-0.443,-0.453,-0.461,-0.470,-0.478,-0.489,-0.498,-0.507,-0.514,-0.524,-0.531,-0.543,-0.552,-0.558,-0.566,-0.574,-0.583,-0.587,-0.595,-0.601,-0.606,-0.611,-0.616,-0.621,-0.620,-0.622,-0.623,-0.626,-0.624,-0.626,-0.625,-0.629,-0.623,-0.625,-0.622,-0.619,-0.618,-0.616,-0.616,-0.611,-0.608,-0.606,-0.602,-0.599,-0.597,-0.597,-0.591,-0.587,-0.587,-0.586,-0.582,-0.581,-0.582,-0.582,-0.577,-0.568,-0.566,-0.565,-0.561,-0.559,-0.557,-0.554,-0.553,-0.552,-0.551,-0.548,-0.546,-0.548,-0.542,-0.543,-0.541,-0.541,-0.539,-0.537,-0.537,-0.535,-0.532,-0.531,-0.530,-0.529,-0.530,-0.527,-0.522,-0.522,-0.522,-0.522,-0.519,-0.520,-0.518,-0.517,-0.514,-0.511,-0.508,-0.509,-0.506,-0.506,-0.504,-0.502,-0.501,-0.500,-0.497
11,0.101,0.088,0.077,0.067,0.056,0.044,0.032,0.020,0.009,-0.007,-0.020,-0.036,-0.052,-0.068,-0.084,-0.101,-0.117,-0.134,-0.151,-0.167,-0.185,-0.200,-0.216,-0.232,-0.248,-0.260,-0.274,-0.289,-0.302,-0.319,-0.333,-0.345,-0.360,-0.374,-0.383,-0.397,-0.409,-0.420,-0.431,-0.443,-0.455,-0.467,-0.477,-0.488,-0.497,-0.507,-0.518,-0.527,-0.537,-0.545,-0.552,-0.562,-0.570,-0.579,-0.584,-0.591,-0.595,-0.603,-0.610,-0.615,-0.621,-0.628,-0.634,-0.640,-0.648,-0.653,-0.660,-0.664,-0.668,-0.671,-0.678,-0.684,-0.687,-0.689,-0.695,-0.698,-0.703,-0.708,-0.710,-0.714,-0.716,-0.720,-0.724,-0.727,-0.729,-0.735,-0.735,-0.739,-0.741,-0.747,-0.751,-0.755,-0.759,-0.762,-0.762,-0.764,-0.767,-0.770,-0.773,-0.774,-0.778
12,0.262,0.263,0.270,0.276,0.283,0.287,0.291,0.294,0.298,0.302,0.306,0.308,0.310,0.312,0.313,0.313,0.316,0.316,0.318,0.320,0.320,0.320,0.323,0.325,0.328,0.329,0.331,0.335,0.338,0.340,0.343,0.345,0.347,0.350,0.353,0.356,0.358,0.361,0.363,0.365,0.366,0.369,0.371,0.374,0.377,0.381,0.383,0.384,0.386,0.389,0.392,0.395,0.395,0.397,0.400,0.402,0.405,0.404,0.404,0.406,0.405,0.407,0.409,0.413,0.413,0.416,0.417,0.417,0.419,0.419,0.417,0.418,0.419,0.421,0.420,0.420,0.420,0.421,0.426,0.428,0.430,0.432,0.429,0.429,0.431,0.432,0.433,0.432,0.433,0.435,0.437,0.437,0.438,0.439,0.437,0.436,0.437,0.436,0.439,0.439,0.437
13,0.357,0.352,0.346,0.338,0.331,0.324,0.316,0.310,0.299,0.293,0.285,0.276,0.268,0.256,0.249,0.241,0.230,0.220,0.214,0.204,0.194,0.184,0.175,0.164,0.154,0.141,0.132,0.122,0.110,0.099,0.086,0.074,0.063,0.051,0.038,0.025,0.009,-0.002,-0.011,-0.020,-0.033,-0.043,-0.055,-0.066,-0.077,-0.090,-0.101,-0.111,-0.121,-0.131,-0.141,-0.150,-0.162,-0.172,-0.183,-0.196,-0.206,-0.218,-0.229,-0.237,-0.245,-0.253,-0.263,-0.270,-0.278,-0.288,-0.297,-0.304,-0.312,-0.320,-0.329,-0.337,-0.346,-0.353,-0.363,-0.370,-0.377,-0.385,-0.391,-0.398,-0.406,-0.415,-0.419,-0.427,-0.433,-0.438,-0.443,-0.450,-0.458,-0.461,-0.466,-0.473,-0.479,-0.485,-0.490,-0.495,-0.502,-0.507,-0.513,-0.518,-0.526
14,-0.130,-0.141,-0.153,-0.165,-0.177,-0.189,-0.202,-0.213,-0.226,-0.238,-0.251,-0.262,-0.273,-0.286,-0.297,-0.310,-0.318,-0.330,-0.342,-0.353,-0.363,-0.376,-0.383,-0.392,-0.402,-0.411,-0.419,-0.428,-0.436,-0.446,-0.453,-0.461,-0.468,-0.475,-0.484,-0.490,-0.497,-0.502,-0.512,-0.518,-0.523,-0.528,-0.537,-0.543,-0.545,-0.553,-0.557,-0.560,-0.567,-0.572,-0.578,-0.583,-0.589,-0.594,-0.600,-0.604,-0.610,-0.617,-0.620,-0.623,-0.626,-0.633,-0.638,-0.643,-0.647,-0.649,-0.652,-0.658,-0.663,-0.668,-0.669,-0.676,-0.680,-0.680,-0.688,-0.691,-0.693,-0.698,-0.703,-0.708,-0.712,-0.715,-0.722,-0.723,-0.725,-0.728,-0.733,-0.737,-0.742,-0.745,-0.748,-0.752,-0.755,-0.759,-0.762,-0.767,-0.770,-0.775,-0.777,-0.781,-0.784
15,0.395,0.397,0.398,0.402,0.404,0.410,0.418,0.426,0.436,0.446,0.457,0.468,0.479,0.491,0.506,0.519,0.529,0.541,0.552,0.565,0.577,0.588,0.599,0.608,0.617,0.628,0.636,0.646,0.655,0.663,0.672,0.682,0.689,0.701,0.710,0.715,0.722,0.730,0.735,0.742,0.750,0.757,0.764,0.771,0.775,0.780,0.784,0.790,0.798,0.802,0.806,0.812,0.818,0.824,0.828,0.832,0.837,0.842,0.846,0.851,0.853,0.859,0.864,0.868,0.873,0.877,0.882,0.884,0.887,0.891,0.894,0.901,0.903,0.905,0.908,0.911,0.915,0.919,0.923,0.927,0.929,0.933,0.936,0.936,0.940,0.946,0.948,0.950,0.955,0.958,0.961,0.965,0.968,0.972,0.974,0.979,0.982,0.986,0.986,0.989,0.991
16,0.051,0.054,0.058,0.061,0.065,0.067,0.072,0.075,0.078,0.080,0.083,0.082,0.087,0.089,0.090,0.094,0.095,0.100,0.103,0.104,0.108,0.112,0.113,0.118,0.123,0.127,0.131,0.135,0.140,0.147,0.150,0.156,0.161,0.166,0.173,0.180,0.188,0.192,0.199,0.203,0.209,0.213,0.219,0.224,0.228,0.235,0.238,0.245,0.247,0.253,0.257,0.261,0.266,0.270,0.275,0.280,0.281,0.287,0.291,0.294,0.299,0.302,0.306,0.308,0.311,0.312,0.314,0.319,0.322,0.326,0.330,0.332,0.335,0.336,0.340,0.342,0.346,0.347,0.349,0.350,0.354,0.356,0.358,0.361,0.361,0.363,0.364,0.368,0.371,0.371,0.371,0.374,0.375,0.377,0.380,0.382,0.383,0.385,0.385,0.389,0.389
17,-0.270,-0.272,-0.277,-0.281,-0.286,-0.289,-0.294,-0.299,-0.306,-0.312,-0.320,-0.322,-0.328,-0.335,-0.344,-0.350,-0.356,-0.364,-0.374,-0.380,-0.388,-0.394,-0.402,-0.410,-0.416,-0.426,-0.432,-0.441,-0.450,-0.456,-0.462,-0.471,-0.477,-0.484,-0.495,-0.500,-0.507,-0.516,-0.517,-0.524,-0.529,-0.537,-0.540,-0.546,-0.555,-0.559,-0.564,-0.572,-0.574,-0.578,-0.581,-0.588,-0.591,-0.597,-0.603,-0.608,-0.611,-0.615,-0.618,-0.622,-0.624,-0.628,-0.633,-0.633,-0.634,-0.639,-0.641,-0.645,-0.646,-0.649,-0.651,-0.654,-0.657,-0.658,-0.660,-0.660,-0.661,-0.664,-0.666,-0.669,-0.672,-0.675,-0.672,-0.673,-0.676,-0.676,-0.678,-0.680,-0.680,-0.682,-0.683,-0.683,-0.684,-0.686,-0.686,-0.686,-0.686,-0.686,-0.687,-0.688,-0.687
18,-0.385,-0.382,-0.381,-0.380,-0.379,-0.379,-0.377,-0.376,-0.376,-0.374,-0.376,-0.373,-0.374,-0.372,-0.372,-0.375,-0.372,-0.371,-0.370,-0.370,-0.369,-0.369,-0.367,-0.367,-0.368,-0.365,-0.365,-0.363,-0.364,-0.363,-0.360,-0.359,-0.359,-0.360,-0.358,-0.356,-0.353,-0.352,-0.351,-0.349,-0.350,-0.348,-0.344,-0.341,-0.340,-0.336,-0.334,-0.333,-0.329,-0.328,-0.326,-0.325,-0.321,-0.319,-0.317,-0.316,-0.312,-0.306,-0.303,-0.302,-0.299,-0.298,-0.296,-0.294,-0.291,-0.291,-0.289,-0.286,-0.284,-0.282,-0.279,-0.273,-0.270,-0.269,-0.264,-0.262,-0.262,-0.257,-0.258,-0.255,-0.252,-0.250,-0.249,-0.245,-0.244,-0.243,-0.242,-0.238,-0.238,-0.235,-0.234,-0.232,-0.231,-0.229,-0.228,-0.226,-0.224,-0.221,-0.218,-0.218,-0.212
19,-0.174,-0.170,-0.164,-0.159,-0.153,-0.146,-0.142,-0.134,-0.128,-0.122,-0.112,-0.105,-0.096,-0.088,-0.080,-0.071,-0.064,-0.057,-0.050,-0.044,-0.038,-0.032,-0.027,-0.020,-0.017,-0.014,-0.010,-0.008,-0.005,-0.002,-0.001,0.001,0.002,0.002,0.001,0.002,0.003,0.003,0.003,0.003,0.003,0.003,-0.000,-0.001,-0.000,0.000,0.001,-0.001,-0.006,-0.005,-0.005,-0.004,-0.006,-0.006,-0.009,-0.010,-0.012,-0.013,-0.015,-0.017,-0.018,-0.017,-0.017,-0.019,-0.021,-0.021,-0.022,-0.020,-0.024,-0.023,-0.024,-0.026,-0.026,-0.028,-0.025,-0.027,-0.029,-0.029,-0.032,-0.033,-0.032,-0.034,-0.034,-0.033,-0.036,-0.037,-0.037,-0.036,-0.039,-0.039,-0.041,-0.043,-0.045,-0.046,-0.047,-0.048,-0.050,-0.051,-0.052,-0.053,-0.053
20,-0.070,-0.067,-0.064,-0.059,-0.055,-0.053,-0.051,-0.047,-0.043,-0.041,-0.038,-0.034,-0.033,-0.028,-0.027,-0.025,-0.025,-0.019,-0.017,-0.015,-0.016,-0.017,-0.014,-0.014,-0.011,-0.010,-0.010,-0.010,-0.007,-0.006,-0.006,-0.006,-0.003,-0.004,-0.002,-0.003,-0.004,-0.002,-0.001,0.003,0.004,0.001,0.004,0.003,0.004,0.003,0.005,0.004,0.003,0.001,0.006,0.005,0.003,0.002,0.002,0.008,0.007,0.006,0.005,0.009,0.007,0.007,0.008,0.008,0.006,0.008,0.007,0.006,0.007,0.007,0.005,0.007,0.007,0.004,0.006,0.007,0.007,0.007,0.006,0.006,0.004,0.006,0.008,0.005,0.006,0.007,0.007,0.004,0.008,0.007,0.007,0.007,0.007,0.008,0.007,0.007,0.006,0.006,0.006,0.006,0.006
21,-0.345,-0.340,-0.337,-0.332,-0.328,-0.326,-0.320,-0.315,-0.309,-0.304,-0.302,-0.298,-0.293,-0.289,-0.282,-0.278,-0.277,-0.273,-0.273,-0.273,-0.268,-0.269,-0.271,-0.267,-0.268,-0.269,-0.271,-0.270,-0.275,-0.276,-0.275,-0.278,-0.282,-0.285,-0.288,-0.291,-0.290,-0.295,-0.295,-0.298,-0.303,-0.305,-0.308,-0.310,-0.311,-0.317,-0.322,-0.323,-0.327,-0.330,-0.330,-0.334,-0.338,-0.342,-0.343,-0.346,-0.349,-0.354,-0.356,-0.358,-0.361,-0.365,-0.366,-0.368,-0.372,-0.373,-0.376,-0.378,-0.383,-0.382,-0.386,-0.390,-0.390,-0.393,-0.394,-0.396,-0.400,-0.400,-0.402,-0.403,-0.406,-0.409,-0.413,-0.415,-0.414,-0.419,-0.419,-0.424,-0.424,-0.425,-0.430,-0.430,-0.433,-0.436,-0.438,-0.440,-0.442,-0.443,-0.444,-0.446,-0.448
22,-0.408,-0.406,-0.399,-0.393,-0.386,-0.382,-0.375,-0.371,-0.366,-0.358,-0.353,-0.346,-0.342,-0.337,-0.332,-0.326,-0.319,-0.317,-0.309,-0.303,-0.294,-0.290,-0.283,-0.277,-0.271,-0.265,-0.262,-0.254,-0.249,-0.241,-0.237,-0.234,-0.231,-0.226,-0.221,-0.218,-0.212,-0.208,-0.205,-0.205,-0.200,-0.195,-0.195,-0.192,-0.190,-0.187,-0.182,-0.181,-0.180,-0.178,-0.175,-0.173,-0.172,-0.170,-0.167,-0.166,-0.161,-0.158,-0.159,-0.156,-0.155,-0.152,-0.152,-0.149,-0.145,-0.146,-0.144,-0.141,-0.141,-0.139,-0.136,-0.135,-0.134,-0.132,-0.128,-0.130,-0.129,-0.128,-0.126,-0.125,-0.120,-0.120,-0.118,-0.116,-0.116,-0.116,-0.115,-0.112,-0.112,-0.110,-0.106,-0.107,-0.105,-0.102,-0.104,-0.104,-0.101,-0.099,-0.099,-0.100,-0.097
23,-0.052,-0.050,-0.046,-0.043,-0.039,-0.035,-0.032,-0.026,-0.020,-0.015,-0.009,-0.008,-0.000,-0.000,0.005,0.007,0.013,0.014,0.019,0.023,0.026,0.028,0.028,0.026,0.030,0.028,0.032,0.031,0.032,0.030,0.028,0.033,0.032,0.035,0.034,0.034,0.030,0.032,0.031,0.029,0.031,0.032,0.031,0.031,0.031,0.033,0.032,0.030,0.031,0.032,0.029,0.030,0.030,0.031,0.029,0.030,0.029,0.030,0.029,0.028,0.030,0.029,0.028,0.028,0.029,0.027,0.027,0.027,0.031,0.029,0.029,0.029,0.027,0.030,0.027,0.028,0.029,0.030,0.031,0.032,0.030,0.031,0.032,0.031,0.032,0.032,0.032,0.033,0.032,0.033,0.031,0.033,0.032,0.030,0.033,0.034,0.032,0.034,0.034,0.033,0.033
24,0.108,0.112,0.120,0.128,0.136,0.144,0.152,0.158,0.167,0.174,0.182,0.188,0.193,0.197,0.202,0.206,0.212,0.214,0.218,0.219,0.219,0.221,0.226,0.228,0.225,0.229,0.229,0.229,0.235,0.233,0.233,0.238,0.237,0.237,0.236,0.239,0.239,0.240,0.239,0.242,0.241,0.243,0.241,0.242,0.245,0.245,0.246,0.248,0.251,0.250,0.250,0.249,0.253,0.254,0.254,0.253,0.253,0.252,0.257,0.254,0.253,0.254,0.256,0.254,0.256,0.257,0.259,0.260,0.259,0.258,0.260,0.260,0.261,0.262,0.261,0.262,0.262,0.259,0.263,0.262,0.262,0.262,0.262,0.261,0.261,0.266,0.262,0.263,0.263,0.263,0.263,0.263,0.263,0.262,0.262,0.263,0.265,0.264,0.262,0.264,0.264
25,0.274,0.262,0.247,0.232,0.217,0.203,0.188,0.173,0.158,0.145,0.131,0.117,0.105,0.092,0.081,0.072,0.059,0.050,0.038,0.029,0.018,0.009,-0.001,-0.012,-0.019,-0.030,-0.035,-0.043,-0.050,-0.057,-0.062,-0.068,-0.076,-0.078,-0.083,-0.091,-0.096,-0.100,-0.106,-0.109,-0.116,-0.118,-0.120,-0.122,-0.127,-0.133,-0.137,-0.139,-0.141,-0.146,-0.147,-0.152,-0.154,-0.158,-0.161,-0.164,-0.169,-0.169,-0.172,-0.176,-0.178,-0.180,-0.182,-0.184,-0.189,-0.189,-0.192,-0.196,-0.200,-0.202,-0.205,-0.208,-0.211,-0.213,-0.215,-0.219,-0.221,-0.222,-0.225,-0.227,-0.231,-0.234,-0.236,-0.243,-0.243,-0.246,-0.245,-0.248,-0.251,-0.254,-0.253,-0.256,-0.256,-0.258,-0.261,-0.264,-0.264,-0.267,-0.271,-0.273,-0.276
26,0.316,0.326,0.335,0.342,0.350,0.357,0.362,0.365,0.368,0.367,0.371,0.371,0.376,0.378,0.376,0.379,0.381,0.383,0.383,0.388,0.388,0.392,0.392,0.393,0.399,0.397,0.400,0.399,0.401,0.402,0.404,0.403,0.404,0.406,0.407,0.410,0.410,0.409,0.411,0.410,0.412,0.413,0.414,0.415,0.415,0.417,0.417,0.419,0.417,0.422,0.420,0.420,0.420,0.420,0.421,0.421,0.420,0.424,0.424,0.421,0.425,0.424,0.425,0.426,0.427,0.425,0.425,0.427,0.426,0.426,0.426,0.427,0.427,0.427,0.427,0.426,0.429,0.428,0.428,0.427,0.428,0.427,0.427,0.428,0.428,0.428,0.428,0.429,0.429,0.427,0.427,0.427,0.427,0.427,0.430,0.430,0.431,0.429,0.429,0.429,0.427
27,-0.079,-0.090,-0.106,-0.118,-0.133,-0.144,-0.157,-0.167,-0.181,-0.193,-0.205,-0.217,-0.229,-0.239,-0.251,-0.263,-0.273,-0.285,-0.293,-0.303,-0.313,-0.321,-0.332,-0.339,-0.346,-0.350,-0.359,-0.365,-0.369,-0.373,-0.379,-0.388,-0.386,-0.390,-0.393,-0.398,-0.399,-0.403,-0.404,-0.406,-0.409,-0.413,-0.413,-0.416,-0.422,-0.424,-0.425,-0.426,-0.426,-0.429,-0.430,-0.430,-0.431,-0.431,-0.435,-0.438,-0.439,-0.441,-0.441,-0.442,-0.443,-0.443,-0.444,-0.445,-0.446,-0.445,-0.445,-0.449,-0.448,-0.450,-0.452,-0.452,-0.452,-0.453,-0.453,-0.452,-0.454,-0.453,-0.456,-0.456,-0.458,-0.456,-0.457,-0.456,-0.458,-0.456,-0.457,-0.457,-0.457,-0.458,-0.459,-0.458,-0.458,-0.459,-0.459,-0.460,-0.458,-0.458,-0.455,-0.455,-0.457
28,0.242,0.245,0.245,0.245,0.245,0.247,0.250,0.254,0.254,0.255,0.255,0.259,0.258,0.261,0.263,0.263,0.264,0.268,0.267,0.269,0.271,0.276,0.280,0.283,0.283,0.289,0.293,0.295,0.294,0.299,0.303,0.306,0.309,0.310,0.314,0.317,0.321,0.325,0.324,0.328,0.329,0.331,0.335,0.338,0.339,0.343,0.344,0.347,0.351,0.354,0.354,0.357,0.361,0.364,0.366,0.364,0.369,0.371,0.373,0.376,0.376,0.380,0.381,0.382,0.382,0.385,0.386,0.386,0.389,0.393,0.395,0.396,0.398,0.397,0.399,0.402,0.402,0.404,0.403,0.404,0.407,0.408,0.408,0.413,0.413,0.412,0.415,0.417,0.416,0.418,0.420,0.422,0.424,0.426,0.426,0.427,0.427,0.427,0.430,0.431,0.434
29,-0.388,-0.402,-0.420,-0.438,-0.456,-0.474,-0.492,-0.511,-0.528,-0.544,-0.560,-0.575,-0.590,-0.606,-0.620,-0.635,-0.651,-0.666,-0.680,-0.695,-0.709,-0.722,-0.737,-0.749,-0.762,-0.775,-0.788,-0.798,-0.809,-0.819,-0.831,-0.840,-0.848,-0.857,-0.867,-0.873,-0.883,-0.890,-0.896,-0.903,-0.908,-0.914,-0.920,-0.926,-0.933,-0.936,-0.939,-0.945,-0.951,-0.955,-0.959,-0.961,-0.966,-0.969,-0.973,-0.976,-0.979,-0.985,-0.988,-0.988,-0.990,-0.993,-0.998,-1.000,-1.002,-1.004,-1.006,-1.008,-1.012,-1.012,-1.013,-1.016,-1.017,-1.018,-1.018,-1.023,-1.022,-1.024,-1.025,-1.027,-1.025,-1.029,-1.029,-1.029,-1.030,-1.032,-1.032,-1.034,-1.033,-1.034,-1.034,-1.037,-1.038,-1.036,-1.037,-1.037,-1.041,-1.040,-1.038,-1.038,-1.039
30,0.417,0.408,0.401,0.393,0.386,0.380,0.373,0.369,0.364,0.359,0.356,0.352,0.348,0.344,0.339,0.335,0.332,0.329,0.326,0.321,0.317,0.313,0.310,0.307,0.304,0.301,0.298,0.295,0.291,0.287,0.285,0.282,0.278,0.274,0.271,0.268,0.265,0.262,0.259,0.257,0.253,0.250,0.247,0.244,0.242,0.238,0.236,0.233,0.229,0.225,0.223,0.219,0.216,0.212,0.210,0.206,0.203,0.200,0.197,0.194,0.191,0.187,0.183,0.181,0.175,0.172,0.167,0.163,0.160,0.155,0.152,0.148,0.145,0.141,0.136,0.132,0.128,0.123,0.120,0.116,0.111,0.106,0.102,0.097,0.093,0.086,0.082,0.078,0.071,0.065,0.057,0.052,0.045,0.036,0.029,0.020,0.011,0.002,-0.002,-0.014,-0.025
31,-0.392,-0.392,-0.396,-0.400,-0.404,-0.408,-0.413,-0.417,-0.420,-0.424,-0.427,-0.431,-0.434,-0.438,-0.442,-0.446,-0.449,-0.453,-0.456,-0.461,-0.466,-0.469,-0.473,-0.476,-0.479,-0.483,-0.486,-0.489,-0.494,-0.498,-0.501,-0.504,-0.508,-0.512,-0.515,-0.518,-0.522,-0.524,-0.528,-0.530,-0.534,-0.537,-0.540,-0.543,-0.545,-0.549,-0.551,-0.553,-0.558,-0.561,-0.563,-0.567,-0.570,-0.574,-0.576,-0.579,-0.582,-0.584,-0.588,-0.590,-0.593,-0.596,-0.599,-0.601,-0.606,-0.608,-0.612,-0.616,-0.618,-0.622,-0.624,-0.627,-0.630,-0.633,-0.637,-0.639,-0.642,-0.647,-0.649,-0.653,-0.657,-0.660,-0.663,-0.667,-0.670,-0.675,-0.678,-0.681,-0.687,-0.691,-0.696,-0.700,-0.705,-0.711,-0.715,-0.722,-0.728,-0.734,-0.737,-0.745,-0.754
32,0.132,0.125,0.119,0.112,0.106,0.102,0.095,0.091,0.086,0.082,0.078,0.074,0.070,0.065,0.061,0.056,0.053,0.049,0.046,0.041,0.036,0.032,0.028,0.025,0.021,0.018,0.014,0.010,0.005,0.001,-0.002,-0.006,-0.011,-0.015,-0.020,-0.023,-0.028,-0.031,-0.035,-0.039,-0.043,-0.047,-0.052,-0.056,-0.059,-0.064,-0.067,-0.071,-0.077,-0.081,-0.085,-0.090,-0.094,-0.099,-0.102,-0.107,-0.111,-0.115,-0.120,-0.124,-0.128,-0.133,-0.139,-0.141,-0.149,-0.152,-0.158,-0.164,-0.168,-0.174,-0.177,-0.183,-0.187,-0.192,-0.199,-0.203,-0.208,-0.215,-0.219,-0.225,-0.232,-0.237,-0.242,-0.248,-0.253,-0.262,-0.266,-0.271,-0.280,-0.286,-0.295,-0.302,-0.310,-0.320,-0.328,-0.337,-0.346,-0.355,-0.358,-0.368,-0.377
33,-0.285,-0.284,-0.283,-0.283,-0.282,-0.284,-0.287,-0.289,-0.292,-0.295,-0.298,-0.300,-0.303,-0.307,-0.310,-0.313,-0.315,-0.319,-0.321,-0.325,-0.328,-0.332,-0.334,-0.337,-0.340,-0.342,-0.345,-0.348,-0.351,-0.354,-0.356,-0.359,-0.362,-0.365,-0.368,-0.370,-0.373,-0.375,-0.377,-0.379,-0.382,-0.384,-0.387,-0.389,-0.391,-0.393,-0.395,-0.397,-0.400,-0.402,-0.404,-0.406,-0.408,-0.410,-0.412,-0.414,-0.415,-0.417,-0.419,-0.421,-0.422,-0.424,-0.426,-0.427,-0.430,-0.431,-0.433,-0.435,-0.437,-0.439,-0.440,-0.442,-0.443,-0.445,-0.447,-0.449,-0.450,-0.452,-0.454,-0.456,-0.458,-0.460,-0.461,-0.463,-0.465,-0.467,-0.468,-0.470,-0.473,-0.475,-0.477,-0.479,-0.481,-0.484,-0.486,-0.489,-0.492,-0.494,-0.495,-0.499,-0.498
34,0.006,-0.002,-0.010,-0.018,-0.026,-0.031,-0.039,-0.043,-0.048,-0.053,-0.056,-0.060,-0.065,-0.069,-0.074,-0.078,-0.082,-0.086,-0.089,-0.094,-0.099,-0.103,-0.107,-0.110,-0.114,-0.117,-0.121,-0.124,-0.129,-0.133,-0.136,-0.140,-0.144,-0.148,-0.152,-0.155,-0.159,-0.162,-0.165,-0.168,-0.172,-0.176,-0.180,-0.184,-0.186,-0.190,-0.193,-0.196,-0.201,-0.204,-0.207,-0.211,-0.215,-0.219,-0.222,-0.226,-0.229,-0.232,-0.236,-0.239,-0.242,-0.246,-0.250,-0.252,-0.257,-0.260,-0.264,-0.269,-0.272,-0.276,-0.279,-0.283,-0.286,-0.290,-0.295,-0.298,-0.302,-0.307,-0.310,-0.314,-0.319,-0.323,-0.327,-0.331,-0.335,-0.341,-0.345,-0.348,-0.355,-0.360,-0.367,-0.372,-0.378,-0.386,-0.391,-0.399,-0.407,-0.415,-0.418,-0.428,-0.437
35,-0.386,-0.379,-0.375,-0.369,-0.364,-0.360,-0.355,-0.352,-0.348,-0.344,-0.342,-0.338,-0.336,-0.333,-0.330,-0.327,-0.324,-0.322,-0.320,-0.315,-0.312,-0.310,-0.307,-0.305,-0.303,-0.301,-0.298,-0.296,-0.293,-0.291,-0.288,-0.286,-0.284,-0.281,-0.279,-0.277,-0.275,-0.273,-0.271,-0.269,-0.266,-0.264,-0.262,-0.260,-0.258,-0.256,-0.254,-0.253,-0.249,-0.246,-0.245,-0.242,-0.240,-0.237,-0.237,-0.234,-0.231,-0.229,-0.227,-0.225,-0.224,-0.221,-0.219,-0.218,-0.214,-0.211,-0.207,-0.205,-0.204,-0.201,-0.199,-0.197,-0.195,-0.192,-0.190,-0.188,-0.187,-0.183,-0.181,-0.178,-0.176,-0.174,-0.171,-0.169,-0.167,-0.164,-0.161,-0.160,-0.156,-0.152,-0.149,-0.148,-0.146,-0.140,-0.136,-0.131,-0.126,-0.121,-0.118,-0.112,-0.105
36,-0.272,-0.271,-0.268,-0.266,-0.263,-0.261,-0.257,-0.254,-0.252,-0.249,-0.247,-0.245,-0.241,-0.238,-0.235,-0.232,-0.230,-0.226,-0.224,-0.222,-0.219,-0.216,-0.214,-0.212,-0.210,-0.207,-0.205,-0.202,-0.200,-0.197,-0.195,-0.193,-0.190,-0.188,-0.185,-0.183,-0.181,-0.179,-0.177,-0.175,-0.173,-0.171,-0.168,-0.166,-0.165,-0.162,-0.161,-0.158,-0.156,-0.154,-0.152,-0.151,-0.148,-0.146,-0.144,-0.141,-0.141,-0.139,-0.136,-0.134,-0.132,-0.130,-0.127,-0.126,-0.123,-0.122,-0.120,-0.116,-0.114,-0.111,-0.110,-0.108,-0.105,-0.104,-0.099,-0.097,-0.094,-0.091,-0.090,-0.088,-0.084,-0.080,-0.079,-0.076,-0.072,-0.067,-0.066,-0.062,-0.058,-0.055,-0.050,-0.045,-0.040,-0.036,-0.033,-0.028,-0.024,-0.019,-0.018,-0.011,-0.007
37,-0.335,-0.337,-0.341,-0.346,-0.350,-0.354,-0.360,-0.364,-0.367,-0.371,-0.374,-0.377,-0.380,-0.383,-0.387,-0.390,-0.392,-0.395,-0.397,-0.401,-0.404,-0.406,-0.409,-0.411,-0.413,-0.414,-0.416,-0.418,-0.420,-0.422,-0.424,-0.425,-0.427,-0.429,-0.430,-0.432,-0.433,-0.434,-0.436,-0.437,-0.438,-0.440,-0.441,-0.443,-0.443,-0.445,-0.446,-0.447,-0.449,-0.450,-0.451,-0.452,-0.453,-0.454,-0.455,-0.456,-0.457,-0.458,-0.459,-0.460,-0.461,-0.462,-0.463,-0.464,-0.466,-0.467,-0.469,-0.470,-0.471,-0.472,-0.473,-0.474,-0.475,-0.476,-0.478,-0.479,-0.480,-0.481,-0.482,-0.483,-0.484,-0.485,-0.487,-0.488,-0.489,-0.491,-0.492,-0.493,-0.495,-0.497,-0.499,-0.500,-0.502,-0.504,-0.506,-0.509,-0.512,-0.514,-0.516,-0.520,-0.525
38,0.058,0.050,0.043,0.036,0.029,0.024,0.018,0.014,0.009,0.005,0.002,-0.002,-0.005,-0.009,-0.013,-0.017,-0.019,-0.023,-0.025,-0.029,-0.033,-0.036,-0.039,-0.042,-0.045,-0.048,-0.050,-0.053,-0.057,-0.060,-0.062,-0.065,-0.068,-0.072,-0.074,-0.077,-0.080,-0.082,-0.085,-0.087,-0.090,-0.093,-0.096,-0.099,-0.100,-0.104,-0.106,-0.108,-0.112,-0.115,-0.117,-0.120,-0.123,-0.126,-0.128,-0.131,-0.133,-0.136,-0.139,-0.141,-0.144,-0.147,-0.150,-0.152,-0.156,-0.158,-0.161,-0.165,-0.167,-0.171,-0.173,-0.176,-0.179,-0.182,-0.186,-0.188,-0.192,-0.196,-0.198,-0.201,-0.205,-0.209,-0.212,-0.215,-0.219,-0.224,-0.227,-0.230,-0.236,-0.240,-0.245,-0.250,-0.255,-0.261,-0.266,-0.272,-0.278,-0.285,-0.287,-0.296,-0.304
39,0.066,0.057,0.049,0.041,0.033,0.027,0.020,0.015,0.011,0.006,0.002,-0.001,-0.005,-0.010,-0.015,-0.019,-0.022,-0.026,-0.029,-0.034,-0.039,-0.042,-0.045,-0.048,-0.051,-0.054,-0.057,-0.059,-0.063,-0.066,-0.068,-0.070,-0.073,-0.076,-0.079,-0.081,-0.084,-0.086,-0.088,-0.090,-0.093,-0.095,-0.097,-0.099,-0.100,-0.103,-0.105,-0.107,-0.110,-0.113,-0.115,-0.118,-0.120,-0.123,-0.124,-0.127,-0.129,-0.131,-0.134,-0.136,-0.137,-0.140,-0.143,-0.144,-0.148,-0.150,-0.153,-0.156,-0.158,-0.161,-0.163,-0.165,-0.167,-0.170,-0.173,-0.175,-0.177,-0.181,-0.183,-0.186,-0.189,-0.192,-0.194,-0.197,-0.200,-0.204,-0.207,-0.208,-0.214,-0.218,-0.223,-0.226,-0.230,-0.237,-0.242,-0.250,-0.259,-0.267,-0.274,-0.287,-0.299
40,-0.011,-0.023,-0.034,-0.045,-0.056,-0.066,-0.075,-0.084,-0.092,-0.102,-0.113,-0.125,-0.139,-0.155,-0.170,-0.187,-0.204,-0.220,-0.235,-0.250,-0.265,-0.278,-0.291,-0.303,-0.316,-0.328,-0.340,-0.351,-0.363,-0.374,-0.385,-0.396,-0.407,-0.419,-0.431,-0.443,-0.455,-0.469,-0.482,-0.496,-0.510,-0.523,-0.537,-0.550,-0.566,-0.582,-0.599,-0.616,-0.635,-0.654,-0.668,-0.684,-0.700,-0.716,-0.728,-0.737,-0.754,-0.762,-0.775,-0.779,-0.789,-0.800,-0.810,-0.819,-0.828,-0.833,-0.841,-0.850,-0.860,-0.870,-0.878,-0.884,-0.889,-0.898,-0.903,-0.911,-0.919,-0.926,-0.934,-0.941,-0.949,-0.953,-0.960,-0.967,-0.972,-0.978,-0.984,-0.993,-0.999,-1.005,-1.011,-1.016,-1.022,-1.028,-1.034,-1.040,-1.044,-1.048,-1.053,-1.059,-1.060
41,0.316,0.305,0.293,0.283,0.272,0.262,0.253,0.245,0.236,0.227,0.215,0.204,0.190,0.174,0.157,0.140,0.123,0.106,0.090,0.074,0.060,0.045,0.031,0.019,0.006,-0.006,-0.017,-0.026,-0.036,-0.043,-0.050,-0.055,-0.058,-0.062,-0.059,-0.054,-0.048,-0.035,-0.025,-0.017,-0.003,0.006,0.017,0.027,0.045,0.060,0.075,0.099,0.118,0.138,0.155,0.171,0.191,0.208,0.223,0.241,0.261,0.278,0.290,0.308,0.325,0.341,0.356,0.372,0.387,0.401,0.416,0.430,0.440,0.456,0.470,0.483,0.496,0.509,0.524,0.536,0.549,0.564,0.575,0.589,0.600,0.612,0.622,0.636,0.648,0.659,0.671,0.679,0.691,0.704,0.715,0.724,0.734,0.744,0.756,0.766,0.776,0.786,0.796,0.806,0.818
42,0.335,0.324,0.312,0.303,0.292,0.282,0.273,0.264,0.255,0.245,0.233,0.221,0.207,0.190,0.174,0.157,0.140,0.124,0.109,0.094,0.081,0.067,0.057,0.045,0.036,0.028,0.017,0.011,0.005,-0.002,-0.009,-0.014,-0.019,-0.024,-0.030,-0.034,-0.039,-0.046,-0.051,-0.056,-0.062,-0.066,-0.071,-0.075,-0.080,-0.084,-0.088,-0.096,-0.105,-0.112,-0.121,-0.132,-0.140,-0.150,-0.160,-0.169,-0.181,-0.196,-0.204,-0.212,-0.222,-0.234,-0.246,-0.255,-0.266,-0.278,-0.289,-0.300,-0.306,-0.315,-0.328,-0.335,-0.344,-0.354,-0.362,-0.370,-0.380,-0.389,-0.396,-0.404,-0.412,-0.418,-0.426,-0.436,-0.445,-0.451,-0.458,-0.466,-0.472,-0.480,-0.488,-0.494,-0.501,-0.508,-0.516,-0.526,-0.530,-0.537,-0.544,-0.552,-0.559
43,-0.160,-0.169,-0.180,-0.191,-0.202,-0.213,-0.222,-0.232,-0.241,-0.251,-0.264,-0.276,-0.290,-0.304,-0.316,-0.328,-0.337,-0.348,-0.359,-0.368,-0.375,-0.382,-0.389,-0.395,-0.399,-0.405,-0.407,-0.409,-0.415,-0.417,-0.420,-0.423,-0.425,-0.428,-0.429,-0.425,-0.425,-0.431,-0.433,-0.430,-0.430,-0.432,-0.432,-0.433,-0.433,-0.433,-0.436,-0.443,-0.445,-0.444,-0.444,-0.447,-0.449,-0.452,-0.451,-0.457,-0.455,-0.458,-0.458,-0.462,-0.466,-0.469,-0.472,-0.473,-0.478,-0.482,-0.487,-0.485,-0.486,-0.488,-0.492,-0.496,-0.498,-0.500,-0.506,-0.510,-0.510,-0.515,-0.516,-0.520,-0.524,-0.525,-0.525,-0.529,-0.533,-0.535,-0.538,-0.538,-0.544,-0.546,-0.546,-0.547,-0.547,-0.549,-0.554,-0.554,-0.556,-0.560,-0.564,-0.567,-0.571
44,-0.173,-0.185,-0.196,-0.206,-0.217,-0.227,-0.235,-0.244,-0.253,-0.262,-0.274,-0.285,-0.299,-0.314,-0.329,-0.344,-0.359,-0.374,-0.389,-0.402,-0.415,-0.428,-0.440,-0.451,-0.463,-0.473,-0.484,-0.494,-0.504,-0.513,-0.521,-0.531,-0.540,-0.549,-0.560,-0.567,-0.577,-0.587,-0.597,-0.607,-0.615,-0.623,-0.633,-0.642,-0.646,-0.655,-0.664,-0.671,-0.680,-0.692,-0.702,-0.710,-0.719,-0.727,-0.732,-0.739,-0.747,-0.756,-0.759,-0.763,-0.766,-0.775,-0.774,-0.780,-0.785,-0.786,-0.790,-0.790,-0.795,-0.798,-0.799,-0.806,-0.808,-0.808,-0.815,-0.817,-0.818,-0.825,-0.827,-0.832,-0.834,-0.840,-0.841,-0.843,-0.841,-0.843,-0.849,-0.849,-0.854,-0.856,-0.858,-0.859,-0.861,-0.865,-0.867,-0.867,-0.869,-0.873,-0.873,-0.875,-0.877
45,-0.354,-0.353,-0.351,-0.349,-0.347,-0.345,-0.344,-0.341,-0.341,-0.339,-0.336,-0.335,-0.333,-0.334,-0.334,-0.333,-0.335,-0.334,-0.335,-0.338,-0.344,-0.345,-0.350,-0.357,-0.358,-0.364,-0.365,-0.372,-0.373,-0.377,-0.381,-0.385,-0.389,-0.391,-0.393,-0.399,-0.403,-0.403,-0.408,-0.412,-0.414,-0.419,-0.420,-0.424,-0.427,-0.432,-0.436,-0.437,-0.441,-0.445,-0.447,-0.452,-0.455,-0.459,-0.462,-0.466,-0.468,-0.469,-0.473,-0.472,-0.475,-0.478,-0.480,-0.483,-0.486,-0.492,-0.496,-0.498,-0.499,-0.502,-0.505,-0.503,-0.506,-0.508,-0.510,-0.511,-0.515,-0.513,-0.515,-0.514,-0.518,-0.518,-0.519,-0.521,-0.521,-0.524,-0.522,-0.522,-0.523,-0.524,-0.523,-0.524,-0.524,-0.525,-0.524,-0.525,-0.525,-0.526,-0.528,-0.526,-0.527
46,0.272,0.260,0.248,0.236,0.224,0.213,0.203,0.192,0.182,0.172,0.158,0.146,0.131,0.114,0.099,0.083,0.067,0.053,0.039,0.027,0.015,0.004,-0.007,-0.017,-0.027,-0.036,-0.046,-0.054,-0.064,-0.074,-0.080,-0.089,-0.097,-0.108,-0.117,-0.125,-0.133,-0.143,-0.151,-0.159,-0.168,-0.177,-0.185,-0.194,-0.204,-0.212,-0.222,-0.234,-0.239,-0.246,-0.255,-0.261,-0.272,-0.280,-0.285,-0.287,-0.297,-0.296,-0.299,-0.308,-0.310,-0.315,-0.318,-0.322,-0.327,-0.332,-0.337,-0.342,-0.347,-0.350,-0.350,-0.351,-0.355,-0.358,-0.363,-0.364,-0.369,-0.373,-0.373,-0.376,-0.380,-0.384,-0.385,-0.387,-0.392,-0.394,-0.398,-0.397,-0.400,-0.403,-0.407,-0.411,-0.415,-0.414,-0.415,-0.418,-0.419,-0.422,-0.426,-0.428,-0.431
47,-0.205,-0.207,-0.211,-0.213,-0.216,-0.220,-0.224,-0.227,-0.231,-0.237,-0.244,-0.250,-0.261,-0.271,-0.279,-0.290,-0.298,-0.309,-0.321,-0.332,-0.345,-0.352,-0.364,-0.375,-0.386,-0.393,-0.404,-0.409,-0.418,-0.426,-0.433,-0.441,-0.448,-0.454,-0.460,-0.468,-0.473,-0.479,-0.479,-0.485,-0.487,-0.493,-0.495,-0.500,-0.506,-0.506,-0.509,-0.507,-0.503,-0.503,-0.503,-0.501,-0.499,-0.497,-0.497,-0.498,-0.497,-0.495,-0.493,-0.494,-0.495,-0.491,-0.489,-0.491,-0.489,-0.487,-0.485,-0.484,-0.481,-0.483,-0.484,-0.484,-0.484,-0.483,-0.483,-0.480,-0.480,-0.482,-0.483,-0.485,-0.485,-0.485,-0.485,-0.485,-0.486,-0.485,-0.485,-0.486,-0.487,-0.489,-0.490,-0.488,-0.488,-0.488,-0.489,-0.491,-0.490,-0.490,-0.491,-0.491,-0.493
48,-0.287,-0.298,-0.309,-0.319,-0.330,-0.339,-0.347,-0.355,-0.364,-0.373,-0.384,-0.395,-0.408,-0.424,-0.439,-0.455,-0.469,-0.484,-0.498,-0.512,-0.524,-0.535,-0.547,-0.558,-0.568,-0.578,-0.588,-0.598,-0.607,-0.616,-0.624,-0.632,-0.641,-0.648,-0.657,-0.665,-0.676,-0.686,-0.697,-0.708,-0.720,-0.731,-0.743,-0.754,-0.767,-0.782,-0.798,-0.817,-0.837,-0.855,-0.877,-0.893,-0.909,-0.925,-0.944,-0.962,-0.977,-0.992,-1.008,-1.023,-1.039,-1.051,-1.065,-1.079,-1.088,-1.100,-1.110,-1.123,-1.131,-1.144,-1.153,-1.162,-1.172,-1.185,-1.194,-1.201,-1.212,-1.221,-1.231,-1.240,-1.248,-1.258,-1.268,-1.275,-1.285,-1.296,-1.304,-1.313,-1.321,-1.327,-1.335,-1.345,-1.354,-1.362,-1.370,-1.378,-1.385,-1.394,-1.398,-1.407,-1.413
49,-0.081,-0.069,-0.058,-0.048,-0.037,-0.027,-0.018,-0.009,-0.000,0.010,0.022,0.034,0.049,0.066,0.081,0.098,0.114,0.130,0.146,0.162,0.178,0.190,0.205,0.219,0.231,0.243,0.255,0.265,0.276,0.286,0.296,0.306,0.316,0.325,0.333,0.342,0.350,0.358,0.365,0.373,0.378,0.387,0.392,0.400,0.407,0.412,0.419,0.421,0.424,0.427,0.431,0.435,0.438,0.442,0.444,0.448,0.450,0.450,0.453,0.453,0.455,0.456,0.457,0.460,0.461,0.465,0.467,0.465,0.465,0.468,0.471,0.469,0.470,0.471,0.473,0.471,0.473,0.473,0.473,0.473,0.476,0.474,0.475,0.474,0.475,0.475,0.472,0.473,0.475,0.474,0.473,0.472,0.471,0.472,0.471,0.470,0.468,0.468,0.471,0.470,0.468
50,0.178,0.186,0.190,0.193,0.197,0.198,0.197,0.198,0.199,0.200,0.200,0.203,0.202,0.205,0.204,0.205,0.204,0.207,0.208,0.208,0.207,0.206,0.208,0.207,0.209,0.210,0.209,0.210,0.211,0.212,0.211,0.211,0.213,0.212,0.214,0.213,0.211,0.213,0.214,0.217,0.218,0.214,0.217,0.215,0.216,0.215,0.216,0.216,0.214,0.212,0.216,0.215,0.213,0.212,0.211,0.217,0.216,0.214,0.213,0.216,0.214,0.215,0.215,0.214,0.212,0.214,0.213,0.212,0.213,0.212,0.211,0.212,0.212,0.209,0.210,0.211,0.211,0.211,0.210,0.210,0.208,0.210,0.211,0.208,0.208,0.209,0.209,0.206,0.209,0.208,0.207,0.207,0.206,0.207,0.206,0.205,0.204,0.204,0.204,0.203,0.203
51,-0.380,-0.370,-0.361,-0.353,-0.344,-0.340,-0.334,-0.329,-0.324,-0.320,-0.317,-0.315,-0.310,-0.306,-0.303,-0.301,-0.301,-0.298,-0.298,-0.299,-0.296,-0.299,-0.302,-0.300,-0.303,-0.305,-0.308,-0.308,-0.312,-0.314,-0.315,-0.319,-0.323,-0.326,-0.330,-0.334,-0.334,-0.339,-0.340,-0.344,-0.349,-0.353,-0.356,-0.360,-0.361,-0.366,-0.370,-0.371,-0.375,-0.377,-0.378,-0.381,-0.383,-0.386,-0.387,-0.389,-0.391,-0.395,-0.397,-0.398,-0.401,-0.403,-0.403,-0.404,-0.407,-0.407,-0.409,-0.410,-0.414,-0.412,-0.414,-0.416,-0.416,-0.417,-0.417,-0.418,-0.420,-0.418,-0.419,-0.418,-0.420,-0.421,-0.423,-0.423,-0.421,-0.424,-0.422,-0.425,-0.424,-0.423,-0.426,-0.425,-0.427,-0.428,-0.428,-0.428,-0.428,-0.427,-0.427,-0.427,-0.426
52,0.407,0.398,0.395,0.392,0.389,0.386,0.385,0.382,0.380,0.381,0.379,0.380,0.377,0.377,0.376,0.376,0.377,0.374,0.375,0.376,0.381,0.381,0.384,0.386,0.387,0.389,0.389,0.393,0.395,0.398,0.400,0.401,0.401,0.404,0.406,0.407,0.410,0.412,0.413,0.412,0.414,0.417,0.416,0.418,0.418,0.419,0.422,0.422,0.422,0.422,0.423,0.424,0.423,0.423,0.425,0.425,0.427,0.429,0.427,0.429,0.429,0.430,0.429,0.431,0.434,0.431,0.432,0.433,0.432,0.433,0.434,0.434,0.433,0.434,0.436,0.434,0.434,0.434,0.435,0.435,0.438,0.438,0.438,0.440,0.438,0.437,0.437,0.439,0.437,0.439,0.441,0.439,0.440,0.442,0.439,0.437,0.439,0.440,0.439,0.438,0.439
53,-0.209,-0.205,-0.198,-0.194,-0.188,-0.181,-0.176,-0.169,-0.163,-0.158,-0.151,-0.147,-0.141,-0.138,-0.132,-0.129,-0.123,-0.120,-0.116,-0.112,-0.108,-0.104,-0.103,-0.102,-0.098,-0.099,-0.094,-0.094,-0.092,-0.093,-0.093,-0.089,-0.088,-0.085,-0.085,-0.084,-0.086,-0.084,-0.085,-0.086,-0.083,-0.082,-0.082,-0.081,-0.082,-0.079,-0.080,-0.082,-0.081,-0.080,-0.082,-0.081,-0.080,-0.079,-0.080,-0.079,-0.081,-0.079,-0.081,-0.081,-0.080,-0.081,-0.082,-0.082,-0.082,-0.083,-0.083,-0.084,-0.080,-0.083,-0.084,-0.084,-0.086,-0.084,-0.087,-0.086,-0.086,-0.085,-0.086,-0.086,-0.088,-0.087,-0.087,-0.089,-0.089,-0.089,-0.090,-0.089,-0.091,-0.091,-0.093,-0.092,-0.093,-0.096,-0.094,-0.093,-0.095,-0.094,-0.095,-0.097,-0.097
54,0.236,0.241,0.247,0.253,0.259,0.264,0.269,0.272,0.277,0.282,0.286,0.290,0.293,0.295,0.298,0.301,0.305,0.305,0.308,0.309,0.308,0.310,0.314,0.315,0.313,0.317,0.317,0.318,0.322,0.321,0.321,0.325,0.325,0.326,0.326,0.328,0.329,0.330,0.331,0.333,0.333,0.335,0.334,0.335,0.339,0.339,0.341,0.342,0.346,0.346,0.346,0.346,0.350,0.351,0.352,0.352,0.353,0.351,0.357,0.355,0.354,0.356,0.358,0.357,0.359,0.360,0.362,0.363,0.363,0.362,0.365,0.365,0.367,0.368,0.367,0.368,0.369,0.366,0.370,0.369,0.370,0.370,0.370,0.370,0.370,0.375,0.371,0.373,0.373,0.373,0.374,0.374,0.375,0.374,0.374,0.375,0.377,0.377,0.375,0.377,0.377
55,-0.187,-0.200,-0.211,-0.221,-0.232,-0.240,-0.248,-0.255,-0.262,-0.268,-0.275,-0.280,-0.285,-0.291,-0.295,-0.297,-0.303,-0.306,-0.310,-0.312,-0.318,-0.320,-0.324,-0.329,-0.330,-0.334,-0.335,-0.338,-0.341,-0.343,-0.345,-0.348,-0.352,-0.352,-0.353,-0.357,-0.359,-0.360,-0.364,-0.364,-0.367,-0.368,-0.369,-0.370,-0.373,-0.376,-0.377,-0.377,-0.379,-0.382,-0.382,-0.385,-0.385,-0.387,-0.389,-0.390,-0.392,-0.391,-0.394,-0.394,-0.396,-0.396,-0.397,-0.399,-0.402,-0.402,-0.404,-0.406,-0.407,-0.409,-0.411,-0.411,-0.413,-0.414,-0.415,-0.417,-0.419,-0.418,-0.419,-0.419,-0.421,-0.423,-0.423,-0.429,-0.426,-0.429,-0.427,-0.429,-0.430,-0.431,-0.429,-0.431,-0.430,-0.431,-0.433,-0.434,-0.434,-0.435,-0.438,-0.438,-0.439
56,0.363,0.370,0.375,0.379,0.384,0.387,0.390,0.390,0.391,0.391,0.392,0.391,0.394,0.395,0.394,0.396,0.397,0.399,0.399,0.403,0.403,0.407,0.408,0.409,0.415,0.414,0.417,0.417,0.420,0.422,0.424,0.425,0.427,0.429,0.431,0.434,0.435,0.436,0.439,0.439,0.442,0.444,0.446,0.448,0.449,0.452,0.453,0.457,0.455,0.460,0.459,0.462,0.463,0.465,0.467,0.469,0.469,0.473,0.475,0.472,0.477,0.477,0.479,0.481,0.483,0.483,0.484,0.487,0.487,0.488,0.490,0.491,0.493,0.494,0.495,0.496,0.498,0.499,0.500,0.501,0.502,0.503,0.504,0.506,0.507,0.508,0.509,0.511,0.512,0.511,0.512,0.513,0.514,0.515,0.519,0.520,0.522,0.521,0.522,0.522,0.522
57,0.093,0.083,0.073,0.065,0.056,0.050,0.043,0.039,0.032,0.028,0.021,0.015,0.008,0.003,-0.002,-0.010,-0.014,-0.020,-0.024,-0.029,-0.034,-0.038,-0.044,-0.049,-0.053,-0.055,-0.060,-0.063,-0.066,-0.067,-0.070,-0.076,-0.074,-0.076,-0.078,-0.080,-0.080,-0.082,-0.080,-0.082,-0.083,-0.085,-0.084,-0.085,-0.089,-0.088,-0.088,-0.087,-0.086,-0.086,-0.086,-0.085,-0.084,-0.083,-0.085,-0.086,-0.085,-0.084,-0.082,-0.082,-0.081,-0.079,-0.078,-0.077,-0.076,-0.074,-0.073,-0.073,-0.070,-0.070,-0.070,-0.068,-0.067,-0.066,-0.064,-0.061,-0.061,-0.058,-0.059,-0.057,-0.057,-0.053,-0.052,-0.049,-0.050,-0.046,-0.045,-0.043,-0.041,-0.041,-0.040,-0.036,-0.034,-0.033,-0.031,-0.029,-0.026,-0.024,-0.020,-0.019,-0.019
58,-0.374,-0.378,-0.385,-0.390,-0.396,-0.402,-0.403,-0.406,-0.410,-0.416,-0.419,-0.421,-0.427,-0.432,-0.434,-0.438,-0.442,-0.443,-0.447,-0.450,-0.451,-0.452,-0.452,-0.453,-0.454,-0.452,-0.453,-0.454,-0.457,-0.455,-0.454,-0.455,-0.454,-0.455,-0.455,-0.455,-0.453,-0.452,-0.456,-0.455,-0.455,-0.455,-0.454,-0.454,-0.454,-0.454,-0.455,-0.456,-0.453,-0.453,-0.454,-0.454,-0.453,-0.453,-0.453,-0.456,-0.454,-0.454,-0.455,-0.454,-0.456,-0.455,-0.455,-0.457,-0.459,-0.457,-0.458,-0.460,-0.459,-0.458,-0.458,-0.458,-0.459,-0.461,-0.462,-0.461,-0.464,-0.464,-0.466,-0.467,-0.466,-0.467,-0.469,-0.467,-0.468,-0.471,-0.471,-0.471,-0.474,-0.474,-0.474,-0.475,-0.475,-0.475,-0.477,-0.478,-0.481,-0.483,-0.482,-0.482,-0.482
59,0.136,0.124,0.114,0.105,0.095,0.088,0.081,0.074,0.069,0.066,0.063,0.059,0.059,0.057,0.055,0.054,0.051,0.049,0.047,0.044,0.043,0.040,0.037,0.034,0.030,0.027,0.026,0.024,0.021,0.019,0.016,0.014,0.013,0.012,0.009,0.009,0.006,0.005,0.005,0.003,0.002,0.002,0.001,0.001,-0.001,-0.001,-0.001,-0.004,-0.006,-0.007,-0.008,-0.008,-0.010,-0.011,-0.011,-0.011,-0.013,-0.017,-0.017,-0.017,-0.017,-0.019,-0.022,-0.023,-0.023,-0.023,-0.023,-0.025,-0.027,-0.027,-0.026,-0.028,-0.029,-0.028,-0.028,-0.032,-0.031,-0.032,-0.033,-0.034,-0.032,-0.035,-0.036,-0.035,-0.036,-0.038,-0.039,-0.039,-0.039,-0.039,-0.041,-0.043,-0.045,-0.044,-0.045,-0.045,-0.049,-0.047,-0.046,-0.046,-0.047
60,-0.390,-0.400,-0.410,-0.419,-0.429,-0.439,-0.451,-0.462,-0.473,-0.485,-0.495,-0.506,-0.521,-0.535,-0.560,-0.580,-0.599,-0.618,-0.634,-0.650,-0.669,-0.684,-0.699,-0.715,-0.729,-0.743,-0.759,-0.774,-0.787,-0.803,-0.817,-0.832,-0.848,-0.863,-0.877,-0.893,-0.905,-0.918,-0.933,-0.946,-0.960,-0.975,-0.986,-1.000,-1.012,-1.026,-1.037,-1.052,-1.064,-1.076,-1.087,-1.099,-1.111,-1.123,-1.135,-1.145,-1.158,-1.170,-1.181,-1.193,-1.204,-1.215,-1.227,-1.238,-1.250,-1.262,-1.274,-1.285,-1.295,-1.307,-1.317,-1.328,-1.339,-1.349,-1.359,-1.368,-1.377,-1.387,-1.399,-1.410,-1.420,-1.429,-1.439,-1.449,-1.461,-1.468,-1.479,-1.488,-1.499,-1.508,-1.519,-1.526,-1.536,-1.545,-1.555,-1.565,-1.574,-1.583,-1.592,-1.601,-1.611
61,-0.056,-0.046,-0.038,-0.030,-0.022,-0.017,-0.008,-0.001,0.005,0.014,0.021,0.029,0.042,0.057,0.082,0.106,0.126,0.147,0.164,0.181,0.202,0.219,0.235,0.254,0.271,0.287,0.303,0.320,0.336,0.353,0.369,0.385,0.401,0.416,0.432,0.447,0.463,0.478,0.495,0.510,0.526,0.542,0.557,0.573,0.587,0.601,0.614,0.630,0.644,0.658,0.671,0.684,0.695,0.707,0.723,0.735,0.747,0.760,0.772,0.786,0.798,0.808,0.820,0.833,0.843,0.855,0.866,0.877,0.888,0.900,0.909,0.920,0.933,0.942,0.953,0.964,0.973,0.983,0.993,1.003,1.013,1.022,1.031,1.040,1.050,1.059,1.069,1.078,1.088,1.095,1.104,1.113,1.122,1.130,1.140,1.149,1.156,1.165,1.174,1.181,1.188
62,-0.129,-0.138,-0.143,-0.148,-0.153,-0.160,-0.167,-0.175,-0.182,-0.189,-0.195,-0.204,-0.211,-0.224,-0.243,-0.254,-0.267,-0.282,-0.292,-0.302,-0.315,-0.326,-0.335,-0.343,-0.352,-0.362,-0.372,-0.381,-0.392,-0.401,-0.411,-0.424,-0.433,-0.442,-0.452,-0.463,-0.474,-0.485,-0.497,-0.508,-0.518,-0.530,-0.540,-0.551,-0.562,-0.572,-0.580,-0.592,-0.603,-0.613,-0.622,-0.632,-0.642,-0.652,-0.662,-0.672,-0.680,-0.689,-0.699,-0.708,-0.717,-0.724,-0.731,-0.741,-0.748,-0.756,-0.763,-0.772,-0.779,-0.788,-0.794,-0.803,-0.811,-0.817,-0.824,-0.833,-0.841,-0.848,-0.853,-0.859,-0.863,-0.871,-0.878,-0.885,-0.891,-0.896,-0.904,-0.909,-0.916,-0.920,-0.927,-0.933,-0.940,-0.948,-0.955,-0.959,-0.966,-0.974,-0.978,-0.983,-0.989
63,0.051,0.042,0.035,0.027,0.020,0.012,0.002,-0.007,-0.013,-0.022,-0.029,-0.039,-0.047,-0.060,-0.066,-0.072,-0.074,-0.076,-0.078,-0.081,-0.086,-0.091,-0.097,-0.105,-0.110,-0.118,-0.124,-0.134,-0.142,-0.154,-0.165,-0.173,-0.185,-0.191,-0.203,-0.215,-0.229,-0.238,-0.249,-0.260,-0.270,-0.280,-0.292,-0.303,-0.313,-0.324,-0.333,-0.344,-0.354,-0.363,-0.375,-0.384,-0.392,-0.401,-0.411,-0.421,-0.431,-0.440,-0.448,-0.458,-0.467,-0.474,-0.483,-0.491,-0.499,-0.507,-0.515,-0.522,-0.529,-0.538,-0.545,-0.551,-0.559,-0.564,-0.572,-0.578,-0.584,-0.591,-0.597,-0.604,-0.609,-0.616,-0.620,-0.626,-0.629,-0.636,-0.641,-0.645,-0.650,-0.653,-0.658,-0.662,-0.667,-0.672,-0.674,-0.680,-0.684,-0.690,-0.693,-0.696,-0.702
64,0.386,0.376,0.367,0.358,0.349,0.339,0.328,0.318,0.308,0.296,0.285,0.271,0.256,0.236,0.210,0.187,0.165,0.143,0.125,0.106,0.086,0.070,0.053,0.034,0.014,-0.001,-0.017,-0.034,-0.047,-0.063,-0.077,-0.091,-0.108,-0.120,-0.135,-0.147,-0.161,-0.174,-0.188,-0.201,-0.215,-0.229,-0.241,-0.254,-0.267,-0.279,-0.291,-0.304,-0.315,-0.329,-0.340,-0.351,-0.360,-0.370,-0.383,-0.394,-0.405,-0.415,-0.424,-0.436,-0.446,-0.456,-0.466,-0.477,-0.485,-0.495,-0.504,-0.513,-0.523,-0.531,-0.537,-0.547,-0.556,-0.564,-0.574,-0.582,-0.589,-0.595,-0.602,-0.608,-0.617,-0.624,-0.630,-0.637,-0.645,-0.652,-0.658,-0.665,-0.673,-0.678,-0.684,-0.692,-0.699,-0.704,-0.708,-0.714,-0.718,-0.725,-0.729,-0.734,-0.739
65,-0.359,-0.356,-0.352,-0.350,-0.347,-0.341,-0.336,-0.331,-0.326,-0.322,-0.317,-0.312,-0.309,-0.304,-0.299,-0.293,-0.290,-0.284,-0.280,-0.274,-0.271,-0.265,-0.260,-0.256,-0.250,-0.246,-0.240,-0.234,-0.230,-0.222,-0.217,-0.210,-0.204,-0.198,-0.192,-0.186,-0.180,-0.172,-0.168,-0.160,-0.154,-0.147,-0.140,-0.133,-0.126,-0.122,-0.114,-0.108,-0.100,-0.094,-0.088,-0.081,-0.072,-0.064,-0.060,-0.053,-0.046,-0.039,-0.034,-0.027,-0.021,-0.014,-0.007,0.001,0.007,0.015,0.022,0.029,0.033,0.039,0.047,0.053,0.059,0.064,0.071,0.076,0.084,0.088,0.097,0.103,0.106,0.114,0.121,0.125,0.132,0.138,0.145,0.149,0.155,0.161,0.167,0.173,0.179,0.186,0.189,0.195,0.202,0.208,0.212,0.217,0.223
66,-0.250,-0.257,-0.260,-0.264,-0.267,-0.273,-0.281,-0.287,-0.294,-0.303,-0.311,-0.321,-0.331,-0.343,-0.369,-0.395,-0.415,-0.436,-0.453,-0.473,-0.492,-0.509,-0.524,-0.542,-0.557,-0.572,-0.588,-0.604,-0.616,-0.631,-0.646,-0.659,-0.674,-0.689,-0.702,-0.712,-0.725,-0.739,-0.753,-0.765,-0.778,-0.792,-0.804,-0.817,-0.829,-0.839,-0.850,-0.862,-0.875,-0.886,-0.896,-0.909,-0.918,-0.930,-0.938,-0.948,-0.959,-0.968,-0.978,-0.989,-0.998,-1.006,-1.015,-1.028,-1.034,-1.044,-1.051,-1.059,-1.067,-1.079,-1.086,-1.095,-1.104,-1.112,-1.121,-1.130,-1.134,-1.142,-1.152,-1.161,-1.167,-1.174,-1.184,-1.189,-1.199,-1.205,-1.213,-1.219,-1.226,-1.233,-1.239,-1.246,-1.252,-1.257,-1.264,-1.272,-1.277,-1.281,-1.289,-1.293,-1.298
67,0.331,0.330,0.328,0.327,0.325,0.325,0.323,0.324,0.322,0.323,0.323,0.327,0.328,0.328,0.320,0.309,0.306,0.297,0.292,0.287,0.281,0.275,0.270,0.263,0.258,0.254,0.251,0.247,0.241,0.239,0.237,0.233,0.231,0.228,0.224,0.223,0.220,0.214,0.216,0.212,0.211,0.206,0.204,0.200,0.197,0.194,0.191,0.188,0.187,0.184,0.182,0.179,0.176,0.173,0.168,0.167,0.164,0.162,0.160,0.158,0.156,0.152,0.148,0.146,0.147,0.143,0.142,0.140,0.138,0.136,0.134,0.132,0.128,0.128,0.127,0.126,0.124,0.121,0.119,0.116,0.113,0.112,0.111,0.110,0.107,0.106,0.104,0.102,0.100,0.099,0.097,0.095,0.093,0.091,0.090,0.088,0.085,0.086,0.086,0.083,0.081
68,-0.053,-0.058,-0.059,-0.061,-0.062,-0.062,-0.066,-0.070,-0.070,-0.072,-0.074,-0.078,-0.085,-0.090,-0.098,-0.108,-0.115,-0.121,-0.128,-0.137,-0.146,-0.152,-0.159,-0.170,-0.179,-0.186,-0.193,-0.202,-0.211,-0.222,-0.229,-0.238,-0.246,-0.256,-0.262,-0.273,-0.280,-0.289,-0.300,-0.309,-0.321,-0.331,-0.338,-0.347,-0.357,-0.363,-0.371,-0.383,-0.393,-0.400,-0.409,-0.415,-0.424,-0.431,-0.441,-0.452,-0.458,-0.467,-0.475,-0.483,-0.492,-0.499,-0.508,-0.516,-0.524,-0.532,-0.540,-0.548,-0.555,-0.563,-0.570,-0.577,-0.587,-0.594,-0.601,-0.609,-0.617,-0.624,-0.633,-0.641,-0.646,-0.654,-0.662,-0.666,-0.674,-0.681,-0.690,-0.695,-0.703,-0.710,-0.715,-0.722,-0.728,-0.734,-0.742,-0.749,-0.755,-0.761,-0.770,-0.775,-0.779
69,0.006,-0.004,-0.013,-0.021,-0.030,-0.038,-0.048,-0.057,-0.066,-0.075,-0.085,-0.096,-0.107,-0.124,-0.146,-0.171,-0.192,-0.210,-0.225,-0.241,-0.255,-0.270,-0.282,-0.292,-0.304,-0.313,-0.321,-0.327,-0.332,-0.340,-0.346,-0.352,-0.358,-0.363,-0.369,-0.373,-0.378,-0.382,-0.386,-0.390,-0.394,-0.397,-0.401,-0.404,-0.409,-0.412,-0.415,-0.418,-0.421,-0.425,-0.428,-0.431,-0.434,-0.437,-0.440,-0.444,-0.447,-0.452,-0.454,-0.455,-0.458,-0.461,-0.464,-0.468,-0.471,-0.474,-0.477,-0.480,-0.482,-0.484,-0.487,-0.490,-0.492,-0.494,-0.497,-0.502,-0.504,-0.506,-0.509,-0.511,-0.513,-0.516,-0.520,-0.521,-0.523,-0.526,-0.528,-0.531,-0.534,-0.536,-0.539,-0.542,-0.545,-0.547,-0.548,-0.551,-0.554,-0.555,-0.557,-0.559,-0.562
70,0.216,0.217,0.212,0.204,0.198,0.189,0.178,0.169,0.159,0.149,0.139,0.130,0.120,0.110,0.099,0.089,0.078,0.068,0.058,0.048,0.039,0.029,0.020,0.013,0.005,-0.003,-0.011,-0.018,-0.025,-0.033,-0.039,-0.046,-0.054,-0.060,-0.067,-0.073,-0.079,-0.086,-0.091,-0.097,-0.103,-0.109,-0.115,-0.121,-0.126,-0.131,-0.137,-0.143,-0.148,-0.154,-0.158,-0.164,-0.169,-0.175,-0.180,-0.182,-0.188,-0.191,-0.196,-0.200,-0.204,-0.209,-0.213,-0.218,-0.223,-0.227,-0.232,-0.235,-0.239,-0.243,-0.248,-0.251,-0.255,-0.260,-0.263,-0.267,-0.271,-0.275,-0.279,-0.283,-0.287,-0.289,-0.293,-0.297,-0.300,-0.303,-0.306,-0.311,-0.314,-0.317,-0.321,-0.325,-0.329,-0.331,-0.335,-0.339,-0.342,-0.344,-0.347,-0.349,-0.352
71,0.288,0.291,0.292,0.292,0.293,0.288,0.283,0.277,0.270,0.263,0.254,0.245,0.236,0.226,0.216,0.205,0.196,0.185,0.175,0.164,0.156,0.146,0.137,0.129,0.120,0.111,0.102,0.097,0.090,0.084,0.077,0.072,0.066,0.059,0.054,0.049,0.045,0.041,0.037,0.032,0.029,0.025,0.021,0.017,0.016,0.012,0.008,0.008,0.006,0.004,0.002,-0.001,-0.002,-0.004,-0.006,-0.006,-0.008,-0.009,-0.012,-0.012,-0.012,-0.013,-0.013,-0.013,-0.012,-0.012,-0.011,-0.011,-0.012,-0.011,-0.009,-0.009,-0.009,-0.008,-0.006,-0.005,-0.004,-0.001,-0.001,0.001,0.002,0.003,0.003,0.006,0.010,0.012,0.015,0.014,0.018,0.021,0.024,0.024,0.026,0.028,0.032,0.034,0.037,0.039,0.041,0.044,0.049
72,-0.070,-0.082,-0.092,-0.102,-0.112,-0.122,-0.131,-0.141,-0.151,-0.160,-0.170,-0.179,-0.190,-0.200,-0.210,-0.221,-0.231,-0.242,-0.251,-0.261,-0.270,-0.280,-0.287,-0.296,-0.305,-0.311,-0.320,-0.327,-0.334,-0.341,-0.348,-0.355,-0.361,-0.367,-0.374,-0.379,-0.385,-0.391,-0.397,-0.403,-0.409,-0.413,-0.419,-0.424,-0.428,-0.433,-0.438,-0.443,-0.449,-0.452,-0.456,-0.462,-0.466,-0.471,-0.477,-0.481,-0.485,-0.490,-0.494,-0.497,-0.502,-0.505,-0.510,-0.512,-0.515,-0.521,-0.525,-0.528,-0.530,-0.533,-0.535,-0.539,-0.543,-0.547,-0.549,-0.553,-0.556,-0.561,-0.563,-0.567,-0.570,-0.573,-0.576,-0.580,-0.583,-0.587,-0.591,-0.595,-0.598,-0.601,-0.605,-0.608,-0.612,-0.615,-0.619,-0.621,-0.623,-0.626,-0.630,-0.634,-0.637
73,-0.308,-0.302,-0.295,-0.289,-0.282,-0.275,-0.271,-0.265,-0.259,-0.257,-0.250,-0.246,-0.243,-0.240,-0.238,-0.236,-0.233,-0.229,-0.229,-0.225,-0.222,-0.219,-0.216,-0.213,-0.207,-0.205,-0.200,-0.197,-0.194,-0.191,-0.187,-0.182,-0.178,-0.174,-0.171,-0.165,-0.161,-0.158,-0.156,-0.152,-0.145,-0.141,-0.138,-0.134,-0.129,-0.123,-0.120,-0.118,-0.114,-0.110,-0.106,-0.104,-0.100,-0.097,-0.092,-0.090,-0.084,-0.081,-0.079,-0.076,-0.073,-0.070,-0.067,-0.064,-0.061,-0.059,-0.056,-0.050,-0.048,-0.045,-0.042,-0.039,-0.038,-0.033,-0.032,-0.030,-0.026,-0.026,-0.021,-0.019,-0.017,-0.015,-0.011,-0.009,-0.006,-0.004,-0.003,0.002,0.003,0.006,0.007,0.012,0.014,0.015,0.018,0.022,0.023,0.023,0.024,0.026,0.028
74,0.048,0.045,0.044,0.042,0.041,0.038,0.034,0.027,0.022,0.017,0.011,0.004,-0.004,-0.013,-0.023,-0.031,-0.040,-0.050,-0.059,-0.068,-0.076,-0.085,-0.092,-0.100,-0.108,-0.115,-0.122,-0.129,-0.137,-0.142,-0.148,-0.153,-0.159,-0.165,-0.171,-0.177,-0.183,-0.188,-0.194,-0.199,-0.204,-0.208,-0.214,-0.219,-0.222,-0.228,-0.232,-0.237,-0.240,-0.245,-0.250,-0.255,-0.258,-0.262,-0.266,-0.270,-0.273,-0.278,-0.280,-0.284,-0.287,-0.291,-0.293,-0.298,-0.301,-0.305,-0.308,-0.310,-0.314,-0.317,-0.320,-0.325,-0.327,-0.330,-0.334,-0.338,-0.342,-0.345,-0.348,-0.351,-0.355,-0.360,-0.362,-0.366,-0.369,-0.371,-0.377,-0.380,-0.384,-0.388,-0.391,-0.395,-0.398,-0.401,-0.405,-0.407,-0.411,-0.415,-0.418,-0.421,-0.424
75,0.148,0.144,0.142,0.142,0.141,0.142,0.146,0.151,0.156,0.163,0.167,0.174,0.183,0.191,0.200,0.211,0.221,0.230,0.239,0.248,0.255,0.264,0.272,0.279,0.289,0.295,0.304,0.311,0.318,0.325,0.333,0.339,0.344,0.351,0.357,0.363,0.368,0.375,0.380,0.387,0.391,0.398,0.404,0.411,0.416,0.419,0.423,0.429,0.433,0.438,0.444,0.448,0.452,0.456,0.459,0.465,0.467,0.474,0.478,0.482,0.486,0.491,0.495,0.499,0.503,0.507,0.511,0.514,0.517,0.520,0.524,0.527,0.530,0.533,0.537,0.540,0.541,0.547,0.549,0.554,0.557,0.559,0.563,0.564,0.569,0.571,0.575,0.577,0.580,0.583,0.587,0.590,0.594,0.597,0.599,0.600,0.603,0.606,0.608,0.612,0.615
76,-0.305,-0.302,-0.302,-0.305,-0.306,-0.309,-0.315,-0.323,-0.331,-0.340,-0.347,-0.355,-0.363,-0.371,-0.380,-0.387,-0.396,-0.403,-0.411,-0.418,-0.425,-0.431,-0.436,-0.442,-0.446,-0.452,-0.457,-0.461,-0.465,-0.470,-0.474,-0.477,-0.481,-0.486,-0.488,-0.491,-0.494,-0.499,-0.500,-0.503,-0.505,-0.507,-0.512,-0.515,-0.516,-0.519,-0.521,-0.525,-0.526,-0.529,-0.532,-0.534,-0.537,-0.539,-0.543,-0.542,-0.545,-0.547,-0.549,-0.552,-0.554,-0.557,-0.559,-0.562,-0.564,-0.567,-0.569,-0.573,-0.575,-0.577,-0.580,-0.581,-0.583,-0.586,-0.589,-0.589,-0.592,-0.595,-0.596,-0.598,-0.602,-0.603,-0.604,-0.606,-0.609,-0.611,-0.614,-0.615,-0.617,-0.619,-0.622,-0.625,-0.628,-0.629,-0.630,-0.633,-0.634,-0.637,-0.639,-0.641,-0.643
77,0.143,0.152,0.162,0.174,0.185,0.196,0.206,0.218,0.229,0.240,0.251,0.262,0.272,0.283,0.295,0.304,0.314,0.324,0.336,0.345,0.353,0.363,0.370,0.378,0.385,0.394,0.399,0.405,0.412,0.418,0.423,0.427,0.434,0.437,0.443,0.445,0.449,0.452,0.457,0.460,0.463,0.464,0.468,0.470,0.470,0.473,0.475,0.477,0.480,0.482,0.483,0.486,0.487,0.489,0.491,0.490,0.492,0.492,0.493,0.493,0.493,0.494,0.496,0.495,0.495,0.496,0.496,0.497,0.498,0.498,0.496,0.497,0.499,0.498,0.498,0.500,0.499,0.499,0.498,0.498,0.497,0.499,0.498,0.499,0.497,0.499,0.498,0.499,0.499,0.498,0.498,0.499,0.499,0.499,0.499,0.499,0.501,0.500,0.501,0.500,0.499
78,0.056,0.049,0.040,0.032,0.023,0.016,0.011,0.005,-0.002,-0.010,-0.018,-0.026,-0.034,-0.042,-0.050,-0.058,-0.066,-0.073,-0.081,-0.088,-0.095,-0.101,-0.107,-0.113,-0.120,-0.126,-0.130,-0.135,-0.141,-0.146,-0.150,-0.154,-0.160,-0.164,-0.168,-0.170,-0.174,-0.176,-0.181,-0.184,-0.188,-0.191,-0.195,-0.198,-0.203,-0.205,-0.207,-0.209,-0.213,-0.216,-0.220,-0.222,-0.224,-0.226,-0.229,-0.233,-0.234,-0.234,-0.235,-0.238,-0.242,-0.243,-0.247,-0.249,-0.251,-0.253,-0.255,-0.258,-0.260,-0.263,-0.266,-0.267,-0.271,-0.274,-0.276,-0.278,-0.280,-0.283,-0.285,-0.288,-0.289,-0.293,-0.297,-0.299,-0.303,-0.306,-0.308,-0.312,-0.316,-0.319,-0.323,-0.326,-0.330,-0.334,-0.338,-0.342,-0.346,-0.351,-0.353,-0.357,-0.361
79,-0.004,-0.006,-0.005,-0.002,-0.000,0.004,0.010,0.014,0.021,0.029,0.035,0.042,0.051,0.062,0.069,0.078,0.084,0.091,0.099,0.104,0.110,0.115,0.119,0.123,0.125,0.126,0.130,0.130,0.131,0.133,0.133,0.135,0.135,0.137,0.136,0.138,0.138,0.138,0.138,0.138,0.138,0.139,0.139,0.140,0.141,0.140,0.142,0.140,0.139,0.138,0.138,0.139,0.138,0.138,0.139,0.140,0.138,0.137,0.136,0.137,0.139,0.138,0.136,0.137,0.137,0.138,0.138,0.136,0.136,0.137,0.138,0.137,0.136,0.138,0.139,0.137,0.139,0.139,0.139,0.139,0.141,0.138,0.140,0.140,0.141,0.140,0.140,0.140,0.142,0.142,0.142,0.140,0.139,0.141,0.141,0.141,0.139,0.142,0.143,0.144,0.143
80,-0.326,-0.332,-0.346,-0.362,-0.377,-0.393,-0.409,-0.426,-0.443,-0.459,-0.476,-0.491,-0.508,-0.524,-0.541,-0.556,-0.572,-0.587,-0.602,-0.616,-0.629,-0.642,-0.653,-0.664,-0.675,-0.685,-0.697,-0.706,-0.716,-0.726,-0.735,-0.745,-0.755,-0.764,-0.771,-0.780,-0.789,-0.798,-0.805,-0.813,-0.822,-0.830,-0.838,-0.846,-0.853,-0.860,-0.868,-0.875,-0.883,-0.891,-0.896,-0.904,-0.911,-0.919,-0.925,-0.929,-0.936,-0.941,-0.948,-0.952,-0.959,-0.966,-0.972,-0.978,-0.985,-0.989,-0.995,-1.000,-1.005,-1.011,-1.018,-1.022,-1.027,-1.034,-1.038,-1.043,-1.050,-1.055,-1.060,-1.065,-1.071,-1.073,-1.079,-1.083,-1.089,-1.093,-1.097,-1.105,-1.109,-1.113,-1.118,-1.124,-1.129,-1.133,-1.139,-1.145,-1.149,-1.153,-1.157,-1.161,-1.165
81,0.021,0.019,0.017,0.016,0.014,0.008,0.002,-0.002,-0.009,-0.014,-0.024,-0.033,-0.040,-0.049,-0.059,-0.069,-0.077,-0.085,-0.094,-0.103,-0.108,-0.117,-0.124,-0.128,-0.134,-0.140,-0.145,-0.146,-0.149,-0.150,-0.152,-0.152,-0.154,-0.157,-0.158,-0.158,-0.158,-0.155,-0.155,-0.155,-0.153,-0.152,-0.152,-0.151,-0.147,-0.146,-0.146,-0.141,-0.139,-0.136,-0.135,-0.134,-0.130,-0.128,-0.126,-0.123,-0.119,-0.116,-0.116,-0.112,-0.109,-0.106,-0.102,-0.099,-0.095,-0.092,-0.088,-0.084,-0.083,-0.078,-0.074,-0.071,-0.068,-0.064,-0.060,-0.056,-0.052,-0.047,-0.044,-0.040,-0.036,-0.033,-0.032,-0.027,-0.022,-0.019,-0.015,-0.014,-0.009,-0.005,-0.001,0.001,0.004,0.007,0.011,0.015,0.018,0.021,0.023,0.027,0.032
82,0.261,0.248,0.236,0.223,0.211,0.197,0.184,0.170,0.156,0.140,0.126,0.110,0.093,0.075,0.060,0.045,0.029,0.013,-0.000,-0.014,-0.025,-0.038,-0.047,-0.059,-0.069,-0.077,-0.087,-0.094,-0.102,-0.110,-0.118,-0.125,-0.132,-0.137,-0.144,-0.150,-0.156,-0.163,-0.168,-0.174,-0.180,-0.183,-0.189,-0.193,-0.197,-0.202,-0.205,-0.210,-0.215,-0.217,-0.221,-0.226,-0.229,-0.233,-0.239,-0.242,-0.244,-0.248,-0.252,-0.254,-0.258,-0.260,-0.265,-0.266,-0.267,-0.272,-0.274,-0.276,-0.278,-0.281,-0.282,-0.285,-0.287,-0.289,-0.291,-0.294,-0.296,-0.300,-0.300,-0.303,-0.304,-0.305,-0.308,-0.310,-0.312,-0.314,-0.316,-0.318,-0.320,-0.321,-0.322,-0.323,-0.324,-0.326,-0.328,-0.329,-0.328,-0.329,-0.331,-0.334,-0.334
83,-0.118,-0.113,-0.108,-0.105,-0.101,-0.096,-0.092,-0.087,-0.083,-0.083,-0.077,-0.071,-0.069,-0.066,-0.062,-0.061,-0.056,-0.051,-0.050,-0.045,-0.040,-0.036,-0.032,-0.028,-0.021,-0.017,-0.012,-0.008,-0.004,-0.000,0.005,0.011,0.016,0.020,0.024,0.030,0.034,0.038,0.039,0.044,0.050,0.054,0.057,0.061,0.067,0.071,0.074,0.076,0.079,0.083,0.085,0.087,0.090,0.092,0.097,0.098,0.103,0.105,0.107,0.109,0.110,0.113,0.114,0.116,0.117,0.118,0.119,0.124,0.125,0.127,0.129,0.131,0.130,0.133,0.132,0.132,0.134,0.133,0.137,0.138,0.138,0.138,0.141,0.142,0.142,0.142,0.142,0.145,0.144,0.145,0.144,0.147,0.147,0.146,0.147,0.149,0.149,0.147,0.146,0.146,0.146
84,-0.077,-0.088,-0.101,-0.116,-0.130,-0.146,-0.160,-0.176,-0.192,-0.206,-0.222,-0.239,-0.255,-0.272,-0.288,-0.302,-0.316,-0.332,-0.346,-0.360,-0.372,-0.385,-0.396,-0.406,-0.418,-0.428,-0.438,-0.448,-0.458,-0.466,-0.475,-0.482,-0.491,-0.499,-0.508,-0.515,-0.523,-0.531,-0.538,-0.546,-0.553,-0.559,-0.566,-0.572,-0.576,-0.583,-0.589,-0.596,-0.601,-0.608,-0.615,-0.621,-0.626,-0.632,-0.636,-0.641,-0.647,-0.653,-0.656,-0.661,-0.665,-0.670,-0.673,-0.678,-0.682,-0.687,-0.691,-0.694,-0.699,-0.702,-0.706,-0.711,-0.714,-0.718,-0.723,-0.728,-0.731,-0.736,-0.739,-0.743,-0.747,-0.753,-0.755,-0.760,-0.761,-0.763,-0.769,-0.772,-0.776,-0.779,-0.782,-0.786,-0.789,-0.794,-0.797,-0.798,-0.802,-0.806,-0.808,-0.811,-0.813
85,-0.310,-0.310,-0.307,-0.303,-0.300,-0.295,-0.288,-0.284,-0.279,-0.273,-0.268,-0.262,-0.253,-0.249,-0.241,-0.232,-0.226,-0.220,-0.215,-0.210,-0.210,-0.205,-0.202,-0.202,-0.199,-0.199,-0.196,-0.196,-0.195,-0.196,-0.195,-0.195,-0.197,-0.196,-0.197,-0.199,-0.200,-0.199,-0.201,-0.201,-0.203,-0.203,-0.203,-0.203,-0.203,-0.206,-0.208,-0.206,-0.207,-0.208,-0.206,-0.208,-0.208,-0.209,-0.210,-0.209,-0.211,-0.207,-0.209,-0.208,-0.207,-0.207,-0.207,-0.206,-0.207,-0.207,-0.208,-0.207,-0.207,-0.208,-0.209,-0.207,-0.208,-0.206,-0.207,-0.206,-0.208,-0.205,-0.205,-0.203,-0.204,-0.204,-0.203,-0.205,-0.203,-0.204,-0.202,-0.201,-0.202,-0.201,-0.199,-0.199,-0.198,-0.197,-0.197,-0.197,-0.197,-0.196,-0.198,-0.196,-0.196
86,0.328,0.321,0.308,0.293,0.279,0.263,0.247,0.229,0.212,0.194,0.178,0.160,0.143,0.125,0.108,0.095,0.080,0.067,0.054,0.041,0.031,0.021,0.011,0.001,-0.005,-0.015,-0.022,-0.030,-0.037,-0.044,-0.050,-0.056,-0.063,-0.070,-0.076,-0.082,-0.087,-0.094,-0.099,-0.105,-0.109,-0.114,-0.121,-0.127,-0.131,-0.138,-0.142,-0.148,-0.152,-0.156,-0.162,-0.166,-0.173,-0.178,-0.183,-0.185,-0.192,-0.196,-0.199,-0.206,-0.209,-0.215,-0.218,-0.223,-0.228,-0.234,-0.239,-0.245,-0.248,-0.252,-0.256,-0.259,-0.262,-0.267,-0.272,-0.274,-0.278,-0.282,-0.284,-0.287,-0.292,-0.295,-0.299,-0.302,-0.306,-0.309,-0.313,-0.314,-0.318,-0.321,-0.324,-0.329,-0.333,-0.333,-0.335,-0.339,-0.341,-0.345,-0.348,-0.351,-0.353
87,0.405,0.415,0.426,0.440,0.452,0.466,0.479,0.493,0.507,0.522,0.537,0.553,0.565,0.579,0.594,0.606,0.621,0.633,0.647,0.659,0.670,0.682,0.690,0.701,0.710,0.721,0.729,0.737,0.746,0.754,0.761,0.766,0.775,0.780,0.787,0.791,0.797,0.801,0.809,0.813,0.818,0.821,0.827,0.831,0.832,0.837,0.840,0.845,0.850,0.853,0.856,0.861,0.863,0.867,0.870,0.871,0.874,0.875,0.879,0.880,0.882,0.885,0.889,0.889,0.891,0.894,0.896,0.897,0.900,0.901,0.901,0.903,0.906,0.906,0.908,0.911,0.912,0.914,0.913,0.914,0.914,0.918,0.918,0.921,0.920,0.922,0.924,0.925,0.926,0.926,0.928,0.930,0.932,0.933,0.934,0.934,0.937,0.938,0.940,0.940,0.939
88,0.174,0.168,0.159,0.149,0.140,0.130,0.119,0.108,0.097,0.083,0.068,0.055,0.040,0.026,0.012,-0.001,-0.014,-0.026,-0.040,-0.050,-0.060,-0.069,-0.078,-0.087,-0.097,-0.105,-0.110,-0.117,-0.125,-0.131,-0.136,-0.141,-0.149,-0.153,-0.158,-0.161,-0.164,-0.166,-0.172,-0.175,-0.180,-0.183,-0.187,-0.190,-0.195,-0.198,-0.199,-0.202,-0.206,-0.209,-0.211,-0.212,-0.213,-0.214,-0.216,-0.221,-0.221,-0.219,-0.219,-0.222,-0.225,-0.225,-0.227,-0.229,-0.229,-0.230,-0.230,-0.232,-0.233,-0.234,-0.235,-0.235,-0.237,-0.238,-0.240,-0.239,-0.239,-0.241,-0.241,-0.242,-0.241,-0.243,-0.246,-0.245,-0.246,-0.246,-0.245,-0.247,-0.248,-0.249,-0.251,-0.251,-0.252,-0.253,-0.253,-0.255,-0.255,-0.257,-0.256,-0.256,-0.256
89,0.438,0.446,0.458,0.469,0.481,0.494,0.508,0.521,0.535,0.551,0.565,0.579,0.596,0.613,0.627,0.642,0.654,0.666,0.678,0.689,0.699,0.707,0.716,0.724,0.730,0.735,0.741,0.745,0.749,0.754,0.756,0.761,0.765,0.768,0.771,0.775,0.777,0.780,0.782,0.785,0.786,0.790,0.791,0.794,0.796,0.798,0.801,0.801,0.801,0.801,0.802,0.805,0.805,0.807,0.808,0.810,0.810,0.808,0.810,0.811,0.813,0.813,0.812,0.814,0.815,0.817,0.818,0.817,0.816,0.819,0.821,0.820,0.821,0.822,0.823,0.822,0.824,0.824,0.824,0.824,0.827,0.825,0.827,0.827,0.828,0.828,0.827,0.827,0.829,0.830,0.830,0.829,0.829,0.830,0.831,0.831,0.829,0.831,0.834,0.835,0.834
90,-0.209,-0.220,-0.232,-0.246,-0.259,-0.273,-0.288,-0.304,-0.320,-0.336,-0.351,-0.370,-0.388,-0.403,-0.423,-0.441,-0.459,-0.473,-0.489,-0.502,-0.515,-0.527,-0.538,-0.545,-0.548,-0.556,-0.564,-0.569,-0.573,-0.579,-0.582,-0.590,-0.593,-0.599,-0.601,-0.605,-0.607,-0.610,-0.611,-0.612,-0.613,-0.616,-0.617,-0.619,-0.618,-0.619,-0.619,-0.620,-0.621,-0.624,-0.623,-0.624,-0.625,-0.626,-0.626,-0.620,-0.622,-0.621,-0.621,-0.619,-0.619,-0.620,-0.619,-0.620,-0.620,-0.619,-0.619,-0.617,-0.614,-0.616,-0.616,-0.615,-0.613,-0.616,-0.615,-0.613,-0.613,-0.613,-0.612,-0.612,-0.613,-0.610,-0.609,-0.609,-0.609,-0.609,-0.607,-0.611,-0.609,-0.607,-0.607,-0.606,-0.606,-0.606,-0.606,-0.606,-0.605,-0.605,-0.604,-0.602,-0.601
91,0.010,-0.001,-0.014,-0.028,-0.041,-0.057,-0.073,-0.090,-0.108,-0.126,-0.145,-0.165,-0.185,-0.208,-0.232,-0.256,-0.282,-0.307,-0.328,-0.350,-0.370,-0.391,-0.412,-0.429,-0.448,-0.467,-0.485,-0.498,-0.511,-0.523,-0.534,-0.545,-0.556,-0.570,-0.580,-0.589,-0.598,-0.603,-0.611,-0.620,-0.627,-0.635,-0.643,-0.651,-0.654,-0.662,-0.670,-0.672,-0.677,-0.682,-0.687,-0.694,-0.696,-0.701,-0.706,-0.709,-0.712,-0.716,-0.723,-0.726,-0.730,-0.734,-0.736,-0.740,-0.742,-0.746,-0.749,-0.751,-0.756,-0.757,-0.759,-0.762,-0.765,-0.767,-0.770,-0.772,-0.775,-0.775,-0.778,-0.779,-0.781,-0.785,-0.789,-0.790,-0.791,-0.793,-0.794,-0.799,-0.800,-0.801,-0.802,-0.806,-0.808,-0.811,-0.812,-0.814,-0.815,-0.818,-0.821,-0.822,-0.822
92,0.041,0.031,0.018,0.004,-0.009,-0.025,-0.040,-0.057,-0.075,-0.093,-0.112,-0.132,-0.153,-0.176,-0.201,-0.225,-0.251,-0.278,-0.298,-0.322,-0.346,-0.369,-0.389,-0.412,-0.431,-0.447,-0.468,-0.483,-0.499,-0.513,-0.529,-0.543,-0.558,-0.568,-0.582,-0.593,-0.605,-0.616,-0.627,-0.639,-0.651,-0.660,-0.670,-0.679,-0.688,-0.698,-0.708,-0.717,-0.728,-0.735,-0.744,-0.753,-0.762,-0.771,-0.780,-0.788,-0.795,-0.805,-0.813,-0.820,-0.831,-0.838,-0.846,-0.851,-0.858,-0.867,-0.875,-0.883,-0.889,-0.895,-0.902,-0.909,-0.915,-0.922,-0.928,-0.936,-0.944,-0.952,-0.955,-0.961,-0.967,-0.972,-0.980,-0.986,-0.992,-0.998,-1.005,-1.011,-1.016,-1.021,-1.026,-1.032,-1.037,-1.043,-1.050,-1.056,-1.059,-1.064,-1.069,-1.077,-1.082
93,0.030,0.025,0.019,0.011,0.004,-0.006,-0.016,-0.026,-0.041,-0.052,-0.066,-0.079,-0.094,-0.113,-0.125,-0.137,-0.153,-0.161,-0.170,-0.170,-0.170,-0.169,-0.163,-0.157,-0.145,-0.138,-0.126,-0.121,-0.112,-0.105,-0.099,-0.088,-0.081,-0.073,-0.066,-0.057,-0.052,-0.046,-0.044,-0.036,-0.027,-0.021,-0.015,-0.009,-0.002,0.005,0.010,0.012,0.018,0.024,0.029,0.034,0.039,0.044,0.051,0.054,0.061,0.066,0.069,0.074,0.077,0.082,0.084,0.090,0.092,0.096,0.099,0.105,0.108,0.112,0.116,0.120,0.121,0.127,0.128,0.130,0.135,0.135,0.141,0.143,0.145,0.149,0.153,0.156,0.158,0.161,0.163,0.169,0.169,0.173,0.175,0.180,0.183,0.184,0.188,0.192,0.194,0.194,0.195,0.198,0.200
94,0.016,0.005,-0.007,-0.021,-0.034,-0.049,-0.064,-0.079,-0.096,-0.112,-0.130,-0.146,-0.162,-0.177,-0.195,-0.208,-0.217,-0.234,-0.248,-0.265,-0.275,-0.295,-0.307,-0.317,-0.334,-0.343,-0.354,-0.365,-0.376,-0.386,-0.393,-0.399,-0.406,-0.413,-0.422,-0.427,-0.433,-0.439,-0.446,-0.451,-0.457,-0.460,-0.468,-0.473,-0.472,-0.478,-0.482,-0.486,-0.488,-0.494,-0.499,-0.502,-0.505,-0.508,-0.510,-0.513,-0.517,-0.522,-0.522,-0.524,-0.526,-0.529,-0.529,-0.533,-0.534,-0.536,-0.537,-0.537,-0.541,-0.541,-0.542,-0.546,-0.546,-0.547,-0.551,-0.553,-0.554,-0.556,-0.559,-0.561,-0.562,-0.566,-0.567,-0.569,-0.569,-0.568,-0.574,-0.575,-0.578,-0.579,-0.580,-0.583,-0.585,-0.587,-0.589,-0.589,-0.591,-0.594,-0.594,-0.596,-0.596
95,0.249,0.253,0.259,0.267,0.274,0.285,0.294,0.308,0.321,0.335,0.349,0.361,0.377,0.390,0.406,0.419,0.431,0.443,0.455,0.465,0.472,0.482,0.490,0.493,0.500,0.505,0.513,0.518,0.524,0.528,0.535,0.541,0.544,0.551,0.556,0.558,0.560,0.567,0.570,0.574,0.577,0.581,0.586,0.590,0.593,0.593,0.594,0.599,0.602,0.604,0.608,0.609,0.612,0.614,0.616,0.618,0.619,0.625,0.626,0.628,0.631,0.633,0.636,0.638,0.640,0.642,0.644,0.645,0.646,0.646,0.646,0.650,0.650,0.652,0.652,0.653,0.653,0.657,0.658,0.661,0.660,0.661,0.662,0.661,0.664,0.664,0.666,0.668,0.668,0.669,0.672,0.673,0.675,0.677,0.677,0.678,0.680,0.681,0.681,0.682,0.684
96,-0.252,-0.263,-0.276,-0.290,-0.303,-0.319,-0.335,-0.353,-0.371,-0.388,-0.406,-0.425,-0.443,-0.464,-0.484,-0.504,-0.525,-0.544,-0.562,-0.582,-0.599,-0.612,-0.629,-0.640,-0.645,-0.655,-0.663,-0.670,-0.675,-0.683,-0.687,-0.691,-0.697,-0.706,-0.707,-0.710,-0.711,-0.719,-0.720,-0.725,-0.726,-0.730,-0.734,-0.738,-0.742,-0.746,-0.749,-0.752,-0.756,-0.758,-0.763,-0.766,-0.771,-0.775,-0.779,-0.780,-0.787,-0.790,-0.793,-0.799,-0.801,-0.806,-0.810,-0.815,-0.819,-0.824,-0.828,-0.833,-0.836,-0.841,-0.844,-0.847,-0.852,-0.857,-0.861,-0.864,-0.868,-0.873,-0.876,-0.880,-0.885,-0.888,-0.892,-0.896,-0.902,-0.905,-0.910,-0.913,-0.917,-0.923,-0.928,-0.934,-0.939,-0.943,-0.946,-0.950,-0.954,-0.960,-0.965,-0.968,-0.974
97,0.270,0.265,0.260,0.255,0.250,0.243,0.235,0.230,0.223,0.215,0.208,0.203,0.194,0.185,0.176,0.168,0.169,0.161,0.154,0.150,0.150,0.154,0.157,0.164,0.172,0.183,0.187,0.196,0.203,0.211,0.217,0.219,0.228,0.232,0.238,0.239,0.244,0.245,0.253,0.256,0.260,0.260,0.265,0.267,0.265,0.269,0.270,0.273,0.278,0.280,0.282,0.284,0.286,0.288,0.289,0.289,0.291,0.292,0.293,0.293,0.294,0.297,0.299,0.298,0.300,0.300,0.301,0.301,0.304,0.304,0.303,0.304,0.306,0.307,0.308,0.310,0.311,0.311,0.311,0.311,0.310,0.313,0.314,0.315,0.315,0.317,0.317,0.319,0.319,0.319,0.320,0.321,0.322,0.322,0.323,0.322,0.325,0.327,0.329,0.328,0.327
98,-0.319,-0.315,-0.315,-0.314,-0.314,-0.312,-0.313,-0.313,-0.314,-0.315,-0.319,-0.320,-0.323,-0.322,-0.327,-0.328,-0.328,-0.328,-0.332,-0.335,-0.340,-0.342,-0.350,-0.356,-0.368,-0.375,-0.378,-0.382,-0.390,-0.396,-0.401,-0.406,-0.413,-0.416,-0.419,-0.422,-0.423,-0.423,-0.428,-0.431,-0.436,-0.438,-0.440,-0.442,-0.446,-0.445,-0.446,-0.448,-0.452,-0.452,-0.454,-0.453,-0.454,-0.454,-0.456,-0.459,-0.459,-0.457,-0.456,-0.458,-0.460,-0.459,-0.461,-0.462,-0.463,-0.462,-0.462,-0.464,-0.462,-0.465,-0.465,-0.463,-0.464,-0.465,-0.465,-0.463,-0.464,-0.464,-0.465,-0.465,-0.463,-0.464,-0.466,-0.465,-0.467,-0.467,-0.466,-0.466,-0.467,-0.468,-0.470,-0.470,-0.471,-0.472,-0.471,-0.473,-0.474,-0.474,-0.474,-0.475,-0.473
99,0.017,0.028,0.039,0.052,0.064,0.077,0.091,0.102,0.116,0.129,0.145,0.161,0.177,0.194,0.213,0.230,0.249,0.269,0.288,0.307,0.324,0.339,0.354,0.368,0.379,0.390,0.399,0.407,0.413,0.421,0.426,0.432,0.437,0.443,0.446,0.452,0.455,0.459,0.462,0.466,0.468,0.473,0.474,0.478,0.482,0.484,0.489,0.489,0.489,0.491,0.493,0.497,0.498,0.501,0.502,0.505,0.506,0.505,0.508,0.510,0.513,0.514,0.515,0.517,0.519,0.522,0.524,0.525,0.525,0.529,0.532,0.532,0.535,0.537,0.541,0.540,0.543,0.545,0.546,0.548,0.552,0.552,0.555,0.557,0.559,0.560,0.561,0.563,0.567,0.569,0.570,0.570,0.571,0.574,0.576,0.578,0.577,0.580,0.584,0.587,0.588
100,0.379,0.367,0.350,0.333,0.316,0.296,0.278,0.256,0.233,0.211,0.191,0.167,0.144,0.130,0.107,0.089,0.066,0.053,0.036,0.023,0.012,0.001,-0.010,-0.019,-0.024,-0.031,-0.039,-0.044,-0.049,-0.056,-0.059,-0.066,-0.067,-0.072,-0.075,-0.077,-0.080,-0.084,-0.084,-0.084,-0.085,-0.085,-0.086,-0.086,-0.087,-0.089,-0.089,-0.089,-0.090,-0.092,-0.093,-0.093,-0.095,-0.096,-0.095,-0.090,-0.090,-0.090,-0.089,-0.090,-0.088,-0.088,-0.088,-0.087,-0.087,-0.088,-0.088,-0.089,-0.085,-0.087,-0.085,-0.087,-0.087,-0.087,-0.088,-0.087,-0.088,-0.089,-0.089,-0.090,-0.091,-0.090,-0.088,-0.089,-0.089,-0.091,-0.090,-0.093,-0.092,-0.094,-0.093,-0.091,-0.090,-0.091,-0.090,-0.092,-0.092,-0.092,-0.094,-0.095,-0.095
101,0.268,0.256,0.239,0.222,0.205,0.185,0.167,0.145,0.122,0.098,0.075,0.050,0.021,-0.011,-0.046,-0.081,-0.106,-0.132,-0.154,-0.176,-0.195,-0.215,-0.232,-0.246,-0.261,-0.276,-0.289,-0.298,-0.308,-0.319,-0.328,-0.335,-0.343,-0.354,-0.361,-0.368,-0.374,-0.379,-0.385,-0.391,-0.396,-0.402,-0.408,-0.414,-0.416,-0.421,-0.427,-0.428,-0.432,-0.435,-0.440,-0.444,-0.448,-0.452,-0.456,-0.459,-0.462,-0.465,-0.472,-0.473,-0.477,-0.480,-0.483,-0.486,-0.488,-0.491,-0.493,-0.497,-0.501,-0.503,-0.507,-0.511,-0.514,-0.516,-0.518,-0.521,-0.525,-0.527,-0.530,-0.532,-0.536,-0.539,-0.542,-0.544,-0.546,-0.548,-0.551,-0.554,-0.557,-0.558,-0.561,-0.565,-0.568,-0.571,-0.572,-0.575,-0.577,-0.581,-0.585,-0.587,-0.589
102,0.173,0.160,0.143,0.126,0.109,0.089,0.070,0.048,0.025,0.001,-0.023,-0.049,-0.076,-0.104,-0.136,-0.166,-0.195,-0.223,-0.241,-0.263,-0.284,-0.303,-0.320,-0.337,-0.352,-0.367,-0.383,-0.393,-0.406,-0.418,-0.430,-0.441,-0.451,-0.460,-0.470,-0.479,-0.487,-0.495,-0.503,-0.512,-0.520,-0.527,-0.533,-0.540,-0.545,-0.550,-0.557,-0.562,-0.568,-0.573,-0.579,-0.584,-0.589,-0.594,-0.598,-0.602,-0.606,-0.614,-0.616,-0.619,-0.623,-0.628,-0.632,-0.634,-0.638,-0.643,-0.647,-0.651,-0.654,-0.655,-0.660,-0.662,-0.664,-0.668,-0.670,-0.673,-0.678,-0.680,-0.680,-0.681,-0.684,-0.685,-0.690,-0.693,-0.696,-0.698,-0.700,-0.705,-0.704,-0.707,-0.709,-0.710,-0.712,-0.713,-0.717,-0.722,-0.722,-0.724,-0.725,-0.728,-0.731
103,-0.050,-0.062,-0.079,-0.096,-0.113,-0.133,-0.151,-0.173,-0.196,-0.220,-0.243,-0.269,-0.298,-0.328,-0.356,-0.379,-0.403,-0.425,-0.447,-0.464,-0.480,-0.498,-0.513,-0.528,-0.543,-0.558,-0.570,-0.583,-0.597,-0.608,-0.622,-0.632,-0.644,-0.655,-0.664,-0.672,-0.682,-0.695,-0.705,-0.710,-0.718,-0.727,-0.733,-0.741,-0.750,-0.757,-0.766,-0.775,-0.783,-0.788,-0.795,-0.801,-0.805,-0.810,-0.816,-0.825,-0.830,-0.835,-0.840,-0.846,-0.852,-0.858,-0.864,-0.867,-0.873,-0.878,-0.884,-0.887,-0.893,-0.896,-0.901,-0.905,-0.910,-0.915,-0.920,-0.924,-0.926,-0.931,-0.934,-0.938,-0.944,-0.946,-0.949,-0.953,-0.957,-0.960,-0.964,-0.966,-0.972,-0.975,-0.977,-0.980,-0.982,-0.985,-0.989,-0.990,-0.993,-0.996,-0.999,-1.004,-1.005
104,-0.126,-0.139,-0.156,-0.173,-0.190,-0.210,-0.228,-0.250,-0.272,-0.291,-0.311,-0.325,-0.341,-0.361,-0.385,-0.407,-0.416,-0.434,-0.449,-0.466,-0.474,-0.491,-0.496,-0.501,-0.509,-0.515,-0.518,-0.524,-0.528,-0.533,-0.534,-0.536,-0.536,-0.537,-0.541,-0.540,-0.540,-0.540,-0.542,-0.542,-0.542,-0.540,-0.542,-0.541,-0.536,-0.536,-0.534,-0.532,-0.530,-0.529,-0.527,-0.526,-0.523,-0.521,-0.521,-0.518,-0.518,-0.516,-0.515,-0.512,-0.507,-0.508,-0.505,-0.503,-0.501,-0.496,-0.493,-0.491,-0.491,-0.489,-0.483,-0.483,-0.480,-0.474,-0.474,-0.471,-0.468,-0.466,-0.465,-0.463,-0.460,-0.458,-0.457,-0.452,-0.447,-0.445,-0.444,-0.441,-0.441,-0.438,-0.435,-0.433,-0.430,-0.428,-0.424,-0.424,-0.421,-0.419,-0.415,-0.414,-0.410
105,0.121,0.134,0.151,0.167,0.184,0.202,0.219,0.238,0.258,0.279,0.298,0.319,0.342,0.365,0.392,0.417,0.439,0.462,0.483,0.504,0.520,0.539,0.556,0.569,0.586,0.599,0.615,0.627,0.641,0.653,0.666,0.678,0.688,0.701,0.714,0.723,0.733,0.745,0.753,0.763,0.773,0.781,0.792,0.801,0.808,0.815,0.822,0.832,0.840,0.847,0.855,0.862,0.869,0.876,0.884,0.890,0.897,0.905,0.912,0.920,0.925,0.932,0.939,0.944,0.951,0.956,0.962,0.966,0.972,0.977,0.981,0.989,0.993,0.997,1.000,1.005,1.009,1.016,1.020,1.026,1.029,1.033,1.038,1.040,1.046,1.050,1.054,1.057,1.062,1.066,1.070,1.075,1.079,1.083,1.086,1.091,1.094,1.098,1.101,1.105,1.108
106,-0.282,-0.294,-0.311,-0.328,-0.345,-0.365,-0.384,-0.405,-0.428,-0.452,-0.475,-0.499,-0.526,-0.554,-0.577,-0.591,-0.612,-0.625,-0.641,-0.654,-0.664,-0.672,-0.683,-0.690,-0.695,-0.701,-0.706,-0.712,-0.719,-0.725,-0.729,-0.732,-0.736,-0.743,-0.745,-0.747,-0.748,-0.753,-0.752,-0.756,-0.758,-0.761,-0.764,-0.767,-0.771,-0.772,-0.773,-0.775,-0.778,-0.781,-0.782,-0.784,-0.788,-0.791,-0.794,-0.795,-0.797,-0.800,-0.802,-0.804,-0.806,-0.809,-0.812,-0.814,-0.816,-0.820,-0.823,-0.825,-0.826,-0.830,-0.832,-0.835,-0.838,-0.840,-0.842,-0.845,-0.848,-0.852,-0.853,-0.856,-0.860,-0.862,-0.864,-0.866,-0.871,-0.873,-0.876,-0.878,-0.880,-0.882,-0.888,-0.891,-0.896,-0.898,-0.901,-0.904,-0.908,-0.909,-0.914,-0.914,-0.917
107,-0.278,-0.288,-0.302,-0.303,-0.313,-0.321,-0.327,-0.338,-0.345,-0.359,-0.366,-0.376,-0.393,-0.412,-0.433,-0.445,-0.444,-0.451,-0.454,-0.456,-0.456,-0.456,-0.460,-0.463,-0.466,-0.467,-0.475,-0.476,-0.478,-0.481,-0.484,-0.490,-0.490,-0.494,-0.497,-0.504,-0.505,-0.510,-0.509,-0.514,-0.516,-0.522,-0.525,-0.530,-0.537,-0.538,-0.541,-0.545,-0.545,-0.547,-0.551,-0.554,-0.557,-0.560,-0.563,-0.568,-0.569,-0.573,-0.576,-0.581,-0.584,-0.585,-0.589,-0.593,-0.595,-0.598,-0.600,-0.601,-0.603,-0.605,-0.607,-0.611,-0.612,-0.612,-0.615,-0.615,-0.615,-0.619,-0.621,-0.624,-0.625,-0.627,-0.628,-0.629,-0.632,-0.632,-0.632,-0.633,-0.635,-0.637,-0.638,-0.637,-0.637,-0.640,-0.640,-0.640,-0.639,-0.641,-0.643,-0.643,-0.645
108,-0.240,-0.252,-0.269,-0.286,-0.303,-0.323,-0.341,-0.363,-0.386,-0.409,-0.433,-0.459,-0.487,-0.516,-0.547,-0.579,-0.605,-0.632,-0.659,-0.687,-0.712,-0.734,-0.757,-0.776,-0.799,-0.818,-0.838,-0.856,-0.874,-0.892,-0.909,-0.925,-0.942,-0.957,-0.972,-0.986,-1.001,-1.015,-1.029,-1.043,-1.057,-1.069,-1.083,-1.096,-1.109,-1.121,-1.132,-1.144,-1.156,-1.167,-1.179,-1.189,-1.200,-1.210,-1.221,-1.233,-1.242,-1.251,-1.262,-1.272,-1.284,-1.294,-1.305,-1.314,-1.326,-1.336,-1.347,-1.357,-1.366,-1.377,-1.387,-1.397,-1.407,-1.418,-1.428,-1.438,-1.448,-1.458,-1.469,-1.479,-1.489,-1.500,-1.510,-1.520,-1.530,-1.540,-1.551,-1.561,-1.572,-1.582,-1.593,-1.602,-1.612,-1.623,-1.632,-1.642,-1.654,-1.663,-1.673,-1.684,-1.694
109,0.060,0.060,0.062,0.065,0.067,0.063,0.065,0.069,0.073,0.083,0.096,0.117,0.137,0.162,0.186,0.209,0.231,0.252,0.271,0.289,0.306,0.319,0.333,0.347,0.356,0.367,0.376,0.382,0.389,0.396,0.401,0.408,0.412,0.416,0.419,0.424,0.428,0.430,0.432,0.436,0.437,0.441,0.440,0.442,0.446,0.448,0.452,0.451,0.449,0.451,0.453,0.455,0.456,0.458,0.458,0.460,0.460,0.460,0.461,0.461,0.462,0.463,0.464,0.465,0.465,0.468,0.469,0.471,0.469,0.472,0.474,0.473,0.474,0.474,0.480,0.478,0.480,0.481,0.480,0.480,0.483,0.483,0.485,0.487,0.487,0.487,0.488,0.490,0.491,0.493,0.492,0.491,0.490,0.492,0.493,0.493,0.493,0.494,0.496,0.497,0.498
110,-0.058,-0.064,-0.073,-0.087,-0.098,-0.112,-0.128,-0.142,-0.158,-0.172,-0.186,-0.203,-0.217,-0.233,-0.247,-0.262,-0.277,-0.288,-0.301,-0.310,-0.320,-0.328,-0.339,-0.344,-0.349,-0.355,-0.359,-0.366,-0.369,-0.373,-0.375,-0.381,-0.382,-0.384,-0.387,-0.389,-0.391,-0.394,-0.394,-0.394,-0.395,-0.394,-0.394,-0.393,-0.393,-0.393,-0.393,-0.395,-0.396,-0.397,-0.394,-0.395,-0.396,-0.397,-0.395,-0.391,-0.392,-0.391,-0.390,-0.389,-0.386,-0.385,-0.383,-0.383,-0.384,-0.381,-0.381,-0.381,-0.378,-0.380,-0.380,-0.380,-0.377,-0.378,-0.377,-0.376,-0.375,-0.376,-0.376,-0.377,-0.376,-0.375,-0.373,-0.373,-0.373,-0.371,-0.371,-0.373,-0.372,-0.371,-0.371,-0.369,-0.368,-0.368,-0.368,-0.370,-0.369,-0.368,-0.368,-0.368,-0.367
111,-0.441,-0.454,-0.470,-0.485,-0.501,-0.514,-0.527,-0.538,-0.552,-0.563,-0.579,-0.595,-0.609,-0.625,-0.642,-0.657,-0.670,-0.684,-0.699,-0.713,-0.725,-0.739,-0.752,-0.760,-0.772,-0.783,-0.794,-0.801,-0.809,-0.817,-0.824,-0.832,-0.839,-0.847,-0.854,-0.861,-0.868,-0.872,-0.878,-0.884,-0.889,-0.897,-0.903,-0.910,-0.914,-0.919,-0.926,-0.928,-0.933,-0.937,-0.943,-0.949,-0.951,-0.956,-0.961,-0.964,-0.969,-0.975,-0.982,-0.985,-0.990,-0.996,-0.999,-1.003,-1.007,-1.012,-1.016,-1.019,-1.024,-1.027,-1.030,-1.036,-1.040,-1.044,-1.047,-1.052,-1.057,-1.059,-1.063,-1.066,-1.069,-1.074,-1.080,-1.083,-1.085,-1.090,-1.092,-1.098,-1.101,-1.103,-1.107,-1.111,-1.115,-1.120,-1.123,-1.126,-1.130,-1.134,-1.138,-1.141,-1.144
112,0.308,0.297,0.285,0.272,0.260,0.245,0.230,0.214,0.200,0.184,0.171,0.155,0.137,0.119,0.103,0.086,0.070,0.054,0.043,0.030,0.019,0.007,-0.001,-0.011,-0.018,-0.023,-0.031,-0.035,-0.037,-0.041,-0.045,-0.048,-0.051,-0.051,-0.055,-0.056,-0.057,-0.057,-0.058,-0.061,-0.060,-0.059,-0.059,-0.058,-0.058,-0.057,-0.056,-0.054,-0.054,-0.051,-0.050,-0.049,-0.046,-0.044,-0.044,-0.042,-0.038,-0.038,-0.036,-0.032,-0.032,-0.029,-0.028,-0.023,-0.019,-0.020,-0.018,-0.015,-0.012,-0.009,-0.005,-0.003,-0.001,0.003,0.006,0.008,0.009,0.012,0.017,0.021,0.024,0.029,0.030,0.033,0.037,0.039,0.042,0.044,0.048,0.051,0.056,0.059,0.063,0.066,0.066,0.070,0.076,0.079,0.082,0.083,0.087
113,-0.115,-0.128,-0.144,-0.162,-0.179,-0.196,-0.214,-0.230,-0.246,-0.263,-0.278,-0.294,-0.310,-0.326,-0.342,-0.355,-0.367,-0.379,-0.392,-0.401,-0.410,-0.419,-0.427,-0.434,-0.437,-0.443,-0.448,-0.452,-0.458,-0.463,-0.467,-0.468,-0.472,-0.477,-0.480,-0.480,-0.484,-0.487,-0.493,-0.493,-0.494,-0.497,-0.501,-0.504,-0.503,-0.505,-0.508,-0.512,-0.514,-0.516,-0.519,-0.523,-0.524,-0.527,-0.529,-0.531,-0.531,-0.535,-0.537,-0.541,-0.545,-0.546,-0.550,-0.551,-0.554,-0.557,-0.560,-0.560,-0.561,-0.564,-0.566,-0.567,-0.572,-0.572,-0.577,-0.580,-0.583,-0.586,-0.586,-0.588,-0.592,-0.595,-0.596,-0.599,-0.600,-0.604,-0.606,-0.607,-0.610,-0.613,-0.616,-0.617,-0.619,-0.623,-0.623,-0.624,-0.628,-0.631,-0.634,-0.637,-0.639
114,-0.044,-0.056,-0.072,-0.090,-0.107,-0.126,-0.145,-0.165,-0.183,-0.201,-0.220,-0.238,-0.256,-0.273,-0.291,-0.307,-0.321,-0.338,-0.352,-0.366,-0.378,-0.391,-0.400,-0.407,-0.418,-0.425,-0.432,-0.439,-0.447,-0.453,-0.457,-0.461,-0.466,-0.469,-0.474,-0.477,-0.481,-0.483,-0.487,-0.490,-0.493,-0.493,-0.497,-0.498,-0.497,-0.499,-0.500,-0.501,-0.500,-0.503,-0.504,-0.505,-0.505,-0.506,-0.506,-0.505,-0.507,-0.508,-0.506,-0.505,-0.504,-0.505,-0.504,-0.505,-0.503,-0.503,-0.502,-0.499,-0.501,-0.499,-0.498,-0.500,-0.498,-0.496,-0.496,-0.496,-0.495,-0.495,-0.495,-0.495,-0.494,-0.495,-0.494,-0.494,-0.492,-0.490,-0.493,-0.492,-0.494,-0.492,-0.492,-0.493,-0.493,-0.494,-0.492,-0.491,-0.492,-0.493,-0.492,-0.492,-0.488
115,0.232,0.235,0.238,0.242,0.245,0.251,0.257,0.265,0.273,0.283,0.293,0.303,0.317,0.324,0.336,0.347,0.355,0.366,0.373,0.380,0.384,0.392,0.397,0.400,0.405,0.406,0.412,0.414,0.419,0.421,0.424,0.426,0.427,0.430,0.431,0.430,0.430,0.432,0.432,0.432,0.432,0.432,0.434,0.435,0.434,0.432,0.431,0.433,0.432,0.431,0.432,0.430,0.429,0.427,0.427,0.426,0.423,0.426,0.424,0.426,0.426,0.424,0.424,0.422,0.420,0.419,0.417,0.415,0.414,0.410,0.409,0.409,0.407,0.407,0.403,0.402,0.399,0.399,0.397,0.396,0.394,0.391,0.389,0.385,0.385,0.382,0.382,0.381,0.379,0.377,0.377,0.375,0.374,0.373,0.372,0.369,0.368,0.366,0.363,0.362,0.360
116,-0.005,-0.017,-0.033,-0.050,-0.066,-0.083,-0.096,-0.113,-0.128,-0.146,-0.160,-0.176,-0.192,-0.210,-0.224,-0.234,-0.247,-0.255,-0.263,-0.270,-0.275,-0.277,-0.281,-0.283,-0.281,-0.283,-0.282,-0.282,-0.281,-0.281,-0.279,-0.275,-0.274,-0.275,-0.270,-0.267,-0.263,-0.263,-0.257,-0.256,-0.250,-0.248,-0.247,-0.245,-0.241,-0.238,-0.236,-0.234,-0.230,-0.228,-0.225,-0.222,-0.221,-0.219,-0.216,-0.212,-0.211,-0.208,-0.205,-0.204,-0.200,-0.199,-0.197,-0.195,-0.194,-0.193,-0.192,-0.190,-0.187,-0.186,-0.185,-0.182,-0.180,-0.179,-0.179,-0.176,-0.173,-0.172,-0.170,-0.169,-0.169,-0.167,-0.164,-0.162,-0.163,-0.161,-0.159,-0.157,-0.155,-0.154,-0.154,-0.154,-0.154,-0.151,-0.149,-0.148,-0.147,-0.146,-0.146,-0.144,-0.144
117,0.300,0.301,0.304,0.311,0.315,0.323,0.329,0.341,0.349,0.356,0.364,0.374,0.379,0.386,0.398,0.404,0.416,0.424,0.434,0.443,0.452,0.461,0.468,0.474,0.481,0.490,0.493,0.502,0.508,0.513,0.518,0.520,0.527,0.531,0.536,0.537,0.542,0.544,0.551,0.553,0.557,0.558,0.562,0.564,0.563,0.567,0.568,0.571,0.575,0.578,0.579,0.583,0.585,0.588,0.591,0.591,0.592,0.594,0.596,0.596,0.597,0.599,0.602,0.602,0.604,0.606,0.608,0.610,0.612,0.613,0.612,0.615,0.616,0.617,0.618,0.622,0.624,0.626,0.625,0.626,0.626,0.630,0.631,0.634,0.634,0.636,0.639,0.640,0.641,0.643,0.644,0.647,0.649,0.650,0.651,0.653,0.655,0.658,0.659,0.661,0.662
118,0.326,0.314,0.300,0.284,0.269,0.251,0.235,0.216,0.198,0.180,0.161,0.142,0.122,0.103,0.084,0.065,0.049,0.034,0.017,0.001,-0.012,-0.024,-0.036,-0.047,-0.060,-0.069,-0.077,-0.085,-0.096,-0.105,-0.111,-0.117,-0.126,-0.132,-0.138,-0.141,-0.146,-0.149,-0.154,-0.158,-0.164,-0.167,-0.172,-0.176,-0.181,-0.182,-0.184,-0.186,-0.189,-0.192,-0.195,-0.196,-0.196,-0.197,-0.199,-0.205,-0.202,-0.200,-0.201,-0.202,-0.205,-0.205,-0.206,-0.208,-0.208,-0.208,-0.208,-0.208,-0.208,-0.209,-0.208,-0.206,-0.208,-0.209,-0.209,-0.208,-0.207,-0.209,-0.208,-0.209,-0.206,-0.208,-0.211,-0.209,-0.210,-0.211,-0.209,-0.209,-0.211,-0.211,-0.214,-0.212,-0.213,-0.214,-0.214,-0.215,-0.216,-0.218,-0.216,-0.217,-0.217
119,0.255,0.264,0.276,0.289,0.301,0.317,0.332,0.347,0.363,0.378,0.394,0.409,0.426,0.444,0.458,0.473,0.486,0.499,0.511,0.522,0.533,0.541,0.549,0.557,0.562,0.567,0.573,0.575,0.578,0.582,0.584,0.588,0.589,0.592,0.593,0.596,0.597,0.598,0.597,0.599,0.599,0.601,0.600,0.601,0.602,0.602,0.604,0.603,0.601,0.600,0.600,0.601,0.600,0.600,0.600,0.600,0.600,0.598,0.597,0.596,0.597,0.596,0.595,0.595,0.595,0.596,0.596,0.594,0.592,0.594,0.595,0.592,0.593,0.592,0.594,0.592,0.592,0.592,0.591,0.591,0.593,0.591,0.591,0.590,0.591,0.590,0.588,0.588,0.589,0.589,0.588,0.586,0.585,0.585,0.585,0.584,0.582,0.583,0.584,0.584,0.583
120,-0.106,-0.097,-0.094,-0.095,-0.093,-0.093,-0.095,-0.094,-0.093,-0.090,-0.085,-0.079,-0.076,-0.066,-0.062,-0.056,-0.052,-0.043,-0.037,-0.032,-0.029,-0.026,-0.020,-0.017,-0.011,-0.007,-0.004,-0.001,0.004,0.008,0.010,0.012,0.017,0.019,0.023,0.024,0.025,0.029,0.032,0.037,0.040,0.039,0.043,0.044,0.046,0.047,0.050,0.051,0.051,0.051,0.056,0.057,0.057,0.058,0.059,0.067,0.067,0.066,0.066,0.072,0.071,0.073,0.074,0.075,0.075,0.078,0.079,0.079,0.081,0.082,0.082,0.085,0.085,0.084,0.086,0.089,0.090,0.091,0.091,0.092,0.092,0.094,0.097,0.095,0.097,0.099,0.099,0.098,0.103,0.102,0.103,0.104,0.105,0.107,0.107,0.107,0.108,0.109,0.109,0.111,0.111
121,-0.263,-0.258,-0.255,-0.249,-0.245,-0.243,-0.239,-0.235,-0.231,-0.226,-0.223,-0.220,-0.213,-0.207,-0.201,-0.198,-0.194,-0.186,-0.184,-0.181,-0.174,-0.174,-0.174,-0.167,-0.167,-0.165,-0.165,-0.161,-0.162,-0.161,-0.157,-0.158,-0.158,-0.159,-0.159,-0.160,-0.156,-0.158,-0.156,-0.156,-0.158,-0.158,-0.158,-0.158,-0.156,-0.159,-0.160,-0.158,-0.160,-0.159,-0.158,-0.158,-0.159,-0.159,-0.158,-0.158,-0.158,-0.160,-0.160,-0.159,-0.160,-0.160,-0.159,-0.158,-0.159,-0.157,-0.157,-0.156,-0.159,-0.156,-0.157,-0.158,-0.156,-0.156,-0.155,-0.155,-0.156,-0.152,-0.153,-0.151,-0.152,-0.152,-0.153,-0.152,-0.149,-0.152,-0.149,-0.152,-0.150,-0.149,-0.151,-0.149,-0.150,-0.150,-0.149,-0.149,-0.149,-0.148,-0.146,-0.146,-0.145
122,0.207,0.197,0.189,0.183,0.176,0.170,0.166,0.160,0.157,0.155,0.152,0.153,0.151,0.151,0.151,0.153,0.157,0.155,0.161,0.164,0.172,0.174,0.180,0.185,0.188,0.192,0.194,0.201,0.205,0.210,0.213,0.215,0.216,0.220,0.224,0.226,0.230,0.233,0.235,0.234,0.237,0.241,0.240,0.242,0.243,0.245,0.248,0.248,0.249,0.249,0.251,0.252,0.252,0.253,0.255,0.255,0.258,0.260,0.259,0.260,0.261,0.262,0.261,0.264,0.266,0.264,0.265,0.266,0.265,0.265,0.267,0.267,0.267,0.268,0.270,0.268,0.268,0.268,0.269,0.269,0.272,0.272,0.273,0.274,0.273,0.272,0.273,0.274,0.273,0.275,0.277,0.276,0.277,0.279,0.276,0.275,0.277,0.278,0.277,0.275,0.277
123,-0.256,-0.253,-0.250,-0.248,-0.245,-0.243,-0.242,-0.239,-0.236,-0.232,-0.224,-0.220,-0.212,-0.207,-0.198,-0.192,-0.182,-0.176,-0.169,-0.161,-0.155,-0.149,-0.147,-0.146,-0.139,-0.140,-0.133,-0.132,-0.129,-0.130,-0.131,-0.126,-0.125,-0.122,-0.121,-0.120,-0.123,-0.122,-0.122,-0.124,-0.121,-0.119,-0.119,-0.118,-0.118,-0.116,-0.117,-0.119,-0.117,-0.116,-0.118,-0.117,-0.117,-0.116,-0.117,-0.116,-0.118,-0.116,-0.117,-0.118,-0.116,-0.117,-0.118,-0.117,-0.116,-0.118,-0.118,-0.118,-0.114,-0.117,-0.117,-0.117,-0.119,-0.115,-0.118,-0.118,-0.117,-0.116,-0.116,-0.115,-0.117,-0.116,-0.116,-0.117,-0.116,-0.116,-0.116,-0.115,-0.117,-0.116,-0.117,-0.116,-0.116,-0.119,-0.116,-0.115,-0.117,-0.115,-0.115,-0.116,-0.116
124,0.366,0.368,0.369,0.369,0.370,0.370,0.371,0.371,0.372,0.375,0.381,0.386,0.391,0.395,0.401,0.407,0.415,0.417,0.422,0.425,0.426,0.429,0.435,0.439,0.436,0.441,0.442,0.443,0.449,0.449,0.449,0.454,0.453,0.454,0.454,0.457,0.458,0.458,0.459,0.462,0.461,0.463,0.462,0.463,0.467,0.466,0.468,0.470,0.474,0.473,0.474,0.473,0.477,0.478,0.478,0.477,0.478,0.476,0.482,0.479,0.478,0.480,0.481,0.480,0.482,0.482,0.483,0.485,0.484,0.483,0.486,0.485,0.487,0.488,0.487,0.488,0.488,0.485,0.489,0.488,0.488,0.488,0.488,0.488,0.487,0.492,0.488,0.490,0.489,0.489,0.490,0.490,0.491,0.490,0.490,0.491,0.493,0.492,0.490,0.492,0.492
125,0.188,0.176,0.167,0.159,0.150,0.142,0.133,0.126,0.117,0.106,0.093,0.081,0.065,0.048,0.033,0.017,-0.000,-0.018,-0.034,-0.051,-0.069,-0.083,-0.098,-0.115,-0.129,-0.143,-0.156,-0.169,-0.182,-0.195,-0.206,-0.218,-0.230,-0.239,-0.248,-0.261,-0.270,-0.278,-0.289,-0.297,-0.307,-0.314,-0.323,-0.331,-0.341,-0.350,-0.358,-0.363,-0.371,-0.379,-0.385,-0.393,-0.399,-0.406,-0.415,-0.421,-0.428,-0.432,-0.439,-0.446,-0.452,-0.457,-0.463,-0.468,-0.475,-0.481,-0.488,-0.493,-0.501,-0.507,-0.512,-0.516,-0.522,-0.528,-0.533,-0.539,-0.545,-0.548,-0.553,-0.557,-0.564,-0.569,-0.573,-0.582,-0.584,-0.590,-0.592,-0.597,-0.602,-0.608,-0.610,-0.616,-0.619,-0.624,-0.630,-0.634,-0.638,-0.643,-0.648,-0.654,-0.658
126,-0.091,-0.086,-0.082,-0.081,-0.078,-0.077,-0.077,-0.076,-0.076,-0.077,-0.076,-0.076,-0.072,-0.070,-0.070,-0.069,-0.067,-0.063,-0.062,-0.055,-0.056,-0.050,-0.050,-0.048,-0.041,-0.043,-0.040,-0.040,-0.038,-0.036,-0.034,-0.035,-0.033,-0.031,-0.029,-0.026,-0.026,-0.026,-0.024,-0.024,-0.022,-0.022,-0.020,-0.019,-0.019,-0.016,-0.017,-0.014,-0.016,-0.011,-0.014,-0.012,-0.012,-0.011,-0.010,-0.010,-0.010,-0.007,-0.006,-0.010,-0.006,-0.007,-0.006,-0.005,-0.004,-0.005,-0.005,-0.002,-0.004,-0.003,-0.003,-0.002,-0.001,-0.002,-0.002,-0.002,-0.000,-0.000,-0.001,-0.001,-0.001,-0.001,-0.001,-0.000,-0.000,-0.001,-0.000,0.001,0.001,-0.001,-0.001,-0.001,-0.001,-0.001,0.002,0.002,0.003,0.001,0.001,0.000,-0.001
127,-0.004,-0.015,-0.025,-0.035,-0.045,-0.055,-0.066,-0.077,-0.088,-0.103,-0.119,-0.135,-0.155,-0.175,-0.191,-0.211,-0.229,-0.249,-0.268,-0.287,-0.304,-0.321,-0.338,-0.354,-0.369,-0.382,-0.397,-0.410,-0.423,-0.434,-0.445,-0.458,-0.465,-0.475,-0.484,-0.493,-0.501,-0.511,-0.515,-0.524,-0.530,-0.538,-0.543,-0.550,-0.559,-0.564,-0.569,-0.575,-0.579,-0.585,-0.590,-0.594,-0.599,-0.603,-0.610,-0.616,-0.620,-0.623,-0.625,-0.629,-0.633,-0.635,-0.639,-0.642,-0.645,-0.646,-0.648,-0.653,-0.653,-0.657,-0.660,-0.662,-0.666,-0.668,-0.670,-0.670,-0.674,-0.676,-0.679,-0.681,-0.684,-0.685,-0.687,-0.688,-0.692,-0.691,-0.694,-0.696,-0.697,-0.700,-0.702,-0.703,-0.705,-0.706,-0.707,-0.709,-0.710,-0.710,-0.710,-0.710,-0.714
128,-0.211,-0.216,-0.223,-0.229,-0.236,-0.241,-0.245,-0.250,-0.254,-0.259,-0.263,-0.265,-0.272,-0.278,-0.280,-0.281,-0.285,-0.284,-0.287,-0.289,-0.289,-0.287,-0.285,-0.285,-0.286,-0.281,-0.281,-0.280,-0.284,-0.280,-0.277,-0.277,-0.275,-0.275,-0.274,-0.273,-0.270,-0.268,-0.272,-0.269,-0.270,-0.269,-0.267,-0.266,-0.265,-0.264,-0.265,-0.265,-0.261,-0.261,-0.261,-0.260,-0.258,-0.257,-0.256,-0.260,-0.257,-0.256,-0.256,-0.254,-0.255,-0.253,-0.253,-0.255,-0.256,-0.254,-0.254,-0.256,-0.253,-0.252,-0.251,-0.251,-0.251,-0.252,-0.252,-0.251,-0.252,-0.251,-0.253,-0.253,-0.251,-0.251,-0.253,-0.250,-0.250,-0.252,-0.251,-0.250,-0.252,-0.251,-0.250,-0.250,-0.249,-0.248,-0.249,-0.250,-0.251,-0.252,-0.250,-0.250,-0.248
129,-0.302,-0.297,-0.288,-0.279,-0.270,-0.260,-0.251,-0.244,-0.236,-0.229,-0.222,-0.217,-0.211,-0.205,-0.202,-0.197,-0.196,-0.195,-0.193,-0.193,-0.193,-0.195,-0.196,-0.198,-0.201,-0.203,-0.204,-0.206,-0.208,-0.210,-0.212,-0.214,-0.215,-0.215,-0.218,-0.219,-0.221,-0.223,-0.223,-0.224,-0.225,-0.226,-0.227,-0.228,-0.230,-0.230,-0.229,-0.232,-0.234,-0.236,-0.237,-0.237,-0.239,-0.240,-0.239,-0.240,-0.242,-0.246,-0.246,-0.245,-0.245,-0.247,-0.249,-0.250,-0.251,-0.251,-0.252,-0.253,-0.255,-0.255,-0.254,-0.256,-0.256,-0.256,-0.255,-0.259,-0.257,-0.258,-0.259,-0.260,-0.258,-0.260,-0.260,-0.259,-0.260,-0.261,-0.261,-0.261,-0.260,-0.260,-0.261,-0.263,-0.264,-0.263,-0.263,-0.262,-0.265,-0.264,-0.262,-0.261,-0.262
130,0.407,0.401,0.396,0.392,0.387,0.385,0.385,0.385,0.385,0.385,0.385,0.385,0.385,0.385,0.385,0.385,0.385,0.385,0.385,0.385,0.385,0.385,0.385,0.385,0.385,0.385,0.385,0.385,0.385,0.385,0.385,0.385,0.385,0.385,0.385,0.385,0.385,0.385,0.385,0.385,0.385,0.385,0.385,0.385,0.385,0.385,0.385,0.385,0.385,0.385,0.385,0.385,0.385,0.385,0.385,0.385,0.385,0.385,0.385,0.385,0.385,0.385,0.385,0.385,0.385,0.385,0.385,0.385,0.385,0.385,0.385,0.385,0.385,0.385,0.385,0.385,0.385,0.385,0.385,0.385,0.385,0.385,0.385,0.385,0.385,0.385,0.385,0.385,0.385,0.385,0.385,0.385,0.385,0.385,0.385,0.385,0.385,0.385,0.385,0.385,0.385
131,-0.116,-0.122,-0.127,-0.131,-0.136,-0.138,-0.138,-0.139,-0.139,-0.139,-0.139,-0.139,-0.139,-0.139,-0.139,-0.139,-0.139,-0.139,-0.139,-0.139,-0.139,-0.139,-0.139,-0.139,-0.139,-0.139,-0.139,-0.139,-0.139,-0.139,-0.139,-0.139,-0.139,-0.139,-0.139,-0.139,-0.139,-0.139,-0.139,-0.139,-0.139,-0.139,-0.139,-0.139,-0.139,-0.139,-0.139,-0.139,-0.139,-0.139,-0.139,-0.139,-0.139,-0.139,-0.139,-0.139,-0.139,-0.139,-0.139,-0.139,-0.139,-0.139,-0.139,-0.139,-0.139,-0.139,-0.139,-0.139,-0.139,-0.139,-0.139,-0.139,-0.139,-0.139,-0.139,-0.139,-0.139,-0.139,-0.139,-0.139,-0.139,-0.139,-0.139,-0.139,-0.139,-0.139,-0.139,-0.139,-0.139,-0.139,-0.139,-0.139,-0.139,-0.139,-0.139,-0.139,-0.139,-0.139,-0.139,-0.139,-0.139
132,-0.028,-0.034,-0.039,-0.043,-0.048,-0.050,-0.050,-0.050,-0.050,-0.050,-0.050,-0.050,-0.050,-0.050,-0.050,-0.050,-0.050,-0.050,-0.050,-0.050,-0.050,-0.050,-0.050,-0.050,-0.050,-0.050,-0.050,-0.050,-0.050,-0.050,-0.050,-0.050,-0.050,-0.050,-0.050,-0.050,-0.050,-0.050,-0.050,-0.050,-0.050,-0.050,-0.050,-0.050,-0.050,-0.050,-0.050,-0.050,-0.050,-0.050,-0.050,-0.050,-0.050,-0.050,-0.050,-0.050,-0.050,-0.050,-0.050,-0.050,-0.050,-0.050,-0.050,-0.050,-0.050,-0.050,-0.050,-0.050,-0.050,-0.050,-0.050,-0.050,-0.050,-0.050,-0.050,-0.050,-0.050,-0.050,-0.050,-0.050,-0.050,-0.050,-0.050,-0.050,-0.050,-0.050,-0.050,-0.050,-0.050,-0.050,-0.050,-0.050,-0.050,-0.050,-0.050,-0.050,-0.050,-0.050,-0.050,-0.050,-0.050
133,-0.402,-0.409,-0.414,-0.418,-0.423,-0.425,-0.425,-0.425,-0.426,-0.426,-0.426,-0.426,-0.426,-0.426,-0.426,-0.426,-0.426,-0.426,-0.426,-0.426,-0.426,-0.426,-0.426,-0.426,-0.426,-0.426,-0.426,-0.426,-0.426,-0.426,-0.426,-0.426,-0.426,-0.426,-0.426,-0.426,-0.426,-0.426,-0.426,-0.426,-0.426,-0.426,-0.426,-0.426,-0.426,-0.426,-0.426,-0.426,-0.426,-0.426,-0.426,-0.426,-0.426,-0.426,-0.426,-0.426,-0.426,-0.426,-0.426,-0.426,-0.426,-0.426,-0.426,-0.426,-0.426,-0.426,-0.426,-0.426,-0.426,-0.426,-0.426,-0.426,-0.426,-0.426,-0.426,-0.426,-0.426,-0.426,-0.426,-0.426,-0.426,-0.426,-0.426,-0.426,-0.426,-0.426,-0.426,-0.426,-0.426,-0.426,-0.426,-0.426,-0.426,-0.426,-0.426,-0.426,-0.426,-0.426,-0.426,-0.426,-0.426
134,-0.356,-0.363,-0.368,-0.372,-0.377,-0.379,-0.379,-0.379,-0.380,-0.380,-0.380,-0.380,-0.380,-0.380,-0.380,-0.380,-0.380,-0.380,-0.380,-0.380,-0.380,-0.380,-0.380,-0.380,-0.380,-0.380,-0.380,-0.380,-0.380,-0.380,-0.380,-0.380,-0.380,-0.380,-0.380,-0.380,-0.380,-0.380,-0.380,-0.380,-0.380,-0.380,-0.380,-0.380,-0.380,-0.380,-0.380,-0.380,-0.380,-0.380,-0.380,-0.380,-0.380,-0.380,-0.380,-0.380,-0.380,-0.380,-0.380,-0.380,-0.380,-0.380,-0.380,-0.380,-0.380,-0.380,-0.380,-0.380,-0.380,-0.380,-0.380,-0.380,-0.380,-0.380,-0.380,-0.380,-0.380,-0.380,-0.380,-0.380,-0.380,-0.380,-0.380,-0.380,-0.380,-0.380,-0.380,-0.380,-0.380,-0.380,-0.380,-0.380,-0.380,-0.380,-0.380,-0.380,-0.380,-0.380,-0.380,-0.380,-0.380
135,-0.444,-0.440,-0.437,-0.433,-0.430,-0.429,-0.428,-0.428,-0.428,-0.428,-0.428,-0.428,-0.428,-0.428,-0.428,-0.428,-0.428,-0.428,-0.428,-0.428,-0.428,-0.428,-0.428,-0.428,-0.428,-0.428,-0.428,-0.428,-0.428,-0.428,-0.428,-0.428,-0.428,-0.428,-0.428,-0.428,-0.428,-0.428,-0.428,-0.428,-0.428,-0.428,-0.428,-0.428,-0.428,-0.428,-0.428,-0.428,-0.428,-0.428,-0.428,-0.428,-0.428,-0.428,-0.428,-0.428,-0.428,-0.428,-0.428,-0.428,-0.428,-0.428,-0.428,-0.428,-0.428,-0.428,-0.428,-0.428,-0.428,-0.428,-0.428,-0.428,-0.428,-0.428,-0.428,-0.428,-0.428,-0.428,-0.428,-0.428,-0.428,-0.428,-0.428,-0.428,-0.428,-0.428,-0.428,-0.428,-0.428,-0.428,-0.428,-0.428,-0.428,-0.428,-0.428,-0.428,-0.428,-0.428,-0.428,-0.428,-0.428
136,0.384,0.378,0.373,0.369,0.364,0.362,0.362,0.361,0.361,0.361,0.361,0.361,0.361,0.361,0.361,0.361,0.361,0.361,0.361,0.361,0.361,0.361,0.361,0.361,0.361,0.361,0.361,0.361,0.361,0.361,0.361,0.361,0.361,0.361,0.361,0.361,0.361,0.361,0.361,0.361,0.361,0.361,0.361,0.361,0.361,0.361,0.361,0.361,0.361,0.361,0.361,0.361,0.361,0.361,0.361,0.361,0.361,0.361,0.361,0.361,0.361,0.361,0.361,0.361,0.361,0.361,0.361,0.361,0.361,0.361,0.361,0.361,0.361,0.361,0.361,0.361,0.361,0.361,0.361,0.361,0.361,0.361,0.361,0.361,0.361,0.361,0.361,0.361,0.361,0.361,0.361,0.361,0.361,0.361,0.361,0.361,0.361,0.361,0.361,0.361,0.361
137,-0.105,-0.111,-0.116,-0.120,-0.125,-0.127,-0.127,-0.128,-0.128,-0.128,-0.128,-0.128,-0.128,-0.128,-0.128,-0.128,-0.128,-0.128,-0.128,-0.128,-0.128,-0.128,-0.128,-0.128,-0.128,-0.128,-0.128,-0.128,-0.128,-0.128,-0.128,-0.128,-0.128,-0.128,-0.128,-0.128,-0.128,-0.128,-0.128,-0.128,-0.128,-0.128,-0.128,-0.128,-0.128,-0.128,-0.128,-0.128,-0.128,-0.128,-0.128,-0.128,-0.128,-0.128,-0.128,-0.128,-0.128,-0.128,-0.128,-0.128,-0.128,-0.128,-0.128,-0.128,-0.128,-0.128,-0.128,-0.128,-0.128,-0.128,-0.128,-0.128,-0.128,-0.128,-0.128,-0.128,-0.128,-0.128,-0.128,-0.128,-0.128,-0.128,-0.128,-0.128,-0.128,-0.128,-0.128,-0.128,-0.128,-0.128,-0.128,-0.128,-0.128,-0.128,-0.128,-0.128,-0.128,-0.128,-0.128,-0.128,-0.128
138,0.118,0.111,0.106,0.102,0.097,0.095,0.095,0.095,0.095,0.095,0.095,0.095,0.095,0.095,0.095,0.095,0.095,0.095,0.095,0.095,0.095,0.095,0.095,0.095,0.095,0.095,0.095,0.095,0.095,0.095,0.095,0.095,0.095,0.095,0.095,0.095,0.095,0.095,0.095,0.095,0.095,0.095,0.095,0.095,0.095,0.095,0.095,0.095,0.095,0.095,0.095,0.095,0.095,0.095,0.095,0.095,0.095,0.095,0.095,0.095,0.095,0.095,0.095,0.095,0.095,0.095,0.095,0.095,0.095,0.095,0.095,0.095,0.095,0.095,0.095,0.095,0.095,0.095,0.095,0.095,0.095,0.095,0.095,0.095,0.095,0.095,0.095,0.095,0.095,0.095,0.095,0.095,0.095,0.095,0.095,0.095,0.095,0.095,0.095,0.095,0.095
139,-0.382,-0.376,-0.373,-0.370,-0.367,-0.365,-0.365,-0.365,-0.365,-0.364,-0.364,-0.364,-0.364,-0.364,-0.364,-0.364,-0.364,-0.364,-0.364,-0.364,-0.364,-0.364,-0.364,-0.364,-0.364,-0.364,-0.364,-0.364,-0.364,-0.364,-0.364,-0.364,-0.364,-0.364,-0.364,-0.364,-0.364,-0.364,-0.364,-0.364,-0.364,-0.364,-0.364,-0.364,-0.364,-0.364,-0.364,-0.364,-0.364,-0.364,-0.364,-0.364,-0.364,-0.364,-0.364,-0.364,-0.364,-0.364,-0.364,-0.364,-0.364,-0.364,-0.364,-0.364,-0.364,-0.364,-0.364,-0.364,-0.364,-0.364,-0.364,-0.364,-0.364,-0.364,-0.364,-0.364,-0.364,-0.364,-0.364,-0.364,-0.364,-0.364,-0.364,-0.364,-0.364,-0.364,-0.364,-0.364,-0.364,-0.364,-0.364,-0.364,-0.364,-0.364,-0.364,-0.364,-0.364,-0.364,-0.364,-0.364,-0.364
140,-0.355,-0.346,-0.340,-0.336,-0.331,-0.328,-0.327,-0.323,-0.320,-0.318,-0.316,-0.311,-0.310,-0.306,-0.305,-0.303,-0.302,-0.298,-0.295,-0.294,-0.294,-0.294,-0.291,-0.291,-0.289,-0.288,-0.288,-0.287,-0.285,-0.284,-0.284,-0.284,-0.282,-0.283,-0.281,-0.282,-0.282,-0.281,-0.279,-0.276,-0.275,-0.278,-0.276,-0.277,-0.276,-0.277,-0.275,-0.276,-0.277,-0.279,-0.275,-0.275,-0.277,-0.278,-0.278,-0.272,-0.273,-0.274,-0.275,-0.272,-0.273,-0.273,-0.272,-0.272,-0.274,-0.272,-0.273,-0.274,-0.272,-0.273,-0.274,-0.272,-0.272,-0.274,-0.273,-0.271,-0.271,-0.271,-0.272,-0.272,-0.273,-0.272,-0.270,-0.273,-0.272,-0.271,-0.271,-0.273,-0.269,-0.270,-0.270,-0.270,-0.270,-0.269,-0.270,-0.270,-0.270,-0.270,-0.270,-0.270,-0.270
141,-0.142,-0.129,-0.118,-0.107,-0.096,-0.088,-0.079,-0.071,-0.062,-0.053,-0.046,-0.038,-0.029,-0.020,-0.011,-0.003,0.004,0.013,0.018,0.023,0.031,0.036,0.039,0.047,0.051,0.055,0.059,0.064,0.065,0.069,0.075,0.077,0.079,0.081,0.083,0.085,0.090,0.090,0.095,0.096,0.097,0.099,0.101,0.103,0.106,0.106,0.106,0.110,0.110,0.112,0.114,0.115,0.115,0.116,0.118,0.120,0.120,0.120,0.121,0.123,0.123,0.123,0.125,0.127,0.126,0.128,0.128,0.129,0.127,0.131,0.130,0.129,0.132,0.132,0.133,0.133,0.132,0.135,0.135,0.137,0.136,0.136,0.135,0.135,0.138,0.135,0.138,0.135,0.137,0.137,0.135,0.137,0.136,0.135,0.136,0.136,0.135,0.136,0.137,0.137,0.137
142,0.060,0.054,0.052,0.052,0.051,0.050,0.051,0.050,0.051,0.054,0.053,0.057,0.056,0.058,0.058,0.060,0.063,0.062,0.065,0.068,0.073,0.074,0.078,0.081,0.082,0.085,0.085,0.090,0.092,0.096,0.098,0.098,0.098,0.101,0.103,0.104,0.106,0.108,0.109,0.107,0.110,0.112,0.110,0.111,0.110,0.111,0.114,0.113,0.112,0.112,0.113,0.113,0.111,0.110,0.112,0.111,0.113,0.115,0.112,0.113,0.113,0.113,0.112,0.114,0.115,0.112,0.112,0.112,0.111,0.111,0.112,0.112,0.111,0.112,0.114,0.110,0.110,0.110,0.110,0.110,0.113,0.112,0.112,0.113,0.111,0.109,0.110,0.111,0.109,0.111,0.112,0.110,0.110,0.112,0.109,0.107,0.108,0.109,0.108,0.106,0.108
143,0.170,0.174,0.179,0.184,0.189,0.195,0.199,0.205,0.211,0.215,0.223,0.225,0.232,0.234,0.240,0.243,0.249,0.252,0.256,0.260,0.263,0.267,0.268,0.268,0.272,0.271,0.275,0.275,0.277,0.276,0.276,0.279,0.280,0.283,0.283,0.284,0.281,0.283,0.283,0.282,0.284,0.286,0.285,0.286,0.286,0.288,0.288,0.287,0.288,0.289,0.288,0.289,0.290,0.291,0.290,0.292,0.291,0.293,0.293,0.292,0.294,0.294,0.294,0.295,0.296,0.295,0.295,0.296,0.300,0.298,0.298,0.299,0.297,0.301,0.299,0.300,0.302,0.303,0.304,0.305,0.304,0.306,0.307,0.306,0.307,0.307,0.308,0.309,0.309,0.310,0.309,0.311,0.311,0.309,0.312,0.314,0.313,0.315,0.315,0.314,0.315
144,0.167,0.172,0.179,0.185,0.192,0.197,0.202,0.206,0.212,0.217,0.222,0.226,0.230,0.233,0.236,0.239,0.243,0.243,0.246,0.247,0.246,0.247,0.251,0.252,0.249,0.251,0.251,0.251,0.254,0.253,0.252,0.255,0.254,0.253,0.252,0.254,0.254,0.254,0.253,0.255,0.253,0.254,0.252,0.252,0.254,0.253,0.254,0.255,0.257,0.256,0.256,0.255,0.257,0.257,0.257,0.255,0.255,0.253,0.257,0.254,0.253,0.254,0.255,0.253,0.254,0.254,0.255,0.256,0.254,0.253,0.255,0.254,0.255,0.256,0.254,0.254,0.254,0.252,0.255,0.255,0.254,0.254,0.254,0.253,0.252,0.256,0.252,0.254,0.253,0.253,0.253,0.253,0.253,0.252,0.252,0.252,0.254,0.253,0.251,0.253,0.252
145,0.189,0.174,0.161,0.149,0.136,0.126,0.117,0.107,0.097,0.088,0.078,0.069,0.060,0.051,0.044,0.037,0.028,0.021,0.014,0.008,0.001,-0.004,-0.010,-0.016,-0.020,-0.026,-0.029,-0.034,-0.039,-0.041,-0.044,-0.047,-0.051,-0.052,-0.053,-0.057,-0.059,-0.060,-0.063,-0.063,-0.065,-0.066,-0.067,-0.068,-0.070,-0.072,-0.072,-0.071,-0.072,-0.073,-0.073,-0.073,-0.071,-0.070,-0.073,-0.072,-0.072,-0.070,-0.070,-0.071,-0.071,-0.069,-0.069,-0.066,-0.067,-0.065,-0.065,-0.064,-0.066,-0.065,-0.064,-0.064,-0.063,-0.063,-0.060,-0.061,-0.060,-0.057,-0.057,-0.055,-0.056,-0.054,-0.052,-0.054,-0.051,-0.051,-0.047,-0.047,-0.047,-0.046,-0.042,-0.042,-0.039,-0.038,-0.038,-0.037,-0.035,-0.033,-0.033,-0.033,-0.031
