Id,Epoch:0,Epoch:1,Epoch:2,Epoch:3,Epoch:4,Epoch:5,Epoch:6,Epoch:7,Epoch:8,Epoch:9,Epoch:10,Epoch:11,Epoch:12,Epoch:13,Epoch:14,Epoch:15,Epoch:16,Epoch:17,Epoch:18,Epoch:19,Epoch:20,Epoch:21,Epoch:22,Epoch:23,Epoch:24,Epoch:25,Epoch:26,Epoch:27,Epoch:28,Epoch:29,Epoch:30,Epoch:31,Epoch:32,Epoch:33,Epoch:34,Epoch:35,Epoch:36,Epoch:37,Epoch:38,Epoch:39,Epoch:40,Epoch:41,Epoch:42,Epoch:43,Epoch:44,Epoch:45,Epoch:46,Epoch:47,Epoch:48,Epoch:49,Epoch:50,Epoch:51,Epoch:52,Epoch:53,Epoch:54,Epoch:55,Epoch:56,Epoch:57,Epoch:58,Epoch:59,Epoch:60,Epoch:61,Epoch:62,Epoch:63,Epoch:64,Epoch:65,Epoch:66,Epoch:67,Epoch:68,Epoch:69,Epoch:70,Epoch:71,Epoch:72,Epoch:73,Epoch:74,Epoch:75,Epoch:76,Epoch:77,Epoch:78,Epoch:79,Epoch:80,Epoch:81,Epoch:82,Epoch:83,Epoch:84,Epoch:85,Epoch:86,Epoch:87,Epoch:88,Epoch:89,Epoch:90,Epoch:91,Epoch:92,Epoch:93,Epoch:94,Epoch:95,Epoch:96,Epoch:97,Epoch:98,Epoch:99,Epoch:100
0,-0.289,-0.285,-0.281,-0.278,-0.277,-0.276,-0.276,-0.275,-0.274,-0.272,-0.270,-0.266,-0.266,-0.259,-0.256,-0.253,-0.249,-0.245,-0.242,-0.239,-0.235,-0.233,-0.228,-0.227,-0.222,-0.219,-0.214,-0.211,-0.209,-0.202,-0.196,-0.192,-0.186,-0.182,0.404,-0.174,-0.172,-0.166,-0.163,-0.160,-0.157,-0.153,-0.148,0.418,-0.141,-0.140,-0.138,-0.133,-0.133,-0.128,-0.128,-0.123,-0.119,0.426,-0.114,-0.111,-0.110,-0.108,-0.105,-0.102,-0.099,-0.101,-0.096,-0.092,-0.091,-0.090,0.424,-0.085,-0.083,-0.082,-0.081,-0.077,-0.075,-0.075,-0.075,-0.071,-0.071,-0.067,-0.065,0.421,-0.064,-0.060,-0.058,-0.060,-0.056,-0.056,-0.056,-0.055,-0.053,-0.051,-0.049,-0.048,0.417,-0.047,-0.047,-0.046,-0.044,-0.042,-0.040,-0.042,-0.040
1,0.173,0.173,0.170,0.169,0.167,0.164,0.162,0.159,0.156,0.152,0.147,0.141,0.135,0.126,0.120,0.110,0.103,0.090,0.082,0.071,0.061,0.049,0.039,0.028,0.015,0.004,-0.008,-0.021,-0.032,-0.044,-0.056,-0.069,-0.077,-0.090,0.107,-0.110,-0.122,-0.129,-0.137,-0.151,-0.158,-0.168,-0.175,0.463,-0.193,-0.202,-0.211,-0.220,-0.226,-0.233,-0.239,-0.247,-0.254,0.526,-0.266,-0.273,-0.277,-0.284,-0.292,-0.293,-0.299,-0.302,-0.308,-0.315,-0.319,-0.322,0.617,-0.332,-0.335,-0.337,-0.342,-0.346,-0.351,-0.354,-0.357,-0.362,-0.365,-0.368,-0.368,0.710,-0.374,-0.375,-0.379,-0.382,-0.386,-0.389,-0.388,-0.391,-0.393,-0.396,-0.399,-0.400,-0.067,-0.402,-0.404,-0.408,-0.409,-0.411,-0.412,-0.412,-0.417
2,0.111,0.119,0.126,0.129,0.131,0.131,0.134,0.134,0.135,0.136,0.136,0.138,0.141,0.140,0.143,0.144,0.145,0.147,0.150,0.154,0.155,0.157,0.157,0.163,0.168,0.172,0.173,0.175,0.181,0.184,0.188,0.189,0.193,0.200,0.412,0.206,0.211,0.213,0.217,0.220,0.220,0.225,0.227,-0.263,0.236,0.238,0.238,0.242,0.243,0.248,0.248,0.252,0.255,0.011,0.260,0.260,0.261,0.265,0.265,0.269,0.269,0.271,0.274,0.275,0.276,0.279,-0.007,0.283,0.284,0.285,0.286,0.289,0.291,0.294,0.296,0.297,0.298,0.299,0.299,0.015,0.301,0.303,0.305,0.307,0.308,0.310,0.310,0.313,0.313,0.314,0.315,0.315,0.806,0.316,0.320,0.323,0.321,0.323,0.325,0.326,0.327
3,0.006,0.001,-0.003,-0.005,-0.008,-0.011,-0.014,-0.016,-0.020,-0.023,-0.025,-0.028,-0.029,-0.031,-0.034,-0.036,-0.039,-0.040,-0.043,-0.047,-0.049,-0.052,-0.054,-0.058,-0.059,-0.062,-0.063,-0.065,-0.071,-0.066,-0.068,-0.069,-0.073,-0.075,0.146,-0.079,-0.076,-0.079,-0.079,-0.081,-0.080,-0.081,-0.085,0.016,-0.088,-0.088,-0.088,-0.089,-0.088,-0.089,-0.088,-0.089,-0.092,0.260,-0.091,-0.090,-0.092,-0.095,-0.094,-0.093,-0.093,-0.092,-0.094,-0.092,-0.092,-0.093,0.048,-0.093,-0.094,-0.092,-0.091,-0.090,-0.093,-0.090,-0.090,-0.091,-0.090,-0.092,-0.093,0.003,-0.092,-0.091,-0.090,-0.090,-0.091,-0.091,-0.090,-0.091,-0.092,-0.091,-0.091,-0.092,-0.025,-0.093,-0.092,-0.092,-0.091,-0.094,-0.092,-0.093,-0.093
4,0.328,0.335,0.337,0.340,0.340,0.339,0.338,0.337,0.338,0.338,0.341,0.343,0.346,0.350,0.352,0.356,0.359,0.362,0.367,0.369,0.372,0.374,0.377,0.381,0.383,0.386,0.389,0.393,0.397,0.397,0.400,0.403,0.404,0.405,0.286,0.411,0.414,0.414,0.415,0.418,0.420,0.422,0.421,0.095,0.423,0.428,0.430,0.431,0.433,0.436,0.438,0.437,0.439,0.078,0.439,0.438,0.442,0.441,0.446,0.446,0.448,0.450,0.449,0.447,0.449,0.450,-0.328,0.453,0.456,0.453,0.454,0.454,0.456,0.455,0.456,0.455,0.458,0.460,0.459,-0.031,0.461,0.460,0.459,0.459,0.463,0.463,0.463,0.464,0.464,0.463,0.463,0.464,0.121,0.467,0.465,0.464,0.464,0.467,0.463,0.466,0.468
5,0.059,0.047,0.038,0.031,0.028,0.024,0.022,0.018,0.012,0.008,0.004,-0.003,-0.010,-0.015,-0.020,-0.026,-0.032,-0.039,-0.046,-0.050,-0.056,-0.059,-0.067,-0.071,-0.075,-0.080,-0.086,-0.093,-0.099,-0.103,-0.109,-0.116,-0.123,-0.127,0.019,-0.140,-0.145,-0.150,-0.156,-0.162,-0.169,-0.174,-0.178,0.276,-0.189,-0.199,-0.203,-0.209,-0.214,-0.219,-0.227,-0.235,-0.237,0.084,-0.251,-0.256,-0.259,-0.264,-0.272,-0.274,-0.277,-0.285,-0.289,-0.295,-0.295,-0.299,0.093,-0.306,-0.311,-0.317,-0.319,-0.325,-0.329,-0.335,-0.337,-0.342,-0.346,-0.350,-0.351,-0.370,-0.362,-0.361,-0.369,-0.371,-0.374,-0.377,-0.379,-0.384,-0.388,-0.392,-0.397,-0.396,-0.412,-0.403,-0.407,-0.409,-0.414,-0.416,-0.420,-0.424,-0.426
6,0.249,0.254,0.255,0.255,0.254,0.253,0.251,0.251,0.250,0.249,0.249,0.249,0.250,0.249,0.251,0.253,0.254,0.257,0.257,0.259,0.262,0.267,0.269,0.270,0.273,0.276,0.280,0.282,0.289,0.290,0.291,0.294,0.299,0.300,-0.239,0.306,0.305,0.309,0.309,0.315,0.318,0.319,0.321,-0.213,0.326,0.326,0.329,0.333,0.334,0.333,0.337,0.338,0.343,0.524,0.346,0.348,0.351,0.353,0.354,0.354,0.356,0.358,0.361,0.362,0.364,0.364,0.236,0.366,0.366,0.373,0.374,0.373,0.375,0.379,0.378,0.380,0.382,0.380,0.382,-1.364,0.382,0.382,0.384,0.389,0.387,0.387,0.386,0.387,0.391,0.390,0.393,0.392,0.539,0.396,0.396,0.399,0.399,0.401,0.400,0.401,0.402
7,-0.185,-0.185,-0.187,-0.188,-0.190,-0.191,-0.193,-0.198,-0.202,-0.207,-0.213,-0.220,-0.228,-0.236,-0.244,-0.252,-0.260,-0.268,-0.276,-0.284,-0.292,-0.298,-0.303,-0.308,-0.318,-0.321,-0.327,-0.330,-0.333,-0.339,-0.342,-0.347,-0.348,-0.350,-0.350,-0.355,-0.358,-0.360,-0.361,-0.364,-0.362,-0.364,-0.364,0.042,-0.364,-0.362,-0.364,-0.366,-0.364,-0.365,-0.367,-0.363,-0.363,0.048,-0.355,-0.354,-0.354,-0.354,-0.354,-0.355,-0.354,-0.351,-0.351,-0.350,-0.350,-0.349,0.042,-0.349,-0.348,-0.347,-0.347,-0.349,-0.344,-0.344,-0.346,-0.345,-0.345,-0.342,-0.341,0.247,-0.336,-0.337,-0.338,-0.337,-0.337,-0.333,-0.335,-0.332,-0.330,-0.331,-0.330,-0.329,0.086,-0.330,-0.327,-0.327,-0.327,-0.327,-0.326,-0.325,-0.323
8,0.093,0.093,0.094,0.095,0.096,0.098,0.098,0.100,0.101,0.103,0.104,0.106,0.108,0.107,0.110,0.111,0.113,0.115,0.118,0.121,0.122,0.126,0.128,0.129,0.132,0.134,0.137,0.140,0.141,0.143,0.142,0.147,0.148,0.149,0.508,0.154,0.157,0.155,0.159,0.161,0.161,0.160,0.166,-0.007,0.166,0.170,0.173,0.175,0.175,0.174,0.177,0.178,0.176,-0.225,0.178,0.180,0.180,0.185,0.186,0.183,0.184,0.184,0.185,0.186,0.188,0.187,0.039,0.189,0.190,0.188,0.187,0.189,0.189,0.189,0.190,0.193,0.191,0.193,0.191,-0.616,0.194,0.192,0.193,0.193,0.192,0.194,0.195,0.196,0.194,0.198,0.197,0.198,-0.032,0.195,0.199,0.200,0.203,0.200,0.202,0.203,0.202
9,0.423,0.414,0.412,0.413,0.418,0.424,0.431,0.439,0.447,0.453,0.459,0.465,0.472,0.479,0.485,0.492,0.498,0.505,0.511,0.516,0.524,0.528,0.535,0.538,0.543,0.547,0.551,0.556,0.559,0.561,0.564,0.570,0.570,0.573,0.090,0.577,0.578,0.581,0.581,0.585,0.584,0.588,0.586,0.116,0.589,0.590,0.591,0.589,0.589,0.589,0.590,0.592,0.588,-0.290,0.586,0.587,0.585,0.583,0.586,0.582,0.582,0.582,0.578,0.580,0.576,0.576,1.004,0.572,0.570,0.568,0.567,0.568,0.564,0.562,0.561,0.559,0.558,0.554,0.552,0.103,0.549,0.545,0.548,0.543,0.543,0.540,0.538,0.535,0.533,0.534,0.531,0.529,0.171,0.525,0.521,0.517,0.515,0.514,0.512,0.511,0.508
10,0.408,0.408,0.408,0.408,0.408,0.408,0.408,0.408,0.408,0.408,0.408,0.408,0.408,0.408,0.408,0.408,0.408,0.408,0.408,0.408,0.408,0.408,0.408,0.408,0.408,0.408,0.408,0.408,0.408,0.408,0.408,0.408,0.408,0.408,-0.020,0.408,0.408,0.408,0.408,0.408,0.408,0.408,0.408,0.092,0.408,0.408,0.408,0.408,0.408,0.408,0.408,0.408,0.408,0.627,0.408,0.408,0.408,0.408,0.408,0.408,0.408,0.408,0.408,0.408,0.408,0.408,-0.534,0.408,0.408,0.408,0.408,0.408,0.408,0.408,0.408,0.408,0.408,0.408,0.408,0.630,0.408,0.408,0.408,0.408,0.408,0.408,0.408,0.408,0.408,0.408,0.408,0.408,0.619,0.408,0.408,0.408,0.408,0.408,0.408,0.408,0.408
11,0.236,0.236,0.236,0.236,0.236,0.236,0.236,0.236,0.236,0.236,0.236,0.236,0.236,0.236,0.236,0.236,0.236,0.236,0.236,0.236,0.236,0.236,0.236,0.236,0.236,0.236,0.236,0.236,0.236,0.236,0.236,0.236,0.236,0.236,0.101,0.236,0.236,0.236,0.236,0.236,0.236,0.236,0.236,-0.577,0.236,0.236,0.236,0.236,0.236,0.236,0.236,0.236,0.236,0.048,0.236,0.236,0.236,0.236,0.236,0.236,0.236,0.236,0.236,0.236,0.236,0.236,-0.209,0.236,0.236,0.236,0.236,0.236,0.236,0.236,0.236,0.236,0.236,0.236,0.236,-0.566,0.236,0.236,0.236,0.236,0.236,0.236,0.236,0.236,0.236,0.236,0.236,0.236,0.094,0.236,0.236,0.236,0.236,0.236,0.236,0.236,0.236
12,-0.391,-0.391,-0.391,-0.391,-0.391,-0.391,-0.391,-0.391,-0.391,-0.391,-0.391,-0.391,-0.391,-0.391,-0.391,-0.391,-0.391,-0.391,-0.391,-0.391,-0.391,-0.391,-0.391,-0.391,-0.391,-0.391,-0.391,-0.391,-0.391,-0.391,-0.391,-0.391,-0.391,-0.391,0.020,-0.391,-0.391,-0.391,-0.391,-0.391,-0.391,-0.391,-0.391,-0.453,-0.391,-0.391,-0.391,-0.391,-0.391,-0.391,-0.391,-0.391,-0.391,0.084,-0.391,-0.391,-0.391,-0.391,-0.391,-0.391,-0.391,-0.391,-0.391,-0.391,-0.391,-0.391,0.868,-0.391,-0.391,-0.391,-0.391,-0.391,-0.391,-0.391,-0.391,-0.391,-0.391,-0.391,-0.391,0.068,-0.391,-0.391,-0.391,-0.391,-0.391,-0.391,-0.391,-0.391,-0.391,-0.391,-0.391,-0.391,0.274,-0.391,-0.391,-0.391,-0.391,-0.391,-0.391,-0.391,-0.391
13,-0.024,-0.024,-0.024,-0.024,-0.024,-0.024,-0.024,-0.024,-0.024,-0.024,-0.024,-0.024,-0.024,-0.024,-0.024,-0.024,-0.024,-0.024,-0.024,-0.024,-0.024,-0.024,-0.024,-0.024,-0.024,-0.024,-0.024,-0.024,-0.024,-0.024,-0.024,-0.024,-0.024,-0.024,0.040,-0.024,-0.024,-0.024,-0.024,-0.024,-0.024,-0.024,-0.024,-0.691,-0.024,-0.024,-0.024,-0.024,-0.024,-0.024,-0.024,-0.024,-0.024,-0.748,-0.024,-0.024,-0.024,-0.024,-0.024,-0.024,-0.024,-0.024,-0.024,-0.024,-0.024,-0.024,-0.239,-0.024,-0.024,-0.024,-0.024,-0.024,-0.024,-0.024,-0.024,-0.024,-0.024,-0.024,-0.024,1.032,-0.024,-0.024,-0.024,-0.024,-0.024,-0.024,-0.024,-0.024,-0.024,-0.024,-0.024,-0.024,-1.475,-0.024,-0.024,-0.024,-0.024,-0.024,-0.024,-0.024,-0.024
14,-0.009,-0.009,-0.009,-0.009,-0.009,-0.009,-0.009,-0.009,-0.009,-0.009,-0.009,-0.009,-0.009,-0.009,-0.009,-0.009,-0.009,-0.009,-0.009,-0.009,-0.009,-0.009,-0.009,-0.009,-0.009,-0.009,-0.009,-0.009,-0.009,-0.009,-0.009,-0.009,-0.009,-0.009,-0.927,-0.009,-0.009,-0.009,-0.009,-0.009,-0.009,-0.009,-0.009,-0.221,-0.009,-0.009,-0.009,-0.009,-0.009,-0.009,-0.009,-0.009,-0.009,-0.494,-0.009,-0.009,-0.009,-0.009,-0.009,-0.009,-0.009,-0.009,-0.009,-0.009,-0.009,-0.009,0.220,-0.009,-0.009,-0.009,-0.009,-0.009,-0.009,-0.009,-0.009,-0.009,-0.009,-0.009,-0.009,-0.218,-0.009,-0.009,-0.009,-0.009,-0.009,-0.009,-0.009,-0.009,-0.009,-0.009,-0.009,-0.009,-0.583,-0.009,-0.009,-0.009,-0.009,-0.009,-0.009,-0.009,-0.009
15,-0.282,-0.281,-0.281,-0.281,-0.281,-0.281,-0.281,-0.281,-0.281,-0.281,-0.281,-0.281,-0.281,-0.281,-0.281,-0.281,-0.281,-0.281,-0.281,-0.281,-0.281,-0.281,-0.281,-0.281,-0.281,-0.281,-0.281,-0.281,-0.281,-0.281,-0.281,-0.281,-0.281,-0.281,-0.061,-0.281,-0.281,-0.281,-0.281,-0.281,-0.281,-0.281,-0.281,-0.070,-0.281,-0.281,-0.281,-0.281,-0.281,-0.281,-0.281,-0.281,-0.281,-0.475,-0.281,-0.281,-0.281,-0.281,-0.281,-0.281,-0.281,-0.281,-0.281,-0.281,-0.281,-0.281,0.634,-0.281,-0.281,-0.281,-0.281,-0.281,-0.281,-0.281,-0.281,-0.281,-0.281,-0.281,-0.281,-0.501,-0.281,-0.281,-0.281,-0.281,-0.281,-0.281,-0.281,-0.281,-0.281,-0.281,-0.281,-0.281,-0.249,-0.281,-0.281,-0.281,-0.281,-0.281,-0.281,-0.281,-0.281
16,0.056,0.056,0.056,0.056,0.056,0.056,0.056,0.056,0.056,0.056,0.056,0.056,0.056,0.056,0.056,0.056,0.056,0.056,0.056,0.056,0.056,0.056,0.056,0.056,0.056,0.056,0.056,0.056,0.056,0.056,0.056,0.056,0.056,0.056,-0.200,0.056,0.056,0.056,0.056,0.056,0.056,0.056,0.056,-0.128,0.056,0.056,0.056,0.056,0.056,0.056,0.056,0.056,0.056,0.795,0.056,0.056,0.056,0.056,0.056,0.056,0.056,0.056,0.056,0.056,0.056,0.056,-0.034,0.056,0.056,0.056,0.056,0.056,0.056,0.056,0.056,0.056,0.056,0.056,0.056,-0.431,0.056,0.056,0.056,0.056,0.056,0.056,0.056,0.056,0.056,0.056,0.056,0.056,-0.628,0.056,0.056,0.056,0.056,0.056,0.056,0.056,0.056
17,0.265,0.265,0.265,0.265,0.265,0.265,0.265,0.265,0.265,0.265,0.265,0.265,0.265,0.265,0.265,0.265,0.265,0.265,0.265,0.265,0.265,0.265,0.265,0.265,0.265,0.265,0.265,0.265,0.265,0.265,0.265,0.265,0.265,0.265,-0.407,0.265,0.265,0.265,0.265,0.265,0.265,0.265,0.265,-0.110,0.265,0.265,0.265,0.265,0.265,0.265,0.265,0.265,0.265,-0.570,0.265,0.265,0.265,0.265,0.265,0.265,0.265,0.265,0.265,0.265,0.265,0.265,0.020,0.265,0.265,0.265,0.265,0.265,0.265,0.265,0.265,0.265,0.265,0.265,0.265,-0.196,0.265,0.265,0.265,0.265,0.265,0.265,0.265,0.265,0.265,0.265,0.265,0.265,0.978,0.265,0.265,0.265,0.265,0.265,0.265,0.265,0.265
18,-0.239,-0.239,-0.239,-0.239,-0.239,-0.239,-0.239,-0.239,-0.239,-0.239,-0.239,-0.239,-0.239,-0.239,-0.239,-0.239,-0.239,-0.239,-0.239,-0.239,-0.239,-0.239,-0.239,-0.239,-0.239,-0.239,-0.239,-0.239,-0.239,-0.239,-0.239,-0.239,-0.239,-0.239,0.170,-0.239,-0.239,-0.239,-0.239,-0.239,-0.239,-0.239,-0.239,0.070,-0.239,-0.239,-0.239,-0.239,-0.239,-0.239,-0.239,-0.239,-0.239,-0.679,-0.239,-0.239,-0.239,-0.239,-0.239,-0.239,-0.239,-0.239,-0.239,-0.239,-0.239,-0.239,-0.056,-0.239,-0.239,-0.239,-0.239,-0.239,-0.239,-0.239,-0.239,-0.239,-0.239,-0.239,-0.239,-0.059,-0.239,-0.239,-0.239,-0.239,-0.239,-0.239,-0.239,-0.239,-0.239,-0.239,-0.239,-0.239,-0.033,-0.239,-0.239,-0.239,-0.239,-0.239,-0.239,-0.239,-0.239
19,0.211,0.211,0.210,0.210,0.210,0.210,0.210,0.210,0.210,0.210,0.210,0.210,0.210,0.210,0.210,0.210,0.210,0.210,0.210,0.210,0.210,0.210,0.210,0.210,0.210,0.210,0.210,0.210,0.210,0.210,0.210,0.210,0.210,0.210,-0.054,0.210,0.210,0.210,0.210,0.210,0.210,0.210,0.210,-0.469,0.210,0.210,0.210,0.210,0.210,0.210,0.210,0.210,0.210,0.424,0.210,0.210,0.210,0.210,0.210,0.210,0.210,0.210,0.210,0.210,0.210,0.210,-0.581,0.210,0.210,0.210,0.210,0.210,0.210,0.210,0.210,0.210,0.210,0.210,0.210,0.206,0.210,0.210,0.210,0.210,0.210,0.210,0.210,0.210,0.210,0.210,0.210,0.210,-0.270,0.210,0.210,0.210,0.210,0.210,0.210,0.210,0.210
20,-0.131,-0.140,-0.151,-0.162,-0.175,-0.190,-0.206,-0.228,-0.254,-0.280,-0.300,-0.319,-0.338,-0.348,-0.364,-0.379,-0.391,-0.403,-0.414,-0.428,-0.440,-0.454,-0.461,-0.473,-0.485,-0.496,-0.505,-0.515,-0.527,-0.535,-0.544,-0.554,-0.562,-0.573,0.564,-0.590,-0.600,-0.608,-0.618,-0.625,-0.634,-0.641,-0.647,-0.346,-0.663,-0.670,-0.679,-0.683,-0.691,-0.696,-0.704,-0.710,-0.712,0.012,-0.724,-0.731,-0.736,-0.740,-0.746,-0.753,-0.757,-0.764,-0.766,-0.768,-0.773,-0.778,-0.209,-0.785,-0.789,-0.795,-0.799,-0.804,-0.808,-0.812,-0.813,-0.818,-0.820,-0.824,-0.828,-0.005,-0.837,-0.840,-0.843,-0.847,-0.849,-0.853,-0.857,-0.859,-0.861,-0.866,-0.867,-0.869,-0.317,-0.873,-0.876,-0.878,-0.880,-0.882,-0.885,-0.888,-0.889
21,0.366,0.357,0.346,0.335,0.321,0.306,0.291,0.302,0.329,0.357,0.384,0.407,0.425,0.445,0.461,0.478,0.496,0.510,0.526,0.542,0.556,0.572,0.585,0.598,0.614,0.627,0.640,0.654,0.668,0.680,0.696,0.708,0.720,0.733,-0.202,0.757,0.769,0.783,0.796,0.807,0.818,0.831,0.842,0.518,0.865,0.876,0.889,0.900,0.910,0.920,0.933,0.944,0.953,0.105,0.975,0.984,0.996,1.005,1.013,1.022,1.031,1.042,1.050,1.059,1.068,1.078,-0.763,1.094,1.102,1.111,1.119,1.127,1.134,1.142,1.150,1.156,1.164,1.172,1.181,-0.254,1.196,1.204,1.211,1.217,1.225,1.231,1.239,1.245,1.252,1.258,1.265,1.273,-0.307,1.288,1.295,1.301,1.307,1.314,1.320,1.327,1.333
22,0.437,0.428,0.417,0.405,0.392,0.377,0.362,0.346,0.323,0.308,0.293,0.282,0.272,0.256,0.248,0.237,0.223,0.213,0.202,0.193,0.184,0.173,0.161,0.156,0.146,0.138,0.129,0.118,0.110,0.100,0.091,0.082,0.073,0.068,0.439,0.052,0.044,0.035,0.028,0.021,0.012,0.003,-0.003,0.176,-0.018,-0.025,-0.034,-0.040,-0.048,-0.053,-0.060,-0.066,-0.071,-0.064,-0.084,-0.092,-0.095,-0.102,-0.110,-0.115,-0.121,-0.126,-0.132,-0.137,-0.142,-0.149,-0.032,-0.158,-0.161,-0.168,-0.171,-0.175,-0.180,-0.182,-0.187,-0.192,-0.197,-0.199,-0.205,-0.601,-0.211,-0.214,-0.220,-0.223,-0.226,-0.229,-0.234,-0.235,-0.239,-0.242,-0.248,-0.252,-0.593,-0.259,-0.262,-0.263,-0.268,-0.271,-0.273,-0.276,-0.278
23,-0.142,-0.149,-0.158,-0.165,-0.174,-0.187,-0.199,-0.210,-0.231,-0.247,-0.264,-0.282,-0.289,-0.302,-0.316,-0.328,-0.340,-0.352,-0.363,-0.377,-0.389,-0.402,-0.414,-0.427,-0.442,-0.454,-0.466,-0.479,-0.493,-0.500,-0.513,-0.525,-0.538,-0.553,-0.682,-0.578,-0.586,-0.597,-0.610,-0.622,-0.631,-0.642,-0.654,-0.064,-0.675,-0.686,-0.696,-0.707,-0.718,-0.727,-0.737,-0.747,-0.758,-0.048,-0.776,-0.786,-0.796,-0.805,-0.813,-0.820,-0.828,-0.837,-0.845,-0.853,-0.860,-0.869,0.409,-0.883,-0.889,-0.896,-0.904,-0.911,-0.918,-0.924,-0.929,-0.934,-0.939,-0.944,-0.950,0.008,-0.961,-0.968,-0.973,-0.977,-0.984,-0.986,-0.990,-0.996,-1.001,-1.005,-1.010,-1.014,0.055,-1.024,-1.027,-1.030,-1.035,-1.040,-1.043,-1.047,-1.051
24,-0.324,-0.334,-0.345,-0.356,-0.369,-0.384,-0.399,-0.420,-0.449,-0.472,-0.485,-0.503,-0.511,-0.522,-0.534,-0.545,-0.556,-0.569,-0.578,-0.588,-0.599,-0.611,-0.619,-0.629,-0.641,-0.650,-0.660,-0.671,-0.679,-0.690,-0.700,-0.708,-0.716,-0.725,0.654,-0.739,-0.745,-0.754,-0.761,-0.768,-0.774,-0.781,-0.786,-0.240,-0.799,-0.800,-0.807,-0.813,-0.819,-0.823,-0.829,-0.835,-0.838,0.969,-0.848,-0.851,-0.858,-0.860,-0.862,-0.866,-0.870,-0.873,-0.878,-0.878,-0.882,-0.884,-0.471,-0.888,-0.892,-0.895,-0.896,-0.897,-0.900,-0.902,-0.909,-0.908,-0.910,-0.913,-0.913,0.066,-0.917,-0.920,-0.923,-0.926,-0.928,-0.928,-0.929,-0.932,-0.935,-0.936,-0.938,-0.939,0.375,-0.944,-0.947,-0.950,-0.952,-0.952,-0.955,-0.957,-0.960
25,0.307,0.315,0.326,0.337,0.349,0.364,0.378,0.393,0.409,0.424,0.439,0.452,0.463,0.479,0.494,0.507,0.523,0.540,0.553,0.568,0.586,0.599,0.613,0.630,0.643,0.660,0.675,0.690,0.704,0.721,0.735,0.749,0.762,0.777,-0.156,0.804,0.816,0.831,0.843,0.855,0.869,0.882,0.894,-0.737,0.918,0.930,0.942,0.952,0.963,0.973,0.983,0.994,1.002,-0.619,1.021,1.029,1.040,1.049,1.057,1.068,1.077,1.085,1.094,1.101,1.110,1.118,0.108,1.133,1.142,1.146,1.154,1.161,1.169,1.174,1.181,1.188,1.192,1.199,1.206,-0.474,1.218,1.225,1.231,1.237,1.243,1.248,1.254,1.258,1.264,1.269,1.276,1.279,-0.182,1.289,1.292,1.298,1.302,1.306,1.310,1.313,1.318
26,0.407,0.397,0.386,0.374,0.360,0.344,0.328,0.315,0.308,0.295,0.282,0.278,0.271,0.265,0.256,0.251,0.242,0.241,0.233,0.228,0.222,0.217,0.214,0.207,0.202,0.196,0.193,0.188,0.183,0.177,0.169,0.167,0.165,0.156,-0.535,0.148,0.143,0.137,0.133,0.130,0.127,0.121,0.117,0.414,0.111,0.105,0.101,0.100,0.098,0.094,0.090,0.086,0.083,-0.345,0.075,0.074,0.071,0.066,0.066,0.064,0.062,0.058,0.057,0.053,0.052,0.049,0.424,0.045,0.043,0.043,0.042,0.039,0.039,0.036,0.035,0.033,0.031,0.028,0.026,-0.327,0.021,0.022,0.021,0.021,0.018,0.017,0.012,0.012,0.012,0.012,0.011,0.009,-0.308,0.006,0.002,0.003,0.002,0.001,0.000,-0.000,-0.002
27,0.179,0.175,0.168,0.164,0.159,0.154,0.146,0.139,0.137,0.128,0.114,0.107,0.099,0.090,0.085,0.081,0.073,0.066,0.061,0.054,0.046,0.044,0.037,0.032,0.025,0.018,0.011,0.006,0.001,-0.008,-0.013,-0.023,-0.027,-0.034,-0.344,-0.049,-0.055,-0.065,-0.072,-0.078,-0.085,-0.094,-0.100,0.117,-0.115,-0.121,-0.128,-0.136,-0.143,-0.149,-0.156,-0.161,-0.166,-0.160,-0.178,-0.179,-0.190,-0.192,-0.199,-0.205,-0.210,-0.213,-0.220,-0.226,-0.232,-0.237,0.058,-0.247,-0.253,-0.256,-0.260,-0.266,-0.271,-0.275,-0.279,-0.283,-0.285,-0.289,-0.295,-0.782,-0.301,-0.307,-0.311,-0.315,-0.318,-0.324,-0.326,-0.330,-0.332,-0.335,-0.339,-0.341,-0.452,-0.348,-0.351,-0.356,-0.359,-0.363,-0.365,-0.368,-0.370
28,-0.040,-0.036,-0.034,-0.033,-0.033,-0.030,-0.029,-0.029,-0.037,-0.042,-0.050,-0.056,-0.058,-0.067,-0.071,-0.080,-0.085,-0.091,-0.097,-0.103,-0.108,-0.115,-0.121,-0.127,-0.133,-0.139,-0.143,-0.149,-0.156,-0.163,-0.170,-0.174,-0.181,-0.186,-0.136,-0.196,-0.202,-0.209,-0.215,-0.220,-0.227,-0.233,-0.237,-0.230,-0.250,-0.256,-0.263,-0.267,-0.273,-0.278,-0.286,-0.292,-0.295,-0.764,-0.307,-0.310,-0.317,-0.320,-0.323,-0.331,-0.334,-0.341,-0.344,-0.348,-0.355,-0.359,0.010,-0.369,-0.374,-0.378,-0.385,-0.386,-0.389,-0.393,-0.396,-0.399,-0.404,-0.408,-0.414,-0.542,-0.422,-0.426,-0.428,-0.432,-0.436,-0.438,-0.441,-0.445,-0.449,-0.450,-0.454,-0.458,-0.090,-0.465,-0.465,-0.471,-0.469,-0.473,-0.475,-0.477,-0.481
29,-0.264,-0.272,-0.281,-0.287,-0.292,-0.300,-0.301,-0.311,-0.334,-0.360,-0.386,-0.410,-0.435,-0.458,-0.477,-0.493,-0.512,-0.531,-0.546,-0.562,-0.579,-0.594,-0.608,-0.622,-0.633,-0.648,-0.662,-0.674,-0.685,-0.699,-0.711,-0.721,-0.733,-0.743,-0.064,-0.766,-0.776,-0.787,-0.798,-0.807,-0.819,-0.829,-0.840,-0.317,-0.859,-0.869,-0.878,-0.889,-0.897,-0.906,-0.912,-0.924,-0.933,-0.294,-0.950,-0.958,-0.966,-0.976,-0.983,-0.993,-1.002,-1.008,-1.017,-1.024,-1.034,-1.042,-0.221,-1.058,-1.068,-1.071,-1.080,-1.084,-1.093,-1.100,-1.107,-1.114,-1.122,-1.130,-1.134,-0.318,-1.147,-1.155,-1.161,-1.166,-1.173,-1.178,-1.185,-1.191,-1.197,-1.204,-1.212,-1.217,-0.225,-1.229,-1.235,-1.241,-1.248,-1.254,-1.259,-1.263,-1.270
30,-0.124,-0.123,-0.123,-0.123,-0.123,-0.123,-0.124,-0.125,-0.126,-0.126,-0.126,-0.124,-0.127,-0.122,-0.122,-0.124,-0.123,-0.121,-0.120,-0.120,-0.119,-0.121,-0.120,-0.123,-0.122,-0.123,-0.123,-0.125,-0.126,-0.125,-0.124,-0.124,-0.123,-0.123,-0.348,-0.124,-0.127,-0.126,-0.126,-0.128,-0.128,-0.129,-0.129,-0.671,-0.130,-0.132,-0.135,-0.134,-0.137,-0.136,-0.138,-0.137,-0.137,-0.427,-0.139,-0.139,-0.141,-0.143,-0.143,-0.143,-0.143,-0.147,-0.145,-0.144,-0.147,-0.148,-0.099,-0.149,-0.150,-0.151,-0.152,-0.151,-0.151,-0.153,-0.155,-0.153,-0.155,-0.153,-0.154,-0.777,-0.156,-0.156,-0.155,-0.159,-0.157,-0.158,-0.160,-0.161,-0.161,-0.161,-0.161,-0.161,0.194,-0.164,-0.166,-0.166,-0.166,-0.166,-0.165,-0.169,-0.169
31,0.014,0.023,0.032,0.043,0.053,0.063,0.075,0.086,0.096,0.107,0.120,0.131,0.140,0.153,0.163,0.174,0.186,0.195,0.205,0.216,0.226,0.236,0.245,0.252,0.261,0.271,0.278,0.286,0.294,0.302,0.311,0.317,0.325,0.332,0.346,0.346,0.351,0.361,0.367,0.371,0.378,0.384,0.391,-0.640,0.402,0.406,0.413,0.417,0.424,0.428,0.435,0.440,0.443,-1.053,0.454,0.457,0.463,0.467,0.468,0.475,0.478,0.484,0.487,0.489,0.494,0.499,-0.324,0.506,0.510,0.514,0.518,0.521,0.524,0.528,0.532,0.534,0.538,0.541,0.547,-0.611,0.553,0.557,0.559,0.562,0.564,0.567,0.572,0.573,0.577,0.579,0.581,0.585,-0.158,0.593,0.596,0.596,0.599,0.602,0.605,0.609,0.608
32,0.150,0.153,0.157,0.155,0.154,0.149,0.150,0.145,0.142,0.136,0.128,0.123,0.121,0.114,0.111,0.106,0.101,0.097,0.092,0.089,0.085,0.078,0.074,0.073,0.072,0.071,0.065,0.062,0.061,0.057,0.055,0.051,0.048,0.049,-0.576,0.043,0.043,0.040,0.037,0.035,0.031,0.031,0.029,-0.014,0.028,0.025,0.021,0.020,0.017,0.017,0.014,0.012,0.012,0.503,0.008,0.004,0.001,-0.000,-0.003,-0.004,-0.006,-0.009,-0.010,-0.012,-0.014,-0.014,0.533,-0.016,-0.019,-0.021,-0.023,-0.024,-0.025,-0.026,-0.026,-0.029,-0.030,-0.033,-0.034,0.391,-0.039,-0.039,-0.041,-0.041,-0.042,-0.042,-0.045,-0.046,-0.047,-0.049,-0.050,-0.053,0.063,-0.057,-0.055,-0.055,-0.058,-0.059,-0.060,-0.060,-0.061
33,0.346,0.336,0.329,0.322,0.314,0.307,0.300,0.293,0.287,0.282,0.276,0.271,0.267,0.263,0.258,0.253,0.249,0.246,0.242,0.237,0.234,0.231,0.229,0.226,0.223,0.220,0.219,0.215,0.210,0.213,0.211,0.209,0.205,0.203,-0.074,0.199,0.200,0.197,0.196,0.193,0.192,0.191,0.187,0.724,0.183,0.183,0.180,0.180,0.180,0.177,0.177,0.175,0.173,-0.208,0.173,0.172,0.170,0.167,0.168,0.168,0.166,0.166,0.165,0.166,0.165,0.164,-0.894,0.163,0.162,0.162,0.163,0.164,0.161,0.162,0.162,0.160,0.160,0.158,0.157,-1.005,0.158,0.159,0.158,0.158,0.157,0.156,0.157,0.155,0.154,0.154,0.154,0.153,0.425,0.151,0.151,0.152,0.152,0.148,0.150,0.149,0.148
34,0.303,0.307,0.306,0.306,0.305,0.306,0.304,0.305,0.307,0.307,0.312,0.314,0.318,0.320,0.324,0.330,0.333,0.335,0.340,0.341,0.344,0.344,0.345,0.350,0.350,0.351,0.350,0.351,0.352,0.349,0.349,0.350,0.347,0.347,0.480,0.346,0.347,0.345,0.343,0.344,0.344,0.343,0.341,-0.159,0.338,0.340,0.340,0.339,0.338,0.340,0.339,0.337,0.337,-0.241,0.334,0.331,0.334,0.331,0.333,0.332,0.332,0.333,0.331,0.328,0.328,0.328,-0.199,0.328,0.329,0.326,0.326,0.324,0.326,0.324,0.324,0.321,0.323,0.324,0.321,0.528,0.321,0.319,0.317,0.316,0.318,0.317,0.317,0.317,0.316,0.314,0.314,0.314,-0.785,0.316,0.312,0.310,0.310,0.311,0.307,0.309,0.310
35,0.147,0.137,0.131,0.123,0.117,0.111,0.104,0.096,0.089,0.081,0.076,0.066,0.059,0.052,0.045,0.036,0.030,0.025,0.018,0.013,0.009,0.004,-0.002,-0.004,-0.008,-0.011,-0.012,-0.013,-0.015,-0.016,-0.018,-0.020,-0.023,-0.023,-0.531,-0.025,-0.025,-0.024,-0.024,-0.026,-0.028,-0.024,-0.024,-0.279,-0.021,-0.021,-0.019,-0.021,-0.021,-0.021,-0.020,-0.022,-0.021,0.417,-0.022,-0.022,-0.021,-0.020,-0.020,-0.018,-0.018,-0.017,-0.017,-0.015,-0.014,-0.012,-1.248,-0.011,-0.011,-0.012,-0.010,-0.010,-0.010,-0.010,-0.009,-0.009,-0.010,-0.009,-0.007,-0.488,-0.007,-0.004,-0.004,-0.002,-0.002,-0.001,0.000,0.001,0.001,0.003,0.003,0.003,-0.803,0.004,0.003,0.003,0.004,0.004,0.004,0.005,0.004
36,-0.431,-0.426,-0.424,-0.423,-0.423,-0.423,-0.423,-0.421,-0.421,-0.421,-0.420,-0.419,-0.417,-0.417,-0.414,-0.411,-0.410,-0.406,-0.405,-0.405,-0.402,-0.399,-0.400,-0.397,-0.397,-0.398,-0.395,-0.395,-0.392,-0.393,-0.394,-0.394,-0.392,-0.393,-0.846,-0.392,-0.394,-0.394,-0.396,-0.393,-0.394,-0.395,-0.395,-0.553,-0.395,-0.396,-0.395,-0.395,-0.396,-0.397,-0.397,-0.398,-0.396,0.216,-0.398,-0.397,-0.397,-0.397,-0.397,-0.398,-0.398,-0.399,-0.398,-0.398,-0.398,-0.399,-0.336,-0.401,-0.402,-0.397,-0.398,-0.399,-0.399,-0.397,-0.399,-0.398,-0.397,-0.401,-0.399,0.920,-0.403,-0.403,-0.402,-0.399,-0.401,-0.403,-0.404,-0.404,-0.401,-0.404,-0.402,-0.404,-0.233,-0.402,-0.403,-0.402,-0.402,-0.400,-0.402,-0.402,-0.401
37,-0.268,-0.262,-0.258,-0.257,-0.256,-0.256,-0.260,-0.263,-0.264,-0.269,-0.275,-0.280,-0.286,-0.292,-0.297,-0.305,-0.311,-0.319,-0.322,-0.329,-0.336,-0.337,-0.339,-0.342,-0.348,-0.351,-0.353,-0.356,-0.357,-0.361,-0.361,-0.365,-0.363,-0.365,-0.315,-0.369,-0.370,-0.373,-0.373,-0.374,-0.374,-0.376,-0.375,-0.991,-0.374,-0.374,-0.376,-0.378,-0.376,-0.376,-0.378,-0.375,-0.376,-0.220,-0.372,-0.370,-0.371,-0.370,-0.372,-0.372,-0.370,-0.370,-0.370,-0.371,-0.369,-0.369,-0.661,-0.368,-0.368,-0.368,-0.368,-0.369,-0.366,-0.367,-0.368,-0.367,-0.366,-0.364,-0.363,-0.550,-0.359,-0.360,-0.358,-0.358,-0.358,-0.355,-0.357,-0.354,-0.353,-0.353,-0.351,-0.349,0.965,-0.348,-0.346,-0.345,-0.345,-0.345,-0.343,-0.342,-0.339
38,-0.427,-0.433,-0.438,-0.442,-0.446,-0.450,-0.454,-0.457,-0.460,-0.462,-0.464,-0.468,-0.470,-0.477,-0.478,-0.481,-0.486,-0.489,-0.492,-0.493,-0.497,-0.499,-0.502,-0.507,-0.510,-0.514,-0.514,-0.516,-0.521,-0.524,-0.529,-0.528,-0.531,-0.536,0.499,-0.540,-0.542,-0.549,-0.548,-0.549,-0.553,-0.558,-0.557,0.602,-0.565,-0.564,-0.566,-0.568,-0.570,-0.574,-0.575,-0.577,-0.582,0.440,-0.586,-0.586,-0.589,-0.586,-0.588,-0.594,-0.595,-0.598,-0.599,-0.600,-0.602,-0.606,0.123,-0.610,-0.611,-0.616,-0.618,-0.619,-0.621,-0.624,-0.625,-0.624,-0.628,-0.629,-0.632,0.453,-0.634,-0.637,-0.638,-0.641,-0.644,-0.643,-0.645,-0.645,-0.649,-0.648,-0.650,-0.651,0.414,-0.657,-0.655,-0.655,-0.654,-0.659,-0.658,-0.660,-0.662
39,0.083,0.075,0.069,0.067,0.066,0.065,0.064,0.064,0.061,0.062,0.059,0.054,0.051,0.046,0.040,0.036,0.028,0.024,0.017,0.010,0.005,-0.001,-0.007,-0.013,-0.018,-0.023,-0.029,-0.033,-0.037,-0.041,-0.045,-0.048,-0.053,-0.057,0.629,-0.062,-0.066,-0.066,-0.070,-0.069,-0.070,-0.072,-0.075,0.488,-0.079,-0.080,-0.079,-0.081,-0.080,-0.079,-0.081,-0.080,-0.080,-0.553,-0.081,-0.080,-0.080,-0.080,-0.078,-0.078,-0.077,-0.076,-0.075,-0.073,-0.073,-0.073,-0.512,-0.071,-0.072,-0.069,-0.068,-0.066,-0.066,-0.065,-0.063,-0.062,-0.059,-0.060,-0.059,0.074,-0.057,-0.057,-0.054,-0.054,-0.049,-0.049,-0.046,-0.046,-0.046,-0.042,-0.042,-0.037,-0.498,-0.034,-0.035,-0.033,-0.033,-0.029,-0.029,-0.027,-0.026
40,-0.280,-0.292,-0.305,-0.317,-0.331,-0.345,-0.358,-0.371,-0.385,-0.399,-0.412,-0.424,-0.437,-0.449,-0.461,-0.473,-0.484,-0.494,-0.506,-0.515,-0.525,-0.535,-0.544,-0.555,-0.562,-0.572,-0.580,-0.588,-0.598,-0.605,-0.614,-0.622,-0.630,-0.636,-0.510,-0.652,-0.659,-0.666,-0.673,-0.681,-0.689,-0.697,-0.704,0.355,-0.718,-0.725,-0.733,-0.740,-0.747,-0.752,-0.759,-0.764,-0.771,-0.761,-0.783,-0.790,-0.797,-0.803,-0.811,-0.817,-0.823,-0.831,-0.835,-0.841,-0.848,-0.855,0.002,-0.869,-0.874,-0.880,-0.886,-0.892,-0.897,-0.905,-0.911,-0.918,-0.923,-0.928,-0.933,0.534,-0.944,-0.950,-0.955,-0.960,-0.966,-0.970,-0.976,-0.983,-0.987,-0.992,-0.998,-1.004,0.089,-1.014,-1.019,-1.025,-1.030,-1.033,-1.038,-1.043,-1.048
41,0.202,0.201,0.202,0.203,0.205,0.204,0.205,0.206,0.203,0.199,0.197,0.194,0.187,0.185,0.180,0.176,0.174,0.169,0.165,0.163,0.160,0.159,0.157,0.153,0.155,0.153,0.153,0.154,0.155,0.157,0.160,0.162,0.164,0.167,-0.303,0.172,0.173,0.179,0.181,0.182,0.185,0.190,0.191,-1.029,0.198,0.199,0.203,0.205,0.208,0.209,0.213,0.215,0.215,0.193,0.220,0.221,0.223,0.225,0.226,0.228,0.229,0.233,0.234,0.235,0.237,0.239,-1.127,0.241,0.242,0.243,0.243,0.242,0.242,0.243,0.243,0.242,0.243,0.244,0.245,-0.007,0.246,0.248,0.247,0.247,0.247,0.247,0.246,0.246,0.247,0.246,0.246,0.246,1.056,0.247,0.247,0.245,0.245,0.245,0.245,0.245,0.244
42,0.104,0.101,0.096,0.087,0.079,0.068,0.061,0.051,0.040,0.032,0.022,0.014,0.004,-0.006,-0.015,-0.023,-0.033,-0.040,-0.046,-0.054,-0.059,-0.067,-0.071,-0.075,-0.081,-0.084,-0.089,-0.094,-0.096,-0.102,-0.103,-0.105,-0.109,-0.112,0.409,-0.121,-0.124,-0.126,-0.127,-0.131,-0.133,-0.137,-0.139,-0.190,-0.144,-0.145,-0.148,-0.152,-0.154,-0.153,-0.156,-0.155,-0.157,-1.126,-0.158,-0.161,-0.162,-0.161,-0.162,-0.162,-0.166,-0.165,-0.167,-0.168,-0.167,-0.169,0.908,-0.169,-0.168,-0.169,-0.168,-0.168,-0.169,-0.166,-0.167,-0.166,-0.167,-0.167,-0.166,-0.703,-0.166,-0.165,-0.164,-0.165,-0.164,-0.164,-0.162,-0.161,-0.162,-0.162,-0.161,-0.162,-0.748,-0.160,-0.159,-0.156,-0.158,-0.158,-0.155,-0.152,-0.151
43,0.241,0.230,0.221,0.211,0.200,0.190,0.181,0.171,0.162,0.154,0.146,0.139,0.131,0.123,0.118,0.111,0.106,0.100,0.097,0.091,0.087,0.085,0.083,0.079,0.077,0.075,0.073,0.072,0.070,0.071,0.070,0.070,0.069,0.067,-0.465,0.067,0.068,0.069,0.070,0.072,0.070,0.073,0.075,0.807,0.079,0.081,0.080,0.083,0.081,0.081,0.085,0.085,0.087,-0.838,0.087,0.088,0.086,0.088,0.087,0.088,0.090,0.089,0.091,0.092,0.092,0.096,0.069,0.098,0.099,0.100,0.101,0.103,0.103,0.106,0.109,0.110,0.110,0.111,0.110,0.212,0.112,0.111,0.115,0.114,0.116,0.117,0.117,0.117,0.116,0.117,0.117,0.116,-0.255,0.117,0.119,0.123,0.123,0.121,0.124,0.123,0.124
44,-0.362,-0.374,-0.388,-0.401,-0.415,-0.430,-0.444,-0.458,-0.472,-0.486,-0.501,-0.514,-0.527,-0.541,-0.553,-0.565,-0.576,-0.587,-0.599,-0.610,-0.621,-0.631,-0.640,-0.649,-0.658,-0.667,-0.676,-0.683,-0.692,-0.700,-0.708,-0.715,-0.722,-0.729,0.745,-0.743,-0.749,-0.756,-0.764,-0.770,-0.776,-0.782,-0.787,0.926,-0.798,-0.803,-0.808,-0.814,-0.819,-0.824,-0.829,-0.835,-0.839,-0.368,-0.849,-0.853,-0.857,-0.861,-0.864,-0.867,-0.870,-0.873,-0.879,-0.882,-0.886,-0.889,-0.552,-0.895,-0.899,-0.902,-0.906,-0.909,-0.910,-0.914,-0.917,-0.920,-0.922,-0.925,-0.928,0.366,-0.935,-0.937,-0.941,-0.943,-0.944,-0.948,-0.947,-0.949,-0.951,-0.956,-0.956,-0.956,0.517,-0.958,-0.962,-0.965,-0.967,-0.968,-0.971,-0.973,-0.976
45,-0.106,-0.100,-0.091,-0.087,-0.080,-0.072,-0.065,-0.058,-0.051,-0.043,-0.033,-0.027,-0.019,-0.011,-0.003,0.002,0.008,0.017,0.022,0.029,0.036,0.040,0.044,0.051,0.055,0.062,0.066,0.071,0.076,0.081,0.085,0.086,0.090,0.093,0.215,0.100,0.105,0.108,0.113,0.114,0.115,0.121,0.124,-0.358,0.130,0.129,0.132,0.132,0.137,0.138,0.140,0.140,0.143,-0.035,0.145,0.145,0.148,0.150,0.151,0.153,0.155,0.155,0.158,0.157,0.161,0.163,0.536,0.168,0.168,0.167,0.171,0.171,0.171,0.170,0.174,0.175,0.175,0.175,0.180,-1.012,0.180,0.184,0.183,0.187,0.188,0.189,0.191,0.191,0.193,0.195,0.195,0.197,-0.440,0.199,0.198,0.199,0.201,0.202,0.202,0.203,0.203
46,-0.103,-0.111,-0.121,-0.133,-0.145,-0.157,-0.169,-0.180,-0.192,-0.205,-0.218,-0.228,-0.239,-0.250,-0.259,-0.265,-0.274,-0.281,-0.290,-0.297,-0.304,-0.312,-0.318,-0.325,-0.331,-0.339,-0.344,-0.351,-0.354,-0.362,-0.368,-0.373,-0.376,-0.383,-0.122,-0.393,-0.400,-0.406,-0.412,-0.416,-0.422,-0.428,-0.432,-0.471,-0.443,-0.449,-0.455,-0.458,-0.463,-0.470,-0.473,-0.477,-0.482,-0.476,-0.491,-0.494,-0.499,-0.504,-0.510,-0.514,-0.518,-0.523,-0.526,-0.531,-0.535,-0.541,-0.214,-0.549,-0.553,-0.556,-0.559,-0.563,-0.566,-0.569,-0.575,-0.578,-0.583,-0.586,-0.590,0.526,-0.597,-0.599,-0.601,-0.605,-0.609,-0.614,-0.617,-0.621,-0.622,-0.627,-0.627,-0.632,0.006,-0.635,-0.639,-0.640,-0.642,-0.644,-0.648,-0.651,-0.652
47,0.242,0.254,0.266,0.278,0.289,0.301,0.311,0.322,0.335,0.346,0.357,0.367,0.378,0.388,0.397,0.406,0.415,0.422,0.431,0.438,0.444,0.451,0.458,0.465,0.469,0.475,0.479,0.483,0.488,0.492,0.496,0.499,0.504,0.508,-0.131,0.514,0.516,0.517,0.520,0.522,0.524,0.524,0.526,-0.401,0.529,0.532,0.533,0.535,0.536,0.537,0.537,0.538,0.539,-0.146,0.543,0.545,0.544,0.545,0.544,0.543,0.544,0.545,0.545,0.545,0.544,0.543,0.482,0.541,0.541,0.542,0.542,0.541,0.543,0.540,0.538,0.538,0.539,0.540,0.539,-0.260,0.540,0.538,0.537,0.536,0.533,0.534,0.532,0.533,0.533,0.532,0.531,0.533,-0.463,0.531,0.531,0.530,0.529,0.529,0.528,0.526,0.526
48,0.243,0.237,0.231,0.228,0.223,0.218,0.214,0.212,0.209,0.205,0.201,0.201,0.201,0.197,0.197,0.197,0.196,0.198,0.197,0.200,0.202,0.204,0.202,0.208,0.210,0.213,0.218,0.222,0.224,0.228,0.230,0.234,0.237,0.240,-0.611,0.250,0.254,0.257,0.261,0.266,0.272,0.277,0.281,-0.153,0.289,0.294,0.297,0.304,0.308,0.314,0.316,0.320,0.325,-0.489,0.333,0.339,0.346,0.347,0.357,0.360,0.364,0.369,0.373,0.380,0.382,0.387,0.742,0.395,0.400,0.404,0.406,0.411,0.414,0.421,0.425,0.429,0.434,0.438,0.440,-1.195,0.449,0.452,0.456,0.460,0.462,0.466,0.470,0.474,0.477,0.482,0.486,0.487,-0.061,0.494,0.499,0.500,0.505,0.509,0.510,0.515,0.519
49,0.188,0.180,0.176,0.172,0.171,0.169,0.169,0.168,0.166,0.167,0.167,0.164,0.165,0.164,0.161,0.162,0.158,0.158,0.154,0.151,0.149,0.146,0.142,0.135,0.131,0.126,0.119,0.117,0.111,0.106,0.101,0.099,0.092,0.087,0.128,0.079,0.075,0.073,0.067,0.066,0.064,0.061,0.055,-0.268,0.047,0.046,0.047,0.043,0.040,0.039,0.035,0.035,0.032,-0.110,0.027,0.026,0.023,0.021,0.023,0.021,0.019,0.018,0.016,0.017,0.015,0.013,-0.272,0.011,0.009,0.009,0.007,0.009,0.005,0.006,0.006,0.005,0.005,0.003,0.001,-0.388,-0.000,-0.003,-0.001,-0.003,0.001,-0.002,-0.001,-0.003,-0.005,-0.004,-0.004,-0.005,-0.662,-0.006,-0.008,-0.010,-0.011,-0.011,-0.011,-0.011,-0.013
50,0.017,0.018,0.019,0.017,0.014,0.011,0.006,0.001,-0.003,-0.006,-0.010,-0.013,-0.018,-0.021,-0.025,-0.029,-0.033,-0.037,-0.041,-0.044,-0.048,-0.052,-0.055,-0.060,-0.063,-0.067,-0.071,-0.074,-0.079,-0.082,-0.085,-0.088,-0.092,-0.096,-0.559,-0.103,-0.106,-0.110,-0.113,-0.115,-0.119,-0.122,-0.126,0.451,-0.134,-0.137,-0.141,-0.144,-0.150,-0.155,-0.159,-0.162,-0.166,-0.204,-0.172,-0.174,-0.177,-0.180,-0.184,-0.187,-0.190,-0.197,-0.200,-0.207,-0.212,-0.219,-0.130,-0.229,-0.233,-0.237,-0.243,-0.241,-0.245,-0.252,-0.257,-0.257,-0.264,-0.262,-0.263,-0.420,-0.268,-0.269,-0.271,-0.275,-0.274,-0.277,-0.281,-0.284,-0.284,-0.283,-0.284,-0.287,0.534,-0.291,-0.294,-0.295,-0.293,-0.293,-0.293,-0.298,-0.298
51,-0.271,-0.265,-0.259,-0.253,-0.248,-0.245,-0.242,-0.243,-0.245,-0.248,-0.252,-0.255,-0.260,-0.265,-0.270,-0.274,-0.279,-0.284,-0.290,-0.295,-0.300,-0.306,-0.311,-0.317,-0.322,-0.328,-0.334,-0.339,-0.345,-0.350,-0.355,-0.361,-0.366,-0.371,-0.511,-0.382,-0.387,-0.392,-0.398,-0.403,-0.409,-0.414,-0.420,-0.114,-0.431,-0.436,-0.443,-0.448,-0.454,-0.461,-0.465,-0.471,-0.476,-0.148,-0.487,-0.491,-0.496,-0.501,-0.507,-0.512,-0.518,-0.523,-0.530,-0.537,-0.545,-0.555,-0.724,-0.575,-0.587,-0.599,-0.613,-0.627,-0.641,-0.651,-0.664,-0.680,-0.691,-0.703,-0.712,-0.247,-0.737,-0.747,-0.761,-0.773,-0.785,-0.798,-0.806,-0.818,-0.829,-0.841,-0.851,-0.862,-0.270,-0.878,-0.889,-0.901,-0.909,-0.917,-0.925,-0.932,-0.944
52,-0.259,-0.255,-0.251,-0.253,-0.254,-0.259,-0.262,-0.267,-0.271,-0.275,-0.278,-0.282,-0.286,-0.290,-0.295,-0.299,-0.303,-0.307,-0.311,-0.315,-0.317,-0.321,-0.324,-0.328,-0.330,-0.333,-0.335,-0.339,-0.340,-0.344,-0.343,-0.345,-0.346,-0.348,0.071,-0.353,-0.354,-0.355,-0.355,-0.357,-0.358,-0.361,-0.360,-0.767,-0.362,-0.362,-0.363,-0.367,-0.369,-0.367,-0.369,-0.367,-0.368,0.071,-0.367,-0.368,-0.367,-0.365,-0.365,-0.365,-0.368,-0.366,-0.370,-0.372,-0.372,-0.373,0.307,-0.374,-0.375,-0.378,-0.378,-0.379,-0.380,-0.378,-0.380,-0.381,-0.382,-0.384,-0.385,-0.135,-0.388,-0.388,-0.389,-0.390,-0.391,-0.391,-0.392,-0.393,-0.395,-0.398,-0.398,-0.402,-0.803,-0.404,-0.402,-0.399,-0.404,-0.405,-0.404,-0.404,-0.404
53,-0.407,-0.411,-0.410,-0.410,-0.411,-0.412,-0.413,-0.416,-0.420,-0.424,-0.428,-0.432,-0.436,-0.440,-0.444,-0.448,-0.451,-0.455,-0.458,-0.461,-0.465,-0.468,-0.470,-0.473,-0.475,-0.478,-0.479,-0.482,-0.484,-0.485,-0.487,-0.489,-0.491,-0.492,0.510,-0.495,-0.495,-0.496,-0.497,-0.497,-0.499,-0.498,-0.499,0.254,-0.499,-0.499,-0.501,-0.500,-0.502,-0.501,-0.498,-0.500,-0.501,-1.005,-0.506,-0.508,-0.511,-0.512,-0.515,-0.515,-0.516,-0.516,-0.514,-0.510,-0.509,-0.504,0.386,-0.498,-0.495,-0.489,-0.484,-0.479,-0.477,-0.469,-0.464,-0.463,-0.458,-0.457,-0.456,-0.269,-0.449,-0.447,-0.441,-0.440,-0.438,-0.435,-0.432,-0.430,-0.430,-0.427,-0.424,-0.424,-0.528,-0.421,-0.416,-0.411,-0.409,-0.411,-0.406,-0.405,-0.403
54,0.451,0.455,0.453,0.453,0.450,0.445,0.439,0.433,0.427,0.422,0.416,0.411,0.404,0.399,0.393,0.387,0.381,0.375,0.369,0.364,0.358,0.352,0.347,0.341,0.336,0.330,0.325,0.320,0.315,0.310,0.305,0.300,0.296,0.290,-0.681,0.280,0.276,0.272,0.267,0.262,0.257,0.253,0.248,0.621,0.240,0.235,0.231,0.226,0.220,0.216,0.211,0.206,0.202,-0.715,0.194,0.190,0.187,0.183,0.179,0.175,0.172,0.167,0.162,0.158,0.153,0.151,-0.559,0.145,0.144,0.138,0.135,0.133,0.134,0.131,0.129,0.126,0.130,0.132,0.128,-0.232,0.127,0.124,0.123,0.123,0.127,0.126,0.128,0.129,0.128,0.126,0.125,0.127,-0.948,0.131,0.126,0.124,0.124,0.128,0.124,0.127,0.130
55,-0.378,-0.381,-0.380,-0.381,-0.377,-0.369,-0.362,-0.355,-0.347,-0.340,-0.330,-0.324,-0.315,-0.307,-0.300,-0.293,-0.285,-0.277,-0.270,-0.262,-0.256,-0.250,-0.244,-0.237,-0.231,-0.223,-0.218,-0.212,-0.206,-0.200,-0.195,-0.192,-0.187,-0.183,-0.184,-0.173,-0.167,-0.164,-0.158,-0.157,-0.154,-0.148,-0.144,-0.589,-0.137,-0.136,-0.133,-0.132,-0.128,-0.126,-0.123,-0.123,-0.120,-0.844,-0.119,-0.118,-0.115,-0.113,-0.112,-0.109,-0.107,-0.107,-0.106,-0.106,-0.103,-0.101,-0.280,-0.098,-0.099,-0.100,-0.098,-0.099,-0.099,-0.101,-0.099,-0.099,-0.100,-0.102,-0.097,-0.220,-0.100,-0.096,-0.100,-0.096,-0.096,-0.096,-0.095,-0.096,-0.096,-0.095,-0.097,-0.096,-0.135,-0.098,-0.100,-0.101,-0.102,-0.103,-0.105,-0.106,-0.108
56,-0.033,-0.029,-0.028,-0.030,-0.031,-0.034,-0.036,-0.039,-0.041,-0.043,-0.046,-0.047,-0.049,-0.051,-0.052,-0.053,-0.055,-0.056,-0.058,-0.059,-0.060,-0.062,-0.062,-0.063,-0.065,-0.066,-0.067,-0.067,-0.068,-0.070,-0.071,-0.070,-0.070,-0.072,-0.877,-0.072,-0.075,-0.075,-0.075,-0.076,-0.076,-0.077,-0.078,-0.105,-0.079,-0.082,-0.082,-0.081,-0.081,-0.083,-0.084,-0.083,-0.084,0.385,-0.084,-0.084,-0.085,-0.085,-0.085,-0.084,-0.084,-0.086,-0.086,-0.086,-0.087,-0.087,-0.582,-0.086,-0.085,-0.078,-0.075,-0.076,-0.072,-0.068,-0.068,-0.065,-0.066,-0.065,-0.064,0.564,-0.061,-0.059,-0.055,-0.050,-0.053,-0.052,-0.054,-0.052,-0.046,-0.047,-0.043,-0.044,-0.570,-0.037,-0.038,-0.035,-0.033,-0.028,-0.030,-0.028,-0.026
57,0.269,0.276,0.281,0.289,0.294,0.301,0.309,0.317,0.325,0.333,0.340,0.348,0.356,0.364,0.372,0.379,0.386,0.393,0.401,0.406,0.413,0.419,0.426,0.432,0.436,0.442,0.446,0.451,0.455,0.460,0.464,0.467,0.472,0.476,-0.677,0.483,0.485,0.487,0.489,0.494,0.496,0.496,0.499,-0.922,0.504,0.507,0.509,0.512,0.514,0.516,0.517,0.520,0.521,0.112,0.527,0.529,0.530,0.531,0.531,0.530,0.532,0.534,0.535,0.535,0.536,0.536,-0.384,0.536,0.537,0.538,0.537,0.537,0.539,0.536,0.534,0.535,0.537,0.538,0.537,0.277,0.538,0.536,0.536,0.535,0.533,0.534,0.532,0.532,0.534,0.531,0.531,0.534,0.297,0.533,0.533,0.532,0.530,0.530,0.530,0.529,0.529
58,0.157,0.154,0.153,0.154,0.153,0.153,0.153,0.153,0.153,0.152,0.152,0.154,0.156,0.156,0.159,0.160,0.161,0.165,0.165,0.168,0.171,0.175,0.175,0.180,0.183,0.187,0.192,0.196,0.199,0.203,0.206,0.210,0.214,0.219,0.127,0.230,0.234,0.238,0.243,0.247,0.253,0.259,0.263,0.735,0.274,0.279,0.284,0.291,0.297,0.303,0.307,0.312,0.318,-0.489,0.329,0.334,0.341,0.344,0.353,0.358,0.363,0.368,0.375,0.382,0.387,0.394,-1.007,0.406,0.412,0.416,0.419,0.426,0.431,0.436,0.443,0.448,0.452,0.457,0.459,0.139,0.471,0.474,0.477,0.481,0.483,0.490,0.495,0.500,0.502,0.510,0.512,0.516,0.440,0.520,0.529,0.532,0.538,0.538,0.543,0.547,0.550
59,0.301,0.287,0.276,0.266,0.259,0.252,0.247,0.244,0.240,0.237,0.234,0.230,0.226,0.222,0.218,0.214,0.209,0.205,0.200,0.195,0.190,0.186,0.181,0.175,0.170,0.164,0.158,0.154,0.149,0.143,0.139,0.136,0.131,0.126,0.876,0.118,0.113,0.110,0.106,0.102,0.100,0.097,0.092,-0.078,0.084,0.082,0.081,0.078,0.075,0.073,0.070,0.068,0.066,-0.635,0.060,0.059,0.055,0.054,0.054,0.052,0.050,0.050,0.048,0.049,0.047,0.047,-0.876,0.047,0.046,0.048,0.049,0.051,0.051,0.053,0.055,0.057,0.058,0.059,0.059,-0.628,0.063,0.063,0.067,0.066,0.072,0.071,0.073,0.075,0.075,0.079,0.080,0.082,-0.206,0.086,0.084,0.085,0.085,0.089,0.090,0.092,0.093
60,0.065,0.066,0.065,0.064,0.064,0.064,0.063,0.071,0.079,0.092,0.103,0.115,0.120,0.134,0.141,0.147,0.153,0.160,0.166,0.170,0.175,0.176,0.182,0.181,0.185,0.187,0.190,0.191,0.192,0.195,0.199,0.202,0.205,0.207,-0.715,0.210,0.210,0.213,0.215,0.215,0.217,0.218,0.220,-0.560,0.223,0.222,0.222,0.224,0.223,0.226,0.224,0.227,0.229,0.224,0.230,0.232,0.232,0.232,0.233,0.235,0.236,0.233,0.237,0.240,0.239,0.238,-0.393,0.240,0.241,0.241,0.242,0.244,0.245,0.244,0.244,0.247,0.247,0.250,0.250,-0.265,0.250,0.252,0.254,0.251,0.255,0.254,0.254,0.254,0.256,0.258,0.259,0.260,-0.158,0.260,0.259,0.260,0.262,0.263,0.265,0.262,0.264
61,0.140,0.145,0.152,0.159,0.167,0.174,0.183,0.198,0.213,0.229,0.249,0.267,0.280,0.298,0.312,0.325,0.340,0.348,0.359,0.371,0.379,0.390,0.397,0.403,0.410,0.418,0.423,0.429,0.435,0.440,0.447,0.450,0.456,0.459,-0.137,0.467,0.470,0.478,0.482,0.481,0.487,0.490,0.494,0.433,0.500,0.500,0.504,0.505,0.509,0.510,0.515,0.516,0.517,-0.170,0.522,0.523,0.527,0.528,0.526,0.532,0.532,0.535,0.536,0.535,0.538,0.542,0.515,0.545,0.547,0.549,0.550,0.551,0.552,0.553,0.556,0.556,0.557,0.558,0.562,-0.095,0.564,0.566,0.565,0.567,0.567,0.567,0.570,0.570,0.572,0.572,0.572,0.574,-0.278,0.578,0.579,0.577,0.579,0.580,0.580,0.583,0.581
62,0.360,0.364,0.368,0.370,0.369,0.369,0.375,0.376,0.380,0.383,0.379,0.381,0.387,0.384,0.386,0.386,0.386,0.385,0.383,0.385,0.385,0.381,0.380,0.383,0.386,0.388,0.385,0.384,0.386,0.385,0.385,0.383,0.382,0.388,-0.195,0.387,0.389,0.389,0.388,0.389,0.387,0.389,0.389,0.220,0.393,0.392,0.390,0.391,0.390,0.393,0.391,0.392,0.394,-0.625,0.394,0.393,0.392,0.393,0.392,0.393,0.392,0.392,0.393,0.392,0.392,0.394,-0.205,0.396,0.395,0.395,0.394,0.395,0.395,0.397,0.398,0.397,0.397,0.397,0.397,-0.149,0.396,0.397,0.398,0.400,0.400,0.401,0.400,0.402,0.402,0.402,0.402,0.401,-0.295,0.400,0.404,0.405,0.403,0.404,0.405,0.406,0.407
63,0.123,0.114,0.105,0.095,0.085,0.076,0.065,0.056,0.050,0.046,0.041,0.040,0.042,0.045,0.044,0.045,0.045,0.048,0.048,0.047,0.046,0.049,0.051,0.051,0.051,0.052,0.053,0.052,0.051,0.056,0.056,0.056,0.054,0.054,-0.103,0.054,0.057,0.055,0.057,0.055,0.055,0.056,0.053,0.241,0.052,0.053,0.052,0.053,0.054,0.053,0.054,0.053,0.052,-0.008,0.053,0.053,0.052,0.049,0.051,0.052,0.051,0.052,0.051,0.053,0.053,0.051,0.283,0.050,0.051,0.051,0.053,0.054,0.051,0.053,0.054,0.052,0.052,0.051,0.050,-0.941,0.052,0.053,0.053,0.053,0.052,0.052,0.053,0.052,0.051,0.051,0.052,0.051,-0.165,0.050,0.051,0.051,0.051,0.048,0.050,0.049,0.049
64,-0.149,-0.161,-0.173,-0.184,-0.197,-0.209,-0.220,-0.216,-0.205,-0.197,-0.181,-0.170,-0.157,-0.148,-0.138,-0.127,-0.119,-0.113,-0.104,-0.100,-0.094,-0.092,-0.088,-0.081,-0.080,-0.077,-0.076,-0.073,-0.071,-0.072,-0.071,-0.069,-0.070,-0.070,0.155,-0.068,-0.066,-0.067,-0.068,-0.067,-0.066,-0.066,-0.067,-0.924,-0.068,-0.065,-0.065,-0.065,-0.064,-0.062,-0.062,-0.064,-0.063,-0.199,-0.065,-0.067,-0.063,-0.065,-0.063,-0.063,-0.062,-0.060,-0.062,-0.064,-0.064,-0.063,-0.498,-0.062,-0.060,-0.063,-0.063,-0.064,-0.062,-0.064,-0.063,-0.065,-0.062,-0.061,-0.063,0.056,-0.063,-0.064,-0.065,-0.066,-0.063,-0.064,-0.063,-0.062,-0.063,-0.064,-0.065,-0.064,0.160,-0.062,-0.065,-0.066,-0.066,-0.064,-0.067,-0.065,-0.063
65,-0.014,-0.018,-0.019,-0.023,-0.024,-0.023,-0.026,-0.039,-0.055,-0.075,-0.096,-0.120,-0.144,-0.163,-0.184,-0.206,-0.223,-0.239,-0.256,-0.272,-0.284,-0.297,-0.313,-0.323,-0.334,-0.343,-0.353,-0.360,-0.370,-0.377,-0.386,-0.394,-0.403,-0.408,-0.374,-0.422,-0.428,-0.432,-0.438,-0.445,-0.453,-0.453,-0.458,-0.203,-0.465,-0.469,-0.472,-0.479,-0.482,-0.487,-0.491,-0.496,-0.499,-0.377,-0.508,-0.512,-0.514,-0.519,-0.523,-0.525,-0.528,-0.531,-0.535,-0.538,-0.540,-0.542,-0.615,-0.547,-0.550,-0.554,-0.554,-0.557,-0.559,-0.563,-0.564,-0.567,-0.571,-0.574,-0.573,0.756,-0.579,-0.579,-0.583,-0.582,-0.585,-0.587,-0.586,-0.590,-0.592,-0.593,-0.595,-0.596,-1.292,-0.599,-0.601,-0.604,-0.604,-0.606,-0.608,-0.610,-0.612
66,0.160,0.160,0.157,0.154,0.149,0.146,0.141,0.138,0.136,0.133,0.133,0.132,0.135,0.130,0.134,0.137,0.138,0.142,0.141,0.141,0.143,0.145,0.144,0.145,0.146,0.143,0.145,0.146,0.148,0.146,0.144,0.143,0.145,0.144,-0.212,0.143,0.140,0.140,0.137,0.139,0.139,0.137,0.136,-0.269,0.135,0.133,0.133,0.133,0.130,0.128,0.128,0.126,0.127,-0.651,0.124,0.124,0.123,0.123,0.122,0.120,0.120,0.119,0.119,0.119,0.118,0.117,-0.653,0.114,0.112,0.117,0.116,0.113,0.114,0.115,0.112,0.113,0.113,0.109,0.110,0.066,0.106,0.105,0.105,0.109,0.105,0.103,0.101,0.101,0.103,0.100,0.102,0.100,-0.678,0.102,0.101,0.101,0.099,0.101,0.099,0.098,0.099
67,-0.073,-0.079,-0.087,-0.097,-0.103,-0.113,-0.126,-0.149,-0.176,-0.202,-0.230,-0.256,-0.282,-0.306,-0.328,-0.350,-0.369,-0.386,-0.401,-0.417,-0.431,-0.440,-0.450,-0.459,-0.470,-0.478,-0.486,-0.492,-0.497,-0.505,-0.508,-0.516,-0.517,-0.521,-0.450,-0.531,-0.535,-0.541,-0.543,-0.547,-0.549,-0.553,-0.555,0.521,-0.559,-0.561,-0.564,-0.569,-0.569,-0.572,-0.576,-0.575,-0.578,-0.298,-0.579,-0.577,-0.581,-0.583,-0.585,-0.588,-0.589,-0.590,-0.593,-0.595,-0.595,-0.598,-0.822,-0.602,-0.604,-0.607,-0.610,-0.613,-0.612,-0.615,-0.620,-0.620,-0.622,-0.622,-0.623,0.297,-0.623,-0.627,-0.628,-0.629,-0.631,-0.630,-0.634,-0.634,-0.635,-0.637,-0.638,-0.638,0.051,-0.642,-0.643,-0.645,-0.649,-0.650,-0.652,-0.652,-0.652
68,0.206,0.213,0.219,0.229,0.235,0.241,0.249,0.259,0.268,0.277,0.288,0.297,0.308,0.309,0.316,0.321,0.323,0.327,0.331,0.336,0.337,0.342,0.343,0.343,0.345,0.345,0.350,0.353,0.351,0.353,0.351,0.356,0.356,0.355,-0.387,0.358,0.359,0.356,0.360,0.362,0.362,0.360,0.364,-0.454,0.362,0.366,0.367,0.369,0.370,0.369,0.370,0.371,0.369,0.718,0.371,0.374,0.373,0.378,0.379,0.376,0.377,0.377,0.377,0.379,0.379,0.378,-0.477,0.378,0.379,0.377,0.377,0.378,0.378,0.377,0.379,0.382,0.379,0.381,0.379,0.252,0.382,0.381,0.381,0.381,0.379,0.382,0.382,0.383,0.381,0.385,0.383,0.384,-0.451,0.381,0.384,0.385,0.388,0.385,0.387,0.387,0.387
69,0.284,0.285,0.289,0.291,0.297,0.300,0.304,0.296,0.284,0.268,0.246,0.222,0.197,0.171,0.143,0.121,0.096,0.074,0.054,0.033,0.013,-0.006,-0.022,-0.040,-0.054,-0.068,-0.083,-0.097,-0.109,-0.122,-0.134,-0.143,-0.156,-0.166,-0.001,-0.186,-0.196,-0.202,-0.213,-0.217,-0.224,-0.232,-0.240,0.741,-0.254,-0.263,-0.266,-0.274,-0.278,-0.282,-0.288,-0.292,-0.297,0.358,-0.307,-0.312,-0.316,-0.320,-0.323,-0.329,-0.331,-0.334,-0.339,-0.341,-0.346,-0.350,0.370,-0.358,-0.364,-0.366,-0.368,-0.370,-0.375,-0.379,-0.381,-0.384,-0.386,-0.392,-0.394,-0.483,-0.401,-0.404,-0.405,-0.411,-0.410,-0.415,-0.417,-0.420,-0.425,-0.425,-0.429,-0.429,-0.902,-0.434,-0.440,-0.443,-0.446,-0.446,-0.449,-0.452,-0.456
70,-0.407,-0.423,-0.442,-0.463,-0.485,-0.505,-0.525,-0.544,-0.563,-0.581,-0.599,-0.616,-0.634,-0.650,-0.666,-0.682,-0.697,-0.709,-0.723,-0.735,-0.749,-0.762,-0.771,-0.784,-0.794,-0.804,-0.812,-0.821,-0.833,-0.839,-0.847,-0.856,-0.862,-0.870,0.636,-0.882,-0.887,-0.895,-0.901,-0.906,-0.910,-0.915,-0.918,0.429,-0.929,-0.935,-0.939,-0.942,-0.947,-0.951,-0.955,-0.958,-0.962,0.217,-0.970,-0.973,-0.977,-0.978,-0.982,-0.986,-0.990,-0.994,-0.997,-0.999,-1.000,-1.005,-0.363,-1.008,-1.011,-1.015,-1.020,-1.021,-1.022,-1.027,-1.029,-1.032,-1.036,-1.038,-1.041,0.162,-1.048,-1.052,-1.055,-1.058,-1.059,-1.065,-1.067,-1.070,-1.073,-1.075,-1.077,-1.081,0.191,-1.086,-1.089,-1.092,-1.092,-1.095,-1.098,-1.102,-1.105
71,-0.049,-0.065,-0.083,-0.103,-0.124,-0.143,-0.162,-0.180,-0.198,-0.218,-0.238,-0.257,-0.277,-0.297,-0.314,-0.333,-0.350,-0.369,-0.387,-0.402,-0.419,-0.435,-0.449,-0.464,-0.478,-0.491,-0.504,-0.517,-0.529,-0.540,-0.553,-0.562,-0.573,-0.584,-0.039,-0.606,-0.615,-0.622,-0.631,-0.642,-0.650,-0.657,-0.665,-0.202,-0.679,-0.686,-0.693,-0.700,-0.707,-0.714,-0.719,-0.725,-0.731,-0.120,-0.742,-0.747,-0.750,-0.756,-0.762,-0.763,-0.766,-0.769,-0.771,-0.776,-0.777,-0.780,-0.773,-0.785,-0.786,-0.787,-0.790,-0.794,-0.795,-0.798,-0.795,-0.797,-0.798,-0.800,-0.801,0.906,-0.802,-0.802,-0.803,-0.803,-0.806,-0.803,-0.804,-0.804,-0.803,-0.804,-0.804,-0.806,0.119,-0.805,-0.804,-0.807,-0.804,-0.803,-0.803,-0.800,-0.801
72,-0.101,-0.110,-0.124,-0.140,-0.157,-0.175,-0.189,-0.206,-0.225,-0.241,-0.256,-0.270,-0.286,-0.303,-0.317,-0.330,-0.344,-0.358,-0.368,-0.381,-0.390,-0.401,-0.411,-0.418,-0.427,-0.435,-0.444,-0.451,-0.457,-0.467,-0.471,-0.477,-0.482,-0.488,0.192,-0.501,-0.506,-0.512,-0.514,-0.520,-0.525,-0.532,-0.535,-0.020,-0.545,-0.548,-0.553,-0.558,-0.562,-0.564,-0.570,-0.572,-0.576,0.534,-0.583,-0.587,-0.589,-0.592,-0.595,-0.598,-0.602,-0.604,-0.609,-0.612,-0.614,-0.617,0.158,-0.621,-0.622,-0.625,-0.628,-0.629,-0.632,-0.630,-0.634,-0.636,-0.638,-0.641,-0.644,0.396,-0.648,-0.649,-0.651,-0.654,-0.656,-0.658,-0.659,-0.660,-0.665,-0.667,-0.668,-0.672,0.034,-0.674,-0.677,-0.676,-0.680,-0.682,-0.682,-0.684,-0.685
73,0.287,0.272,0.256,0.241,0.227,0.214,0.203,0.191,0.179,0.169,0.160,0.151,0.140,0.131,0.123,0.115,0.109,0.101,0.096,0.089,0.085,0.081,0.079,0.073,0.071,0.068,0.066,0.064,0.061,0.061,0.060,0.059,0.058,0.055,0.242,0.054,0.055,0.055,0.056,0.057,0.055,0.056,0.058,-0.121,0.060,0.061,0.060,0.061,0.059,0.059,0.062,0.061,0.062,0.657,0.060,0.059,0.057,0.057,0.056,0.057,0.056,0.055,0.055,0.056,0.053,0.055,0.271,0.054,0.054,0.054,0.053,0.054,0.052,0.054,0.053,0.053,0.052,0.051,0.050,-0.731,0.048,0.047,0.049,0.046,0.046,0.045,0.044,0.042,0.041,0.042,0.040,0.038,0.383,0.034,0.037,0.040,0.038,0.035,0.037,0.035,0.035
74,0.365,0.350,0.331,0.312,0.292,0.273,0.253,0.234,0.216,0.198,0.181,0.165,0.148,0.131,0.114,0.100,0.084,0.070,0.058,0.045,0.032,0.020,0.009,-0.003,-0.013,-0.023,-0.031,-0.040,-0.050,-0.057,-0.065,-0.072,-0.079,-0.087,0.389,-0.100,-0.106,-0.113,-0.117,-0.123,-0.129,-0.134,-0.142,-0.712,-0.150,-0.155,-0.160,-0.164,-0.167,-0.172,-0.176,-0.182,-0.185,-0.668,-0.193,-0.196,-0.200,-0.204,-0.205,-0.210,-0.212,-0.216,-0.220,-0.222,-0.226,-0.229,-0.282,-0.236,-0.237,-0.240,-0.243,-0.244,-0.248,-0.249,-0.253,-0.255,-0.257,-0.257,-0.261,-0.687,-0.265,-0.267,-0.270,-0.271,-0.272,-0.274,-0.276,-0.277,-0.279,-0.282,-0.284,-0.285,0.210,-0.288,-0.291,-0.294,-0.294,-0.296,-0.298,-0.299,-0.300
75,0.358,0.365,0.376,0.385,0.397,0.410,0.421,0.432,0.444,0.456,0.472,0.482,0.495,0.509,0.521,0.530,0.543,0.555,0.564,0.574,0.585,0.594,0.600,0.611,0.619,0.629,0.636,0.644,0.650,0.659,0.666,0.671,0.676,0.684,-0.564,0.695,0.702,0.708,0.715,0.718,0.723,0.730,0.735,-0.139,0.744,0.744,0.750,0.753,0.759,0.762,0.764,0.765,0.770,-0.323,0.773,0.774,0.779,0.782,0.782,0.787,0.790,0.789,0.792,0.793,0.798,0.800,-0.181,0.805,0.806,0.805,0.809,0.808,0.810,0.810,0.812,0.813,0.814,0.815,0.819,-0.585,0.819,0.823,0.821,0.824,0.826,0.829,0.830,0.830,0.831,0.832,0.832,0.835,0.398,0.836,0.836,0.836,0.837,0.838,0.838,0.839,0.839
76,-0.161,-0.175,-0.190,-0.203,-0.214,-0.225,-0.235,-0.245,-0.256,-0.268,-0.280,-0.288,-0.299,-0.308,-0.314,-0.320,-0.326,-0.331,-0.338,-0.341,-0.344,-0.348,-0.350,-0.354,-0.353,-0.358,-0.357,-0.360,-0.355,-0.356,-0.357,-0.357,-0.355,-0.356,0.431,-0.354,-0.356,-0.356,-0.355,-0.352,-0.352,-0.352,-0.350,0.059,-0.350,-0.352,-0.352,-0.348,-0.347,-0.347,-0.344,-0.342,-0.341,-0.727,-0.339,-0.336,-0.334,-0.334,-0.334,-0.332,-0.331,-0.330,-0.326,-0.326,-0.324,-0.324,-0.368,-0.321,-0.321,-0.318,-0.316,-0.316,-0.314,-0.312,-0.313,-0.311,-0.312,-0.310,-0.310,-0.775,-0.308,-0.306,-0.304,-0.303,-0.302,-0.304,-0.303,-0.302,-0.300,-0.300,-0.297,-0.297,-1.256,-0.293,-0.294,-0.291,-0.290,-0.289,-0.289,-0.290,-0.288
77,0.311,0.324,0.339,0.355,0.371,0.387,0.401,0.416,0.432,0.445,0.458,0.470,0.484,0.495,0.507,0.517,0.527,0.534,0.544,0.551,0.556,0.565,0.573,0.579,0.583,0.588,0.593,0.597,0.602,0.605,0.609,0.611,0.617,0.621,-0.266,0.627,0.629,0.630,0.632,0.634,0.638,0.637,0.639,0.216,0.643,0.646,0.647,0.648,0.650,0.651,0.651,0.654,0.655,-0.073,0.662,0.665,0.665,0.667,0.667,0.666,0.668,0.671,0.671,0.671,0.672,0.672,0.604,0.673,0.674,0.675,0.676,0.676,0.679,0.677,0.677,0.678,0.680,0.682,0.683,-0.179,0.686,0.686,0.686,0.687,0.686,0.687,0.687,0.689,0.691,0.690,0.691,0.693,0.367,0.694,0.695,0.696,0.696,0.696,0.697,0.697,0.699
78,-0.420,-0.424,-0.433,-0.439,-0.448,-0.457,-0.466,-0.472,-0.482,-0.491,-0.500,-0.505,-0.511,-0.520,-0.527,-0.534,-0.542,-0.545,-0.552,-0.556,-0.560,-0.564,-0.571,-0.571,-0.573,-0.576,-0.575,-0.578,-0.580,-0.582,-0.585,-0.586,-0.589,-0.591,-0.931,-0.592,-0.593,-0.594,-0.596,-0.598,-0.598,-0.598,-0.599,0.070,-0.600,-0.601,-0.602,-0.600,-0.602,-0.602,-0.604,-0.604,-0.605,0.625,-0.606,-0.607,-0.606,-0.608,-0.606,-0.607,-0.609,-0.610,-0.610,-0.610,-0.612,-0.613,-0.183,-0.615,-0.616,-0.616,-0.619,-0.620,-0.620,-0.620,-0.621,-0.623,-0.624,-0.623,-0.627,-0.160,-0.627,-0.628,-0.630,-0.630,-0.632,-0.632,-0.632,-0.633,-0.635,-0.633,-0.634,-0.636,0.769,-0.638,-0.636,-0.638,-0.638,-0.640,-0.641,-0.641,-0.641
79,0.201,0.207,0.218,0.228,0.241,0.254,0.270,0.285,0.299,0.315,0.328,0.341,0.355,0.369,0.380,0.394,0.405,0.417,0.428,0.438,0.449,0.456,0.465,0.471,0.479,0.486,0.490,0.498,0.503,0.507,0.511,0.518,0.520,0.524,0.075,0.532,0.535,0.540,0.540,0.547,0.549,0.553,0.553,-0.143,0.558,0.561,0.566,0.567,0.569,0.572,0.574,0.578,0.579,-0.281,0.583,0.586,0.586,0.588,0.593,0.593,0.594,0.598,0.597,0.601,0.601,0.603,0.116,0.606,0.607,0.609,0.610,0.614,0.614,0.615,0.617,0.619,0.621,0.620,0.621,0.246,0.624,0.623,0.627,0.627,0.630,0.630,0.632,0.632,0.632,0.635,0.636,0.636,0.460,0.638,0.637,0.637,0.638,0.640,0.640,0.642,0.642
80,-0.094,-0.089,-0.085,-0.081,-0.078,-0.074,-0.072,-0.068,-0.065,-0.061,-0.056,-0.051,-0.049,-0.041,-0.037,-0.034,-0.030,-0.025,-0.021,-0.018,-0.015,-0.014,-0.010,-0.010,-0.007,-0.006,-0.003,-0.002,-0.002,0.001,0.005,0.007,0.010,0.012,-0.123,0.015,0.014,0.018,0.019,0.020,0.021,0.023,0.024,-0.598,0.027,0.026,0.026,0.028,0.027,0.029,0.028,0.031,0.033,0.577,0.034,0.036,0.035,0.035,0.036,0.038,0.039,0.036,0.039,0.042,0.041,0.040,0.391,0.042,0.042,0.042,0.042,0.045,0.045,0.044,0.043,0.046,0.045,0.048,0.049,0.944,0.049,0.050,0.052,0.049,0.052,0.051,0.051,0.050,0.052,0.053,0.054,0.054,0.261,0.053,0.052,0.053,0.054,0.055,0.056,0.053,0.054
81,-0.305,-0.297,-0.291,-0.283,-0.277,-0.271,-0.264,-0.257,-0.251,-0.245,-0.237,-0.230,-0.226,-0.217,-0.211,-0.206,-0.199,-0.197,-0.193,-0.188,-0.187,-0.184,-0.182,-0.182,-0.182,-0.180,-0.181,-0.181,-0.181,-0.182,-0.180,-0.183,-0.182,-0.184,0.254,-0.186,-0.188,-0.185,-0.186,-0.192,-0.190,-0.192,-0.192,-0.216,-0.195,-0.199,-0.200,-0.202,-0.202,-0.205,-0.205,-0.207,-0.210,-0.965,-0.212,-0.214,-0.214,-0.216,-0.220,-0.217,-0.219,-0.219,-0.220,-0.224,-0.223,-0.223,-0.694,-0.226,-0.226,-0.226,-0.227,-0.229,-0.230,-0.231,-0.230,-0.232,-0.233,-0.233,-0.232,-0.362,-0.233,-0.233,-0.235,-0.235,-0.237,-0.238,-0.236,-0.238,-0.237,-0.238,-0.240,-0.240,0.367,-0.239,-0.240,-0.243,-0.242,-0.242,-0.243,-0.241,-0.244
82,0.095,0.102,0.109,0.111,0.115,0.115,0.120,0.121,0.122,0.123,0.121,0.122,0.125,0.123,0.126,0.125,0.126,0.126,0.125,0.128,0.128,0.126,0.126,0.130,0.133,0.135,0.134,0.134,0.137,0.137,0.139,0.138,0.138,0.144,0.044,0.145,0.148,0.148,0.149,0.151,0.150,0.153,0.153,0.159,0.158,0.158,0.158,0.159,0.159,0.162,0.161,0.163,0.166,-0.585,0.168,0.167,0.167,0.168,0.168,0.170,0.169,0.170,0.172,0.172,0.172,0.175,0.039,0.177,0.177,0.177,0.177,0.178,0.179,0.181,0.182,0.182,0.182,0.183,0.183,0.020,0.184,0.185,0.186,0.188,0.188,0.190,0.189,0.191,0.191,0.191,0.192,0.191,0.387,0.191,0.195,0.197,0.195,0.196,0.197,0.198,0.199
83,0.248,0.245,0.247,0.248,0.249,0.251,0.253,0.254,0.257,0.261,0.263,0.267,0.272,0.277,0.279,0.282,0.285,0.290,0.292,0.294,0.296,0.300,0.304,0.306,0.309,0.312,0.315,0.317,0.318,0.324,0.325,0.328,0.328,0.330,-0.138,0.334,0.337,0.338,0.341,0.342,0.343,0.345,0.345,0.370,0.347,0.350,0.350,0.353,0.354,0.354,0.357,0.358,0.358,-0.046,0.362,0.363,0.362,0.361,0.363,0.365,0.365,0.367,0.366,0.369,0.369,0.370,0.186,0.371,0.372,0.374,0.376,0.378,0.376,0.379,0.380,0.379,0.380,0.379,0.379,-1.200,0.382,0.383,0.384,0.384,0.384,0.384,0.386,0.386,0.385,0.385,0.386,0.386,0.148,0.386,0.387,0.389,0.389,0.386,0.389,0.389,0.388
84,0.244,0.251,0.252,0.257,0.259,0.262,0.265,0.269,0.274,0.278,0.286,0.292,0.298,0.304,0.310,0.318,0.323,0.328,0.335,0.338,0.342,0.344,0.348,0.353,0.354,0.357,0.358,0.360,0.363,0.362,0.363,0.365,0.365,0.365,-0.282,0.368,0.370,0.369,0.369,0.370,0.371,0.371,0.370,0.292,0.369,0.372,0.373,0.373,0.373,0.375,0.376,0.374,0.376,-0.196,0.375,0.373,0.376,0.374,0.377,0.377,0.378,0.380,0.378,0.376,0.376,0.377,-0.782,0.378,0.380,0.377,0.377,0.376,0.378,0.377,0.377,0.375,0.378,0.380,0.377,0.423,0.378,0.376,0.375,0.375,0.377,0.377,0.378,0.379,0.378,0.376,0.376,0.377,0.221,0.380,0.377,0.376,0.375,0.378,0.374,0.377,0.379
85,-0.281,-0.294,-0.305,-0.315,-0.324,-0.331,-0.340,-0.349,-0.359,-0.369,-0.380,-0.392,-0.405,-0.415,-0.426,-0.439,-0.449,-0.459,-0.469,-0.479,-0.487,-0.495,-0.506,-0.513,-0.521,-0.527,-0.534,-0.541,-0.549,-0.554,-0.561,-0.569,-0.577,-0.582,-0.179,-0.595,-0.600,-0.606,-0.611,-0.617,-0.625,-0.627,-0.632,-0.635,-0.641,-0.648,-0.652,-0.659,-0.663,-0.668,-0.674,-0.681,-0.684,-0.180,-0.696,-0.700,-0.703,-0.708,-0.713,-0.717,-0.720,-0.725,-0.729,-0.733,-0.735,-0.737,0.363,-0.743,-0.747,-0.751,-0.751,-0.755,-0.758,-0.763,-0.763,-0.767,-0.771,-0.774,-0.773,-0.586,-0.780,-0.780,-0.785,-0.784,-0.787,-0.789,-0.789,-0.793,-0.795,-0.796,-0.800,-0.800,-1.005,-0.804,-0.807,-0.810,-0.810,-0.812,-0.815,-0.817,-0.819
86,0.410,0.413,0.413,0.412,0.411,0.408,0.407,0.405,0.404,0.403,0.401,0.399,0.400,0.396,0.397,0.397,0.397,0.398,0.397,0.395,0.396,0.398,0.396,0.397,0.397,0.395,0.396,0.396,0.399,0.398,0.396,0.394,0.396,0.395,-0.624,0.394,0.392,0.392,0.389,0.392,0.391,0.390,0.390,-0.349,0.390,0.388,0.389,0.388,0.386,0.384,0.384,0.382,0.384,0.811,0.381,0.382,0.381,0.382,0.381,0.379,0.379,0.378,0.379,0.378,0.379,0.377,-0.525,0.375,0.374,0.379,0.377,0.375,0.376,0.377,0.374,0.375,0.376,0.372,0.373,0.494,0.370,0.369,0.369,0.373,0.369,0.368,0.366,0.366,0.368,0.366,0.368,0.366,-0.244,0.368,0.367,0.367,0.366,0.369,0.367,0.366,0.367
87,-0.225,-0.228,-0.234,-0.242,-0.248,-0.256,-0.265,-0.277,-0.286,-0.297,-0.308,-0.321,-0.334,-0.346,-0.359,-0.371,-0.380,-0.390,-0.399,-0.408,-0.418,-0.423,-0.429,-0.435,-0.442,-0.448,-0.454,-0.458,-0.462,-0.469,-0.471,-0.478,-0.479,-0.482,0.342,-0.490,-0.494,-0.498,-0.501,-0.506,-0.507,-0.510,-0.513,0.173,-0.516,-0.518,-0.521,-0.525,-0.525,-0.527,-0.531,-0.530,-0.533,0.371,-0.533,-0.532,-0.535,-0.538,-0.540,-0.544,-0.545,-0.546,-0.548,-0.550,-0.551,-0.555,0.071,-0.560,-0.561,-0.564,-0.566,-0.570,-0.569,-0.572,-0.577,-0.578,-0.580,-0.580,-0.581,0.621,-0.582,-0.585,-0.588,-0.589,-0.592,-0.591,-0.596,-0.595,-0.597,-0.600,-0.601,-0.601,0.069,-0.606,-0.607,-0.609,-0.613,-0.615,-0.616,-0.617,-0.618
88,-0.376,-0.374,-0.369,-0.364,-0.360,-0.355,-0.350,-0.344,-0.339,-0.333,-0.327,-0.321,-0.314,-0.311,-0.306,-0.301,-0.297,-0.293,-0.288,-0.283,-0.279,-0.274,-0.272,-0.269,-0.266,-0.263,-0.258,-0.253,-0.252,-0.249,-0.249,-0.244,-0.241,-0.240,-0.062,-0.233,-0.230,-0.231,-0.226,-0.223,-0.221,-0.222,-0.217,-0.558,-0.216,-0.211,-0.208,-0.206,-0.204,-0.203,-0.200,-0.198,-0.200,-0.212,-0.196,-0.192,-0.192,-0.186,-0.184,-0.186,-0.185,-0.184,-0.182,-0.180,-0.179,-0.179,-0.190,-0.177,-0.176,-0.177,-0.176,-0.174,-0.174,-0.174,-0.172,-0.169,-0.170,-0.168,-0.169,-0.168,-0.165,-0.166,-0.165,-0.165,-0.166,-0.163,-0.162,-0.161,-0.162,-0.158,-0.159,-0.158,-0.392,-0.160,-0.156,-0.155,-0.152,-0.154,-0.152,-0.152,-0.152
89,0.423,0.410,0.400,0.390,0.383,0.376,0.369,0.361,0.353,0.344,0.335,0.324,0.313,0.301,0.289,0.279,0.266,0.255,0.245,0.234,0.225,0.215,0.207,0.198,0.190,0.182,0.174,0.168,0.162,0.155,0.149,0.146,0.139,0.134,0.053,0.124,0.119,0.118,0.112,0.112,0.109,0.106,0.102,-0.387,0.096,0.093,0.093,0.090,0.089,0.088,0.086,0.086,0.084,-0.416,0.081,0.079,0.079,0.077,0.079,0.076,0.077,0.077,0.074,0.076,0.074,0.073,0.624,0.072,0.069,0.070,0.070,0.072,0.070,0.069,0.070,0.071,0.071,0.069,0.068,-0.286,0.068,0.067,0.070,0.067,0.070,0.068,0.069,0.068,0.067,0.070,0.068,0.070,-0.860,0.070,0.067,0.066,0.065,0.067,0.066,0.067,0.065
90,-0.274,-0.280,-0.287,-0.292,-0.298,-0.304,-0.312,-0.318,-0.324,-0.330,-0.337,-0.343,-0.350,-0.357,-0.365,-0.371,-0.377,-0.380,-0.386,-0.391,-0.393,-0.399,-0.401,-0.409,-0.411,-0.416,-0.419,-0.424,-0.429,-0.432,-0.437,-0.439,-0.443,-0.444,-0.237,-0.451,-0.455,-0.458,-0.461,-0.465,-0.469,-0.474,-0.478,-0.317,-0.482,-0.486,-0.492,-0.494,-0.497,-0.500,-0.503,-0.506,-0.510,0.232,-0.516,-0.520,-0.523,-0.526,-0.531,-0.535,-0.538,-0.543,-0.544,-0.547,-0.550,-0.555,-0.178,-0.561,-0.563,-0.566,-0.570,-0.572,-0.574,-0.579,-0.583,-0.588,-0.591,-0.594,-0.597,0.685,-0.605,-0.607,-0.610,-0.613,-0.615,-0.617,-0.621,-0.624,-0.625,-0.630,-0.634,-0.634,0.661,-0.638,-0.643,-0.646,-0.646,-0.646,-0.651,-0.654,-0.657
91,0.171,0.158,0.146,0.138,0.126,0.116,0.106,0.100,0.092,0.081,0.068,0.056,0.044,0.031,0.019,0.006,-0.006,-0.018,-0.032,-0.044,-0.058,-0.072,-0.085,-0.099,-0.110,-0.123,-0.135,-0.147,-0.160,-0.169,-0.181,-0.191,-0.201,-0.215,0.092,-0.238,-0.247,-0.255,-0.266,-0.279,-0.288,-0.296,-0.308,-0.125,-0.328,-0.339,-0.348,-0.358,-0.368,-0.379,-0.387,-0.395,-0.407,0.263,-0.425,-0.437,-0.448,-0.456,-0.467,-0.475,-0.485,-0.494,-0.504,-0.515,-0.523,-0.533,-0.544,-0.553,-0.562,-0.571,-0.582,-0.594,-0.604,-0.615,-0.625,-0.635,-0.644,-0.655,-0.667,-0.183,-0.689,-0.699,-0.709,-0.719,-0.728,-0.736,-0.747,-0.759,-0.768,-0.778,-0.790,-0.802,-0.637,-0.823,-0.833,-0.844,-0.856,-0.868,-0.880,-0.892,-0.905
92,0.068,0.065,0.063,0.060,0.059,0.055,0.059,0.057,0.055,0.054,0.050,0.049,0.045,0.043,0.041,0.039,0.036,0.034,0.034,0.033,0.033,0.030,0.031,0.032,0.033,0.034,0.035,0.034,0.036,0.036,0.039,0.041,0.041,0.043,-0.153,0.045,0.045,0.048,0.051,0.053,0.056,0.056,0.058,-0.436,0.061,0.065,0.067,0.067,0.069,0.074,0.076,0.081,0.084,-0.157,0.091,0.090,0.095,0.101,0.103,0.107,0.107,0.112,0.114,0.117,0.120,0.123,-0.150,0.128,0.134,0.136,0.141,0.145,0.146,0.152,0.154,0.159,0.161,0.166,0.170,-0.871,0.178,0.182,0.186,0.189,0.193,0.196,0.200,0.206,0.207,0.211,0.216,0.217,-1.098,0.227,0.230,0.236,0.236,0.240,0.246,0.252,0.256
93,0.361,0.351,0.343,0.335,0.322,0.313,0.303,0.294,0.284,0.277,0.269,0.262,0.255,0.246,0.241,0.233,0.229,0.224,0.220,0.214,0.212,0.210,0.208,0.204,0.204,0.202,0.201,0.201,0.201,0.201,0.200,0.201,0.201,0.200,-0.403,0.202,0.201,0.205,0.206,0.210,0.208,0.212,0.216,-0.265,0.222,0.223,0.223,0.226,0.226,0.224,0.229,0.231,0.233,-0.278,0.234,0.235,0.235,0.236,0.235,0.237,0.239,0.239,0.240,0.241,0.240,0.245,0.459,0.247,0.247,0.248,0.249,0.250,0.251,0.255,0.257,0.258,0.259,0.259,0.258,0.258,0.259,0.259,0.263,0.262,0.265,0.266,0.265,0.265,0.265,0.267,0.266,0.265,0.637,0.266,0.268,0.272,0.273,0.272,0.274,0.274,0.274
94,-0.176,-0.191,-0.206,-0.222,-0.239,-0.255,-0.273,-0.289,-0.306,-0.321,-0.338,-0.353,-0.369,-0.384,-0.399,-0.412,-0.427,-0.441,-0.455,-0.468,-0.482,-0.493,-0.503,-0.515,-0.527,-0.537,-0.547,-0.558,-0.569,-0.578,-0.588,-0.598,-0.607,-0.615,-0.365,-0.632,-0.639,-0.646,-0.657,-0.664,-0.672,-0.681,-0.687,0.186,-0.702,-0.709,-0.714,-0.722,-0.728,-0.735,-0.742,-0.750,-0.754,0.540,-0.766,-0.771,-0.776,-0.782,-0.785,-0.791,-0.793,-0.798,-0.805,-0.808,-0.813,-0.817,-0.663,-0.826,-0.831,-0.836,-0.841,-0.844,-0.847,-0.852,-0.854,-0.858,-0.861,-0.864,-0.868,0.155,-0.877,-0.879,-0.883,-0.886,-0.888,-0.893,-0.891,-0.893,-0.896,-0.901,-0.901,-0.902,-1.029,-0.904,-0.908,-0.910,-0.910,-0.908,-0.910,-0.909,-0.910
95,-0.018,-0.012,-0.005,0.002,0.008,0.018,0.026,0.033,0.041,0.048,0.060,0.067,0.077,0.086,0.096,0.103,0.111,0.121,0.130,0.138,0.147,0.154,0.159,0.168,0.175,0.184,0.190,0.198,0.205,0.213,0.219,0.224,0.230,0.236,0.255,0.247,0.254,0.259,0.266,0.269,0.274,0.281,0.286,-0.044,0.295,0.297,0.302,0.304,0.310,0.314,0.318,0.321,0.324,-0.605,0.329,0.332,0.337,0.341,0.343,0.347,0.350,0.352,0.356,0.357,0.363,0.366,0.377,0.375,0.377,0.377,0.382,0.384,0.385,0.387,0.392,0.395,0.396,0.398,0.404,-0.931,0.408,0.412,0.412,0.418,0.421,0.423,0.426,0.428,0.430,0.433,0.435,0.438,-0.637,0.442,0.443,0.444,0.448,0.451,0.453,0.455,0.456
96,-0.155,-0.168,-0.180,-0.190,-0.202,-0.214,-0.225,-0.234,-0.244,-0.255,-0.265,-0.275,-0.285,-0.294,-0.303,-0.310,-0.317,-0.326,-0.335,-0.341,-0.349,-0.356,-0.362,-0.369,-0.374,-0.382,-0.386,-0.394,-0.395,-0.402,-0.406,-0.413,-0.415,-0.419,0.119,-0.428,-0.433,-0.437,-0.443,-0.445,-0.451,-0.455,-0.456,0.386,-0.465,-0.469,-0.473,-0.476,-0.481,-0.485,-0.488,-0.493,-0.496,-0.289,-0.504,-0.507,-0.510,-0.514,-0.520,-0.523,-0.526,-0.530,-0.531,-0.535,-0.537,-0.542,-0.449,-0.548,-0.551,-0.551,-0.555,-0.559,-0.561,-0.564,-0.568,-0.572,-0.574,-0.579,-0.582,-0.196,-0.588,-0.590,-0.592,-0.596,-0.599,-0.602,-0.605,-0.607,-0.608,-0.612,-0.612,-0.616,0.101,-0.619,-0.621,-0.623,-0.624,-0.625,-0.627,-0.630,-0.629
97,0.337,0.348,0.358,0.368,0.380,0.390,0.400,0.410,0.423,0.434,0.447,0.458,0.469,0.481,0.491,0.501,0.513,0.520,0.530,0.539,0.544,0.554,0.561,0.569,0.574,0.579,0.585,0.589,0.594,0.597,0.602,0.605,0.609,0.613,-0.422,0.617,0.620,0.619,0.621,0.621,0.623,0.622,0.622,0.538,0.624,0.625,0.625,0.626,0.626,0.627,0.625,0.624,0.625,0.162,0.627,0.628,0.626,0.625,0.623,0.622,0.622,0.622,0.622,0.621,0.619,0.615,0.537,0.610,0.610,0.610,0.609,0.606,0.609,0.604,0.600,0.599,0.599,0.600,0.599,0.401,0.599,0.597,0.594,0.592,0.587,0.587,0.585,0.584,0.584,0.581,0.581,0.582,-0.301,0.578,0.578,0.576,0.574,0.573,0.571,0.568,0.567
98,0.067,0.056,0.046,0.038,0.029,0.021,0.017,0.016,0.013,0.008,0.004,0.005,0.006,0.004,0.005,0.006,0.006,0.009,0.010,0.015,0.019,0.023,0.024,0.032,0.035,0.041,0.049,0.055,0.060,0.065,0.069,0.077,0.082,0.087,-0.238,0.102,0.108,0.113,0.120,0.127,0.136,0.142,0.148,-0.155,0.159,0.167,0.171,0.181,0.188,0.195,0.199,0.205,0.211,-0.171,0.224,0.233,0.242,0.246,0.257,0.262,0.268,0.275,0.281,0.290,0.294,0.302,-0.047,0.314,0.319,0.326,0.331,0.339,0.343,0.352,0.358,0.363,0.370,0.375,0.379,0.097,0.391,0.397,0.403,0.408,0.413,0.418,0.423,0.429,0.434,0.442,0.446,0.450,-0.149,0.459,0.465,0.468,0.474,0.477,0.480,0.486,0.491
99,-0.397,-0.393,-0.389,-0.386,-0.382,-0.380,-0.380,-0.378,-0.382,-0.380,-0.384,-0.388,-0.389,-0.393,-0.400,-0.401,-0.411,-0.415,-0.424,-0.431,-0.437,-0.445,-0.454,-0.465,-0.473,-0.483,-0.493,-0.499,-0.509,-0.518,-0.526,-0.531,-0.542,-0.549,0.169,-0.562,-0.569,-0.574,-0.582,-0.586,-0.591,-0.597,-0.604,0.080,-0.616,-0.620,-0.622,-0.626,-0.631,-0.635,-0.641,-0.644,-0.648,-0.536,-0.658,-0.660,-0.665,-0.669,-0.668,-0.672,-0.676,-0.679,-0.684,-0.685,-0.688,-0.691,0.284,-0.696,-0.700,-0.702,-0.706,-0.707,-0.711,-0.712,-0.714,-0.717,-0.719,-0.723,-0.727,0.184,-0.732,-0.736,-0.737,-0.740,-0.738,-0.743,-0.744,-0.747,-0.751,-0.752,-0.755,-0.758,0.503,-0.763,-0.767,-0.771,-0.773,-0.774,-0.777,-0.778,-0.781
100,-0.113,-0.110,-0.106,-0.103,-0.100,-0.096,-0.093,-0.090,-0.088,-0.084,-0.081,-0.076,-0.076,-0.069,-0.067,-0.066,-0.064,-0.061,-0.059,-0.058,-0.055,-0.056,-0.053,-0.055,-0.054,-0.054,-0.052,-0.053,-0.053,-0.052,-0.050,-0.049,-0.047,-0.047,0.060,-0.046,-0.047,-0.046,-0.045,-0.046,-0.045,-0.045,-0.044,-0.108,-0.043,-0.045,-0.046,-0.045,-0.047,-0.045,-0.047,-0.045,-0.044,0.467,-0.044,-0.043,-0.045,-0.045,-0.045,-0.044,-0.044,-0.047,-0.044,-0.042,-0.044,-0.045,0.869,-0.045,-0.045,-0.045,-0.046,-0.044,-0.043,-0.045,-0.046,-0.044,-0.045,-0.043,-0.043,0.551,-0.045,-0.043,-0.042,-0.045,-0.042,-0.044,-0.044,-0.045,-0.044,-0.043,-0.043,-0.042,0.284,-0.043,-0.045,-0.044,-0.043,-0.043,-0.042,-0.045,-0.044
101,0.336,0.337,0.337,0.342,0.343,0.344,0.347,0.351,0.354,0.357,0.362,0.366,0.367,0.372,0.375,0.377,0.381,0.380,0.381,0.384,0.383,0.385,0.385,0.384,0.383,0.385,0.383,0.383,0.383,0.383,0.385,0.383,0.385,0.383,-0.594,0.383,0.382,0.386,0.386,0.382,0.385,0.385,0.386,-0.437,0.386,0.384,0.385,0.384,0.386,0.384,0.386,0.386,0.385,0.144,0.386,0.385,0.387,0.387,0.384,0.387,0.386,0.388,0.388,0.386,0.388,0.389,-0.173,0.389,0.390,0.391,0.391,0.390,0.390,0.390,0.392,0.391,0.392,0.392,0.395,0.190,0.396,0.397,0.395,0.396,0.395,0.396,0.398,0.397,0.398,0.398,0.397,0.398,0.265,0.401,0.401,0.399,0.400,0.400,0.401,0.403,0.400
102,-0.393,-0.385,-0.377,-0.376,-0.371,-0.371,-0.366,-0.365,-0.364,-0.365,-0.368,-0.368,-0.366,-0.369,-0.368,-0.370,-0.370,-0.372,-0.374,-0.373,-0.373,-0.376,-0.377,-0.376,-0.374,-0.373,-0.375,-0.376,-0.375,-0.376,-0.376,-0.378,-0.379,-0.375,0.243,-0.376,-0.375,-0.376,-0.377,-0.377,-0.379,-0.377,-0.378,-0.743,-0.376,-0.377,-0.379,-0.379,-0.380,-0.378,-0.380,-0.380,-0.378,-0.198,-0.379,-0.380,-0.382,-0.382,-0.383,-0.383,-0.384,-0.384,-0.384,-0.385,-0.386,-0.384,-0.877,-0.384,-0.385,-0.386,-0.386,-0.386,-0.386,-0.385,-0.385,-0.386,-0.387,-0.387,-0.388,0.049,-0.389,-0.389,-0.389,-0.388,-0.388,-0.387,-0.389,-0.388,-0.388,-0.389,-0.390,-0.391,-0.344,-0.393,-0.390,-0.389,-0.391,-0.391,-0.391,-0.391,-0.390
103,-0.016,-0.019,-0.017,-0.015,-0.014,-0.011,-0.009,-0.007,-0.004,-0.000,0.002,0.006,0.010,0.015,0.017,0.020,0.023,0.027,0.029,0.031,0.033,0.037,0.041,0.043,0.045,0.048,0.051,0.052,0.054,0.059,0.061,0.063,0.063,0.065,-0.567,0.068,0.072,0.072,0.075,0.076,0.077,0.079,0.079,-0.067,0.081,0.084,0.084,0.087,0.088,0.088,0.091,0.092,0.092,0.447,0.095,0.096,0.096,0.095,0.097,0.099,0.099,0.100,0.100,0.103,0.103,0.103,0.176,0.104,0.105,0.106,0.108,0.110,0.109,0.111,0.112,0.111,0.112,0.112,0.112,-0.970,0.115,0.116,0.117,0.117,0.117,0.117,0.119,0.119,0.118,0.119,0.120,0.119,0.535,0.119,0.120,0.122,0.122,0.119,0.122,0.121,0.121
104,-0.389,-0.382,-0.379,-0.374,-0.370,-0.365,-0.362,-0.357,-0.351,-0.348,-0.340,-0.334,-0.329,-0.325,-0.320,-0.314,-0.310,-0.307,-0.301,-0.299,-0.296,-0.295,-0.293,-0.289,-0.289,-0.288,-0.287,-0.286,-0.285,-0.286,-0.286,-0.285,-0.286,-0.286,0.331,-0.285,-0.284,-0.285,-0.286,-0.285,-0.285,-0.286,-0.287,0.351,-0.289,-0.287,-0.287,-0.287,-0.288,-0.286,-0.286,-0.288,-0.288,-0.022,-0.291,-0.293,-0.290,-0.292,-0.290,-0.291,-0.290,-0.289,-0.291,-0.294,-0.293,-0.293,-0.264,-0.292,-0.291,-0.294,-0.294,-0.295,-0.294,-0.296,-0.295,-0.297,-0.295,-0.294,-0.297,-0.063,-0.297,-0.299,-0.300,-0.301,-0.299,-0.300,-0.299,-0.299,-0.300,-0.302,-0.302,-0.301,0.377,-0.298,-0.302,-0.303,-0.304,-0.302,-0.305,-0.303,-0.302
105,0.121,0.107,0.095,0.082,0.070,0.059,0.047,0.036,0.022,0.011,0.001,-0.012,-0.023,-0.031,-0.040,-0.051,-0.058,-0.065,-0.072,-0.079,-0.084,-0.089,-0.097,-0.100,-0.105,-0.108,-0.112,-0.115,-0.119,-0.121,-0.125,-0.129,-0.133,-0.134,-0.062,-0.139,-0.141,-0.142,-0.144,-0.147,-0.151,-0.149,-0.150,-0.695,-0.152,-0.153,-0.153,-0.157,-0.157,-0.159,-0.160,-0.163,-0.163,-0.165,-0.167,-0.168,-0.168,-0.169,-0.170,-0.171,-0.171,-0.172,-0.173,-0.174,-0.174,-0.173,0.163,-0.174,-0.175,-0.176,-0.175,-0.176,-0.177,-0.179,-0.178,-0.179,-0.181,-0.182,-0.179,-0.581,-0.181,-0.179,-0.182,-0.179,-0.180,-0.180,-0.178,-0.180,-0.180,-0.179,-0.180,-0.180,0.083,-0.180,-0.181,-0.183,-0.182,-0.182,-0.183,-0.184,-0.185
106,-0.178,-0.173,-0.171,-0.170,-0.169,-0.168,-0.168,-0.166,-0.165,-0.164,-0.163,-0.161,-0.159,-0.160,-0.157,-0.154,-0.153,-0.150,-0.150,-0.150,-0.147,-0.145,-0.146,-0.144,-0.143,-0.144,-0.143,-0.142,-0.139,-0.140,-0.141,-0.142,-0.139,-0.140,-0.226,-0.139,-0.141,-0.141,-0.143,-0.141,-0.141,-0.143,-0.143,0.556,-0.144,-0.145,-0.145,-0.145,-0.147,-0.148,-0.149,-0.150,-0.148,-0.301,-0.150,-0.150,-0.150,-0.150,-0.150,-0.152,-0.152,-0.153,-0.152,-0.153,-0.153,-0.154,-0.349,-0.156,-0.157,-0.153,-0.154,-0.156,-0.156,-0.154,-0.157,-0.156,-0.156,-0.159,-0.158,0.051,-0.161,-0.162,-0.161,-0.158,-0.162,-0.163,-0.165,-0.166,-0.163,-0.166,-0.164,-0.166,0.314,-0.164,-0.165,-0.165,-0.166,-0.164,-0.166,-0.167,-0.166
107,-0.228,-0.223,-0.220,-0.220,-0.219,-0.220,-0.224,-0.228,-0.229,-0.232,-0.237,-0.242,-0.245,-0.249,-0.252,-0.256,-0.258,-0.262,-0.262,-0.265,-0.268,-0.267,-0.266,-0.266,-0.269,-0.269,-0.270,-0.269,-0.268,-0.270,-0.268,-0.271,-0.268,-0.267,-0.477,-0.268,-0.268,-0.269,-0.269,-0.269,-0.267,-0.269,-0.268,0.500,-0.267,-0.266,-0.267,-0.268,-0.266,-0.266,-0.267,-0.265,-0.266,-0.503,-0.263,-0.261,-0.262,-0.262,-0.263,-0.264,-0.263,-0.263,-0.263,-0.264,-0.263,-0.264,-0.739,-0.265,-0.265,-0.266,-0.267,-0.269,-0.267,-0.268,-0.271,-0.271,-0.271,-0.270,-0.270,-0.399,-0.268,-0.270,-0.270,-0.271,-0.272,-0.271,-0.273,-0.272,-0.271,-0.273,-0.273,-0.271,-0.705,-0.273,-0.272,-0.273,-0.275,-0.275,-0.276,-0.276,-0.275
108,-0.139,-0.141,-0.140,-0.138,-0.137,-0.135,-0.133,-0.130,-0.128,-0.125,-0.121,-0.119,-0.115,-0.116,-0.113,-0.111,-0.111,-0.109,-0.107,-0.104,-0.102,-0.100,-0.099,-0.099,-0.098,-0.097,-0.093,-0.091,-0.092,-0.090,-0.092,-0.088,-0.087,-0.088,-0.239,-0.085,-0.083,-0.086,-0.082,-0.080,-0.080,-0.082,-0.078,0.099,-0.079,-0.076,-0.074,-0.073,-0.072,-0.073,-0.072,-0.071,-0.073,-0.042,-0.071,-0.068,-0.069,-0.065,-0.064,-0.066,-0.066,-0.066,-0.065,-0.064,-0.063,-0.064,0.188,-0.063,-0.063,-0.064,-0.064,-0.063,-0.064,-0.065,-0.064,-0.061,-0.063,-0.062,-0.064,-0.678,-0.062,-0.063,-0.063,-0.064,-0.065,-0.063,-0.063,-0.062,-0.064,-0.061,-0.063,-0.062,-0.272,-0.065,-0.062,-0.061,-0.059,-0.062,-0.060,-0.061,-0.061
109,0.008,-0.004,-0.014,-0.022,-0.028,-0.034,-0.040,-0.047,-0.056,-0.062,-0.071,-0.081,-0.090,-0.100,-0.112,-0.118,-0.129,-0.136,-0.144,-0.153,-0.160,-0.168,-0.175,-0.183,-0.188,-0.194,-0.201,-0.206,-0.211,-0.217,-0.221,-0.224,-0.231,-0.235,-0.351,-0.243,-0.247,-0.249,-0.254,-0.254,-0.256,-0.259,-0.262,0.397,-0.267,-0.271,-0.270,-0.273,-0.274,-0.274,-0.277,-0.277,-0.278,-0.944,-0.280,-0.282,-0.282,-0.283,-0.282,-0.284,-0.283,-0.283,-0.284,-0.283,-0.284,-0.285,1.127,-0.285,-0.287,-0.286,-0.286,-0.284,-0.286,-0.286,-0.285,-0.284,-0.283,-0.285,-0.285,0.371,-0.285,-0.286,-0.284,-0.285,-0.282,-0.283,-0.282,-0.282,-0.283,-0.281,-0.281,-0.279,0.836,-0.278,-0.280,-0.280,-0.280,-0.278,-0.278,-0.278,-0.279
110,-0.278,-0.292,-0.305,-0.319,-0.333,-0.346,-0.360,-0.375,-0.390,-0.405,-0.420,-0.433,-0.450,-0.464,-0.478,-0.492,-0.506,-0.517,-0.529,-0.540,-0.552,-0.565,-0.575,-0.586,-0.594,-0.606,-0.613,-0.623,-0.633,-0.641,-0.648,-0.658,-0.666,-0.673,-0.088,-0.689,-0.695,-0.702,-0.710,-0.716,-0.722,-0.729,-0.736,-0.599,-0.751,-0.758,-0.763,-0.769,-0.775,-0.782,-0.788,-0.794,-0.801,0.268,-0.813,-0.817,-0.825,-0.829,-0.834,-0.839,-0.846,-0.853,-0.858,-0.862,-0.866,-0.872,0.050,-0.880,-0.885,-0.891,-0.897,-0.901,-0.905,-0.911,-0.918,-0.923,-0.928,-0.932,-0.937,-0.361,-0.947,-0.952,-0.958,-0.961,-0.965,-0.972,-0.976,-0.981,-0.986,-0.989,-0.993,-1.000,-0.432,-1.008,-1.014,-1.019,-1.022,-1.026,-1.030,-1.036,-1.040
111,0.277,0.280,0.281,0.285,0.285,0.286,0.287,0.287,0.286,0.282,0.279,0.274,0.269,0.264,0.262,0.257,0.254,0.250,0.245,0.242,0.238,0.237,0.235,0.235,0.233,0.235,0.234,0.235,0.236,0.240,0.240,0.246,0.249,0.251,0.574,0.256,0.260,0.266,0.271,0.273,0.278,0.286,0.292,-0.665,0.305,0.311,0.316,0.322,0.329,0.333,0.342,0.348,0.355,-0.114,0.367,0.375,0.383,0.389,0.393,0.403,0.411,0.419,0.427,0.432,0.441,0.450,0.097,0.465,0.474,0.483,0.490,0.495,0.503,0.509,0.522,0.530,0.537,0.544,0.551,0.660,0.567,0.576,0.583,0.592,0.597,0.608,0.615,0.623,0.633,0.640,0.647,0.654,-1.010,0.671,0.681,0.685,0.696,0.704,0.712,0.723,0.730
112,-0.041,-0.052,-0.063,-0.077,-0.090,-0.105,-0.119,-0.135,-0.151,-0.168,-0.184,-0.197,-0.214,-0.230,-0.243,-0.259,-0.274,-0.289,-0.299,-0.312,-0.325,-0.336,-0.349,-0.358,-0.367,-0.380,-0.390,-0.399,-0.409,-0.419,-0.428,-0.440,-0.447,-0.455,0.690,-0.473,-0.481,-0.491,-0.499,-0.507,-0.516,-0.526,-0.534,-0.011,-0.552,-0.560,-0.570,-0.577,-0.585,-0.593,-0.601,-0.610,-0.617,0.011,-0.634,-0.643,-0.650,-0.657,-0.663,-0.671,-0.679,-0.687,-0.693,-0.700,-0.708,-0.716,-0.244,-0.730,-0.737,-0.743,-0.752,-0.757,-0.763,-0.768,-0.775,-0.782,-0.789,-0.796,-0.803,-0.006,-0.815,-0.822,-0.828,-0.834,-0.840,-0.848,-0.854,-0.860,-0.868,-0.875,-0.879,-0.886,0.582,-0.896,-0.904,-0.910,-0.915,-0.922,-0.926,-0.933,-0.940
113,0.264,0.256,0.251,0.245,0.239,0.233,0.228,0.220,0.216,0.211,0.207,0.203,0.198,0.195,0.192,0.189,0.188,0.186,0.185,0.183,0.183,0.184,0.186,0.184,0.187,0.188,0.190,0.191,0.194,0.196,0.200,0.202,0.205,0.206,-0.754,0.213,0.216,0.219,0.224,0.227,0.228,0.231,0.237,0.497,0.244,0.248,0.249,0.254,0.254,0.257,0.261,0.263,0.266,0.963,0.269,0.269,0.269,0.273,0.274,0.276,0.278,0.278,0.280,0.282,0.280,0.283,-0.155,0.285,0.286,0.287,0.288,0.291,0.290,0.294,0.293,0.295,0.294,0.296,0.296,-0.455,0.296,0.297,0.299,0.299,0.298,0.298,0.299,0.299,0.298,0.300,0.299,0.298,0.056,0.296,0.298,0.303,0.300,0.299,0.302,0.300,0.300
114,-0.071,-0.086,-0.101,-0.115,-0.131,-0.145,-0.162,-0.177,-0.191,-0.208,-0.224,-0.239,-0.255,-0.271,-0.286,-0.300,-0.314,-0.328,-0.341,-0.353,-0.365,-0.378,-0.389,-0.401,-0.411,-0.422,-0.432,-0.442,-0.453,-0.462,-0.471,-0.481,-0.492,-0.500,0.285,-0.519,-0.527,-0.535,-0.543,-0.552,-0.561,-0.570,-0.580,-0.142,-0.595,-0.603,-0.612,-0.620,-0.628,-0.636,-0.644,-0.653,-0.660,-0.777,-0.676,-0.686,-0.693,-0.701,-0.707,-0.715,-0.723,-0.732,-0.740,-0.749,-0.756,-0.765,-0.286,-0.778,-0.785,-0.795,-0.802,-0.808,-0.815,-0.821,-0.828,-0.836,-0.843,-0.848,-0.857,0.463,-0.870,-0.877,-0.885,-0.892,-0.897,-0.906,-0.912,-0.918,-0.925,-0.934,-0.937,-0.944,0.934,-0.954,-0.963,-0.970,-0.974,-0.980,-0.987,-0.993,-0.999
115,-0.199,-0.198,-0.194,-0.194,-0.190,-0.185,-0.181,-0.179,-0.177,-0.170,-0.163,-0.158,-0.152,-0.145,-0.141,-0.137,-0.132,-0.127,-0.125,-0.121,-0.117,-0.115,-0.114,-0.110,-0.108,-0.107,-0.105,-0.104,-0.105,-0.102,-0.103,-0.103,-0.104,-0.103,-0.287,-0.104,-0.104,-0.104,-0.104,-0.106,-0.108,-0.106,-0.106,0.221,-0.107,-0.113,-0.111,-0.113,-0.113,-0.114,-0.116,-0.121,-0.118,0.772,-0.123,-0.125,-0.124,-0.125,-0.127,-0.127,-0.127,-0.131,-0.130,-0.132,-0.130,-0.131,0.281,-0.130,-0.132,-0.134,-0.132,-0.135,-0.136,-0.137,-0.136,-0.137,-0.138,-0.138,-0.136,0.321,-0.139,-0.136,-0.139,-0.137,-0.137,-0.135,-0.135,-0.136,-0.136,-0.136,-0.138,-0.135,0.153,-0.135,-0.135,-0.137,-0.136,-0.135,-0.135,-0.134,-0.134
116,-0.266,-0.272,-0.279,-0.288,-0.295,-0.304,-0.312,-0.322,-0.332,-0.343,-0.353,-0.362,-0.372,-0.381,-0.387,-0.394,-0.403,-0.409,-0.418,-0.422,-0.427,-0.431,-0.436,-0.441,-0.445,-0.451,-0.452,-0.460,-0.459,-0.464,-0.467,-0.470,-0.471,-0.475,-0.073,-0.479,-0.484,-0.487,-0.491,-0.493,-0.496,-0.500,-0.502,-0.391,-0.510,-0.515,-0.518,-0.519,-0.523,-0.527,-0.527,-0.530,-0.533,-0.262,-0.539,-0.543,-0.545,-0.550,-0.555,-0.559,-0.561,-0.563,-0.566,-0.569,-0.573,-0.578,0.545,-0.586,-0.590,-0.591,-0.593,-0.598,-0.601,-0.604,-0.610,-0.613,-0.616,-0.621,-0.624,0.300,-0.632,-0.635,-0.638,-0.642,-0.645,-0.652,-0.655,-0.660,-0.664,-0.668,-0.669,-0.675,-0.872,-0.680,-0.685,-0.686,-0.690,-0.693,-0.700,-0.704,-0.706
117,0.282,0.290,0.298,0.308,0.318,0.328,0.337,0.346,0.358,0.368,0.376,0.387,0.396,0.404,0.413,0.419,0.425,0.429,0.437,0.441,0.443,0.451,0.457,0.462,0.463,0.470,0.474,0.478,0.484,0.486,0.491,0.495,0.501,0.505,-0.045,0.512,0.516,0.518,0.523,0.525,0.531,0.533,0.536,-0.362,0.544,0.549,0.552,0.555,0.559,0.563,0.565,0.570,0.573,-0.482,0.586,0.590,0.593,0.596,0.599,0.601,0.605,0.609,0.612,0.615,0.618,0.621,-0.009,0.625,0.629,0.632,0.634,0.636,0.642,0.642,0.644,0.646,0.649,0.653,0.656,-0.166,0.663,0.665,0.666,0.669,0.669,0.672,0.672,0.677,0.681,0.681,0.684,0.688,-0.602,0.692,0.695,0.697,0.698,0.700,0.701,0.703,0.706
118,-0.422,-0.437,-0.451,-0.465,-0.480,-0.494,-0.508,-0.522,-0.537,-0.551,-0.565,-0.580,-0.594,-0.609,-0.623,-0.636,-0.651,-0.663,-0.675,-0.688,-0.699,-0.712,-0.725,-0.736,-0.745,-0.755,-0.766,-0.776,-0.787,-0.797,-0.807,-0.816,-0.826,-0.836,-0.116,-0.853,-0.862,-0.871,-0.880,-0.888,-0.897,-0.906,-0.915,0.689,-0.934,-0.940,-0.949,-0.955,-0.964,-0.972,-0.980,-0.988,-0.997,-0.360,-1.012,-1.018,-1.025,-1.033,-1.040,-1.048,-1.057,-1.064,-1.071,-1.078,-1.086,-1.094,-0.150,-1.109,-1.118,-1.127,-1.134,-1.142,-1.150,-1.155,-1.165,-1.171,-1.177,-1.183,-1.193,-0.242,-1.208,-1.215,-1.223,-1.231,-1.237,-1.244,-1.251,-1.257,-1.266,-1.270,-1.277,-1.285,0.526,-1.300,-1.305,-1.310,-1.317,-1.325,-1.330,-1.339,-1.343
119,0.338,0.347,0.357,0.368,0.379,0.391,0.403,0.417,0.429,0.442,0.455,0.466,0.480,0.492,0.502,0.515,0.526,0.538,0.548,0.558,0.569,0.577,0.585,0.593,0.601,0.608,0.613,0.621,0.627,0.632,0.637,0.644,0.647,0.651,0.304,0.660,0.664,0.669,0.671,0.677,0.681,0.685,0.686,-0.396,0.692,0.695,0.700,0.702,0.704,0.708,0.710,0.714,0.715,0.329,0.719,0.722,0.723,0.724,0.729,0.730,0.731,0.735,0.735,0.739,0.739,0.741,0.378,0.744,0.745,0.746,0.748,0.751,0.751,0.753,0.754,0.755,0.758,0.757,0.757,0.549,0.759,0.758,0.762,0.761,0.765,0.764,0.766,0.766,0.765,0.769,0.769,0.769,0.107,0.770,0.768,0.768,0.769,0.770,0.770,0.771,0.770
120,0.065,0.068,0.072,0.078,0.082,0.088,0.092,0.096,0.100,0.104,0.108,0.114,0.114,0.122,0.125,0.126,0.129,0.132,0.135,0.136,0.139,0.138,0.142,0.140,0.142,0.142,0.144,0.144,0.144,0.146,0.148,0.150,0.152,0.153,-0.192,0.154,0.153,0.155,0.156,0.155,0.156,0.157,0.158,-0.516,0.160,0.158,0.157,0.158,0.157,0.159,0.157,0.159,0.160,0.518,0.160,0.160,0.159,0.159,0.159,0.160,0.160,0.157,0.160,0.161,0.159,0.159,1.087,0.160,0.159,0.159,0.159,0.160,0.160,0.159,0.158,0.160,0.158,0.161,0.160,0.384,0.159,0.160,0.161,0.158,0.160,0.159,0.158,0.157,0.158,0.158,0.159,0.159,0.116,0.158,0.156,0.157,0.158,0.158,0.158,0.155,0.156
121,-0.399,-0.393,-0.386,-0.376,-0.368,-0.361,-0.351,-0.341,-0.334,-0.327,-0.317,-0.310,-0.306,-0.299,-0.295,-0.290,-0.284,-0.283,-0.280,-0.275,-0.274,-0.271,-0.270,-0.270,-0.269,-0.267,-0.267,-0.267,-0.267,-0.267,-0.265,-0.267,-0.265,-0.267,0.481,-0.267,-0.268,-0.265,-0.265,-0.269,-0.268,-0.269,-0.268,0.195,-0.269,-0.272,-0.272,-0.274,-0.273,-0.274,-0.273,-0.275,-0.276,0.327,-0.277,-0.278,-0.278,-0.279,-0.283,-0.280,-0.282,-0.281,-0.282,-0.285,-0.284,-0.283,-0.526,-0.284,-0.284,-0.284,-0.285,-0.286,-0.287,-0.287,-0.287,-0.289,-0.289,-0.289,-0.287,0.336,-0.288,-0.287,-0.289,-0.289,-0.291,-0.292,-0.290,-0.291,-0.291,-0.292,-0.293,-0.293,0.198,-0.291,-0.292,-0.295,-0.294,-0.294,-0.295,-0.293,-0.296
122,0.274,0.282,0.292,0.295,0.301,0.302,0.310,0.312,0.314,0.314,0.312,0.313,0.317,0.315,0.317,0.317,0.318,0.318,0.318,0.320,0.321,0.319,0.320,0.323,0.327,0.329,0.329,0.329,0.332,0.332,0.334,0.334,0.335,0.340,-0.460,0.342,0.345,0.346,0.347,0.349,0.348,0.352,0.352,-0.082,0.358,0.359,0.359,0.360,0.361,0.364,0.364,0.366,0.369,-0.265,0.372,0.371,0.372,0.374,0.374,0.376,0.376,0.378,0.379,0.380,0.381,0.384,0.377,0.388,0.388,0.389,0.390,0.392,0.393,0.395,0.397,0.397,0.398,0.399,0.400,-0.024,0.402,0.404,0.405,0.407,0.408,0.410,0.410,0.412,0.413,0.414,0.415,0.414,0.464,0.415,0.419,0.421,0.420,0.422,0.423,0.425,0.426
123,-0.196,-0.204,-0.208,-0.212,-0.216,-0.217,-0.219,-0.221,-0.222,-0.222,-0.223,-0.222,-0.221,-0.220,-0.220,-0.220,-0.220,-0.219,-0.219,-0.220,-0.220,-0.219,-0.217,-0.218,-0.217,-0.216,-0.215,-0.215,-0.216,-0.211,-0.211,-0.210,-0.211,-0.211,0.145,-0.210,-0.207,-0.207,-0.205,-0.206,-0.205,-0.204,-0.204,0.389,-0.203,-0.201,-0.202,-0.200,-0.199,-0.200,-0.197,-0.197,-0.198,-0.690,-0.196,-0.195,-0.196,-0.197,-0.195,-0.194,-0.194,-0.192,-0.193,-0.190,-0.190,-0.190,-0.088,-0.189,-0.189,-0.187,-0.186,-0.184,-0.185,-0.183,-0.181,-0.182,-0.181,-0.182,-0.182,-0.593,-0.179,-0.178,-0.177,-0.176,-0.176,-0.176,-0.174,-0.174,-0.175,-0.174,-0.173,-0.174,1.280,-0.174,-0.173,-0.171,-0.170,-0.172,-0.170,-0.170,-0.170
124,0.219,0.227,0.229,0.236,0.240,0.247,0.250,0.256,0.262,0.267,0.276,0.281,0.287,0.292,0.297,0.305,0.309,0.313,0.318,0.321,0.325,0.326,0.329,0.335,0.336,0.338,0.339,0.341,0.344,0.343,0.344,0.346,0.345,0.346,0.056,0.348,0.350,0.350,0.349,0.351,0.351,0.352,0.351,-0.505,0.351,0.354,0.355,0.355,0.356,0.358,0.358,0.357,0.358,-0.009,0.357,0.356,0.359,0.358,0.360,0.360,0.362,0.364,0.362,0.360,0.361,0.362,0.400,0.364,0.365,0.363,0.364,0.363,0.365,0.363,0.364,0.363,0.365,0.367,0.365,0.537,0.366,0.365,0.364,0.364,0.366,0.366,0.367,0.368,0.368,0.367,0.366,0.367,-0.042,0.369,0.367,0.366,0.366,0.368,0.365,0.368,0.369
125,-0.357,-0.371,-0.384,-0.400,-0.414,-0.427,-0.441,-0.456,-0.471,-0.484,-0.496,-0.509,-0.522,-0.531,-0.541,-0.552,-0.560,-0.568,-0.576,-0.583,-0.588,-0.596,-0.603,-0.608,-0.614,-0.619,-0.624,-0.629,-0.635,-0.639,-0.644,-0.650,-0.656,-0.660,-0.046,-0.669,-0.673,-0.677,-0.680,-0.686,-0.690,-0.691,-0.696,0.231,-0.704,-0.709,-0.711,-0.718,-0.719,-0.723,-0.727,-0.733,-0.736,-0.396,-0.746,-0.751,-0.752,-0.756,-0.761,-0.764,-0.766,-0.772,-0.774,-0.778,-0.779,-0.781,-0.064,-0.786,-0.791,-0.795,-0.797,-0.802,-0.805,-0.810,-0.811,-0.815,-0.819,-0.822,-0.823,0.407,-0.831,-0.832,-0.837,-0.838,-0.840,-0.842,-0.844,-0.849,-0.852,-0.854,-0.857,-0.858,-1.084,-0.863,-0.867,-0.871,-0.874,-0.876,-0.880,-0.883,-0.887
126,0.350,0.356,0.359,0.361,0.364,0.365,0.367,0.371,0.373,0.376,0.377,0.380,0.384,0.384,0.388,0.393,0.394,0.399,0.400,0.401,0.404,0.408,0.408,0.411,0.413,0.412,0.415,0.417,0.421,0.421,0.421,0.422,0.426,0.426,-0.265,0.429,0.428,0.430,0.428,0.432,0.432,0.432,0.433,0.053,0.435,0.434,0.436,0.437,0.436,0.436,0.437,0.437,0.439,0.361,0.439,0.440,0.441,0.442,0.442,0.442,0.443,0.442,0.444,0.445,0.446,0.446,-0.281,0.446,0.446,0.451,0.451,0.450,0.451,0.454,0.452,0.454,0.455,0.452,0.454,0.210,0.452,0.453,0.454,0.458,0.456,0.455,0.454,0.454,0.458,0.456,0.459,0.458,0.198,0.462,0.461,0.463,0.463,0.465,0.464,0.464,0.466
127,0.291,0.297,0.301,0.302,0.302,0.300,0.296,0.291,0.290,0.286,0.281,0.277,0.273,0.270,0.268,0.263,0.261,0.258,0.258,0.255,0.251,0.253,0.254,0.254,0.251,0.251,0.250,0.250,0.251,0.249,0.251,0.249,0.252,0.253,0.223,0.253,0.253,0.251,0.252,0.252,0.253,0.253,0.254,0.210,0.257,0.258,0.258,0.257,0.259,0.260,0.258,0.261,0.261,0.259,0.266,0.269,0.268,0.269,0.269,0.268,0.269,0.271,0.270,0.271,0.271,0.271,-1.051,0.271,0.271,0.272,0.272,0.271,0.274,0.272,0.270,0.271,0.272,0.274,0.275,-0.401,0.279,0.278,0.277,0.278,0.277,0.279,0.277,0.280,0.281,0.280,0.281,0.283,-0.161,0.283,0.284,0.284,0.283,0.283,0.283,0.284,0.286
128,0.167,0.161,0.158,0.154,0.151,0.149,0.147,0.145,0.145,0.145,0.145,0.143,0.143,0.138,0.138,0.136,0.135,0.133,0.132,0.133,0.132,0.132,0.131,0.129,0.127,0.126,0.127,0.128,0.125,0.125,0.122,0.125,0.123,0.121,0.464,0.121,0.120,0.117,0.119,0.120,0.118,0.116,0.118,0.028,0.115,0.117,0.117,0.117,0.117,0.115,0.116,0.115,0.113,0.197,0.112,0.114,0.113,0.116,0.116,0.112,0.112,0.112,0.111,0.112,0.111,0.109,-0.300,0.107,0.108,0.105,0.104,0.104,0.103,0.101,0.102,0.103,0.101,0.101,0.098,-0.064,0.098,0.096,0.096,0.094,0.092,0.093,0.093,0.093,0.090,0.092,0.090,0.090,-0.328,0.086,0.088,0.088,0.089,0.086,0.087,0.086,0.084
129,-0.274,-0.287,-0.299,-0.310,-0.320,-0.330,-0.341,-0.350,-0.362,-0.370,-0.382,-0.394,-0.404,-0.415,-0.428,-0.436,-0.447,-0.455,-0.465,-0.474,-0.482,-0.491,-0.499,-0.507,-0.513,-0.520,-0.528,-0.534,-0.540,-0.547,-0.553,-0.556,-0.564,-0.569,-0.494,-0.579,-0.584,-0.586,-0.593,-0.593,-0.597,-0.601,-0.606,0.059,-0.613,-0.617,-0.617,-0.622,-0.623,-0.625,-0.628,-0.630,-0.633,0.056,-0.640,-0.641,-0.644,-0.646,-0.646,-0.650,-0.650,-0.652,-0.655,-0.655,-0.658,-0.660,-0.502,-0.664,-0.667,-0.668,-0.670,-0.670,-0.673,-0.676,-0.677,-0.678,-0.679,-0.683,-0.684,0.558,-0.688,-0.690,-0.690,-0.693,-0.692,-0.695,-0.696,-0.699,-0.701,-0.700,-0.703,-0.703,-0.422,-0.707,-0.710,-0.713,-0.715,-0.715,-0.717,-0.718,-0.721
130,0.415,0.403,0.394,0.386,0.378,0.370,0.365,0.360,0.356,0.352,0.347,0.343,0.339,0.335,0.331,0.327,0.321,0.313,0.303,0.289,0.273,0.254,0.240,0.216,0.197,0.178,0.157,0.137,0.116,0.099,0.078,0.059,0.038,0.019,-0.241,-0.019,-0.038,-0.055,-0.073,-0.091,-0.108,-0.125,-0.139,-0.499,-0.172,-0.187,-0.204,-0.217,-0.231,-0.245,-0.260,-0.274,-0.285,-0.243,-0.311,-0.324,-0.334,-0.345,-0.357,-0.370,-0.381,-0.393,-0.404,-0.415,-0.426,-0.438,-0.063,-0.457,-0.466,-0.477,-0.488,-0.500,-0.510,-0.520,-0.531,-0.542,-0.552,-0.563,-0.574,-0.634,-0.595,-0.603,-0.615,-0.624,-0.633,-0.643,-0.654,-0.661,-0.673,-0.682,-0.692,-0.703,-0.042,-0.721,-0.729,-0.741,-0.750,-0.758,-0.768,-0.779,-0.788
131,-0.109,-0.116,-0.121,-0.125,-0.128,-0.131,-0.135,-0.138,-0.141,-0.145,-0.149,-0.153,-0.157,-0.160,-0.165,-0.169,-0.175,-0.183,-0.192,-0.205,-0.214,-0.228,-0.244,-0.261,-0.282,-0.301,-0.319,-0.337,-0.356,-0.374,-0.393,-0.411,-0.429,-0.447,-0.391,-0.480,-0.496,-0.511,-0.526,-0.542,-0.556,-0.570,-0.584,-0.377,-0.611,-0.625,-0.639,-0.651,-0.664,-0.676,-0.688,-0.701,-0.714,-0.169,-0.740,-0.752,-0.763,-0.776,-0.787,-0.800,-0.810,-0.822,-0.833,-0.845,-0.855,-0.866,-0.887,-0.888,-0.898,-0.908,-0.919,-0.930,-0.942,-0.952,-0.961,-0.972,-0.981,-0.991,-1.002,-0.063,-1.022,-1.032,-1.041,-1.050,-1.059,-1.068,-1.077,-1.085,-1.094,-1.104,-1.113,-1.121,-0.005,-1.138,-1.146,-1.156,-1.164,-1.173,-1.181,-1.190,-1.198
132,0.328,0.320,0.314,0.308,0.301,0.293,0.288,0.283,0.279,0.274,0.269,0.265,0.261,0.256,0.251,0.246,0.239,0.231,0.227,0.220,0.209,0.213,0.205,0.210,0.211,0.203,0.200,0.200,0.198,0.196,0.193,0.188,0.191,0.190,-0.100,0.189,0.190,0.187,0.190,0.188,0.187,0.185,0.187,0.854,0.185,0.186,0.183,0.185,0.185,0.186,0.185,0.184,0.186,0.523,0.184,0.183,0.185,0.186,0.187,0.187,0.187,0.186,0.188,0.187,0.187,0.186,-0.893,0.186,0.187,0.189,0.186,0.188,0.190,0.192,0.193,0.192,0.193,0.192,0.191,0.599,0.191,0.191,0.192,0.192,0.193,0.192,0.192,0.193,0.192,0.191,0.193,0.193,-0.063,0.195,0.193,0.193,0.194,0.194,0.196,0.195,0.194
133,0.330,0.320,0.313,0.308,0.303,0.298,0.294,0.290,0.287,0.284,0.280,0.277,0.273,0.270,0.266,0.262,0.257,0.250,0.240,0.228,0.214,0.197,0.176,0.155,0.132,0.108,0.090,0.071,0.049,0.033,0.017,0.002,-0.015,-0.029,-0.493,-0.055,-0.063,-0.073,-0.082,-0.091,-0.100,-0.111,-0.116,0.088,-0.132,-0.134,-0.137,-0.145,-0.148,-0.153,-0.159,-0.161,-0.167,0.216,-0.171,-0.172,-0.174,-0.175,-0.177,-0.178,-0.178,-0.180,-0.180,-0.181,-0.183,-0.182,0.054,-0.182,-0.182,-0.179,-0.181,-0.179,-0.182,-0.180,-0.180,-0.176,-0.176,-0.176,-0.174,-1.141,-0.173,-0.172,-0.173,-0.170,-0.170,-0.169,-0.168,-0.167,-0.162,-0.160,-0.158,-0.159,0.588,-0.157,-0.153,-0.150,-0.149,-0.148,-0.147,-0.143,-0.141
134,-0.116,-0.121,-0.124,-0.128,-0.130,-0.133,-0.134,-0.136,-0.137,-0.139,-0.139,-0.140,-0.143,-0.145,-0.145,-0.147,-0.149,-0.153,-0.158,-0.161,-0.168,-0.182,-0.198,-0.210,-0.228,-0.244,-0.259,-0.272,-0.287,-0.303,-0.317,-0.328,-0.340,-0.353,0.081,-0.375,-0.383,-0.391,-0.400,-0.411,-0.415,-0.421,-0.429,-0.248,-0.442,-0.444,-0.452,-0.458,-0.463,-0.466,-0.472,-0.476,-0.481,-0.391,-0.489,-0.492,-0.498,-0.502,-0.502,-0.506,-0.511,-0.513,-0.518,-0.518,-0.521,-0.523,-0.756,-0.528,-0.528,-0.531,-0.531,-0.535,-0.537,-0.537,-0.540,-0.541,-0.543,-0.547,-0.547,-0.623,-0.552,-0.552,-0.554,-0.557,-0.558,-0.559,-0.561,-0.563,-0.565,-0.566,-0.568,-0.571,0.575,-0.575,-0.577,-0.579,-0.580,-0.581,-0.584,-0.585,-0.588
135,-0.203,-0.197,-0.193,-0.188,-0.186,-0.181,-0.178,-0.175,-0.173,-0.173,-0.169,-0.168,-0.167,-0.167,-0.167,-0.167,-0.166,-0.166,-0.166,-0.167,-0.167,-0.168,-0.166,-0.163,-0.160,-0.158,-0.153,-0.153,-0.148,-0.142,-0.137,-0.135,-0.131,-0.127,-0.484,-0.119,-0.115,-0.110,-0.105,-0.101,-0.096,-0.093,-0.086,-0.079,-0.077,-0.079,-0.073,-0.068,-0.064,-0.060,-0.059,-0.057,-0.050,-0.717,-0.045,-0.043,-0.036,-0.032,-0.031,-0.023,-0.017,-0.018,-0.011,-0.010,-0.001,0.003,0.056,0.013,0.017,0.018,0.024,0.025,0.029,0.033,0.036,0.040,0.044,0.048,0.052,-0.810,0.057,0.064,0.065,0.068,0.073,0.078,0.082,0.085,0.089,0.091,0.094,0.102,-1.224,0.109,0.113,0.117,0.119,0.125,0.127,0.131,0.135
136,-0.336,-0.337,-0.337,-0.337,-0.339,-0.340,-0.339,-0.338,-0.338,-0.336,-0.337,-0.336,-0.334,-0.335,-0.331,-0.329,-0.328,-0.327,-0.328,-0.326,-0.331,-0.330,-0.329,-0.330,-0.332,-0.336,-0.334,-0.341,-0.337,-0.342,-0.342,-0.345,-0.343,-0.345,-0.027,-0.345,-0.349,-0.353,-0.354,-0.355,-0.354,-0.357,-0.356,-0.459,-0.361,-0.366,-0.366,-0.365,-0.367,-0.370,-0.367,-0.367,-0.368,-0.533,-0.370,-0.372,-0.373,-0.376,-0.379,-0.380,-0.379,-0.381,-0.382,-0.385,-0.388,-0.390,0.166,-0.392,-0.395,-0.395,-0.396,-0.400,-0.402,-0.404,-0.408,-0.409,-0.410,-0.412,-0.417,0.378,-0.420,-0.424,-0.425,-0.428,-0.430,-0.433,-0.434,-0.437,-0.441,-0.444,-0.446,-0.449,0.519,-0.452,-0.455,-0.456,-0.459,-0.463,-0.468,-0.470,-0.474
137,-0.435,-0.430,-0.427,-0.426,-0.424,-0.426,-0.427,-0.429,-0.431,-0.433,-0.435,-0.437,-0.440,-0.442,-0.445,-0.449,-0.454,-0.460,-0.465,-0.474,-0.486,-0.503,-0.517,-0.533,-0.556,-0.565,-0.579,-0.593,-0.608,-0.625,-0.637,-0.646,-0.656,-0.667,-0.009,-0.690,-0.701,-0.712,-0.721,-0.734,-0.740,-0.750,-0.758,0.588,-0.775,-0.781,-0.790,-0.797,-0.804,-0.811,-0.820,-0.827,-0.832,0.031,-0.839,-0.847,-0.852,-0.857,-0.865,-0.872,-0.879,-0.882,-0.888,-0.894,-0.901,-0.906,-0.222,-0.918,-0.924,-0.929,-0.933,-0.940,-0.942,-0.947,-0.950,-0.955,-0.961,-0.963,-0.967,0.443,-0.974,-0.978,-0.987,-0.988,-0.994,-0.997,-1.003,-1.005,-1.009,-1.015,-1.018,-1.025,-0.046,-1.034,-1.037,-1.041,-1.044,-1.050,-1.054,-1.059,-1.061
138,-0.030,-0.031,-0.031,-0.030,-0.028,-0.025,-0.023,-0.022,-0.020,-0.018,-0.016,-0.013,-0.012,-0.011,-0.010,-0.008,-0.007,-0.004,-0.003,-0.003,-0.001,0.000,-0.003,-0.002,-0.005,-0.009,-0.017,-0.022,-0.023,-0.028,-0.033,-0.041,-0.048,-0.055,0.097,-0.067,-0.071,-0.077,-0.083,-0.092,-0.098,-0.103,-0.109,-0.850,-0.118,-0.122,-0.128,-0.133,-0.138,-0.142,-0.148,-0.152,-0.156,-0.374,-0.165,-0.169,-0.172,-0.175,-0.178,-0.183,-0.187,-0.191,-0.194,-0.196,-0.200,-0.202,-0.323,-0.209,-0.211,-0.214,-0.219,-0.220,-0.223,-0.229,-0.230,-0.234,-0.235,-0.237,-0.240,0.192,-0.245,-0.249,-0.250,-0.252,-0.254,-0.258,-0.258,-0.261,-0.264,-0.264,-0.267,-0.269,-1.130,-0.275,-0.276,-0.277,-0.280,-0.283,-0.285,-0.287,-0.288
139,0.258,0.262,0.265,0.267,0.272,0.274,0.276,0.279,0.282,0.286,0.288,0.290,0.296,0.301,0.305,0.310,0.319,0.329,0.342,0.356,0.375,0.395,0.418,0.437,0.461,0.483,0.502,0.524,0.542,0.561,0.577,0.596,0.607,0.623,0.205,0.650,0.662,0.675,0.685,0.699,0.707,0.719,0.725,0.129,0.744,0.755,0.764,0.769,0.776,0.784,0.793,0.802,0.804,-0.239,0.815,0.824,0.826,0.830,0.838,0.841,0.845,0.852,0.853,0.860,0.862,0.866,0.390,0.873,0.876,0.880,0.883,0.889,0.890,0.891,0.894,0.897,0.900,0.901,0.904,0.182,0.910,0.910,0.916,0.917,0.919,0.921,0.923,0.924,0.927,0.931,0.932,0.933,-0.403,0.937,0.937,0.938,0.941,0.942,0.945,0.947,0.948
140,0.104,0.105,0.104,0.100,0.097,0.094,0.086,0.077,0.063,0.050,0.042,0.035,0.024,0.019,0.009,0.000,-0.005,-0.008,-0.014,-0.016,-0.018,-0.022,-0.022,-0.029,-0.028,-0.029,-0.030,-0.032,-0.033,-0.031,-0.031,-0.030,-0.030,-0.028,-0.462,-0.027,-0.028,-0.028,-0.026,-0.027,-0.025,-0.023,-0.022,0.340,-0.019,-0.020,-0.021,-0.017,-0.017,-0.015,-0.016,-0.013,-0.011,0.375,-0.010,-0.008,-0.008,-0.005,-0.005,-0.004,-0.003,-0.004,-0.000,0.003,0.003,0.002,0.408,0.005,0.006,0.006,0.008,0.010,0.012,0.012,0.012,0.014,0.015,0.018,0.018,-0.262,0.019,0.021,0.023,0.022,0.025,0.026,0.027,0.027,0.029,0.030,0.031,0.033,0.003,0.034,0.033,0.034,0.037,0.039,0.041,0.040,0.040
141,0.071,0.059,0.047,0.034,0.018,0.002,-0.016,-0.038,-0.060,-0.080,-0.098,-0.115,-0.135,-0.152,-0.169,-0.186,-0.202,-0.220,-0.235,-0.250,-0.265,-0.278,-0.290,-0.302,-0.316,-0.326,-0.338,-0.348,-0.358,-0.367,-0.375,-0.383,-0.388,-0.397,-0.177,-0.412,-0.419,-0.422,-0.428,-0.437,-0.440,-0.446,-0.449,-0.184,-0.459,-0.464,-0.469,-0.473,-0.475,-0.479,-0.480,-0.483,-0.486,-0.768,-0.490,-0.492,-0.493,-0.496,-0.500,-0.497,-0.498,-0.497,-0.498,-0.502,-0.501,-0.499,-0.399,-0.499,-0.497,-0.495,-0.496,-0.496,-0.495,-0.495,-0.491,-0.491,-0.489,-0.488,-0.485,-0.354,-0.482,-0.479,-0.478,-0.476,-0.476,-0.472,-0.469,-0.467,-0.463,-0.462,-0.460,-0.458,0.316,-0.451,-0.448,-0.449,-0.445,-0.442,-0.439,-0.433,-0.434
142,0.224,0.217,0.211,0.203,0.191,0.179,0.168,0.154,0.144,0.132,0.121,0.116,0.108,0.100,0.093,0.087,0.081,0.075,0.075,0.072,0.068,0.066,0.062,0.065,0.066,0.066,0.064,0.064,0.067,0.066,0.068,0.069,0.070,0.073,-0.540,0.073,0.076,0.076,0.080,0.081,0.082,0.083,0.085,0.086,0.089,0.091,0.091,0.092,0.094,0.098,0.097,0.100,0.102,-0.157,0.106,0.105,0.107,0.110,0.111,0.113,0.113,0.115,0.117,0.117,0.119,0.121,-0.542,0.126,0.126,0.127,0.128,0.131,0.131,0.135,0.137,0.137,0.139,0.139,0.139,0.112,0.140,0.142,0.143,0.144,0.146,0.146,0.147,0.150,0.148,0.149,0.150,0.148,-0.287,0.150,0.152,0.155,0.153,0.154,0.156,0.156,0.158
143,-0.402,-0.414,-0.426,-0.439,-0.455,-0.471,-0.489,-0.511,-0.537,-0.566,-0.592,-0.616,-0.638,-0.660,-0.677,-0.697,-0.713,-0.731,-0.747,-0.765,-0.778,-0.792,-0.804,-0.819,-0.830,-0.844,-0.854,-0.864,-0.877,-0.881,-0.891,-0.901,-0.910,-0.921,0.791,-0.936,-0.942,-0.950,-0.957,-0.963,-0.971,-0.978,-0.984,-0.610,-0.998,-1.003,-1.010,-1.016,-1.023,-1.030,-1.034,-1.040,-1.047,0.062,-1.057,-1.064,-1.071,-1.078,-1.083,-1.088,-1.093,-1.100,-1.105,-1.110,-1.117,-1.121,0.147,-1.132,-1.139,-1.142,-1.147,-1.151,-1.158,-1.160,-1.165,-1.170,-1.176,-1.182,-1.189,0.110,-1.199,-1.203,-1.206,-1.211,-1.216,-1.221,-1.225,-1.231,-1.236,-1.239,-1.245,-1.250,0.264,-1.260,-1.264,-1.266,-1.269,-1.276,-1.278,-1.284,-1.288
144,0.200,0.187,0.174,0.160,0.143,0.126,0.107,0.083,0.059,0.037,0.028,0.015,0.000,-0.013,-0.026,-0.035,-0.047,-0.056,-0.063,-0.070,-0.078,-0.085,-0.091,-0.095,-0.100,-0.103,-0.106,-0.109,-0.113,-0.119,-0.120,-0.122,-0.125,-0.128,-0.133,-0.131,-0.131,-0.133,-0.134,-0.136,-0.137,-0.138,-0.141,0.299,-0.143,-0.141,-0.141,-0.142,-0.141,-0.141,-0.142,-0.145,-0.144,-0.339,-0.146,-0.148,-0.146,-0.148,-0.145,-0.147,-0.146,-0.145,-0.148,-0.148,-0.149,-0.149,0.126,-0.150,-0.147,-0.151,-0.150,-0.150,-0.150,-0.151,-0.151,-0.152,-0.150,-0.148,-0.150,-0.600,-0.149,-0.150,-0.151,-0.151,-0.148,-0.149,-0.149,-0.148,-0.148,-0.149,-0.150,-0.149,-0.807,-0.147,-0.150,-0.152,-0.151,-0.149,-0.153,-0.151,-0.149
145,-0.259,-0.258,-0.255,-0.253,-0.251,-0.249,-0.243,-0.238,-0.229,-0.226,-0.218,-0.215,-0.210,-0.202,-0.196,-0.193,-0.188,-0.182,-0.180,-0.176,-0.171,-0.169,-0.168,-0.164,-0.162,-0.159,-0.158,-0.157,-0.156,-0.153,-0.153,-0.154,-0.154,-0.153,-0.416,-0.154,-0.154,-0.153,-0.153,-0.155,-0.156,-0.154,-0.154,-0.610,-0.155,-0.161,-0.160,-0.161,-0.161,-0.163,-0.164,-0.168,-0.168,0.369,-0.174,-0.176,-0.175,-0.176,-0.179,-0.178,-0.178,-0.183,-0.182,-0.185,-0.182,-0.183,-0.564,-0.183,-0.184,-0.189,-0.188,-0.190,-0.192,-0.194,-0.193,-0.195,-0.197,-0.197,-0.196,-0.419,-0.200,-0.198,-0.201,-0.201,-0.201,-0.201,-0.201,-0.204,-0.204,-0.205,-0.207,-0.205,-0.941,-0.207,-0.209,-0.210,-0.213,-0.212,-0.214,-0.215,-0.216
146,0.158,0.145,0.133,0.118,0.102,0.085,0.066,0.044,0.026,0.017,0.015,0.017,0.018,0.017,0.020,0.025,0.028,0.033,0.035,0.040,0.046,0.052,0.055,0.060,0.067,0.071,0.079,0.083,0.094,0.097,0.102,0.107,0.115,0.120,-0.733,0.134,0.136,0.142,0.145,0.153,0.158,0.162,0.168,-0.130,0.177,0.181,0.187,0.194,0.198,0.201,0.208,0.212,0.219,0.336,0.228,0.233,0.238,0.243,0.247,0.252,0.256,0.261,0.266,0.270,0.275,0.279,0.103,0.287,0.290,0.299,0.303,0.305,0.310,0.316,0.318,0.322,0.326,0.328,0.333,-0.042,0.339,0.343,0.348,0.353,0.355,0.357,0.359,0.363,0.368,0.370,0.376,0.378,0.454,0.388,0.390,0.396,0.398,0.403,0.404,0.407,0.412
147,0.385,0.375,0.365,0.352,0.340,0.330,0.323,0.324,0.342,0.353,0.366,0.378,0.389,0.399,0.409,0.414,0.423,0.425,0.434,0.437,0.437,0.444,0.449,0.453,0.453,0.457,0.459,0.461,0.464,0.464,0.468,0.468,0.473,0.476,-0.122,0.479,0.481,0.481,0.482,0.483,0.486,0.485,0.488,0.322,0.492,0.494,0.494,0.495,0.496,0.498,0.498,0.500,0.501,-0.094,0.508,0.509,0.510,0.511,0.510,0.510,0.511,0.514,0.515,0.515,0.514,0.515,0.046,0.514,0.515,0.517,0.517,0.516,0.521,0.519,0.518,0.519,0.520,0.523,0.524,-0.262,0.528,0.528,0.527,0.527,0.526,0.528,0.527,0.530,0.532,0.531,0.533,0.533,-0.761,0.533,0.536,0.537,0.537,0.537,0.538,0.538,0.540
148,-0.195,-0.195,-0.197,-0.203,-0.207,-0.213,-0.224,-0.237,-0.259,-0.277,-0.294,-0.309,-0.323,-0.341,-0.351,-0.363,-0.374,-0.383,-0.393,-0.399,-0.405,-0.411,-0.419,-0.421,-0.426,-0.430,-0.431,-0.434,-0.439,-0.441,-0.446,-0.446,-0.452,-0.455,0.210,-0.459,-0.460,-0.464,-0.464,-0.465,-0.468,-0.470,-0.470,-0.009,-0.475,-0.474,-0.475,-0.476,-0.479,-0.482,-0.482,-0.483,-0.487,1.012,-0.491,-0.491,-0.492,-0.491,-0.492,-0.496,-0.499,-0.502,-0.503,-0.503,-0.505,-0.509,-0.225,-0.513,-0.515,-0.518,-0.521,-0.523,-0.526,-0.528,-0.529,-0.530,-0.533,-0.535,-0.539,-0.387,-0.542,-0.546,-0.549,-0.551,-0.555,-0.556,-0.558,-0.559,-0.563,-0.562,-0.565,-0.567,0.691,-0.575,-0.573,-0.575,-0.575,-0.580,-0.581,-0.583,-0.586
